-0.235780386956092,-0.362619888363703,0.540335729407084,0.465570448078869,0.326211884335589,0.547989746044249,-0.2767561141035,0.388083803596078,-0.179885628788131,0.176572955653754,-0.195953813436898,0.340624468328163,0.411640345500026,0.0871046213568449,0.676375701504303,0.244968469046945,0.126823934496781,-0.227173323034364,0.608442043791013,0.0665517270843294,0.785426546148018,-0.23914421060284,0.353739544079814,0.119083207075297,0.155210672935786,-0.056187273585329,0.161974136134854,0.119646884972287,0.134567998650014,0.647067254649373,0.107870947861986,-0.149655106859505,0.989288484760333,0.460370102658375,0.656586315608559,0.181028966012376,0.935795597131021,-0.0719482776660147,0.902782562482025,-0.0245602678304607,-0.35458871677997,0.0660237363230855,-0.145919021614414,0.0858685991123276,0.830124037958903,-0.153853772910748,0.252718293345165,0.677125563220584,0.257505937149157,0.0265308385302751,0.698970592272114,0.403014951807649,-0.701552581282996,-0.226307271305141,-0.24325642934055,0.127674765572202,0.532991393790782,0.0870646699379695,-0.457837444126387,-0.160962530447046,0.356341660913281,0.0560580406605638,-0.438766791350239,-0.135391422479403,0.157670548169702,-0.205895964640984,0.61137191921753,-0.608793613846034,0.261985645529094,0.436025121909455,-0.758834767983579,0.699237981312885,0.590345765859757,0.455535247926928,0.116068791382504,0.332733296832769,0.0378268564926905,0.330363453673377,0.256832071179206,0.35131330748115,-0.31040511822294,-0.0299295150341828,0.928921159586976,0.388361290571999,0.458268140114065,-0.113221008791947,-0.336928289297768,-0.219344060834289,-0.194126057099221,0.16477162662572,0.591516225272551,-0.127093531731264,-0.141574126915853,0.799095601590867,0.104715267048514,-0.0882957263953361,0.206477941139829,-0.547106639332185,0.00138519554065357,0.577830802414379,0.343982437112339,-0.188805136637677,-0.348185113354201,0.655683668970398,0.331843614042884,0.0849433085897295,0.688288006474425,-0.471908726757892,-0.123526575420863,0.313559746287038,-0.0322192857285305,0.413660953573012,-0.484219284807103,0.337867886957544,-0.463302980241126,0.912854672777537,0.389647352381698,0.391472371894837,0.231000501896138,-0.23004511925846,0.330502434120521,0.528662398095614,-0.34718262984176,0.0253679957072783,-0.456154527940404,-0.0259930361857194,-0.499432569894364,0.701329162707277,0.618857826162327,0.0657254622757235,-0.61908310525412,0.484313190949005,0.501551294853786,-0.166566957948539,0.744410449437082,0.50198733760052,0.320372911073469,-0.0271534931371321,-0.477628124762731,0.127819895861653,-0.242315208656999,-0.144314339452349,0.826830085406804,0.542640903720746,1.08177583979178,0.359698755615739,0.139032677384765,0.76564903220148,0.902431253842417,0.282226164622012,0.261303034778854,0.733835372551082,-0.245262879461897,0.38801216755783,0.907680007006171,0.361629112106571,0.135693752786758,0.323338645355559,0.514396433938397,-0.0776386643093258,0.313798652347599,0.281013066706901,-0.219558649784871,0.741408754116823,0.512727809895354,0.933864730213768,0.351935553406169,-0.0326356572786152,0.139796474987213,-0.345573792828868,0.0675535018066446,0.695436408150169,0.71902951143188,0.433016633070592,0.339318162469755,0.762396417852947,0.048137898022545,0.319534051883521,1.30169262746641,0.699286553414409,-0.0718879801176613,0.0902238865064414,-0.418307407959292,0.311522979971072,0.25737378916489,0.905302202040071,0.508169507670935,0.0275818338026615,0.67991482433612,0.0223085096856284,0.744710802691646,0.838842265641361,-0.262118112010062,0.495686743266772,0.380934167390296,0.334442338506899,-0.589587444345379
-0.21810504746071,-0.304842895080343,0.542151419017942,0.492385384056809,0.330319191578679,0.569830161284801,-0.231372361673327,0.41599436119224,-0.119031658808532,0.219750997682442,-0.178907163644907,0.353835670683125,0.410068837639568,0.104679448418449,0.686146057862045,0.258445260490729,0.113101920427136,-0.201679674461491,0.594907269374806,0.0623027938043965,0.78174879492118,-0.20866617934747,0.378378501784885,0.128834842314315,0.204007221209775,-0.0207337319351194,0.163452947453314,0.173346400740792,0.157561492437,0.626481506934486,0.115193495405669,-0.124829383777321,1.01120842580414,0.462544407670415,0.680288107756373,0.223349451554886,0.926189921433646,-0.026327327680809,0.892108354321627,-0.00978354718433856,-0.311907798202869,0.0841965953424574,-0.112735630580744,0.141602838285931,0.855179030546988,-0.139346550336184,0.264705693672092,0.723392704838449,0.318006766592328,0.0521576065992257,0.691335734189176,0.433758929746516,-0.662592627318054,-0.212701806592371,-0.211547008282618,0.161071348262223,0.490684496466551,0.0990909130477277,-0.422873494823614,-0.0989646948263808,0.35672433850116,0.0794056376021276,-0.386430267191065,-0.0967033763549263,0.186613028615233,-0.149067227478548,0.646335188745142,-0.520998160664024,0.306424931805182,0.409533459799463,-0.680291297253748,0.699923819730113,0.598445781601203,0.47587675531825,0.120229564194104,0.377313994297352,0.0594054824135356,0.306328709308008,0.291420247849438,0.354878748389812,-0.27517261632144,0.00323365626828038,0.92673645428622,0.428955288616376,0.512187118305398,-0.088936006265652,-0.314604945631321,-0.206995736756532,-0.128255138523457,0.153244439099089,0.546681040774002,-0.124557818497125,-0.107338908852902,0.830617613715478,0.112025896358858,-0.0847333724499674,0.194602275089965,-0.511831249331612,0.0201540497370617,0.548113735674612,0.344601797084263,-0.181105588981447,-0.314050648149867,0.655731127211727,0.338275385227057,0.104419072838873,0.705675023048068,-0.414549686344031,-0.0928628735015558,0.332308248317289,-0.0273657091516991,0.407224235172369,-0.455838723643741,0.34863880084847,-0.395393966818956,0.876233634610076,0.386895860895331,0.407865220856647,0.233009760258091,-0.212955689735208,0.333452611561406,0.535394907371779,-0.307711432958998,0.0696337140118776,-0.411736554539626,-0.0214304517757735,-0.473735816474126,0.700919359074964,0.643332556568852,0.0520359874247421,-0.559169939781353,0.478261056404936,0.514653879775839,-0.135269144206857,0.756457029573909,0.508414938569071,0.315680887031375,0.00644867237440578,-0.438235869690649,0.180760578378547,-0.215078692066413,-0.137223572266193,0.761512712077535,0.54538318210605,1.08226228860346,0.410254515541089,0.169861485053797,0.774572738106851,0.938673789321992,0.271831344706842,0.26174074361771,0.71304044394105,-0.216914647704816,0.410379248866285,0.847902296403271,0.369579488378612,0.139953098643105,0.320585192090435,0.551553299382435,-0.0383529957528807,0.325477070635646,0.270501463229334,-0.187129317330621,0.727148457960028,0.538557455379161,0.955772952677503,0.376581672423637,-0.0123516626877582,0.148824011706499,-0.279552428645862,0.10192513739496,0.70599261816048,0.720439097171558,0.432962473007084,0.337396849884013,0.764844189679099,0.0925166658268603,0.350755107602737,1.28832001702041,0.731276989450444,-0.0228173767255669,0.122367376074497,-0.372146533956067,0.349774214051215,0.279339996063183,0.923425738358437,0.528982978562172,0.0752148040358646,0.690104582992627,0.0798693044020786,0.762963088793712,0.82088614164439,-0.247394110501359,0.499721879250702,0.422106329118535,0.339386862584641,-0.524569896680228
-0.200474602529427,-0.247065355710411,0.543938049424281,0.519233525566646,0.334403872215268,0.591637562654858,-0.186001455514898,0.443894095223411,-0.0581692498815445,0.262898750043227,-0.161818160821898,0.367064718802234,0.408506025625011,0.122249870179598,0.695946944529886,0.271946473921236,0.0994204462266829,-0.176143722786335,0.581404500206773,0.0580709869793923,0.77810759849889,-0.178130420800386,0.402988052758966,0.138529246397897,0.25273386613568,0.014690569746195,0.164913436874218,0.227079431796052,0.180519252877881,0.605876197161276,0.122557456702934,-0.0999673980003123,1.03317558040771,0.46469263959126,0.704045644048677,0.26569494758863,0.916595197237577,0.0192266463999801,0.881434857709622,0.00495565591865427,-0.269185810378174,0.102405472778781,-0.0795090256114007,0.197316433748835,0.880281149669645,-0.124839086987695,0.276752616294232,0.769670474140083,0.37850796066807,0.0778078322651018,0.683656344584576,0.464520475056899,-0.623647504715518,-0.199114323985866,-0.179846931579576,0.194470704792761,0.448347989874418,0.111133242201228,-0.387925054631482,-0.0369562200492137,0.357171612589553,0.102745832397874,-0.334086818208154,-0.0579558656984935,0.215590247657425,-0.0922324977876234,0.681326269539558,-0.433166510992169,0.350888784943888,0.383011345511915,-0.601756688765375,0.700670776538558,0.606581713556479,0.496217057560336,0.124377392621194,0.421855916214673,0.0809503417794677,0.282297565906998,0.32607899814605,0.358492524683506,-0.239919587242422,0.0364223245741454,0.924539125058306,0.469667446810555,0.566060143933397,-0.0646605569868849,-0.292273684463795,-0.194620306670761,-0.0624309242878577,0.141741836420259,0.50190084817646,-0.121951581956069,-0.0731041547431974,0.862188931646392,0.119307401045129,-0.0811656017976266,0.182728819870014,-0.47653488186062,0.0388809386950566,0.518430476463445,0.345213491556289,-0.173421596477425,-0.279879263613513,0.65581100882323,0.344748186283773,0.123903102751942,0.723052500558582,-0.357210726527524,-0.0622278024396347,0.35096293806525,-0.0225128746039194,0.400780407230212,-0.427407439424539,0.359360548841142,-0.327441352062074,0.839667312216334,0.384122315157649,0.424221355054729,0.2350122515015,-0.195855918170682,0.336373395297477,0.542093155604366,-0.268258550219917,0.113927328852518,-0.36730959782807,-0.016852104063607,-0.447939996795911,0.700494252815362,0.667834708642095,0.038363447987854,-0.499210698931071,0.472186919442008,0.52772527660445,-0.103916870949426,0.768476260150287,0.514842306059337,0.310980090735152,0.0400152274759878,-0.398788587943724,0.233675813160673,-0.187851299395664,-0.13014116919394,0.696249309374321,0.54810471913183,1.082759696074,0.460848229621049,0.200609574340742,0.783579672629911,0.974902423965316,0.261414506686695,0.262155006118679,0.692218330011943,-0.188578573393521,0.432736492807578,0.788159225535451,0.377542868628856,0.144178262374707,0.317769716052788,0.588735334614738,0.000887191021042282,0.337205985823162,0.260043423667899,-0.15468589132824,0.712899010917757,0.564394098973419,0.977660047554022,0.401221724726433,0.00792552593632261,0.157815713281785,-0.213484559440328,0.136302630804816,0.716512492903854,0.721898035498016,0.432905808281276,0.335445286415243,0.76728770262803,0.136919777248919,0.382031422037984,1.27504235914748,0.763269158685386,0.0262388277016636,0.154549770618874,-0.325956201015043,0.388038787280411,0.301278876239222,0.941539749690348,0.549786069607901,0.122858266402807,0.700272496674977,0.137384006447581,0.781231555818593,0.802903332050227,-0.232650001858608,0.503716841302215,0.463326444803338,0.344317304576753,-0.459548548365386
-0.182985697517422,-0.189278411407943,0.545636734805546,0.546192668551252,0.338387966601957,0.613342677555768,-0.140675239389863,0.471761879526572,0.00271541690608769,0.30597225165365,-0.14461869704556,0.380344912293355,0.406960835577539,0.139781678591487,0.705834655205673,0.285517758822974,0.0858653796190729,-0.150514795609117,0.567968806840501,0.0538931674826579,0.7745739835513,-0.147396322050205,0.427481447261424,0.148052945476049,0.301256501120912,0.0500140204444874,0.166340996845948,0.280869642619707,0.203398525880072,0.585187067050295,0.130039521245631,-0.0749886970301077,1.05529176938216,0.466753338606692,0.727939861261218,0.308108812673971,0.90702700461438,0.0645425588883978,0.870721205871803,0.0195937606430018,-0.226324121899479,0.120726729795741,-0.0461530866907192,0.252978013308098,0.905530785295965,-0.110350734751135,0.288980385555482,0.815963185700827,0.43899582564076,0.103498754152037,0.675859831138097,0.495357385980937,-0.584763536854188,-0.185559467181311,-0.14817789852659,0.227853481662699,0.405910837129522,0.123236373502579,-0.353019076737821,0.0250633549870909,0.35779659176835,0.126062639621154,-0.281730684896774,-0.0190288231474547,0.244628785251151,-0.0353833071234791,0.716390335223835,-0.345222182792718,0.395430618394527,0.356421494200146,-0.523262206884789,0.701548835269092,0.614813687706755,0.516515441173258,0.128492964879702,0.46626380367354,0.102344198072346,0.258279324359558,0.360924479574072,0.362260026177316,-0.204622215066853,0.0696984023800745,0.922338539810317,0.510732246385817,0.619772245826756,-0.0404178935930618,-0.269920176254698,-0.182157327618224,0.00321886794865135,0.130325542975939,0.457262030923674,-0.119097316226378,-0.0388358337711206,0.893901663347497,0.12653034590769,-0.0775975480615771,0.170844262139542,-0.441202249653305,0.057504169704755,0.488867036584277,0.345809738843463,-0.165810999289893,-0.245587130942763,0.655933535710226,0.351319402788546,0.143473433537848,0.740388603648766,-0.299943762152477,-0.0316866954948682,0.369364900469996,-0.0176385526035308,0.394313561310498,-0.398800214930983,0.369935071268695,-0.25935513326773,0.803254122235905,0.38128508324027,0.44047797772759,0.23699160699352,-0.178733823048478,0.339193244221705,0.548646777140021,-0.22885573534101,0.158334847074832,-0.322841979787551,-0.0122318959694581,-0.421813265371883,0.700061750833034,0.692409147154296,0.024777792752271,-0.439144240730988,0.466064330831709,0.540704278194143,-0.0724038249099257,0.780378915638753,0.521272781290193,0.3062446684132,0.0734640186771084,-0.359149371574479,0.286492194031005,-0.160650219566686,-0.123080632790331,0.631175838966819,0.550769666997593,1.08327857045235,0.51153393534406,0.231131607507538,0.792810544521289,1.01107753820277,0.250947579998453,0.262517783020227,0.671353966723327,-0.160289969752881,0.455044604466713,0.728550790806488,0.385514965018572,0.148328829742442,0.314740974158881,0.625982114960082,0.0400121214494302,0.349108492641318,0.249793963633915,-0.122205019996366,0.698628693426272,0.590229290361991,0.999464711220481,0.425825043856094,0.0281505269605039,0.16668610303412,-0.147290560628045,0.170674035674631,0.726881451629793,0.723515955631549,0.432866593852101,0.333401493135885,0.769715582761772,0.181402370003562,0.413461221938421,1.26205260142657,0.79528794359519,0.0752739484957502,0.186799531018901,-0.279676989900878,0.42633953240142,0.323167615460118,0.959564495460202,0.570524708183829,0.170539201833975,0.71040336377933,0.194766631118089,0.799538249580683,0.784822005418879,-0.21781924213454,0.507602472517341,0.504691510436273,0.349230139914732,-0.394535212827894
-0.16577557414773,-0.13146622311987,0.547159930376058,0.573396354668523,0.342077553332593,0.63484842341366,-0.0954723228130064,0.499566566811438,0.0636329159185548,0.34897894006133,-0.12722384487012,0.393696553968896,0.40544667793611,0.157158743671794,0.715898504408831,0.299207239341339,0.0725418932513622,-0.12477761356226,0.554568301596879,0.0497749316932308,0.771209955378073,-0.116228125491257,0.451713969756507,0.157237426443876,0.349402634113234,0.0850832158484818,0.167731292157371,0.334686743105249,0.226218125654731,0.56424266637195,0.137724265824239,-0.0497730525261869,1.07769281798612,0.468631596172894,0.752012489268302,0.35063670775654,0.897527175824359,0.109310189489938,0.859805640889249,0.0340522873860309,-0.183162582823225,0.139275266604947,-0.0125541545947222,0.308567609876868,0.931098029314306,-0.0959897175558129,0.30154915917733,0.862264604391374,0.499434849728026,0.129201608009477,0.66786524979951,0.52639783386763,-0.546037363867972,-0.172019397654818,-0.116584784195467,0.261156583149765,0.363262751963751,0.135447422911838,-0.318197256414254,0.0870178698347212,0.358705609131641,0.149335728781726,-0.22938586600926,0.0202289691845993,0.273697373032374,0.0214916519219704,0.75156659441915,-0.257057982882824,0.440136662556993,0.329735283076142,-0.4448798345842,0.702568467740484,0.623234722276932,0.536658444782722,0.13252517701236,0.510395711483923,0.123322011984428,0.234335538066994,0.396070283852132,0.366343417294217,-0.169291764323655,0.103150215318233,0.92021683280455,0.552524829184002,0.67312744764332,-0.0162507371992882,-0.247501154849975,-0.169520754933518,0.0684698078496859,0.119077647458704,0.412844203015715,-0.11567776130161,-0.00438611642844757,0.925889410190343,0.133709928346971,-0.0740632982846876,0.158883432781794,-0.405892400146544,0.0759697017532232,0.459536177150126,0.346385329820242,-0.158398630318734,-0.211024378959597,0.656018404273899,0.357983538403451,0.163349900319359,0.757604841380716,-0.242841888535503,-0.00135964138090317,0.38736058462902,-0.0126589956916472,0.387801793929456,-0.369799077123551,0.380211873616292,-0.191030756098521,0.767137249344766,0.378312992973962,0.456541255002242,0.238906767987425,-0.161585363365507,0.341797826102447,0.55484889923641,-0.189534712020817,0.202995355196722,-0.278277640867995,-0.00753603971006094,-0.395010771416621,0.699701965308946,0.717109016908474,0.0114494288949445,-0.378904188165765,0.459851116621349,0.553494861094191,-0.0405970545206157,0.791999588213182,0.527719363755704,0.301406024081996,0.106629037898486,-0.319087922460194,0.33908198517224,-0.133509401427619,-0.116071532713418,0.566565158186087,0.553325561997043,1.08380253934692,0.562357811064599,0.261267596844507,0.80242893894733,1.0471108093612,0.240415527440813,0.262806464955226,0.650506804844245,-0.132119272357768,0.477233907601066,0.669300003632571,0.393440537084914,0.15238984417487,0.31127769439422,0.663332618210301,0.0789495344403411,0.361383749436363,0.240024741236476,-0.0896819343868259,0.684212118216228,0.616007868359791,1.02102954375589,0.450294226824663,0.0481892654524316,0.17529171817208,-0.0809148510595231,0.204983217745464,0.736843728745352,0.725507642246575,0.432907318434068,0.33116845966089,0.772077348261332,0.226049501606971,0.445175940460017,1.24963981677485,0.82741627945984,0.124321782778309,0.219029932744631,-0.233222552251823,0.464708460274039,0.345021943295186,0.977283004568431,0.591053287045507,0.218301232822762,0.720514783564555,0.251896278014759,0.817877319319435,0.766499185545363,-0.202765337340699,0.511277304659553,0.546352014149847,0.354153490338206,-0.329584451646694
-0.148938109301377,-0.0736171134754402,0.548398237082233,0.601010810894934,0.345166949803141,0.656057979440089,-0.0505355830493158,0.527272605984653,0.124596671521663,0.392030008078827,-0.109541230592504,0.4070762564003,0.403970941964666,0.174151869221618,0.726280484946979,0.313021216661627,0.0595129182355507,-0.098978547340359,0.541061654824777,0.0455897432470408,0.767977964970793,-0.0843613196863552,0.475565137168471,0.165870937614215,0.397026063174194,0.119628815007049,0.169049201151197,0.388475613913456,0.249117768359827,0.542748921423436,0.145673008093969,-0.024193723682234,1.10047406035923,0.470216008276495,0.776235980295534,0.393317580571534,0.888202116076461,0.153152748667872,0.848396542406719,0.0482169248789182,-0.139571357812223,0.158175283543866,0.0213772673430507,0.364110491326958,0.957200494353515,-0.081979713930255,0.314612181709032,0.90859190518158,0.5597912902281,0.154816740483799,0.659588394604696,0.557826429816951,-0.50758497907689,-0.158448847852002,-0.0851473929853768,0.294303330005649,0.320285584248406,0.147718119496033,-0.283524480772661,0.148690344066626,0.359937795044601,0.17254890884999,-0.177122349394386,0.05991085640212,0.302717800368544,0.07840225170371,0.78685074937044,-0.168567761256381,0.48512777612832,0.302899636009991,-0.366712297370859,0.703680025239742,0.631984114618976,0.556491336274028,0.136368695721266,0.554123798807796,0.143522443295723,0.210628069646368,0.431589725833166,0.370901720884221,-0.133984511213402,0.136845181153904,0.918319004748725,0.595545060737927,0.725906215535146,0.00778829552982693,-0.224917073714803,-0.156630374990227,0.133079264187363,0.108035005817301,0.36871170926189,-0.111309828608306,0.0305333996271574,0.958299693763077,0.140925236196105,-0.0706331757754181,0.146736651879456,-0.370787021615688,0.0942297815614916,0.430483279743044,0.346932867924179,-0.151331968037167,-0.175979731229863,0.655906556490559,0.364602426677166,0.18385407530438,0.774566106391597,-0.186035412169754,0.028576459597637,0.404851410865513,-0.00744205546692111,0.381233203512896,-0.340140182888561,0.390004905101685,-0.122400783372271,0.731509459662134,0.375075531629215,0.472238229125355,0.240681192779569,-0.144413761890599,0.344081821752654,0.56045252021916,-0.150312647916786,0.248007486804165,-0.233573621331067,-0.00271034082653305,-0.367229459320784,0.699554046568027,0.741999365500696,-0.00138066994338834,-0.318388446287194,0.453455276215116,0.565949436316969,-0.00837555647981021,0.803153926435659,0.534202071343015,0.296348322952227,0.139245558559266,-0.278318612442574,0.391320464128746,-0.106485359483094,-0.109167865102735,0.502828190361907,0.555689767540735,1.08427259322134,0.613343263350106,0.290916762012389,0.812587641048463,1.08284511687936,0.229795780766848,0.262967861999946,0.629819330651656,-0.104159504762274,0.499234949909361,0.610754778778741,0.401229635034096,0.156360287081369,0.307210692942483,0.700818762217023,0.117624932324246,0.374235250872441,0.231028169629976,-0.0571704736714307,0.669481762506805,0.64161328331562,1.0420689074928,0.474451093118881,0.0678191032404093,0.183451336502995,-0.0143799974005731,0.239133797300337,0.746018899869469,0.728175318515308,0.433096271473572,0.328616204004422,0.774241944833637,0.270954060137578,0.477308411863616,1.23812412256409,0.859796691309949,0.173442903339062,0.250995266008065,-0.186513755434166,0.503203930134108,0.366872393169058,0.994407420642684,0.611165177846966,0.266205825581704,0.730644877217139,0.308616731007271,0.836191011567581,0.747764315870431,-0.187301019233789,0.514585397317423,0.588509615248778,0.359116633215195,-0.264786467534095
-0.132444777537674,-0.0157282050098316,0.549196585531067,0.629161872122788,0.347341069295187,0.676866886361,-0.00602772504829724,0.554836308999599,0.185643475339734,0.43526641346175,-0.091515859294358,0.420378992373106,0.402492157580293,0.19044276584228,0.73715645491544,0.326925664432107,0.0468063064842676,-0.0732318247932729,0.5272437255375,0.0411167741986081,0.764764326864028,-0.0515759472608708,0.498976635413409,0.173711015082019,0.444050923572576,0.153302971230587,0.170199295191347,0.442196276647597,0.272337630270383,0.520414925576334,0.153950000851643,0.00184584675723567,1.12364469842718,0.471372740939533,0.800576781987105,0.436153180961706,0.879221780663099,0.19572886074324,0.836175068136417,0.061901803026481,-0.0955700630293905,0.177553004387823,0.0556918127718623,0.419695622215839,0.984020246727659,-0.0685340776166596,0.328307455932302,0.954985188244797,0.620056110956213,0.180172612248414,0.650927546996369,0.589831999212985,-0.46947918808805,-0.144806641806077,-0.0539945712375893,0.327222207527346,0.276856509039423,0.159855787059208,-0.249082310899685,0.209770183846759,0.361503677255523,0.195704699919949,-0.125005275485194,0.0999942386840995,0.331593459861494,0.135320794279049,0.822186780164315,-0.0796666898003636,0.530557631263152,0.275818002289288,-0.28887501912841,0.704805343288528,0.641194005652082,0.57589075872073,0.139928514526376,0.597341068464584,0.162604721040306,0.187366094800032,0.467494201758092,0.37602005344524,-0.0987297140653854,0.170788927009747,0.916770005975626,0.64028054376544,0.777919394124727,0.0316615829983105,-0.202040698881895,-0.143423372477466,0.196841676556045,0.097195109143129,0.324950011538523,-0.105661248382618,0.066248422327819,0.991222779973739,0.148306091056039,-0.067417810492034,0.134325906712668,-0.3361396074182,0.112211362993365,0.401681660260255,0.34744249912307,-0.144691983159658,-0.140229485792047,0.655451049172911,0.37097704689599,0.205288389798941,0.791087577773953,-0.129684931400853,0.0579392581533167,0.421728728182325,-0.001865700490793,0.3746107371574,-0.309581231864879,0.399144355058943,-0.0534262738758194,0.69657471296904,0.371362971009085,0.487306322047354,0.242235053601383,-0.127226940655156,0.346016694709752,0.565207035821707,-0.11120683855111,0.293374338247302,-0.188698146256722,0.0023399909981011,-0.338276719374775,0.699746787560755,0.76719305567003,-0.0134731873876552,-0.257472698690758,0.446804170021365,0.577836432365345,0.0243586688034276,0.813665560064043,0.540718239434074,0.290968263925351,0.17100766461327,-0.236509089056383,0.443133548232048,-0.079660035383616,-0.102411555800657,0.440425048801541,0.557733837207692,1.08463332983581,0.664489591752938,0.32004289059938,0.823372370327332,1.11804596631253,0.219014005823395,0.262874994535597,0.609501018992138,-0.0765050420733717,0.520970980962635,0.553321372658119,0.408782421308727,0.160190209130992,0.302480434650565,0.738474481210172,0.155937133154928,0.387829934372046,0.223091968546891,-0.0247619772958891,0.654285118739562,0.666902329365256,1.06220307477729,0.498094017969758,0.086785948161563,0.190947487596406,0.052255958082467,0.273006294354209,0.753965953821778,0.731749428841391,0.433457388605084,0.32558490331459,0.77600255816312,0.316198159233753,0.50994383155246,1.22774779048276,0.892574534297666,0.222620066454292,0.282398857867306,-0.139523631552175,0.5419433851505,0.388717515902222,1.0106969469724,0.630666107343618,0.314345458112816,0.740860823391971,0.364727709363132,0.854378488001626,0.728523076569044,-0.17120658047333,0.517310169341276,0.631416160776892,0.364110990075423,-0.200208700037049
-0.116177422704329,0.0421578612270063,0.549328487594217,0.657853474399645,0.348368815436799,0.697143839090108,0.0379246357126356,0.58219996188282,0.246817791961007,0.478785314565783,-0.0731589261425843,0.433481156792459,0.400951892228752,0.205678815889273,0.748670202159427,0.340894270972134,0.0344553282131779,-0.0476748725502434,0.512892387234303,0.0361786274149963,0.761482323296996,-0.0177375208893113,0.521946479090429,0.180524227695243,0.490476356189439,0.18577580849792,0.171048778108039,0.495805990261422,0.296185091529726,0.497096611430584,0.162642230758575,0.0283544676229371,1.14712369013716,0.471975602599865,0.825010144807079,0.479032526944236,0.870788827506112,0.236786395479945,0.822872447831379,0.0748710470248118,-0.0513187832729717,0.197547522196075,0.0904420481716526,0.475445832498214,1.01163926708049,-0.0557447533788589,0.342728262053855,1.00144834172695,0.680236936549631,0.205078345938689,0.641780055690789,0.622548367458934,-0.431736389959832,-0.131067311054303,-0.023308092566276,0.35982372375871,0.232863033863999,0.171594248943803,-0.214969804664796,0.269942587358814,0.363429642069629,0.218849636923697,-0.0730508911902737,0.140331318904456,0.360220468924502,0.192158752508599,0.85750485228102,0.00966869933999791,0.576568418012569,0.248401238336937,-0.211512792079436,0.705817826272624,0.650945993752248,0.594846562279278,0.14319093372087,0.639955522198546,0.180312259740195,0.164759986823345,0.503676867018489,0.381740523398829,-0.0634709857412166,0.204882748968427,0.915629466362158,0.687040331968701,0.829040144732814,0.0553609908609065,-0.178762294169938,-0.129852246891997,0.25960281878776,0.0865757520018659,0.281659842026121,-0.0985330058168577,0.103004810169464,1.02465478929847,0.15600367188516,-0.0645204736479428,0.121628359871729,-0.302208156730986,0.12982592736015,0.373098220130381,0.347896881024203,-0.138448908240885,-0.103590011653455,0.654575195383779,0.376964647961239,0.227832993604587,0.806931595183937,-0.0739429277274974,0.0866060829029406,0.437866328674934,0.00415258592427927,0.36793880206856,-0.277941851509494,0.407513463439612,0.0158810393923801,0.66251294851737,0.366926921804265,0.501522117728953,0.243522078854389,-0.110052355337689,0.347684834211968,0.568889762294378,-0.0722658699790481,0.339005985281519,-0.143581837823135,0.00774944689719055,-0.308045759409692,0.70033272187828,0.792895930878655,-0.0246138093235438,-0.19606106592069,0.439952933764025,0.588845286939098,0.0576446207733714,0.823388154423406,0.547204248769695,0.285230546797499,0.201629715548005,-0.193314796651371,0.494500249117617,-0.0531657938368569,-0.0958059791822094,0.37977008437003,0.559303771825835,1.08488451691779,0.71580844274029,0.34866184449519,0.834726181485913,1.15243002202168,0.207952153939506,0.262352986576259,0.589850103373017,-0.0492390803390576,0.542353092230783,0.497394450211253,0.415977403050161,0.163743584900966,0.297129762823425,0.776343110583828,0.193727606762881,0.402327157872432,0.216534730167441,0.00745897674144066,0.638473870015424,0.691779484425893,1.0810006392618,0.52107332394735,0.104863985023325,0.197537615228879,0.118943753914525,0.306466956531018,0.76023985930707,0.736320277386776,0.433972632674432,0.321926239955725,0.777102525137627,0.361826015045265,0.54312141276855,1.21861640244861,0.92583215802319,0.271655967715668,0.31298456323181,-0.0922842423631544,0.581110230106923,0.410519105186427,1.02597862767754,0.649390341787898,0.362811595425143,0.751309599527588,0.419993999639417,0.872265678329306,0.708780552868247,-0.154271585060109,0.519213957459764,0.675340836537399,0.369094710413473,-0.135851021887743
-0.0999944964627565,0.0999225289782095,0.548565365340509,0.687004037235532,0.348097856655536,0.716752632527165,0.0812536577957921,0.609325472001484,0.308158528521066,0.522612124537832,-0.0545366930087792,0.446276378850095,0.399323168100734,0.219531391225454,0.760908055797009,0.35490280813994,0.0225123757938648,-0.0224285649625785,0.49784394869629,0.0306930947780889,0.758063452008019,0.0171826384342289,0.544539628583321,0.186126319673462,0.536357298419086,0.216803539692949,0.17150845020359,0.549244376292004,0.321042790019518,0.472804226486256,0.171818343129845,0.0552414270745455,1.17076040388245,0.47192370287326,0.849449305662401,0.521752740859608,0.863060694717449,0.276186535995412,0.808278947517378,0.0868898783957649,-0.00702456937619,0.218291436046326,0.125695255196939,0.531469258607514,1.04007646917362,-0.0435802761666605,0.357906512851014,1.04791604346957,0.74031692191693,0.229386448581199,0.632083940671825,0.656032499493918,-0.394357127222317,-0.117215854239045,0.00671900997759025,0.392024556643716,0.188274709420119,0.182737997507345,-0.181289762257275,0.328919329622061,0.365748098078217,0.24206102205333,-0.0212357399338608,0.180695400931253,0.38850933966519,0.248799908289016,0.892740279561164,0.0993840371112369,0.623248561711568,0.220577688770775,-0.134805154146504,0.706536439571088,0.661290275717289,0.61345087364225,0.146271369724149,0.681895446071961,0.196492541878646,0.143006139790341,0.539926272407546,0.388168926099579,-0.0280937689530822,0.238940526099452,0.914922681133545,0.735946334236673,0.879205411661392,0.0788727121555172,-0.155019434747493,-0.11584812062142,0.321299384790147,0.0762272812764549,0.238936448568917,-0.0898796465013413,0.140915630637511,1.0585180326041,0.164167027028341,-0.0619662019538833,0.108630956686395,-0.269228974205284,0.14702335878169,0.344723583420912,0.348299051977602,-0.132496811271364,-0.0659061833375724,0.653224845053235,0.382541090959959,0.251523431838284,0.821810364866888,-0.0189509206146587,0.114514033804045,0.453195354366687,0.0106280965171829,0.361200174696558,-0.24508397569236,0.414992767249197,0.0854499977019614,0.629510699462872,0.361539877625821,0.514825084125021,0.244520958032497,-0.0929645013043925,0.349258777423018,0.571319343433375,-0.0335678035209029,0.384768668817184,-0.0981296488686143,0.0136597865525847,-0.276520301929298,0.701293718673585,0.819384263979313,-0.034626312919856,-0.134125489736046,0.433101218837974,0.598655637573374,0.0914625392364523,0.832255640226051,0.553554041707959,0.279165178812962,0.230850773167866,-0.148428040301959,0.545433630189993,-0.0271656125733945,-0.0893268160490066,0.321223761463352,0.560289480687165,1.08504846321699,0.76735009280156,0.376861177753567,0.846463989760165,1.18572735790534,0.19646162349707,0.261247346378119,0.571185622935565,-0.0224320390106989,0.563274420645139,0.443302458576911,0.422678146477113,0.166858509114601,0.291294311418691,0.814466614173525,0.230793402263613,0.41788702274207,0.211668754169104,0.0394079212435066,0.621896901086977,0.716203077774079,1.09804301288355,0.54333119275247,0.121905732177759,0.203005653639949,0.185663318682549,0.339379378103555,0.764471441640971,0.741943095875205,0.434636891911573,0.317568826653962,0.777271493404201,0.407833383674267,0.576860078960165,1.21073414828798,0.959579506088283,0.320207847144546,0.34255922794013,-0.0448763173131347,0.620905507470656,0.432222442472249,1.04016027484176,0.66723154816395,0.411654632241917,0.762246864255498,0.474179423849506,0.889578625995954,0.688578893336617,-0.136346155643145,0.520097255619772,0.720503066462353,0.374011301973361,-0.0716718394543827
-0.0837264015758195,0.157401560177063,0.546804441698127,0.716522785509406,0.346360823935799,0.735593043087713,0.123977521869868,0.636206814332228,0.369726697370819,0.566686457255734,-0.0357654637608133,0.458676545382089,0.397615039456903,0.231735424841924,0.773926160021714,0.368904216979875,0.0110533108271444,0.00237584568444715,0.482102007980689,0.0246565131449018,0.754420820535047,0.0531086170318237,0.566835403148496,0.190407325464226,0.58180207608596,0.246259790354752,0.171609434751307,0.60245692280363,0.347368635764475,0.447658034416991,0.181452142496345,0.0823929681323833,1.19434865216031,0.471092172265734,0.87370658359851,0.564089986701017,0.856142851001189,0.313883136789744,0.792239545837848,0.0977453194980504,0.0370789198324656,0.239928145388066,0.161515586790476,0.587845030232955,1.06941483459615,-0.0319594218985566,0.373815152876055,1.09430700933523,0.800244593422366,0.252975499329868,0.621812178922408,0.690304956682433,-0.35735425254893,-0.103211723521727,0.0359196024559724,0.423804590788128,0.14320927218954,0.193234684512452,-0.148075698966,0.386435074339237,0.368481001149019,0.265426278533851,0.0305045065082106,0.220903165122853,0.416381712927189,0.305126238776405,0.927834898947342,0.189416677812418,0.670635234022752,0.192242253689455,-0.0589141146316391,0.706746001205288,0.672252995754048,0.631834221027504,0.149379197906197,0.723090579719202,0.211058182706475,0.122239122161145,0.576022144657407,0.395476446833849,0.00750301241992492,0.272738464028028,0.914674164458637,0.787043828667801,0.928345584181475,0.102106869824988,-0.130770610629798,-0.10130779438399,0.381954275313442,0.0662352177988963,0.19691055696194,-0.0797768871943906,0.179976830146706,1.09267837811898,0.172987559559874,-0.059695397907448,0.0953144301222059,-0.237398378132781,0.163800418199502,0.316567314850168,0.348737508833204,-0.126684080409635,-0.0270356761855901,0.651381213659414,0.387816387906214,0.276300851270025,0.835445814878708,0.0351382532442427,0.141696892315056,0.467736366275591,0.0175023951639509,0.354319438944966,-0.210873590958769,0.421427251836957,0.155198993298547,0.597770990598112,0.355001978210469,0.527321719347017,0.245231325295836,-0.0760963665853377,0.350967907983057,0.572376679062148,0.00482264887307883,0.430556057658349,-0.0522877885941674,0.020157736582413,-0.243776883551232,0.702657617454214,0.846961005573064,-0.0434000006173375,-0.0716977023347864,0.426553373782675,0.607026781236677,0.125785590301055,0.840324424951087,0.559695452616314,0.2728344503751,0.258434902216352,-0.101594270710472,0.595991588568217,-0.00178188419013045,-0.0829447752928946,0.26512985226847,0.56066602613233,1.08511488351791,0.819199051211867,0.404796970577367,0.858420306583004,1.21775557530589,0.184380194483166,0.259442167084427,0.553744137890333,0.00383013362888596,0.583609899241037,0.391316552937319,0.428785334495583,0.169411808677625,0.285175036729645,0.852875420768202,0.266950199210317,0.434616951030961,0.208697015816628,0.0709900022200188,0.604381779115195,0.740192575840334,1.11298474665428,0.564880741897205,0.137857968495687,0.207193204521158,0.252401097435915,0.371650772739785,0.76638383215124,0.748708609476033,0.435522705442125,0.312515994856882,0.776246788385508,0.454207566192276,0.611159882461812,1.20402216192068,0.993784008676658,0.367893861878177,0.370988311367108,0.00256571877965754,0.661485504332829,0.45378938245981,1.05325280878478,0.684175278170851,0.460863748593568,0.77402675471663,0.527091418691116,0.905972275187711,0.667952872376923,-0.117323447953264,0.51980496406544,0.767030553268776,0.378809627286681,-0.00762368064432887
-0.06714614350272,0.214442227263543,0.544094520402283,0.746321680779303,0.342923263856959,0.753627484418928,0.166211940260805,0.66282253426046,0.431622322650264,0.610902158965304,-0.0170170389471239,0.470572966251927,0.395863643500387,0.242101540495614,0.787780077452608,0.38283086900882,0.000174413909741228,0.0265810103584683,0.465866769510024,0.0180934674772534,0.750426910053255,0.0899220456183938,0.588876888870324,0.193369686745411,0.626982182590222,0.274113145268278,0.171502600708357,0.655444768881911,0.375618572931541,0.421854844991039,0.191377694327919,0.109755349100589,1.2176240550545,0.469353028920148,0.897534003675375,0.605821702360262,0.850194901774627,0.349886702477789,0.774665308927487,0.107213777100364,0.080686041233853,0.262649580798359,0.197948745685454,0.644624867517688,1.09987494485214,-0.020817322238142,0.390382310084604,1.14062183797297,0.859974677329591,0.275661653409525,0.610978178089191,0.725367413223506,-0.320752830979987,-0.0889480120543874,0.0641777997785172,0.455210813767109,0.0978909601351733,0.203113805405119,-0.115268084214788,0.442230937273667,0.37163700782764,0.289026982451855,0.0822687320844376,0.260884269524183,0.443797965451762,0.361015433621591,0.962733902500651,0.279774794338737,0.718739118571454,0.163260368282222,0.016057616645136,0.706227661068194,0.683842953460511,0.650118710420927,0.152686972098012,0.763478679299951,0.223969586423259,0.102469340511386,0.611817780541469,0.403805088330505,0.0433561632574232,0.306039357606246,0.914921695987224,0.840378941158014,0.97635389083702,0.124883090240462,-0.105912901808436,-0.0861664062408811,0.441623916847758,0.0567178099612704,0.15579946457218,-0.0683978581180215,0.220122915067394,1.1269587237825,0.18271129169794,-0.0575796712975548,0.0816876963188722,-0.206846335479608,0.180180894373951,0.288664947537202,0.349402384047094,-0.120819199286364,0.0131628633520574,0.64916537576329,0.393004805191667,0.302087248277966,0.847637627147497,0.0881897538070313,0.168320251908008,0.481598916072642,0.0246454493371897,0.347159579439575,-0.175155323052738,0.426696958377406,0.22505481509465,0.567482466302748,0.347151565532901,0.539216345244733,0.245667467293482,-0.0596382729970664,0.35304773591506,0.572019887609855,0.0428961539875312,0.47630287294103,-0.0060957500254112,0.0272362720653757,-0.209993879065169,0.704570382531734,0.875924161282663,-0.0508885405696173,-0.00882258011084792,0.42064370090772,0.613871009026992,0.160622281904414,0.847808670585599,0.565649496393338,0.266304280780639,0.284185186486153,-0.0526108003219323,0.646314909596936,0.0229675306958493,-0.0766616933732673,0.211849261476815,0.560482152402535,1.08500637574836,0.871464692152296,0.432632385522309,0.870591293197086,1.2484498406339,0.171578998309376,0.256865282256846,0.53762175556641,0.0294291062695382,0.603243782595074,0.341699032358354,0.434257535771035,0.17133559890118,0.278991573972208,0.891610972847597,0.302091927277264,0.452538988846864,0.207637849404698,0.102096251327259,0.58574330523349,0.76385301708982,1.12556608822708,0.585765197386201,0.15273508606146,0.209982457796077,0.319132394941131,0.403278542608804,0.765761181694921,0.756745261473071,0.436759545880631,0.306808083141461,0.773769386026131,0.500953352463805,0.645988708582872,1.1983277897839,1.0283892652596,0.414378670633835,0.398148386546564,0.0498595269172272,0.702943959101183,0.475202361983299,1.06529469954268,0.700283912623935,0.510335737266816,0.787027056754933,0.57858307627756,0.921108182948966,0.646883083970786,-0.0970949898916269,0.518228684526393,0.814973517307757,0.383457807885326,0.0563056119377065
-0.0499969473134237,0.270932522546068,0.540546263642871,0.776293177696581,0.337537265949656,0.770868181786116,0.208104636644675,0.68909402741934,0.493917745832616,0.655157763108896,0.00148039731382123,0.481855946513845,0.394121851698592,0.25051147312357,0.802522828662606,0.396665357059504,-0.010016017210386,0.0500179050583399,0.449413644885343,0.0110878780631868,0.74591352112379,0.127533645127879,0.610644913887025,0.195108133548333,0.672116550713271,0.300392770324822,0.171411242504671,0.708282237553303,0.406148680745111,0.395593339503443,0.201345236048196,0.137348549368948,1.24026416994629,0.466630567195605,0.920717567498102,0.646704975924863,0.845487925837245,0.384185514112529,0.755532283489338,0.115073804552807,0.123454234105501,0.286698388546046,0.23504239038295,0.7018439977427,1.13170800185706,-0.0100958527165764,0.407529884781476,1.18695089736597,0.919488961147815,0.297189093561052,0.599645018180033,0.761182673176311,-0.284579355765266,-0.0742498407937035,0.0914610357253562,0.486304974114338,0.0525589727457483,0.212388051838567,-0.0827494402493355,0.49606741712957,0.375263100568277,0.31292910641537,0.134155567469171,0.300666543044517,0.47079661566045,0.416342228175481,0.997393389776039,0.370534242873645,0.767578590755995,0.133525657667623,0.0900638464796091,0.70480391404758,0.696052420375163,0.668382284489952,0.156267995417946,0.803001802989862,0.235214792553792,0.083586956477048,0.647257518085321,0.413207338977582,0.0794597097966558,0.338629454169514,0.915701316983643,0.895978382156266,1.02311092912612,0.146982460853309,-0.0802415622743476,-0.07043338361821,0.500335238343835,0.047804787810847,0.115899889444192,-0.0559677373550784,0.261302256719249,1.16116206579725,0.193542778286093,-0.0554808114886913,0.0678157588360515,-0.177647501237543,0.196205677824208,0.261115237651113,0.350535285726871,-0.114661883145046,0.0548286054268276,0.646843816593356,0.398339897945821,0.328834071274687,0.858260560105783,0.140115847500843,0.194610886922351,0.494942409335597,0.0318835428679921,0.339545096666698,-0.137740415900304,0.430772548981634,0.294962111169042,0.538766080460337,0.337884664453983,0.550709956363496,0.245823338562995,-0.0438364347195296,0.355691390093276,0.57027386560271,0.0807046999832388,0.521980407959958,0.0403521180081944,0.0348476172588155,-0.175433832711099,0.707205622300696,0.906519527921591,-0.0570552257982836,0.0544700648475395,0.415684872645829,0.61926542271766,0.196030919262775,0.855038953237853,0.571535325048182,0.259654884231257,0.307942044241865,-0.00130603087258585,0.696634926407352,0.0471751621129498,-0.0705148150818514,0.161760748526846,0.559795134937844,1.08459271488913,0.924273051248773,0.460417660203541,0.883028031755484,1.27779815581122,0.157966542755383,0.253513129381466,0.522787684771339,0.0542525437398656,0.622044232767177,0.294727987348336,0.439069897024865,0.172600035637067,0.272914650579888,0.930767331928736,0.336208257753281,0.471646609670706,0.208380118468342,0.132639171113543,0.565812960645149,0.787361746109042,1.13558093386469,0.606073562966841,0.166604570738277,0.21129436654272,0.385846894000289,0.43439978482861,0.762396623430601,0.766154442996059,0.438410760133499,0.300504711940232,0.769565626500981,0.548053048346405,0.681297527773982,1.19346930625017,1.06331374182503,0.459445761513738,0.423905158292661,0.0968245654228276,0.745323935266133,0.496462255509008,1.07628738363589,0.715614073986895,0.559870194086355,0.801543051372073,0.628502370872896,0.93473721535132,0.6252886646243,-0.0755277876416812,0.515313317656188,0.864359023541672,0.387957402785452,0.120082114833966
-0.0320635291652619,0.326829400567549,0.536290500779995,0.806296104936244,0.330023562124949,0.787367043068317,0.249778196741254,0.714904596355995,0.556591675772214,0.699391454997782,0.0194736273563152,0.492493107223752,0.392456262456328,0.256914600055478,0.818209639561369,0.41047180078975,-0.0194204078789211,0.0725188165104134,0.432986506697639,0.00383604921980266,0.740693859735299,0.165898336360889,0.632053159964835,0.195773941776603,0.717470033291725,0.325172153237698,0.17159063654013,0.761142228323197,0.439199506421279,0.369032315633064,0.211152355668748,0.165278985535891,1.26193370605892,0.462878759364755,0.943190236765072,0.686527290501042,0.842322952300014,0.416694700587145,0.73485837635301,0.121089918690659,0.165080092160777,0.312336645424479,0.272831603113227,0.759524336296416,1.16509669138479,0.000299205475987546,0.425206433615293,1.23345161042093,0.978787428731669,0.317237117850445,0.587912110870835,0.797699503074121,-0.248832126871613,-0.058905264710228,0.117828850731828,0.517199782960033,0.00741891784624015,0.22101776559482,-0.050379283694776,0.547722101439863,0.379491666922214,0.337228638443041,0.186266561244019,0.340339899897167,0.497489197913286,0.470988243274198,1.03184721828286,0.461805176309814,0.817216176017413,0.103005533886855,0.163135748260219,0.702407241366924,0.708875175134312,0.686636482441722,0.160180528518498,0.841572991555444,0.244803129072854,0.0654709438636572,0.682406754162302,0.423656821020084,0.115798456094048,0.370366982511768,0.917017393210248,0.953804595340754,1.06854570626437,0.168218015167626,-0.0534860905970618,-0.0541711682635431,0.558096158478898,0.0396330435043473,0.077554150632248,-0.042715475651217,0.303492851377751,1.19513010649718,0.205594188372341,-0.0532898370744387,0.0537971928665663,-0.14981649698778,0.211938306137902,0.234068468247015,0.352362332447789,-0.107937052908571,0.0980705371847557,0.644759586006409,0.404037765663729,0.356546070940216,0.867253082136985,0.190896549726716,0.220770593630064,0.507947273121386,0.0390559880360469,0.331341207092238,-0.0984201521608721,0.433732091724387,0.364930440128993,0.511684303151873,0.327149970307944,0.561975594734997,0.245655739806221,-0.0289854466912206,0.359044069971945,0.567211094380866,0.118325705358981,0.567616615649367,0.0869512834686775,0.0429737303220565,-0.14036755192076,0.710696421218156,0.938962766286706,-0.0618829081961256,0.1181660451694,0.411930887869752,0.623421540180652,0.232167246342748,0.862377116350314,0.577554727382449,0.2529743527175,0.329611213975213,0.0524838291268132,0.747260239705444,0.0710013202757791,-0.064549537162599,0.11524146744867,0.558642609848986,1.08373382931513,0.977786463708444,0.488060341677124,0.89569148591512,1.30578327825701,0.143493287704032,0.249447884643473,0.509174164946362,0.078223803652972,0.639833250675829,0.250671164979543,0.443247267088427,0.173181035543194,0.267045222622903,0.970534338454764,0.369341931816402,0.491950208701388,0.210768456809842,0.16260315838212,0.544482227406363,0.810961097987976,1.14289212345549,0.625967785927148,0.179569384325316,0.211111380288086,0.452578484778693,0.465281305490153,0.756065679462074,0.776970953593353,0.440444060784547,0.293670758797567,0.763382975985086,0.595471309610415,0.717057610833517,1.18927575449907,1.0984973294386,0.503051781940993,0.448152460423464,0.143317850507935,0.788641066744514,0.517611009262562,1.08626403815608,0.730189624685692,0.609222021182398,0.817755086049424,0.676678138700465,0.946765400578397,0.603113431670933,-0.0524674789641255,0.511044336766961,0.915254285038933,0.392350899776556,0.18370153875605
-0.0131930677803565,0.382203966632653,0.531461117429365,0.836146831571071,0.320248938758207,0.803174888777272,0.291311243808755,0.74015556060641,0.619523480312502,0.743602543748911,0.0367313894814809,0.502551974554884,0.390918213406056,0.261333556810683,0.834853721735056,0.424404369820291,-0.027967933759837,0.0939263815526659,0.416782488968672,-0.00337408342045981,0.734638624397141,0.205026238179682,0.652998868284989,0.195581373226869,0.763316585822177,0.348572062440937,0.172333763633611,0.814269973314086,0.474951949887321,0.342264550483127,0.220684409662031,0.193717822414085,1.28233773422702,0.458074619193988,0.96504499131903,0.725173790123673,0.840989918228099,0.44724965351047,0.712639467427017,0.125025085628815,0.205319271229256,0.339792931179825,0.311358379021198,0.817664360233853,1.20016642962423,0.0104853528819824,0.443403591641735,1.28032727740338,1.03788656240898,0.335440266084188,0.575894139089107,0.834873890542449,-0.213460198123934,-0.0427053748201807,0.143451701104219,0.548063465126535,-0.0373955121328104,0.228941022537139,-0.018012707299403,0.596965531946435,0.384531630583137,0.36205976764092,0.23873157756268,0.380043111346599,0.523987460194048,0.524840485047592,1.06626522570335,0.553718907838749,0.867756588259472,0.0716968433217758,0.235374138990076,0.699063473732847,0.722264613993731,0.704842777298879,0.164524335328315,0.879047595203858,0.2527422566938,0.0480456012517348,0.717447210448844,0.435070778507359,0.15237135120534,0.401136043699106,0.91879954158096,1.01376436929051,1.11265961334567,0.188449888835666,-0.0253903316061438,-0.0374724052522114,0.614932829326496,0.0323839340280819,0.0411047217127207,-0.0288316318591309,0.346636417776809,1.22878045675725,0.218946070629345,-0.0508800582981645,0.0397193958795655,-0.123303083341153,0.227416077812501,0.207642038075545,0.355014292243699,-0.100370452743551,0.142972708574496,0.643299096466812,0.410271764090489,0.385279388790521,0.874614853467295,0.240551258193434,0.246997112408851,0.520781824153046,0.0460538424183806,0.322544004553498,-0.0570108772904673,0.435739159395836,0.435063130249301,0.486247100686294,0.314922364002558,0.573198644557135,0.245090236291252,-0.0153707286497283,0.363238226831095,0.562932039316344,0.155848832625853,0.613278120829156,0.133607465731058,0.0515960350964331,-0.105019787768599,0.715163238598441,0.973482091086286,-0.0654105791824665,0.182306117274284,0.409560727673036,0.626625321404223,0.269300825056049,0.870181431666804,0.583934874094362,0.246279830224959,0.349162206609581,0.10892117780188,0.798560127709338,0.0946092550897907,-0.0588160622380758,0.0726544590284767,0.557062465843424,1.08233012706923,1.03223952034099,0.515386620039891,0.908440816312428,1.33239529805993,0.128160035898724,0.24475315942236,0.496735532031936,0.101327323320052,0.656389340813051,0.209761665939228,0.446878454296892,0.173051316942637,0.261471476777984,1.01119369055045,0.401506174705203,0.513515792270015,0.214655730573494,0.192033166056448,0.521703067166258,0.834973165403211,1.14741640929083,0.645603189448997,0.191755218812565,0.209458784705667,0.519419638081373,0.496273618157086,0.746527410434459,0.789135260562162,0.442820563519769,0.286355659772529,0.755005017627499,0.6432236047052,0.753342601869531,1.18556515898767,1.13395175708426,0.545292951206615,0.47083383472014,0.189235187958089,0.832924108951731,0.538751959788763,1.09531826994526,0.744019945013779,0.658183062465832,0.835757225098019,0.722987306442121,0.957187178796283,0.580335957071714,-0.0277645431706888,0.505415482933544,0.967829481704048,0.396700465761782,0.247324667284636
0.00673423050275699,0.437240812418275,0.526175253402839,0.865625895954366,0.308066746300465,0.818269901845702,0.332760578882473,0.764795760378467,0.682543014165761,0.787826192921977,0.0530321045616646,0.512161367450944,0.389521651376347,0.263843303284886,0.852377090473169,0.438760847142239,-0.0355807888453032,0.114123372036289,0.400957403990684,-0.0101709002927221,0.727762301373667,0.244986426491755,0.67341092271883,0.194791377116594,0.80990980771869,0.370740821942427,0.173949823172348,0.867904510341687,0.513575273437011,0.315336909783051,0.229862866009698,0.222859273399674,1.30124761832492,0.452233099404905,0.986483813920816,0.762586717925707,0.841804472377234,0.475630292247882,0.688821448694938,0.126720031635683,0.243943153457564,0.369192188096192,0.350773638775056,0.876278493159777,1.23702336935722,0.0206020968348817,0.462175837461751,1.32779142742093,1.09685256245943,0.35144197204163,0.563688469036892,0.872674549158381,-0.178375042874616,-0.0254814876371015,0.168584378107447,0.57907056480902,-0.0818217542234295,0.236087225129726,0.014473298728544,0.643568129453699,0.390651612249233,0.387567846450665,0.291717896295213,0.419983318759252,0.550365208829949,0.577814440900683,1.10091191664431,0.646459158088455,0.919359079228887,0.0395831653203553,0.306905314420342,0.69484033885493,0.736129103784443,0.722985981890041,0.169430528433194,0.91526689709696,0.259045043515531,0.0312234644959536,0.752636661413628,0.447318029747656,0.189219462113807,0.430768185103527,0.920941816242384,1.07575790321246,1.15550584957145,0.207559807628807,0.004222866019511,-0.0204267635460971,0.670882623065235,0.0263171019829382,0.00688181441854032,-0.0143935052511456,0.390597598341447,1.26207095582853,0.233682324615562,-0.0480977871403279,0.0256597205099749,-0.0979603085153162,0.242612887581617,0.181891295278098,0.358540932791763,-0.0917096367040386,0.18960699845383,0.642905161925179,0.41716196764105,0.415071798225999,0.880409493750028,0.289104141057335,0.273573439275832,0.533563426753689,0.0528636958173574,0.313311356485504,-0.0133702301384584,0.436997869090776,0.505555537865409,0.46239399910451,0.301169888975536,0.584571683957387,0.244071614279531,-0.00319036107928101,0.368389434702787,0.557552593238093,0.193348165508393,0.659025522558155,0.180285469288069,0.0606510702746937,-0.0695355704545923,0.720698412235677,1.0103528080589,-0.0676873981380317,0.24703078817298,0.408702691695704,0.629170558836182,0.307781444169635,0.878794952125279,0.590882851084045,0.239501860095138,0.366626563407386,0.168173523365502,0.850943848270316,0.11811131787426,-0.053379640041712,0.0343307638692724,0.555087919142964,1.08036595037372,1.0879377020174,0.542168482091466,0.921091313468706,1.35768350267622,0.112024560263448,0.239476355694309,0.485452636063148,0.123621336842962,0.671463750364318,0.172211117189186,0.450076587516231,0.172221201849365,0.25630703764148,1.05305481480712,0.432666799699125,0.536513263265958,0.219961679465552,0.220981882547515,0.497468720031428,0.859820090915003,1.14909073572501,0.665056626471588,0.203337280803955,0.206359964824963,0.586566099672036,0.527762969983983,0.733546018491178,0.802475794867029,0.445553604756581,0.278565573561527,0.744237085017314,0.691366366993879,0.790351083687219,1.18210885317181,1.16977059413646,0.586283547094832,0.491921483686013,0.234501272697147,0.878266069449021,0.560044179169979,1.10354513905698,0.757129810898531,0.706650651702907,0.855593021939761,0.767394597575025,0.96597641517544,0.556953726871518,-0.00132242379567214,0.498404466569025,1.02234646124121,0.401086569212204,0.311312755096619
0.0278585000646728,0.492182422384237,0.520540447080515,0.89451819724059,0.293317432063409,0.83256397120896,0.374187601112757,0.788808046669342,0.745478542694385,0.832081375029967,0.0681493873859201,0.521504086969734,0.388273566631765,0.264520792857408,0.870651840828047,0.453972674459077,-0.0421653606506087,0.133021257154991,0.385645980135654,-0.0161129885448141,0.720212800273861,0.285887140099986,0.693270468744428,0.193671006292799,0.85751813548271,0.391856542413329,0.176724003783053,0.92225247739783,0.555235080657941,0.288356593925748,0.238625901424016,0.252853757247717,1.31855316773673,0.445374905864452,1.00777286259035,0.798734127931291,0.84509355494213,0.501616216770002,0.66335651783709,0.126149508616282,0.280711691406649,0.400532260484936,0.39138373540635,0.935444549517136,1.27574050207997,0.0308204106087061,0.481631190348131,1.37604706554586,1.15583413985364,0.364929669176175,0.551352667796905,0.911115791666243,-0.143484509496765,-0.00715642638426811,0.193523079059607,0.610383871999138,-0.125817788879074,0.242355677995466,0.0471905617573444,0.687366265242979,0.398146513873109,0.413956504440737,0.345413007857648,0.46042473930929,0.576684114408719,0.62985594094475,1.13607194596183,0.740267811288453,0.972238240317706,0.00664818551400039,0.377884163239441,0.689839291367252,0.750366652333838,0.74114097023778,0.175049494015234,0.950105388912143,0.263801726808891,0.0148426990120368,0.788243782008932,0.46023569162442,0.226453467419676,0.459080571627191,0.923365838543527,1.1397503813483,1.19718988663021,0.225417540485325,0.0354457006394224,-0.00309635268158821,0.725992201327648,0.0217219054299908,-0.0248154786381721,0.000675988480931934,0.43523432487836,1.29496566866788,0.249826383851134,-0.0448392152283371,0.0117017966150145,-0.0735176051981281,0.257506008249366,0.156826983358909,0.36298499717157,-0.0817597325050871,0.23805350603219,0.644044060042128,0.424794039964846,0.445847085476534,0.884781409158802,0.336619647674541,0.30088189421814,0.546333854644557,0.0596065363912429,0.303894535668133,0.0326334186171971,0.437723331689872,0.57666012339658,0.440035497805697,0.285852282798373,0.596279225006204,0.242616834085621,0.00744473167135327,0.374546413939185,0.551233184336881,0.230874024432394,0.704933225495164,0.227045494850053,0.0700260068220851,-0.0339835251020582,0.727311268199807,1.04994259924301,-0.0687558450199843,0.312581212136798,0.409455033294325,0.631305011136372,0.347951347740123,0.888516924272982,0.59854574699882,0.23258859123785,0.382118663705839,0.23041370915688,0.904832590659946,0.14155660292555,-0.0483298377965604,0.00052738464834728,0.552723183265562,1.07793202765966,1.14521976025956,0.56814986302912,0.933430421011059,1.3817762855055,0.0952152349110604,0.233612885325047,0.475351078080637,0.145269745133952,0.684825049877764,0.13819911160397,0.452963942079576,0.170799940080106,0.251695577549097,1.09642492280935,0.462803700564921,0.561219471679425,0.226687935721418,0.249463068185273,0.471795558396455,0.885988491903767,1.14787786979215,0.68436525283991,0.21455724684808,0.201813366359396,0.654329419922312,0.560119439972355,0.716935696830986,0.816752219923131,0.448679057781099,0.270266768468613,0.730886347016941,0.739953141134508,0.828337669806831,1.17863807004983,1.20612837560276,0.626093104315095,0.511418737737218,0.27908006954328,0.924824965536118,0.581686286058279,1.11100813728157,0.769602127851682,0.754607343220536,0.877300390366934,0.809942128373206,0.973106654562343,0.532969130258258,0.0268908110658788,0.489990179838688,1.07911500062028,0.405633044025195,0.3761022293576
0.0503639179587548,0.54725609879252,0.514646481115163,0.922669731340491,0.275912423151282,0.845935801412989,0.415617398212651,0.812201186553082,0.808202082652365,0.876397395389531,0.0818724970893649,0.530783069715255,0.387198256177966,0.263444534093637,0.889543286862218,0.470483819836972,-0.0476540517988221,0.15049235208685,0.370954254527199,-0.0208074082064005,0.712175513484093,0.327846141256152,0.712632318799336,0.192467710584456,0.906433480137188,0.412189474546889,0.180939504951702,0.977483602635348,0.600063344968533,0.261473161340808,0.246965412599049,0.283742760944305,1.33427568865361,0.437506208389199,1.02914994663774,0.833637952975413,0.851071829684626,0.525025549146728,0.636193848590849,0.123458940040764,0.315417523466503,0.433781361750568,0.433551574959538,0.995270151558059,1.31633889469765,0.0412593716100829,0.501904413086107,1.42523810897595,1.21500685530503,0.375723383542169,0.538893791810165,0.950248757833991,-0.108709226523747,0.0122066256956912,0.218587384417843,0.642099335553901,-0.169312554667228,0.24766429623525,0.0802975209036322,0.728268413414045,0.407287256220303,0.441505522454539,0.399972274991257,0.50165479286708,0.602997341162184,0.680930564352172,1.17201454301068,0.835393890689974,1.02663821555829,-0.0271064774919282,0.448494441588919,0.684183989858558,0.764891901005299,0.759448849021278,0.181482383672521,0.983508330606911,0.267233638336638,-0.0013335733097375,0.824498932751079,0.473665428304708,0.264293786029518,0.486043661537656,0.926028116541891,1.20580683359029,1.23786043199096,0.241871112331995,0.0683222911082777,0.0145080116302623,0.780279830445356,0.0188448520325493,-0.0537801130907058,0.0165616358802607,0.480486375219919,1.32745389588533,0.267306711481163,-0.0410859447524543,-0.00208012369273113,-0.0496765861571053,0.272171503300245,0.132396346101879,0.368332033114481,-0.070433238643887,0.288445883789399,0.647105052801717,0.433176606845254,0.477417237206455,0.887920887183086,0.383244355371839,0.32931317679654,0.559091298055737,0.0665129186409681,0.294562111170196,0.0811099427278357,0.438095376033139,0.648632531220763,0.419098673909943,0.268984471987613,0.60852772598907,0.240811235027767,0.0164827810408441,0.381623697065398,0.544227253486833,0.268504496343242,0.751165417678493,0.274028281586635,0.0796128436128864,0.00159590963524644,0.734972954032629,1.09265666640304,-0.0686711367314481,0.379284840912249,0.411898496251142,0.633222169160837,0.390076518717397,0.899545084044778,0.606981663077909,0.225581127360232,0.395839526128824,0.295776901956768,0.960585410840267,0.164921633837371,-0.0437702513471407,-0.028616538763593,0.54995647001306,1.07517788786297,1.20439159322134,0.593113810639566,0.94519802872381,1.40481483258745,0.0779334625044808,0.227158859828321,0.466551463666662,0.166553434512882,0.69629216680596,0.107847460664614,0.455653283282614,0.168979829034979,0.247838559915479,1.14159897999057,0.491985286177411,0.587974490573485,0.234875377275615,0.277433856118341,0.444681521637995,0.913902683976218,1.143784808592,0.703535751379067,0.225670421625818,0.195820127496055,0.723064184443143,0.593651449096765,0.696591484103649,0.831720231296792,0.452255040567214,0.261445772830381,0.714777825047577,0.789037357549299,0.867565684814561,1.17488276109852,1.24325190694839,0.664767849766883,0.529336542856065,0.323016928037671,0.972735604177088,0.603888328043618,1.11777496587352,0.781569923649837,0.802070418127774,0.900939622952261,0.850688802460168,0.978595418991415,0.508355790046581,0.0568796096116022,0.480199056713393,1.13840928009026,0.410458577086406,0.442087038848466
0.0744256044446444,0.602683763954064,0.508559906270076,0.950066853956853,0.25591111944737,0.858208916448993,0.457037531445369,0.835028419081634,0.870694645373388,0.920856939409005,0.0940393014211037,0.540131132227514,0.386309085544752,0.260732144551393,0.908909711486458,0.488593643466966,-0.0520364187230473,0.166362449665384,0.356934205991677,-0.0240297064002267,0.703772923619922,0.370916023311156,0.731572150570022,0.191435599861125,0.956901756959789,0.432102707560682,0.186867251809098,1.03367907818447,0.648147909501091,0.234744558175475,0.254931674357935,0.315517966475782,1.3484941181361,0.428635004251042,1.05075719944634,0.867368829400829,0.859749861709968,0.54574507319371,0.60716046561315,0.118914019661946,0.347957945875554,0.469003275392588,0.477503996667127,1.05580501687392,1.35881650536591,0.0518893905876816,0.523122969441412,1.47540152432426,1.2744855549875,0.383818036863855,0.526263859194579,0.990145891570719,-0.0739954597158467,0.0323917845491399,0.244069515471343,0.674255674571192,-0.212229692608439,0.252057767301356,0.11399374881506,0.766123487402888,0.418253076492685,0.470541942423946,0.455494270907737,0.543965272987087,0.629322325169568,0.731058061876442,1.20899335303215,0.932067425903631,1.08282800981854,-0.0616699941634436,0.518896876591576,0.677970645164628,0.779667087346246,0.778041891820524,0.188691489506982,1.01556205649849,0.269650189732652,-0.0175561981101743,0.861615917347189,0.487467453902477,0.303041237690682,0.511865311534706,0.928906264064079,1.27400804728658,1.27767087735585,0.256810292149224,0.102861501179172,0.032429118153213,0.833707270657136,0.0178346807170609,-0.0799367448578711,0.0334757939049151,0.526361142536668,1.35956811187472,0.286082021447912,-0.0368454306966078,-0.0156489368309142,-0.0262667185562069,0.286772363586019,0.108467027421192,0.374437857248842,-0.0577455473348798,0.341012195835981,0.65230769652247,0.442167080913294,0.509617207523415,0.889999861539585,0.4291951468751,0.359196196124893,0.571890135312403,0.0738451233176221,0.285578287000773,0.13208700403008,0.438213119451415,0.721705622431232,0.399503611866305,0.250678801203402,0.621581360825186,0.238774253769656,0.0239517844802885,0.389372647651322,0.536807415325471,0.306345135986243,0.797971124876093,0.321392804153494,0.0893729949422013,0.0371579861031197,0.743714791145872,1.13880450179274,-0.0674990321870595,0.447538393196392,0.416087099335046,0.635090039035096,0.43436117337747,0.911898931790008,0.616226851758868,0.218611825887024,0.408064572748937,0.364324219640863,1.01844632748072,0.188126754517083,-0.0398110484133905,-0.0530830750304652,0.546814241489129,1.07221490117008,1.26567240112091,0.616922001817382,0.956130762038998,1.42686017843349,0.0604195908109347,0.220155477173496,0.459270035022519,0.187757708011782,0.705760447966229,0.0812311083905909,0.458231433263457,0.166946483459096,0.244993479089758,1.18877143717889,0.520408316416489,0.617050416734684,0.244521506251964,0.304797984141134,0.41605162046674,0.943804014483669,1.13686792861998,0.722483348125652,0.236871227105719,0.188410260252017,0.793052655059599,0.628515734051328,0.672534182660128,0.847147590665205,0.456395895080462,0.252157842253498,0.695854114797315,0.838649231786053,0.908254214425724,1.17063802546697,1.28137597672929,0.702384319517836,0.545624775653714,0.366452503846559,1.02198418598479,0.626801410762083,1.12394388940438,0.7931806685696,0.849127058925494,0.926576700193437,0.889659495814117,0.982502822655105,0.483044950310695,0.0886854716543133,0.469161020617683,1.20034692180882,0.415546657800617,0.50959151693958
0.10009788930394,0.658774364236464,0.502298291044462,0.976850162672277,0.233514328714801,0.869213628768294,0.498458436312746,0.857424060825356,0.933015451703121,0.965598550938754,0.104559161136437,0.549606397068988,0.385569448249568,0.256540887837611,0.928589426039489,0.508467699422365,-0.0553095021401335,0.180541597219188,0.343594262887233,-0.0256973996143877,0.695110454850006,0.415088089478893,0.75011959017035,0.19081203187619,1.00907703769557,0.451933960435148,0.194699879436194,1.09082776784127,0.699585016207898,0.208080122041872,0.26258657457123,0.348244421893862,1.36133956182767,0.418793917314669,1.072681075053,0.900014679512676,0.871014530374889,0.563707426256836,0.575982040965928,0.112791278760126,0.378382976033632,0.506375880411746,0.523283154724165,1.11704099613278,1.40314431893241,0.0625366850210571,0.545345859207378,1.52649925272881,1.33433804181052,0.389267324108732,0.513379448639422,1.03091760874306,-0.0393190216175983,0.0530564643642556,0.270190291623334,0.706958392033008,-0.254601776255312,0.255704501734277,0.148453381521931,0.800683305675483,0.431107618677546,0.501348560783256,0.512052789559797,0.587644330026708,0.655633094552157,0.780364939507375,1.24725210566759,1.03050752620412,1.14109007331341,-0.0970463855436084,0.589192935469487,0.671237663002369,0.794655244125022,0.797040951020847,0.196466686186314,1.04650324392128,0.271329462436478,-0.0340284659606935,0.899825137713905,0.501512727878737,0.342977263551061,0.536903618651236,0.931991399379502,1.34437743702752,1.31677993359862,0.270250461429709,0.139013605168462,0.050676764841549,0.886197170828052,0.0186586652003458,-0.103346796553969,0.0515864989338091,0.572831535017878,1.3913976113101,0.306192786527409,-0.0320952830005543,-0.0290330857463898,-0.00331591883551875,0.301419079592201,0.0848548500637984,0.381070590853045,-0.0437742691452648,0.396098109602187,0.659644184689356,0.451456524097883,0.542399185588001,0.891192625663132,0.474736126152567,0.390736303389002,0.584907613841027,0.0818065579520148,0.27716121089145,0.185496829933676,0.438107497298406,0.796067700649912,0.381060547520779,0.231102908602265,0.635679545602179,0.236618096646122,0.0299758003983201,0.397527849506674,0.52911500841131,0.344496032157904,0.845595143447302,0.369293921125132,0.099288390345257,0.0726895745563247,0.753602074921733,1.18849073184777,-0.0652934984330201,0.517774010662532,0.422059900590948,0.637045460194233,0.480968032468588,0.925456236722956,0.626351985330577,0.211853645698806,0.41910606505373,0.436041150128015,1.07862905658386,0.211117296830792,-0.0365414645878363,-0.0729494614576893,0.543388843760001,1.06908360447918,1.32920819014133,0.639497088339941,0.966044661329569,1.44789447854856,0.0428811763727535,0.212682562293427,0.453709389301883,0.209034048403931,0.713240353743311,0.0583815922262498,0.460747069247801,0.164773280811627,0.243393193429723,1.23799235372102,0.548341519809751,0.648599554398486,0.255588131411565,0.331441132912556,0.385760787221653,0.975757414732225,1.12723857479989,0.74099295477452,0.248339642411931,0.179611729685068,0.86441902243273,0.664716707294466,0.644863403306547,0.862828279297031,0.461219930904253,0.242479972913702,0.674220541278205,0.888785874833735,0.950528738474175,1.1658158648292,1.32072097182693,0.739137722408171,0.560156794480252,0.409596637480389,1.07242023179493,0.65050549873587,1.12958581206326,0.804568180124892,0.895971278747949,0.954213006577661,0.926918710118328,0.984963534202526,0.456922396136255,0.12238843271974,0.457059995818347,1.2648506653247,0.42069334371358,0.578837635447605
0.127284610377675,0.715902595286089,0.495804275403731,1.00324163183691,0.209024043818645,0.87891131587467,0.539933813743665,0.879567660746778,0.995236885054476,1.01078949691927,0.113422968874925,0.559293552033951,0.384904921636814,0.251010740152159,0.948421622235349,0.530279832555524,-0.0573790092955311,0.19314908235963,0.330919173165853,-0.0257310165101239,0.686354422098202,0.460420129314334,0.768251684266413,0.190714696295161,1.06305471597615,0.471893757280167,0.204524489090863,1.14887951840918,0.754456176020799,0.181255543383159,0.270000397639369,0.382113098792407,1.37304199123503,0.408022435858559,1.09502396926113,0.931715806459173,0.884722684884482,0.578880484422556,0.542496283253758,0.105314691089259,0.406912957295359,0.546098586223674,0.57090327861491,1.17897969980696,1.44921862211096,0.0729924704076392,0.568537253581625,1.57850213564205,1.39465197911694,0.392134192752121,0.500103379087562,1.07271929069487,-0.00464797516364607,0.073856650482346,0.297117611480261,0.740445646194182,-0.296587756087851,0.258789416524375,0.183800684699039,0.831741088192746,0.445874191855937,0.534054504088888,0.569736252735854,0.632978067342922,0.68191090102808,0.829074492291983,1.28698391996698,1.13093264971991,1.20167254610235,-0.133226711198553,0.65943559752566,0.663997940607261,0.809777489156942,0.816564352010919,0.204479021662465,1.0766577917156,0.272478874575377,-0.0509454962255394,0.939376047277255,0.515641715136168,0.384308714164117,0.561508190089285,0.935288898941208,1.41691598612144,1.35538683965109,0.282361755376672,0.176648281846039,0.0691581582888043,0.937657344992211,0.0210991478633956,-0.124120706950994,0.0710310821976102,0.619838726095239,1.42307061317649,0.327647397603492,-0.0267712316216165,-0.0423229581201261,0.0190369428791973,0.316058897361085,0.0613602203136054,0.388024567347282,-0.0286442748040052,0.454119124485809,0.668957782295971,0.460671644205836,0.575806804543729,0.89174611400652,0.520197494245262,0.423987000025877,0.59837452893646,0.0904875524475819,0.269439053446928,0.241250096233047,0.437787620074842,0.871868950237907,0.363451232913761,0.210427382896533,0.650939747891158,0.234454450349031,0.0347388175905594,0.405976020450545,0.521119935775084,0.383034366257583,0.894275708459538,0.417967441572881,0.109266748374106,0.108262514853065,0.764664425063286,1.24160170439622,-0.0620266987761163,0.590393309197751,0.429914174372424,0.639124736669523,0.530043076288092,0.940105673311899,0.637433227750659,0.205450547917169,0.429276966901912,0.510856934206742,1.14138411637282,0.233959446597561,-0.0339128764097476,-0.0883701221716657,0.539774849063819,1.06576735653586,1.39508139605178,0.660789325110482,0.974940583233235,1.46792549245719,0.0254918044676606,0.204823862635341,0.449991329924835,0.230386766805667,0.71886729381732,0.0392342368571747,0.463208371672109,0.162387832041001,0.243147448544478,1.28923860392278,0.576065753542902,0.68276434786111,0.268148938511522,0.357311811000336,0.353697655207416,1.00974751311809,1.11510885608451,0.758802183902736,0.260299990431229,0.16943623274043,0.937144634400359,0.702228519989075,0.613697372654948,0.878625101832743,0.466822168794525,0.232432773953338,0.650095770509288,0.939500580812262,0.994442075279912,1.16045483378461,1.3614670989955,0.775393777957245,0.57282734759939,0.452687882562261,1.12394656995834,0.675079817514188,1.13468891593771,0.815869682921888,0.942889365124994,0.98373415711423,0.962642162449067,0.986208606933507,0.429852566725032,0.157993513893099,0.444015162555831,1.33174365399661,0.42561619779014,0.649961959123932
0.155812530125156,0.774382616365387,0.488957892165385,1.02942789712494,0.182739058254778,0.887455785651175,0.581558319971172,0.901594863525156,1.05740713479979,1.05658603470126,0.120685505976692,0.56933515739597,0.384226930639714,0.244218677277737,0.968277439544519,0.554228270679683,-0.0580653331094158,0.204479292161942,0.318865161823407,-0.0240002794795113,0.677716868783507,0.507054953337351,0.785923401162611,0.191111598722939,1.11891272321715,0.492063109084589,0.216321499874105,1.20779017021568,0.812751350953825,0.153989633118636,0.277266119444338,0.417370273833623,1.38388433922298,0.396359610701033,1.11792964946477,0.962684106200344,0.900718636369712,0.591310242389127,0.506773751934565,0.0967208855129312,0.433924079209963,0.588344999606525,0.620472695922486,1.24167125038157,1.49684956447013,0.0830798319083012,0.592600824676874,1.63145654538881,1.45558651704472,0.392579485663285,0.48625623553426,1.11569562361834,0.0300668659685934,0.094590086254811,0.324939263569174,0.775015615234892,-0.338381470449162,0.261464652175032,0.220130683681336,0.859253728708698,0.46263062755154,0.568664780997257,0.628666344435823,0.680235449048571,0.70818997836514,0.877447235696167,1.32829941704991,1.23353642731852,1.2647260658121,-0.170136837405739,0.72965540393546,0.656280466406442,0.824945754341866,0.836706020618909,0.212397248737582,1.10641475639311,0.273241266339184,-0.0685411813200994,0.980502883791102,0.529569096559262,0.427201674051628,0.585910915126485,0.938791230977733,1.4916436658871,1.39375133474794,0.29343560835111,0.215590796374708,0.0877344902026363,0.98798812695854,0.0248182768591482,-0.142381835160336,0.0919486334696801,0.667390401265762,1.45468151695477,0.350338089997421,-0.0207961253811365,-0.0556362634268707,0.040668968328739,0.330517043689063,0.037807924470975,0.395231542927491,-0.0125033243595979,0.515413170990964,0.6801291623301,0.469528242842531,0.609875052530646,0.891961116355232,0.565978127445144,0.458873518530657,0.612482185419179,0.099900015336988,0.26249222230704,0.299280857646711,0.437252806043356,0.949229656786125,0.346385807408325,0.188823188925755,0.66738426282107,0.232378968425152,0.0384293885456281,0.41477522532952,0.512688075877746,0.421983240637086,0.944271683960373,0.467729985089123,0.119100706565387,0.144020342982582,0.776860242514838,1.29790772226217,-0.0575523935335055,0.66569277847791,0.439781425939518,0.641217204593656,0.581704454190888,0.955835118205919,0.649517080704208,0.199485057337799,0.438870413336244,0.588668809416236,1.20697829911977,0.256809781165064,-0.0317119157131114,-0.0995760468210746,0.536033827873993,1.0622046460476,1.46330106159824,0.680761795744418,0.98306747582525,1.48706943779349,0.00845393802891314,0.196634185213407,0.44816988355949,0.251800809600195,0.722891704657462,0.0235755504789173,0.465588604383804,0.159646365013159,0.244244755742405,1.34247244803108,0.603884885398145,0.719705668179769,0.282407271837538,0.382446452255045,0.319867334247254,1.04573807445012,1.10081237069214,0.775772505536983,0.272965183148644,0.157926764458146,1.01116006599314,0.741073673242854,0.57917698694265,0.894442727297385,0.473265215911979,0.221987859735792,0.62380788201995,0.990968735548021,1.0400376756665,1.15470107339622,1.40370092592695,0.81159678990347,0.583643415230449,0.495945317860557,1.17666075456679,0.700653372331004,1.13917342872364,0.827238561416005,0.99017307662575,1.01492262900404,0.997101761505746,0.986538792833373,0.401738747246896,0.19536446936032,0.43008020573861,1.40084146769915,0.430113224774114,0.723056674132863
0.185491209627103,0.834423740227629,0.48157588480945,1.05549262994853,0.15486006005269,0.895132876141429,0.623448338577925,0.92359834635817,1.11955116602857,1.10309047880412,0.126400502005919,0.579889201457841,0.383432643593316,0.236195912872064,0.988053994022855,0.580458162587151,-0.0571844607206867,0.21487233233315,0.307404023309708,-0.020364896036668,0.66939190746736,0.555130323684138,0.803098785101197,0.191892081188631,1.17669115912614,0.512462091576274,0.229973627906592,1.26752771486252,0.874353462538165,0.125996710917924,0.284506758617371,0.454215267320717,1.39412209884242,0.383873871760704,1.14156109901388,0.993125553067948,0.918889436169807,0.601121908611955,0.469064640751918,0.0873714051097947,0.459902738077511,0.633314212285479,0.672137299907651,1.30520894918521,1.54581921954884,0.0926584963852559,0.617422189141147,1.68546722834929,1.51733728408187,0.390899287973074,0.471716271364741,1.15991544599775,0.0648117654256469,0.115229600974167,0.353666421303836,0.810948634846709,-0.380143488976919,0.263870008112604,0.257493764732457,0.883289384730225,0.481480493367301,0.605136860071487,0.688961267058282,0.729617895877136,0.734551939773991,0.925721405633815,1.37126043334798,1.33843223943822,1.33027137746748,-0.207667619477865,0.799870633712546,0.64811576939224,0.840043542300686,0.857542510831528,0.219942424541404,1.13615172085301,0.27365701522123,-0.0870249425403462,1.0234221726385,0.542894051001764,0.47180750339253,0.610226273240945,0.942442925557452,1.56858400881036,1.43219613771874,0.303792270381495,0.255705382500658,0.10633611290726,1.03710516972719,0.0293905981383332,-0.158300223794562,0.114431986306295,0.715580201415923,1.48626426310081,0.37404926396051,-0.0140994462272581,-0.0690371275175388,0.0615066837299703,0.344588765911601,0.0140755405402945,0.402746727335389,0.00452180419418414,0.580146982779119,0.693112487931152,0.47784408441311,0.644583129297317,0.892140132744603,0.612485370579413,0.495238671076168,0.627308653202487,0.110031101801945,0.256381269789677,0.359519089833656,0.436492458711537,1.02821036174097,0.329718063936338,0.166500526661239,0.685000448557593,0.230415162162175,0.041216303448976,0.424057484728557,0.503669367421489,0.461292417053577,0.995804977665227,0.518860182295435,0.128550871245618,0.180108518611627,0.790084553958773,1.35713604342345,-0.0516447192090164,0.743866489012779,0.451743294737276,0.643109177373183,0.635993501763712,0.97268370407713,0.662610384626559,0.193994398042556,0.448140098938386,0.669325106127312,1.27565367657599,0.27982282248006,-0.029661253958857,-0.106883550176867,0.532196101865418,1.05832780192249,1.53382998837646,0.699333924782221,0.990867551630829,1.50552052464279,-0.00800456545860476,0.188130179707757,0.448252991440008,0.273354822268368,0.725655881187348,0.0110535134996467,0.467844557071584,0.156394121648675,0.246616518437394,1.39765745965985,0.632101820876884,0.759533214938634,0.298557669386515,0.406919728674181,0.2843991654261,1.08370120181118,1.08473258251269,0.791952454341128,0.286475980418013,0.145222773481736,1.08642381315127,0.781342847545376,0.541449427765697,0.91018449314407,0.480562072844247,0.211122492735875,0.595780461968729,1.04343344524778,1.08738163542697,1.14877291805373,1.44736568328549,0.848149624078719,0.592684147194999,0.539535824461806,1.23076911419391,0.727388597065523,1.1429741103823,0.838818581584938,1.03799963258577,1.04748968398456,1.03059929274055,0.986239090209346,0.372577385590427,0.234281091354224,0.415319211108171,1.47195620972805,0.434110087588839,0.798159495593971
0.216147169279906,0.896168475873078,0.473439160518161,1.08142113996897,0.125459059066053,0.902301631990817,0.665701407184096,0.94563584066003,1.18168108435184,1.1503410967108,0.130586222686733,0.591123705451537,0.382449802353989,0.226969685296549,1.00769704514832,0.609030033381589,-0.054616440915363,0.22465216252847,0.296585372763433,-0.0147005212824184,0.661525652796692,0.60478571264856,0.819754401563874,0.19290254864179,1.23637717134897,0.533147101209343,0.245350639369512,1.3280495798855,0.939072542344831,0.0970789937166255,0.291824995150252,0.492778077704386,1.40400399090551,0.370663439282257,1.16606448222487,1.02313735663484,0.939176061999565,0.608514207128733,0.429710887471962,0.0777295975402036,0.485354189340912,0.681268442982217,0.725968008702118,1.36972036315083,1.59600768145577,0.101661376393698,0.642847700268813,1.74063929257126,1.58006836856154,0.387480967364845,0.456447107606986,1.20540204311697,0.0994648627528643,0.135853164727649,0.383321922757751,0.848505381702945,-0.421989256669018,0.266178666523752,0.29585520914934,0.904018617681583,0.5024752497546,0.643426007978525,0.750689451967216,0.781231061877721,0.76107831046236,0.974089222639164,1.41589408126578,1.44567113649747,1.39820982853853,-0.245731883948522,0.870115071320236,0.639516523256753,0.854860016319953,0.8791708557324,0.226905060995169,1.16613293161762,0.273703577797327,-0.106506971753683,1.06839098916059,0.55525571906641,0.518252039683079,0.634507592869012,0.946127272414537,1.64771732463469,1.47110278132217,0.313718836618006,0.296938117935782,0.124970373770237,1.08498140173253,0.0344058631383864,-0.172072207266018,0.138470209913543,0.764514084116637,1.51778984057911,0.398546965860354,-0.00660476662659039,-0.0824722705063703,0.0815076719797863,0.358111290464769,-0.00988816966983095,0.410738857393065,0.0223187975507169,0.648350433205613,0.707883150200563,0.485522484469881,0.679870952683193,0.892617661466453,0.660068031852679,0.532901824570181,0.64281348507133,0.120859070751223,0.251089645961933,0.421889233418585,0.435501509480693,1.10880388863191,0.313440690394359,0.143693208396644,0.703779999237848,0.228573767425022,0.0432465411482364,0.433960391992018,0.494004101832621,0.500858197974077,1.04902361985242,0.571543368977296,0.137442884153191,0.216617959976179,0.804215990860431,1.41903097680693,-0.0441113762863812,0.825027312554408,0.465796778967088,0.644589750681161,0.692862206823986,0.99072272939826,0.67667879268453,0.188997026946372,0.457278093555884,0.752602147990921,1.34756948917437,0.303141581000557,-0.0275103136638275,-0.11067826793943,0.528271850333321,1.05413940261716,1.6066285278599,0.716401269605229,0.99883777083047,1.52349958311334,-0.023654373514992,0.179284615723082,0.450242547886685,0.295243075580829,0.727572523493589,0.00125271008158763,0.469948365644657,0.152470671466881,0.250127308350797,1.4547602411483,0.660962092281564,0.802292333048068,0.316715689789632,0.430802638438373,0.247490919971777,1.12361619660641,1.06724355506683,0.807461341400129,0.300893556158794,0.131576203655521,1.16293155572031,0.823230325446003,0.500676678037153,0.925703935933991,0.488708461831872,0.199838986322641,0.566438628245918,1.09714680361431,1.13652769064852,1.14290143078503,1.49228871009268,0.885385693823203,0.600106515519284,0.583595724177427,1.28648654802496,0.755429424386327,1.14613127675218,0.850714218369089,1.08642572373357,1.08114070098306,1.06343738751646,0.98551525995671,0.342434505185839,0.274480288963259,0.399805122761655,1.5449578064591,0.437640551497265,0.875290478777324
0.247669534277768,0.959714141705519,0.464367315515495,1.10712301622326,0.0945022377738729,0.90935623871141,0.708359093932998,0.967704534657356,1.2437672159687,1.19831876893411,0.133283739035157,0.603179828929696,0.381274510069739,0.216555913828677,1.02722826437639,0.639942471854687,-0.0503527340249295,0.234148844465753,0.286525078391202,-0.00691726857966754,0.654176860457913,0.656191567288733,0.835861145818906,0.193969418433385,1.29793399489939,0.554214656650241,0.262352303309297,1.38930868556197,1.00666120984246,0.0672335771145534,0.299233118064764,0.533105036868648,1.41379777183566,0.35681964163214,1.19155914363596,1.05269502985059,0.961548306697,0.613747435839019,0.389122191191301,0.0682077241320587,0.510685708452732,0.73244598126483,0.781931182580356,1.43536698205961,1.6474883034715,0.110126125570504,0.668655628729395,1.79705375557705,1.64393569746365,0.382732247130021,0.440488186434934,1.25217924283534,0.133857931317358,0.156497128177416,0.414027702790139,0.887885269544086,-0.464059858974058,0.268569047046295,0.335116695708037,0.921759821664804,0.525606362908876,0.683446007614623,0.813821568591396,0.835049201332122,0.787834863265069,1.02269185316922,1.46217461809404,1.555293103635,1.46837806864514,-0.284326735482258,0.940465604683557,0.630486802548405,0.86912759508018,0.901706439443685,0.233157441718138,1.19647013200307,0.273371991282113,-0.127000583287013,1.1156769845441,0.566491594148683,0.566576320041793,0.658786243049202,0.949682125873724,1.7289443459682,1.51083019486074,0.323434590897317,0.339314910460556,0.143682983412774,1.13164530722341,0.0395689129524769,-0.183938281537886,0.163945092311084,0.814221037905229,1.54921449836643,0.423642010892942,0.00177203304108772,-0.0957784071422189,0.100689436724561,0.371053400376823,-0.034055559825046,0.419481770941794,0.0407211521488779,0.719938792060572,0.724494682985239,0.492640816022204,0.715649889599,0.893744875945281,0.708994865884224,0.571703592017754,0.658893049609878,0.132349230714575,0.246470244908389,0.486325891218647,0.43431324806034,1.19093433547844,0.297666248489196,0.120601562757572,0.723697718629583,0.226947709558676,0.0446361894881297,0.444637913446067,0.483740330252953,0.540515988413259,1.10400594211674,0.62588721893131,0.14565943055448,0.253616677918927,0.819178032103543,1.48342675070224,-0.0349424508296328,0.909131309396583,0.481840929638149,0.645539401555384,0.752162107326802,1.01006146608535,0.691675370191131,0.184559854206858,0.466375562622599,0.838204303053172,1.42273426343802,0.326938807858586,-0.0251002651469254,-0.111407653582981,0.524279638687731,1.04970216691736,1.68164761636631,0.731951805012758,1.00736615387375,1.54125792377469,-0.0383138730306363,0.170064250895406,0.454143882817478,0.317740552434385,0.729062722787081,-0.00623171494279223,0.471889500761203,0.147751895913227,0.254544015982946,1.51378331640127,0.690560030977519,0.84795234829315,0.336911138684132,0.454165527288234,0.209346204920054,1.16544395133326,1.04872304040461,0.822361602243492,0.3162072859662,0.117298619962006,1.24069993276383,0.867006466768839,0.457044554255633,0.940799942120429,0.497717337125362,0.188174964708136,0.536124096392491,1.15236149259054,1.18746222816846,1.13730241106153,1.53828514322182,0.923540078736521,0.606156059021836,0.628282720480655,1.34402888542251,0.784867810388541,1.14874851793528,0.862996015232472,1.13545185612844,1.11567430875923,1.09589966529087,0.984510575131904,0.311395950375271,0.315592922344281,0.383575663720254,1.61984903433726,0.440827428429549,0.954487448475402
0.280004301311832,1.02507687565782,0.454324972595064,1.13246899463732,0.0619435502662685,0.916637525153905,0.751386182955426,0.989801723179816,1.30567002090513,1.2469484748237,0.134630521410185,0.616111639432302,0.379936596355097,0.204937940863446,1.04667366884122,0.67316302218952,-0.0445054747041541,0.243666735291943,0.277296755377995,0.00300458046410708,0.647309207392864,0.709468572223937,0.851434734437121,0.194966323788633,1.36131442329484,0.575731035031304,0.280818264260171,1.45127350164011,1.07677285024125,0.0366537407941801,0.306644581264617,0.575144907632308,1.42376280746429,0.342425153900299,1.21816941183875,1.08180358637673,0.986005185151838,0.617153597655794,0.347743212531781,0.0590539565858191,0.536137138839513,0.786948006280445,0.839916453047286,1.50228546028718,1.70048028921292,0.118175835334525,0.694633125886904,1.85473807580117,1.70911469276287,0.376995074046309,0.424013058443592,1.3002555835812,0.167860077736637,0.177124124207428,0.445950283346934,0.929129957684479,-0.506555834750519,0.271122357714428,0.37513482131958,0.936951811105172,0.550871226062693,0.724979536677056,0.878180499968059,0.890938502464057,0.814890333669665,1.07158906740439,1.51001523091061,1.66727042450371,1.54052044856503,-0.323529720266559,1.01100086742171,0.621048746929147,0.882650633279608,0.925234450550404,0.238637378438135,1.22713541737217,0.272682229982545,-0.148437003655611,1.16545759563316,0.57665253112382,0.616660174285767,0.683046055448696,0.952971106642425,1.81206305701779,1.55159278323138,0.333061625228319,0.382887029232438,0.1625411554386,1.1771501864354,0.04471549101945,-0.194243713149175,0.190679008726323,0.864553513548327,1.58061443838841,0.449148974329882,0.0110727737722102,-0.10869631169464,0.119140221126858,0.383531417479425,-0.05834267666561,0.429205969245267,0.0595041610858472,0.794631485313953,0.74303242087843,0.499477923534559,0.751805331651001,0.895769381826143,0.75947645054765,0.611527676228977,0.675389177955329,0.144480338944505,0.242264536327097,0.552777849578327,0.43301514267085,1.27445476562344,0.282594838252331,0.0973573082572732,0.744650907870418,0.225634438222879,0.0454631939813338,0.45625797321968,0.472938670015622,0.580062959025601,1.16072704367131,0.681945687958277,0.153112868137217,0.291153672819285,0.834878048177077,1.55025605272163,-0.0242810092860069,0.995927185469639,0.499696167654258,0.645917935071464,0.813628383969734,1.0308023121867,0.707519836486807,0.180796203608823,0.475431547218058,0.925750413976117,1.50097684981455,0.35137742818981,-0.0223932014548283,-0.109584140578556,0.520220879489413,1.04508808762124,1.75880085764914,0.746116240595907,1.01666961361238,1.55907334137591,-0.051941027126473,0.160467933337149,0.459977605293001,0.341123892812924,0.730444009404518,-0.0118126671981654,0.473669661708477,0.142233251779943,0.259595250925667,1.57479254910106,0.720811317600669,0.896378035863164,0.359072077174714,0.477080157453602,0.17018693112948,1.209085938889,1.02956158623259,0.836671843510751,0.332363023724563,0.102663103069644,1.31975393374985,0.912891419127822,0.410837077731502,0.955289621071762,0.507567621976425,0.176188748079272,0.50510829484487,1.20929017320744,1.24009510411964,1.1322142177548,1.58521267522518,0.962695902487052,0.611077088073531,0.673777252793331,1.403577036823,0.815705735105444,1.15088719164659,0.875719341364284,1.18505348767097,1.1509703524117,1.12823441215426,0.983377070374389,0.279556502407352,0.357168602839218,0.366655454616821,1.6967058927142,0.443801556709895,1.03573877616277
0.313111874094181,1.09216625803282,0.443455137920599,1.15733934980048,0.0278288381783761,0.924377769912856,0.794701061188798,1.01201034204404,1.36714717499578,1.29610660420962,0.134853280898582,0.629901805383982,0.378452375678464,0.192110581963446,1.06600574930237,0.708580259797684,-0.0372330590165312,0.253418588112966,0.268854233743016,0.0149727196126179,0.640874836012832,0.764575793995944,0.866596760662351,0.195846931108096,1.42646544898449,0.597735698602105,0.300484829156333,1.51390947923775,1.14895832623208,0.00561865038414196,0.313947323316325,0.618764316836846,1.43409844368658,0.327572902525869,1.24602947690581,1.11058434955512,1.01250634459562,0.619124198417022,0.305949084095098,0.0503503788511137,0.561821864766881,0.844715279502833,0.89972987406234,1.57051402584602,1.75523090300388,0.125984088791895,0.720682826989968,1.9136332527263,1.77571057851947,0.370518444469355,0.407256252249558,1.3495773065384,0.201431204333881,0.197752057994074,0.479143904761212,0.972104367343374,-0.549597226958702,0.273799506863998,0.415720388883451,0.950100083659243,0.578224270158018,0.76768291686944,0.943493571739035,0.948764951672685,0.842296446964767,1.12074801208747,1.55930129378663,1.78144006645614,1.61428006116955,-0.363340743938864,1.08176048096283,0.61130533044363,0.895398782222597,0.949798590817248,0.243365977286258,1.25801281579106,0.271680649398948,-0.170681040833365,1.21772577315252,0.585885886048569,0.668236505574714,0.707202470334473,0.955951620860308,1.89676829401431,1.59341366915966,0.342635799536974,0.427661231172653,0.181599175092786,1.22159425196635,0.0498199319133884,-0.203399656465429,0.218505835300569,0.915199547542929,1.61218702650761,0.474862577533272,0.021276004775897,-0.12092632540904,0.137013083639754,0.395695233095334,-0.0826380819537621,0.439989475905707,0.0784528615699001,0.871939416059799,0.763443685388236,0.506384569840671,0.788195780184116,0.898763345890831,0.81166473786293,0.652290322178175,0.692102942367064,0.157282130086461,0.238184622266189,0.621169572676791,0.431759433246004,1.3591873050144,0.268454781360823,0.0740016706362792,0.766437461806071,0.224639234525972,0.0458161719175992,0.468913643418812,0.461623505293968,0.619361815783212,1.21908768836374,0.739688672955179,0.159783022352016,0.329249083609134,0.85111253017794,1.61943010875188,-0.012265313322427,1.08502770824933,0.519172070104659,0.645729129079907,0.876926068851472,1.05297352950275,0.724084016686111,0.177767995861561,0.484471478332584,1.01475749460567,1.58198991308175,0.37651095264128,-0.0194356001186619,-0.105747493038879,0.516069571853793,1.0403884732325,1.83797033876327,0.75917505782209,1.02683904221696,1.57719492050944,-0.0646179784310166,0.150498527774446,0.467758489301543,0.365548550739051,0.73187951798415,-0.015915004453707,0.475325017824621,0.136025734822952,0.265068997388165,1.63780788331128,0.751541179346081,0.947303026341547,0.383022127285033,0.499630510552132,0.130230706833015,1.25438096321477,1.01012020039281,0.850491717494229,0.34933988748508,0.0878209806707666,1.40012274723337,0.96090116050535,0.362476068244172,0.969122640254406,0.518164525867235,0.163905478798948,0.473622293720231,1.26799523399253,1.29424653379354,1.1278804474876,1.63293412692675,1.00280472623029,0.615124111175695,0.720242086522039,1.46519100569637,0.847839293639155,1.15257993568417,0.888927880014694,1.23518855411068,1.18686954027381,1.16063252111456,0.982266679933007,0.247033084949205,0.398890238518074,0.349097880229672,1.77555706683297,0.446648964016892,1.11888799231353
0.346911896079028,1.16079998797003,0.432000022926519,1.18169303174273,-0.00768115464793895,0.932671842664165,0.838248701321086,1.03446762064615,1.42797576104747,1.34564027228921,0.134228578491372,0.644464566461862,0.376819750094324,0.178142804673395,1.08523829091246,0.745915455691867,-0.0287233004532889,0.263503151979414,0.26107364514803,0.0287556521291766,0.634867064595481,0.821225220638191,0.88154655846825,0.196617738709789,1.4932974382473,0.620288013457238,0.321046726615273,1.577132957707,1.22273465934657,-0.0256527218419985,0.321090640366603,0.663761703176998,1.44491467127346,0.312351112513147,1.27518219415383,1.13922787327168,1.040854867516,0.620039910981755,0.263996048710654,0.0420418576115018,0.587779707674184,0.905497262854894,0.961071654821775,1.63999274243916,1.81186873998323,0.13374995334285,0.746852517181562,1.97358740801975,1.84365469565666,0.363471488370434,0.390374354259063,1.40001218192115,0.234667384724046,0.218535202476658,0.513480754493798,1.01659265749526,-0.593090527915051,0.276551167912155,0.456671864431252,0.961733899642776,0.607465096260712,0.811201681545613,1.0094950921443,1.00840566013365,0.870035424648257,1.17006834560464,1.6098904015161,1.89751546242401,1.68929189424145,-0.403601562129619,1.15277791475318,0.601433976801273,0.907484103698338,0.975336419906338,0.247492846632472,1.28894274563445,0.270449502302213,-0.193584811557703,1.27225105794137,0.594352071110207,0.720987898450321,0.731181860379901,0.958677099502294,1.98270630730616,1.63614003661426,0.352132335432313,0.473605846442568,0.200858173411675,1.26516420804779,0.0549896027412833,-0.211756715852616,0.247307307364354,0.965832165189161,1.64408407083226,0.500593538638737,0.0323194390284632,-0.132238167444019,0.15454813360601,0.407657110305547,-0.106794377879376,0.451791406830405,0.0973965272754264,0.951341160761224,0.785471090650061,0.513668832581106,0.824679926352231,0.902656772403808,0.865605190055542,0.693947928440411,0.708854642376223,0.17084266652983,0.234016016727989,0.691323715605073,0.430737570652606,1.44498104843882,0.255392802993326,0.0505216435451977,0.788823861862667,0.223919204784693,0.0458318454844635,0.482521668705816,0.449821034013714,0.658400823193236,1.27899629289509,0.798916947384003,0.165770926810514,0.367908462476457,0.867599485659587,1.690693482498,0.00100534908552427,1.17600746984609,0.540102316056292,0.645041161583142,0.94170319524399,1.07643818246972,0.741213983591301,0.175488718240683,0.493619496175628,1.10471000430578,1.66535282283289,0.402259076667425,-0.0162863101701436,-0.10040849072357,0.511809343919318,1.0357517684932,1.91895129034479,0.77151196620745,1.03786121908489,1.59580293532533,-0.0764730901013965,0.140168720859893,0.477356716876792,0.390980979266606,0.733388111391164,-0.0189081507081137,0.476941988324687,0.12927440294341,0.270867049504739,1.70264836663113,0.782603032481974,1.00029855248552,0.408448810297246,0.521949581679437,0.0896353066389266,1.30109979539418,0.990696410751309,0.864095069478027,0.367172914263359,0.0728233609486204,1.48180959600588,1.01076267920412,0.312463849057126,0.982418386116733,0.529421123478496,0.151327889444549,0.441890985580094,1.32829682885325,1.34967046064608,1.1244424611213,1.68129077862559,1.04373417268309,0.618628520258211,0.767754248793718,1.52873653023169,0.881052951856127,1.15390108834016,0.902682562225009,1.28584427282566,1.22310472506385,1.19318322664383,0.981270163509116,0.213965386327738,0.440671185217758,0.331007916288822,1.85628925156726,0.449446545226758,1.20363690571127
0.381256233758264,1.23073161627883,0.42015937527576,1.20554239063904,-0.0443216627276373,0.941425592311277,0.881989444344227,1.05725818353935,1.48802239264724,1.39538291903362,0.13301876632616,0.659606154997509,0.375018540987022,0.163155718751661,1.10443202035908,0.784740792693319,-0.0192475136310456,0.273902406478815,0.253797280964841,0.0439983277384037,0.629249769571751,0.878957775304201,0.896462655141469,0.197296012800636,1.56157484854693,0.643422700034905,0.342233987807103,1.64079745995424,1.29764880385233,-0.0570733080905735,0.328083007802221,0.709893462199585,1.45620596946153,0.296794277671839,1.30546406958724,1.16791405038132,1.07071275182027,0.620218375599257,0.222040636681198,0.0339420290775204,0.613974096112795,0.968829096671337,1.02356666811134,1.71056320351229,1.87031243701337,0.141656815009712,0.773309180573463,2.0343719843942,1.91270012166001,0.355928943663562,0.373439682180491,1.45138416350667,0.267765085268869,0.239694388312779,0.548737964161376,1.06234786899039,-0.636808734379163,0.279358297039254,0.497799264790551,0.972317000110962,0.638245903251975,0.85523940685606,1.07597662962417,1.06968662726662,0.898009171446855,1.21941491322587,1.66158222933985,2.01510943933874,1.76522171552032,-0.444107354217005,1.22407768379807,0.591583268634775,0.919062940636755,1.00161365692787,0.251221765615218,1.31974822190141,0.269101409941711,-0.217002981002551,1.32862116935438,0.602166708884292,0.774608268389707,0.754975559431491,0.961273378619757,2.06953863497077,1.67953178441766,0.361487571412462,0.52063639177861,0.220267879291701,1.30808712993817,0.060424939380265,-0.219562631296655,0.276985415596885,1.01623347145825,1.67630339023122,0.52622918037226,0.044105487034302,-0.142556513627054,0.172024980294949,0.419493433441154,-0.130648061864482,0.464471403242383,0.116201932183865,1.03241584693382,0.808731037015901,0.521482303549062,0.861163304335965,0.907260274743287,0.921165627747273,0.736439771856678,0.725506307813666,0.185251002056522,0.229640271554926,0.762923968008481,0.430119814729557,1.53172210742602,0.243415141373628,0.0268939085584971,0.81159886110595,0.223420488523951,0.0456500751138738,0.496837518300063,0.437557258677208,0.697231432790982,1.34030973888735,0.859278401596865,0.171246969358954,0.407095540549654,0.884083381822477,1.76362370859969,0.0153906027045083,1.26843084686191,0.56224928558469,0.643968946141852,1.00762867462507,1.10090387426489,0.758729719144741,0.173951150144556,0.503000005843737,1.19516492444971,1.75054441699717,0.428493507257956,-0.0129908977331428,-0.0940162247948035,0.507411321771703,1.03132322462161,2.0014041302399,0.783452544236198,1.04963397971528,1.61495648538152,-0.0876688102259671,0.129532627140001,0.48842920101645,0.417199254589322,0.734875394129846,-0.0210733063941056,0.478618194952318,0.122090545533786,0.276948450514977,1.7689320257847,0.813906906575366,1.05485191737769,0.434939335391126,0.544196526757653,0.0485044315534062,1.34889524316363,0.971464380922072,0.877794420369855,0.385835324309006,0.0576849824503749,1.56469879412932,1.06196949511001,0.261272094912617,0.995375252311945,0.541263904361281,0.138452066215589,0.410137501075407,1.38980400807406,1.40609036908161,1.12186712743764,1.73011946973119,1.08533557096585,0.621939964936553,0.816278129220931,1.59388806860824,0.915043069272985,1.15498327614466,0.917001331342388,1.33705177000765,1.25935948941105,1.22587546285158,0.980453115034487,0.180491067898836,0.48256443989553,0.312525299681741,1.93862607645334,0.45229086112257,1.2896080304192
