-0.542955886432289,-0.848279456818193,0.495378127952418,-0.559743119447857,0.132484369366046,-0.0204991687200201,-0.640132037742933,-0.51390152772185,-0.516938451702207,-0.668787352137587,-0.324756723642257,-0.307340563984324,0.343959687617558,0.487032623140838,-0.487321638755021,-0.328169477502971,0.12315819029085,-0.0383985290959176,0.208389315902996,-0.0702638268239255,-0.0606767740268479,-0.510360569146298,-0.146660274364191,0.737975232892735,-0.539521274491378,-0.300765316496585,0.0542380607462129,-0.618194469769827,-0.669418406095723,0.362475209523315,-0.187040563191142,-0.702944514900059,-0.441314581155399,0.373467863632979,-0.574384462612099,-0.804304045094926,-0.301743083528558,-0.0401035238304078,0.470133898339964,-0.0593424196141085,-0.850383680334203,-0.594615134806611,-0.662407405598521,-0.870764892784773,-0.618570574631298,-0.295774950487526,-0.430626196156192,-0.499943109321555,-0.82788255810459,-0.110792892802762,0.343075362259216,-0.709778790081404,-0.570856343500269,-0.249246981423149,-0.428137021345445,-0.369163699367455,0.703042665881629,0.174659505883866,-0.775854374482831,-1.06141821995485,-0.150436390892219,-0.542018652513776,-1.01315313416615,-0.963516705395498,-0.414722739907031,-0.573428685833798,-0.774564031228553,-1.55611182409477,-1.07692114839906,0.512746907170261,-1.19156904786976,-0.0124317651186701,-0.232418551049244,-0.247563829309501,-0.375001109696894,-0.141749676993871,-0.00846656226452181,0.375473761705371,-0.567570392105335,-0.315689376596886,-0.720946437338718,-0.713742308255762,-0.300080889933689,-1.20186737225455,-0.414487642856227,-0.436502640924741,-0.412261404723238,-0.204379233688703,-0.705695459388059,-0.288757416960436,0.473449723541534,-0.612373026861764,-0.79336814114372,-0.801806048111263,-0.246239305134505,-0.0918485884905615,0.265406944328505,-0.519382610406285,0.371491696863965,0.344548386875643,-0.128191878027905,-0.37040817738361,-0.828794589125638,0.00287858402883948,-0.3396847523939,-0.688886694068784,0.394676159284375,-0.635650161741184,-0.462482958325803,0.216256426592656,-0.375459464740329,0.166598173964047,-0.606833824382948,-0.270661695856688,-1.35335261256266,0.158915656346015,1.0902574522431,0.236561853007333,0.0554942370004829,-0.0093879683708161,0.129694603879029,0.278725449292,-0.61378930886837,-0.799385832942157,-0.705933308385599,-0.0847919335846027,-0.776394672474609,0.0777563527635718,-0.649921530695582,-6.10085853332468e-05,-1.0178605985483,0.0310229819256069,0.310688932042948,-0.859915524902506,0.316681502150939,-0.0143573608560317,0.096266155823369,-0.151117941106246,-0.807169304314965,-0.779914432815517,-0.36225119966531,-0.140757457192331,0.561918816947513,0.554504498191644,-0.205333991988683,-0.915468037740818,-0.125237111573645,-0.439995280888012,-0.473019561665474,0.29148371586649,0.934358203067576,-0.00785422185532087,-0.201139226922714,0.0754684999295823,0.588385705333994,-0.129083534088802,0.166413225879861,0.161996746917715,-0.588609558938399,-0.222309294258167,-0.27159564015218,-0.0389429372403812,-0.540327233627167,0.733511132801197,-0.433275744262694,0.0707702250048526,-0.197020714419375,-0.30517988655245,0.893159854260056,-1.24610972897369,-0.443928636513467,0.637674553207581,-0.200564921896239,-0.128978767814273,1.02251878701358,0.570874764416436,-0.835506809933053,-0.544503794876312,-0.122621371671727,-0.593706374621232,-0.588215352452324,-0.612989168368739,-0.893067260234796,-0.609066593549554,-0.477739354343935,-0.11187538274037,-0.184094071416385,-0.804860795619504,-0.250782543075787,-0.445602267232057,-0.151061833547062,0.285686131433742,-0.575566576961468,0.945525198540409,-1.01396973722842,0.0436438440474259,-1.09352149891838
-0.504546951072299,-0.799810864543983,0.495703838280453,-0.516869005408844,0.141796960775091,0.013166282451022,-0.593949036084501,-0.470878491041707,-0.472449992793921,-0.610690644679287,-0.303391962812713,-0.300700666211848,0.336068132944951,0.502772272546866,-0.447731697470193,-0.327470740754639,0.0995972035019252,-0.0350350002288827,0.191575784209775,-0.0877636429292085,-0.061529296289049,-0.497114011188396,-0.126246201716228,0.733424860420027,-0.491779355301127,-0.264336728488253,0.0718828910716978,-0.572149308349228,-0.611650092843827,0.347456856635724,-0.168696105185125,-0.653362313226899,-0.404948489413213,0.35239508013472,-0.545868414463043,-0.735983955611219,-0.288222217030578,0.00452374457200895,0.4701277330186,-0.0515456299983131,-0.784323749037811,-0.570213091800735,-0.647012115671269,-0.809719957923015,-0.578559368040295,-0.278414279124562,-0.412242136179616,-0.450545407426256,-0.764243287439184,-0.093154350197127,0.330948529144424,-0.662416131151385,-0.535482516721838,-0.245341254213217,-0.408354151719844,-0.328509131372452,0.677222262957516,0.1755149076725,-0.722164995769131,-0.988943070850664,-0.147690101517146,-0.517688496776482,-0.968248427010712,-0.926004768652844,-0.379127637382003,-0.51758550902454,-0.728405643175893,-1.46039298404177,-1.00581598641548,0.499395836379081,-1.11239278958085,-0.00826242463154962,-0.2113110345626,-0.218833870874067,-0.349079316112479,-0.0983448723044781,0.0142283345136195,0.350839875674312,-0.525358562975282,-0.288346457273129,-0.689390405617246,-0.656787831334389,-0.266823008609117,-1.11860947755285,-0.371517630672943,-0.409102328618577,-0.392296324426469,-0.200727342300091,-0.648613255363801,-0.290270633654974,0.443729447822047,-0.6089017076821,-0.741231523365296,-0.748521538476193,-0.224662574678541,-0.0906313744716665,0.245925109203074,-0.489148361053489,0.392524049270771,0.317691718392275,-0.114047293062145,-0.345415931148103,-0.79030301042362,0.0135315795853949,-0.306034917781637,-0.646781590900064,0.416929347327677,-0.588228955819613,-0.418127415643395,0.246565355347722,-0.369522703913868,0.164654867113911,-0.586013883326314,-0.253464269549533,-1.27711880417632,0.15273342279037,1.07330156269542,0.265460749328754,0.0544654520932194,0.00488894984899474,0.115705958300159,0.296117038658601,-0.566423881634078,-0.748803153526664,-0.681544048751143,-0.0783520596343843,-0.750040406860497,0.0912676920921827,-0.606880067732274,-0.0144165478184097,-0.973138331780559,0.0290540657216427,0.338615983893133,-0.816270017040232,0.31679890090959,-0.00502211772327786,0.0943357590881816,-0.128200625779884,-0.779765543787902,-0.729953068284722,-0.347673732131831,-0.139257821065947,0.52750032845693,0.570514564116339,-0.174083055809254,-0.861308801208059,-0.076689952085574,-0.397431351226161,-0.432030894771144,0.297454132135906,0.933712837815442,-0.022602313269834,-0.184624740534777,0.106640800249732,0.555829111044632,-0.117470069689992,0.163105734924394,0.169710172199157,-0.552071397004491,-0.180077370775935,-0.280288093990033,-0.0577851946432008,-0.519735284106428,0.721208847374241,-0.406748049318163,0.0902765177122585,-0.177598404359691,-0.282700740949867,0.886506250858846,-1.17664913196461,-0.427032195737562,0.647881885167206,-0.171795975644231,-0.111252271110492,1.01989901579934,0.576386200947609,-0.785028435102144,-0.514453103133736,-0.107420213513919,-0.549191310344777,-0.560867725407506,-0.582995304237627,-0.850534636023189,-0.573287742996507,-0.45470852591455,-0.0738775405095871,-0.144131967446624,-0.743116603895892,-0.2220157317411,-0.394841648314714,-0.130023646620493,0.282965262526617,-0.542243206414931,0.94786783763067,-0.964743797140427,0.0399188937128234,-1.03282006963911
-0.466189891811885,-0.751330318388953,0.496068906409768,-0.473957480486172,0.151082489618563,0.0467876566000082,-0.547736931869858,-0.427869623062443,-0.427946822785415,-0.552584606825607,-0.282043121250469,-0.294089448114518,0.328223912765851,0.518500822506806,-0.408196349085098,-0.326745055390469,0.076070237598759,-0.0315743024793202,0.174757893956464,-0.105272151743325,-0.0623680866536674,-0.483824821088843,-0.105798070489778,0.728843981068228,-0.444003705293786,-0.227892989190939,0.0895287391289794,-0.526053367950932,-0.553892343485498,0.332487284865403,-0.150413251044371,-0.603869511663904,-0.368574119093544,0.331317450472283,-0.5174106761715,-0.667691346759469,-0.274728050065163,0.0490985607169951,0.470103463618113,-0.0437482323048604,-0.718228625756891,-0.545832062956586,-0.631575906843444,-0.748692841558898,-0.538575764132485,-0.261070255865397,-0.393854035223417,-0.401167517511793,-0.700635799812613,-0.0755385546615889,0.318827614639341,-0.615077379294562,-0.50006638157513,-0.241402176550317,-0.38854817749403,-0.287895214281323,0.651395717518291,0.176347707704053,-0.668516321555862,-0.916479944830657,-0.144936288331406,-0.493434823428795,-0.923330631507474,-0.888467535082424,-0.343526704591809,-0.461715243918418,-0.6822536617058,-1.36473858428357,-0.934759973674935,0.486038571511465,-1.0331962794452,-0.00408784628083078,-0.190175162910623,-0.190132471767525,-0.32315207706579,-0.054912604311799,0.0368479335002521,0.326269666139501,-0.483158779752776,-0.260978221829528,-0.657820265699484,-0.599861724527441,-0.233596654021191,-1.03534625229786,-0.328553535140062,-0.38170932960978,-0.372321761961632,-0.197089580860909,-0.591500982588204,-0.291816609579291,0.413983774000069,-0.60542340508772,-0.689121782102689,-0.695213329402078,-0.203136364117048,-0.0893447635801234,0.226446945979206,-0.458968609914118,0.413423434221715,0.290841822289908,-0.0999051146908076,-0.32045157640139,-0.75184651600698,0.0241774029620101,-0.272423900994498,-0.604673408056019,0.439160101609607,-0.540824449631968,-0.37380781439622,0.276844851471954,-0.363576009337322,0.162662060805008,-0.565133736778406,-0.236262073962894,-1.20085691761848,0.146574220059677,1.05630821496423,0.294364215156088,0.0533920060875903,0.0191808386508008,0.101781084516428,0.31351034461707,-0.518947193843447,-0.698252592036311,-0.657128625158071,-0.071895497756849,-0.723725579499282,0.104837586565918,-0.563862388119655,-0.028749786252201,-0.928331878630392,0.0270837185637469,0.366543829799956,-0.772653457361643,0.316907404579292,0.00433691214810179,0.0923959025080381,-0.105288754643453,-0.752368876953276,-0.679987236958681,-0.333042488442916,-0.137755885742761,0.492973079019739,0.586499807431634,-0.142827297882343,-0.807153509515622,-0.0281471655806483,-0.354876476984904,-0.391025350843177,0.303395712694022,0.933040639207037,-0.0373381730503238,-0.168077420437456,0.13779844191697,0.523243478119592,-0.105864161455075,0.159834691331033,0.177455393340465,-0.515544891081956,-0.137885089402316,-0.288943609188931,-0.0765923322449859,-0.499107432425171,0.708908544707955,-0.380248677505426,0.109765441887446,-0.158164249174132,-0.260242625557441,0.879808912161955,-1.10718901263573,-0.410102039708551,0.658022327994082,-0.143044230048508,-0.0935338446373195,1.01725797409932,0.581866059692222,-0.734569262698763,-0.484401854716703,-0.0921686171176608,-0.504726320151924,-0.533425359530021,-0.552907666667556,-0.808011038792598,-0.537500242821331,-0.431722807589429,-0.0359264512630383,-0.104203392038596,-0.681314127500651,-0.193274481654,-0.344089431180132,-0.10900790169482,0.28018924587117,-0.508934258837398,0.950177825948003,-0.91553523243332,0.0361765339371596,-0.972085130335527
-0.427995555444157,-0.702806427667561,0.496572530070161,-0.430935499587827,0.160296955009689,0.0802569742463184,-0.50148053042339,-0.384914077493955,-0.383381189587618,-0.494456914991882,-0.260694027879849,-0.287520006176095,0.320489456802425,0.534200065081437,-0.36881544192839,-0.325931323742363,0.0526875520668351,-0.0278178891975931,0.157933729835072,-0.122772541818886,-0.0631344211335189,-0.470400534965066,-0.0852325319495329,0.724187510056902,-0.396121702324695,-0.191394076810856,0.107190930560781,-0.479829272270169,-0.496160617313089,0.317641555592493,-0.132311605714319,-0.5546389105194,-0.332183907931146,0.310274049204115,-0.48909960407836,-0.599528441581379,-0.261317540882012,0.0934882701881813,0.470009523414068,-0.0359586108957693,-0.652049521685211,-0.521491084539466,-0.615985291569721,-0.687697477457429,-0.498663410256518,-0.243802607795845,-0.375425185418911,-0.351839778172277,-0.637093000208438,-0.0579497320177837,0.306733741206219,-0.567811519517071,-0.464526447702178,-0.237350864383508,-0.3686640930038,-0.247386603783,0.625512359819088,0.177182839747953,-0.615051902323031,-0.844053866011053,-0.142141590808869,-0.469348493841262,-0.878377640199735,-0.850820490867481,-0.307934181151981,-0.405766505478995,-0.636111707735953,-1.2692691711281,-0.863857199765785,0.472665667158138,-0.953975535641676,0.000127958709152383,-0.168932286899186,-0.161497261826186,-0.297237064001932,-0.0114252034453765,0.0592643467313536,0.301904483865815,-0.440979251224809,-0.233536398094042,-0.626181319364227,-0.543027396296521,-0.200515564034411,-0.95207729387074,-0.285609120080171,-0.354348551440235,-0.352316310138028,-0.193510138061716,-0.534328075520796,-0.293436235506374,0.384142693106458,-0.601907436817933,-0.637074472521546,-0.641852512254926,-0.181791415618893,-0.0878741937775889,0.207001224545976,-0.42894427633026,0.434012456137398,0.264023504846865,-0.0857644236200299,-0.295553496361819,-0.713491877614154,0.0347811583705959,-0.238955322170275,-0.562549892634911,0.461349528073925,-0.493482563886039,-0.329619423784082,0.30701329780456,-0.357545847436685,0.160535717326052,-0.544035042406721,-0.219065052521592,-1.12450284831525,0.140461468835591,1.0392514622843,0.323286732263527,0.0521683676820179,0.0335227306737833,0.0880389351158256,0.330878916791025,-0.471166536242083,-0.647761282807812,-0.63259663467939,-0.06542101856622,-0.697512740922168,0.11857695821033,-0.520915958845313,-0.0429924650069152,-0.883281554016445,0.0251356598087103,0.394476390993625,-0.729104097109079,0.317020305117531,0.0137604232275645,0.0904578128594513,-0.0823662976304853,-0.72496100376928,-0.62999018876402,-0.31823032440595,-0.136230148012378,0.458116588832397,0.602454218056061,-0.111568284401613,-0.752992130249235,0.0203789534001317,-0.31235646147287,-0.349984443380966,0.309241000112697,0.932346152584499,-0.0519717506807544,-0.151468756629852,0.168880181128125,0.490571610348304,-0.0942569544261151,0.156675222488022,0.185252545420894,-0.479026124171235,-0.0958254573726627,-0.297450220090169,-0.095265296288978,-0.478356809571045,0.696606686401529,-0.353807352311484,0.12919377457383,-0.138685627704107,-0.237824976894274,0.873008859010197,-1.03772354264795,-0.393075836210925,0.667965352032497,-0.114334718548863,-0.0758322420582402,1.01457938753351,0.587294026764663,-0.684134570772921,-0.454307969447206,-0.0767895167716353,-0.460379533002605,-0.505704518989507,-0.522548305520084,-0.765509293283985,-0.501668891853696,-0.408849130448551,0.00186015146363456,-0.0643872295867476,-0.619340347562933,-0.164603151559688,-0.293344380585058,-0.0880549430537342,0.277215724572589,-0.475672914855613,0.952445284322562,-0.866343696897859,0.0323913703457647,-0.911263640366337
-0.390147931353679,-0.654190652297914,0.497353841643966,-0.38768567536233,0.169408038877172,0.113382203739463,-0.455224125831414,-0.342066113951317,-0.33863947212161,-0.436315078077635,-0.239223831635587,-0.280924483298064,0.312904937382825,0.549841457796235,-0.329713464294697,-0.324957841277514,0.0296670823978628,-0.0234783732731896,0.14113156469214,-0.140190249699125,-0.0636720760662552,-0.45669668832938,-0.0644498166826103,0.719436521596341,-0.348031922256064,-0.154780581171505,0.124881624449949,-0.433403638498511,-0.438473590546092,0.302983445618203,-0.114558143765406,-0.505905241050439,-0.295769670760177,0.289423170181291,-0.461018950552931,-0.531712992238032,-0.248084108320552,0.137473140081077,0.469772663782291,-0.0282284681478065,-0.585734647557478,-0.497187234749665,-0.600025964815968,-0.62670516670013,-0.458859005455108,-0.226728437194975,-0.356859422637053,-0.302576917846191,-0.57360226642185,-0.0403487928014829,0.294729148130005,-0.52069184249696,-0.428771569289796,-0.233080929404259,-0.34861482138604,-0.20705436492786,0.599420731056539,0.178171154608016,-0.562060392655371,-0.771732127859825,-0.139231789222534,-0.445392094204533,-0.833326816161669,-0.81288745220904,-0.272419797625691,-0.349663051817307,-0.589981953985122,-1.17412752398436,-0.793275991167345,0.459272805544798,-0.874793367403304,0.00448218004464039,-0.147432502793268,-0.132943062895008,-0.271414191621439,0.0320916707404795,0.081348193752137,0.277952417458091,-0.398814393748137,-0.205968647124814,-0.59434420866997,-0.486390075442386,-0.167819719892682,-0.868836482396637,-0.242717165915619,-0.327073433569187,-0.332231137263342,-0.190074241086365,-0.477075362815631,-0.295145406099854,0.354070518686691,-0.59827747297573,-0.585087584644401,-0.588437440142739,-0.160864607328821,-0.0861002095472436,0.187674106295259,-0.399194332926205,0.454183618350702,0.237282733573005,-0.0716539344141583,-0.270764315095902,-0.675347553729014,0.0452298494113996,-0.205799843957877,-0.520374688905262,0.483487249807709,-0.446256550089046,-0.285746835284131,0.336911049734978,-0.351256358643583,0.158191861299674,-0.522449515747904,-0.201891853528745,-1.04794698536512,0.134401539758142,1.02216180148568,0.35222043017885,0.0506702910596674,0.0479636379503591,0.0746361713820732,0.348133896267071,-0.42287621768033,-0.597287487973734,-0.607749467414392,-0.0589522324443859,-0.671465070477469,0.132598159933319,-0.478105892247679,-0.0570233039767963,-0.837801452516997,0.0232784724771527,0.4223842373012,-0.685634195733268,0.317205840985913,0.0232889452227477,0.0886135519004313,-0.0593520073751049,-0.697457046990322,-0.57992179060453,-0.303016892266205,-0.13462481980918,0.422576609382912,0.618419666971123,-0.0803554712471558,-0.698782075303644,0.0688649463150398,-0.269920747443314,-0.308897034542673,0.314868311917776,0.931689215442176,-0.066283359251201,-0.13480851031657,0.199712558262505,0.45771525729652,-0.0826194791705598,0.153736691569857,0.193046721260855,-0.442462828453557,-0.0540473288951671,-0.305591433115858,-0.113613801098692,-0.457295322751722,0.684287767932665,-0.327425333939717,0.148485362201945,-0.119086619037785,-0.215442007252117,0.86606492859861,-0.968241126191567,-0.375860307276322,0.677525534914475,-0.0856535685171696,-0.0581820450985261,1.01186613470496,0.592649305462927,-0.633667630923754,-0.424054434537843,-0.0612311569095151,-0.416201964435314,-0.477444410488526,-0.491691729273006,-0.723044003401666,-0.465717681024467,-0.386140842034518,0.0392584469094233,-0.0248224838097443,-0.5570666259766,-0.136043284799509,-0.242604088296956,-0.067208189221514,0.273836431669522,-0.442513911701912,0.954719564109298,-0.81710346157439,0.0285828385539043,-0.850295486198595
-0.352879609365485,-0.605444997496519,0.498470509059595,-0.344057631190077,0.178409984993183,0.145900129554763,-0.409041588592648,-0.299362731923782,-0.293529513914825,-0.378214733717638,-0.217404073742442,-0.274160198316496,0.305513856205127,0.565370270637513,-0.291014774237109,-0.323798703264395,0.0072488613817346,-0.0182487712610591,0.124413390948516,-0.157443542931842,-0.0637383915770151,-0.442519776025586,-0.0434387145434408,0.714630419388551,-0.299639202269559,-0.118020526205132,0.142553882952427,-0.386718010260849,-0.380878010752877,0.288552091737518,-0.0973378324704299,-0.457932179171729,-0.259300656262824,0.269025355875143,-0.433244705967364,-0.464514305289741,-0.235144532281951,0.180827405553514,0.469338607545084,-0.020663131055295,-0.519229661715527,-0.472906633353036,-0.583438766748444,-0.565635190087991,-0.419185599411616,-0.210007154070186,-0.338047598222738,-0.25336497671602,-0.510108181729428,-0.0226969039188721,0.282939622728385,-0.473800974809134,-0.3927709107858,-0.22852269877477,-0.328316604165075,-0.166983292746002,0.572827953302093,0.179541135537131,-0.509873111191054,-0.699664813280601,-0.136115749576616,-0.42131393183482,-0.788024915551541,-0.774440008489894,-0.237082462180504,-0.293304724639846,-0.543868483947248,-1.07943993173933,-0.723240097009457,0.445845633676921,-0.795754635250131,0.00909481952609828,-0.125504742599962,-0.104451083076001,-0.245846029383464,0.0755190900269724,0.102977449258496,0.254604398203374,-0.356672562125775,-0.178263868759068,-0.562124490100762,-0.430086165706044,-0.135831145772632,-0.785708436877316,-0.199911137276884,-0.299943797697957,-0.311991376717257,-0.186855921142511,-0.41969884280472,-0.296926543184411,0.323563250759074,-0.59442661064825,-0.533097117560894,-0.535007034835962,-0.14062175975567,-0.0839468790984253,0.168596606180484,-0.369836576688029,0.473896228882278,0.210666177754385,-0.0577017971450257,-0.246156814888414,-0.637551470665786,0.0553097644700824,-0.173154677712759,-0.478090199255176,0.505488261862733,-0.399134753303844,-0.242449835652601,0.366336863704068,-0.344521124792188,0.155578435789504,-0.500091375686583,-0.184730474116768,-0.971079936121398,0.12838068447271,1.00508602704589,0.381075160766487,0.0488627449440619,0.0625561378973025,0.0617310972486094,0.365139373884314,-0.373939321748264,-0.546687611176361,-0.582337194378749,-0.0524735717216632,-0.645665257981515,0.146883803947861,-0.435506494979415,-0.0707401503068353,-0.791739953926259,0.0215674360977162,0.450122354781705,-0.642251348047886,0.317562908655985,0.03295663600287,0.0870382236156378,-0.0361221565263105,-0.669718090193833,-0.529786207213675,-0.287144369000509,-0.132896119710276,0.38586597607517,0.634407465453724,-0.0493239728900956,-0.644461992807732,0.117262757621283,-0.227642091406476,-0.267760176991141,0.320110980742597,0.931102701973921,-0.0800363040570236,-0.118113087377199,0.229997819814962,0.424533218809404,-0.0709397445630307,0.151111390387229,0.200675068631668,-0.40579824227361,-0.0127320242999685,-0.313117547573141,-0.131401405904603,-0.435609779820968,0.671920122926622,-0.301110928509163,0.167544716489826,-0.0992526874327643,-0.19308983529532,0.858950045158392,-0.898754366297865,-0.358340814472324,0.686504164616491,-0.0568999305278693,-0.0407248917112886,1.00910124885655,0.597786500995148,-0.583080071499147,-0.393505389746222,-0.0455085417800708,-0.372229182330791,-0.448349038330166,-0.460155946597979,-0.680657640377366,-0.429561295701162,-0.3636097553345,0.0759389740889225,0.0142907993902682,-0.494437496718837,-0.107654267509134,-0.191913356468169,-0.0464617206661292,0.269864999583626,-0.409495215898775,0.957029352397469,-0.76767781304452,0.0248780599155068,-0.789098811380686
-0.316416547007767,-0.556549738058832,0.499839098304467,-0.299939408815806,0.187242547341162,0.177517448746203,-0.362979790936655,-0.256839395788943,-0.247820782973688,-0.320252751474684,-0.194972486500251,-0.267057527854794,0.298413072072007,0.580706117590773,-0.252832195489464,-0.322463401394273,-0.0144140728623819,-0.0118620657536641,0.107849643687706,-0.174513673463229,-0.0631299663264553,-0.42762401219845,-0.0222739748879915,0.709838288640518,-0.250850422818992,-0.0811161151497505,0.160105907843498,-0.339708906782608,-0.323523052305391,0.274372307528671,-0.0808328494970757,-0.410994351401115,-0.222724816234284,0.249342900129315,-0.405826352793474,-0.398157226554126,-0.222634355778935,0.223362911144736,0.468654956761413,-0.0133521229106073,-0.452520539356263,-0.448619946510447,-0.565989961717354,-0.50438712914035,-0.379695985207152,-0.193811660307533,-0.318946302153868,-0.204206925651213,-0.446581990755522,-0.00496627439126267,0.271508827760099,-0.427223091903509,-0.356585800420833,-0.223639276794047,-0.307715441119895,-0.127291074874085,0.545292304762974,0.181506112446528,-0.45878377693174,-0.628047739172107,-0.132732982518221,-0.39678708442131,-0.742274061675517,-0.735284401839408,-0.201943053699965,-0.236610237564161,-0.497750152888545,-0.985350305927475,-0.653998763915854,0.432303662117683,-0.716940064172287,0.0140191175987521,-0.103018259456493,-0.0759797908207751,-0.22077142349739,0.118671209547823,0.124001415472293,0.232004555804711,-0.314628368018456,-0.150460713307592,-0.529318074560657,-0.374257510055206,-0.104893800216289,-0.702825989916177,-0.157146491918932,-0.272993743281466,-0.291529743349558,-0.18384532622209,-0.362124687278985,-0.298759264671185,0.292369790278054,-0.590263212409854,-0.481052413296552,-0.481627716737609,-0.1212113482505,-0.0814229639336423,0.149886920836431,-0.340992327838117,0.493082072656218,0.18423547728479,-0.0441348854215192,-0.221856621048779,-0.600208042546736,0.0647802868510933,-0.141245670659598,-0.435658975608219,0.527143191917357,-0.352027690357212,-0.200015288526036,0.395110653713331,-0.337259845656197,0.15269552016813,-0.476713282049932,-0.167555596895461,-0.893895905099938,0.122345202091696,0.988039518533304,0.409693147397902,0.0468194363802245,0.0773606813390278,0.0494497393387968,0.381771534555774,-0.324302380155376,-0.495774435041061,-0.556150296892549,-0.045895142325013,-0.620243967757326,0.161219041426178,-0.393223689702988,-0.0841155488408755,-0.744927834178039,0.0199695057184482,0.477408162795931,-0.599049706250505,0.318201302741094,0.0427925453264693,0.085884768816858,-0.0126012064034274,-0.641582389858476,-0.479644173692539,-0.270386820986985,-0.131070872276689,0.347411949168223,0.650310155978113,-0.018669198416513,-0.589986758597228,0.165475317033484,-0.185633052877479,-0.226626676326251,0.324791180940176,0.93055778395627,-0.0931159101631167,-0.101366766821875,0.259399683730301,0.390884229384707,-0.0591965792630265,0.148812297675109,0.207885951188104,-0.369045801931424,0.0279281734610662,-0.319819778866272,-0.148403798297775,-0.412914436943983,0.659465304128214,-0.274930131533859,0.186263352762394,-0.0790641294431365,-0.170839989780415,0.851636298014796,-0.829314210389884,-0.340411951219647,0.694748745527725,-0.0279618986340033,-0.0237189341204201,1.00621650438117,0.602409435705063,-0.532339986207743,-0.362569988482087,-0.0296867013113012,-0.328513728915789,-0.418142530833126,-0.427869242275037,-0.638459223344274,-0.393141686928984,-0.341229236198029,0.111489460639203,0.0527258485390251,-0.43149553302161,-0.0795747550332739,-0.1413822289927,-0.0257363208449447,0.265146507256718,-0.376593896760956,0.959311228065404,-0.717900115854112,0.0214880071647216,-0.727572876797846
-0.2809749124205,-0.50748802914733,0.501304825690285,-0.255332505336912,0.195678077359594,0.207980687582371,-0.317062406546273,-0.214560352292403,-0.201301609205995,-0.262554015072479,-0.171718958952108,-0.259424081893681,0.291683455111205,0.595740121547277,-0.215219454113666,-0.320969108707748,-0.0352889082907627,-0.00414955353793546,0.0915460776778291,-0.191462891290285,-0.06183317708931,-0.411772271898974,-0.00102212545550903,0.705104168994785,-0.201557685098406,-0.0440938531478444,0.177394133694436,-0.292293130459025,-0.266710604741056,0.260428725299886,-0.0651923607259738,-0.365310945382472,-0.185989467309073,0.230621478066422,-0.378702556824994,-0.332773794636807,-0.21073367903668,0.264895429844366,0.467660656960855,-0.00636413243833836,-0.385718294395975,-0.424250891528678,-0.547518820963098,-0.442860809442127,-0.340508847314349,-0.178215080031304,-0.299601177922859,-0.155166510946452,-0.383062617284331,0.0128426447745475,0.260468132780983,-0.38107650722691,-0.320347687616767,-0.218366654405588,-0.286788471735229,-0.088084264112017,0.516323696814087,0.184218052028758,-0.409082911289885,-0.557049088703101,-0.129105056511674,-0.371538579439298,-0.695930058806559,-0.695368060672353,-0.166878571154097,-0.179587931075803,-0.451603481453819,-0.892041483007944,-0.585747644414034,0.418474680338298,-0.638419192258913,0.0192174558088983,-0.0798579177796197,-0.047466959362182,-0.196437255006758,0.161358273932106,0.14434372019324,0.21028078959299,-0.272863775323036,-0.122607748903286,-0.495704343895576,-0.319004384797294,-0.0753111455988727,-0.620400251372175,-0.114296360361386,-0.246228845526175,-0.270778412245309,-0.180970355235736,-0.304285721053294,-0.300669793613834,0.260305934948708,-0.58573231644481,-0.428999542635104,-0.428418271624199,-0.102600726470453,-0.0786405809974444,0.131600981152405,-0.312710267174119,0.511644727373103,0.158079100016042,-0.0312471563833181,-0.198047348676994,-0.563352449204995,0.0734526873748151,-0.110286115031154,-0.393112940597833,0.548177607236078,-0.30480888908499,-0.158718552061952,0.423103740967283,-0.329504602826939,0.149635458962168,-0.452091608003008,-0.150372831575736,-0.816551020207784,0.116201628345098,0.97101073547682,0.437844199123395,0.0447088137800158,0.092383574075632,0.0378646738418568,0.397940227664225,-0.273986440017176,-0.444416637762153,-0.529037301367758,-0.0390938654495267,-0.595280079636764,0.175294613638191,-0.351422534203944,-0.097191431684058,-0.697169950542313,0.0183972194473042,0.503843750669013,-0.556199079441549,0.319238284790598,0.0527846586304135,0.0852310523194267,0.0112259691619199,-0.61282812644498,-0.429574486741136,-0.252541925363263,-0.129228082279604,0.3066937257275,0.665921333362508,0.0113893238181226,-0.535388320456956,0.213346723983023,-0.144081017594353,-0.185656651619793,0.328726740374873,0.929950843886572,-0.105533370074696,-0.0845490186097497,0.287625817685298,0.356658624641027,-0.047295976458116,0.146757751603408,0.214446291329865,-0.332280324843057,0.0677670107013428,-0.325533681936429,-0.16442710292319,-0.388832962745433,0.646938674432094,-0.248964858251181,0.204526075876497,-0.0583968798039998,-0.148885165206279,0.844095908418358,-0.759983349725394,-0.322007759871911,0.702192381522093,0.00116663758278376,-0.00740619962729526,1.00309066777691,0.606189920960604,-0.481477138787531,-0.331214592933607,-0.0138647019727067,-0.285152243078824,-0.386643556120595,-0.394885268906826,-0.596597527397147,-0.356443025364884,-0.318950468704481,0.145476808333264,0.090328577462626,-0.368326147526022,-0.0519413323669329,-0.0912137880266637,-0.00495548563706704,0.259620201344652,-0.343754643281684,0.961438441551166,-0.667651592901447,0.0186372122057685,-0.665700924803099
-0.24679135242653,-0.458248162446343,0.502725821125372,-0.210326767617099,0.203344812732453,0.23709104091602,-0.271330268895789,-0.172625131509178,-0.153782442274255,-0.205255033453556,-0.147575519434604,-0.251097001889339,0.285315381932125,0.61028631932987,-0.178150022241418,-0.319322464517765,-0.0554381083992511,0.00491570384584871,0.075610739369065,-0.208441607627562,-0.0600435324136488,-0.394797596083431,0.0202587965771703,0.700413998453107,-0.151657000589839,-0.00707781911953185,0.194208306108979,-0.244406092392818,-0.210808844223114,0.246659462661051,-0.0505152079967489,-0.320999030725445,-0.14906811013114,0.213119040845757,-0.35169768330386,-0.268421049443181,-0.199656588045659,0.305227964629965,0.466308642024183,0.000192362817097589,-0.319150576275227,-0.399663076418492,-0.528003149794146,-0.380964452444223,-0.301783209442203,-0.163165790232849,-0.280133934192585,-0.106366410033606,-0.319624405050994,0.0306522682141099,0.249667228672662,-0.335526226205132,-0.284219038179736,-0.212599519557571,-0.26552507175968,-0.0493582447644398,0.485515365451161,0.187693056597048,-0.361076870761642,-0.486825584147366,-0.12533314207355,-0.345328192042582,-0.648934196417991,-0.654819626526992,-0.131695783558284,-0.122312698279538,-0.40546772809284,-0.799713053854979,-0.518542474936068,0.404109558582381,-0.56025524213544,0.0246070306470289,-0.055908895950891,-0.0188740358850082,-0.173021008226337,0.203430680055291,0.164020702607958,0.189488931157096,-0.231624851197183,-0.0947735178331095,-0.46109545480794,-0.264395959067486,-0.0473064549988727,-0.538698629479689,-0.0712619274854866,-0.219606618032534,-0.249615985619584,-0.178156886587768,-0.246175202290007,-0.302738766331729,0.227372269283919,-0.580797565936181,-0.377111603549095,-0.375569434441337,-0.0846525887358388,-0.0757918174752187,0.113727651302313,-0.284917119410965,0.529512703508855,0.132256379601236,-0.0193864066923866,-0.174931643605503,-0.526933120539279,0.0811965655529526,-0.0804028079468681,-0.350566251904327,0.568258218755172,-0.257341891698751,-0.118865413724649,0.450255397903621,-0.321293771899058,0.146534430967068,-0.426022674002192,-0.133228937713506,-0.739318217466109,0.109838318195022,0.953944729255242,0.465157053516288,0.0427328462384568,0.107491517438083,0.0270097290756038,0.413513106977392,-0.223066778949514,-0.392563423631399,-0.50092510779821,-0.0319640763192773,-0.570682378606119,0.188877528760921,-0.310295186801071,-0.110079790460873,-0.648355724933067,0.0168458014392919,0.528929385335194,-0.513834583383567,0.320719381783699,0.0629087491177252,0.0851275222652279,0.035389799549479,-0.583144699097609,-0.379641077698882,-0.233434376147649,-0.127451708897381,0.263433629150876,0.681005505345078,0.0406284355477592,-0.480813460228534,0.260643505652238,-0.103250324926586,-0.145056367960485,0.331717121849902,0.929070482224562,-0.117364151346051,-0.0676458409053262,0.314501331478414,0.321776603193993,-0.0350798390965835,0.144792382136594,0.220225593730186,-0.295611958988678,0.106596415543821,-0.330131150577269,-0.179316167749093,-0.363088280641538,0.634439068000837,-0.223289934303364,0.222280173542539,-0.0371336828720238,-0.127496567156146,0.836263696785697,-0.690844405658885,-0.303114947875827,0.70882177394784,0.0303836596416086,0.00811301632203388,0.999543209950341,0.608869372371224,-0.430558813797802,-0.299461359736609,0.00184023731058776,-0.242270134535516,-0.353803027312957,-0.361352315719975,-0.555168248861076,-0.31950456152116,-0.296684374316503,0.177521051815776,0.127039377832714,-0.305034107833439,-0.0247859965152291,-0.0417092778004696,0.0159128167029261,0.253338373605212,-0.310898799466411,0.963260406693614,-0.616914591077027,0.0164958440831923,-0.6036482124487
-0.21409092547635,-0.408837700026191,0.504024733911315,-0.165001345268801,0.209877023063315,0.264680359504942,-0.225856271979392,-0.131124294251814,-0.105115642430052,-0.148456362084829,-0.122618323922387,-0.241973321304114,0.279262761863529,0.624072796991222,-0.141584684637815,-0.317498785923892,-0.0749291520588569,0.0152313273089958,0.0601141681834247,-0.225601437350123,-0.0580192411009242,-0.376608988059426,0.0414753207594647,0.695735118991673,-0.101085863451994,0.0297049327902485,0.210336858634172,-0.196058390970786,-0.156124705025973,0.232995752481548,-0.0369001495886484,-0.278084352216281,-0.112020363023737,0.197073965418442,-0.324617021246849,-0.205152143748076,-0.189623105117942,0.344139210549522,0.464561798204325,0.00622158587329826,-0.253366579798577,-0.374678688404448,-0.507531069656926,-0.318613302664047,-0.26364745229273,-0.148573326723006,-0.260698565470665,-0.0579725087152271,-0.256343411700344,0.0483936017988233,0.238877046110976,-0.290693084523595,-0.248335053912347,-0.206244105230715,-0.243857110123802,-0.0110030791761422,0.452623189732435,0.191818853199376,-0.315046128849161,-0.417572641151828,-0.121531071880294,-0.317928725375451,-0.601274724998675,-0.613844115039011,-0.0962747264272448,-0.0648849077934207,-0.359422525419178,-0.708577470025327,-0.452284168854614,0.388920106654006,-0.482511001405798,0.0300915884784433,-0.0311089402027027,0.0097445307364267,-0.150563623483201,0.244765044222474,0.182970643210379,0.169549108137648,-0.191120150163224,-0.0670767593757977,-0.42540932536113,-0.210571327976523,-0.0209991987287263,-0.457972101885615,-0.0280433559584361,-0.193022390110087,-0.227830137130436,-0.175301842154566,-0.187938026098442,-0.305053440834761,0.193760481835038,-0.575431922877199,-0.325685413833175,-0.323278711165219,-0.0671820188937442,-0.0731029582956401,0.0962710433551869,-0.257462842344693,0.546654517076785,0.106799305471299,-0.00887642958449175,-0.152627575410084,-0.490791144910506,0.087949942094155,-0.0516020630675358,-0.308171414136681,0.587019806219145,-0.209487383720687,-0.0808023489677314,0.476541483185015,-0.312570660522363,0.14348312520851,-0.398348403733044,-0.1161576275071,-0.662484402406256,0.103172796410068,0.93673602057069,0.491178941144895,0.0410790078020506,0.122386888001779,0.0169202136065413,0.428294691359353,-0.171699495898,-0.340212751023883,-0.471809538657559,-0.0244396452689794,-0.546213959541578,0.201918654387441,-0.269975451571562,-0.122881258508467,-0.59850205670243,0.0155104760941807,0.552162119916176,-0.47197228312372,0.322609669798429,0.0732239819069659,0.0856160458399348,0.0599870883239431,-0.552242290120717,-0.329888727690379,-0.212961840719977,-0.125737958298179,0.217701617330642,0.695369746101677,0.068829134395086,-0.426467334579616,0.307055598776544,-0.0634022360279297,-0.104933257329412,0.333591692758524,0.927640481035021,-0.128658686487249,-0.0506005064423245,0.340020336435357,0.286246214477112,-0.0224199917284841,0.14277516984066,0.225120646442386,-0.259134229488742,0.144187734995285,-0.333462332419682,-0.192918622256329,-0.335517376137873,0.622063510509309,-0.198002575368275,0.239596747300562,-0.0151826739032777,-0.106939435280819,0.828011940738792,-0.622008857472753,-0.283717159363772,0.714561232291794,0.0595342508742942,0.0228943314747745,0.995361607980036,0.610294770982312,-0.379658502648995,-0.26735140643235,0.0173402812459497,-0.199978980909071,-0.319691366750666,-0.327459892169197,-0.514170875294956,-0.282402436266099,-0.27429585628954,0.207329037317683,0.162810567315372,-0.241807375339883,0.00194741631337938,0.00683018786118947,0.0368772899857425,0.246395373899006,-0.277867639084973,0.964620515722184,-0.565720245141649,0.0151962500467446,-0.541716395696945
-0.183015806319038,-0.359304942809236,0.50515323949404,-0.119394423543385,0.215013646328065,0.290579329427527,-0.18070887954966,-0.0900850672446483,-0.0552115495740249,-0.092241059422271,-0.0969814570622098,-0.231989634509089,0.273496279522618,0.636764986590191,-0.105511971467741,-0.315479071763559,-0.0937529543179206,0.0265718753384197,0.0451202821050851,-0.242980911700432,-0.0559053937644535,-0.357153521142166,0.0625738237938906,0.691057725342445,-0.0498676746136668,0.0659658194902267,0.225660447572952,-0.14733512179633,-0.102852659204554,0.219428839735662,-0.0244764543695011,-0.23655663679832,-0.0749968598611391,0.182660499083172,-0.29731944139592,-0.143081150651861,-0.180832668058633,0.381387358090244,0.462296908016268,0.0116624858434284,-0.189100200429805,-0.349114641007231,-0.486188797135395,-0.255758036782957,-0.226135781874316,-0.134334703897318,-0.241402329431331,-0.0101788378834796,-0.1933262725976,0.0660610456047998,0.227923344724527,-0.246601629977597,-0.212753216525778,-0.199248350613718,-0.221659355247531,0.0270364869853985,0.417588730025303,0.196448484857829,-0.271178988694244,-0.349494229622664,-0.11774998474824,-0.289141032632899,-0.552934050376703,-0.572577040671687,-0.0606633074940757,-0.00746498103257296,-0.313518208100042,-0.618851618221092,-0.386778431371402,0.372666413693253,-0.405283216713453,0.0355872369639333,-0.00548246127319321,0.038224216691383,-0.128907754529181,0.285186991248896,0.200989081257714,0.150305811088641,-0.151490635923322,-0.0396381781689145,-0.388667984416947,-0.157780302691719,0.00359245886037625,-0.378422440560989,0.0152586289233376,-0.166356229199984,-0.20517300888124,-0.172245540774439,-0.129924533680562,-0.307657670563199,0.15976558195493,-0.569623368055467,-0.275033264005821,-0.271680101168689,-0.0499999554475338,-0.0707656196212068,0.0792916878062917,-0.23018085431664,0.56303502718741,0.0817466298494843,8.52436419405105e-05,-0.131135412472578,-0.454695723704046,0.0937023562325003,-0.0237879189474017,-0.266084525313257,0.604131687603513,-0.161126527110908,-0.0447982040256671,0.501913292978459,-0.303216418608506,0.140523331562005,-0.368960228323974,-0.0991385641910269,-0.586275960403815,0.0962245886777644,0.919258553828578,0.515554621755544,0.0399362167902867,0.13663960858625,0.00765054814239186,0.442076471012551,-0.120198288511617,-0.287369916154325,-0.441716655364153,-0.0165151896101645,-0.521617237861406,0.214538967989736,-0.230498186822911,-0.135562799413151,-0.54769944419678,0.0147643523676049,0.573161934235723,-0.430504640907152,0.324884803122409,0.0838799175730263,0.0866926248800245,0.0851042280663093,-0.519968292971689,-0.28032741880228,-0.191148905364169,-0.123922642931139,0.169920373921794,0.708862391610738,0.0957827572906636,-0.372550693356677,0.352202646499463,-0.0247364860933837,-0.0652234870881335,0.334240775745622,0.925349055092443,-0.139398238066941,-0.033319052996294,0.364281772745715,0.250261137549424,-0.00932587597766503,0.140640751010011,0.229002604946604,-0.222896564534592,0.180413606902315,-0.335280197433072,-0.205031785294245,-0.30607075528486,0.609788187892545,-0.173225298567973,0.256593226507702,0.00751967046302511,-0.0874689914515503,0.819181329853195,-0.553592115205102,-0.263765454697008,0.71918086914518,0.0884830829467753,0.0370577702496891,0.990343243925496,0.610405029100982,-0.328848649932509,-0.234932138899461,0.0326139283070068,-0.158351932356749,-0.284502187807288,-0.293409532631763,-0.473592552760441,-0.2452304670207,-0.251657368680629,0.234723087201574,0.197547307696045,-0.178936768124983,0.0283648703533234,0.0542040764700254,0.0579834491391288,0.238911428438769,-0.244388775473398,0.96534068474482,-0.514060956423214,0.0148684140572971,-0.48022811191242
-0.153533132724745,-0.309758535175676,0.5060400960442,-0.0735584438008541,0.218585003869513,0.314654907869956,-0.135961072283911,-0.049477718775491,-0.0040312360613469,-0.0367394684482225,-0.0708534065851643,-0.221105524224992,0.268003202778138,0.647972445355435,-0.0699646122559496,-0.313227852598658,-0.111814346734802,0.0386259175457427,0.0306950008077415,-0.260472356240103,-0.0536851427560018,-0.336350001445182,0.08359349435414,0.68637606847963,0.00185853417723065,0.101361268157992,0.240090792772351,-0.0983236305398616,-0.0511097168243391,0.206014066092484,-0.0133757616626063,-0.196400757067473,-0.0381777938591464,0.169994374528575,-0.269727232133805,-0.0823403619899795,-0.173412232157049,0.416744983418068,0.459217699397818,0.0164141244251693,-0.127217676715193,-0.322776092085029,-0.463972443179704,-0.19242975905636,-0.189202524035142,-0.12033306376307,-0.22227296244043,0.0368339855206131,-0.130732344323236,0.0836293280452773,0.216739684672161,-0.203238441423471,-0.177446760708229,-0.191598225098359,-0.198843636498577,0.0646744008844496,0.380521156449061,0.201427433229927,-0.229519193752681,-0.282746753853086,-0.113919158972257,-0.258822882503266,-0.503886908820405,-0.531051514028585,-0.0250381746495759,0.049694240668229,-0.267770148415929,-0.530725597972359,-0.321841664639086,0.355229468014624,-0.328681739163711,0.0410674874908071,0.0208513236323923,0.0663130842531702,-0.107732216885603,0.324445097382875,0.217857627149512,0.131609308660387,-0.112809903000728,-0.0125544170576108,-0.35095871604669,-0.106314381544274,0.0264928421366777,-0.300205961212106,0.0584712257387639,-0.13952416172305,-0.18142724736876,-0.168822173318168,-0.0725828280650779,-0.310509415088516,0.125704786294772,-0.563323167180232,-0.225361976652016,-0.220833457112776,-0.0330080454795037,-0.0688875990346188,0.0628753750215641,-0.202900897452762,0.578554051581714,0.05714843179991,0.00744733228506902,-0.110424674802901,-0.418396730836758,0.0984346748992327,0.00319825165857446,-0.224418839037444,0.619313316149794,-0.112185714204261,-0.0109916754819095,0.526258540081706,-0.293139941899438,0.137668108238659,-0.337776333830177,-0.0821470473744722,-0.51084997563544,0.0891140648067043,0.901351805931969,0.53810823517573,0.0394612951072422,0.149786921700814,-0.000730026570799366,0.454648704767255,-0.0690292211896073,-0.234039051758068,-0.410681117290688,-0.00828758332824327,-0.496672054799375,0.226915190583283,-0.191795885949133,-0.147923795923982,-0.496061521796045,0.0150690109402649,0.591698556887564,-0.38924732004359,0.327544020875023,0.0950142081310775,0.0882544682568912,0.110714948126952,-0.486292832108937,-0.230917718123637,-0.168173689331491,-0.121714232833044,0.120802602681076,0.721283783378552,0.121309870092958,-0.319178683083476,0.395632588668732,0.0126178435090508,-0.0257520958526286,0.333594954134549,0.921831078844554,-0.149550110650904,-0.0157176160958155,0.38739310411033,0.214167469237242,0.00408552841447911,0.138392348930176,0.231740392779239,-0.18689713291756,0.215309888626051,-0.335251323226588,-0.215422331420864,-0.274832742851135,0.597458820376568,-0.149043764157128,0.2733409822987,0.0310058786805755,-0.0693060931046957,0.809598455550578,-0.485713352616608,-0.243216576279781,0.722356743117679,0.117205570453133,0.0506996802795137,0.984277533940982,0.609172082012906,-0.278244434682215,-0.202283981326702,0.0476785553037477,-0.117456114874576,-0.248531416172767,-0.259350928375591,-0.433453497595248,-0.208105229083625,-0.228720347973546,0.259623502959016,0.231098399605019,-0.116749291431409,0.0545769815427242,0.100291251622535,0.0793568774531374,0.231018064844606,-0.210139502259669,0.965172121227707,-0.461861970194499,0.0156111452472302,-0.41950151015732
-0.125458823245541,-0.260358998693134,0.50660795554953,-0.0276291921375307,0.220468961401086,0.33684022565883,-0.0917354702468799,-0.00927095355187653,0.048404439663054,0.0178222735856141,-0.0445238036699414,-0.209303229408781,0.262714853242522,0.657298402576475,-0.035001570528104,-0.310622178314117,-0.128993421363882,0.0510190192417935,0.0168981431014855,-0.27788611274852,-0.0512318445473416,-0.314094756153085,0.104581262346228,0.681635280768488,0.0538390801366095,0.135569211911011,0.253511009170109,-0.0490850314756148,-0.000986495069167148,0.192815047138826,-0.00371859959622645,-0.157596786931912,-0.00173584781089421,0.1591215689109,-0.241819648275441,-0.0230076060601967,-0.167383547720934,0.449969585590671,0.454887743679432,0.0202689377925006,-0.06867075065761,-0.295469685909217,-0.44075480393337,-0.12876416553841,-0.152792388060989,-0.106467388661187,-0.203273304177311,0.0829244407706522,-0.0687977171059641,0.100934208532566,0.205391542665469,-0.160603541256845,-0.142347750723964,-0.183304821229826,-0.175360820441475,0.101729720743427,0.341654775177709,0.20659454728368,-0.189990338094244,-0.217444012852034,-0.109865448318509,-0.226871034810052,-0.454152312795239,-0.489207735694738,0.0103927649258418,0.106227157636511,-0.222211595125503,-0.444319971052053,-0.257386034085131,0.336569791577814,-0.252836616772708,0.046540662939842,0.0476706909138666,0.0937167354062754,-0.0866656913269024,0.362211844268981,0.233467677036438,0.113310363364864,-0.0751201821288509,0.0140342761881344,-0.312425085727148,-0.0564344199099032,0.0477327559518285,-0.223448223546764,0.10134459767785,-0.112517057617572,-0.156389612830898,-0.164877583205979,-0.0163247058451204,-0.313462083003879,0.0919200668925458,-0.55638352466573,-0.176728983015431,-0.170772157202127,-0.0162105090244904,-0.0675546899098948,0.0471581259871473,-0.175462290105713,0.593004841007778,0.0331192965454697,0.0132689882037899,-0.0904816255456058,-0.381641812792427,0.102075975730098,0.0295388470412324,-0.18321193348094,0.63231378856973,-0.0626808247723085,0.0206072181356702,0.549359853764322,-0.282281657047798,0.134857253732414,-0.304742373943313,-0.0652296522707673,-0.436337373324287,0.0819573316628764,0.882777672451814,0.558784984515472,0.0397039550237386,0.16141946213989,-0.00812877002995499,0.465782744405752,-0.018754829531695,-0.180283944423506,-0.378757700513962,3.45322522515551e-05,-0.47117607086354,0.239135056720065,-0.153680399067724,-0.159646891849437,-0.443684851760747,0.0168505560725747,0.607644935992209,-0.348002657552866,0.330507773760526,0.106652321176016,0.0900879332556281,0.136648353056571,-0.451242429694602,-0.181590015961051,-0.144324470380475,-0.118857406443113,0.0712941194510808,0.732345548621388,0.145263430394775,-0.266351420490572,0.43686235578375,0.0486028397958943,0.0136583989665207,0.331552861429514,0.916677345068213,-0.159126450810362,0.00228775773139059,0.409369646235805,0.178335682369874,0.0176824582034148,0.136126868109038,0.233218659296067,-0.151095081368308,0.248981394928049,-0.333053334918125,-0.223912857711,-0.242014469896079,0.584828372725695,-0.125473383872421,0.289834295514677,0.0552494633426877,-0.0525388922007269,0.799076889572751,-0.418502833508721,-0.222047669860548,0.723716380361568,0.145771667380842,0.0638417275679169,0.976917976208413,0.60652017699729,-0.228028772644532,-0.169527312682297,0.0625563362044237,-0.0773866944871314,-0.212149409474101,-0.22536997974569,-0.393730714805385,-0.171208438903123,-0.205525558014276,0.281980231872784,0.263259823276018,-0.0555863158488314,0.0806417889777434,0.144973709734887,0.101118011710893,0.222801605481997,-0.17482617430245,0.963772400927915,-0.409005825330327,0.0174762148373432,-0.359854862288312
-0.0985920423383216,-0.211286343319555,0.506761817200664,0.0181670645919038,0.220614084477819,0.357082648098037,-0.0482045395359111,0.0305457049723968,0.102035954713385,0.0711666622227274,-0.0183798482804119,-0.196652080768101,0.257502121904762,0.664471127785785,-0.000621218303428417,-0.307485436967354,-0.145235646678658,0.0632422637560403,0.00379015351419416,-0.295059154000644,-0.0483855396939254,-0.290370896493406,0.125512402802373,0.676731797696902,0.105800555300269,0.168388203249527,0.265877477039775,0.000285555737493342,0.0474559231198646,0.179881919426866,0.00441530677362932,-0.120146236474809,0.034173567074939,0.149994439009447,-0.213639786850188,0.0348718591461896,-0.16262575197966,0.480765664629791,0.448834822282557,0.0229158903428727,-0.0144474385525945,-0.267089833974102,-0.416393099198175,-0.0650154450270452,-0.116862252635253,-0.0927471172734963,-0.184332798873433,0.127976514546823,-0.00783737317316648,0.117611941359001,0.193991780886504,-0.118709411993129,-0.107406112642564,-0.174386431271126,-0.151215314955629,0.137996318661113,0.301330408014396,0.211826486076455,-0.152400938571332,-0.153702129675609,-0.105457760477499,-0.193175863556971,-0.403830121400596,-0.446905340549893,0.0454346943592749,0.161658405298514,-0.176946418097897,-0.359635281254361,-0.193395682860584,0.316644129248742,-0.177945067890085,0.051957594227986,0.0746544846530456,0.120223908497814,-0.06542835799632,0.398099795783573,0.24779524484062,0.0952603948572845,-0.0385234168997118,0.0398931136192552,-0.273249404101282,-0.00834135326573985,0.067361936222818,-0.148242265217012,0.143542479510576,-0.0854922605918898,-0.129872108236867,-0.160226618950938,0.0385248657157193,-0.316281268140756,0.0587533239363015,-0.548594640727946,-0.129075243157905,-0.121535653600916,0.000371092226417604,-0.0669306433993629,0.0323079916749945,-0.147767693390122,0.606121842398922,0.0098591488227841,0.017679658312369,-0.0712751309079766,-0.344148748297147,0.104487655053914,0.0553934260603177,-0.14246805047549,0.642949223557366,-0.0127451805065903,0.0501775626835618,0.570916044722021,-0.2705879265516,0.131930318332738,-0.269837319492067,-0.0484744157735952,-0.362864917553765,0.0748077995281407,0.863317540435468,0.577626750346664,0.0405305109275109,0.171277743486505,-0.0144796433219586,0.475263989432709,0.0300466969890735,-0.126270089659328,-0.346077290873479,0.00821724662967166,-0.444992866950716,0.251143486052081,-0.115859911768894,-0.170430380649809,-0.390624883659106,0.0203795254484806,0.621006121741508,-0.306614470953738,0.333578614553837,0.118663457538379,0.0919318209677972,0.162602741111973,-0.414817696281253,-0.13227208900486,-0.119968472350236,-0.115307938299555,0.0225416850462302,0.741783649493887,0.167520276989468,-0.214032222187303,0.475474525972408,0.0831617922981238,0.0531407713031191,0.327936341698335,0.909557150731403,-0.168154347809907,0.0208207765078531,0.430089239229201,0.143153941945854,0.0313164154792367,0.134002476529696,0.233407155693175,-0.11546650580482,0.281564951149957,-0.328514388205688,-0.230528023337975,-0.207988273950731,0.571534530593373,-0.102507632376033,0.305964382290113,0.0800960359060657,-0.0371423198800698,0.787495400000133,-0.3520741570549,-0.20025917729924,0.722835538482453,0.174206520302212,0.0764121205848816,0.96803236822375,0.602314667448356,-0.178447020443764,-0.136831153139294,0.0772723340724716,-0.0382149892088561,-0.175853712067533,-0.191549164306085,-0.354357610678006,-0.134803710133951,-0.182138013616712,0.301801935210172,0.293824261577203,0.00423801810280362,0.106527959642282,0.188207659739777,0.123280847713341,0.21424063304089,-0.138175973701189,0.960785129627406,-0.355351727858559,0.0204214832941487,-0.30152582319078
-0.0727788182689488,-0.162684968568774,0.506343444119622,0.0635900000002804,0.219071447161807,0.375305443006497,-0.00556274498091892,0.0700021238000755,0.156814588724596,0.123044938141917,0.0071510738728175,-0.183318790170078,0.252271874277182,0.66948133973166,0.0332202037346698,-0.303691654284006,-0.160565467906275,0.0746661607365756,-0.00856452294407919,-0.311893580708474,-0.045040086025899,-0.26527157033768,0.146271804219594,0.671559604898838,0.157532512555316,0.199784719001858,0.277370510841692,0.049611087844757,0.0942449683429363,0.167277046531911,0.0110025483134499,-0.0840842876324881,0.0693878396192722,0.142487083906718,-0.1853064172885,0.0912335792580479,-0.158876055435336,0.508821767060632,0.44067654352304,0.024061209187947,0.0345542081633779,-0.237700725936435,-0.390853344488329,-0.00151015683723515,-0.0813951705801072,-0.0792726375358592,-0.165353060859422,0.17186812906155,0.0518158328844218,0.133194274717927,0.182613587338696,-0.0775512792909097,-0.0726379271707179,-0.164840488009494,-0.126542474899757,0.173287249207726,0.260025877633065,0.217021576569703,-0.116408217913214,-0.0916515303628263,-0.100720648289676,-0.157626748416915,-0.353066645288238,-0.403982245813564,0.0799036059881589,0.215494938438584,-0.132156135733831,-0.276529547692363,-0.129893271579778,0.295384120707499,-0.104265654148806,0.0571867152749589,0.101386901861245,0.145763857854838,-0.0438936916168838,0.431680919829457,0.260842688841268,0.0772938485963163,-0.00319903566364931,0.0647570962978811,-0.233620905684841,0.0378285831839692,0.0853763196426773,-0.0746422925189987,0.184655456083645,-0.0587965668056141,-0.101727922685941,-0.154683658645587,0.091766369478195,-0.318677854832284,0.0264865906858948,-0.539775344009499,-0.082315967824884,-0.0731795800108419,0.0168099265687572,-0.0671882460610379,0.0184304861645787,-0.119821856005346,0.617706697336559,-0.0124504269393693,0.0208207292032369,-0.0526949009286477,-0.305605266922107,0.105501206570592,0.0808608116855647,-0.1021953530127,0.65120375350694,0.0373854170047066,0.0780934663368107,0.590630286874659,-0.25806951262156,0.128695899962598,-0.233041100191756,-0.0319346398751832,-0.290552257261984,0.0676972471697924,0.842891179980842,0.594797847098585,0.0416674687653166,0.179307659939501,-0.0197578127230738,0.482961295590189,0.0768831720567401,-0.0721920633011857,-0.312855616625499,0.0160903468075296,-0.418114468551989,0.262859398351427,-0.0780089024421204,-0.180062049746851,-0.336881203637721,0.0257743242249441,0.631999577723075,-0.264990694114708,0.336514768700275,0.130813448387455,0.0935720951623061,0.188202894586818,-0.376954112924204,-0.0828934259881271,-0.0954848796963955,-0.111215825346143,-0.0242068681926527,0.749469341618323,0.187951216646021,-0.162222864533115,0.511189174332862,0.116171714007879,0.0927891355149929,0.322551548563275,0.900363695083367,-0.17664509623985,0.0400386005503717,0.449330045550801,0.109102612333316,0.0448041966132338,0.132183378296417,0.232367891351776,-0.080012674333671,0.313251117855528,-0.321659921652169,-0.23553004393588,-0.173220850528752,0.557161273915354,-0.0801356693353609,0.321566120326831,0.105230901603664,-0.023049071443475,0.774878130221849,-0.286506485137999,-0.177922513490054,0.719294815093735,0.202451456974057,0.088326562412694,0.957485971798106,0.596471697425064,-0.129783710302237,-0.104453040198964,0.0918261422228393,-1.97997041911508e-09,-0.14025136090855,-0.157995212809218,-0.315295686733086,-0.0991639777908214,-0.158609717435453,0.319161799655569,0.322665070259764,0.062480015577533,0.132167407903558,0.230120186035381,0.145760968171095,0.205225929641517,-0.0999184216583563,0.955957916809628,-0.300773392636915,0.0242644115151269,-0.244619392405914
-0.047932741342859,-0.114658199888236,0.505110202638385,0.108457322291733,0.215930111150184,0.391429975282203,0.0360081329802549,0.109154024484368,0.212693656251095,0.173226894050628,0.0317071060813031,-0.169501439027227,0.246963420247777,0.672519574453203,0.06651222806462,-0.299154353184369,-0.175030839077998,0.0846690410901549,-0.0200671157222929,-0.32831701283264,-0.0411989623992534,-0.23893129947504,0.166696334172423,0.665984946453855,0.208876753883864,0.229858284564522,0.288359016843418,0.0986612650297295,0.139502197669537,0.155070273366293,0.0160931780660523,-0.0494930664348499,0.103653324511409,0.136400060739737,-0.156972345303044,0.1459940455096,-0.155811264825718,0.53385712703425,0.430198076496887,0.0235398501422691,0.0776943000730219,-0.207507666293689,-0.364165762117769,0.0614158637846044,-0.0464400130861414,-0.0660593707788753,-0.146232471086644,0.214430211571003,0.109865961921215,0.147217484154534,0.17133344989069,-0.0371222213295438,-0.038145885288346,-0.154638011959198,-0.10157242144919,0.20740675623741,0.218294296558566,0.222019102555458,-0.0815627711388105,-0.0314216475691529,-0.0957911047762528,-0.120176490875921,-0.302005311029418,-0.360306712421217,0.113636023562008,0.267310750327324,-0.0880748348105327,-0.19477071850301,-0.0669653952128785,0.272714447049143,-0.0320558946863932,0.0620783232674185,0.12741982564811,0.170300941480217,-0.0220223107538181,0.462505185325616,0.272636208006999,0.0591892217511747,0.0306629835493457,0.0884281570666981,-0.193720236516677,0.0820125660727197,0.101657349599181,-0.0026825042803424,0.224248090788894,-0.0328568860642741,-0.0718369352950109,-0.14812560260937,0.143278969030317,-0.320389295553586,-0.00463657109681174,-0.529867318668478,-0.0363824879724557,-0.0257837677155316,0.0332607279412455,-0.0684075950088039,0.00551360601856401,-0.091681390026333,0.627678494191767,-0.0337640404409697,0.022834331409811,-0.0345811413918052,-0.265757104030778,0.105078783700703,0.10600597622233,-0.0624206454816715,0.65721811172576,0.0874117910288835,0.104825726786308,0.608231147210649,-0.244844667758012,0.124980416326918,-0.194332686314264,-0.0156423668307847,-0.219488600269247,0.060693885266653,0.821491451247483,0.610505693690429,0.0428520769473793,0.18564619873349,-0.0239126942336794,0.488824921108091,0.121412581850886,-0.0182109603595762,-0.279326378913485,0.0235414619056554,-0.390606973220649,0.274299428232776,-0.039850422546346,-0.18840991124503,-0.282367913066089,0.0330818270350135,0.640988814608824,-0.223091394334141,0.339065894960887,0.142844114984603,0.0948598832488793,0.213053963468677,-0.337581203282793,-0.0334073593227654,-0.0711693624470034,-0.106804103848608,-0.0677913812194122,0.755352394029309,0.206380447403474,-0.110990479869452,0.543851339429342,0.147479480989787,0.13264144116691,0.315237842645576,0.889162170538563,-0.184609849450576,0.0600869108277649,0.466814410275891,0.0767240072247876,0.058007487866871,0.130847937087588,0.23016968985693,-0.0447043662245713,0.344216743036389,-0.312621965235292,-0.239289440824715,-0.138063309518923,0.541375746494116,-0.0583049593077581,0.336448093606312,0.130255025420956,-0.0101685044810215,0.761321540974018,-0.221853879826858,-0.155156483378905,0.712729673206822,0.230398574570807,0.0995387647847019,0.945230233131516,0.588989117887007,-0.0822865529093571,-0.072719959577351,0.106148996391458,0.0370985794214514,-0.105884192538791,-0.124838261220452,-0.276563726437244,-0.0644954088231799,-0.135006617357414,0.334130634886039,0.34973172053802,0.118930750826724,0.157497158181651,0.270890112241363,0.168392871247372,0.195599322240336,-0.0598706770358169,0.949125585500054,-0.245209294288929,0.0287667053809473,-0.18914755367462
-0.0240171932192167,-0.0673206475305493,0.502768138438634,0.15269280852449,0.211250722830573,0.405383079151022,0.0763480589510631,0.148077486798388,0.269623595194016,0.221442563731738,0.0550394973718459,-0.155431179164237,0.24146375721131,0.673791944484606,0.0991772689815449,-0.293821859256233,-0.188681682945558,0.0926949479339542,-0.0305751422484546,-0.344273190171793,-0.0370163575412934,-0.211502367663781,0.186634480590025,0.659782283129536,0.259726547316579,0.258732007291869,0.29923877745114,0.147197916601457,0.183453326878811,0.143240104136772,0.0198640852808404,-0.0164794481615954,0.136600320638701,0.131479302289094,-0.128813544885818,0.199098147763179,-0.153117185230263,0.555674055133133,0.417342926468599,0.0213401270426768,0.114652602368048,-0.176774182750917,-0.336330118008022,0.123440682657644,-0.0121447522278749,-0.0529665224612129,-0.12690554484746,0.255431905067755,0.166037501389571,0.159237786207893,0.160301438811553,0.00252593025175974,-0.00410928539406693,-0.143734340490178,-0.076486410802543,0.240132527973985,0.176636995821129,0.226555884224986,-0.0474127165268416,0.0268846346903917,-0.0908730766709211,-0.0809463305566085,-0.25074077774741,-0.315811406586485,0.146441807554112,0.316754612812242,-0.044981358410079,-0.114123899062484,-0.00473916910321406,0.248563125333118,0.0384844063809522,0.0664917679948986,0.152382446533875,0.193732150256809,0.000214024347885858,0.490127705587177,0.283243773311439,0.0406889896512111,0.0628973452936098,0.110786882857626,-0.153671257545813,0.124252428861722,0.116055222425847,0.0675998881134953,0.261889135438077,-0.00812044878969483,-0.0401226741508198,-0.140433789530942,0.192937799440895,-0.32123571701966,-0.0343987092073691,-0.518954259473772,0.008817341837962,0.0205295313146674,0.0498801450075589,-0.0706026534436025,-0.00650266079742423,-0.0633687519443596,0.636063742892784,-0.0541945108761292,0.0239067424817603,-0.0167501470027641,-0.224472269760789,0.103376333191648,0.130873440375111,-0.0231617623128878,0.661174334830503,0.137015420866411,0.130838360888444,0.623460624206974,-0.23109664703672,0.120652883904799,-0.153712501584663,0.000323375308913928,-0.149692315712094,0.0539173536411528,0.799074696185602,0.624899608773972,0.0439365917705341,0.190603097531268,-0.0268871302832228,0.492851488414584,0.16342034933695,0.0355458207191614,-0.245732001169038,0.0305013233822766,-0.362532631829844,0.285496116305738,-0.00126974429236673,-0.195395295365291,-0.226955617582255,0.0423154359796091,0.648337845601268,-0.180881863176947,0.340954284158316,0.154541625488742,0.0956502280283207,0.236809406139758,-0.296688421465167,0.0161481961123441,-0.047162729165664,-0.102288055135883,-0.107287978648727,0.759360154023073,0.222666238933089,-0.0604977296483058,0.573453948401421,0.176975622256209,0.172633446754917,0.305842396949932,0.87603088704311,-0.192115791214903,0.0810245000076514,0.482249465045618,0.0465250972291327,0.0709194497397744,0.130148871956623,0.226876160987158,-0.00951420012950568,0.374562548522209,-0.301592124408649,-0.242187239217952,-0.102686443327633,0.523999344840461,-0.0369658649961903,0.350405085263659,0.154792641009428,0.00160594696360287,0.746909795406391,-0.158167248518833,-0.13210482929611,0.702867493237414,0.257881761476205,0.109988603651598,0.931239363373393,0.579860494844247,-0.0360890059601702,-0.041971164480565,0.12011840525944,0.0727984104340873,-0.0731152161820092,-0.0922035789445976,-0.238206127389684,-0.0309728461827322,-0.111459383796953,0.346769264051462,0.375045998934049,0.173469523372595,0.18240347331747,0.310659039807238,0.190968771352547,0.185208867842633,-0.017953460291862,0.940131034982305,-0.188707034028785,0.0336717574760646,-0.135074654853451
-0.00100455377651006,-0.020771990919924,0.499039162976769,0.196331900421709,0.205069285961131,0.417122094922366,0.115359862053884,0.186899731077507,0.327595933454685,0.267406363901293,0.0769840957955566,-0.141319134858507,0.235624185360478,0.67347165844245,0.131115447016615,-0.287654411480957,-0.201579253339018,0.0982754994314685,-0.0399718139204812,-0.359757279114826,-0.0327773374544884,-0.183133779430894,0.205953178647874,0.652690571321024,0.310032159282784,0.286501327891713,0.310401357760153,0.194971775396019,0.226437827032784,0.131580274027209,0.0226102497281201,0.0148893828021247,0.167839645760007,0.127484214484433,-0.101073365703384,0.250571633953198,-0.150517805514191,0.57420757241628,0.402158740640438,0.0176002284647641,0.145391514222724,-0.145783066918373,-0.307250782918457,0.184317196998576,0.0212982091303238,-0.0397384515587975,-0.107368724976051,0.294638523085391,0.220105479909677,0.168848626941069,0.149730377547682,0.0413445400179004,0.0292210207552088,-0.132126850237098,-0.0513655085948036,0.271276552508825,0.135458247444458,0.230352122597239,-0.0136406416823809,0.0832012060657963,-0.0862060102051282,-0.0402407183067395,-0.199314449412891,-0.27052684932643,0.178050719542634,0.363537769597119,-0.00313486277294677,-0.0343913874388633,0.0566777645649566,0.222853271835868,0.107179806722932,0.0703085176950899,0.176013588057762,0.215946443669575,0.0228394240636823,0.514205024434596,0.292701921564518,0.0215873674981482,0.0933725267631046,0.131765536545608,-0.113535385730911,0.164687549403039,0.128452790624116,0.136140883127753,0.297192102772414,0.0150054742851707,-0.00661920701936642,-0.131369523630301,0.240534013070266,-0.321094066424553,-0.0626581849686693,-0.507114559027325,0.0534461367792051,0.0656253802226719,0.0668383713605724,-0.0737257615714968,-0.0176699501442994,-0.0349295009135498,0.642956052521007,-0.0739687461296514,0.0242728572127531,0.00102570204146719,-0.181690798601502,0.100652252163547,0.155443907124099,0.0156126764335432,0.663250574173405,0.185919017035266,0.156523845253068,0.636121789509976,-0.217021609740019,0.115704000443352,-0.111186772427217,0.0158222590184249,-0.0811324107461487,0.0475564402740907,0.775591127166278,0.6381397675349,0.0448724372048611,0.194542698944033,-0.0286921632111345,0.494990797297334,0.202814515231924,0.0889816605211377,-0.212323929669511,0.0369905485969474,-0.333989579885073,0.296434745995034,0.037668387290685,-0.200894571420278,-0.170573796517409,0.053459000144643,0.65436433273907,-0.138302041314067,0.341942507607901,0.165787249353942,0.0957697252266926,0.259194929154433,-0.25431125653166,0.0656508075505104,-0.0234742613360413,-0.0978404476025302,-0.142004857173467,0.761392942039232,0.236781322114419,-0.0109686867817328,0.600166530727987,0.204657893521659,0.212579099810203,0.294276835851199,0.861050648954071,-0.199239207051154,0.102793445931991,0.495391567163076,0.0189099042596488,0.0836109432667523,0.130147152117825,0.222540902077996,0.025554866309093,0.404373948786858,-0.288802870135653,-0.24455896577561,-0.0672607258842918,0.505021695380099,-0.0160916266586707,0.363251168567611,0.178497055897369,0.0124210769407926,0.731751754572855,-0.0955136415026129,-0.108943855645071,0.689531548066188,0.284672854030071,0.119633780657479,0.915506577811104,0.568964882363966,0.00881353524174908,-0.0125081051044457,0.133582875774783,0.106787596418801,-0.0421779798954023,-0.06017542049783,-0.200256951525616,0.00128365029432373,-0.088169185117664,0.357116437480747,0.398684173639666,0.226138470611847,0.206757089387147,0.349589566123548,0.21324263410266,0.17398169969513,0.0259512950152527,0.928853660921678,-0.131416098786179,0.0386875303405092,-0.0823441665337233
0.0211847352453017,0.0249930649800271,0.493741133265676,0.239480967548204,0.197427398159328,0.426711057644623,0.15306125891884,0.225757432331722,0.386641351486927,0.310891392882929,0.0974859899364727,-0.12726440529443,0.229381672523744,0.671685871751148,0.162262422404706,-0.280585163676248,-0.213795313311152,0.101129303793063,-0.0481851525617457,-0.374828475200234,-0.0287788098022304,-0.153946433389061,0.224531647187252,0.644541208537795,0.359809280168758,0.313242799117361,0.322208859735882,0.241764356401089,0.268854144408481,0.119766569430464,0.0247060736595452,0.0446364290208722,0.197045993362373,0.124220976980949,-0.0740034405169285,0.300552284697155,-0.147789426649639,0.589546494106242,0.384750715374127,0.0125305833998299,0.170124308811712,-0.114864216961623,-0.27676458002895,0.243958983610072,0.0537728635988359,-0.0260492568484451,-0.0876395247530238,0.33191767176108,0.271979179392255,0.175735710459592,0.139773634772227,0.079410877057439,0.0615832847605289,-0.119880035761549,-0.0262132143920819,0.300775656322041,0.0951032748471146,0.233238569986698,0.0198735607365158,0.137488626587073,-0.0819791441034106,0.00153640197838818,-0.147704410643827,-0.22453597140366,0.208234194114867,0.407440957425987,0.0373325887761228,0.0446137621667139,0.117241285905361,0.195481477063639,0.173878754792234,0.0734948807255797,0.198208817893449,0.23692766143872,0.0458277072619324,0.534617229979215,0.300995328230476,0.00174605637486074,0.1220437042661,0.151403116460844,-0.0733976350264303,0.203511774354401,0.138808883599748,0.202866395483854,0.329926184761131,0.0363189642123666,0.0285334692849878,-0.120570563569994,0.285734176074401,-0.319856455622725,-0.0893616163991357,-0.494274312125431,0.0977148681162694,0.109405544426181,0.0843413579505517,-0.0776179488198031,-0.0280609040004747,-0.00651429509359417,0.64843887796927,-0.0933491105316695,0.0241987934050246,0.0189762668642076,-0.137376887165634,0.0971968952549641,0.179589150418803,0.0539663889166938,0.663620785590101,0.233973992304444,0.182184505612623,0.646137819121371,-0.202812013362376,0.110222312076372,-0.0667198864976227,0.0306845907432731,-0.0137590108202316,0.0418083964815784,0.751050657801042,0.650472296190958,0.0457055394944927,0.197769363829069,-0.0294084760726351,0.495111745208653,0.239669707885627,0.142012962083118,-0.179338290472864,0.0431584626984772,-0.305151661468819,0.307071317575689,0.0768622558851665,-0.204700410044303,-0.11327145282498,0.066484955441151,0.659301267102449,-0.0952321218689814,0.341917795287948,0.176587795542979,0.0950660805688649,0.280020003570601,-0.210476339724578,0.114964445427076,-5.56043059598705e-05,-0.093631383507477,-0.171479158850224,0.761361495290771,0.248784893040785,0.0374435591942634,0.624303274262615,0.230682462067201,0.252191498557243,0.280583632590913,0.844356140434289,-0.205964812456645,0.125279797556919,0.506110642677342,-0.00586692823936447,0.0961517695512683,0.130802102613262,0.217222945518793,0.0605193764250622,0.433784915481487,-0.274491549281469,-0.246642147338128,-0.0320939160757216,0.484593963830987,0.0044362553415396,0.374857953175847,0.201065280647564,0.0225414556507724,0.71597595814998,-0.0339416424228684,-0.0858690628288947,0.672619168013142,0.310554410109406,0.128556494463625,0.898062513448397,0.556018625628253,0.0525409250749043,0.015448397171487,0.146405736130809,0.13886517753788,-0.0132192365223949,-0.0287804540637421,-0.162760042455133,0.0322887435829948,-0.0653121274338408,0.365219344162894,0.420790742678813,0.277110042780965,0.230490713733171,0.387839304840236,0.234899277155808,0.161997102847869,0.0720750055933659,0.91529160878558,-0.0735184263942183,0.0435904337672239,-0.0308033781297847
0.0427291130952413,0.0700847603401779,0.486856424442862,0.282312026691797,0.188347613003935,0.434325507814519,0.189563791225274,0.264781027671141,0.446841346459061,0.351767572252294,0.116625242728735,-0.113259034217659,0.222748496428778,0.668458302529245,0.192631604969053,-0.27252869013681,-0.225363177687388,0.101193271821321,-0.0551870063773722,-0.389573365896678,-0.0252301328390185,-0.124070212910997,0.242299168588462,0.635268785190841,0.409160988279381,0.338961360185151,0.334874167017298,0.287464891756243,0.311097125064581,0.107450911509411,0.02654564930026,0.0729536082383475,0.223973018572083,0.121520583692874,-0.0477425289103408,0.349269610435099,-0.1447444132586,0.60196466824463,0.36526025309495,0.00627818727060372,0.189258964256832,-0.0844052311741349,-0.244782386166093,0.302452572543563,0.0853233685684765,-0.0115771646592347,-0.0676998065110106,0.367320502350722,0.321712644406092,0.179732573186406,0.130432449897736,0.116997014763228,0.0927875240796975,-0.107044844202925,-0.00097712237379027,0.328775617181379,0.0558477494242422,0.235213341967103,0.053122197552459,0.189730209863602,-0.0782743453341664,0.0439483310692992,-0.0957391345633155,-0.177872816213146,0.236955276941622,0.448362475480539,0.0764181410705267,0.123120152576217,0.177011975254195,0.166336196465739,0.238499735006029,0.0761463154716595,0.21908108091321,0.256726661401831,0.0691264090934711,0.551493281754365,0.308182909066594,-0.0189603095694978,0.149065831636355,0.169864686012802,-0.0333538495417141,0.240908629497474,0.147291364605878,0.267749735182531,0.360069684807763,0.0558728254209201,0.0651417183655321,-0.107701361409281,0.328180043106391,-0.317407302863222,-0.114477594108083,-0.48025415271923,0.141781016356104,0.15182351924196,0.10266878621593,-0.0820123714336633,-0.0378100291721528,0.0217086190220846,0.65254059361617,-0.112539987699973,0.0240055907921004,0.0372510407412975,-0.091515629319316,0.0933351071920876,0.203152848437949,0.091939397629345,0.662433004616812,0.281187147726923,0.208043438198322,0.653563672878423,-0.188683859535884,0.104232514525594,-0.0202684832749947,0.0447498967889327,0.0525857251051709,0.0367956897502193,0.725487488945612,0.662113585546626,0.0466790471365601,0.200527817816637,-0.0291253101278068,0.493041183412682,0.274144139959549,0.194536410524757,-0.147040494636994,0.0491913172773766,-0.276131397261989,0.317391125685023,0.116264762476062,-0.20656782227701,-0.0551918971123965,0.0813849845587288,0.663241561308965,-0.0513876337370094,0.340899022229958,0.187041730490058,0.093406282456596,0.299197624101808,-0.16518959262571,0.163994841419643,0.0231899103950501,-0.0898604189852019,-0.195528108927123,0.759208518769268,0.25883030901719,0.0847095412039198,0.646236744310753,0.255362641481094,0.291195308762058,0.264843982036231,0.826066974600462,-0.212210945326034,0.148304852646062,0.514398422979978,-0.0277199726086819,0.108604766293404,0.132007611251612,0.211065899212234,0.0954134707531721,0.46291775208695,-0.258927618475403,-0.248639488435164,0.00245298020414338,0.462959748499016,0.0248959568679245,0.385203014265496,0.222320824344864,0.032304264377071,0.699664550656442,0.0265470134320868,-0.063073605830648,0.652147791654303,0.335484245180515,0.136977083406882,0.878939602787801,0.540703768538658,0.0952702232547082,0.0417158498706945,0.158555222199441,0.169059002012949,0.0137119435555543,0.00201952700286854,-0.125730180675769,0.0621588444306975,-0.0429266470437177,0.371231441493867,0.441687252298308,0.326674061274946,0.253600357605822,0.425497107098212,0.255592300287459,0.14950408095522,0.120639379416362,0.899566650629429,-0.0151925185824882,0.0483378176099957,0.0198191553041995
0.063843096653976,0.114650828586794,0.4785029701926,0.325095810551797,0.177840743062699,0.440170048667828,0.225088348673621,0.304117389565375,0.508347615852332,0.390015462868916,0.134523177169534,-0.0992230824196466,0.215690312825925,0.663747409964422,0.222288712853988,-0.263362543333676,-0.236249990941727,0.0985502989714759,-0.0610371809414157,-0.404055412192042,-0.0222211912313329,-0.0936586758110355,0.259260812040297,0.624876821402975,0.458294108149911,0.363568951333324,0.348369277844069,0.332101082150173,0.353546588459517,0.0942860340158644,0.0284537928558791,0.100222969542894,0.248562286341648,0.119214123208628,-0.0222478551461498,0.397003959078505,-0.141204219626811,0.611912182135586,0.343864723965438,-0.00115572721378999,0.20331791408117,-0.0547580365454771,-0.211403213890623,0.360004687046302,0.116152604135406,0.00393502722033168,-0.0474807828511176,0.401106529359345,0.36946896001765,0.180755632093128,0.121575372484046,0.154541809650805,0.122777171818204,-0.0936217094981589,0.0243989984224998,0.355618414011915,0.0178834588551854,0.236440601979509,0.0860734770167343,0.239946969227322,-0.075120092656391,0.0865603810411113,-0.0430657429859975,-0.130476326339607,0.264377993432355,0.486384654667905,0.114214360873142,0.201416266415151,0.236213846361818,0.135359615074642,0.301006551496359,0.0784983369177804,0.238972095021385,0.275397220796707,0.0926974279448038,0.565143182527328,0.314434527902427,-0.0405928738488573,0.17481459593363,0.187397912201119,0.00662030083862327,0.277019423029408,0.154352687771713,0.330833185222251,0.387764954147994,0.0738461604652745,0.102997252190867,-0.0926308515289735,0.367632171219354,-0.31368713630191,-0.137981517092625,-0.46489787876025,0.185629976242729,0.192927417876928,0.122203760080869,-0.086604477275106,-0.0470836722013951,0.0496531756742876,0.655272131650266,-0.131693926353077,0.024099003493224,0.0559184686338963,-0.0441148089444649,0.0894036611240396,0.226067491103459,0.129525122926005,0.659851776634013,0.327639578242156,0.234237226411813,0.658568263238318,-0.174927206205276,0.0976290608845936,0.0281351471424774,0.0579653167030359,0.118229700882532,0.0326140354622916,0.698918226595111,0.673164943774599,0.0482509743419736,0.20298527340435,-0.0278970458657337,0.488532534444295,0.306340592014098,0.246439421365439,-0.115733971272933,0.0551840561567743,-0.246924944062361,0.327502142298331,0.155864368040759,-0.206282111120211,0.00354121692074434,0.0981205651261045,0.666245359871451,-0.00632040896937533,0.339061738364523,0.197328756464102,0.0907011283949693,0.316773042159056,-0.118482108235867,0.212696133933082,0.0463924681407741,-0.0867156745630434,-0.21429380131685,0.754922760779449,0.267151612405962,0.13088818576493,0.666342298636701,0.279130274383228,0.329431852091436,0.247071372576116,0.806255824998045,-0.21792494473778,0.171556751132556,0.520313313170852,-0.0467348451658212,0.121005689527635,0.133649600837607,0.204275556966353,0.130258720869928,0.491836084836039,-0.242437744237862,-0.250829069806723,0.0360800727495555,0.440332726040816,0.0456246873209616,0.394405628987389,0.242233482131571,0.0419946427216609,0.682825201294012,0.086011033249094,-0.0407463660871649,0.628317723109339,0.359672595026728,0.145217904186189,0.858165228498779,0.522847117109726,0.137198601225739,0.0660913617311571,0.170101693256251,0.197635765175167,0.0387059458899412,0.0322856342595844,-0.089115130098819,0.0910288680208084,-0.0209036214700152,0.375455157197624,0.461896173972425,0.375200399679522,0.276137955402517,0.462635737658809,0.275076900615271,0.136805596186604,0.171728241247783,0.881868935781843,0.0433762230613756,0.052992877455161,0.069805562477035
0.0847147471644646,0.158835483343321,0.468822564445369,0.368144955478115,0.16597097574642,0.444428573074254,0.259976776887593,0.343883491507174,0.571347195728442,0.425704114195475,0.151236477610052,-0.0850733259597987,0.208192217793763,0.657584964897884,0.251290497718264,-0.2529932132079,-0.2464577672459,0.0933773406034857,-0.0658163370988052,-0.418322730627787,-0.0197814547041184,-0.0628380323997781,0.27551649343052,0.613489264951051,0.50749348831418,0.386973044227183,0.36246772755921,0.37581061115079,0.396526169925129,0.0800066616804183,0.0307092110044549,0.126897507586946,0.270941804912983,0.117153607768113,0.00264268850101985,0.444019870499021,-0.136989961135913,0.619941400969443,0.320779926827919,-0.00987247828326965,0.212898899067122,-0.0261442413384659,-0.176874088968483,0.416889941991804,0.146564212594751,0.0206639802772926,-0.0268587434270154,0.433702503062785,0.415485259013681,0.178725962900704,0.113032003095669,0.192503713558552,0.151659611779669,-0.0795925136281979,0.0499607585350318,0.381696181216803,-0.0186864813517583,0.237203755103234,0.118746172113145,0.28822820257348,-0.0725306832319982,0.12897912378797,0.0107217407676852,-0.0822295140086034,0.290788189285947,0.521773224527851,0.15091459696867,0.279788934640924,0.295195009369603,0.102576654984598,0.361397302555309,0.0808837973034305,0.258361174465603,0.293008412519687,0.116438898851764,0.575955072652994,0.319938365586648,-0.0630751770195543,0.199718391609527,0.204308181381055,0.0467639286309814,0.311920797807263,0.160574658496055,0.392228955653928,0.413270420047192,0.0904076874465417,0.14187401510544,-0.0754868731671776,0.404057994847041,-0.308760684736565,-0.159911318329742,-0.448170463899671,0.229055952619084,0.232875772510838,0.143322278337086,-0.0911447706535684,-0.0559999478452695,0.0772780565236148,0.656706282272169,-0.150965170521593,0.0248832575860515,0.0750479407686711,0.00476101576864673,0.0856469686093345,0.248323813354219,0.166626467468314,0.65615261903323,0.373371315270931,0.260857379298699,0.661406285261297,-0.161858323730875,0.0902202481585863,0.078390955845037,0.0704835225882051,0.183577159861988,0.0293740605062942,0.671411936570665,0.683720124125642,0.0508913253929385,0.205190553194045,-0.025765888850513,0.481345230252568,0.336296317061018,0.297666772212908,-0.0856680607711784,0.0611513101307509,-0.217557184766817,0.33759921998368,0.195626502131371,-0.203747510959946,0.0628683096749214,0.116525942543332,0.668488725255928,0.040398832144802,0.336767343639326,0.207669160091697,0.0869827700077078,0.332918854888744,-0.0704313097600957,0.261085693333016,0.0696232828848095,-0.0843548784775512,-0.228207568554313,0.748571183512643,0.273998458287395,0.176085266395822,0.685007688140173,0.30240689392495,0.366828377607356,0.227254839477521,0.785037023044026,-0.223114277023516,0.194654061187387,0.523925043336312,-0.0631823454088318,0.133383480136458,0.135656218263074,0.197094095644317,0.165097867922947,0.520626971787097,-0.225340429763276,-0.253543032162679,0.0685602088823936,0.416826278984513,0.0668667146190389,0.402659858376833,0.260821264535792,0.0518762322766357,0.665420183686974,0.144573068061457,-0.0190131848938229,0.601560814211615,0.383476050387553,0.153643275918023,0.835858435576014,0.502483627101979,0.178549820049761,0.0884295239767954,0.181104368080004,0.224987550072045,0.0619935156453717,0.0620423527774557,-0.0528550761447313,0.119014504830439,0.000901960732985174,0.378285290259096,0.482032472385492,0.423075380857674,0.298216680759067,0.499433056106939,0.293285050566963,0.124149847593995,0.225359261970323,0.862465099037028,0.101994467930828,0.0575638515131023,0.119397647144637
0.105475369212871,0.202777319682365,0.457979596401535,0.411665726529354,0.152842661060923,0.447320344737526,0.294569060486864,0.384106615786431,0.636035897795949,0.459048152124474,0.166768864460745,-0.0708368351139404,0.200335075454883,0.650151745535689,0.279651037261866,-0.241487877196842,-0.25611054356701,0.0859129827672682,-0.0695308150560699,-0.432484486029269,-0.0179555066304498,-0.0316952367793462,0.291252587011656,0.601417485001899,0.557043341164345,0.409163540394063,0.376839960153828,0.41876916249115,0.440281088303998,0.0644956715457877,0.0336561255613673,0.153424571825705,0.291280516154344,0.115292654250015,0.0271144031045051,0.490488222041445,-0.131961918774237,0.626602059476819,0.296264473276537,-0.0199757557242794,0.218620774855582,0.00134700563370398,-0.141454714392137,0.473425498948553,0.176893286222927,0.0386651621778594,-0.00573349317842401,0.465662548917895,0.460092363124499,0.173549343001511,0.104671783266104,0.231201299466351,0.179670249298482,-0.0649460067808153,0.0757482133545588,0.407387469581614,-0.0538998837392965,0.237810769618993,0.151219443131333,0.334672158514563,-0.0704135886705998,0.17091390550831,0.0659616493654435,-0.0330147836663612,0.316523014964093,0.554924393156895,0.18677983242932,0.358460808670969,0.354308183451891,0.0680816903418829,0.419759377503827,0.0836338967539639,0.277702558697409,0.30967871499626,0.14017360201018,0.584373886013569,0.324844874055982,-0.0862576955262526,0.22410756586536,0.220893203344186,0.0874612431811557,0.345592234607781,0.16642305673269,0.452097586401317,0.436924911538088,0.105723689120518,0.181534337722336,-0.0565618818727986,0.437654909635382,-0.302775386549626,-0.180378484566919,-0.430212767406587,0.271793801587178,0.271841504582403,0.166206092329834,-0.0954765006787568,-0.0645736101514722,0.104511541500991,0.65711965030543,-0.170450266159725,0.026584598232579,0.094841488138545,0.0549779994664063,0.0821811673478929,0.269920299044316,0.203005147952356,0.651724238355525,0.418351941336512,0.287976226762578,0.662425076413199,-0.149756209171563,0.081739693131022,0.130378652350853,0.0826280609189806,0.248966537223872,0.0271249426360121,0.643174593236267,0.693988979722172,0.0548848096504995,0.207083997524623,-0.0227729676969163,0.471395358728947,0.364062408558566,0.348234312155482,-0.056960864860745,0.0671398229578881,-0.188132967126321,0.347843618005677,0.235508042353174,-0.199032526701024,0.122767433559173,0.136281443764475,0.670247148461612,0.0890662778258242,0.334545370484112,0.218196336799081,0.0823330120620673,0.347819446273216,-0.0210944824982468,0.309279478314676,0.0928485406345853,-0.0829081182844632,-0.237879531260913,0.740410147378732,0.279574684853054,0.22043906695275,0.702634991934775,0.325475849612463,0.403354929901038,0.205431141305219,0.762633187752212,-0.22781859701073,0.217318509640077,0.525339486563854,-0.0774523101801486,0.145812086794257,0.138002336359488,0.189813041777468,0.200027612335422,0.549437048263578,-0.207910373207016,-0.257037403746162,0.0997173084021609,0.392483107276829,0.0887102282560869,0.410134361151278,0.278053379375124,0.062285376127412,0.64747915701501,0.202402189103625,0.00216156101991746,0.572508631917654,0.407220166455194,0.162508241908302,0.812326930090239,0.479907778474229,0.219604679627089,0.108739742149372,0.191532380073287,0.251507334704523,0.0838517383829463,0.0912527882133801,-0.0169042319730309,0.146237943598587,0.0225610329140884,0.380130355648256,0.502714130564032,0.470669950461099,0.319998806677056,0.536189575421901,0.31025299276007,0.111702058703204,0.281591124432397,0.841787506379685,0.160429865946674,0.0619412453344951,0.168819095025878
0.126156117887702,0.246646351771156,0.446239915832544,0.455680813208725,0.138558562262104,0.449119584603311,0.329123846511792,0.424728537824785,0.702679341699481,0.490439819766951,0.181088571219479,-0.0566679654273982,0.192278946108506,0.641693666664802,0.307343232493503,-0.229077878220359,-0.265402127278152,0.0764087190758756,-0.0721619730286664,-0.446676529355177,-0.0167805854239849,-0.000338437559232502,0.306598724153921,0.589081706693789,0.607151777700172,0.430225344816902,0.391131515195446,0.461167806322642,0.485020278040185,0.0477115072796787,0.0376528555758868,0.18020776824927,0.309699968848354,0.113666939440913,0.0513190369564789,0.536492954480787,-0.126062242131029,0.632338161864669,0.270615386868764,-0.031518559265473,0.221065503486446,0.0277074449975305,-0.105342973215627,0.529943815480255,0.207417730814329,0.0578930194481345,0.0158978271877157,0.497606157669413,0.503701876065706,0.165207317681127,0.0963615735128993,0.270702214336246,0.207117897974129,-0.0496881549517331,0.101889141607774,0.433060890382867,-0.0879805722499,0.238528253840118,0.183588443239669,0.379315885798048,-0.0684787088548585,0.212231300159466,0.122921160372524,0.0172477578111724,0.341892802655332,0.586323498454129,0.222051222377018,0.437642231291991,0.413824525863342,0.0320397938750587,0.476319136801354,0.0870143835311804,0.297370158768904,0.32559167355395,0.163786596457537,0.590918605449724,0.32933608479539,-0.110061834051617,0.248178831642623,0.237352126147354,0.129039140239191,0.377960509554059,0.17217787002761,0.510642466123065,0.459080652066927,0.120021903408084,0.221799601031953,-0.0362283771522461,0.468827514237046,-0.295911167566657,-0.199582102396245,-0.411340667100761,0.313685896117572,0.309895776569964,0.190885409401459,-0.0995044589822754,-0.0727936740391073,0.131258046181489,0.656961957081285,-0.190168597027517,0.0291459907350548,0.115632702538,0.106352686169706,0.0790988443380381,0.290903526222844,0.238350407224552,0.646915920626351,0.462556847275545,0.315667135624654,0.662078003485783,-0.138903456318814,0.0719171106077598,0.183982675527289,0.0947832375689871,0.314623642242791,0.0258108983417837,0.614501407176346,0.704253828689865,0.0603550284383123,0.208557938657008,-0.0189770117488801,0.458844199470371,0.38977776749921,0.398170993242696,-0.0296076015037215,0.0732497750183808,-0.158794391865815,0.358346718312508,0.275538072729391,-0.192371484955712,0.183302040507327,0.157003191739252,0.671722486003382,0.139883712763047,0.332947029621293,0.228932850840564,0.0767990823301263,0.361622896838659,0.0295561255166729,0.357513517544811,0.115986787797712,-0.0824135439098314,-0.244016736509279,0.730912223490106,0.284032191314551,0.264134269489629,0.719591203258515,0.348466739090184,0.439019172344805,0.18171660105024,0.739318711815992,-0.232109953070187,0.239426556940203,0.524767921728404,-0.0899360186754167,0.158389450103894,0.140714760014468,0.182735007711807,0.235191542222861,0.578397949880842,-0.190395164035746,-0.261415055224502,0.12944408290638,0.367367189730491,0.111152836743441,0.416973166553778,0.293891336536532,0.0736279537191695,0.629165182801864,0.259701616460527,0.0229751794259563,0.541824112991535,0.431085846172361,0.171899799046831,0.787995028651889,0.455680853571412,0.26066109644018,0.127223540972616,0.201339096445085,0.277563612425916,0.104505792786702,0.119872499215328,0.0187908794132532,0.172843490790468,0.0440708836253308,0.381343260765926,0.524531011568762,0.518306492168161,0.341661653248612,0.573133553002096,0.326041822480135,0.0995752087419697,0.340518947489585,0.820436165364988,0.218430325413853,0.0659528576322389,0.218299374048678
0.146680481650994,0.290625435012035,0.43393732351235,0.500065661273073,0.123211299208147,0.450114349284836,0.363796393552396,0.465631911872258,0.771640731558031,0.520329651030509,0.194165737000089,-0.0427383588500487,0.184146506611439,0.632412414168905,0.334308197816978,-0.21605007931623,-0.274515508984614,0.0651374350592606,-0.0737493139167227,-0.460971347967343,-0.0162636845273851,0.0310838636331663,0.321541003758709,0.576812759515229,0.657944209561162,0.450293619471269,0.40507893268659,0.503249594688429,0.530951069616461,0.0296182350147363,0.0428180783977431,0.2075077142899,0.326271655327771,0.11225157855562,0.0753059432557349,0.582070346703525,-0.119334662443295,0.63745676241389,0.244097790101934,-0.0445040955744468,0.220758425727112,0.0529765219951836,-0.0687073612221391,0.586723347345902,0.238320646010818,0.0782877205638022,0.0379745689943651,0.530087926941106,0.546724599856799,0.153898424730577,0.0878421307125439,0.310866723818768,0.234228565822584,-0.0338854127886015,0.128641358175927,0.459017295968733,-0.121206660405218,0.239544960438503,0.215947176647846,0.422197793125707,-0.0663408936869734,0.252914237804232,0.181802562418068,0.068602008755581,0.367122240689162,0.616475487475909,0.256906925788616,0.517578452373449,0.473873151340157,-0.00532446755024735,0.531365221347427,0.0911422916099337,0.317668543553734,0.341005116301148,0.18725555376796,0.596186284393999,0.333594955165929,-0.134529013053948,0.272039377099901,0.253777524571157,0.171634428865042,0.408986754467093,0.177982517869284,0.568133125146165,0.480070192950246,0.133565918006221,0.262516945828752,-0.0148734383047146,0.498156410177413,-0.28836362268315,-0.217783762653864,-0.39193655276537,0.354738209418559,0.347010943014886,0.217397000256009,-0.103125780040084,-0.0807074358666836,0.157464424067781,0.65662176099075,-0.210146501941353,0.0323596366547847,0.137663229371032,0.15870458211309,0.0765200901003098,0.311357026941507,0.272385273254699,0.641911333874365,0.506007416995404,0.343967501950396,0.66089459435294,-0.12965477051645,0.0606939226288518,0.239121811919169,0.107237640065594,0.380675469914096,0.0253273590664647,0.585652163067357,0.714753103546855,0.0673221174488894,0.209535212230485,-0.0144932699778413,0.444065669047531,0.4136963230139,0.447543419090561,-0.00351663115208672,0.0796106846271051,-0.129657855556686,0.369187112394651,0.315847706172565,-0.184169952162153,0.244596025521515,0.17835286967242,0.672918038924604,0.192972506537841,0.332337213150831,0.239816360526303,0.0703523723608,0.374472411506724,0.0815529208577891,0.406097912801663,0.138946109384797,-0.0827499910558789,-0.247359359487639,0.720565327454851,0.28750754212865,0.3073948397612,0.736165001043394,0.371419527827717,0.473845433573444,0.156316426951159,0.715291986720683,-0.236129847667698,0.260897807524282,0.522489245886695,-0.100970433193267,0.17116975998272,0.143861288304663,0.176128931244076,0.270752365815894,0.607552181009352,-0.172934735944525,-0.266582869566775,0.157704704350034,0.341561529339194,0.134155957641859,0.423349125861357,0.308354297494732,0.0862821858343111,0.610661172160679,0.316655756898976,0.0436592460544565,0.510053990453675,0.455084502338551,0.181780053981685,0.763211714198724,0.430421031620855,0.30198031595936,0.144239901613545,0.210549647234774,0.303541523566682,0.124074728695501,0.147922713034756,0.0543241366298738,0.198993958546479,0.0653847813765415,0.382168211671042,0.547966631801457,0.566231246594817,0.363346850429724,0.610259056770837,0.340724080400886,0.0878668493381813,0.402148028708421,0.798959833694864,0.275832415008816,0.0694480993164162,0.268030281274714
0.166953828109734,0.334812955296626,0.421323288599902,0.544725103478507,0.10693426078836,0.450520528796479,0.398611517662767,0.506716506773475,0.84330739089892,0.54909737628014,0.206027825068661,-0.0291141434729133,0.175882783179698,0.622424163012729,0.360518607163885,-0.202603548390596,-0.283560226538133,0.0524221837033906,-0.0744117992351149,-0.475376984425369,-0.0164156811578002,0.0624288280628399,0.335994479001949,0.564731344267284,0.709438249929968,0.469460537654159,0.418518375477105,0.54522578464606,0.578250190638023,0.0102626331334741,0.0489235800871766,0.235455595793092,0.341108881784739,0.110922767312155,0.0990438255868824,0.62730582248438,-0.11190292619357,0.642117799798813,0.216894754610098,-0.0588393009852864,0.218175179114989,0.0772413959135096,-0.0317343448742601,0.643913377240052,0.269653449302939,0.0998419801466751,0.0604379283241679,0.563427471937244,0.589483253189805,0.14005602990526,0.0787963586025673,0.351580446661922,0.261068942198463,-0.0176863340384315,0.156275619736751,0.485475935575429,-0.153718631214161,0.240921251462753,0.248441594063528,0.46343757174818,-0.0636930945703412,0.292996668748369,0.242687884641706,0.121068570138155,0.392367089398135,0.64583265325664,0.291474845358691,0.598455154663685,0.534459962290428,-0.0437920053473736,0.585130360999695,0.0959506570982692,0.33883527251472,0.356168175459291,0.210620799169552,0.600762784974328,0.337668207945855,-0.159738921694552,0.295809875078484,0.27022203255372,0.215186203014748,0.438660710833529,0.183887961272811,0.624854607182595,0.500188636797282,0.146611882418813,0.303495118669435,0.00719968603951033,0.526258085664925,-0.280346438630808,-0.235180941577467,-0.372286959745893,0.395114444671859,0.383181611500599,0.245789712312499,-0.106245115148736,-0.0884203553949976,0.183168730607182,0.656306736306974,-0.2304676630518,0.0360532271659004,0.160970385050744,0.211864369794567,0.0745329174890269,0.331338172013965,0.304959507348382,0.636716364659202,0.548702387534818,0.372818496627823,0.659368102523138,-0.122377948996163,0.0483282056110668,0.295729956599584,0.120057546103788,0.447191085449786,0.0255659004953648,0.556783789556651,0.725608858764029,0.0756914715681873,0.209961811786412,-0.00947321044784822,0.427515624968339,0.436136837671283,0.496468479454078,0.0214518645721755,0.0864129616675106,-0.10071147968965,0.380382321049432,0.356607186762241,-0.174922013336885,0.306710893228244,0.200136599635001,0.673665815760492,0.24835275119881,0.332770439181656,0.250720866295505,0.0629132648120724,0.38649768480152,0.134826482395702,0.455274726262613,0.161643844824061,-0.0837214400565317,-0.248570429827292,0.709691570812345,0.290148973303501,0.350443506013441,0.752553077952036,0.394368482287566,0.507888579550596,0.12950549592198,0.690586273062927,-0.240083149937545,0.281610370445172,0.51875653251308,-0.110820406548537,0.184160317680539,0.147450548938831,0.17019446710578,0.306784663281369,0.636792448181701,-0.155538570835362,-0.272329047952153,0.184580265088427,0.315102944390632,0.157649658608378,0.429494693803172,0.321544238038603,0.100506167012038,0.592050260046695,0.373399861108337,0.0643781859054738,0.47758895107846,0.47917748145633,0.191999127358645,0.738130605476975,0.404576108325807,0.343758362306783,0.160164514604889,0.219255539104362,0.329776827283923,0.142561830345935,0.175453708298176,0.0899074628579635,0.224835112051734,0.0864306971103094,0.382744588567579,0.573290618286738,0.614654220009851,0.385147005269864,0.647387902094008,0.354376178813401,0.0766508450655692,0.46626808525491,0.777647414725369,0.332580231173574,0.072403376155612,0.318090409132943
0.186892512666707,0.379220630604374,0.408501556435324,0.58974152536143,0.0898813626341518,0.450478109059853,0.433504375686433,0.547974891147312,0.917861533232685,0.577033276722292,0.216758500427251,-0.015729076617032,0.167360631329071,0.611806167465927,0.386012560141548,-0.18879025043052,-0.292568116637193,0.0385811994502046,-0.0743597193591689,-0.489888301007267,-0.0172362923915629,0.0936239441734947,0.349909815720545,0.552768593279375,0.761521345200276,0.487765256654921,0.431368395730043,0.587194518806383,0.626977705908106,-0.010120478969587,0.055599002560658,0.26416283937984,0.354457549571846,0.109589806444673,0.122524485848313,0.672381926296711,-0.103907606422622,0.646377561278764,0.189153248803617,-0.0742902318111019,0.213778203115202,0.100663946395525,0.00539393906767694,0.701561341215072,0.301319068823317,0.122613663742057,0.0832067208232004,0.597645710154623,0.632170542992262,0.124219960094553,0.0690477935834848,0.392900784156038,0.287644794350805,-0.00124445870563182,0.18491604436953,0.512534299228362,-0.185542867816922,0.242593701970389,0.281257364912661,0.503219348345584,-0.0603415637483428,0.332581313066859,0.305444969450396,0.174615877570769,0.41775233393264,0.674754915891027,0.325845012132477,0.680281044476858,0.595559199081417,-0.0831986287664405,0.637828518989628,0.101278737791299,0.361022927633692,0.371241530777761,0.233993545100152,0.605086476862204,0.341463740267221,-0.185688197832551,0.319645797464,0.286739763388171,0.259531350516344,0.466995189279475,0.189919404128645,0.681049576109907,0.519632270769139,0.15939007941212,0.344573370642,0.0297692612248615,0.553660501867305,-0.272109066897385,-0.251875644667274,-0.352489209333361,0.435106162263497,0.418520117928499,0.27599030421264,-0.108868831302235,-0.0960022977088913,0.208494619027019,0.656123260354665,-0.25127236356116,0.0401793626743647,0.185480511960248,0.265631513676012,0.0731708359670862,0.350859964386938,0.336109416724419,0.63125111136072,0.590593130642948,0.402110802367849,0.657826247425293,-0.117229951215672,0.0352183999113715,0.353702425185094,0.133124026365232,0.514226305128581,0.0263932320165941,0.527981779186114,0.736845458923551,0.0852627860994103,0.209775405456303,-0.00413150759483244,0.409666746585217,0.457411534529494,0.545065468591114,0.0454710598962243,0.0938356667067714,-0.071854246916008,0.391895861543721,0.397911093641446,-0.165017247349624,0.369610151597982,0.22237358161322,0.673774239497957,0.305917441308284,0.334062943236819,0.261565145631482,0.054441376565024,0.397840429496177,0.189192799026755,0.50513734440209,0.184043718449744,-0.0851369382509492,-0.248191756784521,0.698483025887008,0.292156612628445,0.393452874127575,0.768850272748414,0.417338186082183,0.54126751787,0.101605184788141,0.66517544727472,-0.244138371531149,0.301498831515289,0.51381675894755,-0.119695498166219,0.197326283475705,0.151338492447933,0.165031618298841,0.343219463750764,0.66594133491775,-0.13818015126552,-0.278455028266327,0.210254181873574,0.288007135335034,0.181573841329743,0.435693471178219,0.333662602967837,0.116436644044561,0.573342011184664,0.430037196674916,0.0852738690635119,0.44469229919607,0.503415160464842,0.202389023215216,0.712772581164001,0.378443748642319,0.386114710560308,0.17530843874737,0.227580309348278,0.356436196228774,0.159901264854715,0.20248211400467,0.125798727565255,0.250508361225663,0.107142565092561,0.383144530549415,0.600507549898887,0.663801389845724,0.407138055349333,0.684379936014935,0.367117726778816,0.0659764192547764,0.532517152030305,0.756558211303937,0.388658545459217,0.0749915180279796,0.368477165817891
