-0.359704973591126,-0.559889927577244,0.462858782955776,0.00893316542092476,0.434320417912264,0.798625268793141,-0.32848556556687,0.159033028620598,-0.311114379834977,-0.0605071221949083,-0.38184019793567,0.277212074850838,0.522623575123776,0.153427388006555,-0.0574938165239559,0.28994489994104,0.422031772046818,0.293376382745326,0.678028040077819,0.142161843760923,0.36186770966051,-0.137860712538985,0.0951616899149465,0.150314496277446,0.18489934323351,-0.213915114441658,-0.186616099372407,0.234469229344683,0.0199180547457813,0.595987863281375,0.0926772373432767,0.0237399072637885,0.345498950010001,0.538200476870809,0.348683546187432,-0.466322513572752,0.571381331169192,0.281504742646941,1.20280699663727,-0.0323838358546997,-0.462165670561803,-0.382802002883957,-0.288571751273535,-0.0960886934235528,0.168033142343683,0.00676740131247497,-0.331528214402388,0.542076970463519,0.185281387421724,0.0759259604000574,0.687564804820878,-0.0887718690127195,-0.474936314967182,-0.227399744884019,-0.311708829854239,0.0932794821142105,0.563143457043184,-0.052651846692122,-0.536182800516876,-0.79649261737721,0.215356531823698,-0.289503459424116,-0.447222395095542,-0.352377955238981,0.29363674391728,0.206620803553751,0.140049936292924,-0.958205651981535,-0.161575755642593,0.636323233021287,-0.862039212003102,0.413269162293932,0.267536407927452,0.500704348540449,-0.157771360832673,0.51212493913514,0.513707564667096,0.544608691121051,0.298563329883808,0.133269491942979,-0.507576687994859,-0.200686160086241,0.57378305381852,-0.736798258410484,0.408328689988653,-0.0199837596329914,-0.436331579619499,-0.277516011354125,-0.570039183659313,-0.240687789645792,0.799201998685269,-0.655005100247272,-0.452582087344943,0.162398235138955,-0.121005040753806,0.166174807851838,0.285675527626294,-0.304199304741351,0.119210495722021,0.408652934894708,0.152132324457568,-0.416443261112037,-0.574549437971668,0.568634402519846,0.112766619247141,-0.251888663702452,0.596962338587782,-0.352928544837551,-0.184735859686177,0.727862424323273,-0.317985150454796,0.257611518934689,-0.47976215482065,-0.18780781127119,-0.806330627947004,0.530672126298521,0.456411539130414,0.0808703747798186,0.288626142247707,0.212230643300392,0.746484812186402,0.361747200920165,-0.389164165570618,-0.457669890113329,-0.292735334928229,-0.0962975249621072,-0.477505455133127,0.396021661336623,0.346084803223741,0.215009779947743,-0.879753995398228,0.373940145992025,0.285579576014804,-0.36702493921989,0.895124519006713,0.475816608121671,0.163595705352835,0.368336495488684,-0.736744786891057,0.00459588606077107,0.0895124963027135,0.117913975201868,0.382004889798366,0.512980651628672,0.199730567481915,0.111563948239224,0.250857644797204,0.259727723356144,0.0167032858045091,0.175909912386957,0.431490928463423,0.589800409567237,-0.368241757854863,0.40745590578607,0.493067040712998,0.230378054731422,0.0816745456002867,0.291502064123878,0.347671183538489,-0.0149381108570788,0.287642054964973,0.412770930221176,-0.213434408777502,1.06942884358112,0.635161838035232,0.859748585210876,0.444490586262231,-0.0902708390158043,0.386558294349947,-0.367929523972395,0.0257225909439744,0.891976266674715,0.267348831028535,0.199559920790688,0.458754291744921,0.506884032761008,-0.172132836945533,-0.167377496145319,0.3841444777493,0.27262559110766,-0.150074550980509,-0.38597678093788,-0.412749809763206,0.23543630423237,0.232596343921924,0.339925038583594,0.636240556900668,-0.3851906508972,0.239379444537079,-0.402872572781366,0.155037078582809,0.773842091766104,-0.514293046875044,0.472849579231865,-0.518440841302548,0.200804210292231,-0.719899192511725
-0.329861278595731,-0.510945516770954,0.452001325007439,0.025277249164263,0.419753437489812,0.803929577182886,-0.289770907344611,0.178162304587585,-0.282682511684782,-0.0117252524064043,-0.353583217723988,0.283926788314721,0.512862948152869,0.153408924962895,-0.03874547468372,0.295914726624658,0.408040166415508,0.296673541386422,0.647695598869014,0.136692420466779,0.361094339642422,-0.116523656210579,0.116508690581513,0.149493676847292,0.213125336848666,-0.187448897470765,-0.175069548238464,0.269868899394069,0.0493591566670095,0.578314311876453,0.0988781610189878,0.0490694857889859,0.365852786125428,0.521891786319895,0.367983288991632,-0.420368720462619,0.571839767413158,0.295670253232823,1.1695918399452,-0.0240275353321939,-0.40926121777386,-0.353406907381286,-0.252632351733028,-0.0507956107612237,0.19972340963815,0.0129320283929782,-0.321535268145319,0.568075408699379,0.228091365437176,0.088778951928865,0.666413561598479,-0.056384269655836,-0.438885484982802,-0.211064720946647,-0.276361791252745,0.116459620041872,0.524612267525183,-0.0549176318077644,-0.496656967668567,-0.723981162195669,0.222655027086524,-0.26488159416751,-0.407107597712151,-0.315718099759166,0.31908753200037,0.238869539161577,0.170897438364024,-0.873119464192668,-0.112950587766567,0.613288121238341,-0.783876439409817,0.4072628688343,0.271892491489785,0.515043321581251,-0.148496346942939,0.532358946450533,0.511243968300137,0.515301852524902,0.321695857017681,0.143656856729681,-0.472142560300269,-0.171935611541911,0.570420607442864,-0.670112525730122,0.436278882120584,-0.0044172758231058,-0.409588834005422,-0.270090877797183,-0.519836746879058,-0.237271453305032,0.757204460775421,-0.637255342604247,-0.413610309054927,0.190611675541486,-0.109931101290218,0.163236264665534,0.274283270456936,-0.274675158797213,0.120610482660946,0.392431721608836,0.155408333058419,-0.389234413509434,-0.539292773364264,0.571441200376531,0.127803766592159,-0.228009448979796,0.595198612152356,-0.311416839535356,-0.157044561644364,0.731818550108894,-0.308265391246189,0.243930714650233,-0.447746615066519,-0.171540000467989,-0.741221662841894,0.51101125766365,0.438304122443679,0.0905680129231909,0.283339083088229,0.209502581108092,0.731112145229499,0.359317100471612,-0.343816737905364,-0.413641925299096,-0.251254391329128,-0.0925369720439987,-0.448637397225008,0.388107604941498,0.374325646719127,0.205947030518771,-0.819022252947868,0.366859130508708,0.286209588766013,-0.330096563118722,0.888764784946385,0.471583414258673,0.154693914168086,0.376326832031789,-0.698033214679032,0.0494584392278719,0.0999319848481956,0.119663983996271,0.347448708039787,0.50588734295071,0.204880725240973,0.150426958132863,0.270583624723213,0.274073498469818,0.0448138989527661,0.171312736436441,0.413765579511043,0.573261315348888,-0.3394667321027,0.424059951678429,0.461646863660061,0.233545559862541,0.0804105440261103,0.295108038101389,0.374599427234915,-0.000872546853375585,0.295489970937344,0.408649957843413,-0.192001812368289,1.03752724514847,0.64639364123477,0.841812337984941,0.451023286215794,-0.0740172375347539,0.374200153879644,-0.316429956178794,0.0531629382751529,0.866816168297646,0.272545860740245,0.195983647937412,0.444202329053261,0.489072190754877,-0.127961126349612,-0.13624176811716,0.383568921334513,0.298011190010289,-0.119737435735786,-0.359746155793203,-0.369834389495433,0.268948965822544,0.252736974467789,0.338958170217263,0.637161349174769,-0.344939327771931,0.254658115265186,-0.361807397718053,0.171852260246586,0.749758648750417,-0.486072215681938,0.460599330544899,-0.465343898625816,0.197827292751925,-0.662373982051863
-0.300041176711937,-0.462010121794713,0.441159286223217,0.0416439702823022,0.405173248655637,0.809198567796184,-0.251056301332565,0.19730366446138,-0.254223211447812,0.0370279175959324,-0.325336105802073,0.290657766738111,0.503092944474362,0.153375478021211,-0.0199951239187099,0.301886930392239,0.394049141842403,0.299970541255433,0.617357085394841,0.131216167188846,0.360333941685345,-0.0951943151692158,0.137841421306109,0.148670874933829,0.241347094425733,-0.160973234274403,-0.163541453688824,0.305264625015945,0.0788047111349817,0.560623017609641,0.105073638249786,0.0743890726770229,0.386197167669567,0.505595251799328,0.387282804820643,-0.374393558392394,0.572299895031816,0.30981866726996,1.13637708614649,-0.0156811679924339,-0.356338756532753,-0.323997295423301,-0.216708174324902,-0.00549537518831413,0.231404162714778,0.0191190068848233,-0.311532250790147,0.594056835410356,0.270904626895582,0.101624484199065,0.645250677603912,-0.0240035840050824,-0.402822212252497,-0.194731767208695,-0.241032105164258,0.139638826444186,0.486075885668541,-0.0572003283171182,-0.457118667912919,-0.651489274334247,0.22994033697895,-0.240232479969343,-0.366994639993942,-0.279065712236655,0.344520404806244,0.271111642214221,0.201770522600971,-0.788035338091763,-0.0643237572483949,0.590239819087512,-0.705734684792966,0.40125945702418,0.276266118699887,0.529388951802815,-0.139214325306476,0.552595781627484,0.508754583052144,0.485968932025925,0.344823023263776,0.154060660475276,-0.43668343933041,-0.143171594948607,0.567062335635373,-0.603427896531952,0.46423660233456,0.0111697404068448,-0.382842885803256,-0.262661068523121,-0.469634885031536,-0.233861088148052,0.715195751022245,-0.619483168993965,-0.374618270834241,0.218841087911705,-0.0988375186808837,0.160291156980013,0.262877383171899,-0.245155791588778,0.122016852828682,0.376216508661293,0.15869623188011,-0.362046572441925,-0.504015411964155,0.574259144521608,0.142849219752832,-0.20409643976947,0.593407338390676,-0.269897899561829,-0.129360993527159,0.735769065106019,-0.298530062495458,0.230257195899699,-0.415720305610045,-0.155280543690299,-0.676106456846324,0.491360423534597,0.420194011401205,0.100254560330777,0.278026184582161,0.206788144495812,0.715724651521013,0.356867157907396,-0.29844572181972,-0.369603346620638,-0.20980635219396,-0.0887451060494525,-0.419745964481044,0.38019888391589,0.402546450820852,0.196891023615483,-0.758285819743119,0.359782837531079,0.286815586761776,-0.293172437391804,0.882371201805631,0.467369330662253,0.145780421401123,0.384320244439504,-0.65930607895174,0.0943104725111561,0.110349113075972,0.121390639153502,0.312877795889796,0.498780843231312,0.210072113551852,0.189303660206905,0.2903082729307,0.288424130615104,0.0729224577660855,0.166725644817669,0.396059468864514,0.556729606042148,-0.310714931741999,0.440647711561101,0.43020803150451,0.23670313325312,0.0791489700772788,0.298678836424502,0.401516747376801,0.0131815394563588,0.303329366018873,0.404511103993996,-0.170554832730678,1.00560842915018,0.657625427303297,0.823870547968464,0.457555217833491,-0.057756428627265,0.361845585107916,-0.264914086603352,0.0805786910166286,0.841638403672936,0.277748477697114,0.192412307940893,0.429644460766516,0.47126421657477,-0.0837911929204363,-0.105097828189925,0.383016640735323,0.323395474542242,-0.0894197689788703,-0.333492367691246,-0.326932300827406,0.302463256791359,0.272836890862949,0.337979300582522,0.638059298853303,-0.304699456183331,0.26994301824537,-0.32075879246344,0.188662978177308,0.725665832259523,-0.457856136649638,0.448349052875261,-0.412229718957835,0.194837312830105,-0.604837820603774
-0.270297455714751,-0.413091083718201,0.430380886429801,0.0580881402876468,0.390578750780508,0.814351963656695,-0.212360712215618,0.216497241087689,-0.22567263991547,0.085703166952804,-0.297115425299454,0.297439027416811,0.493302717406825,0.153325081565456,-0.00123647528712157,0.307869843979666,0.380057543555933,0.303261281918202,0.587000624889632,0.125741528333536,0.359623052284869,-0.073868476194434,0.159102914265543,0.147864971043379,0.269558349274347,-0.134475618981844,-0.152061927503849,0.340635400521029,0.108265777682569,0.542879421035548,0.111238427779463,0.0996825064952877,0.406506074163244,0.489347551217575,0.406569379128259,-0.328362327297705,0.572774770331834,0.323916876984465,1.10316786558488,-0.00738002051604755,-0.303375677118935,-0.294551268048047,-0.180806729815932,0.0398380295636243,0.263064514880292,0.0253671371473964,-0.301489584442068,0.619991604414016,0.313732633455744,0.11444894635596,0.624053972230684,0.00837826241434151,-0.366720360082533,-0.178401020020346,-0.205755839515032,0.162808783675307,0.447515492362676,-0.0594930209442947,-0.417569050278458,-0.579089019436843,0.237203819013524,-0.215498736813643,-0.32689429824138,-0.242429306689818,0.369898652700907,0.30334456334614,0.232722044451924,-0.702960245091411,-0.015693148655308,0.56717111715976,-0.627657924455231,0.395268250660061,0.280698128352603,0.543751546521898,-0.129899640213878,0.572844768091814,0.50619809287843,0.456591888825396,0.367929277480538,0.164510665559511,-0.401158748860106,-0.114375997808973,0.563722033403785,-0.53675117402741,0.492212536281251,0.0268239038855077,-0.356077197635033,-0.255225699530413,-0.419431894205571,-0.23046606740271,0.673171138877556,-0.6016554772045,-0.335566848125432,0.247118689279525,-0.0876828200571264,0.157325893505363,0.251403604249411,-0.215651775287236,0.123473042406693,0.360013045363898,0.162022649774591,-0.334935598976404,-0.468678375045368,0.577096289460376,0.157905863365356,-0.180074805862134,0.591555805704802,-0.228351266743771,-0.101697030486111,0.739698883923115,-0.288729174829073,0.21661492292317,-0.383645747085701,-0.13903682555408,-0.610967590942823,0.47173739456576,0.402098191133014,0.109928698208166,0.272647011202757,0.204120332487614,0.700288501743008,0.354373475550188,-0.253024266754772,-0.325549882310229,-0.168436176524821,-0.0848590972797618,-0.390780602524505,0.372325950445429,0.430724227971114,0.187881501189649,-0.697532116381829,0.35273549157156,0.287373794319726,-0.256255877733888,0.8758700452824,0.463203073925788,0.13685460029175,0.392335993120719,-0.62051753264824,0.13913571028605,0.120764163178059,0.123041998684465,0.278253983770183,0.491663438064817,0.215384515497537,0.228235801289522,0.310036880226962,0.302786326062952,0.101023253540601,0.16216770443837,0.378437843142081,0.540240767456636,-0.282026306281534,0.457188127614794,0.398713013176238,0.239840001410852,0.077915535235635,0.302128546488126,0.428398693200937,0.0272264598093862,0.311146035993894,0.400328865834615,-0.149046164822244,0.973622540606586,0.668858956743978,0.805922350358042,0.464089914847637,-0.0414850650009132,0.349516792790751,-0.213347273018007,0.107922604069158,0.816408500794978,0.282991605886195,0.188858293330485,0.415087521121158,0.453487995383422,-0.0396300561829879,-0.0739206009765492,0.382544086803522,0.348762317140307,-0.0591472149975988,-0.30717295668181,-0.284071159185013,0.335974593360097,0.292819696887685,0.336948078804421,0.638891206057363,-0.264499366062149,0.285255408439602,-0.279741072055231,0.205456332130557,0.701542637559571,-0.429650434584195,0.436131082217176,-0.359062888013003,0.191818044010807,-0.547259730208378
-0.240724393989343,-0.364190110597443,0.419755732048182,0.0747160566738442,0.376002518514668,0.819268233225371,-0.173755650629124,0.235823344855699,-0.196924803487205,0.134243816340592,-0.268949259368878,0.304309634451617,0.483495722005154,0.153298774656465,0.0175319063357796,0.313870999384903,0.366058766500904,0.30653610613938,0.556620864505613,0.120306960118693,0.359021300921929,-0.0525008040134268,0.180178900653584,0.147131481674281,0.297750889130787,-0.107960748632707,-0.140671381989892,0.375938472841223,0.137759184575379,0.52503650070234,0.117322094378119,0.124932678793184,0.426746543889631,0.473223733696304,0.425806321612077,-0.282237510459988,0.573289501121003,0.337920809104599,1.06998867980439,0.000790907834217442,-0.25038113187806,-0.265058437752575,-0.144916400134694,0.085262628344846,0.294697120425834,0.0317166723955264,-0.291352736557997,0.645860902786054,0.356606332421266,0.127233859553148,0.602800472780243,0.0407909358865215,-0.330538759319462,-0.162064101361861,-0.170593636553584,0.18595185544584,0.408890694976956,-0.0617188696516461,-0.378059857128015,-0.506946172655162,0.244460694182039,-0.190589842500882,-0.286841154214834,-0.205808822268793,0.395157034772326,0.335587201865258,0.263822318121515,-0.617910603031234,0.0329451267154741,0.544086742802669,-0.549723536474057,0.389300536644605,0.285259102887121,0.55814049681357,-0.120515651995282,0.593126176291072,0.503535887938275,0.427218903955281,0.390980356692776,0.175050761658291,-0.365532477367484,-0.0855445897386693,0.560424593131426,-0.470101743064583,0.520200259661585,0.0426081533247014,-0.329254483820172,-0.247794107964084,-0.369228638151373,-0.227114731143317,0.631160232054127,-0.583747807549639,-0.296401618893821,0.275496293942574,-0.0763975844583228,0.15430869121926,0.239748712474723,-0.186184074283881,0.125091243982776,0.343809535979476,0.165421952709818,-0.307995409096197,-0.433236600225208,0.579935653346183,0.172944549828478,-0.155830323883577,0.589638454400998,-0.186740629697077,-0.0740705927819651,0.743585111144973,-0.278770313563798,0.203052224547281,-0.351440885971553,-0.122797778682314,-0.545790385068202,0.452147200188364,0.384066434856304,0.119618377835319,0.26716951996774,0.201549021455041,0.684769924321621,0.351834924289932,-0.207572158028574,-0.281504806860971,-0.127168630018317,-0.0807869523283252,-0.361675328479717,0.364579945938974,0.458856107103475,0.179002269783986,-0.636754789734178,0.345770146655022,0.287891255291486,-0.219346392175815,0.869167500693022,0.459103731039318,0.127952054838455,0.400414103022942,-0.581592763009454,0.183918675558816,0.131193675695973,0.124537825361856,0.243515010242855,0.484570839078852,0.220897400473565,0.267299741700338,0.329790227864368,0.31715778168281,0.129110034783953,0.157651687691676,0.3610272994365,0.523878563855935,-0.253443660261162,0.473640849439505,0.367112023970252,0.242946623320778,0.0767764052997714,0.305320207645577,0.455215941540849,0.0413130444308196,0.31892610234125,0.396093033184981,-0.127383426207952,0.941475076230804,0.68009997823945,0.7879913728701,0.470634556331922,-0.0252206685189283,0.337262059357026,-0.161683681896428,0.135126210252463,0.791083743127883,0.288363502001921,0.185367067487865,0.400572949903939,0.435788336833875,0.00449931278809379,-0.0426701622978469,0.38222919460503,0.374068024065789,-0.0289270397510088,-0.280750188649313,-0.241294682280457,0.369453094806553,0.312594291343138,0.335777346058849,0.639603031076055,-0.22439250394393,0.300655977430183,-0.238753081058202,0.222196613609157,0.677365882858833,-0.401458731945696,0.424026344906338,-0.305795820998952,0.188774678888782,-0.48958906525793
-0.211448024908655,-0.315319726838318,0.409376767913999,0.0916828591238091,0.361482048884113,0.823823968044884,-0.135371438933083,0.255371416779515,-0.167848738360813,0.182588407288251,-0.240889134147586,0.311279343110749,0.473700496096767,0.153373861394595,0.0362933545723556,0.319876705514559,0.352039775342186,0.309797193869416,0.526235994808019,0.11495309636683,0.358583976624856,-0.0309863856249415,0.200945939781423,0.146530067754674,0.325902452967515,-0.0814661385537028,-0.129428443258885,0.411138482608498,0.16731194088888,0.50704288866877,0.123278536814838,0.150119025705755,0.4469186957196,0.457328331797704,0.44494688361951,-0.235984175104933,0.573855857012988,0.351785101426019,1.03689225763116,0.00868765821756954,-0.197433725579983,-0.235543628826484,-0.109041796934926,0.130867014281228,0.326287273605964,0.0381962046413404,-0.281061987807516,0.671694793932927,0.399590774890817,0.139939786624636,0.581482231799144,0.0732477710038688,-0.294217273622869,-0.145706983477716,-0.135634100842203,0.209040401109449,0.370142070457719,-0.0637542271912967,-0.338693332237537,-0.435306154741268,0.251741528718173,-0.16540389271686,-0.246908371218248,-0.169194090043772,0.420217983066081,0.367879580413913,0.295128400227708,-0.532908524726235,0.0816024822265914,0.520963048306877,-0.472047040872706,0.383353559632202,0.290038978616024,0.572546321369633,-0.11105050706158,0.613464466320636,0.500746776457178,0.397970581708542,0.413918976165294,0.185729621625432,-0.329818193901262,-0.0566973423411106,0.557180580320637,-0.403509743991964,0.548146734267497,0.0585668465220146,-0.302335057811545,-0.240378413411151,-0.31903313076452,-0.223894578706892,0.58923079485211,-0.565747326553049,-0.257069335848297,0.304042439400453,-0.0648932910065559,0.151179117287072,0.227801559171186,-0.156804563137917,0.127032145755879,0.327550626761897,0.168911268172218,-0.281326000586207,-0.397655926744027,0.582726701405388,0.187882894810174,-0.131242362443645,0.58768284019571,-0.145025127871504,-0.0465218011230285,0.747407454548649,-0.268569273845511,0.189633065514939,-0.318991061073832,-0.106523977423739,-0.480607949439742,0.432568193316868,0.366150713605116,0.129365612861577,0.26159613499652,0.199131771637088,0.669194147841208,0.349285603461492,-0.162193757173977,-0.237510973375555,-0.0859996441859016,-0.0764282276271875,-0.33238842907549,0.357115995998163,0.486970220009151,0.170330697953334,-0.57597999911154,0.338947927728347,0.288403806800153,-0.182450084833355,0.862207526071345,0.455060684955583,0.119139009169207,0.408579972139019,-0.542473383466918,0.228649860703319,0.141674311308074,0.125791077091046,0.208607231940758,0.477543853637794,0.22662144107568,0.306585511241402,0.349610096247173,0.33151462143346,0.157186981706931,0.153149237186255,0.343976191689702,0.507753739154929,-0.224995201869245,0.489958531084333,0.33537327546272,0.245999402784424,0.0758021268066953,0.308109176350832,0.481961072240005,0.0555417057407162,0.326663396477423,0.391830767500578,-0.105461640836102,0.909065013513356,0.69135845094001,0.770137785903555,0.477183629067514,-0.0089888674982703,0.325138739294679,-0.109888867668454,0.162093995981639,0.765631054613956,0.29398234135922,0.182038299620165,0.386182401577629,0.418183358300908,0.0485517682692058,-0.0113244036748615,0.382122666492893,0.399251698076671,0.00126422214981207,-0.254239855192984,-0.198659384709791,0.402845687496212,0.332091443189306,0.334357106598337,0.640143306049986,-0.184441888167919,0.31624610019004,-0.197790097430339,0.238815165912797,0.653133706532188,-0.373278274679945,0.412116367975216,-0.252381484651602,0.185754106672985,-0.43179339742503
-0.182591334828041,-0.266511375324174,0.399291611794344,0.109145564571672,0.347013875521231,0.827913187637929,-0.0973542060989668,0.275187511551381,-0.138307907910044,0.23065736464445,-0.213006280551404,0.318326526942085,0.463957617474346,0.15363176220786,0.0550242925014578,0.325861171211845,0.33799549562724,0.313048530369794,0.495886869988201,0.109701290683859,0.358358202123501,-0.00917112446027204,0.221296519695667,0.146083606456743,0.353966813436746,-0.0550392488716302,-0.118409221678778,0.446219223738924,0.196981007682569,0.488831609806667,0.129082422982104,0.175214078883364,0.46705527609579,0.44176065782974,0.463960666675422,-0.189581823321091,0.574455013306096,0.365463055173758,1.00393237930252,0.0161229839489269,-0.144681138948944,-0.206058681277498,-0.0732149627156998,0.176755586323029,0.357797352264355,0.0448366327559752,-0.270570768069203,0.697564772621192,0.44278252244088,0.152480236586916,0.560096015182773,0.105732861135911,-0.257673598790743,-0.129315476777151,-0.100984016712691,0.232028646520052,0.331186866585065,-0.065489174799976,-0.299600590191263,-0.364445285091447,0.259067796287951,-0.139859617981374,-0.207201962972198,-0.132577736929287,0.445054681102626,0.400253488303401,0.326672261625915,-0.447979019850471,0.130302839000198,0.497721800945605,-0.394760326939457,0.377396323448352,0.295123022357465,0.586921964940808,-0.101514168343799,0.633867802118387,0.497811069393545,0.368956843821243,0.436669431759297,0.196571725342298,-0.294102998581191,-0.0278582834436448,0.553954543780785,-0.337012876358458,0.575959235898046,0.0747147869573255,-0.27529467345806,-0.232993317790417,-0.268842974420564,-0.220963716204669,0.547468079095541,-0.547626178322277,-0.217543433625234,0.332822864335205,-0.0530991839530579,0.147856327632409,0.215521313346207,-0.127623476328287,0.12946197932055,0.311136480175324,0.172474654189977,-0.255017902941571,-0.361903776389092,0.58539442660058,0.202586962952688,-0.106212756182818,0.585715368390745,-0.103164349933533,-0.0191265347994986,0.75113916929636,-0.258100688940026,0.176431153533846,-0.286170825735781,-0.0901561498585119,-0.415523383454277,0.412987329258255,0.348378228872542,0.139200618188072,0.255970793119936,0.19693788063461,0.653661372057723,0.346772473973938,-0.117054860775849,-0.19359901867755,-0.044903305349793,-0.0717022131514403,-0.302906520374497,0.350113243187579,0.515113882350965,0.161911207390907,-0.515241442200713,0.33232065404849,0.288938254646091,-0.145591071199603,0.854978368534609,0.451021737259909,0.110504780154367,0.416804653513518,-0.503132045030737,0.273334731913508,0.152237544040589,0.126735898041882,0.173517327120811,0.470599771051468,0.23251080549144,0.346182897000719,0.369558851894876,0.345804679188688,0.185269705718594,0.148575945076433,0.327411420405592,0.491976827331462,-0.196699358172031,0.506068275349285,0.303511571727779,0.248950202348054,0.0750119698323994,0.310351498185772,0.50865474170284,0.0700231167761341,0.334379019083942,0.387614567095482,-0.0831876901314868,0.876326670105079,0.702648180420595,0.752441459718081,0.483709179724167,0.00721889098614719,0.313210333779657,-0.0579471910760283,0.188707706282002,0.740027113383293,0.299935510947639,0.178994358843934,0.372028334607151,0.400681092905041,0.0924812694353178,0.0201104036537745,0.382228844206696,0.424235743647816,0.0314483102186363,-0.227722684504033,-0.156217341663258,0.436116852126019,0.351269198294573,0.332586427311518,0.640454129945445,-0.144684638530241,0.332122885977527,-0.156856429985807,0.255219932493868,0.628869127345449,-0.345087077008544,0.400445402496118,-0.19876785977562,0.182822252075307,-0.373877886723852
-0.154270713691441,-0.217806204792517,0.389474495192196,0.127214404281567,0.332548237167379,0.831449567132326,-0.0598210170375065,0.295243448269455,-0.108179285397549,0.278347889455638,-0.185390949304052,0.325429781117663,0.454296437118687,0.154104435393674,0.0737081809499132,0.331825866577971,0.323942105948137,0.316265980543694,0.46565266645939,0.104557354322964,0.358391467200104,0.013097820646696,0.241127048538572,0.145767028856424,0.381909732805152,-0.0287269452778779,-0.107683585071624,0.481167669091748,0.226841966556691,0.470294703925671,0.134729149361968,0.200190747400103,0.487180929477273,0.426569570362327,0.482852366836285,-0.143045188775044,0.57505021942746,0.378921241191146,0.971139235146189,0.0229069067660404,-0.0923380958633007,-0.176637116970947,-0.0374509309186875,0.223013551702379,0.389166887480849,0.0516781573217417,-0.259848056236808,0.723537009937918,0.486266549033824,0.164728098237984,0.53863984433187,0.13821707644819,-0.220840570894714,-0.112865506440541,-0.0667389299468941,0.254872736879384,0.291919372312963,-0.0668463114631797,-0.260930969232173,-0.294628410543212,0.266430864553761,-0.113894998019317,-0.167811777905404,-0.095974776418623,0.46972617505622,0.432708954951052,0.358466875682589,-0.363168699389064,0.179084851858905,0.474245881100709,-0.317984811554809,0.371365037159642,0.300565994288742,0.601212763471475,-0.0919206473232034,0.654318438535235,0.494690862048449,0.340219301912829,0.459158614606216,0.207578329119452,-0.258481003030996,0.000968887306947041,0.550681886705614,-0.2706713506645,0.603544600283757,0.09105119295762,-0.248114996613328,-0.225669973787163,-0.218634831884517,-0.218506434388958,0.505965487809494,-0.529331991388973,-0.17783453017304,0.361886048726074,-0.0409902048401063,0.144238814531164,0.202922152062983,-0.0987939854434982,0.132516653729885,0.294467822998401,0.176059634594676,-0.229164546338758,-0.325939262869137,0.587838783757288,0.21690522928669,-0.0806774676346008,0.58371310119251,-0.0611138389547441,0.00801849221640863,0.754733678945718,-0.247396803984772,0.163519416125548,-0.252863650443898,-0.073625954657817,-0.350694693008797,0.393420290847802,0.330741033343497,0.14914469329446,0.250367762844026,0.195028442100798,0.638293962773147,0.34431673591563,-0.07235811374475,-0.149775376417791,-0.00382292689532344,-0.0665539662148149,-0.273217552624013,0.343745027427595,0.543325275573198,0.153773676617857,-0.454548415466697,0.325931251343083,0.289482209313145,-0.108807356459186,0.847481507036884,0.446897641546359,0.102172969696869,0.425002336630458,-0.463536950358233,0.318003440196824,0.162884292007042,0.127353577620387,0.138281891267744,0.463708525349801,0.238517245328894,0.386175586780169,0.389682755691138,0.359938282566861,0.213375635858072,0.143825010571205,0.311394481295675,0.476658607346476,-0.168589160650276,0.52186223425433,0.271583608765448,0.251736534916201,0.0743664573637106,0.31189051410315,0.535338604410683,0.0848428753635916,0.342154666678086,0.38356606085981,-0.0604835814582231,0.843218247016452,0.713993990947465,0.734982257607202,0.490175525882872,0.0234416995737745,0.301533197614457,-0.00585286235077914,0.214873299698518,0.714263345495026,0.306227614664528,0.176357287750872,0.358212634873202,0.383293937597716,0.136273346839773,0.0516206987776093,0.382514799700411,0.448920278797091,0.0615917977428572,-0.201299802468391,-0.113975618723845,0.469267801391105,0.370099821233162,0.330370026406832,0.640474291012765,-0.105130063217453,0.34835134563894,-0.1159818007332,0.271300377364493,0.604614927424355,-0.316847554921704,0.389009211517038,-0.144896226697286,0.180019370097716,-0.315851188418654
-0.126614024865609,-0.169240242750278,0.379858325804049,0.145966412820633,0.318007808758759,0.834373471495495,-0.0228474548927542,0.315462428930487,-0.077364565001686,0.325533820660746,-0.158164735171393,0.332580285744761,0.444733650702978,0.154750717542022,0.0923526784634906,0.337838662885239,0.309899402810634,0.319377624999332,0.435669470445708,0.0995198772774545,0.358731639214074,0.0359528419846788,0.260331952128335,0.145539915995779,0.409769506437682,-0.0025978649049121,-0.0972725596235013,0.515968135142334,0.256966136177861,0.451289988075246,0.140241528879329,0.225006606489789,0.507311281392757,0.411758265545767,0.501660277727921,-0.0964115883573014,0.575635195416586,0.392158218029401,0.93851574526875,0.0288758043231856,-0.0407062531347012,-0.147267701124654,-0.00172574453052242,0.269688152029544,0.420343538567373,0.0587355474154215,-0.248871254362087,0.749648957524017,0.530080170621389,0.176522163882842,0.51714994897919,0.170662454893963,-0.183725887247832,-0.0963296830022778,-0.032970173030557,0.27754259114498,0.252239436930505,-0.0677421050976377,-0.222821951782506,-0.226093833417424,0.273799805223266,-0.0874369962196599,-0.128762150962936,-0.0594243848375317,0.494337477902666,0.465221239695012,0.390523605422278,-0.278548606732829,0.22800371212534,0.450391810066178,-0.241829941000889,0.365186940930008,0.306381622044306,0.615405502846357,-0.0822910756366314,0.674782632147434,0.491334241668647,0.31176107365346,0.481332982987276,0.218760389599884,-0.222979255733525,0.0297967419818628,0.547314974922106,-0.204568657676173,0.630828650154857,0.107569354108924,-0.220765327758873,-0.21844124672993,-0.168382937051211,-0.216659069086201,0.464811834195901,-0.510794858296393,-0.137970430330955,0.391284872038698,-0.0285745046954535,0.140205425680101,0.190047016828052,-0.0704695621232285,0.136292074043857,0.277480608768314,0.179595542909688,-0.203854056018631,-0.289718509886892,0.589941740410071,0.230717193074384,-0.0546029996040848,0.581590679456041,-0.0188293343057882,0.0348246736707151,0.758120458132605,-0.236506195604744,0.150940608652832,-0.218986119872689,-0.0568682984543123,-0.286302004654151,0.373907473842145,0.313212690563126,0.159249657449988,0.244862736110837,0.193439412686158,0.623205622136773,0.341893830131675,-0.0283271406445903,-0.106031919326449,0.0373039571991499,-0.0609356807626633,-0.243310703107328,0.338161434768108,0.571645761535743,0.145927161489349,-0.393893014201019,0.319824633964173,0.290006112849722,-0.0721447429269905,0.839723663691908,0.442603464913184,0.094288202841774,0.433052501333054,-0.423613732934309,0.362703297470536,0.173578333550699,0.127667348429805,0.10300212716486,0.456804270037327,0.244605096334003,0.426665007960464,0.409957200348404,0.373796480176539,0.241533689525364,0.138817655763822,0.2959257380946,0.461929612476755,-0.14071705055346,0.537221467835451,0.239695547006453,0.254318338513964,0.0738161948142189,0.31256072020161,0.562084695918125,0.100065643305452,0.350136297781843,0.379830355404731,-0.0373214333449571,0.809693750991078,0.725437419716609,0.717847405662282,0.496550094621359,0.0396981393845419,0.290136734204641,0.0463958870854654,0.240553808629323,0.688369711197318,0.312792364708277,0.174244675282392,0.344803340980269,0.366020458941802,0.179957369297639,0.08319183603564,0.382953408292138,0.473210243609607,0.091595872837632,-0.175041412344104,-0.0718659923690468,0.502330086203121,0.388566787124402,0.327635780074265,0.640172428129778,-0.0657809912152747,0.364960474185758,-0.075205777586894,0.286931806479228,0.580431787499709,-0.288519482217945,0.377777935377822,-0.0907082772208456,0.177355340930519,-0.257707854500145
-0.0997452192551558,-0.120826228263316,0.370396468585549,0.16546749101905,0.303282265745956,0.836653228088868,0.0135374013244303,0.335772795029784,-0.0457965283476706,0.37208874746428,-0.131467977967077,0.339771025987266,0.435275194228652,0.155498645350651,0.110992956514328,0.344052345842461,0.295895581319997,0.322251155712086,0.406116622419433,0.0946073935930018,0.35945246841085,0.059521055713912,0.27879669091227,0.145401163276238,0.437667655452948,0.023259279015347,-0.0871164184938446,0.550590626673038,0.2874374123593,0.43168756237975,0.145649893731088,0.24959514619809,0.527463174347388,0.397322700223822,0.520425565936681,-0.0497211658394617,0.576271954796751,0.405169483083984,0.906008712517348,0.0338946790673049,0.00980612564979274,-0.117911304906143,0.0340046942731902,0.316799121138952,0.451329364733738,0.0659565961649735,-0.237612474974086,0.775919609157366,0.574225459981505,0.187681997702125,0.495692394997456,0.203028597855441,-0.146428924303137,-0.0796979455358206,0.000250408909039225,0.3000188152192,0.212084997245179,-0.068046677589561,-0.185377988056706,-0.159058507453554,0.281167813565827,-0.06039115194504,-0.0900140851794235,-0.022949653570231,0.518948529207,0.497764268769684,0.422877045240368,-0.194178097423661,0.277127794364099,0.426000788301634,-0.166392761828607,0.358791903485727,0.312540528102653,0.629548769968725,-0.072668493088413,0.695205829393981,0.487652102732101,0.283587323225393,0.5031566639372,0.230147317489071,-0.187538885662557,0.0586291684451541,0.543843062066089,-0.138779026429338,0.657750530228979,0.124235740055607,-0.193192153047119,-0.211292182340164,-0.118109177504153,-0.215457328283023,0.42408869184414,-0.491923879424915,-0.0979719141474449,0.421089499926036,-0.0158762474905997,0.135641150682729,0.176982040805565,-0.0427812485413115,0.140855399171831,0.260136933565258,0.183015416728871,-0.179108703606792,-0.253187867212529,0.591619587862061,0.243948185217113,-0.027985401081985,0.57925432051576,0.0237177657513528,0.0612146397929564,0.76119102547219,-0.22544081540381,0.13870151535459,-0.184476631451297,-0.0398491894604132,-0.222516052015685,0.35449556668815,0.295804501602026,0.169619677469138,0.239499438512508,0.192197715439301,0.608519751680267,0.339438847354224,0.0148246774747565,-0.0623542609576383,0.0785205873867444,-0.0548134981888345,-0.213177690620943,0.333478431810862,0.600156998196979,0.138348425439219,-0.333232802370332,0.314048044404412,0.290501417373414,-0.0356525784814861,0.831734719215461,0.438087901879079,0.0869600487202275,0.440818630848849,-0.383231388986677,0.407483494277618,0.184257505904792,0.127729019446249,0.0678610159832792,0.449837983668457,0.250737092885201,0.467797449000927,0.430281832021695,0.387248120175747,0.269812340362889,0.133500131807085,0.281016719146884,0.447944954856694,-0.113153513601349,0.552048526099832,0.208044988710449,0.256683832547249,0.0733551364610332,0.312200017570102,0.588988136002292,0.115748913736763,0.358520130221268,0.376539519716796,-0.0137504949169689,0.775668935695781,0.737023196041076,0.70112470041821,0.502778391818703,0.055955976055909,0.279052556453852,0.0987802182840088,0.265768124985638,0.662397584035845,0.319539624874816,0.172763803284272,0.331860021206381,0.348862103129883,0.223602985222276,0.11481000352605,0.383552561708788,0.497027704150752,0.121333619437902,-0.148978490036522,-0.0297647730459608,0.535357861256777,0.406673651455425,0.324356229412542,0.639544985492232,-0.0266316700770911,0.38195286008569,-0.0345160543102579,0.301993145780085,0.556375271657586,-0.260048900271252,0.366742360347338,-0.0361496141392762,0.174845881207143,-0.199433683785054
-0.0737735439851144,-0.072549546271116,0.361070923306919,0.185742103430432,0.288248512049402,0.838261225130785,0.049348549857262,0.356123375706118,-0.0134288156733274,0.41789531989202,-0.105439462445481,0.346979108424839,0.42589116356136,0.156282532952329,0.129667137617203,0.350661530128989,0.281983751400216,0.324700575689563,0.377188089875435,0.0898783720870502,0.360677017934771,0.0839093053728274,0.296415974788508,0.145422467028618,0.465768906193566,0.0487356241168186,-0.0770851016138449,0.585005789010373,0.318356227828324,0.411395752179322,0.15096510668986,0.273893575836524,0.547620124750271,0.383281479777811,0.539146505436059,-0.00303037653470817,0.577073768497477,0.417909806095001,0.873503440759755,0.0378343852472278,0.0586937717665489,-0.0885130417298516,0.0697843418865907,0.364355377230859,0.482195009333613,0.0732302290672913,-0.226044230460105,0.802365347692516,0.618688338012796,0.198052999037713,0.474317741158232,0.235290060752905,-0.109101456908957,-0.062982572574252,0.0328231542003974,0.322300863256667,0.171440688505599,-0.0675955533567398,-0.148650173478625,-0.0937406980117553,0.288561528580582,-0.0326738375553603,-0.0514892035304991,0.0134768850923789,0.543532849629707,0.53032945812635,0.45557917100169,-0.110085827009396,0.326508205673929,0.40091206380863,-0.091759089424151,0.352121160633156,0.318979106673592,0.643734144930649,-0.0631245470332332,0.715506176270199,0.483499167878868,0.255706972279624,0.524615037046966,0.241769525931262,-0.152036974140992,0.0874348722435253,0.540285856546677,-0.073357152015936,0.684263684336411,0.140977020443658,-0.16533067513311,-0.204132511245426,-0.0679078957860065,-0.214853828311903,0.383890449204935,-0.472621077856038,-0.0578391696892567,0.451348051709915,-0.00292422381003322,0.130461262091596,0.163848746352432,-0.0158366956313312,0.146257550905223,0.242404884055837,0.186248433181546,-0.154870517852127,-0.2162720806358,0.592829956053505,0.256547259988579,-0.000845693984327856,0.576650056600014,0.066539057921181,0.0871241386472469,0.763810584003107,-0.214169521623432,0.126814369663288,-0.149240776801703,-0.0225885134061927,-0.159485459777141,0.335210761682293,0.278594179765067,0.180390603552396,0.234295270464679,0.191338513751999,0.594372898484026,0.33683800837614,0.0569157471296245,-0.0187417933386068,0.119834063064522,-0.0481896381853931,-0.18280036589481,0.329773553780517,0.628962937123617,0.131000443629557,-0.272488194234757,0.308632383453553,0.29098261993892,0.000635587733445819,0.823575921497889,0.433323039449593,0.0802222535114633,0.448167697250245,-0.342222902209912,0.452383155209584,0.19484813192174,0.127611778173259,0.0331075661240931,0.4428072396672,0.256856245569567,0.50974776407711,0.450525019984339,0.400153706774648,0.298312971588251,0.127799166166262,0.266735992230002,0.43482306139389,-0.0860067097578379,0.566257283117263,0.176910483405197,0.258796034956771,0.0730239982383609,0.310687371496063,0.616129207499736,0.131971295403263,0.367529062963291,0.373801380513397,0.0101239651762761,0.7410102638964,0.748803933055867,0.684871260640307,0.508767241730072,0.0721568810058308,0.268337390950863,0.151252179471577,0.290547977088528,0.636371901117557,0.326403271569532,0.171987954149225,0.319451718633268,0.33184519104189,0.267302078841892,0.146452339722934,0.384315752563546,0.520309674943805,0.1506706292155,-0.123135773755535,0.0124599627673957,0.568412200874499,0.424449942868237,0.320541763452053,0.638582475493036,0.0123367685772582,0.39931377237132,0.00616131565463406,0.316369694472503,0.532462555048343,-0.2313587386478,0.355928939219541,0.0188080787785802,0.172520985987867,-0.141006681278008
-0.0487732938856428,-0.0243910521554918,0.351874897115606,0.206730121783296,0.272812824370994,0.839146585786964,0.0846217999175437,0.376467199974732,0.0197704324536658,0.462823369748126,-0.0801872571539462,0.354170141153971,0.416519932004575,0.157041338290213,0.148389621996939,0.357857371694884,0.268230046204034,0.326499056510726,0.349064745371728,0.0854117108909496,0.362564383883506,0.109182196876198,0.313094633824317,0.145727212596002,0.494239060277719,0.0736987728408377,-0.0670300741293403,0.619220910806132,0.349836069508771,0.39033642943283,0.156178664099789,0.297850957396197,0.567690944230759,0.369681687936192,0.55775711670837,0.0435549122020964,0.578183269179448,0.430274381065351,0.840852516721399,0.0405585321767323,0.105416710139591,-0.0589908404798808,0.105648967389396,0.412362150656868,0.513037353459285,0.0804271904422066,-0.214162761927368,0.828997270210421,0.663429884837186,0.207532029991036,0.45305606240168,0.267446583725515,-0.0718982825575554,-0.0462105432084583,0.0646110143979971,0.344382968535626,0.13034658937591,-0.0662249909169571,-0.112595273736321,-0.0303737440539267,0.296011298248159,-0.00423614771643731,-0.0130820149324458,0.0499167292305773,0.567995115182162,0.562918514761099,0.488677650831453,-0.0262889823624401,0.376144980854748,0.374981376190621,-0.0180036572934511,0.345138930818057,0.325616567021606,0.658060770329289,-0.053734111569922,0.735573980782362,0.478703584070311,0.228126543374298,0.545710631637093,0.253631460620945,-0.116357127192398,0.116129924711968,0.536664995463218,-0.00834995948373939,0.710337549417732,0.157688310312643,-0.137121075529795,-0.196789284570398,-0.017905636354489,-0.214752561301765,0.344316725708266,-0.452783767026079,-0.0175559481301468,0.482032064346662,0.0102473845493404,0.124625478590563,0.150758601229863,0.0102776846851648,0.152516964941884,0.224241711616044,0.18921204563331,-0.131051392034375,-0.178876976527683,0.59352668489182,0.268443794516519,0.0267799250766057,0.573760005534188,0.109632673908919,0.112536261350059,0.765841620972744,-0.202634320826734,0.115301459130971,-0.113124501467101,-0.0051590775226294,-0.0973243377589515,0.316053827751395,0.261687036792484,0.19170181159301,0.229280779528044,0.190872897765104,0.580892967069307,0.333928954109737,0.0977959078365178,0.024784248336446,0.161189721098516,-0.0411043093922075,-0.152144653003373,0.327054652518694,0.658150411037757,0.123858032023323,-0.211563186854669,0.30358183683443,0.291478048423191,0.0367134907017757,0.815304957153187,0.42828730870612,0.0740385860577515,0.454979308330033,-0.300412000617086,0.497429551125411,0.205281195404668,0.127384224726795,-0.00096460687662849,0.435732536656986,0.262879632662991,0.552683970058861,0.470530807828855,0.412370663827833,0.327111875289368,0.121598985546975,0.253182943705436,0.422594507454886,-0.0594038712531631,0.579722241018761,0.146600465976565,0.260564037755344,0.0728744451900353,0.307942666183961,0.643542846556168,0.148850685524312,0.377369121902347,0.371687655440272,0.0341634215098084,0.705561000532211,0.760861655793474,0.669089903408622,0.514398900400979,0.0882538947837283,0.258043531088676,0.203765591190912,0.314886853082162,0.610252848574731,0.333363191420949,0.171910141565935,0.307641015078677,0.314998989484749,0.311133913835229,0.178091241985105,0.38521295218556,0.543004453293086,0.17947745478852,-0.0975413565497616,0.0549398429932332,0.601520131619849,0.441954838178322,0.316220477938652,0.637249726457735,0.0511521312930536,0.417004241006737,0.0468933533866746,0.329925386179293,0.508677075933339,-0.202353823070723,0.345381125324043,0.0741539596698765,0.170412128778115,-0.0824038063375188
-0.0247822191370378,0.023676582823973,0.342804542271762,0.228303916099903,0.256896962994983,0.839238116583772,0.119396618076154,0.396764903307488,0.0538155777674617,0.506718861480239,-0.0557540887141951,0.361320268326161,0.407108688507113,0.157725587060028,0.167134458622356,0.365831196241507,0.254706242125086,0.327391074094933,0.321891637776926,0.0812750003038292,0.365270823638203,0.135376140672695,0.328734266728963,0.146430303299175,0.523228540998319,0.0980203405795344,-0.0568085808288816,0.653302284105169,0.382012109244354,0.368406936684778,0.161318971535746,0.321415749533495,0.58753496508398,0.356563234859282,0.576158899658036,0.089872018094136,0.579756665059468,0.442085686050627,0.807905829824623,0.0419323814629807,0.149462630158967,-0.0292267538778777,0.141624812043895,0.460830321300212,0.543963361663663,0.0874319308704777,-0.201986161217875,0.855820239940975,0.708385397454129,0.216040722629761,0.431924774578957,0.299520434339708,-0.0349809698087275,-0.0293993857488773,0.0954705970621376,0.366236453552529,0.088874258490941,-0.0637913392615365,-0.0770697223029797,0.0308169065185534,0.303532046905718,0.0249465290208993,0.0253407305146895,0.0864497967660317,0.592192790351753,0.595521402350202,0.522193164193319,0.0572093199419531,0.42599610296301,0.348100197769373,0.054812646505993,0.337815792421329,0.332342329945892,0.672624308548087,-0.0445434702482259,0.755270133030256,0.473123343794573,0.200855016064395,0.566461659681986,0.26569833606775,-0.0804628427587292,0.144605246886861,0.532984059999195,0.0561879724447986,0.735960253433712,0.174278169671819,-0.108495736747958,-0.189010616869538,0.0317958498432034,-0.215004112370798,0.305459547176384,-0.432300849413097,0.0228901813604138,0.513046009793479,0.0236230839081563,0.118144791748279,0.137790323121748,0.0354830149231168,0.159600406943667,0.205588697775079,0.19180292359438,-0.107577411491194,-0.14090591006245,0.593648349728462,0.279535900287911,0.0548573016052871,0.570584268301508,0.1529662316296,0.137502656609175,0.767169248190864,-0.190761291907766,0.104149027456126,-0.0759276201300125,0.0123187355480994,-0.0360861779931585,0.296988369805042,0.245169227889309,0.203681434538282,0.224524898451513,0.190755566862047,0.568199486321738,0.330536879430849,0.137358369383622,0.0682086197384561,0.202471668962341,-0.0335955667729612,-0.121172998738715,0.325265400447442,0.687788096567991,0.116921687970162,-0.15035258039378,0.298885915881133,0.292041267316651,0.0725941912694095,0.806945109296204,0.422965416412015,0.0683164997049788,0.461145777804718,-0.257645431001043,0.542634765097825,0.215521969953406,0.127092380376146,-0.0340101770770143,0.42863376688682,0.268703407547175,0.59674070749167,0.490133559089532,0.423763280875331,0.35621553575474,0.114763702727004,0.240454369980723,0.411221422542082,-0.0334371541706908,0.592263832644037,0.117429687843052,0.261883603198326,0.0729398444463581,0.303909365158052,0.671225315534272,0.166522046405184,0.388203971242593,0.370226584132071,0.058206174151925,0.669175654254345,0.77331326551089,0.653753168029996,0.519550273849441,0.104214802276009,0.24819395048376,0.256303262994575,0.338747449075716,0.583928891938769,0.340436060582352,0.172450394396487,0.296469782814162,0.298310893588301,0.355127342418409,0.209712793044102,0.386187642039802,0.56506572785507,0.207665015924309,-0.0722159170072403,0.0978250561849074,0.634641590289768,0.459266314930482,0.311404916573155,0.635506032774318,0.0898602421891084,0.43495606397009,0.0877085896790353,0.34248322386401,0.484975377683443,-0.172938995576327,0.335128511688251,0.129855381273919,0.168564401670456,-0.0236129677626696
-0.00182348778019924,0.0717112566804633,0.333850686618038,0.250329101897447,0.240387637417962,0.838448441079296,0.153722236458207,0.416996877548966,0.0887178665865566,0.54940929266189,-0.0321336822330658,0.368435392907229,0.397611899145782,0.158319385736064,0.185826933935624,0.374777361435033,0.241490783652982,0.327129301544777,0.295741936663246,0.0774991536584121,0.368902680971335,0.162522931747999,0.343267214526146,0.147607464854216,0.552880989172907,0.121610001342106,-0.0462880438115876,0.687348347046616,0.415027768941555,0.345508483455023,0.166501624132764,0.344529335144342,0.607033469548846,0.343919292520698,0.5942737240029,0.135725905453911,0.58194384212388,0.453110549848506,0.774511679123638,0.0418204709414168,0.190355634219009,0.00091374056510783,0.177708490670409,0.50978011301745,0.575103043465843,0.0941534001725362,-0.189495220479843,0.88282633094956,0.75347812866829,0.22346827277181,0.410922851176697,0.331555073763712,0.00144338662033121,-0.0125245020711808,0.125284075870718,0.387824031297095,0.0470757768023357,-0.0601587902987863,-0.0419009977776514,0.0896503242387141,0.311127175650075,0.0549026619979554,0.0639368374242686,0.123176803269146,0.615957258242887,0.628098694866357,0.556107301006785,0.140450219767282,0.476005549557219,0.320165879319195,0.126641090495956,0.330098263913642,0.338986918981312,0.687515744172258,-0.0355881389443077,0.774406077685138,0.466680163182693,0.173888364684825,0.586902498160038,0.277900707646001,-0.0443916840226869,0.172749612467618,0.529223568668788,0.120185399028046,0.761147146574154,0.190706231475001,-0.0793602400641299,-0.180515187167279,0.0811228285423223,-0.215391813216321,0.26741699782802,-0.411085087427699,0.0635045174222175,0.54428559260404,0.0372424012091576,0.111030924547075,0.124984464551917,0.0596892704921259,0.167426840753043,0.186389381763974,0.193907491483401,-0.0844019533905418,-0.102266518197383,0.59312931301728,0.289717567056202,0.0833684139354126,0.567148083341494,0.196461607914496,0.162128431815517,0.767703322648056,-0.178485169182751,0.0933027470060394,-0.0374435951403117,0.0296945107702654,0.024236853868643,0.277927497983249,0.229103228809584,0.216429163626664,0.22010610738489,0.190898003149184,0.556429000926854,0.326505627536552,0.175563548098629,0.111542270615365,0.243521177194908,-0.0256652988397345,-0.0898571143282481,0.324364382852398,0.717944700761372,0.110207160411874,-0.0887622814804058,0.294548249052646,0.292768791745966,0.108299999193882,0.798500854334689,0.417361191929143,0.0629189162030216,0.466564349717872,-0.213815694897476,0.587981618551454,0.225593035223976,0.126762328640135,-0.065625874834711,0.421521505834288,0.274202597305734,0.641985622845497,0.509182009559126,0.434191787796145,0.38558190912936,0.107154899213392,0.228636763234727,0.400633375608344,-0.0081314602971966,0.603676891414214,0.0896885407282595,0.262680977633071,0.0732289837504147,0.29855692799238,0.699163496309774,0.185106094746049,0.400147611603908,0.369409153856102,0.0820719688508725,0.63173435642841,0.786292546293407,0.638821746801622,0.524089278113187,0.119996295546483,0.23879611553767,0.308873838256185,0.362105025445269,0.557235727795327,0.347649965475341,0.173511427307012,0.285963577682787,0.281732661754701,0.399257927222569,0.241297726130588,0.387155767369218,0.586456170354597,0.235197180911723,-0.0471641041207918,0.141270321717729,0.667685747449111,0.476458034153327,0.306072222899355,0.63334089489657,0.128550530113025,0.453103916461098,0.12862893012608,0.353851337870468,0.461272354372204,-0.143025271524234,0.325178367833427,0.18587528818995,0.167057029248712,0.0353784620596568
0.020100173544462,0.119797105662385,0.324982883908912,0.272704831234301,0.223141860064864,0.836675008680089,0.187666860974093,0.437157258783579,0.124511303278003,0.590721314062639,-0.00932775445596474,0.375535396922166,0.387975551844234,0.158839830111884,0.204361323717045,0.384875842354445,0.228651567269831,0.325543560567698,0.270614005731814,0.0740769170595023,0.373471444488929,0.190637630390419,0.356701997475417,0.149292055059371,0.583326338120888,0.144432807039817,-0.035346462418085,0.721430447348763,0.449020939731526,0.321609500453051,0.171885154150652,0.367147101790323,0.626102323516657,0.331692852388935,0.612064604862437,0.180911558034233,0.584873559924032,0.463102745988124,0.740490834835067,0.0400906577507472,0.227670229990366,0.0315499483187008,0.213857254631075,0.559233750372233,0.606580759798429,0.100528460688481,-0.176580625464349,0.909975636437525,0.79861139760917,0.229652522527832,0.390012626799798,0.36360613900437,0.0371306976669928,0.00448619822193916,0.153971150080878,0.409106684664332,0.00499453749802509,-0.05521118057011,-0.00695337328473257,0.145991721132624,0.318798841121136,0.0856882543316877,0.10288936032473,0.160210117613054,0.639133158728575,0.660582697905246,0.590385525908134,0.223519528354028,0.526119778824283,0.291033062768199,0.197454627454367,0.321898299769275,0.345334246838973,0.702810057581279,-0.0269294644000724,0.792705298490738,0.459372490638768,0.14717556478425,0.60709328043045,0.290158350110075,-0.00819639156246317,0.200435176633218,0.525362036394563,0.183578221372058,0.785915610246467,0.206959570660251,-0.0495787924291459,-0.171081742433989,0.129984739473357,-0.215658764040284,0.230301131052063,-0.389117222083201,0.104295440502137,0.575685313860864,0.0511939569475147,0.103266346727125,0.112345039918677,0.0828211772466433,0.17586606910188,0.166607272002029,0.195413618970106,-0.0615118400930459,-0.0628703976802304,0.591893843294688,0.298906508574876,0.112308361397311,0.563500315133318,0.240017382570315,0.186550630240661,0.767339683427968,-0.165804405785173,0.0826994681555032,0.00249196878060366,0.0468168158848386,0.0836887242310596,0.258749467788379,0.213510601288318,0.229988162278848,0.216057293620035,0.191203923787614,0.545731686351771,0.321714385314435,0.212440843867145,0.154804427804946,0.284152357758351,-0.0173022200915293,-0.0581836980627051,0.324379089349827,0.748696004022222,0.103749654340808,-0.0267292378300505,0.290600380097594,0.293788347219527,0.143859797950284,0.790000021642398,0.411488561836456,0.0577001242117806,0.471105903728972,-0.168828242822435,0.633426844440934,0.23557209216574,0.126396929816366,-0.0953820020833662,0.414372314846483,0.279243452508097,0.688395011899641,0.527526265603452,0.443506055455859,0.415139051760004,0.0986167302098758,0.217767811220976,0.390757866033438,0.0165678950690215,0.613759390378913,0.0636131443443929,0.262916977185902,0.0737315567092842,0.291891538552335,0.727355273758328,0.204695155592527,0.413249200981606,0.369190003027128,0.105577279698764,0.59314269609302,0.799931210280366,0.624230538453007,0.527873153389368,0.135536771750977,0.229845127875583,0.361507209206511,0.384971934314786,0.529975037517374,0.355036594163285,0.175005236476937,0.276108035946336,0.265193673512672,0.443481379261149,0.272778180344832,0.387980343664167,0.607145648150768,0.262062604123869,-0.0223963613518813,0.185409522372416,0.70054051545124,0.493594819831094,0.300190196062977,0.630795514371214,0.167330999063486,0.471427005237203,0.169670658221573,0.363867496358677,0.437431748598536,-0.112526179670142,0.315507617231654,0.242174973747643,0.165980365520016,0.0945951643946343
0.041028955061133,0.168025556923976,0.316136761570978,0.295386998408351,0.204996290247507,0.833817809847479,0.221308263803802,0.457261743713297,0.161263434641073,0.630520965488104,0.0126302132911705,0.382620031848429,0.378151668501772,0.159303048620923,0.222658671989489,0.396261185856325,0.216207011361765,0.322589018244262,0.246486961898288,0.0709968594609412,0.378879884781772,0.219699467323525,0.369137623280766,0.15144620482514,0.614671462779814,0.166531225502375,-0.0238547717192559,0.755581063829152,0.484117372091505,0.296738816534254,0.177584171605376,0.389259420467236,0.644670120746407,0.319802930240712,0.629539928128257,0.225251880605582,0.588656190685632,0.471841390410022,0.705615003771006,0.0366749603824057,0.261071152921776,0.0627921151334474,0.250047213477249,0.609210782543497,0.638502879218054,0.10652316276638,-0.16306281349706,0.937217529203268,0.843673829704215,0.234430645386743,0.369131385580748,0.395728267209419,0.0718295124537841,0.0217269002804946,0.181531610832585,0.430029715112145,-0.0373017562202953,-0.048882299833675,0.0278563420026836,0.199752303329322,0.326578152458713,0.117378069640507,0.142422040515612,0.197662487841459,0.661620181220733,0.692884890572775,0.625008544411955,0.306529200053919,0.576294760131559,0.26051205501186,0.267268246042845,0.313128721913975,0.351183540709018,0.718542344178497,-0.0186476319446708,0.809823920476581,0.451256124079125,0.120624651461988,0.627150526018707,0.302403154122095,0.028092683888446,0.227514649411679,0.521400782978002,0.246350384691587,0.810249292402018,0.223021262817104,-0.0189568639795325,-0.160589504722532,0.178241161580245,-0.215554710407282,0.19421793222843,-0.366439152265516,0.145268495004359,0.607254697367784,0.0655755563553745,0.094845606207643,0.0998953692474696,0.104858414304377,0.184735240099755,0.146231501740856,0.196201503190287,-0.0389117819755719,-0.0226267185458346,0.589840418605298,0.307064448312828,0.141687947808198,0.559683729659981,0.283553193120311,0.210949339514259,0.765937761731075,-0.152798820260623,0.0722725165866877,0.0439969111295829,0.0635414553888422,0.142360487820386,0.23932955056296,0.198343613395038,0.244328853639897,0.212339232505201,0.191605374677959,0.536255646278804,0.316107008466672,0.248066744853123,0.19802062150897,0.324180165521924,-0.00850745378892072,-0.02614847282515,0.325391330927683,0.780141062200002,0.0976421012502977,0.0358127126312342,0.287081858667994,0.295218955797733,0.179302832553187,0.781534035169465,0.405351627117694,0.052545362032989,0.474603283711619,-0.122550076442899,0.678931659981455,0.245572785446897,0.12595531038552,-0.122850960986598,0.407116440029502,0.283728956674973,0.73588375658004,0.545004211570548,0.451570176244126,0.44480372832586,0.0889687571537115,0.207785683090118,0.381555365932211,0.0408149699844814,0.622339630141633,0.0393817653372032,0.262586664364815,0.0744244293207934,0.283955192563582,0.755834882067797,0.225337101766354,0.427508846133319,0.369499581532564,0.128580552330989,0.553332649227097,0.814353762428476,0.609869665188201,0.530780549278871,0.150777704083351,0.221279281592989,0.414264136768977,0.407447403326337,0.501937430084268,0.362646038081603,0.176848641371277,0.266800804861032,0.248580456690442,0.487781696503109,0.304062793956771,0.388489716248795,0.627111587311056,0.288268785022855,0.00206053487122056,0.230366803603368,0.733088140536264,0.510728486568591,0.293769709167756,0.627968993877667,0.20628742031508,0.489931158441974,0.210820570466919,0.372404578902812,0.413279672294848,-0.081357671364026,0.306024955958724,0.298737764761959,0.165400332533567,0.154062328702677
0.061049822568336,0.216463761421116,0.307216771331498,0.318377460571917,0.185749492927567,0.829778779861647,0.254679207506358,0.477371811690128,0.199054119434236,0.66873404658385,0.0336534174220382,0.38968696345244,0.368101878194324,0.159683951326112,0.240692061213198,0.408982131728224,0.20411379171759,0.318326355754008,0.223358985327219,0.0682728162565827,0.384972079627564,0.249671056744749,0.380716414336438,0.153934796076353,0.646991704421355,0.188041466724197,-0.0116694308408618,0.789815939297939,0.520397797586004,0.270931885836426,0.183628533653055,0.410862974626013,0.662696935694613,0.308169477439534,0.646746936692794,0.268657407542819,0.593373512625837,0.479136391331855,0.669628309195068,0.0316273794379909,0.290351383471367,0.0947851443574096,0.286344770568141,0.659707223767673,0.670976233934104,0.11211591654228,-0.148747919225998,0.964521032909077,0.88857300286543,0.2376782328527,0.348232027440941,0.427953177559699,0.105309354283308,0.0392916935014336,0.208082552843414,0.45050371519884,-0.0797334526137428,-0.0411709477198506,0.0625729911193931,0.250904149376797,0.334541085151304,0.150047804866976,0.182782660665462,0.235632930621769,0.683346722595288,0.724878203656899,0.659963221793428,0.389590579651291,0.626477076062078,0.228393189383976,0.336121355737093,0.303742770748234,0.356395827670125,0.73467191515014,-0.0108054772540652,0.82539845701585,0.442388361632844,0.0941642755537615,0.647214483641077,0.314592251484947,0.0644940515599922,0.25384322243042,0.517351886913102,0.308550673613007,0.83408370580828,0.23884658975168,0.0127238350897542,-0.149006881627876,0.225711420052904,-0.214841823649092,0.159239484270985,-0.34306375267199,0.18641136183245,0.63907001957317,0.0804810214668869,0.0858160153004418,0.0877177389189332,0.12584023797895,0.193809988834276,0.125272711395238,0.196153631300826,-0.0165903804386437,0.0185961135304402,0.586847499907427,0.314211212875005,0.171540942017974,0.555725146835498,0.327029810893468,0.235514257235252,0.763319367591792,-0.139539542199415,0.0619512594129237,0.0871281011119305,0.0797430615470588,0.200402344230202,0.219566791958156,0.183492225547675,0.259356872808207,0.208839935375954,0.192087875046231,0.528137547798633,0.309709616506414,0.282547293319846,0.241282017011787,0.363452397872255,0.000707299459420661,0.00628503317458121,0.327490098075612,0.812393126537504,0.0920430250740336,0.0989587732163677,0.284024148426438,0.297117626747384,0.21464879434082,0.773230745970504,0.398932588033633,0.0473846561586039,0.476912563072771,-0.0748104507262445,0.724459468968159,0.255709774420043,0.125345791963006,-0.147623913250954,0.399640132472437,0.287642249552113,0.784339848434693,0.561437647491018,0.458296383033719,0.474516715022612,0.0780175508244236,0.19853558202799,0.373041654408657,0.0648338190588263,0.629269344616698,0.0170955237235997,0.261702151874954,0.0752644489636405,0.274809619119557,0.784668547415391,0.247014301567032,0.442910546276018,0.37026266880819,0.151023341016658,0.512259776129399,0.829677838921101,0.595596040282725,0.532730891269586,0.165676095866075,0.212950166521973,0.467221365952216,0.429727701199543,0.472923773012973,0.370534340966731,0.178955502702719,0.257828743216992,0.231739857142295,0.532191064421792,0.335110184621725,0.388533947737788,0.646371496292842,0.313863913723672,0.0261905330689471,0.276246272266262,0.765213181843222,0.527863021213923,0.286852215776053,0.624971320109151,0.245507305522859,0.508620923642268,0.252035205178102,0.379378125771103,0.388635593056002,-0.0494210847298221,0.29654245916615,0.355626242736158,0.165339408833386,0.213786149864141
0.0802797864816367,0.265154003898508,0.298137428494674,0.34168260402328,0.165182196452851,0.824464860344172,0.287745787419254,0.497572516528013,0.237928682139292,0.705333364830864,0.0535997324211903,0.396752015949791,0.357803393446278,0.15989900792517,0.258437001429422,0.42300109878168,0.192317430886796,0.312847144396781,0.201243886634965,0.0659313344114716,0.391594416595261,0.280500949261959,0.391552510176111,0.156596843956818,0.680308201022491,0.209168177582096,0.00134625000342397,0.82413656234848,0.55790441905758,0.244223200575187,0.18995975402291,0.431944864486765,0.68018755015393,0.296733713996359,0.663736338674975,0.311166310834512,0.599065763217421,0.484821241322278,0.632260791157722,0.0250807288979698,0.315453270073636,0.127693650394293,0.322881061928502,0.710673624736899,0.704086721575886,0.117273627118599,-0.133493053724126,0.991866949049852,0.933237922107796,0.239289028049654,0.327285295728184,0.460284340530992,0.137378201282015,0.0572582830967642,0.233823845244913,0.470422144592588,-0.122227311748775,-0.0321335727864538,0.0972317191731223,0.299452964455371,0.342798580492838,0.183785683344353,0.224186030699102,0.274187950946469,0.704221422504751,0.756396405954068,0.695220354070551,0.472794408349425,0.676589164966688,0.194462788652341,0.404038476025663,0.293703607234418,0.360862802164584,0.751094011968821,-0.003456834045309,0.839099819308664,0.432749557671402,0.067786794317792,0.667400350704454,0.326714384980776,0.101073426324363,0.27928499955547,0.513202751890763,0.37026549333031,0.857319120730643,0.254351290448693,0.0456309873144512,-0.136358355817738,0.272227133180286,-0.213303882201586,0.125383618099126,-0.318896940925839,0.227717786047317,0.671229455649759,0.0960196733723692,0.076270865968134,0.0759246866344075,0.14580132405982,0.202868655399512,0.103722276701818,0.195187040149921,0.0054913789641781,0.0610130880855881,0.582826452595619,0.320400863313282,0.201910699342184,0.551636979074865,0.37042566424056,0.260361028781869,0.75930264960148,-0.126035848912408,0.051693946004903,0.131886598821915,0.0953461812857338,0.257970648601661,0.199397046978842,0.168837102617093,0.274949335168438,0.20538874803611,0.192687962935166,0.521477521739292,0.302584445920168,0.316005915206951,0.284791423033414,0.40185711722208,0.0103247236119648,0.0391727108344561,0.33072679204482,0.845546140621452,0.0871590388389257,0.162801864394084,0.28146495503864,0.299453276681699,0.249897954993332,0.76518453230595,0.392203737013046,0.0421701965643648,0.477960164559389,-0.0254716962632723,0.769951587494589,0.26605419855958,0.124448764612869,-0.169335920795275,0.391811333271632,0.291032469769217,0.833627757362562,0.576648292711021,0.463659681713844,0.504242558776775,0.0655863607865434,0.189849288162962,0.365278149013162,0.088811745564409,0.63440665241832,-0.00320607387068699,0.260274280076617,0.0762018558563402,0.264527325826355,0.813915619096262,0.269669997117491,0.459420062516631,0.371404475486983,0.172913455463583,0.469900245827938,0.845993865243015,0.581261893897643,0.533624818887534,0.180228125184924,0.204668702219585,0.520421793320122,0.452012755969569,0.442772098094405,0.378732220255555,0.181245661790667,0.248935643079458,0.214503301206357,0.576776561353376,0.36593416291108,0.388014203093897,0.665016439400987,0.338932701136966,0.0499805485211284,0.323073547879061,0.796819184471506,0.544935561858663,0.279446943484464,0.621853449274906,0.285104621944704,0.527512848699074,0.293236681869275,0.384765711744747,0.363319395547759,-0.0165998010199648,0.286847024757554,0.412999050306576,0.165762570601311,0.27373833451578
0.098853486296881,0.314139273188887,0.28887308048543,0.365288641991462,0.143108836672638,0.817809512310939,0.320450335926228,0.517922295192879,0.277870050314075,0.740309111908566,0.0723340495443577,0.403835325539905,0.347282616755543,0.159820243171382,0.275813392720197,0.438221102569055,0.18077654429544,0.306254528021982,0.180159696332592,0.063974980818708,0.39860985674075,0.312090302913332,0.401710755905187,0.15934048320879,0.714590916036628,0.230106528777113,0.0152781529531717,0.858566038954258,0.596673326271348,0.216702949145891,0.196447026758266,0.452504208223366,0.697165211118282,0.285465991770384,0.680541576389103,0.352913617745109,0.605731864970744,0.488755986337341,0.593263968119653,0.0171753775695193,0.336458535088344,0.161611339735635,0.359771146827811,0.762043516120439,0.73786502784027,0.121939881133197,-0.117253605561526,1.01923778818433,0.977605315422323,0.239151562255831,0.306243699660738,0.492725207980321,0.167887127430548,0.0756711934890728,0.258939784278379,0.489718612016657,-0.164732653499675,-0.0218763485118804,0.131862748489877,0.345387127542296,0.351460622181147,0.218685630199871,0.266778248807851,0.313356785454846,0.724138519125995,0.787271701556974,0.730728494629342,0.556202101688339,0.726534283105906,0.158524874427264,0.471032323992192,0.282943719812511,0.364449957826601,0.767711091335203,0.00331489580639811,0.850696064939217,0.422247400468338,0.0415497706486677,0.687807965572397,0.338792926893322,0.137889663419835,0.303712247623455,0.508913131256941,0.431571647809811,0.879866364360482,0.269451251469653,0.0798492115386223,-0.122699970086366,0.317676092493476,-0.210793198979713,0.0926365101519044,-0.293761298531997,0.269209857013171,0.703808762145047,0.112308226543307,0.0663150374302039,0.0646132065989491,0.164708097137072,0.211725124895756,0.0815156158587579,0.193252514434802,0.0273890226013319,0.10490598656984,0.577753208575701,0.325651641211315,0.232831157541621,0.547424197068189,0.413730373896354,0.285513551785083,0.753754353832754,-0.11226729732843,0.0414806355817244,0.178264783568181,0.110338576079105,0.31516988695022,0.178775163071522,0.154279043494244,0.29098920076205,0.201812220023182,0.193429591597659,0.516323242367213,0.294786012473303,0.348554017686932,0.328780964912937,0.439306725549465,0.0203278707390332,0.0725299802611329,0.335091732147812,0.879662707385772,0.0831751917186181,0.22739638322733,0.279460008132058,0.302118152334315,0.285040757357532,0.757434071596365,0.385159000177937,0.0368357534119292,0.477740742528113,0.0254851455503771,0.815344371241796,0.276636324862212,0.123137656024826,-0.187713095674663,0.383511647394669,0.293989064976462,0.883592464048386,0.590476352305674,0.467709059780521,0.533959976841393,0.0515740139961713,0.181600365773488,0.35832504080906,0.112820964525596,0.637648665858089,-0.0215131797901009,0.258300239148545,0.0772073890888965,0.253171481039276,0.843611964334501,0.293251784274252,0.476962399875104,0.372872854420185,0.194263489301601,0.426280130542344,0.863322221206096,0.566738311173449,0.533296699958357,0.19448122282887,0.196249908434227,0.573848244457106,0.474402787729004,0.411393153747058,0.38724810563629,0.183661058704926,0.239899421842993,0.196692843069131,0.6216024300771,0.396543262783513,0.386883841942707,0.683209475293033,0.363595770521861,0.0734025082264659,0.370788182779546,0.827839463878325,0.561861570646765,0.271515737776725,0.618620906277892,0.325197111940162,0.546642947094448,0.334312661827833,0.388572813876693,0.337177087158508,0.0172223923467931,0.276787978980106,0.471032847305693,0.166581105182641,0.333866204301157
0.11691867033966,0.363452933741932,0.279476594496552,0.389174398678016,0.119385089734938,0.809783162119039,0.352739447718911,0.538409535120339,0.318811558859082,0.773660257503501,0.089786048358248,0.410971568023507,0.336616216031056,0.159321000118753,0.292685744950917,0.454497490233789,0.169450600868096,0.298705086718231,0.160108721314044,0.0623710994611871,0.405865764610796,0.344310903271331,0.411256993118669,0.162133717881531,0.749804325994862,0.250985221280213,0.0301518678326744,0.89318187927461,0.636721436570596,0.188550508510019,0.202938669565681,0.472593446422021,0.713643156028987,0.274323157307633,0.697195727612576,0.394036534817775,0.613336436979034,0.490833344398204,0.552505054562609,0.00801011525711701,0.353569724326775,0.196540624610909,0.397090119251542,0.813768944751339,0.772267063837417,0.126045308048869,-0.100073256251831,1.04664206032119,1.0216266620372,0.237156387914318,0.285041548491795,0.52529869704567,0.196749172616189,0.0945311367280211,0.283530226009761,0.508414988579884,-0.207213090521354,-0.010538676050504,0.166479934514142,0.388674440058834,0.360582981388276,0.254815002025972,0.310642460952159,0.353137082398586,0.743027693323223,0.817363557682349,0.76641832280585,0.639859966310434,0.776218922825464,0.120431533613777,0.537141493781527,0.271398914849708,0.366985062749412,0.784447244031441,0.00940648361647039,0.860071588483719,0.410843507794501,0.0155418847794136,0.70854473370539,0.350880631762605,0.174978066023362,0.327000620902354,0.504441271065642,0.4925266228562,0.901689448260704,0.284127358692169,0.115397494253895,-0.108142345392627,0.362000361342788,-0.207237434683851,0.0610042983907579,-0.267449302420937,0.310941678595075,0.736824104362774,0.129448527615227,0.0560284296673011,0.0538416071882492,0.182490273458764,0.220239414442845,0.0585860155097613,0.190323469994479,0.0491504702192982,0.150547006502461,0.571633975165216,0.32994151197715,0.264312515958677,0.543112507000283,0.456975129691724,0.310962790413521,0.746592749870835,-0.0981992760779775,0.0312320863926864,0.226275201807035,0.124763880835425,0.37205043793566,0.157668587041296,0.139739744340792,0.307387973822191,0.197994851245516,0.19427225967582,0.512673954860436,0.286358767155583,0.380290097283737,0.373404218180425,0.475747388776309,0.0306881394107231,0.106344650580794,0.3405300314877,0.914768449781607,0.0801709132858604,0.292775424662673,0.278088983676633,0.304948816927274,0.320087219635409,0.750027380333593,0.377839964642215,0.0312739052189227,0.476326186625617,0.0779536045754204,0.860604142275276,0.287481582090236,0.121308063823451,-0.202607234724812,0.374640678580145,0.296621862002132,0.934082309480942,0.602790176514809,0.470579421681865,0.563668873189916,0.0359636294646082,0.173690296033354,0.352206928485473,0.136835202713067,0.638960035564274,-0.0378537673596393,0.255765384299327,0.0782621259273511,0.240807039946157,0.873787915260562,0.317734091280757,0.495426916180006,0.374659565860741,0.215070111379903,0.381488833589256,0.881603276713159,0.551934864407104,0.531564898941043,0.208514236576307,0.187529815148297,0.627441065415813,0.496880149352602,0.378775027229762,0.396093884519218,0.186169142412028,0.230528575468546,0.178133123555244,0.666717919282404,0.426930381487023,0.385113679950401,0.701160029931365,0.38800725236597,0.0964228133410718,0.419280238519901,0.858236843997864,0.578603300277397,0.263004209048548,0.615314904382574,0.365896329121134,0.566054759508438,0.37513143318122,0.390797373161872,0.310121011557839,0.0521284777226276,0.266282035716112,0.529839677773427,0.167702586534627,0.394129497796967
0.134610339183864,0.413113444269024,0.27004915033474,0.413332709117152,0.0939261901439899,0.80041021417167,0.384574005099957,0.558958479269661,0.360663304589909,0.805416020659913,0.105954203767125,0.418219542969622,0.325884673907111,0.158316589279131,0.308915356150136,0.471646566149891,0.158283890473244,0.290402998640789,0.141045428010162,0.0610361756496757,0.413185582157365,0.377049406805956,0.420342502698438,0.164953788255436,0.785950995772196,0.271868894768118,0.0459626238850851,0.928093119166676,0.678019214061857,0.159997387643333,0.20931969567799,0.492326110307609,0.729623875102186,0.263196377550124,0.713752184653438,0.43462479722846,0.621805318706133,0.491025798533278,0.510028368401826,-0.00237394835866219,0.367120983683084,0.232454874223828,0.434883450291817,0.865808455140146,0.807178557904093,0.129526156325468,-0.082038491115199,1.07412929942379,1.0652724558028,0.233219170833302,0.263639086351686,0.558035245066392,0.223960886313899,0.113808232885969,0.307600485396358,0.526627809516633,-0.249619621275554,0.00172543167721623,0.201067150399691,0.42930563882396,0.370137225266813,0.292204916377665,0.35582383000273,0.393490856519722,0.760873113284148,0.84656394137455,0.802230749454046,0.723799338610804,0.825575062497075,0.0801021347890793,0.602441903531716,0.25905117574058,0.368309762123562,0.801205737915021,0.0147560426567968,0.867210318226879,0.398639374414253,-0.0101428712768618,0.729681992441261,0.363017506804091,0.2123882280706,0.349061341756785,0.499774645301283,0.553189780702768,0.92282969950449,0.298426944019633,0.152277144653905,-0.0928533137038642,0.405220089098277,-0.202617175161954,0.030525183116134,-0.23976736215074,0.352984934203901,0.770223680437211,0.147529737831725,0.0454360516264515,0.043636073866849,0.199112846451653,0.228341277781794,0.034905752966307,0.186381426726688,0.0707987769724347,0.19809942290461,0.564455504517067,0.333271747643725,0.296327183586561,0.538753443565401,0.500240884279455,0.336692036259872,0.737771412511727,-0.0837781632905234,0.0207721634653249,0.275955938943292,0.138710808634741,0.428635806124028,0.136076715497543,0.125173589352332,0.324102337558641,0.193873333919593,0.195157406581786,0.510483717620871,0.277330110462576,0.411294652157926,0.418721635546894,0.511163982798946,0.0413517482306262,0.140616123014224,0.346985647090889,0.950840150709324,0.0781165956177872,0.358986421912535,0.277441973616046,0.307764412960839,0.355072184120799,0.743082360851773,0.370352202380087,0.0253561103571525,0.473869709728229,0.131753436686455,0.905741939079845,0.298622567453745,0.118905534106254,-0.214019675512712,0.365124569026311,0.299050859227277,0.984954960809171,0.613508953804126,0.472485733676359,0.593380537148988,0.0187997405444878,0.166022618864196,0.346914728560476,0.160811516133875,0.638365336820559,-0.0523076800742826,0.25266028381807,0.0793503719280823,0.227536303825774,0.904484178668013,0.343138226474627,0.514687137938516,0.376771803028826,0.235332402165102,0.335642348972711,0.90071414213758,0.536813624077786,0.528310512801447,0.222415786981134,0.17837000072156,0.681134655177653,0.519380012644076,0.344992563709356,0.405276150198506,0.188756063607229,0.220646896358286,0.158702576179681,0.712199243101911,0.457102623753922,0.382668932150597,0.719080811398574,0.412315950147732,0.119001330899773,0.468396111425642,0.887993314976716,0.595183066187539,0.253900718985464,0.612054745747371,0.407306005683884,0.585774189107918,0.415554755218088,0.391453214459532,0.282139257386352,0.0881432743991742,0.255294412140291,0.589447573034147,0.169078208951844,0.454528599654483
0.152036334983813,0.46313911660387,0.26068108663664,0.43776600726569,0.0667408080084356,0.789788737998448,0.415945136316517,0.579484668632603,0.403315801058016,0.835655357292128,0.120873155598099,0.425640188289228,0.315135400469204,0.156763843807762,0.324424579062521,0.489445749269922,0.147184999331934,0.281549929983497,0.12286851084404,0.0598258569605962,0.420399149379834,0.410207799655207,0.429213614418006,0.16778419099298,0.823088238650983,0.292760727601716,0.0626617581484645,0.963397881774237,0.720475559085455,0.131282215681719,0.215530502450334,0.511843103348459,0.745115556263575,0.251955935306285,0.730279926123768,0.47474821375421,0.631010146671622,0.489425402494193,0.466035672197285,-0.0139553014672963,0.377565893704517,0.269303669230723,0.473157161623334,0.918113945808131,0.842439921897448,0.132334664972072,-0.0632439243419742,1.10178216802424,1.10853712109939,0.227333987778906,0.242049620388955,0.590954653825892,0.249602117361712,0.133481030397351,0.33109161622766,0.544552320120316,-0.291893834405834,0.0147456495822872,0.235560006413969,0.467312693499333,0.380020338833562,0.330864661157434,0.402313833067825,0.434354824403246,0.777692220040195,0.874791735708984,0.838139886165823,0.80802188021186,0.874568114016521,0.0375266068057391,0.667032992554642,0.245918936262299,0.36834405510803,0.817870172276186,0.0193743391633616,0.872164883214507,0.385830674754583,-0.0353880008608089,0.751217800068502,0.375200700267844,0.250195597519989,0.369870788422028,0.494934836402793,0.613620849641589,0.943386941906001,0.312415168603072,0.190495736786544,-0.0769986955635433,0.447447580537666,-0.196964392859819,0.00124563057795048,-0.210600064748251,0.395386511322035,0.803920379138578,0.166611090151878,0.0345259340667212,0.0340137431166508,0.214589496058698,0.236022610497362,0.0104560510019108,0.181409379693009,0.0923419743736318,0.24755391985544,0.556184692406298,0.335711215550264,0.328795389849849,0.534400016990992,0.543628942917054,0.36267448845102,0.72729468112307,-0.0689244706309846,0.00989117743567265,0.327337641645413,0.152317385326024,0.484934272352802,0.11403307246275,0.110563545256658,0.34112601676326,0.189406321013589,0.196047751117035,0.509651534849452,0.2677213310635,0.441594433719671,0.464747391024766,0.545564098486806,0.0522656721442194,0.175352443212947,0.354404160751594,0.987794999235129,0.0769145294519019,0.426064003461436,0.277588580544458,0.310401958843822,0.390050875661292,0.73674899753049,0.362843270659511,0.0189624405155087,0.470578837350078,0.186640269717558,0.950810608233364,0.310076490426984,0.115928440938003,-0.222121636887109,0.35493682332113,0.301391314925152,1.03607315014298,0.62261533621376,0.473700372397368,0.623102259952708,0.000185559733540162,0.158490940127985,0.342401534031744,0.184760896234509,0.635925332925512,-0.065022080780952,0.2489983339598,0.0804661468728727,0.21351117464962,0.935727898320887,0.369501992583596,0.534609372464311,0.37920440120241,0.255056674241518,0.288861268058814,0.920488848680839,0.521400930865673,0.523483923881154,0.236273391772415,0.168667225662592,0.734856773399731,0.541869079065799,0.310209030929996,0.414780296984329,0.191423688186487,0.210114927973775,0.138370645186507,0.758156392554806,0.487079641096483,0.379527779882453,0.737160875364886,0.436639154675723,0.14108795337012,0.517929824237943,0.917104273303531,0.611656977272685,0.244294601387186,0.609017695932449,0.44948024519337,0.60579868668865,0.455442474269281,0.390612066561539,0.253281334750774,0.125224974692522,0.243838649596922,0.649810381078261,0.170688318618884,0.515087701191202
0.169292230646466,0.513517817841776,0.251375109262813,0.462453411227244,0.0379111358630948,0.778092820381852,0.446858979923177,0.599920416301851,0.446631977684216,0.864522712757479,0.134595292864527,0.433276220205981,0.304372919508631,0.154679153119225,0.339227713052436,0.507646875781305,0.13605735142264,0.272327597548059,0.10544342448219,0.0585661911507144,0.427350220181182,0.443718902676747,0.438142202583372,0.170592729702265,0.861295497739011,0.313608891405766,0.080157920283942,0.999143122013539,0.763933430339313,0.102620786542896,0.221550096890829,0.531272992505465,0.760156070143547,0.240517111827226,0.746839008996995,0.51448351584493,0.640777065585373,0.486235168709823,0.420817878979228,-0.0266926895969001,0.385444817607403,0.306966948882168,0.511883156403302,0.970642056827784,0.877868075348666,0.134443698023831,-0.043841800692007,1.12969321151307,1.15145132577035,0.219603649758034,0.220314761641685,0.624054944096944,0.273819229027738,0.153591763425422,0.353931585648621,0.562420246222968,-0.333985904257178,0.0283404802446684,0.269845179438045,0.502772577583568,0.390113462264552,0.370768218835812,0.45001775482912,0.475659052894774,0.793543641402766,0.902003255694642,0.874156412401876,0.892495482345542,0.923197686041125,-0.00722620260985268,0.731023048529049,0.23205858192519,0.367110976959003,0.834344312869514,0.0233071703100357,0.875044084454,0.372611990470222,-0.0600628396255799,0.773103916064324,0.387412417714242,0.28847426271917,0.389459443590067,0.489960766226956,0.673844808046943,0.963487029567802,0.326151810720737,0.230035055702957,-0.0606969761217755,0.488824068284022,-0.190384098438048,-0.0268142452306856,-0.17997303107222,0.438138707851673,0.837820839172046,0.18668920060742,0.0232885729238302,0.0249592768113941,0.228974836380088,0.243328289510142,-0.0147493015210443,0.175424218275162,0.113774225639336,0.298743909420124,0.546805762437495,0.337415709438299,0.361567908616896,0.53010659754126,0.587220675914999,0.388853221085614,0.715263257940847,-0.0535675348696798,-0.00157188400921326,0.380414062295172,0.165750173027041,0.54092233171516,0.0916098804271071,0.0959117153044342,0.358485292186271,0.184595563947249,0.196895480366631,0.510034690365483,0.257576908099326,0.471172586887955,0.511493038784145,0.579012354139504,0.0634089292819102,0.210554028387282,0.362700982028024,1.02550749462204,0.0764367937450624,0.494008662155003,0.27856661023234,0.312754084716191,0.425099918992506,0.731179998842241,0.355450389338918,0.0119874843612092,0.466686634372364,0.242304532377767,0.995888311359719,0.321823366810383,0.112453124149571,-0.227240576849406,0.344115238360953,0.303737087714358,1.08732468375257,0.630164064387534,0.474505262316829,0.652831399898349,-0.0197248747115298,0.150986471867216,0.338579905843424,0.208766180606735,0.631714015502082,-0.0762107514373734,0.244818181805044,0.0815438648030412,0.198908705030906,0.967495134904578,0.396830279034548,0.555081366496861,0.381959257708679,0.274281055609484,0.241291975989111,0.940756293841341,0.505769356437919,0.517103796199468,0.250165407542458,0.158385377473792,0.78850808579615,0.564371928412813,0.274625109291904,0.424574570051079,0.194193723572493,0.198863212927508,0.117189658383897,0.804666737912279,0.516869715901725,0.375701481646632,0.755549085092937,0.461071242698578,0.162661932672166,0.567653560342606,0.945585220081059,0.628084330131633,0.234351194988016,0.606387232678963,0.492405564904945,0.626117880050139,0.494669315359323,0.388424423786404,0.223629906301878,0.163279471586939,0.23195204569973,0.710815462783944,0.172492931854331,0.575820629777056
0.186454060343291,0.564182188253595,0.242019601474731,0.48734104308779,0.00752050868371325,0.76554184786934,0.477314163839737,0.620208434476279,0.490458555693688,0.892220845858639,0.147163619518882,0.441124885217557,0.293582725099362,0.152155178582962,0.353404035508477,0.526019668597271,0.124882723986134,0.262900617554386,0.0886377358600456,0.0571329954353398,0.433877715435602,0.477565808905685,0.447346337468589,0.17331203282529,0.900606589008218,0.334341303101151,0.0983621305338579,1.03532718656479,0.808207461027162,0.0741830365725851,0.22737504006724,0.550698217383333,0.774829601193701,0.228832813587178,0.763454348995813,0.553913520762336,0.6509248453202,0.481708056750703,0.37467433233814,-0.0405226118109131,0.39134283130541,0.345253166730791,0.551015956950775,1.02337456492954,0.913283761790558,0.135892561733108,-0.0240764965947842,1.15793182695782,1.19406918218116,0.210193372598958,0.198474853428018,0.657302498260573,0.296794033897495,0.174241717183545,0.376077539637596,0.580441841424402,-0.375889629918986,0.0423591041419822,0.30381285754556,0.535827998399099,0.400332764595968,0.41180950553268,0.498765523201906,0.51729992669132,0.808533920227562,0.928211649644949,0.910310369593956,0.977166467016345,0.971475958976827,-0.0540060077578308,0.794521017460905,0.21756844240331,0.364718809162087,0.850562240812021,0.0265900628144653,0.876021873443702,0.359130189814156,-0.0840600361827457,0.795288612943885,0.399650492494879,0.327268829776037,0.407922590573579,0.484863927406416,0.733812543354154,0.983269601779988,0.33972122684071,0.270825350573334,-0.0440345029223252,0.529445398980532,-0.183056573714869,-0.0536887479921142,-0.148055836597508,0.481200621602006,0.871839460079333,0.207713649302861,0.0117208168232529,0.0163883343794469,0.242352696210223,0.250354867354081,-0.0405989326554095,0.168509929391278,0.135073571061036,0.351410102961844,0.536382044595377,0.33860564226107,0.394479227918099,0.525941555923009,0.63106033528195,0.415145149543941,0.701886459739909,-0.0376959346510342,-0.0137014044531277,0.435151939210928,0.179180643874742,0.59653936995464,0.0689213093788015,0.0812492816709984,0.376246531299173,0.179497671219152,0.197624606597449,0.511482272254705,0.246967546514709,0.50005283565337,0.558989116028498,0.611683292522663,0.0747717942033421,0.246196340106712,0.371760790176563,1.06384945570198,0.076554876977022,0.562808518103076,0.280391368567007,0.314785486643886,0.460313135280867,0.72652795635015,0.348293650821203,0.00435190559533321,0.462442309712458,0.298428853187575,1.04104027169871,0.333822804469559,0.1086713565669,-0.229811396079605,0.332755461004992,0.306122842227969,1.13864070328669,0.636287162742266,0.475116789949652,0.682537516526562,-0.0407567894827605,0.143427655245761,0.335340755610267,0.232936008501509,0.625826627534685,-0.0861542507362156,0.240169464152079,0.0824305558198266,0.183919024282398,0.999726642271383,0.425100957416218,0.576037988796881,0.385078483039811,0.293109557091775,0.193116585018812,0.96137814573763,0.490001184352319,0.509289645543331,0.264143205075105,0.147570022257959,0.841986828882998,0.586931903777498,0.238392508737055,0.434632236288356,0.197115189527344,0.186909435810316,0.0952694589067061,0.851759878337183,0.546464745064387,0.371243033108741,0.774340671548274,0.485699442856981,0.183764842766238,0.617365870516948,0.973491650110364,0.644495513453082,0.224214079192697,0.60430324527955,0.536022882221005,0.646732874007596,0.533156198285508,0.385115609972273,0.193263099566325,0.202183986534996,0.219661783768888,0.772294945694505,0.174419779957304,0.636745943326606
0.203567017498963,0.615054128825353,0.232471212980339,0.512347078123629,-0.024364576736936,0.752341091078178,0.507325187058851,0.640325217698418,0.534623794304486,0.918964003729499,0.158603943390482,0.449145145163907,0.282753806832683,0.149354580650706,0.367044626599482,0.544406561062595,0.113751942746584,0.253375870177658,0.0723615112306009,0.0555161520965266,0.439839173530253,0.511767498593405,0.456946794186174,0.175905605561108,0.940988322526297,0.354910082104629,0.117217626469868,1.0719460020875,0.85313586113093,0.046088976358906,0.232988729956704,0.570140162883359,0.789270918661139,0.216875920230817,0.780115919890931,0.593109413168495,0.661309328887759,0.47606084254913,0.327845632189745,-0.0553826370085724,0.395783116492343,0.383964354342132,0.590507477901575,1.0763225707671,0.94855104493981,0.13682634384516,-0.00422836204891099,1.18652712221047,1.23644858896718,0.199274073928384,0.176560488115105,0.690644405371293,0.318708874513313,0.195534550492527,0.39752151562857,0.598766089496555,-0.417667963298346,0.0567101268935419,0.337382247772524,0.566700744641375,0.410615189721132,0.453798261162134,0.548361919216703,0.559142355427866,0.822832633334155,0.953496362420082,0.946626281238078,1.06197973357171,1.01941894369872,-0.102577677264039,0.857641031851077,0.202547300168025,0.361336102012465,0.866492119332488,0.0292565792499843,0.875348406458361,0.345475557872981,-0.107303105447945,0.817746695329321,0.411921121809873,0.366571055076798,0.425437833232872,0.479615665111072,0.7934194364907,1.00287273689319,0.353274246398496,0.312763476157367,-0.0270971464951867,0.569334095629297,-0.175181528213579,-0.0794751454280511,-0.115094177651379,0.524538440662212,0.905915288631674,0.229598720883754,-0.000167126661723789,0.00818315350362795,0.254791719523134,0.257233099115141,-0.0668905303805952,0.160839033019327,0.156214008772336,0.405267968966579,0.525077196858015,0.339494250408436,0.427397270618675,0.521997544295071,0.675131607596087,0.441482860436696,0.687424691643752,-0.0213561216690322,-0.0265096162803023,0.491511310859147,0.192763110962985,0.651714214728499,0.0460968057057006,0.0666469581315091,0.394512948231864,0.174172443176011,0.198121373027513,0.513837456484448,0.235951285009075,0.528349748067319,0.607253369773915,0.643838905201647,0.0862906487955747,0.282222081595217,0.381436607283654,1.10272194188432,0.0771585509525901,0.63243331678045,0.283062822708371,0.31652011333694,0.495774880927592,0.722895651720514,0.341475208471208,-0.003980005280285,0.458083215014035,0.354733655143411,1.08627793019435,0.346024252826137,0.104856727107227,-0.230303846469507,0.320991404366547,0.308486931972856,1.1899893498285,0.641171847975339,0.475626616895524,0.712165427022598,-0.0627470974259199,0.135814478689313,0.332590394585137,0.257366168327221,0.618406338050363,-0.095171209272415,0.235083928133219,0.0829784288868862,0.168755529632685,1.03235902485344,0.454272917855077,0.597445307882212,0.388625262702842,0.311698834325165,0.144529585116025,0.982263968950812,0.474175806980946,0.500247441176465,0.278200578132401,0.13633046852438,0.895224363844712,0.609567988964249,0.201580817855257,0.444954908250074,0.200230878919567,0.174364530576398,0.0727390118586554,0.899445830273841,0.575862389595811,0.366230145629823,0.793568527719176,0.51059369098961,0.204440574395293,0.666942084433785,1.00092976214044,0.660910308662911,0.213920769662588,0.602832454909499,0.580260084074327,0.667645003079158,0.570917742491376,0.380963108810566,0.16223816339348,0.241793924592727,0.207012663743232,0.834063922074436,0.176391441467625,0.697906999125779
0.220677832174427,0.666099309191247,0.22267654012705,0.537383901822598,-0.0576466498060375,0.73866616448796,0.536946745148741,0.660292387578525,0.578936588384474,0.944970695083417,0.168977223633341,0.45730725646801,0.27189218286764,0.146479132320157,0.380228305669856,0.562746662803996,0.10279628960809,0.243784834967492,0.0565676515716553,0.0538022970008138,0.445173042958274,0.5463360481885,0.466995257818711,0.178409803620382,0.982362586697271,0.375335657599256,0.13668282511532,1.10899949327652,0.898583626117239,0.018383462669811,0.238356933295141,0.589591144181731,0.803622524462397,0.204623798876966,0.796801713307613,0.63211856512576,0.671820477382649,0.469457460612653,0.280512952077491,-0.0712211599670738,0.399168271508542,0.42295285256566,0.630329726135208,1.12950860789872,0.983590333270944,0.137452661907356,0.0154491253945982,1.21546424909751,1.2786598271305,0.187034124629814,0.154596093982406,0.72402995883082,0.339738224448103,0.217550606191538,0.41827684407403,0.617482486463326,-0.459408998898632,0.0713403487965865,0.370521208012772,0.595678611892031,0.42087103844909,0.496504245183438,0.598639284400157,0.601063568777013,0.836656123300272,0.977995687991059,0.983100616832623,1.14689310503634,1.06706248381572,-0.1526192573002,0.920498514662472,0.187068568708215,0.357182628277449,0.882158156012611,0.0313656163825984,0.873345783907145,0.331696603460401,-0.129743126514233,0.84048251153446,0.424224100710856,0.406310861045256,0.442237258963014,0.474177017611914,0.852582973995262,1.02241499016844,0.366995124253712,0.35575716388971,-0.00996767839039756,0.608501254803454,-0.166931376512056,-0.104336246444217,-0.0813442434517702,0.568143345568393,0.940000632416237,0.252202730033168,-0.0123615876716526,0.000247837073667442,0.26633946546569,0.264081779025751,-0.093401752763774,0.152641077478097,0.177190060085449,0.460035963368994,0.513085500731625,0.340222863445048,0.460194898590355,0.518372730590865,0.719352586558633,0.467829264977196,0.672130777173378,-0.00461006405095776,-0.0399490672803124,0.549404280915993,0.20659476032497,0.706390853912583,0.0232388028068749,0.0521857082467342,0.413362039097302,0.168661944955336,0.198248077405662,0.516922127003907,0.224561257082064,0.556217658779595,0.656256316072268,0.675746447505061,0.0978673472065656,0.318543579021214,0.39155338162005,1.14206168189242,0.0781685517098762,0.702816523896734,0.286568363485013,0.318021840643191,0.531534539764406,0.72028655796031,0.33505117758161,-0.012983443253004,0.453811923700678,0.411001217576447,1.1315613176761,0.358352140757396,0.101260076687618,-0.229167554080831,0.308961238377457,0.310697992905777,1.24136344520734,0.645035463709639,0.476001518723448,0.741671178516314,-0.0855294700964686,0.128221403310917,0.330249457832203,0.282169223293495,0.609663977265707,-0.103553925977134,0.229598658461141,0.0831353716074335,0.153652254577209,1.06533443535839,0.484259217629402,0.61925313030363,0.392619022491291,0.330216327661022,0.0957071616082698,1.00335997267868,0.458380516297715,0.49024354543975,0.292289914518753,0.124798103216021,0.948195031959198,0.632296249406217,0.164232316524416,0.455569207454862,0.203526984817368,0.161383824820808,0.0497088061242726,0.947714927111541,0.60508803443181,0.360736916647589,0.813187755517111,0.535773690056469,0.224684207939557,0.716363717516302,1.02803006159763,0.677357950493643,0.203427268338668,0.601978672888082,0.625042915712691,0.688831308822218,0.608068488769267,0.3762515936602,0.130593386219925,0.281975303078379,0.194085273066038,0.895950154841481,0.178346039883351,0.759347419341485
0.23785348362736,0.717342518281198,0.21271634977442,0.562387858237025,-0.092189944655881,0.724687739601304,0.566257022812671,0.680146113660584,0.623207050379377,0.970477880664665,0.178422093807901,0.465608736042382,0.261028491241491,0.143716595092439,0.393016626249092,0.581062614706749,0.0921155065895376,0.234110702232775,0.0412226243865007,0.0520994281730798,0.449937268643879,0.581249388824632,0.477505663498796,0.18089331717311,1.02461412637275,0.395711319739032,0.156717629638018,1.14648117344601,0.944420361462787,-0.00897027460056731,0.24347001274095,0.609059381134622,0.818003179592607,0.19204825854538,0.81350768298721,0.670984135650412,0.682348325233297,0.462059381783334,0.232839996192451,-0.0879714385531819,0.401816861347903,0.462129432520314,0.670478568502367,1.18294417164764,1.0183768613488,0.137976777369986,0.0347483512533409,1.24469410124848,1.32079460751838,0.173682122167677,0.132592588445974,0.757419448225644,0.360073742165403,0.240323855582445,0.438413507241949,0.636634784752261,-0.501154303711628,0.0862252203478988,0.403272960979882,0.623103469745124,0.431006467547276,0.539698280271534,0.649459272308174,0.642983807935243,0.850194352070402,1.00188517939001,1.01971422908732,1.23186899596688,1.11447850846138,-0.203754332985794,0.983194187887917,0.17121040798167,0.352497867710743,0.897624225039902,0.0330242797905347,0.870378524001196,0.317837081601772,-0.15138028245611,0.863506508139504,0.436532614917692,0.446371518343634,0.458565300947438,0.468532084570108,0.911316031023458,1.04198750360701,0.381040561229533,0.399741639956663,0.00727199483992258,0.64702944417578,-0.15843901050271,-0.128472878811386,-0.0470719354474663,0.612005414581076,0.974044465214945,0.275320540445631,-0.0248502676603778,-0.00747542523206694,0.277090936573435,0.270991570393143,-0.119936407096007,0.144135461204724,0.198025302948607,0.515427465876766,0.500581516162275,0.340859224405562,0.492725676727393,0.515154535211625,0.76362578821932,0.494158019432213,0.656231403316763,0.0124942864662499,-0.0539232953442688,0.608644389473529,0.220705335207087,0.760540982232535,0.00041954618914658,0.0379308553812245,0.432793118777545,0.163034581659897,0.197888942118069,0.520543238662462,0.212835231852735,0.583788518857818,0.705939460007351,0.707619023472376,0.109463904463267,0.355077008676847,0.401936040571577,1.18182207770518,0.0795392067795634,0.77387566094368,0.290875904779631,0.319376582712863,0.567611809808457,0.718615003994163,0.329025668336383,-0.0225545642356326,0.449798653682372,0.467108608567463,1.17684101527144,0.370720789147428,0.0980261233162062,-0.226812279722262,0.296783697162111,0.312648301622494,1.29276590639031,0.648108556594759,0.476156455840066,0.771072395801396,-0.108903877352286,0.120733571859869,0.328245366303677,0.307446551873108,0.599889967060767,-0.111517830894862,0.223807638258318,0.082961512692089,0.138787261520279,1.09860209625617,0.514925198033733,0.641369408430775,0.397011759026164,0.34880322934753,0.0468019187241626,1.02463175286855,0.442699232245121,0.479589169082873,0.306361665895532,0.113086212935904,1.00091143108479,0.655165758806203,0.126411907080776,0.466495824783671,0.206943284201037,0.148112646602014,0.0262870537566147,0.996541775004151,0.634204098681875,0.354844971996751,0.833094593347861,0.561200249266806,0.244484652722025,0.765679156626748,1.05491191438247,0.693872997664926,0.192684632289652,0.601697920473214,0.670292373476158,0.710223526238824,0.644790684078886,0.371250491446657,0.0983940421700675,0.322625822549898,0.180970191900566,0.957837749116459,0.180260610940825,0.821092465451249
