-0.270150571046748,-0.701749057179985,0.492770641779479,-0.294422351265877,-0.0419174425609891,0.246275742479846,-0.378780615598416,-0.558866372457935,-0.344757783963643,-0.226046312285154,-0.581970745284721,-0.262327038980464,0.276683087206586,0.377169935750172,0.0218849136271774,-0.362110698819095,-0.330233629157251,-0.197536174503047,-0.00401790826628638,-0.364393449319313,0.253924232355641,-0.513579147510296,0.0271110343688864,0.490661979448081,-0.391748436562695,-0.327162434244622,0.0311239115970306,-0.417293114833305,-0.286316122871262,0.284115031632199,-0.0532932031519959,-0.87088247958594,0.109779410649161,0.402619527173827,-0.29305012746957,-0.463497927091012,-0.00762015673273182,-0.0445613722382116,0.212687662799583,-0.15070096388743,-1.24927688658002,-0.47285057338935,-0.658362109084204,-0.667418468856058,-0.150432495954404,-0.58055259876024,-0.445417808111389,-0.0417287210941692,-0.380248798697325,-0.19568944724161,0.360745792876673,-0.677795609437298,-0.786233916811472,-0.244839803887058,-0.493527619874773,-0.399964324505873,0.418750811397403,0.128080916680222,-0.652220464310371,-0.667220019055666,0.0103102334062486,-0.403946764062824,-1.10802226581808,-1.06355429989619,-0.402493555975218,-0.671766631337066,-0.300036902889708,-1.23142658627798,-0.615563172437671,0.0414141111480995,-1.27635570988877,-0.197955304312838,-0.0598739945896409,0.0695424925203799,-0.706155159542029,0.0912171494279691,-0.431713090186276,0.181297501199891,-0.597035695409579,-0.215659004187062,-0.781672109860275,-0.465460018430684,-0.108330958963865,-0.726514161587867,-0.135271364659921,-0.467498743714859,-0.448543935679868,-0.384690763634342,-0.611305812623486,-0.361240272796028,0.270129480135684,-0.622452421706789,-0.807321671475137,-0.264768719996238,-0.157162205307392,-0.357886772507869,0.159715550761488,-0.949622534817753,-0.00148246559458476,0.154515559173517,-0.106408042715719,-0.279422287523399,-0.534146651835906,0.111644726333456,-0.459414026236702,-0.504213565883955,0.343276880307886,-0.678679098622167,-0.560263638753441,0.408503494621218,-0.625466497650266,0.15757550439427,-0.683498245914432,0.0231670473994304,-1.44910583290139,-0.0749534212684726,0.80019368665509,0.289982510461515,-0.372344026199714,-0.122363005187702,0.171872183965671,0.185667417189069,-0.463139407964322,-0.455905312995663,-0.883515627038382,-0.198449127558159,-1.05577713207026,0.577989684919148,-0.245570482732449,-0.468736871119107,-0.967949179053521,-0.311248526852818,0.284085082453274,-1.10440108743972,0.429511571722775,-0.241112406411824,0.053858599016453,-0.477885892198516,-0.701140122236055,-0.365095817442568,-0.826648977219571,-0.553292915562239,0.898037915261115,0.37173063539374,0.374104002156205,-0.493966509165209,-0.0844421225336346,-0.367200441160994,0.247904779221495,0.264902922674795,0.581947471419411,0.0781879870963466,-0.263823745223045,0.382390635844364,0.681222853808139,-0.38770765018858,0.195717804767303,0.324135374087346,-0.287131552686419,-0.325698785713434,-0.280191501394024,-0.171343158081874,-0.936749769571559,0.581069882482799,-0.339667264477774,0.131025598732349,-0.372287383777798,-0.215332421491966,0.61628744715365,-1.256377700785,-0.410127401282244,0.414523164372634,-0.213436394157551,0.0936066409108176,0.744986117356948,0.385544181897036,-0.602775615742162,-0.21870854680556,0.129331244341977,-0.147300826158559,-0.664428751217886,-0.56677479565612,-0.993062849940384,-0.267048865510755,-0.363003058463283,0.10636551602889,-0.142931738602028,-0.621871509150434,0.194645393136193,-0.351451015957825,0.149974189665582,0.0985317219800511,-0.275466565358794,0.672348794300834,-0.335956797750869,-0.00129503098823405,-1.0593297139291
-0.258025408376983,-0.657390060416776,0.479755889923189,-0.283814376436675,-0.0365610870363133,0.247649696162641,-0.349417491370617,-0.541899909103442,-0.315200695621121,-0.18493758029685,-0.538834871348532,-0.271195831822461,0.27259960123777,0.383236879735784,0.0331287329340242,-0.363298528346152,-0.3497012504726,-0.216274902275397,-0.0172883768159551,-0.364763985392614,0.251091212259783,-0.508812714629492,0.039061447871744,0.485518590564464,-0.374383475711763,-0.289139426639856,0.0542303135829053,-0.405095375227637,-0.271170576190109,0.26775816847103,-0.0547940571193623,-0.835746543626414,0.127015295094202,0.374981992840517,-0.286793673612549,-0.408286643978637,-0.0139938201213758,0.000673253600649216,0.20200515985439,-0.120654709990497,-1.16421517729144,-0.440433865851711,-0.643990273097513,-0.638176961417419,-0.129541930281601,-0.572043032415558,-0.422732821409584,-0.0346551312838091,-0.354863992673047,-0.168256373096623,0.329695231185914,-0.636991883954147,-0.753204784451864,-0.23688700710996,-0.470865787249587,-0.36950550377981,0.410479486162862,0.125494878413013,-0.601481860129744,-0.578981647191766,-0.00582847771801626,-0.396355860382337,-1.06532307038734,-1.01813194606434,-0.396226100788727,-0.635622705593598,-0.286369112605359,-1.15720400819778,-0.575021267338058,0.0443092766807964,-1.20091761073707,-0.179876778010674,-0.0559629018718804,0.0753106652250117,-0.662588952872654,0.110665512421153,-0.413233430906408,0.148235927509495,-0.570387231696793,-0.20392515101581,-0.755750074657548,-0.426592379087739,-0.0780037932846042,-0.649470269428498,-0.121209256900923,-0.449787608970286,-0.423975683484869,-0.366356800870143,-0.556052832542235,-0.33961897817465,0.233572834566082,-0.596372878174239,-0.771706155041936,-0.240993285657432,-0.135049388124941,-0.361235171050719,0.150760538429686,-0.909196431517621,0.0142137949081301,0.143409186548837,-0.0829376563946363,-0.266856152205406,-0.507758259389616,0.110640308329376,-0.425477070417024,-0.483079464892352,0.353378411181609,-0.635183355536335,-0.522273830248298,0.408529352315918,-0.597304531693474,0.15057497138786,-0.672413348968995,0.0479996535796847,-1.37093231281621,-0.0662263445988621,0.789792905206637,0.306114501905318,-0.366107852250205,-0.112811387668117,0.139573485853549,0.209076504131014,-0.429287742250923,-0.41511627983874,-0.866169034482322,-0.187417840845895,-1.0248499669393,0.56252105701421,-0.234242878003527,-0.475779339801309,-0.928356107646536,-0.310227618689561,0.308599697392136,-1.06349602880005,0.399899638043112,-0.241271972771513,0.0539248810817232,-0.468467940314049,-0.673674067815355,-0.352784695559633,-0.822255576079284,-0.54013511530179,0.859044244433087,0.372222085753588,0.407022273462548,-0.469272997734806,-0.049697323917446,-0.337307719884497,0.267721243854863,0.273276230579116,0.574664607015073,0.0447080086565373,-0.240211749825332,0.403353086252116,0.664488671355893,-0.366137747413086,0.194720630175093,0.324165774016685,-0.278744109643133,-0.292607696828767,-0.287433603976908,-0.195573684487958,-0.905953810606595,0.555950385733571,-0.342302784824749,0.124691997778976,-0.360769721509086,-0.198511946690996,0.607562730574695,-1.2020586816412,-0.392297996729101,0.449708478454399,-0.200205025208726,0.0960480739127736,0.737543781967209,0.393514565905063,-0.561652965099521,-0.198633569349157,0.133387427440385,-0.122126255602094,-0.640288321980252,-0.518815244690591,-0.956396223589886,-0.26154018842859,-0.349385875086849,0.137129696447793,-0.132195959423861,-0.578451841288191,0.192493603075212,-0.305565921510506,0.15849534473608,0.101308806483581,-0.26449540558577,0.674111891218923,-0.302221243769299,-0.00556731106814183,-1.00757741319302
-0.245896599685315,-0.613219954683691,0.466845204840757,-0.273110579496267,-0.031222495170536,0.249016838327857,-0.319835556382601,-0.524847628602039,-0.285557509101999,-0.143996350648366,-0.49583817741054,-0.279918192887863,0.268343063183936,0.389366538388856,0.0442626781132477,-0.364532283343463,-0.369126509142291,-0.234684582168754,-0.0304825888905004,-0.365252669818969,0.248081605124122,-0.504099462150057,0.0509821051738004,0.480316467721355,-0.356868706093657,-0.251022409898668,0.0772990287488999,-0.392827300001314,-0.255977392747493,0.251485138704632,-0.0563301403846741,-0.800775900253607,0.144199028906565,0.347339586983226,-0.280644614332011,-0.353122099556056,-0.0204592482568697,0.0458120102719014,0.1915483966191,-0.0907615410070312,-1.07898417396239,-0.408338853442645,-0.629728674998066,-0.608936005950952,-0.108807102462497,-0.563319654074512,-0.399956966349986,-0.0277127366180216,-0.329524887474556,-0.140992405217279,0.298691068644317,-0.596234955631978,-0.720102053703191,-0.228906570217144,-0.44848002214979,-0.339024107613428,0.40221886447152,0.122837062107647,-0.550839017507066,-0.490794949020533,-0.022067699624104,-0.388811868547947,-1.02248409180908,-0.972742188445317,-0.389756330181037,-0.59953031243112,-0.272768211987651,-1.08308226376241,-0.534683709630632,0.0470728309993493,-1.12544334189542,-0.161866669832588,-0.0521278993477902,0.0808803293041633,-0.618864368794572,0.129997905587433,-0.394772317166333,0.115051079718684,-0.543906118763529,-0.192207982660853,-0.729771038806666,-0.387641219334961,-0.0477948068855558,-0.572394043525227,-0.107123921093734,-0.432074040625994,-0.399542979287769,-0.347871050101715,-0.500777818688219,-0.317943787476702,0.196994259205919,-0.570353961938847,-0.736045753174081,-0.217233703188167,-0.113236530852373,-0.364518123480722,0.141682410161776,-0.868924073551552,0.0299229023788395,0.132253086189583,-0.0595377324695198,-0.254340423919415,-0.481439589769753,0.109782671626327,-0.391521736157012,-0.461994552110005,0.363554357302455,-0.591832545193124,-0.48449169567559,0.408450042245583,-0.569136428450252,0.143551905382944,-0.661338588704532,0.0725605262859485,-1.29271209638357,-0.0573093636649762,0.779422944204233,0.322354835609633,-0.359930934773476,-0.103353353950385,0.10733850128223,0.232237813073096,-0.395197235082163,-0.374305719292845,-0.848923220057686,-0.176316539519094,-0.994039632066955,0.546786449190409,-0.222926503040179,-0.48280822896078,-0.888623835959949,-0.309189822233849,0.333057438882047,-1.02253444856633,0.370091850778886,-0.241250670335998,0.0539356616368142,-0.458903675268803,-0.646044402709738,-0.340535084856186,-0.81757560577227,-0.527133185581804,0.819693684065791,0.372721275217943,0.439821496010709,-0.444686116719713,-0.0150155108165127,-0.307516313463317,0.287432529011657,0.28157679408979,0.567545548464643,0.0110917268242784,-0.216683235479023,0.424311547385566,0.647397351919285,-0.344534013695463,0.193786155940182,0.324248406605397,-0.270447556251175,-0.259467393689619,-0.294771100654015,-0.219882104892517,-0.875022511391769,0.530853429512237,-0.34512130977955,0.118490311501862,-0.349127722602277,-0.181671901347478,0.598784852624199,-1.14777825890553,-0.374637833947459,0.484406314607596,-0.187018973389573,0.0981781415036695,0.730138079462099,0.401478183710934,-0.520910532949956,-0.178736208005655,0.137615401881908,-0.0971083461201235,-0.616004860934349,-0.470829050297368,-0.919888977142434,-0.256013788985601,-0.336001198805858,0.167714021779627,-0.121413668389494,-0.53500162221649,0.190180469120742,-0.259677225410884,0.167094121790533,0.104038355783197,-0.25361638536189,0.675856476872944,-0.268549061176777,-0.00992637299120395,-0.95573189711812
-0.233762659557775,-0.569556150930709,0.454317989688288,-0.26205360297692,-0.0258469786694694,0.250338396117131,-0.289785200330353,-0.50745813004836,-0.255678057235007,-0.10355520985411,-0.453172044688546,-0.288289056433874,0.2636171914172,0.395801854824648,0.0550645053863771,-0.365784591179551,-0.388282967656531,-0.251987574943474,-0.0434994831464453,-0.365992235255289,0.244705283697821,-0.499420630389997,0.062843360585613,0.475046075718377,-0.338891872962237,-0.212503862225439,0.100370945963549,-0.380300649446471,-0.240521957541965,0.235414959136768,-0.0579117983965044,-0.766182287651482,0.161177556442748,0.31975705194022,-0.274787664012278,-0.298131702556647,-0.0272276951359765,0.0906069320983087,0.181715988060351,-0.0612932296904382,-0.993300949818375,-0.377049240253102,-0.615645030468308,-0.579599227124777,-0.0885420855760593,-0.554010985824323,-0.37693811500957,-0.0211052877610235,-0.304277257206613,-0.114189644761889,0.267786913583642,-0.555606915644423,-0.686648418909806,-0.220743497601867,-0.426792536257506,-0.308496423851871,0.393937675261753,0.120159913248844,-0.500490567443605,-0.402806643935302,-0.0383073384243324,-0.381257803152942,-0.979371859617214,-0.927343565249667,-0.382727107482216,-0.563512682856955,-0.259345244311628,-1.00923791436812,-0.494884674850886,0.049461485281681,-1.04989362898204,-0.144060182283592,-0.0483489664622235,0.0860309258384048,-0.574676727869365,0.149010354853521,-0.376405219479902,0.0816036886602296,-0.517781562527428,-0.18049730073547,-0.703414537075557,-0.348390246762587,-0.0180150531389697,-0.495255118686577,-0.0929352801404014,-0.414426789570761,-0.375444727927465,-0.329036038470686,-0.445425761956757,-0.296199282615813,0.160419415824338,-0.544508720598641,-0.700151628944476,-0.193577693807331,-0.0923403130454902,-0.367631561671599,0.132204145101829,-0.829081703046279,0.0459150253168307,0.120911252396158,-0.0363651952311206,-0.241879811853687,-0.455312792483351,0.109226271099718,-0.357683956910098,-0.440991804421972,0.374026836421846,-0.548851315607915,-0.447113017395047,0.40807514298198,-0.540807101273789,0.136572855632028,-0.650085522630063,0.0963526713758583,-1.21433011351885,-0.0480343910282206,0.769173206994085,0.339040792362163,-0.35401281284407,-0.0940357293449024,0.075342912007881,0.254754928962653,-0.360409239939175,-0.33339051018198,-0.831628062346845,-0.165023391902017,-0.963453421729323,0.530460730800196,-0.211597582101687,-0.489650550682918,-0.848491495944646,-0.307941429184033,0.357470550888129,-0.981381019900204,0.339840177081317,-0.24078589128582,0.0539428052112512,-0.44872987648988,-0.617956729212412,-0.328361994380737,-0.811992826083059,-0.514454241867314,0.779191962001934,0.373509650161533,0.472256309169581,-0.42031504707004,0.0196244694114449,-0.278013900041474,0.306775568422905,0.289678226165994,0.561072565786218,-0.0226662340613898,-0.193409399467645,0.445166340833158,0.629141515897623,-0.322911243640034,0.192996442035061,0.324351863330541,-0.262260390361678,-0.226181333556103,-0.302221357175497,-0.244194262714014,-0.843581688669921,0.505863604819018,-0.348247029042004,0.112672665013638,-0.337086166950225,-0.164761077941048,0.589971212221778,-1.09355351134624,-0.357397265510362,0.517769787971951,-0.173913029249247,0.0994921478412913,0.722997665548939,0.409607591922825,-0.481203669817877,-0.159177193011949,0.142338067945652,-0.0724178295007318,-0.591289145461905,-0.422759077327465,-0.883668902169956,-0.250299429254688,-0.323222568356059,0.197779572577114,-0.110495751858031,-0.491274088372899,0.18759792230132,-0.213683684226947,0.175864574345711,0.106565512656961,-0.242942809281397,0.677713933809614,-0.234964231963548,-0.0145377930899885,-0.90369714096804
-0.22170623962407,-0.52662344940639,0.442486568869944,-0.249992236954223,-0.0203039921929325,0.251550623101498,-0.259243631710834,-0.489132321759792,-0.22533868352052,-0.0640279779339263,-0.410948832578902,-0.296173319149847,0.25818235422064,0.403082954734058,0.0652507729849025,-0.366954812028617,-0.406671991022001,-0.266949742138713,-0.0563298685639969,-0.367153213414161,0.240930039511925,-0.494589486745372,0.0746526739262545,0.469894644107706,-0.319978880766277,-0.17303117082833,0.123592603349703,-0.36710828962055,-0.224251174396953,0.219605950889056,-0.0594070433118035,-0.732061081277937,0.177713442727604,0.292400698499959,-0.269422755253801,-0.243520866109478,-0.0346377001749361,0.134663888239071,0.172966931696004,-0.0326639352708339,-0.906781737423208,-0.347010793966175,-0.601609053592456,-0.549781426512567,-0.0691043352114965,-0.543848615813828,-0.35354218322749,-0.0148518266574548,-0.279004656760939,-0.0883019303065897,0.237120824945125,-0.515200120704843,-0.65231217316412,-0.21201628994165,-0.406084125522784,-0.277880834522691,0.385423219778816,0.117908482990492,-0.450711736965981,-0.315443398695592,-0.0539280574652571,-0.373165061682325,-0.935965924577015,-0.88178263215028,-0.374754794582335,-0.527372002425918,-0.246135145087868,-0.9357872410814,-0.455944032634946,0.0511532845815916,-0.974214205338565,-0.126765935276543,-0.0443167858163008,0.0908548563426734,-0.529763231790211,0.167606981142367,-0.358293512503052,0.047904241220001,-0.491928041211507,-0.168757085020607,-0.676000406905267,-0.308486320123155,0.0107492921111759,-0.418124873354646,-0.0784466151515501,-0.397055586182253,-0.351795827155894,-0.309788689807978,-0.389877807219819,-0.274508803045266,0.123917332588286,-0.519086576547985,-0.66366430633597,-0.170195656133595,-0.0731138966639726,-0.370421630334773,0.121859921710977,-0.790122380998821,0.0628586067937803,0.109053629483043,-0.013757820281383,-0.229403070568947,-0.429558762905054,0.109010321292485,-0.324421533595293,-0.419848151064193,0.385276012841649,-0.506300911409062,-0.410077022246469,0.407353941259847,-0.51203450937923,0.129958966150426,-0.638123482004064,0.11882963872045,-1.13564397526392,-0.0385475920279125,0.759189132213567,0.356777739070323,-0.348709624771105,-0.0847235219528133,0.0438763636377758,0.276345336977318,-0.324392212391544,-0.292165470259753,-0.813575976211602,-0.153343161714979,-0.933065946395579,0.513520519291754,-0.200171399179021,-0.495972840216998,-0.807642370399656,-0.306042650639646,0.381995229827537,-0.939805073316726,0.309169357190065,-0.239640617820458,0.0542294662263645,-0.437091061476341,-0.589265000563025,-0.316047013395926,-0.804608507796005,-0.502165994626597,0.736323827600492,0.375332614667214,0.50386148873205,-0.396111719252874,0.0545176762393112,-0.249012599624186,0.325362223446441,0.297447710928077,0.556054723483053,-0.0561718433495652,-0.170544818521643,0.465624802067678,0.608534804247208,-0.301478194889843,0.192420011150894,0.32425725841059,-0.253926473844772,-0.192659797518507,-0.309609097464103,-0.268112386356832,-0.810968586575857,0.481177863075225,-0.351446285765841,0.107539306400865,-0.324307719818527,-0.147614152295143,0.581371645130266,-1.03936463665434,-0.340719605724783,0.548844330017076,-0.160764095010187,0.0995458037865815,0.716631286414482,0.418223615971932,-0.443168229277236,-0.139831724475155,0.147874127780286,-0.0480486853788947,-0.565745262753409,-0.374683778613269,-0.8476134096699,-0.244010059369915,-0.31145073175288,0.226894787952365,-0.0993516806006006,-0.446644967236452,0.185011064947007,-0.167380806540043,0.184901096839632,0.108552144944444,-0.232573437166967,0.680080539387801,-0.201333883022202,-0.0195152335379565,-0.851473003078135
-0.209924681487714,-0.484291293156123,0.431272424957856,-0.235899321142463,-0.0145957241054726,0.252612170990298,-0.228460926089028,-0.468965569305804,-0.194206820874601,-0.0257296252928825,-0.369144862780743,-0.303593292016287,0.252126237846921,0.411964023835727,0.0746490330175277,-0.368139130485081,-0.423813420229669,-0.278255919972872,-0.0691234041910048,-0.369237556321321,0.236770624658329,-0.489271963186564,0.0864775742249344,0.465228025645788,-0.299589716986427,-0.132095732832239,0.147016138318733,-0.352616186360232,-0.206444668700257,0.203999713473762,-0.0603934734060115,-0.698350980643178,0.193680661187879,0.265430837468904,-0.264652442838607,-0.189551973747276,-0.0429869352216623,0.177610416753283,0.165712398810608,-0.00546371713110664,-0.818993726198578,-0.31862294917702,-0.587366357731784,-0.518824595294394,-0.0506980791524946,-0.532944413477486,-0.329748158279952,-0.00849677515018865,-0.253273984061244,-0.0640082810115563,0.207207424309261,-0.475111036486339,-0.616593202582695,-0.202241449498648,-0.386337817487751,-0.247009701866501,0.376075361891889,0.116907963083308,-0.401791401758188,-0.229644666046194,-0.0680083472269758,-0.363439521211166,-0.892303512471768,-0.835996589717984,-0.365460747746894,-0.490547752892416,-0.232961755153597,-0.862621594944168,-0.418035611934992,0.0518123717173742,-0.898241527169815,-0.110511042810252,-0.0395345245280344,0.0958551257742207,-0.484349193548062,0.186058404592301,-0.340622928207675,0.0142395781894726,-0.465868016719038,-0.1570256734512,-0.646846228626023,-0.267641423925003,0.0376798311556544,-0.341337744556995,-0.0633184429334577,-0.380152750489222,-0.328588708875081,-0.290237603519136,-0.334012742624981,-0.253196358327689,0.0874346832690739,-0.494616492644464,-0.62628912226661,-0.147201056697351,-0.0560498992301969,-0.37270718236784,0.110180038082767,-0.752708911519946,0.0814396007670942,0.0960529177604265,0.00766421479786614,-0.216837388220964,-0.404505708992611,0.109093130594241,-0.292383763952492,-0.398008956342879,0.397934547923786,-0.463908499064803,-0.373222693310576,0.406614772368128,-0.482888347603487,0.124119091247134,-0.624810873524726,0.13954030167048,-1.05667729001937,-0.0293057173565443,0.749558502993639,0.376158980214692,-0.344293913048781,-0.0751136611081807,0.0132052411660835,0.296957853138347,-0.286823178310566,-0.250346137215867,-0.793871090129773,-0.14093710091219,-0.902808442666162,0.496275838920315,-0.188589694751832,-0.501640476378981,-0.765748151913989,-0.303285424649898,0.406754989888912,-0.897636088286724,0.278698254754179,-0.237553605224461,0.0551070293852136,-0.423163502507346,-0.560270464310772,-0.303156625335469,-0.794525221719142,-0.49039128847933,0.689826493295035,0.378973857679455,0.533737840930165,-0.371880897929227,0.0901233378536265,-0.220717030473338,0.342820638688269,0.304749233832706,0.55324854502314,-0.0888174128268652,-0.148037282853462,0.485198895380304,0.584483196750077,-0.280701647691078,0.192038729252596,0.323721652909284,-0.245050481344591,-0.158930205504798,-0.316787319535064,-0.291164993777879,-0.776458760620362,0.457059990055634,-0.354237663651556,0.10327060761151,-0.310666522303689,-0.129939513141998,0.573450480219262,-0.985269437372745,-0.324546894119014,0.576758554102492,-0.147196333968536,0.0982122622557174,0.71157464406593,0.427251802675101,-0.407084313651908,-0.120387350867232,0.154262800632633,-0.0239525478631765,-0.538874752492179,-0.327142321344201,-0.811380427883034,-0.236788414831551,-0.301009351352622,0.254525868170285,-0.0879831069099897,-0.400454147835804,0.182940217487545,-0.120698071742933,0.194432013811155,0.109411457174006,-0.222594397362641,0.683348151110873,-0.16745488016223,-0.0247271151101467,-0.799023149390091
-0.198431734859357,-0.44223450669113,0.420365365360187,-0.218955525871495,-0.00899016147634903,0.253507771309732,-0.197754244203516,-0.446118057733196,-0.161847831421427,0.0110578979013937,-0.32768572060982,-0.310547661209563,0.245837282091894,0.423205854628922,0.0833258626076733,-0.369685237339505,-0.439527779067591,-0.284859746398939,-0.0819980582193093,-0.373110524620213,0.231983412608226,-0.482974064867015,0.0984003438107104,0.461421380065791,-0.277257945566697,-0.0894376391662451,0.170519740951078,-0.336122979101077,-0.186774829221595,0.188470543129919,-0.0601945108999421,-0.664774743002399,0.209148861784837,0.239090173269526,-0.260302386752103,-0.136594704082569,-0.0524005393788284,0.219184340068095,0.160335662261844,0.0196286518320495,-0.729621567541019,-0.292271468414349,-0.572734301738792,-0.486104256025309,-0.0334542301627676,-0.521444107455758,-0.305664682631635,-0.00134070105463025,-0.226488106079309,-0.0419653999426519,0.178977266603744,-0.435368905337219,-0.579309338424199,-0.191022091251642,-0.36742436377605,-0.21553137035618,0.364816700762309,0.11807029671421,-0.354129621015182,-0.146750859566755,-0.0798151269760214,-0.351021999500077,-0.848517786165488,-0.790189404021433,-0.354179177464222,-0.452288877929461,-0.219489436974119,-0.789541277161238,-0.381204765680026,0.0511070324851128,-0.821723658208026,-0.0957726559685314,-0.033561401773883,0.101583915810683,-0.439280054034277,0.204837772139829,-0.323430197216554,-0.018829605493933,-0.439028217966568,-0.145435291167903,-0.615419652224862,-0.225853012610601,0.0618042896425678,-0.265581602182697,-0.0470642888259539,-0.363596836400323,-0.305846585070431,-0.270530042418001,-0.277802151979494,-0.232969966405806,0.0508382038285427,-0.471852747458477,-0.587937378315954,-0.12453611916517,-0.0412687953651066,-0.374366707138626,0.0970140748515093,-0.717370599208371,0.102047298977434,0.0811701077720427,0.0269833895495563,-0.204045520438732,-0.380805096775448,0.109308265984485,-0.262142472497666,-0.374986424171207,0.412428210998625,-0.42134463205628,-0.336652714047679,0.406283425949977,-0.454091124400975,0.119203934022729,-0.609498229272513,0.158000286807064,-0.977776303729754,-0.0207905253826269,0.740201963598671,0.397503298840514,-0.340630700545064,-0.0647925348110146,-0.016586071176582,0.316524363059742,-0.247646359244082,-0.20779202154379,-0.771866146121406,-0.127363604895705,-0.872631761670364,0.478968220957738,-0.176953811867848,-0.506715902849751,-0.722412523680427,-0.300135973712564,0.431665098179757,-0.854998892823253,0.249604319723114,-0.234201451959073,0.0567053866376404,-0.406478145265197,-0.531438321616573,-0.289375325391201,-0.780903983695871,-0.479410681570158,0.638554661782549,0.384831168755631,0.56055335611892,-0.347469673377894,0.126730431292382,-0.193375239226645,0.358769046119544,0.311402095447806,0.553196538088348,-0.120037748596159,-0.125734055640052,0.503239734239624,0.556190839661459,-0.261136141888378,0.191598470620444,0.322537964376989,-0.2354077580177,-0.125098868994228,-0.323805704839419,-0.312997005839357,-0.739393599006517,0.433842447722239,-0.356237101998694,0.0999160840671164,-0.296289973273463,-0.111578034682872,0.566757969897918,-0.931344162009625,-0.308778750496081,0.600706287811429,-0.13280577904344,0.0956703281689686,0.708193817269315,0.436139040196939,-0.372925490483215,-0.100676325438837,0.161248878658363,-0.000511057623847565,-0.510002041740624,-0.281161350898856,-0.774545257672891,-0.228450637934918,-0.292080475597895,0.279841191365849,-0.0764444058136559,-0.35244315337171,0.181592993095991,-0.0738054547576459,0.204782612042003,0.108428754119581,-0.212969012351821,0.687665752195127,-0.133291178149433,-0.0298443339223828,-0.745986366626437
-0.186860678624036,-0.400216506966951,0.409780573499553,-0.198795314557305,-0.00399725560439612,0.254304566291187,-0.167110553855986,-0.420035732312501,-0.127678523292457,0.0459261985440746,-0.286548751865141,-0.316598803465153,0.239682706362613,0.43716872377314,0.0916829771172763,-0.371914639031713,-0.453884828608411,-0.286173418833916,-0.0947992716138781,-0.379631689791153,0.22597177194719,-0.475177144635569,0.110389746178543,0.458671234912938,-0.252629665436966,-0.0451946571860569,0.193804143884454,-0.316981667838097,-0.165548111284983,0.172951084433068,-0.0582097668861401,-0.630634773130441,0.224285037132418,0.214035030837291,-0.255741675176014,-0.0849858430145813,-0.0630282095327356,0.259291818469522,0.157192985212123,0.0418613900817802,-0.638510555465796,-0.26811142728799,-0.557793861338856,-0.451121085603799,-0.0175405327572686,-0.509067776517123,-0.281486693071278,0.00714134973687841,-0.198134023864059,-0.0225725957076321,0.153272503015905,-0.395841939688934,-0.540650677456478,-0.17806817429686,-0.349183287230361,-0.18299883868755,0.350319092177776,0.122055647393171,-0.308412771770405,-0.0679324600976582,-0.0892202339921229,-0.335387310780348,-0.804769381917177,-0.744878276958747,-0.339828256360921,-0.411881579734832,-0.205258525632435,-0.716443293671042,-0.345321431232277,0.0486356061126867,-0.744409304707591,-0.0827446379445239,-0.026046117151578,0.108343142189892,-0.395614844886949,0.224338384174784,-0.3062802338048,-0.0506455956524312,-0.410990126940903,-0.1341362427652,-0.581237606899286,-0.183384184821637,0.0822030807240667,-0.191749733204225,-0.0290750788137526,-0.346812879621262,-0.283545199638589,-0.250937261303005,-0.221197517553389,-0.215075742683492,0.0141323140539373,-0.451628110290769,-0.548529042652272,-0.10199547051108,-0.0285653416031232,-0.375242271991596,0.082534188019192,-0.68404000792567,0.124762545820147,0.0639655792840684,0.0430692873804102,-0.190848249611928,-0.359416854138083,0.10918561954964,-0.2339626006776,-0.350517381092251,0.428581229552064,-0.378330770392262,-0.300758206782828,0.406724940490171,-0.426770119858714,0.115342869031035,-0.591461583194115,0.173911382289683,-0.899536297804366,-0.0133510697571564,0.730853025189279,0.420527805688463,-0.336971307653432,-0.0533484118976842,-0.0456882615072398,0.334862091197905,-0.207008265463197,-0.164608827508768,-0.747224147260394,-0.112327456657222,-0.842296551102748,0.46168495320814,-0.165537551392607,-0.511209170771581,-0.677382434596773,-0.297332704482372,0.456296289403227,-0.812247773064591,0.223213715233129,-0.229368416307077,0.0590366368418255,-0.386664520919749,-0.503032288413986,-0.274623111782223,-0.762750333618139,-0.469478246062312,0.581272451496303,0.39300355883841,0.583109753996434,-0.322782246600785,0.164275262055611,-0.167120795548194,0.372878539558003,0.317213753660199,0.556143042395623,-0.149338981047674,-0.103692184336044,0.519083738690781,0.523038694853292,-0.243110467775294,0.190536458449988,0.320385998724949,-0.224904886130161,-0.091209810542317,-0.330872390992223,-0.33327221062312,-0.699149318775625,0.412091496220279,-0.357116035329835,0.0975628787069288,-0.281259052668091,-0.0927343897749038,0.561800226442842,-0.877336916722982,-0.293286001079755,0.620186106306776,-0.117395331436342,0.0923313654950316,0.706601711550573,0.444330581871403,-0.340515971379436,-0.0806514386096399,0.168460567636491,0.0214845941840805,-0.478450653425803,-0.237840455084823,-0.736708024275392,-0.218927479327158,-0.284611311738974,0.301836635629939,-0.064534255471978,-0.302627028377632,0.180743866180875,-0.0270675490991293,0.216074053720775,0.105327990864421,-0.203529633165542,0.692947740741804,-0.0990645826578671,-0.0344434473380427,-0.691760071622798
-0.174790636299834,-0.358038340092368,0.399969393293282,-0.175168049551898,-0.000142041553247774,0.255237756873102,-0.135892413349456,-0.39051356297458,-0.0909578950266134,0.0785593785319098,-0.24571574158881,-0.32091716121389,0.233854346888624,0.453472625375507,0.100523520717088,-0.374819859066431,-0.467098074919941,-0.281915473366871,-0.107149403037424,-0.389325047735157,0.218079426559282,-0.46543508035563,0.122220975858817,0.456913181169557,-0.225259024123195,-4.56730388297195e-05,0.216315797358277,-0.294671980576536,-0.143435986503196,0.157664170376267,-0.0541082756412703,-0.59505734435562,0.239315338808911,0.191356571904551,-0.249999058287449,-0.0348410800173117,-0.0752171268200271,0.29803265050951,0.15662631794867,0.0605406717156303,-0.545694744337178,-0.246053517451617,-0.542854005720048,-0.413365815965301,-0.00316516519780936,-0.495185467287467,-0.257429185223789,0.0171984272495182,-0.167846998101258,-0.00594005752114707,0.130509670777565,-0.356400188998267,-0.500933641755975,-0.163233246267741,-0.33141483409404,-0.149002769266208,0.331438171267036,0.128983814910455,-0.26547532250702,0.00629450881936118,-0.096934140201124,-0.316604450538702,-0.760965911722265,-0.700757999339224,-0.321279277264091,-0.368684249884705,-0.189778645898324,-0.64337943759505,-0.309955100505402,0.0440399147857802,-0.66610632662191,-0.0711634276474173,-0.0166000245950083,0.115998310267934,-0.354098489339839,0.245002706080488,-0.288210236557599,-0.080570756103168,-0.381619769081674,-0.123211274662086,-0.544056624522906,-0.14061666705827,0.0983541787784772,-0.120526594266108,-0.00870849510698987,-0.328822044580422,-0.261417554285782,-0.231880871145337,-0.1640802967782,-0.201046215699173,-0.0225647773329876,-0.434655623268499,-0.50781540061219,-0.0793906918145293,-0.0175932493745847,-0.375173509559729,0.0670055321455778,-0.652045139729092,0.149492784791574,0.0444914608465967,0.0549136476377901,-0.177187753966542,-0.341117994884819,0.107965546253702,-0.207663984648751,-0.324548622746357,0.445409384932587,-0.334514907224809,-0.266163177558028,0.408439445115215,-0.401857226826747,0.112889604212181,-0.570057728899868,0.187522940881245,-0.822527379648241,-0.00709974230581028,0.721133649468623,0.444070631872478,-0.332114919786804,-0.0404939913357445,-0.0744095591362585,0.3516310621582,-0.165237636437618,-0.120864925953087,-0.719932464998409,-0.0958753314873342,-0.811297611861622,0.444499741525089,-0.154598256252878,-0.515210479974043,-0.630849190311086,-0.295118375233578,0.479771532950173,-0.769702257637413,0.200464337447672,-0.222833493832398,0.0621003549737423,-0.3631266734545,-0.474990994851697,-0.258859915426333,-0.739018230916557,-0.460648574534781,0.516741589763195,0.403500126428711,0.600892990439851,-0.297705464069773,0.202348265683716,-0.141766321955663,0.385087942431775,0.321993043010595,0.56190834546684,-0.176339688941082,-0.0822294250217132,0.532247006517317,0.48454344367495,-0.226405501820158,0.188133546501825,0.316816321896918,-0.213427625491356,-0.0572692651399809,-0.338298081390981,-0.351655838007919,-0.655236339573637,0.392515403068557,-0.356480736393184,0.0965264220051712,-0.265260960566738,-0.0739365255240368,0.55879725720993,-0.822517872503001,-0.2777742795405,0.635236129029289,-0.100748121646958,0.0887967248705868,0.706549488176469,0.451526700944729,-0.309578277106453,-0.060297543968003,0.175609611527811,0.0413971485496031,-0.44373284772054,-0.197608958788777,-0.697687097928497,-0.208231653610669,-0.278072888266061,0.319779807246977,-0.0516104814883541,-0.251016379864083,0.180083574998894,0.0189754171416756,0.228256985575309,0.100455692933832,-0.194089781914514,0.698928074445579,-0.0651365567025547,-0.0380667999195875,-0.635955721025796
-0.162061471542899,-0.315461059655622,0.391573443311195,-0.147692160428973,0.00234032371689934,0.256694749563987,-0.103206605560054,-0.357642637791599,-0.0510898297367448,0.109124825411948,-0.205045510591115,-0.322658356958114,0.228392930446885,0.471136139196325,0.110765304770008,-0.378130371497669,-0.479409731569916,-0.272056712559595,-0.118652662151981,-0.40209844868596,0.208027298798127,-0.453371021608887,0.133494229416861,0.456075042097513,-0.194509964500728,0.0450965194793348,0.237218535537794,-0.268996687262689,-0.121170506520524,0.143129306068165,-0.0479860415125229,-0.557667526598477,0.254439023806874,0.172160043812799,-0.242222532590463,0.0137776242412061,-0.0893945015661804,0.335485550595912,0.158858280101345,0.0755450117898681,-0.451537729709467,-0.225939411154147,-0.528102354971729,-0.372229231529022,0.00946670368555106,-0.479126859664664,-0.233782854941434,0.0289138751187505,-0.135347907293297,0.0084490023391704,0.110855527725664,-0.316971524942461,-0.46030359319343,-0.14673242954507,-0.313669324864401,-0.113386373376554,0.307616615241272,0.13834345599555,-0.225864974200677,0.0759671213427966,-0.1040843396982,-0.295139894018372,-0.716736411809936,-0.658420296749146,-0.29804250676595,-0.322264330933226,-0.172683061751362,-0.570674359376714,-0.274496516890011,0.0374303094930291,-0.586909181850254,-0.060384722418809,-0.00472181113955079,0.124029106294531,-0.314832823104468,0.267519323341153,-0.268339698318475,-0.108006733783296,-0.351164874091198,-0.112472654032882,-0.503949637624005,-0.0981332237421875,0.110247337536367,-0.0520614890223217,0.014603140184658,-0.308625461828593,-0.239033923883131,-0.213684820679247,-0.106503446959362,-0.192093469184433,-0.0591822677642634,-0.421081210247269,-0.465623416170465,-0.0566589217085002,-0.00783648770962761,-0.374173847837217,0.0507407295061912,-0.620478784728621,0.176150023258352,0.0234095805400893,0.0620157272042256,-0.163099978937902,-0.325962951300486,0.104983912242964,-0.182643593650393,-0.297236052283933,0.461544697155866,-0.289461335134266,-0.233726279060138,0.412000374678045,-0.379528375390727,0.112108669978537,-0.544909907474042,0.19941911268465,-0.747091378958251,-0.00177495471018261,0.710734817649227,0.466549088521288,-0.324865933012348,-0.0263140533065251,-0.102938337213274,0.366546472190048,-0.122905211900487,-0.0764776996386704,-0.6901745579134,-0.0782714768826358,-0.779118617327661,0.427681602837387,-0.144226415420798,-0.518815848109688,-0.583247618632733,-0.292912379733891,0.500977543103933,-0.72749601780807,0.181740998926387,-0.214144369737492,0.0658167574144387,-0.33523945622867,-0.447186530729946,-0.241971806562167,-0.709178828978697,-0.452721802160303,0.444424041036856,0.416393609427417,0.614046360039495,-0.272180332499828,0.2405215399475,-0.116709297411256,0.395836889608833,0.325640515595486,0.570007760933102,-0.200656797570721,-0.0616124522878911,0.542589118138266,0.440647710485138,-0.210150638075298,0.18411675769051,0.311155302368576,-0.20084399477357,-0.0233917781971703,-0.346222606604921,-0.367928285399963,-0.6073905814756,0.375488382402053,-0.354098316092825,0.0974726229561406,-0.247604435893441,-0.0557286288776435,0.557512291163863,-0.765974815827894,-0.261864642581852,0.646319162204668,-0.0824477716718283,0.0857175263713993,0.707583000928743,0.457817121606612,-0.279577694671809,-0.0394548531394365,0.182660235205854,0.059021141987261,-0.405755250029437,-0.159979418070876,-0.657642595099711,-0.196262208810545,-0.27149271402063,0.33349601215074,-0.0369224748661279,-0.197629376781347,0.179517230983883,0.0638618984921041,0.24131675609082,0.0943240436699165,-0.18441289099003,0.705427456011544,-0.0317787422982399,-0.0402833542041703,-0.57860074688295
-0.148574200195536,-0.272423220291784,0.384985663235769,-0.115974443652825,0.00364469335249947,0.259038776295081,-0.068381725582963,-0.32175392214081,-0.00781234234758115,0.138395199087529,-0.164368120581594,-0.321207610048028,0.223081466514334,0.488747897672337,0.123079001647358,-0.381696920044894,-0.490984551157416,-0.25702693680107,-0.129224339470695,-0.417262999255547,0.196106870785477,-0.438732128657121,0.144009323609886,0.456266327830683,-0.159887525336631,0.0892140566879067,0.255528133093536,-0.240154720305981,-0.0992228057023411,0.129808181990429,-0.0404452948793014,-0.518951593591027,0.269779622256343,0.157206859192372,-0.232060820256061,0.0605449742361198,-0.105778960429162,0.371546306559458,0.163521509116246,0.0874376132080675,-0.357047209073895,-0.207577023182952,-0.513466777244986,-0.327085737968911,0.0204334938725257,-0.460469545754601,-0.21104621359285,0.0423598024216744,-0.100346497345824,0.0216959370597391,0.0942442433205115,-0.277594504322458,-0.418756901912376,-0.129228280705381,-0.295258037044871,-0.0764812749366424,0.278999514335503,0.1492092751097,-0.189644977173793,0.14146922271172,-0.111360580313901,-0.271446613005924,-0.671680834850464,-0.618258127433465,-0.27054758526623,-0.272570818039134,-0.153649383529367,-0.498839186060563,-0.238337431488746,0.0295164324092651,-0.507209071130062,-0.0498794668749893,0.0101986650953082,0.13194943771306,-0.277405384544369,0.292525827827822,-0.246538116003705,-0.132512763740482,-0.320246578035954,-0.101214223355629,-0.461147400698887,-0.0568678072529453,0.118143904027096,0.0139408314122886,0.0411950905116975,-0.285714157733713,-0.216086841097049,-0.196626048462016,-0.048936222192529,-0.188728677580919,-0.0958687645601647,-0.410263384777132,-0.422082870490845,-0.0336562001083554,0.00135691202822288,-0.372356731018007,0.0340608321161611,-0.588549341271693,0.204421308518775,0.00180188714590131,0.0644797970890842,-0.148558883920161,-0.313211156988605,0.0999497090506745,-0.158281544515055,-0.268703675051824,0.47578742596955,-0.242662904761806,-0.204279317855395,0.41782968244832,-0.359287349483931,0.112873122956342,-0.51597354748533,0.210140896662116,-0.673364183714745,0.00307804632487189,0.699455837215586,0.486704039643386,-0.314549872180984,-0.0114190097811555,-0.131224396493455,0.379425427432308,-0.0807760552949036,-0.0312711736107201,-0.658232904593474,-0.0598189826859361,-0.745574159411028,0.411807570164197,-0.134309054876465,-0.521994742117515,-0.534783028557576,-0.289726987636241,0.518886985968142,-0.685657766791853,0.167014370812903,-0.202868700309287,0.0699342670582639,-0.302953800993148,-0.419553834875713,-0.223701614860525,-0.673749653111584,-0.445285765336386,0.365144217004831,0.43160470982268,0.62312314293836,-0.24622415960389,0.278587805784293,-0.0910830961714321,0.406169385547781,0.3281837985363,0.579613792336509,-0.221920163779232,-0.0418314281214025,0.550389197384509,0.392037228529055,-0.193456495733016,0.178900752671492,0.302740884230057,-0.187107732137976,0.0101130309899122,-0.354262053515107,-0.381924641619428,-0.555782836930495,0.360644317492672,-0.350031994732864,0.100985401997939,-0.227613740921196,-0.0384371654139312,0.557292469482916,-0.707090872863589,-0.245329800021067,0.653993885908431,-0.0621795945227747,0.0836775507856221,0.709159090835913,0.463396691409924,-0.249689990155486,-0.0177062755297157,0.189806616350141,0.0745778957637222,-0.365017692908283,-0.124212292023288,-0.617104689649933,-0.182663558535797,-0.263997806120329,0.34333144350304,-0.0200647927586612,-0.142628047862264,0.179274664450046,0.107433294556317,0.25527269054049,0.0872140795987451,-0.174120760862407,0.712303500867464,0.00112956387435769,-0.040760786894184,-0.520042810359588
-0.134024068151488,-0.229250795889034,0.380262408106802,-0.0798350330338618,0.00421327885153893,0.262505744306985,-0.0311534893978022,-0.283514699550307,0.038898771109097,0.167455441196576,-0.123832611084631,-0.316343733677321,0.217501432591532,0.50446369416089,0.137768979844869,-0.385552295984322,-0.501885657389358,-0.237599741737278,-0.139357393247584,-0.433863120448305,0.1830171383442,-0.421333720958002,0.154190366327994,0.45751326321464,-0.121490379452125,0.131111172409361,0.270332570363794,-0.208559825636386,-0.0776644376245752,0.117775682635143,-0.0322104991768333,-0.479925404586993,0.28553623839943,0.146832071952026,-0.219578433337166,0.105104728894895,-0.124270439585972,0.406040434273153,0.169299393526103,0.0970303886993224,-0.26405633100888,-0.190502769740497,-0.498634052480907,-0.277569843967394,0.030253723044971,-0.439226275154294,-0.189970453366205,0.0577213134710523,-0.0626214790826465,0.0350186408317502,0.080385351081813,-0.238516101889747,-0.37645200328587,-0.111523788191263,-0.275516366008562,-0.0390470748579994,0.24619371114231,0.160454395624531,-0.15649073655814,0.203559956247364,-0.118560609025717,-0.245691907728662,-0.625584983301144,-0.580367891849043,-0.239771226700086,-0.219930697096711,-0.13229373942727,-0.428276690166966,-0.200959048145305,0.0211727754417426,-0.427456663954204,-0.0394313452803065,0.0286882857626786,0.139512194416862,-0.241270864808904,0.320237880717388,-0.223485930832574,-0.153834342617839,-0.289547961352444,-0.0883290386408522,-0.416185493838673,-0.0179117630276032,0.122451899787251,0.078013939104203,0.0711012259724192,-0.260122510752257,-0.192481070632282,-0.181190797052273,0.00802492289069638,-0.190782817859812,-0.132904580249917,-0.401040159895933,-0.377598599759283,-0.00989741380326219,0.0103732067358663,-0.369813367560537,0.0170727056371925,-0.555727436031325,0.233268750290386,-0.0193269473965485,0.0628617965106202,-0.133695107764452,-0.301587646757577,0.092824798562181,-0.134300307590785,-0.238737578827781,0.487025848786884,-0.193762476790582,-0.17844003560296,0.426043040550053,-0.34050770335824,0.114643390048926,-0.483582441228373,0.22028619060581,-0.601340213986615,0.00762630098694328,0.68684085864026,0.503932461625329,-0.301276176998333,0.00319281628857535,-0.158924083302691,0.39015821684236,-0.039523249234503,0.015114419009002,-0.624402938772655,-0.0409330403716347,-0.710920813710582,0.397725536602903,-0.124466102909062,-0.52465573928949,-0.485425713719163,-0.28461107263547,0.532693780942651,-0.644231545874656,0.15592673826516,-0.188916139704906,0.0740203557316105,-0.267113436164802,-0.391826438265104,-0.203682436410306,-0.634334474574047,-0.437666525982365,0.281003272022808,0.448274120223226,0.629152798425995,-0.219654676860211,0.316296456928539,-0.0643413484061749,0.417325560092496,0.329776016867889,0.589339519078389,-0.239978184821855,-0.0226845388444527,0.556311732146992,0.339918348398544,-0.176029592191992,0.173156760516789,0.291493866838757,-0.172226025560265,0.0428221717115542,-0.361425369188338,-0.393226472351359,-0.501214259792862,0.347086276882995,-0.344472209694482,0.107076545212796,-0.204861894343456,-0.0222298567892407,0.557078125244597,-0.645822392939707,-0.228055534809191,0.658756619911782,-0.0398744605288112,0.0831215286088514,0.710374599079442,0.467933444156089,-0.219107210385818,0.00533161511269458,0.197271569377863,0.0886410752519479,-0.322391186630068,-0.0898333170461881,-0.576856365371398,-0.166927433999424,-0.255325721563684,0.349852678162545,-0.00119829428881337,-0.0863733358319262,0.180110890698382,0.149408578018055,0.270111998690652,0.0790031187750358,-0.162742393523149,0.718931017604321,0.0341676106388314,-0.0393178939497982,-0.461046221314768
-0.118038391498752,-0.186425095223831,0.377299214221259,-0.0396169421431109,0.0042975225919224,0.267243897188831,0.00829855456612544,-0.243958290891308,0.0887489970859539,0.19728204704008,-0.0841741029129077,-0.308253672085217,0.21122323814351,0.516436296766833,0.154790594526158,-0.389589513361751,-0.512108343666282,-0.214655564858779,-0.149777416910769,-0.450820272099785,0.16957647937726,-0.400975148610091,0.165029629009681,0.459492788825722,-0.0800480042503384,0.169906939071952,0.280981462786362,-0.174536859758098,-0.0562640838412782,0.106685992388239,-0.0238427457489758,-0.441465573915767,0.30188062119172,0.140854207362681,-0.205045588829065,0.147449711891652,-0.14446578911206,0.438665633693596,0.174203738109697,0.104962095447487,-0.175103792523899,-0.173781187183919,-0.482888189454738,-0.223879228324134,0.0396492203080921,-0.415868102917464,-0.171429416524731,0.0753401732295977,-0.0222393914665917,0.0494615368818497,0.0689888481744034,-0.200111487859411,-0.333923890765975,-0.094228528095273,-0.253912565856267,-0.00200765889752686,0.209842065935425,0.170887351224254,-0.12591454127468,0.26295608663966,-0.124783164682761,-0.217778800839779,-0.578471717181076,-0.544223755638694,-0.206610202370951,-0.164854747458944,-0.108162284251202,-0.359113699192084,-0.162019432733837,0.0127309587118531,-0.348074443731942,-0.0291328325203668,0.0507378502446391,0.146640970992573,-0.206187203836152,0.350221988283526,-0.200249765430206,-0.171785232327665,-0.259363897263683,-0.0727777175307664,-0.369911117378486,0.0179110192941292,0.123780312546364,0.140628729736218,0.104130392729803,-0.232203952602392,-0.168025707650398,-0.167934432031309,0.0639220187485043,-0.197624039043316,-0.17030812721208,-0.392382647920956,-0.332608967718323,0.0152729082378755,0.0191690526810908,-0.366540505253817,-0.000110196845133358,-0.521739674535269,0.260840012012061,-0.03946952781522,0.0580703942783697,-0.118706895158674,-0.289520192421478,0.0837238171990253,-0.110710817069387,-0.206793913046623,0.494241651840488,-0.142807409868434,-0.156470918798707,0.436351126912553,-0.322846306850578,0.116604426100307,-0.448401958899191,0.230359158731034,-0.530914657562168,0.0113775039062317,0.671946198965093,0.518185976471142,-0.285867125868557,0.0164499455419314,-0.185349114038777,0.398895977535089,0.000473371148183941,0.0629619505632054,-0.588804015724935,-0.0221915707574163,-0.675595277284533,0.386226631587698,-0.113887243706251,-0.526616314619513,-0.435290152126906,-0.276834265298425,0.541767107419871,-0.603261686042665,0.148045692698213,-0.172541322561332,0.0774669971311698,-0.229236703331649,-0.363417658081424,-0.181469208401361,-0.593035295759173,-0.429104155154743,0.194979882649938,0.464670395626195,0.633235684017667,-0.191880935403783,0.353038732049532,-0.036656221064231,0.429931602974818,0.330489315417599,0.59734154208606,-0.254930873210321,-0.00382960705261152,0.561111272187164,0.285624128492245,-0.158110689731603,0.167387278169239,0.278074292147668,-0.156074729198381,0.074367707745547,-0.366346802431708,-0.401099792852266,-0.444951552273398,0.333879080626706,-0.337434120391919,0.115147769776013,-0.179217187536004,-0.00706749198303825,0.555478123820663,-0.582565321669165,-0.209722621487114,0.660805435245354,-0.015553219420284,0.0841894999373369,0.709896071193144,0.470399582225333,-0.187308245367724,0.0298998853876185,0.205068468012041,0.102051961874422,-0.278750388592928,-0.0568294682110397,-0.537349515248021,-0.14858238415743,-0.245674752487092,0.353557211758634,0.0189502012233303,-0.0296416653579351,0.183303685806037,0.188877386222859,0.285607419098205,0.0692294932378733,-0.149724176606586,0.724012597561162,0.0679891685709055,-0.0360383791821162,-0.402699577136015
-0.10026017406153,-0.144203884519164,0.375795331506908,0.00369275320225931,0.00386584749793478,0.273159592683708,0.0494122370435988,-0.204200127217769,0.141202979270722,0.22864464385472,-0.0466602743659584,-0.297657361421498,0.204164220198681,0.523493029796037,0.173889258718741,-0.393469028169448,-0.521646018060721,-0.189312431927832,-0.161035063609983,-0.467237667871915,0.156386143961082,-0.377477308585701,0.177639487743224,0.461851783303899,-0.036623307085982,0.205186144338966,0.287258999686726,-0.138336862752482,-0.0345035547539907,0.0958459183579371,-0.0159705569063789,-0.404207341148618,0.318679110566404,0.138462194878996,-0.189084252530037,0.187853989375767,-0.165475310603271,0.468940458165166,0.176068146932561,0.111367453930241,-0.0930850999640318,-0.156415716903468,-0.46529859718569,-0.166875773021706,0.0493613250148121,-0.391285211951118,-0.155975549621247,0.0956132409967905,0.0203999582197804,0.0657305390122566,0.0596030657718044,-0.162796930932386,-0.29199279020404,-0.0776711901511396,-0.230225778002342,0.0338002609200142,0.170482556788622,0.179557220106839,-0.0975037529477777,0.319306739857492,-0.129047174618123,-0.187495123794164,-0.530580551437023,-0.508738648021758,-0.171538839339232,-0.10795782805507,-0.0809604743891576,-0.291198234848587,-0.121430774132681,0.00365285381545776,-0.269466783887113,-0.0195945070087699,0.0754654187532207,0.153590833422852,-0.172648854591458,0.381473101369695,-0.177865300665619,-0.186321174959692,-0.229570643453633,-0.0539685593859975,-0.323071550455227,0.0502188164434393,0.122912456698119,0.201936924007516,0.139856531884607,-0.202699050431117,-0.142194680795674,-0.156933120730626,0.118375729073978,-0.208289406887853,-0.2077730538875,-0.383954333816541,-0.28741996655771,0.04224740611788,0.0274114860488782,-0.362627678908425,-0.0170429001798721,-0.486658107766927,0.28525883560016,-0.0588241771828055,0.0509499295935082,-0.103501076576657,-0.275288696725654,0.0728490889741608,-0.0877409845809964,-0.172426406272035,0.496845093866754,-0.0900888745507716,-0.137972260024919,0.448207689174497,-0.306280046074029,0.117920282219108,-0.411032293285452,0.240181279233831,-0.462032463562276,0.013263879228947,0.65407550878766,0.529816950051597,-0.269711905196089,0.0275553994283155,-0.20963116652013,0.406103927919044,0.0391863922972896,0.112020042728782,-0.551348622908065,-0.00399311088972361,-0.640037917398774,0.377526519192872,-0.101343320562951,-0.527580863946268,-0.384618914675388,-0.266073446965817,0.545807219190559,-0.562825904523301,0.143182873411497,-0.154263482058488,0.0795745567103676,-0.191151413221424,-0.333633492063027,-0.156552178904554,-0.55199611654455,-0.419059048903013,0.110781327453618,0.479182546700671,0.635547922113675,-0.162197197694122,0.387994830051356,-0.00889954520999815,0.443597024561293,0.32990681204593,0.60216228967176,-0.267035657288431,0.0154024386295273,0.565426946264849,0.230746963234416,-0.140213758076057,0.161841582957825,0.263628302076426,-0.138261628815597,0.104785812030494,-0.367699905189279,-0.404979195995947,-0.388712001665264,0.32033444192496,-0.328607317129504,0.124170568943493,-0.151094089309924,0.0072872992569295,0.551441129548695,-0.517861162047742,-0.189733869149284,0.659971159924777,0.0107451166403567,0.0866641211410879,0.706699748851842,0.469810913779564,-0.154134633817727,0.0562415015341182,0.212713220605552,0.115759841997185,-0.235231875648717,-0.0258900609044483,-0.498420210743134,-0.127501366771061,-0.23531540981671,0.354990515436942,0.039362731440854,0.0263830145894372,0.189966562137426,0.224755318893642,0.30127272753696,0.0571426833945258,-0.134269308488199,0.726366705848106,0.102778475776372,-0.0315552860938681,-0.345894399562291
-0.080513032871723,-0.102381873961211,0.375141829126254,0.0486915894733937,0.00280811901663277,0.279800603949459,0.0914137908754132,-0.165049533312832,0.19587216910253,0.26217802988437,-0.0127267559204818,-0.285870895681199,0.19665306569115,0.525543601218801,0.194682554142388,-0.396975826927014,-0.530618215308307,-0.163062138347488,-0.173484835917107,-0.482898899858855,0.143594798589435,-0.350851960507834,0.192675233216664,0.464476553084095,0.007712363476187,0.236636429354943,0.289529274196602,-0.100260975571494,-0.0114359887324014,0.0843449559102733,-0.00939971078352037,-0.368781547554446,0.335465449078168,0.138349437532289,-0.172728261190994,0.226741912629549,-0.185950725904935,0.496499262684446,0.173090886566359,0.115696009910452,-0.0206737592707004,-0.137833445350894,-0.445267944006838,-0.107867018793197,0.060163253973898,-0.366630530828222,-0.143346255737087,0.118874378571458,0.0648067616000919,0.0839895271318569,0.0513639315652533,-0.126933597137169,-0.251509503316897,-0.0618748205192947,-0.204699582586584,0.0679071165884238,0.128844948146851,0.185943883170814,-0.0708395716182242,0.370965986550247,-0.130868030024244,-0.154830219125812,-0.482284431265637,-0.472914247311123,-0.134788630434462,-0.0500027117933716,-0.0508212559630045,-0.224099936832224,-0.079376176326976,-0.0071789699757085,-0.191999329673256,-0.0119694215104806,0.101320402213464,0.160912186141755,-0.141883116610266,0.4128793775913,-0.157051675389047,-0.197781280253315,-0.199846921161943,-0.0318485898863167,-0.276236838187174,0.079007682921271,0.120529931916144,0.261886344285393,0.1774321675685,-0.172712468492929,-0.114255860585649,-0.147805405777474,0.171068744397641,-0.221702244106317,-0.244937189207944,-0.376066582467399,-0.242299721222302,0.0709052693334443,0.0348916481609843,-0.35829086709605,-0.0331952271464604,-0.45107326473259,0.305503577802261,-0.078264999840695,0.0418466596023565,-0.0877902899229886,-0.257259338504926,0.0602837820879011,-0.0658876348860388,-0.135585276293341,0.494932432867372,-0.0359727240376763,-0.121981742907358,0.461210145246455,-0.290783687320413,0.117885745843678,-0.371667305762202,0.248884025099001,-0.394790349063061,0.0121478880841911,0.633388234143541,0.539522218420772,-0.254425774160415,0.0361946384216349,-0.23089900266161,0.412365365329854,0.0768117702255293,0.16149845788016,-0.512037642190927,0.0135609206261953,-0.604721480343559,0.371438318692491,-0.0854721339011424,-0.527310691541829,-0.333425969111602,-0.252523303755262,0.545162583780142,-0.523133593241899,0.141383606480357,-0.134803964815392,0.079655899004261,-0.154610637942304,-0.301844045447914,-0.128300539236334,-0.51316473769455,-0.407379297215077,0.0323906193659217,0.491104412199883,0.635046216079195,-0.130147378297981,0.420478266807692,0.0176072193830968,0.457381981228476,0.327129675918316,0.603364114121556,-0.276769994029571,0.0359479073157058,0.569873834920768,0.177234671769429,-0.123148669225371,0.156694824435379,0.249507011156897,-0.118265611375353,0.134655985144238,-0.364743370393011,-0.40499564575923,-0.334638293920196,0.306170797231205,-0.317651790358341,0.133138849813392,-0.121603119285433,0.0209622515673892,0.544719713793242,-0.452318542038272,-0.167728173937399,0.656017261121222,0.0388361087034806,0.0902060521896876,0.700593915502076,0.465979613453703,-0.119707090386753,0.0842767338940097,0.219108483355333,0.130605999535257,-0.193497536228998,0.00166936171168171,-0.459700275881644,-0.104121151314324,-0.224619085667383,0.354819548360233,0.0593689096118054,0.0804669156774801,0.200518254896705,0.256548227068478,0.31660866849849,0.0417635258063838,-0.115386790198851,0.725640571999639,0.138059639544352,-0.0271099696885581,-0.291048149495866
-0.0590103565100053,-0.0604058746683918,0.374225119167681,0.0938865580998777,0.000841540900213073,0.286471833085425,0.133367311144502,-0.126989709544481,0.252424338185902,0.298274713172357,0.0165435851774282,-0.274395831235048,0.189030224926297,0.523320997691183,0.216692569447004,-0.400219375672684,-0.539344006389932,-0.137525683746882,-0.187348651470431,-0.498237562585342,0.13099703908782,-0.321490777782992,0.210171207077638,0.467035300265436,0.0520731065796901,0.26403404946544,0.288523628619284,-0.0606206331369835,0.0140836151434322,0.0714024962436772,-0.00500855925456111,-0.335901908542212,0.351603775503659,0.139056677597101,-0.156979684152902,0.264621014282105,-0.204349352360543,0.521241582945443,0.164356765576696,0.117066975868379,0.0404146569915501,-0.117852508737534,-0.4226502830594,-0.0482602016371673,0.0727793685662206,-0.343017430985003,-0.132758390181531,0.145285416948861,0.110672187596636,0.103780078369176,0.0432138105584843,-0.0928680702764149,-0.213156450769943,-0.0464838025645032,-0.177946897047494,0.100185742787877,0.085916724818366,0.189769158830579,-0.0453370448736526,0.416209023363822,-0.130303961642464,-0.120074592968474,-0.434001151867841,-0.43624061150457,-0.0968030039658422,0.00810273463867195,-0.018325643633312,-0.157136335416477,-0.0362013958712827,-0.0210332921713608,-0.11596564827315,-0.00762606002890849,0.126447979070129,0.169071145193392,-0.11527408681559,0.443461354958776,-0.138238784239561,-0.206839576674673,-0.169999700833066,-0.00695884772502591,-0.229957668627656,0.104544148547105,0.116889901701536,0.320473609597377,0.21557738733732,-0.143356273637071,-0.0835982583109638,-0.140220276910262,0.221822797859063,-0.236910403918709,-0.281483575288255,-0.369274564893345,-0.197504042939687,0.1007576978337,0.0418313380227728,-0.353850861623054,-0.0482689664814999,-0.41599717042638,0.321265493864432,-0.0990117457230479,0.0308440040744304,-0.0713684766343977,-0.234177798194972,0.0462721632793264,-0.0457074985791806,-0.0966322752591485,0.489183910402043,0.0191200800204293,-0.107234011392926,0.475218622729165,-0.276147092216395,0.115984131761808,-0.330412201443068,0.25554846329324,-0.329467776468404,0.00745593939293611,0.610342946937057,0.548047029537611,-0.241425534279384,0.0425400687075327,-0.248228806699014,0.417994160369183,0.113619440381404,0.210649718501647,-0.471180732538734,0.0301026472535795,-0.570214349864018,0.367949384092427,-0.0652451942291405,-0.525949297048651,-0.281307914722199,-0.236973069714257,0.540627940269567,-0.484584212796952,0.142594297756175,-0.115130818630885,0.0771030146509966,-0.120972968840398,-0.267518764838833,-0.0960031536522477,-0.478040583126279,-0.39456245080772,-0.0367565039427857,0.500130634214427,0.630336813172332,-0.0955773877398647,0.449908529067698,0.0414661978517369,0.47067584258123,0.321423048132078,0.60094566999097,-0.284976620507382,0.0586411082379723,0.575027093307681,0.126905739411616,-0.107920473830995,0.152127312859758,0.236915150318898,-0.095634602080357,0.164590702561343,-0.35748091042734,-0.401950749449705,-0.284678678428437,0.291312225246632,-0.304576107135766,0.141283207951398,-0.0923150950320147,0.0339261709305327,0.535318734718167,-0.386640104518698,-0.14398031737015,0.648817572251855,0.0680796925474808,0.0943884693746749,0.69166955190322,0.459219561705173,-0.0842488604092515,0.1133990556904,0.222961295254452,0.147071655591771,-0.155307467561397,0.0246459047226596,-0.421089866281696,-0.0792844105465691,-0.214215491265446,0.353518972180441,0.078853286291039,0.131494612603079,0.21482046401093,0.284480847011111,0.331425637651374,0.0222364201808316,-0.0923763668348296,0.721788170726529,0.173394288745027,-0.0240169285398261,-0.23824750412061
-0.0361247048370364,-0.0178984766399283,0.371555409949928,0.137925820840404,-0.0024598634564511,0.292308679987597,0.173883715568136,-0.0902571871634617,0.310341690509849,0.336933143196458,0.0407268308897529,-0.264570038621902,0.181338759874718,0.517844704707924,0.239368515774762,-0.403489743968261,-0.548239627046356,-0.114118331920662,-0.202753469918288,-0.513925320843484,0.118268972774001,-0.290203923643437,0.229812203444772,0.468617869708711,0.0958440077275449,0.287434327700224,0.285057221164345,-0.019815592181638,0.0429732701796307,0.0564258781625408,-0.0035158019396344,-0.306241979369679,0.366381925404097,0.1393984001316,-0.14264828804262,0.301916647903679,-0.21920396781374,0.543031725449707,0.149843958649967,0.114885823806194,0.0897112818235421,-0.0963445024206779,-0.397301482048431,0.010644101970437,0.0874322021303286,-0.321209389740229,-0.123322473767262,0.174481388469134,0.157676457743824,0.124025732403837,0.0344981515997887,-0.0610703285528105,-0.177382187088014,-0.030712929372671,-0.150660208170296,0.130559016352191,0.0427194818433421,0.190728381639476,-0.02040499497226,0.454248904396958,-0.127799390035581,-0.0838077453379437,-0.386193462954061,-0.398722966955052,-0.0586188588061503,0.0652862175916168,0.0155365558526845,-0.0895571299999173,0.00777338911034421,-0.038999925980156,-0.0416261196661574,-0.00780369047101689,0.14905077516042,0.178245157031835,-0.0936946534751185,0.472317424293115,-0.121787237410821,-0.214416186261135,-0.140292812202173,0.0195907610543117,-0.184743437423443,0.127308956289667,0.111891020109272,0.377760083139635,0.252688554490008,-0.115566044104253,-0.04983840423716,-0.133832843586171,0.270650116752921,-0.253138960714985,-0.317256522457131,-0.363986700689926,-0.153209011642033,0.131171173598406,0.0486857322563755,-0.349896984554067,-0.0620482632396947,-0.382382977848269,0.332742725825053,-0.12200338670089,0.0181069214700597,-0.0540971665032071,-0.205165169609544,0.031369198826776,-0.0276000502560771,-0.0561735370204694,0.480546513867958,0.0746900892114732,-0.0924411080106826,0.490080437732545,-0.262183640626702,0.111869731312577,-0.287557889085161,0.259669709122671,-0.266484806301491,-0.000751265372585599,0.585346544056217,0.555869406116961,-0.231564070003047,0.0471538567994067,-0.260830944841846,0.422860976476134,0.149867974019662,0.259023309633752,-0.429322540949864,0.0446457874910592,-0.537078718871133,0.367032525449314,-0.0405650060418612,-0.523941279522493,-0.227785145079696,-0.220598875180186,0.533225715973477,-0.447526182411705,0.146437321619808,-0.0963877164575965,0.0715191686656071,-0.0911764742092463,-0.230177458796268,-0.0592374232768295,-0.447319209240764,-0.381636595797546,-0.0943880182236031,0.505814327991591,0.620666140966993,-0.0587227091065253,0.475841911435486,0.0616037541721327,0.483501278920928,0.3124496549961,0.594741925292962,-0.292787212927726,0.0838682785813776,0.581151266130493,0.0811484292106658,-0.0954220311222935,0.148166072724124,0.226685544319336,-0.0702618820446167,0.19475207069718,-0.346377517452276,-0.396918327563291,-0.240122523700216,0.275422957887584,-0.289869475169938,0.147879344958914,-0.0646992787896593,0.0462029374290025,0.523198897682029,-0.321624308093058,-0.119177981817077,0.638409872796175,0.0972512197433894,0.098531383113234,0.679933289065837,0.449886294873559,-0.0480449957619109,0.142629424679902,0.223375252536225,0.165072528475137,-0.121912473055547,0.0425851851165061,-0.382719432637818,-0.0540097362410563,-0.204883875353458,0.351234833272663,0.0977439001294883,0.1787124824226,0.232257825571112,0.309329999842321,0.34584680689269,-0.00167555163023366,-0.0649865600911972,0.714533128551479,0.208865445363689,-0.0231996778919009,-0.187323197497782
-0.0122322211648445,0.0250879690070745,0.365941043360879,0.17977938451186,-0.00733369425530609,0.296395400909673,0.210985472242641,-0.0546591465906602,0.369294878143136,0.377792528615867,0.0602155272906247,-0.257343233815949,0.173365732886448,0.510264869919295,0.262151621743339,-0.407002239121239,-0.557613871707852,-0.0938156035737901,-0.219772082144373,-0.530633870766329,0.105091021955337,-0.257917909913591,0.251111922744305,0.468255437860127,0.138700524960821,0.307350000889813,0.280231362932541,0.0215370417977139,0.0756838417498735,0.0387175768932874,-0.00518865992524943,-0.280077623624919,0.379158105642358,0.138880296584197,-0.130572428137759,0.339082818663248,-0.229428017924889,0.561509721574403,0.130068993601206,0.108958511791362,0.127828592088999,-0.0730829160598058,-0.368742431518097,0.0678671752407248,0.103775261719881,-0.301437110377519,-0.114291458760597,0.20547496008987,0.205320689887634,0.142967566370183,0.0252309308057675,-0.0318149541476882,-0.144360435409773,-0.0135660177911918,-0.123517678003694,0.158846739973329,0.000151813551842364,0.188575915577483,0.0043883488227959,0.48515320056946,-0.1240812126619,-0.0467884719197803,-0.339419408560661,-0.360783170911131,-0.0217944587415658,0.120381495460273,0.0497651141668606,-0.020726561599702,0.0522914768386556,-0.0617679463034513,0.0306791802788564,-0.0131870431922979,0.167797204929472,0.188478344230859,-0.0771702873367643,0.498792812845323,-0.108172887879348,-0.221688875029261,-0.111305691904053,0.0463912311171346,-0.141049372160085,0.147870495231424,0.105298764947808,0.433700797194937,0.287124666218281,-0.0899107880987352,-0.012800004287486,-0.127881368056471,0.317492358784343,-0.269650522457181,-0.352393249988754,-0.36019092106336,-0.109423385642349,0.161540259519939,0.0559701851259732,-0.347095373730573,-0.0743490420746903,-0.350791380119371,0.340723245988749,-0.147702895801242,0.00396785770771203,-0.0358998148282777,-0.169627272101434,0.016097284762854,-0.011793443873768,-0.0148443615445072,0.469992877700911,0.130294688559012,-0.0765675919610288,0.50549995991397,-0.248756155790329,0.105482828290983,-0.243358377504163,0.26126887984562,-0.206171317019278,-0.012005685228202,0.559068527418071,0.563321191078809,-0.225063066279396,0.050688746181155,-0.268590774676681,0.426550289190747,0.185723520745582,0.306195574111507,-0.387102104737509,0.0561729197527204,-0.505729860334542,0.368351116884177,-0.0122684700674385,-0.52146639628002,-0.172625075444788,-0.204442062636457,0.52427868716461,-0.411951357617176,0.152252193626836,-0.0794362744328422,0.0628408466082546,-0.0658340812500994,-0.189374709855526,-0.0182350654395195,-0.420828960457022,-0.369563013115306,-0.139491341938409,0.507793350857383,0.606177840180845,-0.0201172572764562,0.498326630879138,0.0776498196405572,0.496231778541423,0.300126729531114,0.584720468347868,-0.301093834528356,0.11149269648404,0.588142278093051,0.0409356617410515,-0.0861185114713746,0.144736360458434,0.218957628911414,-0.0425510590792524,0.224929546245959,-0.332076244025547,-0.39076465512656,-0.201686813963018,0.25796638018035,-0.274332467156734,0.152204880973793,-0.0397755435518857,0.0577112543256718,0.508664435364485,-0.258038941392185,-0.0940981297851729,0.624887085296473,0.124952081477013,0.102028783945363,0.66553136110035,0.438149232934792,-0.0114299182168715,0.171040984452147,0.220099277900112,0.183971806442594,-0.0937784850262401,0.0557577962630873,-0.344678472302953,-0.0291400660928631,-0.197270036796113,0.348032615098618,0.115560104906785,0.221951232706081,0.25183392169255,0.332203579055284,0.359772346625997,-0.0294512908305744,-0.033012397149053,0.703662948608414,0.244726191793575,-0.0251778811754676,-0.137968058715489
0.0120789243265974,0.0682717987227224,0.356860298609285,0.21898707469616,-0.0136075532119183,0.29800394710493,0.242824875067374,-0.0196803280157919,0.429537574943709,0.420126132266708,0.0762285701481272,-0.253017859428411,0.164897268460734,0.501639151622629,0.28453443578628,-0.410746992741948,-0.567531438010524,-0.0770697617748985,-0.238220326314421,-0.548792497296543,0.0913097975726488,-0.225355976404551,0.273408552069255,0.465544568952663,0.180576480301332,0.324692157235937,0.275469095393783,0.0627574692578644,0.112201217279838,0.0175620574835383,-0.00966747767987646,-0.257071986104052,0.389479950905896,0.137656023128059,-0.121452375549529,0.376773798016628,-0.234612579286297,0.576435758681019,0.105638419749942,0.0993486727630704,0.156182220087096,-0.0479380328024598,-0.336569878479557,0.12294834475988,0.121413935094561,-0.283553540051129,-0.10526466850268,0.237129496860901,0.253019855171964,0.15863291944606,0.0156848558232741,-0.00487551043529456,-0.114020295804288,0.00609571987990347,-0.0968640571518075,0.184973561567896,-0.0410817972732116,0.183434295528815,0.0293345157212193,0.509518484604492,-0.119842789507328,-0.00972592803998425,-0.293989263130002,-0.322843499452065,0.0122461660176508,0.17233200315785,0.0839145199949792,0.0498171668112165,0.0971388356438913,-0.0896867207004576,0.100514446630328,-0.0236672081414693,0.18212007471773,0.199856161401837,-0.0652204589590295,0.522625679650988,-0.0978863706132082,-0.229910965487842,-0.0835851365819899,0.0721828128126761,-0.09938173681378,0.166820121564182,0.096888109707792,0.488156196722288,0.317818958672632,-0.0663577558178447,0.0273989896338551,-0.121112902187802,0.36188485449928,-0.285575656438476,-0.387127444449324,-0.357337650734075,-0.0661305814716963,0.191431252702733,0.0644411695723914,-0.345772885746903,-0.0852586400956101,-0.321460899343738,0.346206924388776,-0.176248941899324,-0.0111570083789603,-0.0169224404291237,-0.127487494624293,0.000802259937130887,0.00151441745032268,0.0266549374871633,0.458360532647954,0.18567246773225,-0.0590589983323263,0.52113845427926,-0.235815700837348,0.0971497589225322,-0.197712223766281,0.26081343321583,-0.14852151225539,-0.0257052342033266,0.532306017616751,0.570671952597973,-0.22172802708814,0.0536839996970438,-0.272187798930038,0.428594750211143,0.221229668508051,0.351642361241244,-0.345277999526489,0.0644608834705987,-0.476401212669697,0.371251012092123,0.0185375959109196,-0.51827581772926,-0.11590704076784,-0.189076925783574,0.515070427155482,-0.377436455794852,0.159097458598805,-0.0644596141301364,0.0513163974598552,-0.0451909926929778,-0.144954733597616,0.0261549002522754,-0.397848199648426,-0.359096180158354,-0.172207426340322,0.505973477943692,0.587763201168758,0.0198262772582843,0.518057802130281,0.090096507636076,0.509232614745461,0.284662485853559,0.571133614891998,-0.310113004417545,0.140927595399017,0.595626980676889,0.00676406869529706,-0.0800198982650027,0.141993446706058,0.213213645812161,-0.0132033517572781,0.254817484137618,-0.315291668481653,-0.383990154361542,-0.169400542198796,0.238455744230223,-0.258561437547691,0.153720106182726,-0.0180914860122024,0.0681216922247318,0.49223289746005,-0.196413205410683,-0.0695514076843105,0.608098597869506,0.150205803001475,0.104689185712565,0.648694063052532,0.423716895394241,0.0252633186094819,0.198054321017057,0.213594134444663,0.203000655233464,-0.0704989975358245,0.0648282178115324,-0.307021280222111,-0.00497246585058485,-0.191437411367214,0.344141643333741,0.131639213065532,0.261450677398819,0.272441527838654,0.354032363376641,0.372567073596444,-0.0600630178363063,0.00393329172273357,0.689357352399705,0.281177456139623,-0.0300879970797521,-0.089724281085397
0.0361476233238789,0.111369616546779,0.344368533427297,0.255924823593656,-0.0211357593357356,0.296754461803146,0.268814689580938,0.0152213377892382,0.491702987671864,0.462651265454308,0.090262831728264,-0.251253046261547,0.155800776214189,0.492553224156214,0.306117251450945,-0.414420198942964,-0.577716363575711,-0.064090408446,-0.257459789360059,-0.568269317203971,0.0770436393002232,-0.193113027476161,0.295798782293033,0.460488837875845,0.221641008652185,0.340344729602943,0.272185857511983,0.103245721692165,0.15211987873348,-0.00736879781863446,-0.0161427723927841,-0.236264365093237,0.396990658454911,0.135969242752974,-0.115437543230482,0.415688883545267,-0.235187541925476,0.588000918791689,0.0769922118889128,0.0863578321995634,0.176575044101994,-0.0209692793687749,-0.301124100326666,0.175853837802535,0.140208899929787,-0.267374904525522,-0.0959582996804803,0.268509878264513,0.300048669211843,0.169560569037425,0.00593541215945876,0.020499622897587,-0.0861666649106285,0.0295511203781555,-0.0705136872446689,0.209342881070862,-0.080558281248875,0.175923192985497,0.0545703558691577,0.528744947293741,-0.115445636765905,0.0268540501069152,-0.249391969781533,-0.284932515770249,0.0426393325944459,0.220240340570749,0.117881809891324,0.12235025096639,0.142098493966258,-0.122948353560892,0.16742448526967,-0.0385155595869595,0.192218860990386,0.212338186446844,-0.0571684624128565,0.54364328477672,-0.091061121207254,-0.24011277638599,-0.057293157524198,0.0961056427657176,-0.0602178351685158,0.184869119723992,0.0868183341679098,0.541249473951719,0.344439828006821,-0.0444697918676232,0.0703120507567894,-0.112185010931214,0.403132055923218,-0.299884876947747,-0.421225816681827,-0.354452631528536,-0.0235586303758611,0.220534845957915,0.0750441382532409,-0.3458122712993,-0.0953077657096327,-0.29428179957901,0.349798789660939,-0.207331786486858,-0.0267672604802547,0.00245974660147351,-0.0792593190506664,-0.0142043197980975,0.0123050977832038,0.0675584220438282,0.44617468009273,0.240574007888449,-0.0397019562718037,0.53645568070199,-0.223575904418241,0.0872734815941287,-0.150192911736779,0.259148645028464,-0.0929703108449813,-0.0413697536490014,0.505455661791064,0.577838671263628,-0.220890727571456,0.0566631960439864,-0.272643413078194,0.428614389558727,0.256202671419101,0.39494768179597,-0.304959039977681,0.0700688782959049,-0.448973446127575,0.375012988944685,0.050907805262546,-0.513926325026069,-0.057933219772363,-0.174380455495332,0.506387490179181,-0.343142932774188,0.165740326019589,-0.0511742840300223,0.0374288746532598,-0.0290928502253022,-0.0972962418007997,0.0727016732677458,-0.377243011183217,-0.350890072208035,-0.193750363322016,0.500504313060334,0.567138792488792,0.0608364631567532,0.535916158491124,0.100140981955588,0.522890158416386,0.266658437344637,0.554181476280518,-0.319608437153532,0.171172468935119,0.60287718951882,-0.0212703797455424,-0.0768190283195673,0.140340257155367,0.208798927962624,0.0169191038809874,0.284183522357476,-0.296862278625017,-0.377026690228018,-0.142251725532402,0.216430675042955,-0.242700009289344,0.152239954117502,0.000360829138402504,0.0769787627548239,0.474245495155764,-0.137072577772078,-0.0462265801297044,0.587654827250675,0.172855669085881,0.106787263653223,0.629471794517517,0.40606675934588,0.0616677281225189,0.223196937313713,0.205267163334109,0.221781773292675,-0.0510333723527452,0.0710208752799379,-0.269778796979962,0.0186188857079361,-0.186710843168139,0.33996754838333,0.145660544013568,0.297866022781728,0.293014240187425,0.375300040676743,0.383389859266168,-0.0920533078342238,0.0462008024292037,0.672094236268384,0.318670688894345,-0.0373678124590936,-0.0420586599308674
0.0595315510647196,0.154225439835745,0.328931819178512,0.291705529638761,-0.0301600679485335,0.292535539300687,0.29039948150691,0.0504481845956609,0.556330586622802,0.503622401793476,0.103371211930887,-0.251162926275312,0.146021227523928,0.483261876479915,0.326498896429214,-0.417242232447923,-0.587659430053627,-0.0550525558774882,-0.276595463886161,-0.588167071025368,0.0626483177185527,-0.16161200654789,0.317116048639181,0.453202449323232,0.262290293030114,0.354932014048994,0.271413961517242,0.142644108973651,0.194876437137644,-0.0358194640795797,-0.0238100145259176,-0.216284595455795,0.401683762158915,0.133832340166051,-0.111952049074908,0.456246467943953,-0.232041857393734,0.596649698644964,0.0445158423734257,0.070530856629375,0.190785630374073,0.00787217326606481,-0.263460353559611,0.22684621682541,0.160269080829358,-0.25270203702493,-0.0860296114120093,0.299013210492175,0.345682311792565,0.175091958886279,-0.0042895717334005,0.0454634737902881,-0.0603366722354101,0.0576846460103038,-0.0441659405474494,0.232796829944494,-0.118094409908513,0.167112911706132,0.080135802487225,0.545019846024388,-0.110962594150036,0.0628223999575423,-0.204380238022933,-0.246687852254654,0.069161163888227,0.263500858655743,0.151530011626226,0.197125223703155,0.187080224725089,-0.161458667655585,0.231120827787483,-0.0566408333704954,0.198978885225942,0.225657840845611,-0.0520279308632323,0.561401075244065,-0.087354200548153,-0.252886872897714,-0.0320806898971105,0.117886201645318,-0.0236105911501157,0.202946088605054,0.0759795692268379,0.593498913146642,0.367148093445015,-0.0239083116919047,0.115445604538104,-0.100217986137943,0.440692542902305,-0.31174967563814,-0.453695022340255,-0.350501117674661,0.0178275753847373,0.248693345655699,0.0886935279696835,-0.34679041271586,-0.105271172668589,-0.268765389826892,0.351640586441043,-0.240169985806254,-0.042027990892477,0.0219535575366003,-0.0257085969857058,-0.0285086791367799,0.0210772728889277,0.107315020333123,0.433761381329871,0.294693934244161,-0.0182309218835659,0.550502226968285,-0.212576050714073,0.0759169205760413,-0.100238459349059,0.25727309775139,-0.0382823719556115,-0.0583819158683623,0.478530068211724,0.584407733172554,-0.221207668416144,0.0600528854368227,-0.27080640297142,0.426178245318405,0.290179924299544,0.4362293824457,-0.267388813917712,0.0738368378209184,-0.423030794114235,0.379442242478928,0.0843708080126556,-0.507961848003077,0.00110104113931534,-0.159565635747435,0.49865049366797,-0.307975839549629,0.171043711546239,-0.0391164790854421,0.0221288391542307,-0.0170462613004048,-0.0471228283459357,0.120177153293396,-0.357506534226973,-0.345322659048617,-0.206141237363634,0.49170381233054,0.54641967141682,0.102672423644179,0.552489754813961,0.109288939207474,0.537653236270996,0.246790573443078,0.534009570669613,-0.329200263439668,0.201041242829573,0.608885031268072,-0.0433816498990031,-0.0760819841288977,0.140178046598028,0.205107643681429,0.0470745815561379,0.312950095153605,-0.277594847334624,-0.370418478893339,-0.118474814969473,0.191479303870095,-0.226492300965974,0.148059814961053,0.0161866355626691,0.0839379699482898,0.454893865652934,-0.0800804460248811,-0.0244957502137218,0.563120800986368,0.193555124212512,0.109067134493377,0.607875346038692,0.384853328504489,0.0977580110263362,0.246044094082436,0.197095145619417,0.240522837092131,-0.0340281472490714,0.0760461049539883,-0.232840197651033,0.0419738892494624,-0.18189832080871,0.335911836775706,0.157838586962299,0.332362370520789,0.312752986459336,0.396345727684107,0.391652628464122,-0.12381350888521,0.0938505927759051,0.652372338835885,0.358072439324656,-0.0458014541399953,0.00545400138107958
0.0819594372887708,0.19682490425636,0.311061751692655,0.327739494557424,-0.0409018036497759,0.285481962425283,0.310836058253194,0.0860343311070541,0.623650650673524,0.541228944558942,0.115746897801973,-0.251679526767409,0.13560189981304,0.473970995853077,0.345265799035981,-0.418179174124674,-0.596991671776102,-0.0499768040242126,-0.294660228718514,-0.607278152077184,0.0482694607319821,-0.130823082899513,0.336107417598924,0.444050324223028,0.303076252068604,0.368882785351645,0.27361282494102,0.180934867950675,0.239869700831511,-0.0669226961641772,-0.0320485577197671,-0.19577262304563,0.40384736643065,0.131015233727329,-0.110038353109541,0.498409057874747,-0.226067596921547,0.602681653304162,0.00852557907929941,0.0526050199827307,0.200414185755731,0.0388518217915284,-0.22483681264676,0.276394548875434,0.181794196754161,-0.239151465774896,-0.0749600445494517,0.328378154059572,0.389325695921192,0.17524437544981,-0.0154352291400045,0.0712034264153251,-0.0355642125298302,0.0908547277577896,-0.0176025231507876,0.256160946236652,-0.153720211698142,0.158273730153445,0.106117387451977,0.560492018363827,-0.106367251047343,0.0984390507910388,-0.157541916527552,-0.207617264549711,0.0920316015292457,0.302019856084584,0.184657009479505,0.274350260408435,0.232208807160223,-0.204654015795789,0.291694739788167,-0.0769274347372684,0.203625762194727,0.239289099431885,-0.0485861357186915,0.575216232446537,-0.0862739899599515,-0.268238580095709,-0.00735326700941229,0.137739911850937,0.0111638533241374,0.222021944520199,0.0655821570567986,0.645688400740657,0.386515372944689,-0.00473839401818698,0.162394088120943,-0.0850228997921032,0.474358708822401,-0.320869865470008,-0.483170576694622,-0.34471281440234,0.0575228760655686,0.275946344993083,0.106118389564504,-0.34811239844263,-0.115904163291626,-0.244491183934724,0.351789446191329,-0.27372291066093,-0.0557787152814609,0.0416553934740267,0.0324840610616982,-0.0416802326575485,0.0286653594103338,0.14554212282418,0.421550420626561,0.347620843465882,0.00585143160791535,0.562109065418882,-0.203212721487107,0.0628776745396689,-0.0474271801019824,0.255919659594219,0.0172194269017363,-0.0756738537033617,0.451590462925298,0.590187761515563,-0.221168056753771,0.0638035449408649,-0.267190590404216,0.420751976058828,0.322503312408341,0.476440285750613,-0.233398086654551,0.0764962210008024,-0.398162576800921,0.385003321009286,0.118851488899853,-0.500057134765177,0.0612250552782478,-0.143594425217965,0.492203471612287,-0.270789033541323,0.174427443009703,-0.027716137025221,0.00679844942445677,-0.00828958441237049,0.00505902986835887,0.167783046907442,-0.337038973318831,-0.342419107139819,-0.211641019206535,0.479905046302211,0.527153135887969,0.144958561017784,0.567909295976659,0.118664824551177,0.553800583407314,0.225529413845177,0.511043483167042,-0.338509475165717,0.229546228062551,0.612488144016608,-0.0601948459549861,-0.0772928259067436,0.141734618050557,0.201492525622381,0.0770128863705835,0.341427634222139,-0.257962118186506,-0.364740868834129,-0.0963372409768833,0.163204670306124,-0.209659906708136,0.141703594374309,0.0300957679103503,0.0889902531756564,0.434429943544159,-0.0250954877590423,-0.00440610108302089,0.534151500413739,0.213199305288826,0.112543962909986,0.584265673310413,0.359947618245868,0.134078660126164,0.266543420336098,0.190691596677909,0.259660214081331,-0.0178827694427795,0.0813032874625094,-0.196097567351237,0.0654526260890793,-0.175657367843141,0.33236950176328,0.168757893501417,0.366296732729823,0.331230149763442,0.417789993355478,0.397260703516856,-0.154125450255813,0.146783518769338,0.630701370636891,0.400279690667397,-0.0541798082104486,0.0532602601945136
0.103182768309623,0.239233261897665,0.29136514034961,0.365182957166014,-0.0534437052407632,0.27623139275717,0.333608891175668,0.121733737256742,0.693777365590035,0.574527366294748,0.126861887915391,-0.252012667680975,0.124692043143722,0.46478590657068,0.362469788343719,-0.416581953915869,-0.605736158251001,-0.0485849107267739,-0.310709575700476,-0.624873010515902,0.0334193433493501,-0.100358000573374,0.351784389266985,0.433744902145028,0.344536934948609,0.382404734479942,0.278692400050284,0.218248053385729,0.286600545929415,-0.0996756086348314,-0.0400870368573223,-0.173562680483234,0.403618600329849,0.127118656822952,-0.10873431826839,0.541725316117248,-0.218059285838119,0.606134806121863,-0.0306716846827177,0.0332696982709589,0.20676930122702,0.0722051711972437,-0.186242801413969,0.32523888624187,0.204872322009522,-0.226304555558139,-0.0619488486605939,0.356848037341001,0.430692456832636,0.170082196338894,-0.0278378392830017,0.0987761827452168,-0.0105943043929577,0.129276351953505,0.00942074976570896,0.280110698926013,-0.187802921435115,0.150652404001443,0.132816003592232,0.576507264528585,-0.101584902817546,0.134014296706355,-0.107552415846298,-0.167292221109983,0.111617412870301,0.33627467737869,0.216947553801176,0.354066962170815,0.277779511721653,-0.25159649210385,0.349681935340106,-0.0984401476828199,0.207261232924617,0.252341060805431,-0.0456194351849237,0.584679299614199,-0.087414296708632,-0.285593823266717,0.0175929205288327,0.155668400849806,0.0452897630579114,0.242847436839441,0.0563396808877184,0.698636033418047,0.403417716416477,0.0127379577256526,0.210922723074864,-0.0669278653139635,0.504448107639622,-0.327332048015917,-0.508400091842034,-0.336765495887784,0.0952448965776455,0.302318456915081,0.127503121122503,-0.349108117888446,-0.127648392119094,-0.221352854645738,0.350686889529535,-0.306765184068896,-0.0668195511284702,0.0623159864885227,0.0947315089933745,-0.053498259976154,0.0358854801892709,0.181982271734798,0.410117115773637,0.398760662406583,0.033183585541527,0.570367803765374,-0.195383163936084,0.04817242047221,0.00839086043788969,0.255173099446913,0.0751542181966103,-0.0921431262051284,0.424871278540087,0.595706648415376,-0.219763461444586,0.0673996766786428,-0.261954986982177,0.411901218584034,0.352710772637455,0.516909030049629,-0.20312667193801,0.0785399509666663,-0.374039978386676,0.392402873256547,0.154277011643453,-0.490051106529709,0.122561662004579,-0.125591365704459,0.487373061854871,-0.230259315796402,0.176124409716972,-0.0163921596284379,-0.00750778141220128,-0.00187748202274828,0.059330881387043,0.215354143954931,-0.314424379193094,-0.341961732527762,-0.212178359970624,0.465734754361621,0.509774496786377,0.187137753777848,0.581915912892829,0.128680499943908,0.571177414897554,0.203026014637086,0.486152167031598,-0.347341801539675,0.256123564182149,0.612709243125906,-0.0726765041890269,-0.079657891351911,0.144999906046546,0.197493696245309,0.107019346772895,0.370403494609799,-0.238215144196042,-0.360534226394803,-0.0747617058871291,0.131356108025924,-0.192223350379092,0.133749313319702,0.0424155605779277,0.0925708215377775,0.413431579767856,0.028579621508771,0.0143349164213519,0.50074172845557,0.232277337317027,0.118179624450946,0.559536085051294,0.331643176701707,0.171417140988331,0.284974167167436,0.186719438134114,0.279370279670961,-0.00099998059805717,0.0875967893756094,-0.159571550596903,0.0892755801424701,-0.16697447897542,0.329832897577312,0.179284159466242,0.400816460277256,0.348227158935466,0.440658385395643,0.400544323825916,-0.182344490463089,0.205020012306654,0.607766002343382,0.445486438987673,-0.0617826018037548,0.102011096841065
0.122827956365956,0.281833982362837,0.270924486028226,0.404422447245145,-0.0678910715977181,0.265849958237435,0.361226534582013,0.157455704682497,0.766818423933273,0.603959549092934,0.135825062282892,-0.251783660208104,0.113650710538979,0.455549652013758,0.378748800294373,-0.41240228845713,-0.614148649144914,-0.050246542753441,-0.324018362787622,-0.640584913043731,0.0171672811816075,-0.0698861042531847,0.363588236674498,0.422974192455409,0.386999151248729,0.395361701649562,0.286184545087693,0.254916352371385,0.334907232679898,-0.133597905127792,-0.0469261188934298,-0.148679446606197,0.400974593057202,0.121609271784255,-0.106992103299026,0.585472436420777,-0.208737850373208,0.60692219217852,-0.0723365927978749,0.0129018924447288,0.210624407133296,0.107792132496382,-0.14825056817321,0.374420435536197,0.229292500000146,-0.213747192486183,-0.0461378099484211,0.385407414516722,0.47007911834777,0.159465599448897,-0.0416373128142667,0.12881232077286,0.0155601782673723,0.173008971723223,0.0374316790373487,0.305329637803155,-0.22103862835018,0.145368717331315,0.160698664350084,0.59318113770699,-0.0965835084918106,0.169810697706121,-0.0530917485986717,-0.125521516535474,0.128314457909177,0.367240858446516,0.247907380994955,0.436297093065542,0.32435829214803,-0.30112578118879,0.40603716663034,-0.120469205007961,0.210692374686251,0.263866048509776,-0.0418977588780698,0.590071196481848,-0.0899633358135483,-0.304022532538641,0.0434730919373747,0.171183230512227,0.0798153204894658,0.265765724989773,0.0481635289673567,0.752779728206774,0.418754038337345,0.0285046367377814,0.261099748464962,-0.046635520388353,0.531771399697136,-0.331298296429197,-0.528504932753873,-0.326955992591039,0.131100316790141,0.327554601765867,0.152444132384951,-0.348997827310507,-0.140631903195739,-0.199297079863649,0.34883085775485,-0.338136326519752,-0.0744229394166908,0.0852841213580563,0.160351298958121,-0.0638923711661433,0.0433687490922561,0.216695384848359,0.39984609950193,0.447520146791706,0.0644166286500061,0.575108491669477,-0.188981563129414,0.0321460033603105,0.0671307034511031,0.254511641097894,0.136588320792326,-0.107058265779843,0.398442722480005,0.601946503250932,-0.216373171181794,0.0703755759868236,-0.254972793977223,0.399345795691561,0.38078578039596,0.558440854352723,-0.176112187790261,0.0801948350043265,-0.350321449009164,0.402083005365772,0.190724860533332,-0.478069664115711,0.185319210407616,-0.105136568320717,0.484204560400133,-0.184673162742878,0.177056366375699,-0.00451356596737083,-0.0204002183146839,0.00333784998984769,0.116316920942519,0.263471350868349,-0.2884210845958,-0.343434319039388,-0.209202394017223,0.450079428878966,0.493674947369969,0.228855501960672,0.593848848394033,0.139097391458019,0.588969844662651,0.179190880164612,0.460224063697944,-0.356028067339527,0.280713783822732,0.609222448704287,-0.0818736686194743,-0.0821433087766883,0.149941795487383,0.193177563327777,0.137860905024648,0.400782608120529,-0.218536744635305,-0.358158652626551,-0.0534386683233862,0.0962968637310602,-0.174325722980456,0.124920595736645,0.05313411313209,0.0955661017995895,0.392706024318281,0.0816672129749492,0.0325009514370971,0.463184636523422,0.250582352660631,0.126675753807567,0.534580655977223,0.300609281781512,0.210350978904553,0.301788477795691,0.184635940583283,0.299673732002876,0.0178655314694211,0.0952567148357625,-0.123360522742844,0.113596321822218,-0.155394584028882,0.328436235602142,0.190744148454956,0.436471378482861,0.363650506040357,0.465954325493513,0.40193721005493,-0.208057080494132,0.268821754359683,0.584285321733095,0.492765930318409,-0.0683664112575917,0.152507563924056
0.140628839963184,0.325352282623216,0.251049859564025,0.444906302001148,-0.084348819137996,0.255662508468189,0.394813495475765,0.193290495687883,0.842944678136849,0.630789753375132,0.141771395476332,-0.250827009550486,0.102772643305084,0.44567410274095,0.394766073979295,-0.405998305928156,-0.622544800327274,-0.0538697831539596,-0.33416428723664,-0.653870755538718,-0.00136836405316025,-0.0391563359963401,0.37128037537511,0.411777269493128,0.430534618141372,0.407273699662194,0.295469150300743,0.291639173841574,0.385098582488231,-0.168695015625985,-0.0520957783147646,-0.120679552613476,0.395776624833769,0.11400149471652,-0.103908832663897,0.628784876842758,-0.19871125258358,0.605052715118337,-0.115162177878903,-0.00851825842313642,0.212144174033336,0.145188314521157,-0.111116160627444,0.424962424379644,0.254736182632811,-0.200721928272666,-0.0270361634838075,0.415565117539872,0.508326574990306,0.143444494569903,-0.0570346114953528,0.161092763563669,0.0430349572873927,0.221859681844147,0.0672422516920912,0.332509376565001,-0.25394935859504,0.143216013461465,0.190208430807735,0.60985314610141,-0.0914750987180499,0.205934816361988,0.00686344138374353,-0.0823575744050777,0.142531095997209,0.396095360815245,0.276994412154213,0.521212676395045,0.372571575087383,-0.352152312095235,0.46182541389822,-0.14275461510284,0.214387409696026,0.273492363189755,-0.0364650318420548,0.592525836667708,-0.0925643533043591,-0.322770394859864,0.0707219688466852,0.183968614596494,0.115398463573738,0.290568128868351,0.0405190103933121,0.808037530041824,0.433368832081905,0.0429160708386398,0.312857034558901,-0.0251197766624938,0.557181156888156,-0.33294466678039,-0.543133527319593,-0.316057734393214,0.165589233057303,0.351055278120863,0.180624211548085,-0.347024656178425,-0.155268806787023,-0.178360743208101,0.345948839007102,-0.367019602149257,-0.0783157513354161,0.111723207591216,0.228703751218791,-0.0727775581412767,0.0514420758095101,0.249880396442311,0.39053657533434,0.493596291150863,0.0997452544186695,0.576938785186665,-0.184611071649621,0.0154775769076532,0.128410180401038,0.25309634210056,0.201754027961993,-0.119857287708029,0.371825890623376,0.609524904675236,-0.210623464408217,0.0726166693834324,-0.245878219453763,0.382737323607409,0.406812605491482,0.601225426611062,-0.151580775322835,0.0815955658538947,-0.326672481431181,0.413830848027032,0.228661685553346,-0.464600333881728,0.249668593202501,-0.0824170258000366,0.481991992853696,-0.132403990682172,0.178264363260041,0.00833684774731103,-0.0318584190395968,0.00832792121884708,0.176505915914909,0.31342203500012,-0.258106325787955,-0.346061640988183,-0.203603412607846,0.433286874434411,0.477789211152423,0.270163539067356,0.602982506559926,0.149313810131791,0.605992294095885,0.153944736885477,0.433403852668729,-0.365539872292739,0.303435550194966,0.602229290027502,-0.0889172435942927,-0.0839993469160197,0.156685238542674,0.188969925552206,0.170473526532479,0.433161554289562,-0.198813625150317,-0.357415457355146,-0.0324235692646947,0.0588257862530184,-0.156003924554576,0.116022446085735,0.0620189738353555,0.0991784295305696,0.372540572477643,0.134457062705894,0.0510871426966674,0.421995097754144,0.267413030681844,0.138268608501837,0.509405000906946,0.267344709170723,0.251243829591427,0.317619332217883,0.183020919977101,0.320881757592975,0.0395862460008302,0.104200726577801,-0.0874876438589995,0.138646713947856,-0.140853944165852,0.327772121824112,0.204734488311423,0.472992554735128,0.377606617950192,0.493991578389884,0.401701548092012,-0.230908670268215,0.338395359164146,0.560384541758612,0.540554139475226,-0.0739826009306249,0.205280647033728
0.156945475541835,0.370487376388743,0.232631237496807,0.485631365589801,-0.103023913745091,0.246906660939112,0.434210374891075,0.229084212024244,0.922529418224323,0.656375554365044,0.144170382366268,-0.24895660883682,0.0919074229698249,0.434123448563719,0.410796281425861,-0.397704157514562,-0.631141892631629,-0.0581467043154822,-0.34103056842564,-0.664253610325338,-0.0226692381748491,-0.00778286844073028,0.375083899413512,0.399529785659116,0.474892532770833,0.417439912538762,0.305904907925643,0.32902064166219,0.437867443643375,-0.204946206975127,-0.0563157304744739,-0.0898615794513176,0.387909949656945,0.104023168105901,-0.0990189839043615,0.670937446551944,-0.188344081632636,0.600565740436174,-0.157793461204103,-0.0311463108512272,0.211062566608389,0.184064567896852,-0.0748076030679323,0.477391005346245,0.281053604982954,-0.186057153650595,-0.00485962256661196,0.448605688502605,0.546419707192051,0.12255102014662,-0.0742384508023798,0.195004163641969,0.0711298925930411,0.275459342379288,0.0993823377677682,0.361943289193974,-0.2866030428924,0.144256494358707,0.221744283712847,0.626036592319401,-0.0864077536623095,0.242230647478479,0.0724717770676533,-0.0379096970477843,0.154772498204193,0.423844049057661,0.303959114461493,0.608998594884436,0.422769970076855,-0.404163316764412,0.517767540100119,-0.165463432314999,0.218541985391196,0.281572113631786,-0.0291321975584795,0.593622437535015,-0.0942337575679849,-0.341580620647081,0.0993163830888014,0.194384593646826,0.152302307832724,0.316378029689171,0.0328458089840763,0.863971911692886,0.447971079826147,0.0564384090750173,0.365626245407157,-0.0033942538805283,0.581042386615026,-0.33258382176205,-0.552644015214212,-0.304702787706125,0.19958634038724,0.372161609205928,0.21216044310818,-0.342917537394392,-0.172298069342005,-0.158859285565298,0.341078889241237,-0.393065640044932,-0.0784378670967549,0.142104018060886,0.299308668775473,-0.0801303576527625,0.0600019364019176,0.281673749986287,0.381257695931803,0.537075842729842,0.138432442913847,0.576715495042691,-0.183709456928706,-0.000956897558421379,0.191460183673499,0.250170594732787,0.270170462239915,-0.130176055211662,0.344082704181149,0.618118917672293,-0.202797182439135,0.0739417640019821,-0.234231558225072,0.361671902854643,0.430688651048086,0.645179959699843,-0.128732202227777,0.08308090205905,-0.302667084464478,0.426652362701495,0.268523720934634,-0.450345057848185,0.315562013877265,-0.0579259516583589,0.479217525033391,-0.0728392561657707,0.180437927987409,0.0219445690873433,-0.0419300559711998,0.0131670241042318,0.239607201166279,0.36652404329615,-0.223262403759248,-0.349147836227115,-0.195613679187746,0.414937942525001,0.461441977774402,0.311464342541245,0.609213496588711,0.158780870621539,0.621375654196788,0.127349417002241,0.40487191094437,-0.377069400218212,0.324153417453668,0.592019350166413,-0.0949052822215595,-0.085036439952142,0.165496767723471,0.185414091924864,0.205297162475592,0.467446046130495,-0.17863004681728,-0.357618915099227,-0.0116981526434617,0.0195610941262315,-0.137188019624854,0.107718365029974,0.0687375419538966,0.104573206759684,0.352323047944532,0.186988956379672,0.0707724757923591,0.377943797536046,0.282236736851129,0.152574822535366,0.483001775803519,0.231954353938003,0.294313080074483,0.332965569366956,0.180441694579549,0.343523936965163,0.0646340473333779,0.113836848065616,-0.0515613960208266,0.164835065357295,-0.123440533689101,0.327354491907621,0.222253146361324,0.50965968964849,0.390486364440789,0.524258504209762,0.399915808540202,-0.250869204664569,0.413539319425681,0.535345739537574,0.587489209689479,-0.0787083085172562,0.260243674166019
0.172521705926539,0.417879601041783,0.215887452829176,0.525852929949071,-0.124608136013247,0.240401204325748,0.478763407174478,0.26432575265078,1.00570136750905,0.681774613245457,0.142953687139223,-0.246107017590536,0.0808255140820331,0.419913347084498,0.426713317939385,-0.387633830124661,-0.64004136433477,-0.0620362036664192,-0.344959255197597,-0.672030215006589,-0.0469015318761379,0.0247570573021562,0.375768217229779,0.385402178501516,0.519657750191642,0.425248638275224,0.317088898682684,0.367288192255343,0.493870469046369,-0.241890912794013,-0.0610219257046696,-0.0568498242395374,0.377594079132651,0.0918443823555275,-0.0921191405589109,0.711551157518446,-0.177695204522291,0.593445680988358,-0.199530935626697,-0.0549712004353766,0.207055718090816,0.224249707035565,-0.0391365767207603,0.531842517687627,0.308301677021276,-0.168589654658172,0.0195108167622693,0.485088744571533,0.585006206849729,0.0976274309584166,-0.0931557193717688,0.230160658462007,0.0989092014875358,0.333422108241729,0.133932974410842,0.393084323381324,-0.318973217594748,0.147717166152245,0.255691851245236,0.641640854606709,-0.0812803192495389,0.278282652222649,0.142872350842657,0.00746465201291529,0.165685687034708,0.451201666496788,0.329091958203247,0.699581767165024,0.475122926061384,-0.457309308701654,0.574288308784446,-0.188925212167063,0.223247604176041,0.288711559278074,-0.020393225454235,0.594660620567652,-0.0949491482284714,-0.360300114417052,0.128870897186912,0.203180449159647,0.190639598982476,0.341990129424574,0.0246107141671114,0.920014866317147,0.462855156941622,0.0695791646976307,0.418798054618116,0.0178436845263139,0.603360476561632,-0.330731123825383,-0.557923827269941,-0.292915856646716,0.234270777445725,0.390604170208782,0.247183748876971,-0.337173232486252,-0.191929342479177,-0.14128997548311,0.33336856711379,-0.416549796627749,-0.0748995728473472,0.176334166713003,0.371745960320584,-0.086224595890108,0.0684556086134714,0.312135983313744,0.370739452642737,0.578394201843138,0.17916697506986,0.575167243035298,-0.187655909590784,-0.0166084634806034,0.255459804762477,0.245337060288532,0.341029234458305,-0.138303833978163,0.314236626728172,0.626682511444622,-0.19382974040114,0.0738638425019542,-0.22002443905307,0.3362346877034,0.452171684264456,0.690020621635561,-0.106998367724785,0.0850780871372563,-0.277767194020207,0.43914414509908,0.310245815114449,-0.435864071554721,0.382839182800016,-0.0321246065621277,0.474234069983215,-0.00664872039732088,0.183853526824099,0.0356800672836315,-0.0505026252452293,0.0173243437707101,0.304559562529849,0.423401848228563,-0.184284073211976,-0.352402942740503,-0.185245990359684,0.394380201011945,0.444738905275133,0.353344471348626,0.613115595949257,0.166949501599922,0.634958924325019,0.0995412311948729,0.373479301677275,-0.391353539730137,0.342681280983149,0.5789127703778,-0.100591707985416,-0.0854448252164964,0.176551384010605,0.182987777524592,0.242010294651435,0.502959373318201,-0.1576662638686,-0.358213683893716,0.00882904618223153,-0.021233574947757,-0.117757783577645,0.100385901957848,0.0731488712101352,0.112779309970729,0.330932953446084,0.239515431850397,0.0918886275340479,0.331628961240802,0.29511388013621,0.168837302370894,0.454064611536225,0.194366743013407,0.33964182888147,0.347994751699268,0.176185175473045,0.367961790580346,0.0929019674856336,0.12316781903317,-0.0148369515039364,0.192749526416954,-0.103383839066533,0.326745499410292,0.243284772507736,0.545998660954244,0.402853485428114,0.556072765576156,0.396882646580482,-0.268260582630702,0.493556894673723,0.508032931807641,0.632871029538844,-0.0822660566637964,0.316938806554297
