-0.236410446239416,-0.60892636874953,0.109461433428451,0.0257287074586075,0.502897967459154,0.185670917411577,-0.478705249306845,0.0661034275820735,-0.352500501938192,-0.701735089287824,-0.504964834547598,0.302438035674089,0.178967355181888,-0.0848640685110654,0.0137885774470982,0.630399431758358,0.73229259279636,-0.0244364748714846,0.69998325865221,0.698671006661637,0.436784556930609,-0.0354044839707951,-0.0760569512134764,-0.162997427736337,-0.289604959299474,-0.369170686561201,-0.159825104124331,-0.384877412152927,-0.303982434330518,0.602011981013565,-0.0243758635063884,-0.0513279483216491,-0.033743626358179,0.423278599227556,0.353475924509984,-0.828883707659741,0.643978885497505,-0.73539799312857,0.559052602674201,-0.138811242948191,-0.815938124276527,-0.153294462535152,0.0250143062612376,-0.312282801905231,0.00278600964510787,0.089860373442929,0.267015842561039,-0.0530418942151007,-0.371271330253427,-0.19653495829387,0.611293016064271,0.0112725715948796,-0.289416764520074,-0.186848760805614,-0.278816995817869,-0.322987758623151,0.666162110458122,0.169739687545579,-0.537685447257591,-0.869190489136547,0.291567933953616,-0.0787136393804105,-0.227376457445625,-0.0138176693407475,-0.177359639708742,-0.323424034061519,-0.0171698333915617,-0.860103866208795,-0.299402624664157,0.525693639157452,-1.13263093011218,0.606260927552749,0.113251720977172,-0.0342963210106199,0.0383734879457126,-0.463610489534331,0.094815876846387,0.661772681714913,0.0757638161395921,0.0686954399122119,-0.296512456689865,-0.521077379771991,0.389444111147953,-0.96812667715508,-0.195041612577862,-0.262037816879599,-0.444495031874248,-0.041712899172061,-0.899639928300685,0.284099183349638,0.974653322351293,0.158012970060301,-0.436390039187947,-0.0834490360908164,-0.107238979211743,0.460491824047971,0.268682309677996,-0.0785718957207575,-0.126492362091421,0.607825157672944,0.371626618617126,-0.363895101782895,-0.365203141384348,0.378948562852706,0.048550325280138,-0.169979133535073,0.246494834335944,-0.763716358917287,-0.0776270654902976,-0.378780822502112,0.0756908677512661,0.348783900489997,-0.427410205526049,-0.22999458974921,-0.523260765065283,0.610122868435809,0.103645963301227,-0.141560119770915,0.422163617637451,-0.204647263856911,0.631811614396985,-0.090854421823476,-0.62449191690756,-0.598406179313327,-0.156804583957965,-0.0683913403942996,-0.0513482063914755,0.16413084787029,0.183012167836027,0.625496811110958,-0.770383966752654,0.488231589938099,-0.0209508141037475,0.137222044126086,0.328718727346204,0.3424233828001,0.248355659410023,0.0937762651192833,-0.397936894915973,-0.214514670064723,0.238772389412129,0.233609409609034,0.884042231721094,0.118627678561307,-0.128215387916942,-0.0975374024380864,-0.55201937684629,0.133157285023948,-0.189580642147769,-0.17350253370956,0.0575074147205925,0.823574909959546,-0.460134484423957,-0.298548559500265,0.645270660975312,0.270110451955859,-0.0596850566709367,0.100379979792281,0.103506434642137,-0.23985711776296,0.382978976568988,0.50028426771028,-0.134864970555256,0.541101914902476,0.510163312200841,0.478642808254815,0.146027078434024,-0.18075569052524,0.00935054776641286,-0.372491775745911,0.0382400554835548,-0.0578037018196664,0.161001922622414,0.199530635210389,0.00220523125837499,0.340170286737845,-0.257678401137906,-0.242108638011807,0.419877044488751,0.0119081126079535,-0.129368225006084,-0.15018418094381,-0.261050844502108,-0.0491644079823941,0.324561812436033,0.170558499023582,0.118378962495175,-0.534335269507005,-0.00623399330204637,-0.377781191015199,0.00353723704093781,0.806193077409071,-0.407621369696609,-0.044287071574164,-0.416180825711719,0.419255465670355,-0.556420334678096
-0.217868704228783,-0.562119580994521,0.108139888452447,0.0326519225471025,0.482469960571424,0.195543723363002,-0.439727101717503,0.0897012973003983,-0.338813468482344,-0.651501980942544,-0.472431103090297,0.322431728896471,0.176134271925746,-0.0794614742254042,0.0140827057773495,0.630876302664183,0.723399649517488,-0.00376440601723238,0.682556076189947,0.691412524226147,0.432037423739299,-0.016348978147121,-0.0629093831204207,-0.149192226136763,-0.258093027985633,-0.338526308791317,-0.147700269590667,-0.334597263891725,-0.270711759877695,0.591317209241187,-0.00443093800080536,-0.0102307963136587,-0.0160007620654563,0.396478340836281,0.371579454828201,-0.77757010874776,0.636745850620375,-0.701196482747175,0.55723761710982,-0.11856277061136,-0.727151047717631,-0.135959520993239,0.0496761069784803,-0.26914485721794,0.0197638375895149,0.109804613091014,0.261153856306794,-0.0268700771756509,-0.325799219601155,-0.171261218743876,0.585616511780673,0.0385118381872178,-0.260519779715835,-0.180207679812625,-0.247102949073332,-0.284639364100385,0.6327417135121,0.155456660517876,-0.494554097955509,-0.806261076270226,0.290039287336219,-0.0686345995738334,-0.189125574585149,0.0186540799272341,-0.144311789513558,-0.278356265387088,0.00719063819721971,-0.797083583203944,-0.257059747473549,0.52268666378247,-1.04369755268455,0.60014270146899,0.119265838825767,-0.0212570260456377,0.0530842897178839,-0.42593309581895,0.119023060878827,0.634363663124441,0.106527518830356,0.070109361957244,-0.264640312875092,-0.476259551377744,0.394018479002864,-0.907897752395785,-0.161732749118584,-0.234610354757468,-0.423971123093458,-0.0399342814047854,-0.846435666837637,0.281161933988309,0.935676996016781,0.159712327674652,-0.397602799760572,-0.0562208108354586,-0.101926677639857,0.458262116228456,0.259912212949571,-0.044482598709681,-0.102473220555458,0.597249412758217,0.366773843655598,-0.336720394449209,-0.339690708526689,0.388076983423827,0.0728937938669472,-0.154231479511955,0.251199270741439,-0.71604680012916,-0.0555745965798243,-0.354581003622258,0.0893124702942725,0.327056524113275,-0.402962396543299,-0.218527814083044,-0.462591710480059,0.591570452993203,0.0997803842634566,-0.130746854783535,0.415313326343425,-0.188888236094877,0.617401417385844,-0.0769156150095606,-0.58041048530412,-0.560866111285943,-0.114399129785712,-0.0678819370386374,-0.0152940636954908,0.144157517760445,0.201424868504936,0.611837813933259,-0.715073876243835,0.483628958406641,-0.0114813455188894,0.162369366628479,0.333167451222388,0.341849224143695,0.242389796676965,0.11605278150407,-0.376076478023979,-0.182652204226653,0.257257591454473,0.248248422022221,0.812859781661949,0.130230065545975,-0.113851174024068,-0.0671690423047547,-0.519093581826239,0.156614621951459,-0.1722611545381,-0.168744543729933,0.0577573002619841,0.797285385580844,-0.429872849625527,-0.282448789237954,0.594779169270875,0.279696151455955,-0.0611848465184223,0.0954126317388297,0.123797633080748,-0.220327446631202,0.385833928973014,0.493988173317002,-0.106070934912134,0.52024243999798,0.527172520293043,0.471243672453528,0.168794390681039,-0.164374255330313,0.0112380457499208,-0.31177412763528,0.0629612296706503,-0.050639802271109,0.165474621862893,0.187080032007729,0.00198683192254847,0.331560529132409,-0.223756177109358,-0.211588241943662,0.416023006612093,0.0336043284809414,-0.0957408494215637,-0.124404208681502,-0.223382020418446,-0.0161428056243858,0.344061149230653,0.174586107000057,0.135397332722799,-0.493892218164343,0.00242925562225299,-0.344690708937444,0.0151005919547821,0.78334072610645,-0.384007339617745,-0.036667175092722,-0.38507978416258,0.409810332456425,-0.50288630777387
-0.199320378023898,-0.515403863459174,0.106897028682336,0.0396652388286934,0.462091119802042,0.205338023531447,-0.400793734965596,0.113308571174501,-0.325132715225264,-0.601247774687238,-0.439915769724426,0.342416215980927,0.173257012591154,-0.074104286256731,0.0144231974137793,0.631326761532152,0.714529442834202,0.0169287541836666,0.665163738405796,0.684148033342311,0.42722999011413,0.00275131716468707,-0.0498066161070646,-0.135425749045127,-0.226536223053588,-0.307863671033305,-0.135652254263026,-0.284312526141931,-0.237524355084055,0.580650518677162,0.0154639420861803,0.030825710267085,0.00184022484943182,0.369699331658489,0.389721000457962,-0.726212198970435,0.629451506664951,-0.666955691529947,0.555432795984659,-0.0983936439989421,-0.638211453015196,-0.118619621032215,0.0742998673341105,-0.225992257371028,0.0367295203465403,0.129772717901194,0.255277335388604,-0.000733493630857957,-0.280382155811394,-0.146099277493318,0.559900290321797,0.0657194564064621,-0.23155415269017,-0.173567417221417,-0.215384094342009,-0.246326636621401,0.599333597689441,0.141178222378333,-0.451499899789925,-0.743296707131219,0.288532799460551,-0.0585124132284414,-0.150919220287716,0.0510752574589953,-0.111274389715258,-0.233320899136685,0.0315570267281196,-0.734066191720856,-0.214691090133,0.519660023857519,-0.954795401621244,0.594049959240558,0.125286774175286,-0.00817452357728689,0.0678653393158329,-0.388264564792643,0.143183073465867,0.606918013761848,0.137288459986725,0.0716340165526899,-0.23274249533465,-0.43138718784201,0.398562884609844,-0.847694184904863,-0.128431288559082,-0.207121894422946,-0.403431336697577,-0.038153035170706,-0.793242907786917,0.278186972221137,0.896705908167921,0.161396177052273,-0.358737791367207,-0.0289454240804581,-0.0965459510717036,0.456027293625818,0.251024100054524,-0.010372730842867,-0.078459048814188,0.586677948175002,0.361943717809964,-0.309633474264098,-0.314230577749227,0.397160669069376,0.0972298508051176,-0.138340892859659,0.255842688371301,-0.66841972828241,-0.0335797326564438,-0.330375768475179,0.102890421590159,0.30541332703514,-0.37852991693541,-0.207017709768879,-0.401895981104829,0.573012255658745,0.095874282358802,-0.120003260429981,0.408451032885684,-0.173056839169906,0.602908351213133,-0.0630893655973466,-0.536262288894475,-0.523265415391019,-0.0720626785068025,-0.06724534701864,0.0207638027066485,0.124196601675044,0.219809578136612,0.598129008575903,-0.659805036504442,0.478987717590971,-0.00201070339532847,0.187540964774995,0.337456662256773,0.34129645182259,0.236437070868527,0.138323006161277,-0.354169621392018,-0.150840991693849,0.275825777766783,0.26278848541613,0.741604927097074,0.141795038656002,-0.0995086838469543,-0.0367933914802138,-0.486148876092581,0.180031338469412,-0.154958954298248,-0.163969545728998,0.0580504757983166,0.77104375686161,-0.399669779259576,-0.266422095677657,0.544181855009064,0.289299816860717,-0.0626330725257248,0.0903945246797462,0.144112447340699,-0.200813806461406,0.388645547751064,0.487653098711462,-0.0771435627850515,0.499403046772727,0.544149826976053,0.463872477362861,0.191586268647783,-0.14793142628173,0.0131142359078043,-0.251063324017263,0.087579212219454,-0.0434201978331469,0.169947800193258,0.174703729163652,0.00175421071933051,0.32292509925774,-0.189870296159634,-0.181130031730206,0.412160015439258,0.0552730376250741,-0.0620522655956974,-0.0986088419058491,-0.18572309233436,0.0168281114593329,0.363542706629743,0.178570446119469,0.152375218944085,-0.45343035182521,0.0111041296522404,-0.311607937546751,0.0266403177465105,0.760436392874606,-0.360443821646987,-0.0290908513321004,-0.353969225299467,0.400464200445517,-0.449396157327586
-0.180767523712716,-0.46894313726008,0.105940579645172,0.0469360777697515,0.441861017022114,0.214924389085573,-0.361992173518413,0.13694866938988,-0.311471060417402,-0.550920463522916,-0.40741760482443,0.362379068903314,0.170258792083495,-0.0687889267254442,0.0148973211677343,0.631669983859423,0.705688932074345,0.0377451184565782,0.64783717427567,0.676789860227368,0.422219265263013,0.0220146011941416,-0.0368645564740793,-0.121743229208266,-0.194798862085118,-0.277114226377465,-0.123769513593679,-0.233993480646403,-0.204612477171738,0.570006776223589,0.0352203369872234,0.0716923284036854,0.0199297834747649,0.343052799807245,0.407923097430986,-0.674731336256308,0.621978918031682,-0.632553621581623,0.553721744798991,-0.0784729918191583,-0.548824189211671,-0.101314619583915,0.0988293476265295,-0.18276359907574,0.053658326074288,0.149778918298354,0.249335401408744,0.0253244116092251,-0.235078132560676,-0.121220727900182,0.534100169054125,0.0928592632662739,-0.202404339832527,-0.16691602167871,-0.183641942424991,-0.20814710703658,0.565868429832322,0.127013449352009,-0.408650254561779,-0.680306871365845,0.287065051095927,-0.0482699921173009,-0.112950730106236,0.0833238876885257,-0.0782633622555517,-0.188323347732489,0.0559525405125157,-0.671055042193878,-0.172281969671892,0.516599016358076,-0.86601083820291,0.588034357326872,0.131353198816673,0.00508179879448674,0.0828674749470597,-0.350532744834143,0.167271500479378,0.579511429793433,0.167991266549093,0.0734475709251923,-0.200790276734401,-0.386395979339659,0.403009837075311,-0.787587618225927,-0.0951246555728711,-0.179427894905884,-0.382870154882259,-0.0363454725934165,-0.74006633297073,0.275052764873362,0.857713994255609,0.162949074938067,-0.319651687526703,-0.00154366796258304,-0.0909526585706898,0.453794095461397,0.241834307755612,0.0238013925844357,-0.054422907191956,0.576074061009061,0.357155584779909,-0.282811306028859,-0.288924688748381,0.406153917392992,0.121536660876041,-0.122012589437566,0.260374545802015,-0.620878306201796,-0.0117331286933873,-0.306043753248129,0.116326081627302,0.284015024676888,-0.354066723427421,-0.195398746597686,-0.341137086947329,0.554440864829444,0.091866999345509,-0.109362875543616,0.401542853560033,-0.157016450955201,0.588208791262859,-0.0496007616646277,-0.491934738335188,-0.48548956556395,-0.0298936710622109,-0.0662572480131511,0.0567562973474133,0.104284201572421,0.238102854341525,0.584359725720673,-0.604576528514483,0.474267815328851,0.00750442812543852,0.212710770490904,0.341325075141827,0.340853720733589,0.230526334636226,0.160609370934731,-0.332176113837374,-0.119205682790025,0.294616276782407,0.277089727707488,0.670128145503949,0.153290011757168,-0.0852525779783124,-0.00638890697154844,-0.453054805556734,0.203347014887,-0.137672144351178,-0.159086718334533,0.0584866996936901,0.745018978468302,-0.369642802667187,-0.250551081421623,0.493276658674594,0.298930555379555,-0.0638724388739251,0.0852270804136672,0.164469566958044,-0.181323413517844,0.391361358478493,0.481237565425051,-0.0478494959275341,0.478652941801142,0.561024566727468,0.456600963969646,0.214499766413697,-0.13142623939416,0.0149557186182313,-0.190388233160932,0.111886307123334,-0.0360329297156133,0.174447430940507,0.16252711577173,0.00151077024207092,0.314235806020013,-0.156045532029314,-0.150865421417379,0.408267269872609,0.076854157169816,-0.0281904868922055,-0.072788078193406,-0.148133990759478,0.0496551087062901,0.382940747360772,0.182363662799817,0.169262325349702,-0.412907310043656,0.0198291937200432,-0.278541854259505,0.0380953090896324,0.737397810131674,-0.337073013189173,-0.021596787076158,-0.322844407942857,0.391347597946147,-0.396043917423447
-0.162251640831867,-0.422921923170174,0.105630212422418,0.0546542121203109,0.421931697103146,0.224175608827837,-0.323439510739481,0.160643637281098,-0.297857977687902,-0.500426597299944,-0.374938889423197,0.382274501239415,0.167067730629484,-0.0633490299958934,0.0155907046192858,0.631746160562276,0.696871734534489,0.058869746997408,0.63055416745639,0.669188230466587,0.416818162660344,0.04160402643926,-0.0243181206537496,-0.108148538196149,-0.162650142910202,-0.246135979417495,-0.112113032602978,-0.183580495207728,-0.17227327427636,0.559351705120826,0.0546811393069897,0.112129464471559,0.0384558741141252,0.316798475597906,0.426153055682024,-0.623048526088387,0.614151045703699,-0.59777306192522,0.552312373593234,-0.0590289351783299,-0.45862687575373,-0.0841353175028684,0.123230986399013,-0.139318505697488,0.0705334052868281,0.169777602088996,0.243245697674952,0.0512666731769183,-0.189867939660314,-0.0967591048434686,0.50828828026254,0.119906703461216,-0.172929908220546,-0.160242611578072,-0.151835060123836,-0.170254714033182,0.532125688356837,0.113273379743138,-0.366144486615984,-0.617376172188521,0.285659040399795,-0.0378214199989461,-0.0756153248441194,0.115182688450875,-0.0452844999653918,-0.143276981567894,0.0804179827849415,-0.60801733869064,-0.129856923252705,0.513537407641755,-0.777531345551105,0.582128547552143,0.137564630745393,0.0187499517988726,0.0983185044476839,-0.312521244916604,0.191373931180381,0.552422092565025,0.198505325934847,0.0757867574899972,-0.16877673297865,-0.341297094253984,0.407240522719495,-0.727686716113469,-0.0617361435264008,-0.151287506438036,-0.362298177329423,-0.0344677865475809,-0.686866543932364,0.271514026779145,0.818698382961044,0.16418955405359,-0.280135883460151,0.0260690537684267,-0.0849733374012212,0.451516740129196,0.23210901573829,0.0581482751019282,-0.0302570859519696,0.565363262567276,0.352412947461654,-0.256497844271448,-0.263916627233329,0.415047425021918,0.14578897107134,-0.104885546824065,0.26484238530168,-0.57344871217197,0.00985653948054655,-0.281339783108568,0.129473419613169,0.263108604518939,-0.3293361338436,-0.183524870616348,-0.280297232522281,0.535887636229957,0.0877200023928092,-0.0987752694053894,0.394643447156803,-0.140621921159088,0.573211030872191,-0.0367311035691649,-0.447329435272132,-0.447353782102317,0.0120590099971159,-0.0646106940258486,0.0925045604332319,0.0844808771371131,0.256209459158086,0.570588258922347,-0.549332910177436,0.469431037921012,0.0171774837887725,0.237714797419439,0.344515427535442,0.340679036237818,0.224747580228079,0.183013132438232,-0.310099369495736,-0.0879584716065167,0.313817157879818,0.291009575966924,0.598208217503313,0.164703429051684,-0.0712316853636166,0.0240903192283312,-0.419532113393397,0.226502737789966,-0.120298875736076,-0.15386909771922,0.05920427899903,0.719546834802027,-0.339971608799277,-0.234881829533404,0.441813824493371,0.308591595719319,-0.0646157423366632,0.0797779654602732,0.184853283436859,-0.161847458993966,0.39399334753096,0.474792186932453,-0.0178747842253143,0.458144698136971,0.577691519794695,0.449579155536177,0.23773712339857,-0.114975470285199,0.0167213490745634,-0.129821370261644,0.135616705014343,-0.0283376223552756,0.179021442785646,0.150697057779106,0.00131328180583473,0.305452157718168,-0.122276575543678,-0.120990058403758,0.404270088734022,0.0981905854134306,0.00599935274386421,-0.0469716410974107,-0.110730683426124,0.0822190966355917,0.402100168413593,0.185605483085047,0.185990399110453,-0.372250568323332,0.0286668135928089,-0.245460288413264,0.049357686594982,0.714162708788208,-0.314118811119569,-0.0141716400071179,-0.291691410314847,0.382592056390587,-0.34292267226965
-0.143880050556051,-0.377435826854576,0.106373385925626,0.0629661013948169,0.402456100919477,0.233047031096428,-0.285279021809452,0.184406407664766,-0.284323830268406,-0.449671975107589,-0.34251090369822,0.401946816186902,0.163687795077382,-0.0574707281520844,0.0165772205615589,0.631386085248984,0.688057297964106,0.0804781965790863,0.613276646226967,0.661198598334934,0.410893409200957,0.0616209709323868,-0.0124350281709607,-0.0946101758673188,-0.129874690066197,-0.214742454032308,-0.100740595279182,-0.133052830799871,-0.140824682377429,0.548660899429802,0.0736740931772619,0.151952877095342,0.0576329969926064,0.291279476388557,0.444379938865638,-0.571082131902541,0.605766653036473,-0.562409081888463,0.55146661973453,-0.0402016843882425,-0.367428767820375,-0.0671518246442408,0.147518798816701,-0.0954722705765288,0.0873709671073203,0.189695410315039,0.236959013543494,0.077029857818447,-0.144599207195824,-0.0727467988663257,0.482756783304849,0.146845329995407,-0.142951746509913,-0.153552533402337,-0.119915368068462,-0.132789525882513,0.497757647911322,0.100387656772727,-0.324055138379983,-0.554600880778714,0.284327024165032,-0.0270603301306954,-0.0393513955174189,0.146390057915102,-0.0122701606537184,-0.0980228767751167,0.104983504883231,-0.544846304147057,-0.0874427457744176,0.5105304079798,-0.68964255377352,0.576273448710164,0.14404944667457,0.0330390183243153,0.114438118601647,-0.273937979547833,0.215622212377616,0.526044243683639,0.228636565029394,0.0789334800727375,-0.136710134186651,-0.296191441090089,0.411122468296902,-0.668090707846824,-0.0281370168990491,-0.122453386014589,-0.341724853920422,-0.03246605544442,-0.633545904839791,0.267257257682823,0.779758216926081,0.165026642371911,-0.23994563261561,0.0539495348072363,-0.0785254517793373,0.449009457706556,0.221611568109234,0.0928574199717237,-0.00573939565995716,0.554477612400348,0.347649163037215,-0.230917368108309,-0.239338705337867,0.423833648234437,0.169960690385443,-0.0866900004432123,0.269409647452321,-0.526159670155595,0.0310427669100907,-0.256047866635284,0.142210345521104,0.243000824201011,-0.303870182488535,-0.171159529385577,-0.219428076463,0.517454173455725,0.0834287748544259,-0.0881315886474493,0.388035275731575,-0.123813716696002,0.557931812041666,-0.0246450886010823,-0.402422081864029,-0.40864401808057,0.0538103916689912,-0.0619558353854024,0.127818304721518,0.0648537792870268,0.274050054692549,0.556852130238599,-0.49397993104183,0.464401512174166,0.0271429082709119,0.262253610778431,0.346896455003481,0.340896942953309,0.219272523467718,0.205671863165414,-0.287934679400242,-0.0573515094372993,0.33361598064925,0.304405039830913,0.525605924935036,0.176008501415248,-0.057675296995835,0.0547106790581769,-0.385276063833318,0.24946883650862,-0.102620579096598,-0.148006047830277,0.0603257682328387,0.695030455865083,-0.310857377531775,-0.21941619178232,0.389653266193236,0.318292259043134,-0.064584573253599,0.0739356378904635,0.205207816210008,-0.142409924719108,0.396616139213352,0.468484864050982,0.0131392048298509,0.4380653968474,0.594043587174588,0.44307734831873,0.261564608163165,-0.0987266012695618,0.0183401368636293,-0.0694693455327889,0.158536055374834,-0.0202634831005175,0.183718941003199,0.139373120277621,0.00128881785063074,0.296519170087087,-0.0885649103518673,-0.0917156126674267,0.400042889644328,0.118994369347184,0.0406463456153358,-0.0212479101494694,-0.0735812294893787,0.114422551394132,0.420803749974553,0.187751306452316,0.202467411755034,-0.331319980714584,0.0376643242580615,-0.212253105208329,0.0602558458234403,0.69078802001989,-0.291766502086384,-0.00677717546272381,-0.260455933013515,0.374348590291341,-0.29004356999959
-0.125790387963107,-0.33244922940375,0.108494007505931,0.0719914302479696,0.38358367198708,0.241573748585711,-0.247693022721734,0.208247307704582,-0.270874996613768,-0.398636985591074,-0.310111722656754,0.421178778576548,0.16021000121891,-0.0508696558500302,0.0180173246034881,0.630485196267994,0.679194362502838,0.102657242144962,0.596037240621183,0.652707927599713,0.404386374573284,0.0821049005310212,-0.00142615293974917,-0.0811237849230536,-0.096374556197811,-0.182715409942477,-0.0897302792370382,-0.0824837449410511,-0.110550599814803,0.537949282440011,0.092006737199485,0.19106944137738,0.0776528003920138,0.266821225258167,0.462639031985532,-0.518702434072446,0.596615772303062,-0.526331999371524,0.551385663860083,-0.0220440212205026,-0.275390779698657,-0.0503757651701212,0.171697958878964,-0.0510674087659296,0.104179993991498,0.209543564808357,0.230548053480406,0.102485532197891,-0.0990711168461226,-0.0492449904641314,0.457957873139023,0.17366135129929,-0.112234795088518,-0.146814133942827,-0.0878602129506183,-0.0958891470094741,0.462338711146375,0.0887336074835999,-0.2823815365104,-0.492030808534797,0.283032431370726,-0.0158775843650238,-0.00446602387156566,0.176748077761173,0.0209714870272738,-0.0524225626238092,0.129683523690237,-0.48143423804636,-0.045033544054769,0.507600167979546,-0.602648593767968,0.570417761968067,0.150977164396441,0.0479569910159385,0.131449502780576,-0.234614749929083,0.240114342561699,0.500704655068128,0.25817437585822,0.0831974426896002,-0.104580648191379,-0.251193309532136,0.41452890605363,-0.608867844496809,0.00579829544096435,-0.0927598326871043,-0.321129816490114,-0.0302784879866846,-0.579960631962226,0.26201033257685,0.741046521006983,0.165534095927289,-0.198860189437345,0.082154058529801,-0.0716550092400806,0.446071399411473,0.210227594191474,0.128139710018065,0.0194227139929665,0.543392980051036,0.34273294263875,-0.206231167192868,-0.215331538291216,0.432405926819862,0.19402501860815,-0.0672661362147459,0.274230484590141,-0.479053256759416,0.0515984823992471,-0.230187580945311,0.154564423991044,0.22403525239162,-0.277098997278653,-0.158081249588453,-0.158646616855008,0.499318298239274,0.0789946126686514,-0.0773572053304489,0.382178761577735,-0.106616200234708,0.542532549133427,-0.0132754682580256,-0.357291955215498,-0.369187702559228,0.0953970521283473,-0.0579092175075572,0.1625768316898,0.045424973958393,0.291568956053728,0.543197574740295,-0.4383968126731,0.4590976633947,0.0374806430553268,0.286003422559407,0.348451306584519,0.34156841109661,0.214342505160771,0.228720753660015,-0.265589847109805,-0.0275810641178657,0.3541680653785,0.317109062971029,0.452093012968932,0.18716112705322,-0.0447980065485868,0.0855307066356486,-0.350084698092236,0.2722946665149,-0.084374299153703,-0.14124323105006,0.061941753435342,0.671801734318307,-0.28245567018198,-0.204212292707101,0.336857739050512,0.328070704804051,-0.0636240585139557,0.0676595102235528,0.225447803857186,-0.12309074917548,0.399300579727648,0.462514154651567,0.0456946722204533,0.418573488972446,0.609929036763193,0.437495334757524,0.286269740582932,-0.0827010439363135,0.0197315341529214,-0.00938859982581448,0.180502381487597,-0.0118851884604732,0.188603733338646,0.128730218505024,0.00159863741208997,0.287475093903295,-0.054919174186691,-0.0631702911220865,0.395520139093526,0.138896276188514,0.0758407864040797,0.00432059509307652,-0.0366353824126552,0.146211279573162,0.43883327869103,0.188284593923626,0.21858253145311,-0.289897275906754,0.0468153326911268,-0.178752797978567,0.0706155062974732,0.667500149739187,-0.270103758264648,0.000611310559480407,-0.229011388867897,0.366827555097373,-0.237332459206839
-0.108031968467312,-0.287853914466422,0.112103309043647,0.0818439770466556,0.365488234560695,0.24979118033464,-0.210853260570461,0.232178000085286,-0.257476347517718,-0.347444889942134,-0.277641091557042,0.439814754959059,0.156785705023757,-0.0434480848563877,0.0201423117626648,0.629005534417298,0.670219673597224,0.125399637217125,0.578966279358038,0.643591940144274,0.397276633862828,0.103077418944904,0.00855583412517581,-0.06772396263054,-0.0621099693742574,-0.14984044629586,-0.0791181514612388,-0.0320056638503587,-0.0816794977382446,0.527219656310555,0.109439067995397,0.229424942409826,0.0985994479505136,0.243695236636479,0.480999736822141,-0.465772537759068,0.586492745626023,-0.489463452834742,0.552208837842075,-0.00464163775923069,-0.183104969803945,-0.0337836918110917,0.195689098151658,-0.00600261030281369,0.120909632799526,0.229438144659964,0.224199704865278,0.127477705038105,-0.0531973437884379,-0.0264013988145101,0.434328719302715,0.200293074145815,-0.0805106000488447,-0.139944519149791,-0.0556986694893095,-0.0596799535898626,0.425441058695999,0.0785070634991845,-0.241153321879177,-0.429696927902393,0.281673312344233,-0.00418564969569937,0.0289647223595814,0.206212834108302,0.0547306124739666,-0.00643590834663656,0.154597531957376,-0.417787462532735,-0.00259617791271369,0.504726423360661,-0.516737364608906,0.564648109951724,0.158583763680496,0.0633530720980727,0.149614377912819,-0.194632467675917,0.264954893898326,0.476563139723682,0.2869507934708,0.0888869639147557,-0.0723527806133801,-0.206426179130191,0.417358841678774,-0.55010489744068,0.0401658080181927,-0.0621358381726192,-0.300384090705229,-0.0278903852553671,-0.525977592243998,0.255666333851429,0.702715875899137,0.165862355917493,-0.156786793874914,0.110743680759295,-0.064487770335993,0.442677327937088,0.198012636991375,0.164168267336346,0.045459608195269,0.532124797191616,0.337497059907788,-0.18256119141626,-0.192112789418648,0.440502195393656,0.217994229478405,-0.0465615590153289,0.279330182394647,-0.43216176288085,0.0713052026034209,-0.204063317238843,0.166754272405438,0.206545027691102,-0.248560360367981,-0.14413597816021,-0.0980651902963334,0.481723774538102,0.074413371897491,-0.0664542882489217,0.377621562386498,-0.0890804679500572,0.527275848783425,-0.00234917860879025,-0.31211724808261,-0.328924031736155,0.136835885204119,-0.052179432899884,0.196700578631809,0.0261824513447289,0.308692131631406,0.529801665599525,-0.382496800499367,0.45352961639979,0.0482108427753715,0.308767140210984,0.349179764697457,0.342752301902357,0.210246235975596,0.252332033191973,-0.242883974868169,0.00131013645726826,0.375601545626814,0.328990737808274,0.377540909199463,0.198105417075031,-0.032705110660609,0.116564110644049,-0.31389109889624,0.295118475135857,-0.0653869876817157,-0.133520863878161,0.064093916820755,0.650076102014712,-0.254836983470184,-0.189420435368984,0.283586161427146,0.338008862029211,-0.0617425815030936,0.0610114252018924,0.245476958326624,-0.103953616610347,0.40211921393566,0.457038276464322,0.0804296710314077,0.399801464177311,0.625137952755277,0.433268242132687,0.312107317246533,-0.066803554324087,0.0208785397268182,0.0504714799835034,0.201499198789318,-0.00339425783993504,0.193751501357891,0.119012609289134,0.00237831832979279,0.278490030269524,-0.0213727416900333,-0.0353264872794519,0.390787302451781,0.157537272119064,0.111639995393174,0.0298055717077528,0.000247515665941396,0.177532161583421,0.456040871209352,0.186943765089837,0.234259381456569,-0.247746611261144,0.0560676967836071,-0.144830788556225,0.0803608516937783,0.644703135742885,-0.249121904973916,0.00799894972816837,-0.197209703702055,0.360281721323525,-0.184707192421563
-0.0905545566803535,-0.243577175563537,0.117107913406687,0.0926254990600375,0.348258821888442,0.257679096943258,-0.174857232019476,0.256243383888699,-0.244043570222971,-0.296370335227211,-0.244982424996542,0.457718816964064,0.15358876349692,-0.035294681089572,0.0230946664771007,0.626955271787249,0.661091034666959,0.1485445306344,0.562259556761779,0.63359877192513,0.389579183819682,0.124537575645029,0.0175024338524779,-0.0544319776169971,-0.0269581861168289,-0.115979902429642,-0.0687963578979261,0.0182606469592993,-0.0543225247611101,0.516386180470439,0.125808396470807,0.26694983382828,0.120384565755891,0.222107385886918,0.499491418963463,-0.412224135959303,0.575278632598569,-0.451754369670404,0.55407107794945,0.0118504255686592,-0.0915656750995109,-0.0172759715008222,0.219339149968885,0.0397454348542262,0.137482890125936,0.249512831053615,0.218081458805062,0.1519070842862,-0.00707046500994766,-0.00434490603710499,0.41213511367633,0.226597588647527,-0.0475818041706944,-0.132875435941955,-0.023555258273337,-0.024201441336837,0.386757303608598,0.0697174304586642,-0.200482515595474,-0.367689590605457,0.280149067778136,0.00814435684916162,0.0611136216179863,0.23489639567493,0.0893114404967056,0.039869125382966,0.179833453038318,-0.354038051739521,0.0399059867895848,0.501835195756478,-0.431921554245997,0.559146133085093,0.16710465527823,0.0790833810389179,0.169167735726906,-0.154243956154649,0.290271126392836,0.453655329276569,0.314836349350669,0.0962585867377287,-0.0399109012364654,-0.162020889455598,0.419597514966291,-0.491899976205454,0.0750233355389312,-0.0305731422854342,-0.279203876475413,-0.0253443296422592,-0.471540343942009,0.248276921787795,0.6648733056233,0.166086060975,-0.113810464348323,0.13975688983002,-0.0571664340639977,0.438963690397251,0.185135826241652,0.201039089563294,0.0724583595844893,0.520641860605366,0.331702541874851,-0.159981129711082,-0.169914118653358,0.447749054543236,0.241959122845762,-0.0246977349637583,0.284566998572719,-0.385426017655194,0.0901434533862356,-0.178093754687425,0.179093793044689,0.190743268900672,-0.217981817773974,-0.129189098101026,-0.0377311486624974,0.46498885452565,0.0696784377123923,-0.0554305967084399,0.374927717275814,-0.0712369277287121,0.512408104673427,0.00851510266459678,-0.267088436981526,-0.287938521946103,0.178053852334238,-0.0446786480137755,0.230091386626172,0.00714007988015471,0.325391697562953,0.51694287370407,-0.326281750641654,0.447859914687587,0.0593502267294399,0.330530255720201,0.349083399762259,0.344522541781406,0.207226415687308,0.27671631728544,-0.219642037332352,0.029461663406834,0.397971874094856,0.34001358853406,0.30209872094169,0.208786066979935,-0.0213659100689351,0.147827214835575,-0.276701266596631,0.318076942925389,-0.045595151711379,-0.12494651715547,0.0667565768548733,0.630011250750108,-0.227999395088123,-0.175151244153332,0.230035195608812,0.348195375802655,-0.0590451521996494,0.054129729486424,0.265249034972408,-0.085005896561743,0.405166221073826,0.45213635129147,0.117892871061132,0.381864848327655,0.639483408401995,0.430751081651603,0.33922723816911,-0.0509733316323453,0.0218765189243537,0.110213727904806,0.221609710967507,0.00499884479951036,0.199248311989281,0.11053561420274,0.00371607900543827,0.269728163803527,0.0119956017192556,-0.00805355179638225,0.386105438588523,0.174675262839051,0.148004443387261,0.0553366663795327,0.0372790528493931,0.208281184806098,0.472379243275925,0.183818219095621,0.249565202149082,-0.204708303093945,0.0653490829981669,-0.110443606159921,0.0895108815487126,0.622868941863498,-0.228702380060734,0.0154014212756742,-0.164970541039338,0.354905074318661,-0.132147157870539
-0.0733453228342536,-0.199622366410799,0.123307404116299,0.104416626631413,0.331818297205643,0.265183685212109,-0.139733027025561,0.280545882643237,-0.230440453998133,-0.245779377734034,-0.212012861816713,0.4746336609251,0.150797204260077,-0.0265932043766309,0.0268413782119245,0.624284142786737,0.651760683278055,0.171736877526259,0.546134361418729,0.622393581671187,0.381386102919945,0.146423306430304,0.0255488429206728,-0.0411695026573955,0.00925176615060449,-0.0811295681485562,-0.058512533956888,0.0682375780413786,-0.0283988551529301,0.505316461666851,0.14109472979485,0.30358466976755,0.14273983261703,0.202164716120312,0.518046415346826,-0.358067164582331,0.562972623400006,-0.413227804062136,0.557042588303689,0.0272469077705213,-0.00206024987451552,-0.000632498616220756,0.242498860000489,0.0861101049245546,0.1538751481515,0.269841992468146,0.212307504235124,0.175764793624753,0.0390972836013618,0.0168693958209489,0.39143483164786,0.252385226189032,-0.0134385387515657,-0.125601369279067,0.00835516869341028,0.010591452305321,0.346266994909508,0.0623158833520264,-0.160542277612689,-0.306224162967927,0.278443007990097,0.0212839291153821,0.0922500377960063,0.263004651015816,0.124941132456999,0.0863604681893786,0.205485453597216,-0.2903217161414,0.0825000421274563,0.498770170748055,-0.348108962511902,0.554050109652099,0.176645163995103,0.095075714894064,0.190205245793575,-0.113797242272219,0.316114284382117,0.431968599793309,0.341720742038863,0.105488761726128,-0.00702447998627557,-0.118087009467554,0.421326399082898,-0.434303135129268,0.110376915010746,0.0018459751951548,-0.257234994099611,-0.0226903711450045,-0.416670938282821,0.239956571411755,0.627514845564149,0.166170287419828,-0.0701334009071036,0.169199791329412,-0.0498174601870692,0.435073914188335,0.171895846373552,0.238742218802169,0.100384550895409,0.508754026588729,0.325085955329072,-0.138429452622436,-0.148820144194431,0.453738174956203,0.266033491200205,-0.00188385071167118,0.289685785032856,-0.338631953549901,0.108347341681647,-0.152740110811747,0.191850140200801,0.176714507842024,-0.185216337320943,-0.113173914928315,0.0223726009205092,0.44938803257056,0.0648205160881908,-0.0442216702575828,0.374557434611169,-0.0531358198479353,0.498110895138581,0.0196397140664494,-0.222336138315185,-0.246417750212934,0.218908713768003,-0.0355105100326103,0.262685707854488,-0.0115584516925404,0.341775172307662,0.504867786651529,-0.269796957890594,0.442396759234673,0.0709302182458263,0.351461177985095,0.348224187506166,0.346876108463273,0.205324056455669,0.301984877672707,-0.195717991225718,0.0571389961147029,0.421254715795294,0.350218646943105,0.226237328925743,0.219166421103635,-0.010662912904978,0.179402633226299,-0.238562178176058,0.341188326312478,-0.0249599910751791,-0.115693728400589,0.0698854516260202,0.61172022617657,-0.201904633321087,-0.1613607254524,0.17658845217361,0.358693495254591,-0.055585020014168,0.0471342472619769,0.284772782454628,-0.0661889398029338,0.408504060348328,0.447802231128464,0.15834622353725,0.364821439369745,0.652827463729859,0.430156186877023,0.367566188845182,-0.0352835258587418,0.0229375963721384,0.169883562181743,0.240933041265408,0.0130930576401982,0.205214147604859,0.103585048090118,0.00569276020671116,0.261285820808865,0.0451580621764714,0.0188064263550255,0.381806399210815,0.190196322573936,0.184818985545464,0.0809934729130044,0.0747611141801964,0.238322594767442,0.487881506102296,0.17923372338535,0.264688867415652,-0.160778847623159,0.0746434489768472,-0.0756141026749555,0.0981409095206808,0.602344719203755,-0.208636138331714,0.0229069821501171,-0.132268826615584,0.350806175411068,-0.0797104602795055
-0.0565220700801966,-0.156080408557854,0.130465512500664,0.117232251065992,0.316100198863303,0.272289594934903,-0.10545810458342,0.30517621196509,-0.216498483404424,-0.196071125792099,-0.178635982339598,0.490171825066113,0.148633113858491,-0.0175636289489695,0.0312184134766557,0.620799724607812,0.642152932746592,0.194480673594351,0.530773558048405,0.609757236138311,0.372882530861024,0.168574435111736,0.0328716830018794,-0.0277485920862851,0.046633928931208,-0.0454591636991758,-0.0479743039523525,0.117870086790987,-0.00365868687378803,0.493915929988964,0.155310712600132,0.339324433265164,0.165292259197711,0.183865616862702,0.536458964086938,-0.303391496229653,0.549674526062384,-0.374011490813414,0.561048633333005,0.0413444968580676,0.0838923251838993,0.0163721721329529,0.265071703377246,0.132984826214549,0.170152710748117,0.290471739400987,0.206991190136199,0.199082522515608,0.0850208104840411,0.0371834767681065,0.372142657074414,0.277463553947386,0.0217366162178098,-0.118174070001878,0.03979470861887,0.0447421358804895,0.304324454341867,0.0563322492695368,-0.121606354078893,-0.245644586130837,0.276561766512765,0.0354062423724329,0.122598660293007,0.290779237715852,0.161693800849358,0.132896587984415,0.231576051131497,-0.226719674345432,0.125130546763884,0.495371378348933,-0.265214117085114,0.54943480670814,0.187165415596764,0.11123668513856,0.212628017082795,-0.0737118668114822,0.342376685425757,0.411467350913256,0.367541924790748,0.116664800217766,0.0266061478809786,-0.0747988654050446,0.422666464311826,-0.377346540411542,0.146187731797715,0.0349221538567671,-0.234156681814643,-0.0199527432396012,-0.361476870192569,0.230835551642528,0.590589489649328,0.166077252169067,-0.0260032346263699,0.198995315647542,-0.0425585130626406,0.431090788481692,0.158660872903551,0.2771801019882,0.129099764970615,0.496161015667739,0.31750303288144,-0.117690173740216,-0.12870621476896,0.458061923630949,0.290293952853624,0.0217289333925218,0.294384562633018,-0.291493884705317,0.126264662577348,-0.12845591167423,0.205152197174928,0.164492042317318,-0.150149023113218,-0.0961951561297166,0.0822940692301675,0.43503144563882,0.0599279492246615,-0.0327079434972221,0.376774560536854,-0.0348634919001401,0.484507507027914,0.0311616098584049,-0.177967151416688,-0.204588021964218,0.259252238725726,-0.0249414619053233,0.294554557968404,-0.0296554376249639,0.358016992569884,0.493779672892955,-0.213088017067952,0.437484778919782,0.0828988726343566,0.371931332319384,0.346710470253135,0.349717802347945,0.204345981909499,0.328093902068368,-0.170969633976971,0.0846055582449565,0.445334459353243,0.359682235377479,0.150686647590837,0.229225805025621,-0.000499408358232963,0.211393844886514,-0.199594731519415,0.364302518586022,-0.00348673335877356,-0.106012574040679,0.0734675543217984,0.595196472809613,-0.176530297428687,-0.147908904024489,0.123936405887444,0.369546818138164,-0.0512969940878234,0.0401334686349858,0.304036646838215,-0.0473222808665732,0.412113369686606,0.443957389779612,0.201685989129418,0.348618875955085,0.665056330068944,0.431512121004211,0.39682590069785,-0.0198126766149663,0.0243011824826,0.229431326870823,0.259520292537885,0.0206893132160514,0.211822135855055,0.0982799059730663,0.008371523928426,0.253249637934367,0.0781668877262458,0.0453183136674777,0.378107311241165,0.20406736406493,0.221874963427393,0.106786837497404,0.113024222340956,0.267554596895286,0.502596014382439,0.173574227420766,0.279782007655077,-0.116153114169237,0.0840394197308065,-0.0404079746347634,0.106356028877019,0.583311990859025,-0.188699057791443,0.0306434728656609,-0.0991367134573004,0.348061339842943,-0.0274771755783951
-0.0401708637723888,-0.113092865080152,0.138389771860343,0.130926562082091,0.301203148858798,0.279032737139854,-0.0719665760460964,0.330132359800114,-0.202075550258988,-0.147633663466663,-0.144832180992107,0.50395165789959,0.147318450554022,-0.00842677065292135,0.0360674560609139,0.616256993156245,0.63217833896446,0.216134574772241,0.516264604072246,0.59564569945591,0.364265976965396,0.190755305172836,0.039675402564988,-0.0139843099411204,0.0852544600284062,-0.0092966101125911,-0.0368940891208288,0.167114876074659,0.0202590197563385,0.482092955313376,0.168428432653972,0.374200749934397,0.187651179568309,0.167151125270064,0.554398259172999,-0.248373925666158,0.535586147137856,-0.334331361108014,0.565813852199034,0.053926973947854,0.164630814156715,0.0338228389075249,0.28698742802428,0.180256736597691,0.186465584688051,0.311464904652898,0.202257540667513,0.221902933731125,0.130380921928518,0.0564742550434117,0.354128366518693,0.301711261948086,0.0576580693466966,-0.110660736546544,0.0705785493213117,0.0782163655676121,0.261539454430213,0.0519056885501588,-0.0840166071667464,-0.186369069329904,0.274509426600881,0.0507239263689005,0.152344050943956,0.318436312434744,0.199428570001083,0.179339754764714,0.258038497879479,-0.16329510840654,0.167623369130185,0.491556584998768,-0.183193373493922,0.545378708737532,0.198549751375777,0.127412695979899,0.23620950867276,-0.0344305048189552,0.368786897854335,0.392082977196735,0.392289695311359,0.129718855536175,0.0612350600929828,-0.0325041449456835,0.423750485971801,-0.321074228731746,0.182341894312364,0.0683756244473498,-0.209757903505398,-0.0171132417970484,-0.306129620831487,0.221084566898174,0.55407096315062,0.165888188462182,0.0182991173548803,0.228939883260877,-0.0354792559652006,0.427094062874417,0.145760231989393,0.316219067615419,0.158375037468366,0.482563776889644,0.30900591572791,-0.0975102965962517,-0.109313670245223,0.460354126170046,0.314715698009015,0.046061999341994,0.298391016464158,-0.243759660193758,0.144204483003726,-0.105618761393434,0.219017081051986,0.154040675340038,-0.112631310347046,-0.078506313688063,0.142095359905656,0.421874827884498,0.0551088966583554,-0.0207763571354288,0.381655706340078,-0.0165853243360148,0.471634082649962,0.0430370685386176,-0.134134828050941,-0.162668197755093,0.298893390600782,-0.013332079206235,0.325895878920598,-0.0469401650149379,0.37428316840912,0.483877149237439,-0.156215490262345,0.433393128965173,0.0950416226084019,0.392463099597318,0.344632398055604,0.352977925810525,0.203975672620454,0.354932232839354,-0.145256750359429,0.112081037244843,0.469941516438241,0.368471452621117,0.0764128980595719,0.238956843929731,0.00915783112264663,0.243868594352375,-0.160026390410165,0.387167195858588,0.0187175477746775,-0.0962699045247107,0.0775053080949566,0.58027391485687,-0.151909402217661,-0.134667360286866,0.072980159728342,0.380769248070027,-0.0460759789046724,0.033302923502152,0.322990103970119,-0.0280729634180754,0.415896006898542,0.440420841739259,0.247429742732371,0.333080226781183,0.676090047670802,0.434656589439508,0.426554983971087,-0.00449629549780128,0.026125772424152,0.288761520762528,0.277344014937573,0.0276034658885217,0.21928569945563,0.0945110091637064,0.0117463489456443,0.245703690945334,0.111022340134426,0.0713925595664624,0.375038435772202,0.216338320561574,0.258764943916859,0.132643594485334,0.152350836827874,0.295928532530428,0.51657244283103,0.167217939327577,0.294880396720742,-0.0711698919719102,0.0936410322017681,-0.00491271558645026,0.114241328458546,0.565892337584309,-0.168735660240665,0.038719427442619,-0.0656749506498715,0.346786869778124,0.0245135762263974
-0.0242291002383542,-0.0706868981492586,0.146951986771929,0.145214556380697,0.287269965859764,0.285467429787811,-0.0391468556160661,0.355312540548694,-0.187074719300761,-0.100766053733336,-0.110614007552748,0.515656170710635,0.146890377589055,0.000635177917404057,0.0413500324922628,0.610552015404269,0.621742636954969,0.235903332947193,0.502548519571378,0.580121930494245,0.35568025066194,0.21272091194166,0.0461670103634852,0.00016973319040278,0.125165185255701,0.0268713404977461,-0.0249869563263004,0.215963238846487,0.0438836274889361,0.469635819202746,0.180465583918573,0.408217192724152,0.209479315029504,0.151931725778511,0.571502515077064,-0.193226031498225,0.520993120097925,-0.294451272380969,0.570851110688856,0.0648148050177937,0.238525730508334,0.0516456800776265,0.308177054740081,0.227806637581493,0.203060859982593,0.332804497674552,0.198170683172149,0.24434596452881,0.174922826140879,0.0745765523485876,0.337204628327058,0.325144726843503,0.0939822573518898,-0.103101689513853,0.100593285003109,0.110938179622536,0.218555431285404,0.049254624050913,-0.0480439529247508,-0.128804911742671,0.27236433632228,0.0675049930603493,0.181649856013924,0.346123004898695,0.237825152244157,0.225541515090198,0.284722775311977,-0.100035192331305,0.209840259790535,0.48729500819927,-0.102081988624683,0.54186532682162,0.210585651899754,0.143532259629688,0.260665292959737,0.00366795087618157,0.394965940241083,0.373625768640076,0.415977084730498,0.144417000145124,0.0969415788559544,0.00834561039988484,0.424776143741709,-0.26553818362448,0.21862968745477,0.101886679442701,-0.183997738281727,-0.014027898538737,-0.250831463876414,0.210917855055985,0.517965971271615,0.16579592108994,0.0624783364026389,0.258762360341119,-0.0285252806748855,0.423165277170583,0.133450814511292,0.355659533051861,0.187938172917099,0.46769210871464,0.299758524612065,-0.0777435421373172,-0.0903416251035653,0.460357028295802,0.339136635386002,0.0710544925007766,0.301540122743508,-0.195283430784695,0.162369836483397,-0.0844524607378249,0.233391202695007,0.145139306454991,-0.072519108609526,-0.0604603760621945,0.20180000727961,0.409674057850077,0.0504713310650069,-0.00836171489925155,0.389139344305067,0.00144425879787151,0.459476789546291,0.0550342641119675,-0.0910181938507558,-0.120879646912175,0.3375555474991,-0.00100557471065529,0.356926085163803,-0.0631569223966322,0.390752132396273,0.475287066295729,-0.099257383564746,0.430291433015133,0.107052903717105,0.413547224659907,0.342019323275555,0.356683637080325,0.203899912187577,0.382346985017945,-0.118438314827138,0.139861411115079,0.494646346111322,0.376598265049728,0.00462061201419546,0.248390294651986,0.0182970425524836,0.27687892973292,-0.120126354920565,0.409549092419109,0.0415165887091009,-0.0869284266674354,0.0820139925214761,0.566672895749343,-0.128114505148942,-0.121555597009991,0.0246603694410134,0.392295158139818,-0.0398942304998046,0.0268498469359078,0.341615168728183,-0.00801047982582133,0.419757266669095,0.436927144665618,0.294718795485141,0.317957537116662,0.68592559507122,0.439330265075206,0.456191216596126,0.0108298957909,0.0284854820086782,0.347741739681566,0.294287139252453,0.0336338200204456,0.227809486430157,0.0921067551929459,0.0157578188500128,0.238684557864157,0.143629973858158,0.0968741804900956,0.372472194532585,0.227175760612898,0.294884254101393,0.158347162855328,0.192966637324785,0.323411484310854,0.529888076297887,0.160490116245168,0.31003190894491,-0.0261808750481114,0.103518431750871,0.0307684220451806,0.121833775391894,0.550179023660478,-0.148694314993766,0.0472102473706375,-0.0319620302545844,0.347163373095058,0.0762492317317033
-0.00862043243409557,-0.0286626609957904,0.156018405834356,0.159876365869425,0.27431553464969,0.291585904520473,-0.00687918941321311,0.380581659621731,-0.171398876708066,-0.0556121617979603,-0.0759432432181193,0.525069294456124,0.14707365238783,0.0095174983501289,0.0471498497951752,0.603816770002473,0.610781268787143,0.252988342903537,0.489421125044724,0.563308292225944,0.347218445935208,0.234321686614241,0.0525042659348996,0.0145796539535428,0.166424850370804,0.0624123867565632,-0.0120421576131536,0.264403941849894,0.0678775054781118,0.456283266999151,0.1916337778294,0.441309915603934,0.230586866701183,0.138101691503854,0.587483592386828,-0.138143499337183,0.506231068857101,-0.25465487909938,0.575484937542024,0.0738972975081289,0.304204995982899,0.0696978945675533,0.32860898853511,0.27551324288959,0.22026703359593,0.354321302560127,0.1947548472758,0.266574931495063,0.218510317018834,0.0912908660183682,0.321081915657361,0.347939449718202,0.130305320199676,-0.0954958443195464,0.129735035378032,0.142866661963563,0.175922442535676,0.04858184574344,-0.0137889061758512,-0.0732821526076605,0.270326755182771,0.0860568215930052,0.210670875842015,0.373921480394096,0.276475049444259,0.271295663225243,0.311458251251889,-0.0367812433598274,0.251838480172437,0.482507752953143,-0.0220567496720287,0.538680764881781,0.222927456902608,0.159669630760939,0.285646565600154,0.0402357474322812,0.420463714609458,0.355702941945933,0.438587055249176,0.160405427574815,0.133625138833856,0.0473344778053717,0.425950615079652,-0.210772975030227,0.254791199722544,0.135027524089358,-0.156974871390339,-0.010282821265017,-0.195838588911291,0.200594747532621,0.482336396432957,0.166076853902474,0.106274515233012,0.288245853280063,-0.021465918732944,0.419245173344041,0.121864354900081,0.395145822446923,0.217494138406353,0.451417629695215,0.28996082246712,-0.0583779404934778,-0.0714242626446331,0.457988087690189,0.363350671881485,0.0966547047334419,0.3038258265018,-0.146040948080279,0.180906339324763,-0.0650355173244015,0.248202406046182,0.137373768440953,-0.029763747385013,-0.0424327869482069,0.261345166245714,0.397982853060555,0.0461177759019311,0.00461404417165861,0.398987601452331,0.0189258603921908,0.448058581997161,0.0667122973004685,-0.0487351506250254,-0.0794668750932198,0.374897878645211,0.011832242708924,0.387781012680038,-0.077784588076006,0.407650302093587,0.467989218605025,-0.0422119101700261,0.428264179435286,0.118688138705874,0.435488815758818,0.33884039476902,0.360929693900142,0.20387879939938,0.410102212873286,-0.0903364376757821,0.168338629845357,0.518936066365168,0.383987359238421,-0.063348506824552,0.257569302539408,0.0268591844475765,0.310469841704641,-0.0801828959503803,0.431254642890896,0.0648634947153937,-0.078438648573079,0.0870207509760928,0.554114723967689,-0.10515764420856,-0.108574988230605,-0.0202031867076312,0.403946953633366,-0.0328028873225925,0.0208744311355182,0.359954884460588,0.0133045605156783,0.423689883784681,0.433196458049516,0.342432830938815,0.302956221310136,0.694650587827995,0.445264052357759,0.485087250423853,0.0263072580229336,0.0314274723267333,0.406190840467471,0.310212788150265,0.038515763456153,0.237490532196161,0.0909986527445648,0.0203422610435055,0.232200669244691,0.175903486333413,0.121622081181745,0.370236334994516,0.236889648391402,0.329524028477738,0.183659324417716,0.235017649828931,0.349955062232564,0.542608471737063,0.153600870236416,0.325387542450832,0.0186155994331766,0.11378831344857,0.0665535475244149,0.129154830119192,0.536161020939407,-0.128560274397146,0.0561398937385041,0.00204136388344182,0.349368780994954,0.127744885581272
0.00672528634264993,0.0133535089093319,0.165328296931813,0.174874151446026,0.262204200555884,0.297273942778145,0.0249482802801621,0.405839916188728,-0.154905260902427,-0.0122326285402786,-0.0407715072212693,0.532176048267428,0.147311103451322,0.0181645334354054,0.0536368666610723,0.596365468160258,0.599235998050541,0.266718266442627,0.476625319087043,0.545389527994255,0.338919604876903,0.255523720838192,0.0588140750462252,0.0289194849996411,0.20906882752531,0.096662072599715,0.00201766912647222,0.312307166365159,0.0929303453196959,0.44194899610326,0.202252542247038,0.473391410235371,0.250938815206082,0.125538715699807,0.602170230561657,-0.0833138753864273,0.491695825692858,-0.215292510044726,0.578852878747641,0.0811052564169582,0.360669746048236,0.0878299689912375,0.348290753563326,0.323273729480891,0.238431554299666,0.375759291097678,0.192143886495055,0.288679835489273,0.261090911855936,0.106404271200374,0.30539693446909,0.370440400837776,0.166261764513678,-0.0878255997623877,0.157876152481149,0.173975328339535,0.134111780858508,0.0499652226051371,0.0188312291226106,-0.0199737908097931,0.268644196890537,0.10672076697541,0.239612037842817,0.401936423942622,0.314889923050084,0.316316822384853,0.338162797320231,0.0267490110363697,0.293822543920105,0.476941561057235,0.0565514049862004,0.535513119748766,0.235174000825308,0.175974325114646,0.310761912623782,0.0748058823107244,0.444807452432117,0.33778039979381,0.460060229634813,0.177263602929786,0.171044289137108,0.0841554196938545,0.427389585646026,-0.156707440931773,0.290493598536861,0.167233111412217,-0.128811659581681,-0.00519964705844159,-0.141434427094191,0.190405611436421,0.447337646269472,0.16701083144402,0.149481615550649,0.317313139922777,-0.0139702330555229,0.415085154910325,0.110989856424933,0.434194820678438,0.246691184666182,0.433799840007159,0.279859017203432,-0.0394203733074118,-0.0520693251263683,0.453388221862461,0.387190552979578,0.122841134071411,0.305401968787545,-0.0961099266882737,0.200001575348342,-0.0474437110717492,0.263356265893117,0.130390666953759,0.0154942854701752,-0.0246831342945634,0.320630513491958,0.386343571854135,0.042014368941407,0.0182724201041324,0.410728583523889,0.0355037255865608,0.437408325973898,0.0775543231282597,-0.0073972559513407,-0.0386563883181226,0.410554858851627,0.0250383495509735,0.418492684114663,-0.0901340125888922,0.425232168018785,0.461839666703489,0.0150719333124768,0.42731380723755,0.129786013481894,0.458428866243087,0.335069514157355,0.365771025222511,0.203751326191313,0.437809363863484,-0.0606207061663359,0.197882534999604,0.542310049214845,0.390466224647911,-0.126171718715201,0.266444535993056,0.0347589193232276,0.34462641991947,-0.0405407624718154,0.452080548436126,0.0887958810982827,-0.0712092118960189,0.092437679761933,0.542395081122562,-0.0829566169539118,-0.0958713994533849,-0.0609640055362348,0.415492804989759,-0.0249029209977528,0.0152859483637346,0.3781336874538,0.0363035248896901,0.427707847690617,0.428939607097013,0.389408841636007,0.287709184669935,0.702445431059664,0.452175672638561,0.512613888376396,0.0419652606318239,0.034915043550848,0.463908478698015,0.32499715270811,0.0419108841413083,0.24829251056175,0.0912024973665541,0.0253490935159579,0.22622207586187,0.20780792281672,0.145475311225553,0.368232634352674,0.245897498574624,0.361959433645073,0.208482096903733,0.278518598218272,0.375494138921915,0.554771319307995,0.146669312663778,0.341140908518286,0.0632020286100198,0.124670897895085,0.102437912191468,0.13624734711956,0.523618887564209,-0.108245870876344,0.0653547534646422,0.0365173023112551,0.353446181802248,0.179022818850905
0.0219197399490429,0.0557861317654627,0.17440637281141,0.190347010780957,0.250663582337653,0.302367200276959,0.0565026819844632,0.43106554736889,-0.137375992990541,0.0293352194400907,-0.00515942933220728,0.537165056911759,0.146916324335738,0.0264820052053789,0.0610552604953873,0.588613639913694,0.586993961499867,0.276636821932383,0.463958744657783,0.526617773594207,0.330757664687936,0.27635876329833,0.0652611117445685,0.0426474771159895,0.25309828157486,0.129071101327569,0.0171934339793578,0.359402352927913,0.119744092102614,0.426744541307049,0.212537523192074,0.504398540189794,0.270547462566389,0.11406712042303,0.615546693467315,-0.0289393012211515,0.47782614360469,-0.176739334395596,0.579952285486994,0.0863634324387765,0.407292546701017,0.105904619546389,0.367273486399084,0.371046875262898,0.257886765828832,0.396854142778402,0.190603396327814,0.310701874893241,0.30269160044402,0.119718854428513,0.289808560819901,0.393113898699164,0.201660973562282,-0.0800766701689147,0.184905326200163,0.204232568577078,0.0935439274867692,0.0533233675451818,0.0500084341411815,0.0311438157561315,0.267511797841041,0.129802082078212,0.268818727385036,0.430354243794817,0.352544899247099,0.360253157000085,0.36487291739017,0.0909142196538367,0.336065403187942,0.470118566424458,0.133335364962833,0.532118483110999,0.246953190080339,0.192592720117028,0.335624465951097,0.10679667692966,0.467551787867343,0.319294605016146,0.480401320171634,0.194583109713799,0.208790377453111,0.118678869434479,0.429131491068703,-0.103111162391939,0.3253102172183,0.197928467752563,-0.0995451064340551,0.00187779065592829,-0.0879216864445888,0.180628371634065,0.413201345541204,0.168780916963952,0.19189619523999,0.346058693246809,-0.00566273301028812,0.410353732984596,0.100711131302483,0.472279427257095,0.275082678131867,0.414954122444608,0.269774693003452,-0.0208375496744425,-0.0316198316967788,0.446845306251803,0.410550768169577,0.149613515392202,0.306480765352405,-0.0456332812186949,0.219930573507807,-0.0317667053436468,0.278620631129901,0.124039479633404,0.0629779787185744,-0.00732380628624035,0.379584416720426,0.374419585438045,0.0378781295103603,0.032672089322453,0.42366105390278,0.0508060774351729,0.427511762071334,0.0871336720401351,0.0328109514204428,0.00142759727219602,0.444231379517318,0.0384445262350921,0.44897354156167,-0.09954011882869,0.443771169036103,0.456654514303198,0.0727887302845711,0.427388672054462,0.140210109681018,0.482500315522523,0.330745480576357,0.371135401103911,0.203394876545518,0.464831773979923,-0.0287994795884589,0.22879493302352,0.564344570144646,0.395842027114875,-0.182625764493807,0.274826797117194,0.0419669251884937,0.379277615709666,-0.00157903248633291,0.471802371029901,0.113411864874687,-0.0656369743877586,0.0979315637398536,0.531356345805371,-0.0613997053099456,-0.0836917684173806,-0.0971499988877804,0.426758101781264,-0.016431073909187,0.00983883520215984,0.396416791154145,0.0613572644011992,0.431788524372023,0.423899231057302,0.434584048600013,0.271793461265148,0.709626300873038,0.459706928407721,0.538249194456081,0.0577354298167082,0.0386800829754827,0.520717439961579,0.338548292771206,0.0434476459169892,0.260136392189144,0.0927757353728297,0.0304121481235175,0.220593477912891,0.239370336951376,0.168252894664852,0.36648215986211,0.254697174926034,0.391573656669462,0.232815085130045,0.323295743219517,0.399980705486084,0.566407351800329,0.139824458031034,0.357492802767963,0.107666236702911,0.136445331162089,0.13843585305617,0.143153876880968,0.512065197488409,-0.0875332689819661,0.0743858693040494,0.0717612934846584,0.359187671068177,0.230048391649443
0.0370735988017755,0.0989706556194626,0.182634891811772,0.206551917905677,0.23927191651883,0.30670828729224,0.0880255322892995,0.456317023814761,-0.11854798238083,0.0690886541144758,0.0305792552387187,0.540307752741232,0.145242975784804,0.0344025055613257,0.0697370546086415,0.580974322367288,0.57389217312774,0.282491809224094,0.451297854322538,0.507286500830266,0.322676264916964,0.296936621031936,0.072053721373617,0.055141311253793,0.29854554316451,0.159322151080333,0.03348717145708,0.405401816266468,0.149002090259945,0.410783718604098,0.222492965029914,0.53421448991505,0.289430922274288,0.103479900094382,0.627738330492914,0.0247931280075777,0.464977425282411,-0.139269790669374,0.577820366712908,0.0895863176145402,0.44382599343743,0.123854568024401,0.385692700175693,0.418863272109859,0.278949263762286,0.417320827520372,0.190431055060286,0.332779656668457,0.343453193943663,0.131028158750641,0.274101501013579,0.416443626891777,0.236507274208937,-0.0722141387632885,0.210802565794495,0.233603837596433,0.0545398402327696,0.0584462726751457,0.0799732768685886,0.0802005195747179,0.266954221007938,0.155507061106604,0.298718563292272,0.459402674219256,0.388935419376359,0.402738958352185,0.391684895140734,0.156090078355805,0.378864606502467,0.461426994868831,0.207890632656401,0.528350144158357,0.258031518326043,0.20960866280391,0.359874399002368,0.135674090997185,0.488287433748055,0.299796721420079,0.499711455645893,0.212060620884515,0.246356474270321,0.150935238930257,0.431219014675538,-0.0496503070220482,0.358828654075163,0.226647850208041,-0.0691387365853817,0.0112952175221859,-0.0356253582791933,0.171507689005573,0.380114255185031,0.171503644565269,0.233270044298702,0.374672457887757,0.0038749734843857,0.404741610571196,0.0908563156449643,0.508860831461276,0.302190626930986,0.394933041081932,0.260094084814186,-0.0026139502294844,-0.00926421368890632,0.438671526542034,0.43341588272524,0.176972054212474,0.307322989624653,0.00521260862740604,0.240991851366648,-0.0180390124180755,0.293703726132853,0.11826722774346,0.112367312246905,0.00959994138464951,0.438169214158239,0.362037832217937,0.033285795303882,0.0478274658668382,0.436907963138591,0.0646325181489169,0.418347412802385,0.095225627874194,0.0717076140110883,0.0409039962386073,0.475775594434209,0.0519100865535547,0.478995355264679,-0.105424633168227,0.46355852218007,0.452263619416724,0.131045040675203,0.42842824538944,0.14988301692114,0.507854173468251,0.325954668875748,0.376833892457901,0.20270583191694,0.490386908243698,0.00561531546083086,0.261316318897014,0.584687489697942,0.399953712992954,-0.231673814780355,0.282506699711996,0.0485762497772095,0.414371674911756,0.036413173401981,0.490205807090281,0.138886991379938,-0.0620800680786125,0.103037719452504,0.520861203734304,-0.040372735617399,-0.0722394532824701,-0.128506546751749,0.437625231414747,-0.00783410986439079,0.00420902691421704,0.415143623833949,0.0886731332419464,0.435903396174573,0.417907526856587,0.477031510303828,0.254826810292445,0.71662661161908,0.467439217214511,0.561534078438398,0.073484452866705,0.0422454088408285,0.5764527038625,0.350855204836679,0.0428669362190293,0.272977570206868,0.0957710496713395,0.0350400534117387,0.21507123917882,0.270715647490621,0.189858435080523,0.365086083589128,0.263905689614209,0.417963497268783,0.256705162956162,0.368922039662647,0.423414669226928,0.577511728168174,0.133245107545858,0.374590490632994,0.152219104084602,0.149428325386096,0.174532010320501,0.149973970242606,0.500834055643139,-0.0661046077489505,0.0825670994604752,0.108163558242115,0.366123441255163,0.280654431910099
0.0522635886541384,0.143139205020086,0.189488179395528,0.223780776236392,0.227551233871754,0.310139125148987,0.119749966411142,0.481659834624057,-0.0981583778322348,0.107059479797009,0.0658487556930202,0.541884078207096,0.141825108707225,0.0420229395432306,0.0800483925417408,0.573766619437133,0.559792484641796,0.284179726434472,0.438588039140837,0.487641950215413,0.31467109497487,0.317431747334754,0.0793439923979117,0.0659860043599334,0.345486101721997,0.187411857956753,0.050895287318599,0.450097487640133,0.181241767656707,0.394048436727868,0.231939165091253,0.562615033188181,0.307630307756782,0.0936113127319546,0.638913084934075,0.0778071425538408,0.453306570880492,-0.103030493686189,0.571666827374119,0.0906782257931467,0.470390428305825,0.141740885896128,0.403798356654977,0.466750130315359,0.301891759110268,0.436813782049889,0.191857384707009,0.355196015576067,0.383586180153637,0.140105980662851,0.258191368875366,0.440848978769458,0.270859663244944,-0.0641543900941759,0.235662555835709,0.262085230382488,0.0172353197498605,0.0650987178434903,0.108969273449083,0.127321183175712,0.266774358596064,0.183986310016045,0.329665158722751,0.489313507473451,0.423567472875454,0.443441636689071,0.418703436248584,0.222580339618625,0.42242517765593,0.450216773411214,0.279876587117624,0.524075421354783,0.268382449553906,0.227078060555169,0.383158341309691,0.161084641509798,0.506580459515048,0.278996557940054,0.518120538029729,0.229546139677357,0.28327930781057,0.181072467430474,0.433746377485822,0.00403225715362028,0.39074728548343,0.25300820617055,-0.0375870697933055,0.0230844833957172,0.0152052100405807,0.163230566550084,0.348089426619577,0.175268580211366,0.273357368828555,0.403327367960869,0.0150306055607019,0.398004994743913,0.0812080317585787,0.543373168876621,0.327601037700692,0.37369606949357,0.2511820924079,0.0152502516403195,0.0158416346673411,0.429177909530206,0.455818617892643,0.204914394012267,0.308242365411284,0.05625189918389,0.263378682471142,-0.00626479258176081,0.308368106800764,0.113081689289046,0.163336937962623,0.0261227241559323,0.496346167881394,0.349174592183201,0.0278879582485077,0.0638432510046301,0.449509684815422,0.0770644213121682,0.409900479063874,0.101831757009163,0.109241447256584,0.0801430333900332,0.505131786341358,0.0653988263166334,0.508190720890217,-0.107364786835506,0.484850055946634,0.44854467271148,0.189834077163542,0.430437168433033,0.158856203708329,0.534566733124887,0.320829110801233,0.382598652189727,0.201614386624737,0.513748594855007,0.0429447755841538,0.295580580575964,0.603025669998208,0.402638408233072,-0.272563018219717,0.289358780772286,0.054792171365365,0.449934688840711,0.0733068727464856,0.507085725578393,0.16540219826698,-0.0607727285893094,0.107398544659164,0.5107615280719,-0.0197362412531179,-0.0615845710852787,-0.155017525621064,0.448043198161835,0.000367617857561803,-0.00193402799824087,0.434589036255336,0.11827091390012,0.440058705256777,0.410862145857625,0.516005153562985,0.236554869558064,0.723862654402586,0.474974631655149,0.581975610995649,0.0890151865667598,0.0451338451657971,0.630897156612139,0.361986604395209,0.0401586800167591,0.286851598700475,0.100168377993628,0.0388369214234433,0.209419035555782,0.302055340530544,0.21029505378913,0.364110876116129,0.274222377277857,0.440998067853077,0.280231079405173,0.414746907657378,0.445837682710331,0.58798907556318,0.127110886373728,0.392389150694045,0.197167708246849,0.163969931921159,0.210710971983176,0.156934522894149,0.489248506132571,-0.0436645248229137,0.0893670641254879,0.146166248773689,0.37364380984988,0.33049180958772
0.0675769553609128,0.188508944149068,0.194755325715579,0.242276093599284,0.215082080733246,0.312478550198647,0.151852556922892,0.50711960733077,-0.0759219091488286,0.143339566561071,0.0998890362224588,0.542098242505245,0.136506970960863,0.0495552151737743,0.0922190652414326,0.567182817379015,0.544606441758493,0.281763618547075,0.425826445123399,0.467752315390475,0.306810402684751,0.337959461634355,0.08717616256222,0.0751170673845356,0.394029715724262,0.213602812213927,0.0693486225663716,0.493409524289231,0.216779421809318,0.37641371602307,0.240623745908948,0.589357816681003,0.325186835415533,0.0843489264219242,0.649219630580438,0.130193126916747,0.442784975556669,-0.0681560617072542,0.560888762251193,0.0895271927456257,0.487430771965745,0.159750467666458,0.421909036675893,0.51471351686018,0.326828574745605,0.454939733159878,0.195027153543192,0.378309001660119,0.423306433084593,0.14670268816402,0.242038814120665,0.46663170072864,0.304650905213283,-0.0557246428904387,0.259643371627074,0.289790093050778,-0.0184454445252212,0.0731519666226755,0.137189648979828,0.172585773939027,0.266661813175757,0.215362515275839,0.361970436830142,0.520261840519228,0.455994818625196,0.482039575348492,0.446029680758733,0.290538357679204,0.466784330898695,0.43580872719613,0.349130114784395,0.519098948294731,0.278067505609468,0.245110826377568,0.405103910152957,0.1829023168341,0.521945263245723,0.256713708272465,0.535771097879467,0.24698018643666,0.319186662986071,0.209359426764549,0.436871507111463,0.0582563941813643,0.420866600711746,0.2767219824788,-0.00489027753608902,0.0371346166591553,0.0644878284460994,0.155867852509862,0.317023145269055,0.180118816131399,0.312050581623042,0.43212562834186,0.0280786505365797,0.389960295824999,0.0715440961610306,0.575292488291101,0.351038549871267,0.351140865963994,0.243274870426738,0.0327935986093504,0.0444547490498208,0.41870062136348,0.477728266842171,0.233459629218169,0.309478428588197,0.107393308630102,0.287217839059991,0.00357145131662254,0.322386781701216,0.108506331111935,0.215617656989697,0.0423551231186975,0.554059277195415,0.335851323613146,0.0215333458845082,0.0808858687175214,0.460572920733807,0.0883812830569513,0.402107403308191,0.107128416919601,0.145508111106674,0.119606845708581,0.532242672323369,0.0790368626064833,0.536086921447058,-0.105165823669772,0.507849246737034,0.445365520975344,0.249115222936923,0.433533533817919,0.167258003873609,0.562627554997194,0.315586188469006,0.388162881887881,0.200072592274027,0.534377531935478,0.0833242278803817,0.331619427447945,0.619113654949926,0.403726418138627,-0.304901733110549,0.295319862709355,0.0609227760250823,0.486049574917384,0.109029325494409,0.522323264623177,0.193069523106056,-0.0617799115358714,0.110866028173762,0.500892351577956,0.000706863196688678,-0.0516266221635361,-0.176876504711389,0.458018734993584,0.00775196428158129,-0.00886141545543669,0.454916027835231,0.150052781981842,0.444318153105247,0.402733950106774,0.550941935742901,0.216935714794251,0.731592484806472,0.481977302812729,0.599084954152494,0.104102111514099,0.0470430996343684,0.683798026181395,0.37209213184268,0.0354586983201858,0.301856065491304,0.105844718004393,0.0416109547329581,0.203401021298104,0.333606524828466,0.229572961658468,0.363510409527424,0.286274935373915,0.460837118813186,0.303526121563084,0.460099607962793,0.46732524730174,0.597690374609924,0.121574162750519,0.410682064373969,0.242799009640326,0.180346466962819,0.246989291026399,0.16425328527563,0.4767686957909,-0.0200189969737073,0.0945908776641162,0.186146962335227,0.381084786838547,0.379137643633005
0.0831290498709805,0.235237683238937,0.198566509598959,0.262132067767282,0.201478420927215,0.313611279844569,0.184487436371368,0.532659800888427,-0.051543092455155,0.178130010681045,0.131928447156508,0.541043059301952,0.129427737667886,0.0571612083835942,0.106275702754832,0.561271966594025,0.52822412518769,0.275507997643543,0.413010524807851,0.447478029760072,0.299149747659354,0.358471928885245,0.0955693446646897,0.0827293366082976,0.444350032568329,0.238221017869886,0.0886715393442117,0.535449741498783,0.255749611834439,0.357744422698271,0.248346581952463,0.614318472448733,0.342188895842157,0.0755440389763608,0.658830352481733,0.182128897723194,0.433289899286011,-0.0348553423676097,0.54515506859515,0.0859837291233293,0.495707264636809,0.178183962555774,0.440301748420097,0.562835643935353,0.353610307068488,0.471287787445877,0.200048000677593,0.402528130478499,0.462879541659713,0.150533664973207,0.225649474564389,0.493951361894894,0.337691101909716,-0.0466402311602395,0.28292609820431,0.316968946856516,-0.0527405906418444,0.0826153509452501,0.164687988731336,0.21601873999342,0.266356318478868,0.249711870674974,0.395990861517097,0.552257970744357,0.485846293199694,0.518247679850161,0.473764763446582,0.360024065748385,0.511912347863562,0.417506344411331,0.415716917736579,0.513164183596737,0.287050695697359,0.263853424172842,0.42535418152822,0.201279926423083,0.534002915856804,0.232804292446929,0.552860461539226,0.264302545816264,0.353821762128941,0.236118282794313,0.440716594947161,0.113292915452079,0.449077875073981,0.297683199406808,0.0290783624155302,0.0531918706066456,0.112276031356152,0.149387237073705,0.286850117761365,0.186086347001073,0.349439699902248,0.461093182354868,0.0432019874050715,0.38043132802182,0.0617231796456692,0.604202819900438,0.37240718307527,0.327172795840489,0.236459413550794,0.050010006397196,0.0771527533801604,0.407584694815586,0.498955335802221,0.262560447802571,0.311184471025019,0.158676785378063,0.31264385230733,0.0115708882396491,0.33557017145045,0.104431492649573,0.268998964812341,0.0584222265213775,0.611237906568433,0.322098881094091,0.0142986913451048,0.0990954621747384,0.469423792798757,0.0988958269846572,0.3948495491793,0.111349828242413,0.18068200094692,0.159719429972249,0.557049579309678,0.0930941475924882,0.562213419126407,-0.0988681536461203,0.532706105391918,0.442459706978505,0.308922919233263,0.437811063436389,0.175182403146682,0.59196436040278,0.310572505220063,0.393346323961825,0.197981212409798,0.551990708024106,0.126760820638305,0.369462710635513,0.63280347475342,0.403036934724455,-0.328692383269537,0.300350229289888,0.0673600161214012,0.522775049352507,0.143496831026298,0.536005306562262,0.221986873362247,-0.0650606485577005,0.113462013454147,0.491150436027887,0.0211471244084402,-0.0420771096255653,-0.194420416740612,0.467486036120366,0.0140174817511932,-0.0167477164974663,0.476234486677657,0.183851716903425,0.448779037416156,0.393583145181526,0.581402325634517,0.19607463197859,0.73988931641143,0.488156388626442,0.612535435679616,0.118591322549784,0.0478693347760759,0.735011279445409,0.381369833152665,0.0289191958448155,0.317996222876592,0.112579466811796,0.0433343746590327,0.196752937249656,0.365609680043462,0.247752896616035,0.363110324756627,0.300541126631303,0.477815878046633,0.326712409192148,0.504412528202517,0.487939094062615,0.606570814319699,0.116746745642618,0.429288363587754,0.28936502812046,0.198705621647899,0.283435687907008,0.171977641461283,0.463042209079562,0.00491531656550603,0.0983388247448518,0.228345282558657,0.387758982921394,0.426270675045684
0.0989839615479172,0.283347144244692,0.201241174939012,0.283316135732599,0.186358066674348,0.313610310036401,0.217792574703311,0.558183154108725,-0.0248058308410223,0.211765634062346,0.161308498003005,0.538765688962773,0.120931887845772,0.064877037826197,0.122160267724285,0.555970699460508,0.510487573911826,0.265871178414786,0.400092176450068,0.426532431194171,0.291704898150597,0.378815330584505,0.104627564292067,0.0891241588067455,0.496681434870229,0.261526265711682,0.108600335729618,0.576485491132716,0.29813134072286,0.337925604934524,0.255073653572348,0.637534248667944,0.358840051235532,0.0669446981437882,0.667943325655184,0.233787106440719,0.424687522801495,-0.00331052551371431,0.524485574630478,0.0798447169110953,0.496282349967137,0.197380399532347,0.459162997744356,0.611275616689287,0.381921147036039,0.485398174952876,0.20695530651176,0.42825112038056,0.502675437764995,0.151317618529561,0.209074348542069,0.522854067495433,0.369804619326105,-0.0365203431557007,0.305692700833607,0.343949952542484,-0.0859694276763453,0.0934740874040356,0.191407860954075,0.257605211880935,0.265727837809465,0.287051557954406,0.432095849692073,0.585139264101091,0.512790241335774,0.551910861295574,0.502022312445806,0.431047036140328,0.557824297566177,0.39470813043867,0.479917656219412,0.506044839354245,0.295187560862863,0.283422792277955,0.44360515186978,0.216692632327523,0.54263604360364,0.207162770246158,0.569650702197004,0.281403030140054,0.387038298607498,0.261682825917664,0.445218026981435,0.169398878271365,0.475409484386351,0.315941067705692,0.0646077955451138,0.0708166162031163,0.158735084056732,0.143682795616426,0.257570918505427,0.193213967841264,0.385751671784055,0.490224694988349,0.0605184587610029,0.369211480923688,0.0516747226406138,0.629776347144733,0.39179215601998,0.301740307544414,0.230689148157455,0.0667465402856919,0.114278524319306,0.39613029373829,0.519145329661025,0.292013362720985,0.313503134026383,0.210236248476315,0.339634996472064,0.0179779352682577,0.347827695655318,0.100539790277133,0.323292055969698,0.0744152437752062,0.667836421274344,0.30789307791055,0.00642514730572994,0.118553471727805,0.475684284848345,0.108876139900842,0.388039488583486,0.114630343584872,0.214944203439441,0.200813969564339,0.579558217333475,0.10780164055267,0.586286989813489,-0.0886145730023667,0.559474651639498,0.439458544652796,0.369360899265915,0.44313027717365,0.182629485337586,0.622431856857646,0.306209349144234,0.398060696919511,0.195114569019377,0.566587012085336,0.173181925161924,0.409187801131198,0.644080506853997,0.40036426247024,-0.344322985582947,0.304433302414327,0.0745446713508795,0.560084014783693,0.176636867938697,0.548391632875412,0.252282905177744,-0.07052173071298,0.115271963866284,0.481520337341762,0.0417499562484807,-0.03252518367629,-0.208073111152568,0.476217415958591,0.0189832944737181,-0.0256767105032626,0.498651262272372,0.21939462226395,0.453514025156065,0.383530242572653,0.607149724666902,0.174001534019022,0.748690694381253,0.493258583814405,0.62227278569248,0.132466808191484,0.0476312617761928,0.784570623739839,0.390019718801125,0.0207483042657709,0.335091656963378,0.120069063757318,0.0440496489755123,0.189256757102841,0.39834526492998,0.264997631948615,0.362647235499653,0.31731786016967,0.49234014751328,0.349758925681878,0.547257443837834,0.507665232353586,0.614742613345531,0.11268477320341,0.448176574431976,0.337090536051562,0.219105956301291,0.320111021474812,0.179998041919056,0.447860561132993,0.0311446883894559,0.100882459096909,0.272851255009313,0.393069937801562,0.471745912332419
0.115098950995743,0.332756976290383,0.203121249758488,0.30574992048661,0.169457408442389,0.312714013343045,0.25185299582695,0.583615233480744,0.00437659255073267,0.24466077982213,0.187568110580951,0.535370946720503,0.111491778302627,0.0725805482166696,0.139732543741365,0.551176189962205,0.491296773503496,0.253443608129336,0.386968558918142,0.404540991357256,0.284541689642005,0.398888270571615,0.114579425338454,0.0946284462710973,0.551258849779913,0.283688638493911,0.128758702467653,0.616825148495122,0.343720386547249,0.316823856361218,0.260982347294925,0.659193413515361,0.375403031780908,0.0582438360746952,0.676686285872209,0.285305074864109,0.416866722377248,0.0264427697214238,0.499248222869016,0.0709797071457416,0.490462953316541,0.217609157199763,0.478616986870556,0.660171912701446,0.411431864880507,0.496802721589631,0.215606831384688,0.455768682284903,0.543083862508828,0.148985261961825,0.192282016089077,0.553276179224292,0.400939020475556,-0.0250003084409948,0.328073195054986,0.371089727425717,-0.118485939461312,0.105445199005295,0.217302747555223,0.29737738501873,0.264706006099727,0.327326269109378,0.470628231015427,0.618670801763672,0.536615145276016,0.583040356098681,0.53090884425147,0.503528073971624,0.604570639841549,0.367115712143903,0.542208198200635,0.497629638415109,0.302365667686604,0.303901532906452,0.459648093004532,0.229833161871215,0.547964939456771,0.179769120363599,0.586432931163031,0.298174630405125,0.418790769651099,0.28643792682878,0.450183007785364,0.226800648309918,0.499994554162695,0.331614227286334,0.102103945500823,0.0895293626755333,0.204166750158843,0.138602691208031,0.229228330181249,0.201487465508482,0.421249432447722,0.519481085549785,0.0800515826548626,0.35617071266141,0.0413677173070139,0.651809425915288,0.40939214034303,0.274808317126016,0.225772355185729,0.0828065894485127,0.155898822107454,0.384554520203852,0.537914707499121,0.321458602725326,0.316505636563862,0.262245435907043,0.367897706825539,0.023192763386064,0.359163039644579,0.0963362005732816,0.378353616420882,0.0904956365585095,0.723850873170508,0.293063699811692,-0.00182354268266837,0.139186993801372,0.479322850560297,0.1185021019026,0.38164192849916,0.117002653330591,0.24844856382891,0.243129697106115,0.599866476175716,0.123211633762595,0.608313043909376,-0.0745677354426336,0.588072499257442,0.436051081128853,0.430451280020878,0.449163849419258,0.18948350829885,0.653824897972171,0.302817227820618,0.402332222978489,0.191135720986929,0.578383539048319,0.222409357859071,0.450857174872461,0.653097970905445,0.395556113845489,-0.352562917991571,0.307588095246505,0.0829294470134088,0.597896961872647,0.208468111679075,0.559800828891406,0.284016387760219,-0.0779594456487216,0.116341620409925,0.472026136134114,0.0627236330257831,-0.0225609542528611,-0.218356195143888,0.483927316596331,0.0225753040731369,-0.0355883403086816,0.522198923044635,0.256255600112673,0.458568083005107,0.372791059574959,0.628353737230395,0.150583884014831,0.757899267758207,0.497132372008625,0.628535042487449,0.145817446149633,0.0463893612224768,0.832596990355531,0.398320424479666,0.0112467572989082,0.352911762979332,0.128011140904878,0.0437953683997017,0.180834649902397,0.432021545486103,0.281534175069401,0.361864650870026,0.336726988338881,0.504920576653869,0.372487696958942,0.588447022351532,0.526431528512419,0.622391450883412,0.109440296190228,0.467442395521259,0.386171178663424,0.241493282635917,0.35694485670413,0.188149486910637,0.431148666656499,0.0587024776208859,0.102560699438861,0.31962286097663,0.396584540743912,0.515564871216692
0.131442151043972,0.383350928221662,0.204392292234299,0.329317187854351,0.150660784547401,0.311224824046112,0.286731063718711,0.608961532013774,0.0359864945730554,0.277241610617051,0.210553078644598,0.53108673518516,0.101584681318056,0.080010848416756,0.158728578225989,0.546793176600593,0.470775642062086,0.238953926145716,0.373534399063259,0.381145307429813,0.277773904422975,0.418768622755045,0.125718332016979,0.0995052842270895,0.608254388451456,0.304827558774495,0.148644930937711,0.656725304920201,0.392169461407581,0.294227202679254,0.266259841595198,0.679605380537155,0.392102315272445,0.0491272147900789,0.685117172917247,0.336804739085204,0.409725936708807,0.05454137725426,0.470101360980785,0.0594153695376867,0.479682262388397,0.238964420081393,0.498767462613807,0.709668605785893,0.441850807852706,0.505215746367512,0.225617082364408,0.485240566168423,0.584398568403206,0.143799475177276,0.175036563888658,0.585126411190006,0.431179457400707,-0.0118576560369819,0.35014818554238,0.398744468165002,-0.150624107803311,0.117992439157689,0.242377894230362,0.335499681705338,0.263304669069971,0.370410372932885,0.511894053408079,0.652637159244265,0.557327596767938,0.611799345999117,0.560513201201198,0.577354375425192,0.652123433636585,0.334793339210303,0.60320949727451,0.487887940468781,0.308587183344103,0.325398447202666,0.473428732032469,0.241424806951592,0.550271137837558,0.150672617424163,0.603513372821638,0.314628729737361,0.449153976785359,0.310875778289983,0.455475253229961,0.285602363555738,0.52301908511411,0.344873437964689,0.141968071979002,0.108899612117125,0.2489396082971,0.13395806796119,0.201902132595187,0.210769594165864,0.456191573894713,0.548723630744325,0.101774014287253,0.341382212378332,0.0308404270339991,0.670360742018282,0.42546287123896,0.24638821495545,0.221388769867172,0.0980711900625612,0.201807043637189,0.373039789415219,0.55509358723974,0.350430877867647,0.320131299867768,0.314860200441517,0.396993047728249,0.0277009622149104,0.369632276961295,0.0912085388261831,0.434079768563384,0.10699859865112,0.779273016773367,0.277460568758417,-0.0102748717961381,0.160733174837099,0.480649722951927,0.127793399461336,0.375723955768544,0.118473979914397,0.281333676213335,0.286874130478738,0.618198711434871,0.139227210187421,0.628572239447162,-0.0570678203352446,0.618353807349904,0.432107375422229,0.492081187169628,0.455621776377785,0.195553914597029,0.685951031863582,0.30055541463267,0.406335021786516,0.18568733715784,0.587725927790905,0.274118747556836,0.494461055190398,0.660194505597019,0.388664998071431,-0.354478059883803,0.309820274676929,0.092939053599183,0.636153790518034,0.239128151591036,0.570532736944202,0.317084277126019,-0.0870647805705818,0.116585823634961,0.462695406378365,0.084366975160515,-0.0118841845082515,-0.225873589385605,0.490490818738615,0.0247357322076213,-0.0462441782642225,0.546747647379336,0.293940034667864,0.464014605633006,0.361749685468997,0.645712332379269,0.125660910131866,0.767521279914362,0.499811112558422,0.6318431966183,0.158801900846462,0.0441681227156471,0.879247878351403,0.406710980024486,0.000760584301930281,0.371295847756365,0.13620670532017,0.0425413415279635,0.171511148495429,0.466749359537734,0.297601361017461,0.360582982568568,0.358753274022168,0.516231049205153,0.394723414652502,0.62808514825742,0.54425351816255,0.62971008234734,0.107091601211896,0.48719483454793,0.436853796937922,0.265701540748389,0.393737128822102,0.196229083502441,0.412964617955892,0.0876762635219606,0.10363168014191,0.368500669988171,0.398041854180668,0.557836143072299
0.148045769413451,0.435003539649153,0.204991599672541,0.353920545518948,0.129880172423272,0.309464758892434,0.322497967763135,0.634268540710769,0.0699327611355548,0.309948727488379,0.230378647950073,0.52612222528085,0.0916432749686751,0.0868812233634098,0.178819709144755,0.54274890712731,0.449290825288694,0.223194297963213,0.359745594436211,0.356136471572251,0.271446966278973,0.438706294562702,0.138279573415877,0.103845767872786,0.667734844117969,0.325090620411506,0.167780147461604,0.696387557409422,0.443112134020881,0.26993338258069,0.270821164394453,0.699101996992343,0.409148329929849,0.0393201726038852,0.693351963197178,0.388439722616592,0.403206276720435,0.081220946248326,0.437820465231005,0.045228143779785,0.465323123226928,0.261305182930846,0.519693178783211,0.75998292691585,0.472981207609572,0.510677343234486,0.236431840311904,0.516745729124733,0.6268150852904,0.136139837310217,0.156986691504067,0.618360175183762,0.460643567351445,0.00294081991609347,0.372064540611755,0.427206305012928,-0.182715796008504,0.130693552989883,0.266696505693987,0.372247052811148,0.261761336760315,0.416084446569462,0.556055351453157,0.686819863609395,0.575173214819566,0.638499442943693,0.59095875976028,0.652488550921516,0.700359423313082,0.298012631314379,0.663569693415597,0.476808688730162,0.313939374851302,0.348090325836413,0.485044777358199,0.252132942762489,0.549940629004439,0.119996349987419,0.621202659041261,0.330880109343564,0.478299555841793,0.335610161776717,0.46105916545775,0.345765524916329,0.544785879037737,0.356021093254601,0.184516480824022,0.128482756450254,0.293353264737699,0.129551960708742,0.175691470545313,0.220756938932362,0.490835882713517,0.577796614148662,0.125671021324299,0.325066739135631,0.0201659991392161,0.68575422723757,0.440259784131178,0.21660276868891,0.217181462334513,0.112445859486893,0.251601159787342,0.361806407024599,0.570835273865433,0.378540626285399,0.324268382262222,0.368230499605613,0.426503520317159,0.0320113281543183,0.379294257873915,0.0846035738220022,0.490389713531067,0.124322319953501,0.834065976304614,0.261155740998366,-0.0188501390107463,0.182865728792311,0.480136135192513,0.136722553055675,0.37051652423424,0.119105313284748,0.313812077800893,0.332309706829021,0.634904977650165,0.155673354229128,0.647480454814514,-0.0367085703658445,0.650275486558951,0.42769235606008,0.554096621465464,0.4623653245234,0.20067536474697,0.718683863510933,0.299555331814159,0.410353174991657,0.178508263132514,0.595038176138681,0.327814562758812,0.539929319683747,0.665828399339744,0.380044638640296,-0.351213441346332,0.311094602091308,0.104872870504038,0.674885242908204,0.26879100668901,0.580830141592285,0.351311332485358,-0.0975770783069888,0.115786683393032,0.453563535038681,0.107065411922508,-0.000309858819708732,-0.231214545736585,0.495974720207667,0.0254131861574448,-0.0572695774855118,0.572149330992665,0.332034610007276,0.469978734936842,0.350899505221552,0.660249727159521,0.0992178971999722,0.777723689638414,0.501507679727428,0.632870445602794,0.171530050900125,0.0409271141414444,0.924757360712119,0.415682545208557,-0.0104574666507068,0.390100842913376,0.144574869778197,0.0402128578393521,0.161349791260573,0.502691980898401,0.313450377629101,0.358741484208793,0.383228374980964,0.527062646262973,0.41636552257754,0.666467686419191,0.561363489160172,0.636865920367025,0.105692169111394,0.507494369518749,0.489373287434171,0.29151133657085,0.430273517957519,0.204020200763626,0.393417876186732,0.11808581428255,0.10417722878674,0.419264752792292,0.397406688293774,0.598820850744957
0.16488506628756,0.487531619970476,0.204783075265773,0.379511860331994,0.10710215580083,0.307663123445651,0.359134494739582,0.659573697155927,0.106036023472343,0.343128276501451,0.247357340121764,0.520528869296924,0.082056798312969,0.093089610573717,0.199644133925628,0.539022022370949,0.427304147019483,0.206847294081374,0.345619986454902,0.329534544057825,0.265480335173308,0.458948420283433,0.152355303578555,0.107672695535485,0.729633701979585,0.344700068008849,0.185948434784893,0.736002269223155,0.496189808751908,0.243969264028249,0.274357015827781,0.71797194804348,0.426812004264492,0.0286339984183948,0.701595067142795,0.44037763219355,0.397231806264342,0.1067398661583,0.403086579099044,0.028464365489261,0.448554887822566,0.284343853545133,0.541444492667332,0.811319238923112,0.504732649252358,0.513603028654137,0.247517171918238,0.550240071756033,0.670451799614761,0.126262632515282,0.137799421857281,0.652938014305325,0.489405605075154,0.0192821121966728,0.393998255057178,0.456714809210547,-0.215071546493054,0.143479361324486,0.290310816917712,0.407928252492608,0.260386356341478,0.464001947659429,0.603030430331158,0.720996763199476,0.59060506039755,0.663547083296177,0.622382704915295,0.72890513651735,0.749168377740035,0.257181252875182,0.723842501069731,0.46445799371544,0.318548630640631,0.372157023655043,0.494780799391247,0.262506317461998,0.54739521833055,0.0879819399541216,0.639729892072634,0.346953789520034,0.50649813651951,0.361221345909998,0.466869001153453,0.407133085540917,0.565718971553683,0.365570944773449,0.229934580882426,0.147934545858716,0.337534978215469,0.125285254411344,0.150733863966397,0.230997625624051,0.525409059004417,0.606662944610261,0.151661782935969,0.307500921558444,0.00939089467227932,0.698419391024146,0.454005581187897,0.185651252107013,0.212892318073684,0.125780206890937,0.30475319074104,0.351056255858398,0.585473221293416,0.405589990712017,0.328867713693326,0.422460296377001,0.456088135563748,0.0365602496063969,0.388142673121539,0.0763923481442307,0.547293669142297,0.142831904453713,0.888190172399397,0.244400651963171,-0.0274978076674212,0.205382083960582,0.478257994540842,0.145319744716348,0.36626440689168,0.118999995415472,0.346210209000571,0.379626672770166,0.650395641538385,0.172349170066807,0.665489758912127,-0.0141613241111922,0.683872076735372,0.422963235411026,0.61634010639425,0.469403953766007,0.20483484703264,0.751958941902398,0.299946612116125,0.414677281270909,0.169529486773268,0.600806969854241,0.382859321234641,0.587109801847305,0.670440370407943,0.370301939210905,-0.343846166450451,0.311442372908117,0.118742487154091,0.714164621119195,0.297561832736013,0.590807219218378,0.386558009922676,-0.109332994161888,0.113791819659208,0.444719709499603,0.131252840152213,0.0122355579747989,-0.234834099698644,0.50051958532148,0.0246462748366258,-0.0682420060809532,0.598393001007836,0.370226007551442,0.47656884732814,0.340713530020941,0.673016576582367,0.0714240829681331,0.788710479733613,0.502542171377432,0.632227500772468,0.183946998816599,0.0366542663626357,0.969400227048976,0.425616335710667,-0.0223531528343501,0.409135930996014,0.153100190280643,0.0368480561177242,0.150456439275622,0.540030958437316,0.329282144281334,0.356373098386512,0.409791746436262,0.538107066442405,0.437312524908643,0.704059752188928,0.57812061862069,0.64397584147183,0.105195513748451,0.528393812977307,0.543819423052871,0.318655974867714,0.466457268977101,0.211404639564657,0.372643013606436,0.149766868998659,0.104222007175243,0.471698602946216,0.394907872351482,0.638923521067237
0.181852432611779,0.540680975785298,0.203798004712171,0.406050399929726,0.0825056692528558,0.305842173686108,0.3964530941225,0.684906873280761,0.144020326200897,0.376878461620954,0.262018866641694,0.514322269533362,0.0731154148003648,0.0988598482536558,0.220828422605216,0.535642178290822,0.405194117267916,0.190471762396994,0.33124215865205,0.301537475371401,0.259724994752154,0.479585258723693,0.167821913930571,0.111107603765542,0.793707879036526,0.363969736367694,0.203216154372751,0.775661242487367,0.550972090704936,0.216647307005323,0.276653935747765,0.736512958080165,0.445347114600893,0.0169079207040675,0.710026302140708,0.492726018857768,0.39155938398752,0.131323327229546,0.366460647916343,0.00921382433766732,0.430288045892106,0.307853205114318,0.564070744941088,0.863755881440892,0.536995245310336,0.514748936034851,0.25854283255865,0.585423174289943,0.715297937313054,0.114363003739919,0.117224563833345,0.688773398871665,0.5174975057353,0.0369891504752652,0.416036655206663,0.487538863779207,-0.247853941192245,0.156521108383325,0.313277737528405,0.442853444497283,0.259253210473963,0.513713501326541,0.652561139660276,0.755014003743493,0.604179346269524,0.687342713070196,0.654792123069463,0.8064047862204,0.798502785521837,0.212901831892197,0.784401422877891,0.451058658278144,0.322595551004868,0.39761363874207,0.503137057594372,0.272880703019263,0.543066009289004,0.0549691192740756,0.659161565148847,0.36271502982618,0.534124966929163,0.387997622163587,0.472747438914874,0.469450288131974,0.586213169471238,0.374151552541621,0.278299512266358,0.167183513287519,0.381501506671193,0.121207747723813,0.1271768731028,0.241084308090841,0.560061900032186,0.635354421738026,0.179534224557145,0.288923993574646,-0.00148831262703829,0.708812385191647,0.46694298737047,0.153724753444131,0.208433381431403,0.137927956575869,0.36061937622956,0.340861487097759,0.59933279280406,0.431475840336274,0.333979539769837,0.477512733384019,0.485492261819851,0.0415860055437381,0.396178761461499,0.0669686341275489,0.604839766027419,0.162815575122793,0.941633931683563,0.227473379916305,-0.0361501743573843,0.228219592670391,0.475518345692205,0.153566212169632,0.363063662304358,0.118299123188394,0.37884039225738,0.428750674944067,0.665018208271126,0.189162280296375,0.683104352025377,0.00996389722659827,0.719078432063064,0.418084436117804,0.678620864203373,0.476899389380774,0.208251476100224,0.785787530876097,0.301690806572039,0.41951661511419,0.15892057264535,0.605563255762416,0.438621888488866,0.635698507230965,0.674386428286685,0.360046989659128,-0.333381167907805,0.311027122806917,0.134251477041024,0.753986653439931,0.325440698419724,0.600430682936221,0.422757517330453,-0.122149096159185,0.110669696001434,0.436237960474718,0.15735069622451,0.0256790324824865,-0.237043182406105,0.504346809749361,0.0226260539357927,-0.0788625785434552,0.625478753434398,0.408246298992296,0.483735557789995,0.33152348862603,0.684985374012525,0.0425498285826683,0.800563216714496,0.503295437975023,0.630459627903507,0.195967756013021,0.0314277557864893,1.01340741050445,0.436737982441651,-0.0350120581673092,0.428222083765392,0.161740000026337,0.0326422740936539,0.139005524603731,0.578812851113196,0.345169005124752,0.353539332040455,0.437907889398498,0.549748626281283,0.457510711573814,0.741456977301887,0.594742211808629,0.651110954892822,0.105475847763463,0.550009955044755,0.600142122266553,0.346804313721556,0.502375062268262,0.218481629799903,0.350866118211426,0.182393807443296,0.103867386229375,0.525567885218136,0.390954627497121,0.678563704233467
0.198863828208533,0.594296417241767,0.202201629967235,0.433447994507232,0.0564054824656252,0.303904257168275,0.434178357686359,0.710262139811041,0.183535306674218,0.411106894893965,0.27505090293539,0.507632197748719,0.0649158553109198,0.104615586985871,0.242027470923785,0.532679553989396,0.383201261016478,0.174454811300105,0.316767722107435,0.272506318555983,0.254055720671514,0.500562439021144,0.184350018948472,0.114374024070041,0.85952707331733,0.383258133208506,0.219787035214292,0.815334429315072,0.606963043959978,0.188420171624194,0.2778533566429,0.755066330629051,0.464840991037742,0.00399556008288005,0.718745895315181,0.54548496681975,0.385772901905819,0.155130776627917,0.328439295597926,-0.0122170760729286,0.411223724764117,0.33177903369866,0.587598304464694,0.917240564735996,0.569555031628764,0.515015157899044,0.269353701672115,0.621783668296635,0.761221569185313,0.100755690679713,0.0951291545296147,0.725681155273754,0.544985201423842,0.0558931681069726,0.438239395390871,0.519918557153246,-0.281064949273318,0.170005152382298,0.335695820174339,0.477291211738049,0.258277707438999,0.564713315816063,0.704259875963611,0.788818252864291,0.61642457667374,0.710236267346859,0.687990881729745,0.884623847179323,0.848332885222131,0.1659064648824,0.845432096636108,0.436955583785701,0.32630321465451,0.424228558756382,0.510678758626854,0.283340964364664,0.537415858488137,0.0212848560513042,0.679443975440264,0.377999240985254,0.561498629837297,0.415863684516886,0.478538080200113,0.53246004381693,0.606516012156459,0.382380800741029,0.329572701724706,0.186295328810853,0.425287985079706,0.117466816133254,0.105082587311084,0.250794205227212,0.59487361535522,0.663862133657613,0.208942640137812,0.269494740625115,-0.0124381823388835,0.717441824025556,0.479398792940784,0.120983046018998,0.20383289843912,0.148868560021267,0.41846058473037,0.331157704979857,0.612707860203478,0.456134692880179,0.339733125254766,0.533245306870198,0.514526211182614,0.0471235684352766,0.403541446191212,0.0569090478683427,0.663030220423793,0.184406644844928,0.994402375212686,0.210564801118839,-0.0447088800599462,0.251342382834391,0.472450028733585,0.161386199098557,0.360801044943945,0.117193578271781,0.411806725575696,0.479392649961544,0.679007787479182,0.206197589870422,0.700905720070231,0.0351487051633152,0.755677725985191,0.413198598423988,0.740773681717699,0.485091980104432,0.211298507155382,0.82027167499753,0.304570618466833,0.424947268975135,0.147049001376326,0.609849046367714,0.494669573675269,0.685287948735593,0.677920296987211,0.349712221301598,-0.320777429617519,0.310073737818789,0.150955529183583,0.794285965051449,0.352402907732254,0.609590178752273,0.459855471966071,-0.135803008849735,0.106675550056837,0.42808422376358,0.185568177517282,0.0398597004385404,-0.238094912604589,0.507753514719397,0.0196599314899269,-0.0890801285459846,0.653287547019543,0.445888395617276,0.491251774473512,0.323480785398054,0.696943693333615,0.0128516853071065,0.813255342479567,0.504095216307927,0.628115606410365,0.207611185710256,0.0253672235019704,1.05695508472372,0.449138860711473,-0.0485449191005834,0.447202293965347,0.170428685984065,0.0278691982466747,0.127235005422396,0.618967873132007,0.361192424022321,0.350271232664875,0.467032210800619,0.562017791912992,0.477048810737496,0.77921755244317,0.611247344949873,0.658378142646342,0.106335369017838,0.572463688716866,0.658189727354244,0.375606969746951,0.538198621471383,0.225525605600641,0.328434761009318,0.215682693207431,0.10327614962717,0.580619151791962,0.385998800341061,0.718035960089212
