-0.292758979828887,-0.472486930818015,0.45145926429523,0.240876906765724,0.36345549807877,0.511948565314579,-0.231086856474767,0.139948539427728,-0.238055286042081,-0.123005287937633,-0.428236247320116,0.289666788570156,0.361668979022932,0.0921224462387588,0.322832342490608,0.326177686891462,0.296442284590116,-0.00304342943141468,0.599785820053319,0.176511273398321,0.62950104439731,-0.147119158320061,0.0744716731918716,0.12280346336175,0.0288961081568836,-0.218600262837794,-0.0283789700569348,0.0219107111557362,0.00560147766054208,0.62244146694803,0.180076949805865,-0.138741079289194,0.525937959235763,0.473938568820132,0.493651551747327,-0.284047652419143,0.685765482447821,-0.175340001071391,0.791781432330734,-0.100408753872319,-0.594674454000801,-0.168377512501163,-0.213828668414782,-0.0947601463100532,0.409704072799773,-0.0927364318999026,0.0962638434990201,0.465845577436062,0.0640975750195092,-0.0392907360504325,0.661459705849362,0.117975577292836,-0.515801038132144,-0.227436812749325,-0.307283549977617,-0.0628378258963073,0.519591957635958,0.116538647046246,-0.537565442633172,-0.535797366408797,0.223093767855722,-0.10182741943594,-0.494871795451438,-0.282464176551336,0.0221472427043845,-0.168545312478788,0.294098918913145,-0.77967906198453,-0.00480541464906952,0.460572882610899,-0.938132672475561,0.582254144544891,0.359828619630102,0.274371968485771,-0.0475479257996259,0.157666922709309,0.13999834940071,0.483854893070909,0.0897044321436475,0.154960779437058,-0.412256643959806,-0.201813203146271,0.664991634947832,-0.305853161844241,0.230454112419135,-0.170897866730352,-0.371274490011313,-0.200564987086883,-0.554326343210608,0.00696566959771513,0.739307763778784,-0.225112081932966,-0.348866382967183,0.332284833736882,-0.02667157598883,0.0977515782076934,0.16825339167311,-0.464197353280307,0.0176709849548165,0.592057020710551,0.293653912064033,-0.338002901655408,-0.373693493534601,0.511200084745999,0.148985530457521,-0.113513411357043,0.55886378571935,-0.510818225631873,-0.154895335662411,0.25324574425517,-0.115179951989949,0.405444565219318,-0.45806762194184,0.0601847107607576,-0.665017588897646,0.680727322978929,0.402213655244982,0.206876674618577,0.233644309085274,-0.0370037910565712,0.505260031741848,0.268741613634788,-0.445479006275837,-0.291578481572645,-0.364392491240988,0.0111388849367936,-0.387410292902481,0.531810222706056,0.410558161384509,0.200984235227607,-0.742969924814502,0.369296501615433,0.317345740533179,-0.198287776629676,0.669268805728048,0.413364384581651,0.245321745080619,0.0350287184733723,-0.508872221191277,0.0394029964293909,-0.121948286473956,-0.0485240632592271,0.825424744239649,0.474810892842699,0.545343415731917,0.12221455256001,-0.0198756386042262,0.394407969191894,0.445980899262423,0.143963404755589,0.342927803276519,0.700723729470667,-0.361001611293913,0.214700995906018,0.744691421888488,0.249628803374302,0.098837504485063,0.220667248650881,0.304571427450993,-0.0702943404542557,0.282124854792762,0.329880013295731,-0.274294982728368,0.786985433271951,0.479610285176981,0.760287933085934,0.267851365211895,-0.135764998562858,0.24125848298324,-0.431787743693477,-0.0100755944450652,0.50557977152725,0.433862033700746,0.292920730844621,0.372120772852749,0.580445678368714,-0.113522739497056,0.0409420309271215,0.785764773631004,0.359634622989125,-0.186275220252706,-0.124367313623765,-0.459580850216272,0.215450349559751,0.192838799836085,0.501672054302637,0.396189368764666,-0.199974500748316,0.393680750739582,-0.183782255290703,0.406291703562115,0.78484308126509,-0.34528367530663,0.425352341748824,-0.0377731833410963,0.333703792083856,-0.62864503078567
-0.266353539376027,-0.424156990621642,0.450565606430249,0.240844286041224,0.349894485935008,0.524247719236231,-0.193176738338277,0.154763852002445,-0.20949525544696,-0.0750035185598085,-0.39664743086228,0.288223632419435,0.36202530304677,0.111597469694418,0.323602496980421,0.323020559117064,0.276159113148282,-0.00301621810097381,0.578974946182344,0.169614570849571,0.616556907392495,-0.135759727366413,0.101495657234467,0.137269469916857,0.0649501463380481,-0.176019570640448,-0.00617449564233298,0.057368418966061,0.0279194696487595,0.612427495558332,0.176507663774336,-0.115687700896312,0.541469962905094,0.455479908955273,0.497880140111436,-0.236157811755056,0.671381878693426,-0.131970908353084,0.781519909111953,-0.0742292178811789,-0.539991559158378,-0.143906213364602,-0.189609508880687,-0.0553120011852752,0.426332861031063,-0.0849430554628467,0.0912588325486092,0.483868411588727,0.104219459853091,-0.016238125612665,0.635544107373114,0.138068499551315,-0.48458385574214,-0.211388769303624,-0.2732598415023,-0.0267562900918593,0.491977112011219,0.114380989262109,-0.496030982274107,-0.457606175658093,0.223536845595442,-0.0901587696567532,-0.448065849050544,-0.249443878527343,0.0441570125399839,-0.127942182269539,0.310040648443782,-0.712276688675719,0.0279797704561249,0.448151957284879,-0.856081093065044,0.569194400412655,0.354930885670636,0.288037255123981,-0.0358623486198698,0.189696283967377,0.155039017805397,0.446874457221983,0.116661542415284,0.156660400866595,-0.384637151798689,-0.168085229387986,0.65824396159974,-0.25873629067616,0.270422309609592,-0.154851114182769,-0.349108696986471,-0.192421905505707,-0.490671481779346,0.00849992165116697,0.690456589838964,-0.226464313293571,-0.317649445065486,0.351585374944088,-0.0211859957277527,0.0905235648697366,0.167531015837668,-0.421348998739737,0.0417655821206032,0.562887406445544,0.294566095387944,-0.313660909282958,-0.349531305397435,0.515549544966583,0.166390839120059,-0.107001761838985,0.570190931614087,-0.462411435521215,-0.124443555493556,0.270860093473739,-0.110273739574971,0.388570788864503,-0.43897942217769,0.0834442147944615,-0.602976984612568,0.648358237500494,0.402085009847989,0.223832045917823,0.232548744168021,-0.0342768280601716,0.489990299352492,0.286447483646595,-0.399108833990633,-0.247717045335857,-0.336870095066298,0.00386393479955772,-0.372862931353609,0.518778309582629,0.425171096464341,0.175108438536011,-0.692866187863141,0.362156959210987,0.333289563289479,-0.178991872452544,0.668761548883942,0.400472398157508,0.239645397226755,0.0559533965423372,-0.483594800055162,0.0689991907764629,-0.108184179504111,-0.042764984780353,0.761290002876377,0.47566294771506,0.557609930024219,0.152090821335544,0.00860759668137955,0.402137646232014,0.471155117653328,0.142745865664215,0.339080891768925,0.66115209891714,-0.324940943623118,0.241406999780585,0.703743003914502,0.252321003449973,0.10090541498049,0.227871792259532,0.32026350692996,-0.0495754565634363,0.277594765392554,0.308463650858931,-0.25297290401448,0.762441912667187,0.488921196442158,0.755172196225459,0.282814030524338,-0.115553836864494,0.247578240010043,-0.383111385183434,0.0201459455657066,0.518172981940051,0.419112038965337,0.286103873728732,0.373997893362416,0.578939091668984,-0.0808143242276941,0.0623515146334849,0.769636523535042,0.379953558609027,-0.15356560012972,-0.0951888870984139,-0.422904589117307,0.234583094765982,0.213732138788029,0.51170944605791,0.412058306341887,-0.163631059919446,0.399239673916068,-0.135650610806817,0.415382701954339,0.759616709284958,-0.325544022012286,0.430224609505367,-0.00718570527424273,0.328333791323843,-0.577643303597568
-0.240102875909638,-0.375863833594476,0.449588465547265,0.240974639316836,0.336341615533479,0.536505829553039,-0.155260209609209,0.169662965520269,-0.180859048662551,-0.0270645273827951,-0.365058735681788,0.286822003194675,0.362244049972276,0.13101105502287,0.324532020276209,0.319852662283761,0.255840112144598,-0.00278510516799332,0.558264751831902,0.16272408364022,0.603668315298292,-0.124430586813088,0.128488633688359,0.151535086743208,0.100969275153932,-0.133376030038206,0.0158402854757572,0.0928631097242499,0.0502343226997944,0.602328973471621,0.173033880785653,-0.0926326694670557,0.557083759988726,0.437033862850937,0.502225308479709,-0.188098008494087,0.656917315958347,-0.0886696631917197,0.771282051507709,-0.0481275293393084,-0.485183898756894,-0.119458495372373,-0.165458730804723,-0.0159045752578443,0.442943165673457,-0.0771335546859701,0.0863809128203824,0.501886953290881,0.144331187875724,0.00687663330954045,0.609575316716527,0.158145497860903,-0.453327336098564,-0.195440269348001,-0.239327817558177,0.00936735982707065,0.464370975050135,0.112170919527348,-0.454520820039688,-0.379399465076376,0.224055004024523,-0.0784904566132823,-0.401226149622168,-0.216420402391254,0.0662419246267871,-0.0873642176216772,0.326092338417459,-0.644764764388405,0.0608105023623587,0.435590744672066,-0.774134989560388,0.556246372293607,0.350112893308169,0.301813267870403,-0.0242044819037211,0.221740994630895,0.169929065835288,0.409840549025592,0.143669204905434,0.158474699703289,-0.356865817520844,-0.134138905297147,0.651564398637699,-0.211529443484035,0.310328715724167,-0.138806600070105,-0.327022456299526,-0.184153642070675,-0.427067632079461,0.0101171525271513,0.64159287516741,-0.227716725196577,-0.286423005724545,0.371049564054756,-0.015663297886977,0.0833592368988681,0.166855140768448,-0.378522081303335,0.0656517461333569,0.533729016431886,0.295430979493178,-0.289382702031449,-0.325268791505414,0.519958748681701,0.183852333152506,-0.100309560020766,0.581516317386424,-0.414084572910288,-0.0941349742763126,0.28835599813725,-0.1053760411319,0.371685288780265,-0.41987457675841,0.106517922812781,-0.540838787692542,0.616021240197448,0.401828101208745,0.240750615841326,0.231357517035574,-0.0315605035401365,0.474612616930233,0.303970680145254,-0.352576930851758,-0.203670786980151,-0.309467032734492,-0.00332751217900748,-0.358221630538194,0.505695169996185,0.439750014452031,0.149151893222129,-0.642654854235411,0.35488365926555,0.349175424755024,-0.159589519317502,0.668044815192323,0.38766529513388,0.233951845404937,0.0769263762232621,-0.458173588373672,0.0985589114262108,-0.0944108807470874,-0.0371579314358551,0.697125121054946,0.476375010119527,0.56997006085384,0.182035292065037,0.0369531141850652,0.410042542622659,0.496370991839706,0.141587833372889,0.335224326187919,0.621545634813161,-0.289052067087974,0.26806601266522,0.662642071193741,0.255107212247333,0.102868776819513,0.235024428162318,0.336041770051783,-0.0289000816664023,0.273074886333629,0.286981382577791,-0.231572968883049,0.737857759502054,0.498133931597661,0.750027352555958,0.297715529061693,-0.0952124238002739,0.253827418187862,-0.334401266504437,0.050234377665299,0.530644190367281,0.404429802893812,0.279389586226217,0.375689846536547,0.577377108682507,-0.0481347555827167,0.0838488848508668,0.753666732584053,0.400287210985872,-0.120850783537602,-0.0658233110542639,-0.386223522521574,0.253775759015723,0.234494969759739,0.521769174850737,0.427875044871615,-0.127325311434065,0.404771310553252,-0.0876500323165449,0.424500650489889,0.7343977140694,-0.305814742676526,0.434924603478062,0.0235076065744001,0.32303487661649,-0.526672280503027
-0.21434323797774,-0.327636376540218,0.448461102819172,0.241661633179702,0.32295499634656,0.548661924372157,-0.117402461218216,0.18490501149604,-0.151935185782131,0.0207228818075816,-0.333479757387956,0.285547020527279,0.362019121075405,0.150286248045784,0.325949265800113,0.316648865183912,0.235465064037973,-0.00191035997925911,0.537716429395063,0.155891718102195,0.591022268337077,-0.113085203785955,0.155259778521746,0.16524304172799,0.136885078341561,-0.0905960278402154,0.0373876579696759,0.128437139304044,0.0725451106610411,0.591896442500819,0.16975168741432,-0.0695090192939883,0.572927481796199,0.418726657190557,0.506816134553058,-0.139518021364503,0.642247246271641,-0.0455401791495703,0.761041002925488,-0.0223147577141726,-0.429904570462272,-0.0951113218423663,-0.141406307438033,0.0234354419415386,0.459493372176408,-0.0692489634080374,0.0819765412736967,0.519958276334219,0.184413237038892,0.0301002008990762,0.583544844819945,0.178298107564006,-0.421924405114557,-0.179763199941338,-0.205643554783694,0.0455516470754174,0.436717746337614,0.109976618576114,-0.413070486388266,-0.301212349257956,0.224812026048968,-0.0667657682018935,-0.354374095673892,-0.183334239516345,0.0885196641065188,-0.0468099299060797,0.342452594089455,-0.576903577537006,0.0937672204573041,0.422754625035677,-0.692455306671074,0.543719599498742,0.34564386053558,0.31585183406065,-0.0125202385389209,0.253840018223776,0.184445504665025,0.372720378376943,0.17085924280278,0.160638847238012,-0.328594271698773,-0.0996234912482128,0.645198106553083,-0.164015216429799,0.350035388276875,-0.122748196716753,-0.305150018170302,-0.175603138546149,-0.363622465543281,0.0119722719925561,0.592722891464839,-0.228699918523995,-0.255059132506388,0.390978095712909,-0.0099806347501932,0.076417904161163,0.166158524416288,-0.335814397970084,0.0890689514693652,0.504619604115164,0.296206729074246,-0.265363659681093,-0.300785274208403,0.524457454366499,0.201450185145201,-0.0929742107682137,0.592876721446762,-0.365939775509136,-0.0641949181755085,0.305617186494197,-0.100405660942008,0.354791030773633,-0.400637086777599,0.129048097448262,-0.478325633191363,0.583781844336272,0.401249648897138,0.257667239638583,0.22984930457116,-0.0288497920871023,0.458933950791162,0.320988444899807,-0.305677719413964,-0.159072638622138,-0.282270124113392,-0.0103075004113389,-0.343230395950218,0.492594115524984,0.454205127165629,0.123175458598273,-0.592228350809012,0.347338516680584,0.364952098519428,-0.139805449323239,0.66670866084065,0.375239516179282,0.228285418065913,0.0981401216546913,-0.432279948918768,0.128009335860929,-0.0805471073715665,-0.0319036833141614,0.63279632569185,0.476884375862553,0.582598054670121,0.212148200472154,0.0650518161252132,0.418472835918337,0.521668959833339,0.140644309874534,0.331464821255286,0.581955312964001,-0.253681461052312,0.294563911577029,0.621072284302153,0.258153061439319,0.104617061373774,0.241890137190019,0.352056537354713,-0.00826768169773523,0.268682050564549,0.265484452811049,-0.209818171588345,0.713166849280411,0.507069923884446,0.744909834994808,0.312496033768844,-0.0745571762592394,0.259827651549465,-0.28555140119313,0.0798916335585613,0.542753906780754,0.390138092327685,0.273011435550636,0.37689722732916,0.575789967682059,-0.0154948992004294,0.105643222728882,0.738238815160449,0.420741454497981,-0.0879756995909408,-0.0359838030324349,-0.349518523221654,0.273166823426569,0.254859344895006,0.531869307340399,0.443537740298524,-0.0909978657244357,0.410294676324488,-0.0399878062184674,0.433756761234872,0.709173531757448,-0.286127782846827,0.439259056172348,0.0545159685039181,0.317940335693044,-0.47584325410374
-0.189606769898209,-0.279419818300105,0.44725118455362,0.243706923234929,0.310062900995874,0.560657112992704,-0.0798400980433002,0.201043052174214,-0.122300160611567,0.0683418217602994,-0.301877439538374,0.284479172745078,0.360935832831833,0.169372074279182,0.328356471260337,0.313311068050217,0.215076248002853,0.000268379582411341,0.517129029570869,0.149142010220977,0.578929695152526,-0.101486790300341,0.181379961068207,0.17802868538116,0.172577104343684,-0.0477453025915497,0.0581622443432702,0.164089501971332,0.0948524737546337,0.58056092713339,0.166658369144637,-0.0461521659623125,0.589180130245975,0.400893675237994,0.511647774938762,-0.0899368350502787,0.627269662198499,-0.00274075885222036,0.750600121030699,0.00280401669277386,-0.373512225289701,-0.0710646796449644,-0.117358829862083,0.0627956241120839,0.475971070224046,-0.0612367174358006,0.0786471115190583,0.538297043684698,0.224471472158223,0.0533441676880667,0.557672762301973,0.19885660536567,-0.39017541089812,-0.16453010326302,-0.172348274342144,0.0817344196708584,0.408843923407443,0.108136384613187,-0.371778472791936,-0.223323561821411,0.225999104242053,-0.0546819243999875,-0.307761338409908,-0.150004633059748,0.111054060892116,-0.0061809972590207,0.359378277359368,-0.508303626313083,0.126957418594382,0.40964699312422,-0.611200477271086,0.53213419160382,0.342140128090507,0.330279674652594,-0.000653735167649403,0.286126468189449,0.198349514229618,0.335722634883904,0.198416236931099,0.16357347125015,-0.299370003281304,-0.0642478708378683,0.639666175374197,-0.11569398207726,0.389295122646615,-0.106647782155031,-0.283588096686732,-0.166744532276061,-0.300454028303201,0.0141411495246084,0.543894771843135,-0.229145635017201,-0.223147868244474,0.411776459139973,-0.00384787305887232,0.0699976868657383,0.16500040342955,-0.293534759884892,0.111888836205,0.475558720096063,0.296842854074947,-0.241999898728209,-0.27602070139613,0.528859560043022,0.219143118969554,-0.0841289071496676,0.604394762806633,-0.318005270650537,-0.0348858437940494,0.322719728231726,-0.0950769244775299,0.33800810551665,-0.380972438668126,0.150555178145744,-0.415036615616544,0.551834068816142,0.40016831706996,0.274786803682335,0.227674866059842,-0.0260626266935662,0.442706765634855,0.337185594844038,-0.258373020866571,-0.113499089694473,-0.255130960031446,-0.01684522979112,-0.32749655593609,0.479793246787374,0.468329222377327,0.0976374774150098,-0.54158180277008,0.339469059260958,0.38062999992452,-0.119188692000871,0.664267509598843,0.363844617885581,0.222777463119195,0.119928901364142,-0.405503322461654,0.157268256110633,-0.0664076735416339,-0.0271456561270117,0.568112853067269,0.477411246878497,0.595619910218193,0.242493278155437,0.0930347437495136,0.427936333858339,0.547047937369516,0.140162652107228,0.328106941906214,0.542686970336184,-0.219270334541801,0.320734447195699,0.578609111566662,0.261651424610815,0.10618508378878,0.248016464449441,0.368475315520435,0.0124590199799081,0.264681839161013,0.244297675650815,-0.187152972815366,0.688336173714626,0.515509763521695,0.740049395551174,0.32713812099217,-0.0534893946818617,0.265284397052924,-0.236395568766877,0.108663016947768,0.554160735509241,0.377167745219305,0.26741308112502,0.377327246761337,0.574224197101865,0.0171192104724908,0.128065298452903,0.723968727058788,0.44159261449829,-0.0544394524667356,-0.00557479649968151,-0.312798814840958,0.292907689093326,0.274441419058194,0.541960648022905,0.458859116466898,-0.0543418489428766,0.41599564080226,0.00712859351598602,0.443362671631889,0.683828519519175,-0.266560698815486,0.443156686258446,0.0860930671991801,0.313251240768166,-0.425379261957257
-0.166415205489733,-0.231034344070385,0.446149624262915,0.248279800745857,0.297892439852735,0.572415639070782,-0.0429490928020013,0.218794483960186,-0.091385525276533,0.115910626353825,-0.270083818491432,0.283615211676812,0.358654135194398,0.188239758894587,0.332353859462999,0.309606703780579,0.194777296275024,0.00440702691694911,0.496051422079186,0.142286507580815,0.567601572473642,-0.0892238183410849,0.206417607988835,0.189721261658173,0.207841038791485,-0.00512687718655089,0.0777602391918589,0.199821343739331,0.117116313611647,0.567496545958733,0.163724789154504,-0.0223870343170305,0.606043463289975,0.383950160882518,0.516661450963705,-0.0389454791534084,0.611975534154575,0.0394790190207422,0.739652067430336,0.0267342278170403,-0.315262909701311,-0.0476528544604523,-0.0931827556850409,0.102413705172553,0.492476035993083,-0.0531035636959708,0.0770046707042803,0.557300650322153,0.264647013814855,0.0763601905492097,0.532470252282824,0.22032019770478,-0.357800662242469,-0.149846437577146,-0.13953489722465,0.117789248003774,0.380504200479929,0.107061945160424,-0.330839616083193,-0.146389179286676,0.227674253734863,-0.0416559936870931,-0.26193790013947,-0.11616565063693,0.133839858325457,0.0347248492121816,0.377131678068937,-0.438492129441116,0.16054276754494,0.396291617173933,-0.530533838037574,0.521973740733103,0.340462043215061,0.34518950831499,0.0114762200994299,0.318896816921304,0.211380072372346,0.299423061098645,0.226425796456734,0.167834461424762,-0.268983952545414,-0.0279253388198207,0.635521129019254,-0.065721940735569,0.427802638020992,-0.0904429154308134,-0.262335758112522,-0.157735414444184,-0.237547122522478,0.0163192646864216,0.495165126892222,-0.228583934026057,-0.190073296877237,0.433886514355291,0.0031602426369044,0.0644150977827008,0.162637094237071,-0.252296268142436,0.134122884267931,0.44639611005767,0.297201185727444,-0.219770754023227,-0.250948643810147,0.532721901417392,0.236617506082728,-0.0726917171287604,0.616246932635035,-0.27024814363966,-0.00656139436683871,0.339915433986756,-0.0890361620446568,0.3216507186435,-0.36048763063315,0.170557158782676,-0.350766122480659,0.52068280943777,0.398420669004626,0.292293817073595,0.224499688034627,-0.0229461217196202,0.425760366561937,0.352377614110095,-0.210893852539392,-0.0667347719291527,-0.227629229310652,-0.0224542874921278,-0.310726634432226,0.46783552194005,0.481840078555873,0.073257702423533,-0.490731942896007,0.331207190615794,0.396211248733259,-0.0973092145675366,0.660434731114402,0.354337218031146,0.217504835373255,0.142484100632341,-0.377651151735919,0.186299511334585,-0.0517731257490646,-0.0229705586616413,0.503031101995412,0.478322370481296,0.608864170727014,0.27308092669708,0.121264168015121,0.438957092014677,0.572464228616136,0.140315808893413,0.325518980607189,0.504331715075956,-0.186146094292593,0.346386179436331,0.534925443545312,0.265748329594119,0.107727463150086,0.252997512744433,0.385461140804475,0.0334823478720475,0.261343013079024,0.223933304476128,-0.162912633806333,0.66347805565117,0.523213219930178,0.735738105402107,0.341628045601375,-0.0320225212001503,0.269910765390108,-0.186812115630013,0.136039866335909,0.564461419062373,0.366981218698685,0.263147023147711,0.376813157001431,0.572383535760728,0.0496722473106927,0.151410960976731,0.711509112353963,0.463164704576377,-0.0194672421385783,0.0250422554279649,-0.276177352313751,0.313054055478201,0.292840224884266,0.55190094252819,0.473581277892613,-0.0168603653356227,0.422163348442332,0.0535432289078958,0.453541999304932,0.658115194087782,-0.247242932937818,0.446616796269007,0.118467706018805,0.309217834280248,-0.37549048172697
-0.144978314824632,-0.18225393287446,0.445299973704119,0.256424187377679,0.286521648161833,0.583786807351987,-0.00710758178671036,0.238702852054606,-0.0586929214457499,0.163535215654942,-0.237822996825818,0.283026269150752,0.354935830154221,0.206839666046177,0.338502688066498,0.305283992555423,0.174749225628052,0.0109268403034584,0.474086804573363,0.134973240681215,0.557091411702387,-0.0757927643986655,0.230098088229387,0.200245548912749,0.242413994990141,0.0369042292222704,0.0956129196265783,0.235763295845793,0.139157586708669,0.551978076395124,0.161015676054529,0.00195293899799122,0.623757350177921,0.368203835093763,0.522061363153133,0.0135820249166417,0.596459868211135,0.0808236275991622,0.728072605818504,0.0490339789210229,-0.254546800003474,-0.0251683894177253,-0.0687520038060617,0.142601518124385,0.509126484745429,-0.0447191594282754,0.0773785699569112,0.577396938535632,0.305258542835515,0.0988437210851459,0.508485825683172,0.2432171970706,-0.324456659462304,-0.135754374960257,-0.107346469347141,0.153524423510055,0.351360378938183,0.106932880415717,-0.290486839557387,-0.0712005603580478,0.229724326066889,-0.0272073319799324,-0.217554483511522,-0.0815944256258911,0.156952186385639,0.0761323195255993,0.395978973269229,-0.367087220441869,0.194778052992096,0.382597726578945,-0.450653304937167,0.513455638989241,0.341342977969956,0.360631915038283,0.0239102684494733,0.352449950307448,0.223320785037908,0.264495399420639,0.254791523345133,0.173828559759216,-0.237541451317811,0.00926459571223433,0.632928408233012,-0.0133155714368564,0.465365607238697,-0.0738628150755438,-0.241383178819201,-0.148833986858942,-0.174715400152071,0.0177823929526698,0.446629211977616,-0.226403184540293,-0.155326392945592,0.45765484290545,0.011402357127713,0.0598192059556761,0.158445662648728,-0.212859717401306,0.155752871888806,0.416950522793789,0.297152065123103,-0.199038784541178,-0.225521567760394,0.535598958430061,0.253447430386671,-0.057782323523885,0.62853525766441,-0.222703033964975,0.0203520002026756,0.357294081585223,-0.0820940393048136,0.306104150024823,-0.338786844630313,0.188684540194894,-0.285601655405668,0.49107030600229,0.395746101190674,0.310027354333117,0.220241060647028,-0.0190472921102501,0.408155131270444,0.366434002952728,-0.163622687094173,-0.0188471971096249,-0.199131489026113,-0.0264697245633847,-0.292755029870458,0.457128588185255,0.494602353196437,0.050732213232068,-0.439569188192928,0.322512750963339,0.411520749967326,-0.0739439287895208,0.655134662693135,0.347397960053184,0.212453828700256,0.165729866202308,-0.348781498437924,0.215119658759235,-0.0363922719513241,-0.0193694054100842,0.437509703851696,0.479849903790552,0.62190025073277,0.303937081956389,0.150145063274439,0.451863719520976,0.597789307509207,0.141027633263363,0.32392106212329,0.467754176919797,-0.154431456443558,0.371255056880728,0.489881008839483,0.270501472894589,0.109223663726834,0.256556764127862,0.403190607373559,0.0549126239500093,0.258888629192423,0.205013095350255,-0.136426747020494,0.638883775328024,0.529928799401386,0.732205320018649,0.35598610470958,-0.010205034928805,0.273470691341776,-0.136680824678629,0.161560220927986,0.57316618158972,0.360775486207321,0.260555358693615,0.375287364224791,0.569733697528968,0.0820948350750151,0.175847642622154,0.701386307153793,0.485542453859501,0.0175881585500959,0.0553358878038606,-0.239775789087785,0.333688972723263,0.309684685382251,0.561497246601841,0.487471410829047,0.0220032872661883,0.428950804503894,0.0991501773593527,0.464487097408087,0.631897852411395,-0.228302073660841,0.449568747121766,0.151928306971401,0.306097535496161,-0.32616875543039
-0.12526486641284,-0.132998646365027,0.444527152236337,0.268685337616626,0.276014335788679,0.594552208893948,0.0275040460334851,0.26095968436752,-0.0239482202207224,0.21111711968937,-0.204819572600622,0.283075459489086,0.349651376086058,0.224950890710194,0.347192166772732,0.300210707601064,0.155205258482233,0.0199788115729906,0.45106987330336,0.126773469839786,0.54739045646014,-0.0607559978915861,0.252232335897211,0.20938106133529,0.276149607935337,0.0780131505196155,0.111042972991531,0.27214946114993,0.160643110897883,0.533646900699301,0.158725074519111,0.0270396289509508,0.642515033474959,0.353910006323109,0.528365499284276,0.0673975636768482,0.580838554052947,0.121054402779415,0.716130385573799,0.0692481526433061,-0.190979668537861,-0.00368365888254129,-0.0439318726149794,0.183685936035773,0.525873334544725,-0.0356934923088226,0.0796803052837808,0.59876456004887,0.34661235484733,0.120512336154286,0.48602937936606,0.267942556558301,-0.28984796076152,-0.122166078460522,-0.0759343211025197,0.188709001433784,0.320930331500277,0.107601941543283,-0.251088561548003,0.00167342357548853,0.231863482618215,-0.0111683168906662,-0.17506028876605,-0.0463005676669047,0.180583522639552,0.118169558661533,0.416229700953319,-0.294042468448641,0.229966928715462,0.36846046446351,-0.371755213680801,0.506525091975422,0.345191334570052,0.376605970310189,0.0368344221966858,0.386902798928854,0.23419894250857,0.231494155499423,0.283257150983565,0.181733231607867,-0.205193772545001,0.0470566029719772,0.631636375277134,0.0417195993700571,0.502039549126097,-0.0563297718593497,-0.220690758399897,-0.140428036626166,-0.111757059848056,0.0176557130327334,0.398503769349424,-0.222171558336057,-0.118716355783827,0.483198362959325,0.0209851924565137,0.0562520311546273,0.152046704134307,-0.175778623748794,0.176597240937496,0.387210310931832,0.296700793202274,-0.180031376908102,-0.1996624534086,0.537150555902838,0.269389150620877,-0.0389761180803043,0.641076343191635,-0.175437064779973,0.0455243103545935,0.37467062735035,-0.0742121453324599,0.291712642959238,-0.315508557445602,0.204875909294974,-0.219820017226779,0.463664333244295,0.391699308816931,0.327454541478271,0.215257920560017,-0.0138342527609284,0.390082172852424,0.379246966628345,-0.117000999761404,0.0298756552424117,-0.168914837154395,-0.0283037883540691,-0.27339145440272,0.447700247718981,0.506710047129965,0.0306457000352902,-0.387957972786908,0.31360586992781,0.426069299593276,-0.0491169334803202,0.648312643227024,0.343222153426604,0.207710763633713,0.189541663317156,-0.319013043011755,0.243806225209302,-0.0200014029947289,-0.0161216568497267,0.371258544277473,0.481966934016681,0.634367470728416,0.335109521848613,0.18003055433182,0.466680326458165,0.622766469085831,0.142032642328789,0.323130636177333,0.434046189279329,-0.124073007532788,0.395063157870304,0.443373890554355,0.27592738201513,0.110289508961354,0.258486803659756,0.421792146022852,0.0767213785676503,0.257530435388318,0.188152865380313,-0.107090842698278,0.614972424529438,0.535537700214341,0.729624083047069,0.370422514053986,0.0117743891365129,0.275696184229545,-0.0857012590256464,0.184967374825418,0.579791975443307,0.358939694312713,0.259739976460357,0.372651786138368,0.565863331117158,0.11433623590505,0.201475960266494,0.693955360870004,0.508471088197589,0.0568101139585114,0.0850449745872783,-0.203514998423989,0.355021333967071,0.324680436877701,0.570524861527476,0.50041804575249,0.0627594529959479,0.436363934867634,0.143815049204934,0.476280123965503,0.605518403471071,-0.209829274579061,0.45177099855454,0.186808314898558,0.304095741272176,-0.277170583332777
-0.107271554729228,-0.0834503514301024,0.443373230891496,0.285280478228817,0.26643028351655,0.604573570480317,0.0611142579664782,0.285531593586881,0.012974193234202,0.25834758470793,-0.170955522281971,0.284209411304694,0.342860359196905,0.242076630334697,0.358555319556919,0.294422620716813,0.136307023379403,0.0315338562269569,0.427104765703858,0.117204218639251,0.538380271752974,-0.0437893427864247,0.272749827270958,0.216807047881391,0.309231009485833,0.117707762233779,0.123542956643043,0.309158042321332,0.181392666927972,0.512611978640591,0.157224078939147,0.052979997192115,0.662422221541205,0.341351198111446,0.536115316194004,0.121987243182072,0.565206442146397,0.160152089277458,0.70439189060189,0.0869233623651838,-0.124491392662175,0.0169288974603137,-0.0185753970024738,0.226010667834445,0.542499355648452,-0.0254971073969913,0.083560720521831,0.621304852287849,0.38883963513095,0.141183166656493,0.465236098914206,0.294597883024578,-0.253902800469998,-0.108850740114378,-0.0453411789672829,0.223170726715241,0.288741109368171,0.108770021199236,-0.21311889627652,0.0719152279367756,0.23367990340323,0.0064359181784317,-0.134514759396213,-0.0105947267025202,0.20502316995918,0.160873170255339,0.438160333429571,-0.219662509658179,0.266438865580747,0.353811891003282,-0.294029375690284,0.501030261627764,0.352195700044746,0.393062427809037,0.0506009801826452,0.422271760668034,0.244372383132076,0.200895344281565,0.311506548288047,0.191658461617807,-0.17195136798134,0.0850780476150926,0.631263085127836,0.0990408500840288,0.538067143738522,-0.0371717526661539,-0.200153454467693,-0.132867108423696,-0.0485768423902139,0.0152312357736319,0.351053337405352,-0.21588363691758,-0.0804807274425793,0.510449554524723,0.0317465722732495,0.0537119940091247,0.143204223327023,-0.141198705900739,0.196446136092981,0.357355526138906,0.295987024654165,-0.162913855892794,-0.173233777053363,0.53702078423341,0.284478333120532,-0.0163585753990246,0.653283851572066,-0.12846830433805,0.0687808540529315,0.391850961489502,-0.065445297905157,0.278675473596542,-0.290385218325079,0.219383407394533,-0.153753422159974,0.438933603420757,0.38581794993642,0.343945374144834,0.210276754148902,-0.00686082198064554,0.371813021425532,0.390646924013044,-0.0714938355614207,0.0790973127389169,-0.136392537431405,-0.0275949938303888,-0.252388094051282,0.439250693889496,0.518462368089427,0.0133656997284937,-0.335955927922178,0.305053333979994,0.439162566850649,-0.0229753624844996,0.640001367936137,0.341618131445001,0.203602704594576,0.213904445246955,-0.288352146093734,0.272574948758812,-0.00241356942952929,-0.0128014339137298,0.303950402581007,0.484548336746915,0.646040321743538,0.366691453831213,0.21124475878005,0.483177093823078,0.647103971116162,0.143136926655112,0.32263577872511,0.404269633569017,-0.0948991373874344,0.41763752755095,0.395273064215157,0.282139658828457,0.110431869933008,0.258660452303624,0.441375525528309,0.0988322016244754,0.257451512290674,0.17383145329643,-0.0746301994458334,0.592216867946862,0.540161416853492,0.72825444425754,0.385441339772303,0.0335420721455927,0.276427148779656,-0.0333516095240502,0.206301358778229,0.584148125644211,0.361288010718644,0.260726158801153,0.368825783737675,0.560615113856087,0.146432484282114,0.228315362586499,0.689462072615066,0.531569017492289,0.0977079718628941,0.11430339705072,-0.167049295031133,0.377308935602394,0.337814683400169,0.578857986144613,0.512605665832608,0.105744510693706,0.444419653171488,0.18736516609478,0.488819928769946,0.579788739975873,-0.191884614418137,0.452951436049583,0.223291261667548,0.303205073665842,-0.228214075587942
-0.0909312387473832,-0.033954306330421,0.441534552660399,0.306314626492442,0.257729898511273,0.613939688111932,0.0943577614430555,0.312350396795733,0.0521868849880409,0.304857977234001,-0.136371897060269,0.286677722132793,0.334900639335405,0.257588429007392,0.372357605329323,0.288239919612683,0.118208293404335,0.0454268632488481,0.40270327536925,0.105938664912342,0.529878227605756,-0.0245975119844128,0.291699320957877,0.222386121946927,0.342204380273416,0.155414694116617,0.133005529974188,0.346862507465985,0.201781171168814,0.489463412403766,0.156930500174751,0.0798407028514461,0.683506729055025,0.330660238605074,0.545625548394823,0.176674731997804,0.549786006944561,0.198191983858394,0.693398446720234,0.101823659878421,-0.0556367011835076,0.0369618129064455,0.00756746355188153,0.269981073453355,0.558969670651676,-0.0136720720284504,0.0886573354932032,0.644907724501791,0.432044530737758,0.16086202269641,0.446241720132433,0.323099307896569,-0.216822347410655,-0.0955854822654416,-0.0155334491478512,0.25693998560514,0.254624625226553,0.110264387719826,-0.1769664753143,0.139207578128629,0.234887994551397,0.0255637250872183,-0.0956307786408293,0.0251993697699644,0.230567287927474,0.204330386107965,0.46195259467995,-0.144292001509482,0.304625363088053,0.33855825432829,-0.217622390904962,0.49674861724741,0.362433807963957,0.410032948852483,0.0655208854706982,0.458526956489098,0.254265310285587,0.173140104311164,0.339349742287692,0.203703090010484,-0.137591073695987,0.122971130525151,0.631488306758265,0.15823959014931,0.573718489617809,-0.0159935210959972,-0.179666650028882,-0.126089883333633,0.0147408475771785,0.0101763327832642,0.304572716826625,-0.207880133949737,-0.0412436946588053,0.539318029060493,0.0434095796379295,0.0521278426855716,0.13188781020425,-0.108893622876456,0.215262878720112,0.327691788153601,0.295223993748506,-0.147630823314196,-0.146003347799604,0.53497744056656,0.298933814333313,0.00953988125380924,0.664376880871811,-0.0817258958818901,0.090217789592309,0.408727358933999,-0.0558636316343329,0.26687727863391,-0.263191038197406,0.232405107789492,-0.0876706615554821,0.417095347643327,0.377892647078245,0.359070769896701,0.206169717244499,0.00210445926699753,0.353898601369896,0.40042090096241,-0.0275764444339022,0.12851041417045,-0.101202229377305,-0.0242448971123417,-0.229463400815557,0.43148897597267,0.5304881369597,-0.000966070912803353,-0.283666986167274,0.297663913658118,0.450217932265826,0.00437155514085869,0.630616253166317,0.342352240043801,0.200486909218166,0.238815763424617,-0.256707262112121,0.301879715296795,0.0164839389759292,-0.00891525317304977,0.235683201895856,0.487538009931371,0.656572453886018,0.398936607203596,0.244093727141348,0.501093392048023,0.670723527820398,0.144265322016452,0.321924967303725,0.379235145995789,-0.0667125738030222,0.438978233871805,0.34572363128551,0.289410835782585,0.109558246052941,0.256982455941353,0.462184800110852,0.121223338443031,0.258831351862886,0.162333407708743,-0.0392515455240795,0.570921614140103,0.544203590662959,0.728482690644882,0.401638290962253,0.0546302979322261,0.275771587957133,0.020892609860047,0.225908663466377,0.586352882107622,0.367498720404758,0.263459410517576,0.363898103797247,0.554053672608726,0.178711083116676,0.256268679095206,0.687951331944871,0.554525563859975,0.139566888347102,0.143359244338209,-0.129881768631001,0.400858115695013,0.349527849280049,0.586579028393204,0.524461310237512,0.151049538403343,0.453263596538174,0.229826553305324,0.501904448760806,0.555492039102279,-0.174354761348831,0.453050243466141,0.261339319274086,0.303188041349135,-0.178969909019154
-0.0758854743344097,0.0151190332143363,0.43908329639518,0.331653659661351,0.249846577255117,0.622864673520523,0.128076845895778,0.341283066817363,0.0938455743419293,0.350332152252481,-0.101464234841258,0.29048105754823,0.326338800665551,0.2709091802523,0.388092195083928,0.282233226027567,0.101145355347124,0.0613256883882187,0.378841097850068,0.0929783519311794,0.521771963205575,-0.00296406882916576,0.309239743505605,0.226377109505767,0.375828206318186,0.190642450037973,0.139681632736595,0.385383606778025,0.222636824015099,0.46508250043938,0.158086053974261,0.107631519108062,0.705665647875295,0.321824059986016,0.556967115481454,0.230712888320344,0.535059543434685,0.235156837156139,0.683475548901305,0.113878202036868,0.0141253657624506,0.0567528719021098,0.0347785092538055,0.3159928643986,0.575729569907466,-4.40953134333828e-05,0.0946718832388631,0.669679181223306,0.476449564011015,0.179667946284914,0.429241389455949,0.353303643816763,-0.178910060364873,-0.0822447162073605,0.0134628966779211,0.290198371157473,0.218757893033183,0.112136099073309,-0.142857198634676,0.203141254858792,0.235459161309328,0.0462292071663074,-0.0579449185592429,0.0609610286172338,0.257432373054305,0.248734235962245,0.487688491967495,-0.0681077158192993,0.34497721478042,0.32269709657531,-0.142557840373745,0.493465987931452,0.375917348737076,0.427730224880088,0.0816237759354111,0.495594511002907,0.264183834672994,0.148488800273536,0.366768384741271,0.217935110636353,-0.101717463508435,0.160354718767631,0.632181609406088,0.21900050679601,0.609259578500692,0.00724622615937485,-0.159112533760713,-0.119662680372165,0.0778334463239511,0.0025032491913528,0.259467279224723,-0.198633440384217,-0.00170445205725239,0.569725280178664,0.0557269833468119,0.0513916990978321,0.118410557374957,-0.0783919510171266,0.233195128289855,0.298641373841563,0.294613534270777,-0.133738286639021,-0.117675050864433,0.531135736091096,0.313041277679979,0.0380267274695736,0.673662249306983,-0.0349469950173472,0.110263830217875,0.425246113139211,-0.0455654658952492,0.25605434079566,-0.233627319417251,0.243991607502166,-0.0218206471306539,0.398125558303319,0.368110913622799,0.372695408289254,0.203714204348947,0.0130930129361619,0.337109754061111,0.408349553602626,0.0143324548097471,0.177651300155044,-0.0633150742388737,-0.0184423491688346,-0.204463792263018,0.424397276693258,0.54361811480211,-0.0123306392785229,-0.231009416993605,0.292123736929234,0.459000240912934,0.0329368625593,0.620980612980282,0.345299969924122,0.198482397234866,0.264170500467527,-0.22392607114144,0.332360621471182,0.0366855582295246,-0.00407009574080225,0.167236443799065,0.491000800672179,0.665442628450752,0.432264774207441,0.278827109723737,0.520378635407075,0.6939151478655,0.145208025291949,0.320725445117119,0.359249782471642,-0.039463379447,0.459157306608633,0.295401267852518,0.297894710481055,0.108136141247015,0.253489946622416,0.484586915732777,0.143985080739469,0.261855652390258,0.153706912230242,-0.00155170114302373,0.551098204513004,0.548303513843987,0.730561055569675,0.419390646206209,0.0746457063661397,0.274016064906431,0.077290398901398,0.244260865706136,0.586671633594461,0.377431873001159,0.267702647110874,0.358155683556746,0.546452642140246,0.211763619078919,0.285027987420186,0.689131303994767,0.577169630133719,0.181565117399538,0.172154194449944,-0.0915233261740086,0.426040863860153,0.360488761933749,0.593790006283988,0.536396493459362,0.198452163420565,0.463103490719047,0.271483789841166,0.515356154574157,0.532949907348504,-0.156857859734892,0.452312663186161,0.300825119639036,0.303749857196832,-0.129048502658122
-0.0614526112977857,0.0633730190676483,0.436393384603078,0.360751505216343,0.242932944577708,0.63152566619116,0.162956642739105,0.371959213471162,0.137987742812664,0.394437847138983,-0.0668001508755998,0.295440417706939,0.317824362859768,0.281574667975338,0.405269865714367,0.277098974207502,0.0854706624901273,0.0786623385918995,0.356566555530675,0.0786953147694065,0.513988587300616,0.0211014016012088,0.32554267814367,0.22933400763726,0.410771872495687,0.223068137290298,0.144029890518099,0.424931844492915,0.244778562891511,0.440207358465008,0.160653016834397,0.136219738996841,0.728496979683539,0.314810385418482,0.570051987937256,0.283402930829446,0.521614103758834,0.270895364815222,0.674606456212823,0.122982619892273,0.0826816439947362,0.0766191008398897,0.0631872316499827,0.36422423647158,0.593314052218511,0.0152867111715744,0.10135132149446,0.695830821586174,0.522185022666209,0.197717907796175,0.414430346767714,0.384901417866024,-0.140340079596402,-0.0687585827810464,0.0415272684791892,0.322944105505224,0.181583261082302,0.114559541774398,-0.110752664471125,0.263495456039312,0.235600435797017,0.0684909234753756,-0.0209924268276073,0.0966804440881359,0.285698892187683,0.294264442749608,0.515284206152752,0.00878246488680342,0.387732235495704,0.306416207094451,-0.0687115088425367,0.491176035731064,0.392525085663109,0.446270098438736,0.0987373491747912,0.533258489275983,0.274284689233522,0.126888595728277,0.393718984083774,0.234228741670993,-0.0641310205607233,0.196768215163847,0.63334322935862,0.280917068844039,0.644779206959403,0.032337493781837,-0.138224189693817,-0.113091486019076,0.140117071488308,-0.0074982661523564,0.216193747619648,-0.188581118135685,0.0377951883489253,0.601444901032085,0.0683964364839004,0.0513848605659198,0.103416966388344,-0.0491278773725802,0.250430126516776,0.270792291404538,0.294239244843219,-0.120609240061384,-0.0880517479719793,0.525745821641995,0.327075420577349,0.0684435242658124,0.680626522999005,0.0121980351756385,0.129420317585839,0.441291017764646,-0.0347443017450557,0.246015354282219,-0.201357556523609,0.254277311267008,0.0434656763414671,0.381841757776361,0.356965702333027,0.384965673706461,0.203407599315453,0.0258456553014665,0.322084270169452,0.414279964925747,0.054016993063394,0.225871392761393,-0.0230934651953203,-0.0105789567810385,-0.177434222891756,0.418010056174403,0.55848205074938,-0.0207752273449954,-0.177711854386947,0.288748354295039,0.465631285721627,0.0628309637234993,0.611963587466363,0.350370662307007,0.197531856154312,0.289689273750414,-0.189724006866504,0.364579502066588,0.0579712532750855,0.00203542472428138,0.0999208760179944,0.495048639143517,0.672233828932505,0.467099074713515,0.315307623975643,0.540986994676005,0.717061966056924,0.145499840644747,0.319097059138297,0.343891555889499,-0.0132694341713406,0.478092236793069,0.245308620780369,0.307374227987986,0.106853046720809,0.248303281935605,0.508868423661144,0.16738321537181,0.266646460296812,0.147804352840412,0.0376729489516479,0.53255569319072,0.553149542268608,0.734294590963782,0.438814860744644,0.0934737926900349,0.271580159456854,0.135747941713253,0.261769757299628,0.585326505719058,0.391106979619432,0.272897528747108,0.352041154060502,0.538205912818532,0.246051505575031,0.314099642411197,0.69248347682962,0.599372283203098,0.222802664774754,0.200289656473379,-0.0516289013489168,0.453105060104742,0.371237327527995,0.600431548982341,0.548575044125947,0.247349458599574,0.47406820959594,0.312534670702636,0.528984667149759,0.512121507425421,-0.138872581899027,0.451243223021639,0.341587435840835,0.304686927491176,-0.0782373569004701
-0.0468215016958336,0.110519691283278,0.433948876458181,0.392665446828165,0.237217356267056,0.640104680491869,0.199203456667701,0.403688907289281,0.184288147755925,0.436766741627805,-0.0329124916823002,0.301444931230901,0.309974135969289,0.289340312634157,0.423566579679839,0.273587091663916,0.0715939687665561,0.0967762340099476,0.336607679537641,0.0637584210875564,0.506421798820277,0.0473265481342564,0.340701998699283,0.231766358133876,0.447437684303089,0.252673979031129,0.146700211418627,0.465857263370779,0.268781629777514,0.415224953852352,0.164502492798202,0.165514732889858,0.751314212021306,0.30940601469492,0.584817079289502,0.334148801791446,0.509832628467648,0.305037719467695,0.666431533242721,0.128905341226395,0.14781459226017,0.0969402147601488,0.0927344365777303,0.414592765921685,0.6119562792396,0.0321696354040022,0.108470625129389,0.723591307240497,0.56911932541971,0.214967143129398,0.401873757659108,0.417356394349823,-0.101161015070161,-0.0549611548922743,0.0685482547146633,0.354990082799301,0.14360111639517,0.11771737546055,-0.0802905697097117,0.32047731189946,0.235760437463559,0.0924872413434317,0.0156390154988181,0.132393075212546,0.315438816283461,0.340958806184373,0.544485741404584,0.0862353730528825,0.432886985640239,0.289917826494843,0.00421840306350923,0.490014638317554,0.411860516982979,0.46538192341729,0.116750296923901,0.570957002008063,0.284603753211417,0.108114339817458,0.420186449294252,0.252203219796096,-0.0251111680469663,0.231797208928305,0.634892955235233,0.343281378020509,0.680117805335687,0.0588930316876512,-0.11648436963359,-0.105968976799631,0.200940448254266,-0.0192653276793857,0.175230720338302,-0.178052207159011,0.0773879260650656,0.634036705860921,0.0810687587947917,0.0519603743074813,0.0877690443737019,-0.0205158930885024,0.267122012531336,0.244801310731162,0.294071319267332,-0.107704948206761,-0.0571931669328134,0.519096144692927,0.341388016008854,0.100274764256796,0.685005674542823,0.059805901921733,0.148024777659603,0.456557733672894,-0.0236566768149053,0.236585214430689,-0.16612487164682,0.263518780622061,0.107849738396942,0.367909465309571,0.34496978050157,0.396247418862569,0.205511409524103,0.0396274857224073,0.309262075220984,0.418228719450877,0.0915604813281053,0.272574183748012,0.0188299134480755,-0.00100215947840877,-0.148397321526946,0.412224785473137,0.575465885832971,-0.0264492206548463,-0.123485119579989,0.287541564459187,0.47049642015644,0.0942605405977497,0.604290409593094,0.357413502163403,0.197525389227144,0.314972047497968,-0.153769678580441,0.398875988464798,0.0800841524846654,0.00960184199617749,0.0352406549481688,0.499715272226316,0.676723793757423,0.503794139245698,0.352834440296841,0.562628363465048,0.740271273312094,0.144521753034848,0.317309169318052,0.33223664567045,0.0117563075881624,0.495429497623902,0.196393331106053,0.31751972012305,0.106149393808501,0.241556801472844,0.535167586595116,0.191738426849806,0.273232380946422,0.144399040247789,0.0776745549718913,0.514999981493143,0.559428200610923,0.739154877471641,0.459868255919289,0.111337774288108,0.268919601162529,0.195931271640369,0.278845219561057,0.582240567003662,0.408454774657297,0.278336582014609,0.346032769739141,0.529610702022627,0.281733566509007,0.343074283416845,0.697389417367726,0.620945077156333,0.262569949955272,0.22733129138047,-0.00998745785401714,0.48206130043208,0.38220339284934,0.606288381497437,0.560939037264965,0.296753361175022,0.486207662974906,0.352822487224366,0.542496090023489,0.492980456050336,-0.119936137435065,0.4503118265776,0.383465002432833,0.30603847079591,-0.0265141939647247
-0.0312788690890317,0.156606130732349,0.432088287005354,0.426264906627769,0.232509292370495,0.648647997051436,0.236550058655986,0.435718407176952,0.232128316992926,0.477012922297901,-0.000136483369829416,0.308536888592378,0.303248689947408,0.294350683213459,0.442618438826451,0.272341249727972,0.0598514013166091,0.115072857151597,0.319188901047972,0.048871080137908,0.49903448781797,0.075344403398015,0.354838312891066,0.234016029106499,0.485936116899361,0.279713410465987,0.148524250715154,0.508500414499191,0.295059296774483,0.390273075213022,0.169552512454633,0.195544102679821,0.773345496827695,0.305077340806382,0.601178733543834,0.382493038011373,0.499852217633759,0.337044604732951,0.658294390230189,0.131408215037481,0.207632876669506,0.118092584907067,0.123205043671497,0.466855783911384,0.631714860804169,0.0504294959909179,0.116023382751762,0.753172571931206,0.616933464876728,0.231233831514504,0.391316093531684,0.450058991101516,-0.0614545764274523,-0.0404488572862453,0.0944609648468725,0.38622592239264,0.105050210991131,0.12183302975608,-0.0509134206395867,0.374342838050517,0.236531935269431,0.118383378288644,0.0524136260911946,0.16825077616827,0.346668714619116,0.388652171234665,0.574904224773438,0.164097875363821,0.480201764957059,0.273222012755234,0.0765965128340734,0.489940970071275,0.433094433009894,0.484503821874722,0.135640211313999,0.607754970752938,0.295014961384808,0.0918469294481553,0.446355626631313,0.271319898321403,0.0147492643080845,0.265079991026652,0.636532584589978,0.405186766940131,0.715061313338153,0.0863602621596663,-0.0932952251578246,-0.0978939814309927,0.259781264440629,-0.0319429750954851,0.137040698153635,-0.167257718447549,0.117369384647312,0.66690560785766,0.0935403093245205,0.0529058939951488,0.0723072479455444,0.00783774062826086,0.283414790774611,0.221089735616138,0.293955586328088,-0.0946510086788519,-0.0253065438415074,0.511623609294133,0.356360812808386,0.133222974599106,0.686862374665796,0.107694640625165,0.166407943425724,0.47057485511199,-0.0125116333827558,0.22756426827886,-0.127842248965649,0.27178074487914,0.171232659814023,0.355708945767037,0.332521355481975,0.407032555220165,0.210024678837944,0.0534088189957048,0.299025725815946,0.420381068598744,0.127268246091144,0.317335138740139,0.0617220307178174,0.0100642125238556,-0.117306157447355,0.407060758991146,0.594826784749122,-0.0296263865112823,-0.0681562343952882,0.288466197721984,0.4741867855943,0.127536712054817,0.598502854685992,0.366190065507892,0.198170400881309,0.339594049758935,-0.115792010483748,0.435378145173657,0.102907075251672,0.0186303013688276,-0.0252907997360229,0.504968051880026,0.678709192732135,0.542570039920313,0.390453813345039,0.584668833031154,0.763250228929009,0.14168132246272,0.315712833174588,0.323294194512028,0.035660409395473,0.510644828491165,0.149483349358529,0.328102335677095,0.106096298355413,0.233554050979301,0.563504931840531,0.217243369768486,0.281607398762181,0.143258696453263,0.117831918315137,0.497994604926503,0.56774401054972,0.744590416484863,0.482266213126975,0.128567624219862,0.266391285875911,0.257428518332136,0.295997979454823,0.577090677819582,0.429143415088739,0.283591131470995,0.340597561025459,0.520938879512759,0.318831825252173,0.371845269134326,0.703093286773425,0.641658713880855,0.300415913603538,0.253058267112347,0.0335120046574332,0.512787132323926,0.393793536688808,0.611141451408912,0.573285523455484,0.34562574834545,0.499571506603391,0.392114604347319,0.55548210213052,0.475461638867135,-0.0996506906434594,0.44979920205357,0.426347109877086,0.308040592682811,0.0262774696885766
-0.0143304753494632,0.202055312712202,0.43092080089221,0.460512928014086,0.228151110449146,0.656892566448082,0.274618691798473,0.467524789270118,0.281012580903185,0.515197909077376,0.0312370288731308,0.316630226345012,0.297797450774577,0.297005577075179,0.461920432012224,0.273785322423405,0.0503853998885094,0.132929210394429,0.304024553023432,0.034605601586955,0.491989630926115,0.104872386524701,0.368213670832595,0.236373559487871,0.526184903488124,0.30440060859669,0.150285698817558,0.552887799125669,0.324064981438063,0.365450031631981,0.175682889777327,0.226324513454619,0.793804534009012,0.301128189463642,0.618882511658465,0.428175247115751,0.491844507743417,0.366425388955316,0.649312910844325,0.130351325073369,0.260629866010743,0.140290589129386,0.154304221898149,0.520726058368657,0.652702049100661,0.0698122141096965,0.124455262272005,0.784703824313715,0.665291621415542,0.246253335198858,0.382071293975705,0.482662892986986,-0.0214114783670637,-0.0245701834748295,0.119222639137624,0.416693972054678,0.0659743880377596,0.127120352563398,-0.0220152267622994,0.424983617181515,0.238459213445993,0.146268683238492,0.0899305913369669,0.2045358643745,0.379158902183257,0.437062345799156,0.606146857678011,0.242438338945002,0.529294724948311,0.256183370587705,0.148673528982871,0.490632297633915,0.45516385476749,0.503104125837902,0.15537802792363,0.642610903199037,0.30528101037445,0.0775230247680449,0.47262294493801,0.290856367630799,0.054904446721939,0.29620430226582,0.63802222332416,0.466008674240101,0.749382509635183,0.114043164305891,-0.0682731360128099,-0.0884184086585944,0.316443719309408,-0.0444957029505372,0.102006118791409,-0.156321389611829,0.157906980835485,0.699432843657144,0.105918764636514,0.053946807177115,0.0576628194017077,0.0360573863451336,0.299463050136528,0.199698729595506,0.29370040894679,-0.08115604593986,0.00740034732226807,0.503923478783758,0.372151069014476,0.167088906771145,0.686549568963975,0.155497724531503,0.185130086471904,0.482890618496406,-0.00128348330524162,0.218866904644432,-0.0866338438390986,0.278855182445567,0.233929578168871,0.344444177258491,0.319869485125798,0.417813297356551,0.216635139187894,0.0661975421533896,0.291620041419031,0.421060988447635,0.161362765504527,0.359852609209926,0.104861271329364,0.0223725871042165,-0.0842586772806148,0.402941854730862,0.61682223006019,-0.0306293353989397,-0.0115702146035174,0.291576009997534,0.47733534312255,0.163032242482093,0.594896277862213,0.376435110323135,0.198949696276425,0.363119534821811,-0.075367737030816,0.474119293538897,0.126357367435613,0.0288436287400964,-0.080209615401554,0.510673725660097,0.678015272681987,0.583481822060108,0.427215615318065,0.606261690612906,0.785521976816642,0.13657439767298,0.314613977641394,0.316234199998131,0.0586256667960595,0.523232444767552,0.105557568098959,0.338900995933079,0.106625580856501,0.224800843641688,0.593751864905969,0.243968505727809,0.291765774347184,0.144135675814606,0.157516235775596,0.480983352114548,0.578548626605557,0.750190862474483,0.505496132028504,0.14533491152837,0.264183729765166,0.319946326633328,0.31372090910693,0.569590921800137,0.452571560600494,0.288690779290379,0.336082021678536,0.512632805687753,0.357299434663908,0.400400097708004,0.708692544782925,0.661395783948192,0.335905430147181,0.277437297491356,0.0787713242100273,0.5451280134242,0.406321254887455,0.614957334538396,0.585422752504359,0.393251850049422,0.514327824822691,0.430406063670123,0.567606398870849,0.459228408691284,-0.0775699495918866,0.449883818068739,0.470208505603837,0.310865844370789,0.0805211955468294
0.0042773306795947,0.247500719008967,0.430312603086669,0.49463062224735,0.223337554740192,0.664422088942817,0.313196844769357,0.498888162298623,0.330656119625834,0.551676512759501,0.0608018197602385,0.325478047835574,0.293511759639634,0.297607043909576,0.481075094122997,0.278210539011434,0.0431126835753952,0.149695533138005,0.290595591079937,0.0214841896457651,0.485565310101445,0.135788426769869,0.381321000051714,0.239031048365586,0.568134527808932,0.326875963179342,0.15258412276282,0.598818830139323,0.356329357067603,0.341041597112046,0.182679952483298,0.257693954642863,0.81204183577293,0.29688115001826,0.637683117001949,0.471105374799301,0.486360786986647,0.392844403494379,0.638587985141483,0.125796652301286,0.305717387177596,0.16352953773051,0.186001341058991,0.576026707713213,0.675196608044563,0.0900938039837985,0.134409789042841,0.818285331721942,0.7140497744378,0.259695765362894,0.373302516848321,0.515283314668089,0.0185749727549447,-0.00658995027047179,0.142982621071355,0.446388657769688,0.0264917003462805,0.133553120111668,0.00701083120762343,0.472173244919753,0.242037355556552,0.176173637330626,0.128962756237758,0.241590888797612,0.41255258290098,0.485831223712584,0.63811444039736,0.32161713959319,0.579818387292338,0.238510105344288,0.22063470672907,0.491717155198317,0.47709589308387,0.520945117129286,0.175848279892556,0.674616585729543,0.315202752930955,0.0643715990888525,0.499496529386746,0.310018319809221,0.095073781300368,0.324803841726241,0.639319419777985,0.525770254946083,0.782811417763298,0.141193753396277,-0.041213033617162,-0.0771432341554235,0.370975648386638,-0.0559050061336774,0.070340392366699,-0.14526820800953,0.199096198129789,0.731296631910173,0.118419649877077,0.0547526172979002,0.0442646818257891,0.0641926023964932,0.315404228112014,0.180316352437619,0.293273668487741,-0.0668663919678445,0.0408829744962898,0.496707842021599,0.388631398407656,0.20165626075235,0.684539399693553,0.202841846938984,0.205039670766269,0.493199834386312,0.0103766538646695,0.210593469320655,-0.0426649487823037,0.28452180314426,0.296607217086231,0.333477899586066,0.307037472307987,0.428943804789239,0.224751302751484,0.0772339294079631,0.287110808832942,0.420687974373868,0.194032210405761,0.400147611273687,0.147746752297511,0.035542428719941,-0.0495703496603828,0.400568105138256,0.641979964169456,-0.0296668091616019,0.0466125764479265,0.296908609501119,0.480380670510929,0.201023849039734,0.593661602870346,0.387811375512596,0.199282362460186,0.385038024889428,-0.031814218132194,0.515268105110782,0.150330392346038,0.0396207257595461,-0.128148150135601,0.5164426940465,0.674760093998065,0.626680163866916,0.462218699928717,0.626516230150847,0.806815240348427,0.12903398934992,0.314044757435912,0.310453508804337,0.0810247294101261,0.532856352915614,0.0656418896294312,0.349699716349516,0.107784349470343,0.215820404156057,0.625852627591042,0.27188461912868,0.303884143246419,0.146757158184472,0.196099630912456,0.463330721759913,0.592362742817627,0.755555316933535,0.529128739153728,0.161647613400187,0.262185717109532,0.383495814171734,0.332477027468799,0.559492342969643,0.477982254703954,0.293787037524187,0.332475802657026,0.504953267056408,0.397053167247292,0.428723774539088,0.713348942152066,0.680340624028284,0.368662965537519,0.300520630989231,0.125487036427277,0.5789526540501,0.420022431356998,0.617866589813392,0.597355214775319,0.439181520217704,0.530761604543598,0.467910398080706,0.578827942256769,0.443667471302716,-0.0531962236609088,0.45051845236094,0.515280864696047,0.314508321546271,0.136648546476398
0.0246071393387346,0.293440800491542,0.429936286743755,0.528134161389038,0.217383652765228,0.670726439625749,0.351890525149748,0.529913093043932,0.380816330401453,0.586978052864847,0.0879620358051324,0.334832145940255,0.290157918757874,0.29632567242289,0.500016252752448,0.285772774286299,0.0377356204279525,0.164708060917302,0.278483383692844,0.00994867267230966,0.479992862983627,0.168150728897833,0.394835217954369,0.241973642267462,0.611824122906311,0.347575606553415,0.156042567815449,0.646014782979097,0.392198754813212,0.317370910272744,0.190276066514113,0.289127980736303,0.827830065704497,0.291843661606473,0.65743377387186,0.511409241716144,0.484138415337386,0.416018397595627,0.625334125145694,0.118174763981055,0.342368401930018,0.187821421023276,0.218817466240555,0.632609742298334,0.699626842361563,0.111030816408093,0.146443922784859,0.853878272509854,0.76318232957331,0.271256236497168,0.364504170746846,0.548246999681159,0.0579906463653471,0.0140819597840855,0.166210453748157,0.475003096548518,-0.0131175750775003,0.140865931843867,0.0367587140445378,0.515824324668945,0.247738913041036,0.208089866366127,0.170360681622742,0.27975285484534,0.4463544935735,0.534360302132499,0.671099724734115,0.402042987185627,0.631503373665797,0.219756507805334,0.29261114401539,0.492982314628422,0.498181487052776,0.538035743076312,0.196853108788149,0.703038819974095,0.324625293506133,0.0516257786542101,0.527259871288864,0.328328002260173,0.135352539434829,0.350852558277851,0.640420913258804,0.585078250316339,0.81496680152446,0.167038330300839,-0.0118034578406294,-0.0638486195809564,0.423467135927243,-0.0651836691811577,0.0419583965515953,-0.133825954283661,0.241053283171735,0.762666875246094,0.131122944022846,0.0550346734592655,0.0323897713549056,0.0923654545896773,0.331391363915115,0.162387173021047,0.29266225061585,-0.0513883604983017,0.0755697125427469,0.490554204755858,0.405608696149656,0.236807342358298,0.681250324620599,0.249522800225598,0.22699825288754,0.501237456527138,0.0231416773675052,0.202975275257781,0.00395513658516234,0.28875369422496,0.360016346424131,0.32245286587408,0.293902426809722,0.440689516915424,0.233558264382692,0.0861390910932474,0.285305660651361,0.41980896088361,0.225782202404923,0.438919292505991,0.190255609662056,0.0491065848023053,-0.013636841134484,0.400591738516566,0.671016598630673,-0.0267757138376182,0.106819295406424,0.304457499704078,0.483530934220461,0.24161577034002,0.594877086819088,0.399843982404585,0.198688453631667,0.404868198506631,0.0156399842863694,0.559039669885686,0.174672763344672,0.0501808716719088,-0.167970953586901,0.521718863328576,0.669574633673928,0.672516158744903,0.494611701163765,0.644572164550842,0.827306464376373,0.118992102719046,0.313716201474638,0.305598361951759,0.103418749717043,0.539293036774418,0.03046494190947,0.360240966532556,0.109717379685031,0.207031559624785,0.659998633573533,0.300857929848552,0.318465335284121,0.150816567005789,0.23303673706242,0.44429601362141,0.609766785507863,0.760287808724976,0.552937130662108,0.177420948150946,0.260028850386199,0.448341414311643,0.352844920239579,0.546513570272697,0.504619118164899,0.298879759544865,0.329411007581227,0.497637078966442,0.438075888113331,0.456997379734094,0.716545887247041,0.69896278540302,0.39862926649546,0.32245278982619,0.173272692779887,0.614058898597192,0.435013433719344,0.620101334967966,0.609114079527488,0.483183006892806,0.54919851776244,0.504965644176993,0.589386887788875,0.428113312244217,-0.0260376029679469,0.451231724994432,0.562148432100222,0.31880871826053,0.194958316540451
0.0465573619588081,0.340175077264896,0.429546725011241,0.560982231405357,0.209837980658855,0.675042401937767,0.389789257876121,0.560969669589944,0.431500923035538,0.62163929323536,0.112096728808354,0.344369690811772,0.287344023777659,0.293489573107815,0.518864745538317,0.29634845015452,0.033762602697074,0.177132190523544,0.267462657996125,0.000140520498517611,0.475335126614625,0.201959142238236,0.409250564542923,0.245273460568409,0.657157627114283,0.367417268819186,0.161491919575347,0.694043764337828,0.431717708605701,0.294505592907288,0.198186686044524,0.319894364799437,0.841442579780594,0.285870771901062,0.677904594450473,0.549595868896455,0.485562851531594,0.435654458694851,0.608660249883813,0.108104321281338,0.370643593854361,0.213447547860163,0.253475506792668,0.690135775992436,0.726504992408305,0.132078176591702,0.16103660966209,0.891144134701788,0.812524010616704,0.280551565082344,0.355613245315262,0.581910796444553,0.0963368044709301,0.0376239645627333,0.189508911825264,0.50209723430137,-0.0525631114298297,0.148799841702538,0.0677217101257954,0.555799463972535,0.255789676326526,0.242075711817157,0.214720181196114,0.31928462666992,0.479719741945962,0.581846063111415,0.705643149017559,0.484015214246421,0.684175731778615,0.199289194897786,0.364495049031628,0.494190380907821,0.517968617225033,0.554481385087928,0.218095996366444,0.727483295551147,0.333187215514316,0.0386441734373497,0.555855562474622,0.345692769369007,0.176080003369497,0.374692351498334,0.641300000059873,0.644736332378797,0.845388832098522,0.190823995503381,0.0202576739813122,-0.0483813882182837,0.474013993227615,-0.0714857973071666,0.0163331899507715,-0.121328789529875,0.28386997666801,0.794086842355477,0.144258614429732,0.0546205078509124,0.0221398110689939,0.120517809584048,0.347664489391133,0.145193336564185,0.291734535163986,-0.0343964479744214,0.112524589057933,0.485719826030678,0.422792943391495,0.272747910951657,0.67701949719501,0.295485520631237,0.251538406115072,0.506817930716685,0.0377644032551877,0.196503421572667,0.0531050782705494,0.29188673945194,0.424722238413915,0.311276561597605,0.280472146798256,0.453504020726357,0.242145176117641,0.0929788265979269,0.285543068631132,0.418849685370449,0.257369869327407,0.477453396732047,0.232436708375079,0.0627588588923545,0.0230876585514764,0.403520952305656,0.704459137879331,-0.0219553754862793,0.169342431273842,0.314135731382283,0.487021229578946,0.284686671349818,0.598190763765407,0.412097288646673,0.196883819360117,0.422238058739044,0.0676432823754618,0.605331143606012,0.19902596594021,0.0597551932199729,-0.198942337539145,0.526088772226471,0.663467770567671,0.721260446243276,0.523733322022144,0.659746255084346,0.84749608567228,0.106411857676226,0.313363544875304,0.301617138598347,0.126180343783623,0.542390404033129,0.000507084285653368,0.370165127725155,0.112562574674352,0.198707517048588,0.696345383163274,0.330747771903959,0.336012284254178,0.15588821393246,0.267862910681222,0.42301127507931,0.630977186480285,0.764097154829981,0.576518236823881,0.192576883720582,0.25734074908411,0.514639056625038,0.375297179991948,0.530531028352542,0.531765321027059,0.303893645974473,0.32652300881129,0.490079747524101,0.480396347511993,0.485625869955432,0.718167579714667,0.717886480585468,0.426164426062895,0.343399303666711,0.221670565039521,0.650029246409282,0.451105688988884,0.621861241512204,0.6204606192538,0.525503402899912,0.569983827054628,0.541965822251705,0.599576384753882,0.411906138226219,0.00434032037247846,0.451457699353341,0.611641556784835,0.323419354940417,0.255492235219467
0.06991363545262,0.388099722346187,0.429007636209533,0.593691390215015,0.200413726366767,0.676550334200527,0.425906479590958,0.592533789100201,0.483249450360012,0.656055158609449,0.132895697434328,0.353675135014866,0.284530862781304,0.289574515726958,0.537607387516642,0.309559197853551,0.0305842949089108,0.186125774795791,0.257441479634511,-0.00811684946376859,0.471519619762334,0.23696787122694,0.424653369194301,0.249154709200915,0.703832084174645,0.387335451196875,0.169714419467852,0.742485482412476,0.474830616478259,0.272200015513807,0.20603567123477,0.349473870080993,0.85356571928305,0.279203288511403,0.698772112304399,0.586513957448324,0.490665425630453,0.451473377553778,0.58752750823065,0.0960706849460761,0.39109884798187,0.240885194933624,0.290422216665133,0.748237157748349,0.75624745980995,0.152276446725587,0.178555158254457,0.92962989587293,0.861875623515743,0.286906292824755,0.346684095064316,0.616711370026482,0.133066882290733,0.0636845673845526,0.213385358599108,0.527604492226711,-0.0917966882923327,0.157197263258886,0.100204235605254,0.591833079799459,0.266097298684083,0.278271282223052,0.262273610462127,0.360334395956667,0.511626137788659,0.627547804293425,0.742355127737907,0.567844209349452,0.737799790731118,0.176157515284676,0.435966280635481,0.494809636970978,0.536114100878,0.570531859877576,0.238991229611082,0.748070962606116,0.34019792161948,0.0249608889636918,0.585222240535538,0.362338867795872,0.217396179691081,0.396797194480956,0.641972812356651,0.705444496371334,0.873819654069356,0.212011583535485,0.054849130607403,-0.0306576241571766,0.522668934919271,-0.0744172377206022,-0.00737868805934368,-0.106975019501128,0.327463662583278,0.826301078912904,0.158430157180612,0.0534268714469312,0.0133537836631765,0.148122227923583,0.364351893511126,0.127837633899999,0.290296862751478,-0.0157507192373747,0.153252627320348,0.482146533405072,0.4395278261584,0.309916292370804,0.672189785433541,0.340771602896187,0.278723589296609,0.510076034810016,0.0545311704121062,0.191805163714103,0.104645505659698,0.294538781896145,0.490952529206113,0.299907851272761,0.266769075001713,0.467874407368406,0.249687184849935,0.0980615337945817,0.28695814267733,0.417744069152686,0.28940824532623,0.517017985703052,0.274210778691953,0.0765721816061018,0.0600921838066309,0.409643122640946,0.742420073591728,-0.0154512109796049,0.234329468723703,0.325753033674062,0.491121832189649,0.329854833994003,0.602826266167374,0.424368763731838,0.193720936294103,0.436888600805841,0.124536091489482,0.653817436000259,0.222827177901264,0.0675188540607061,-0.220818752065064,0.529349517824895,0.657545987267507,0.772993611462094,0.54926446328509,0.671837370435601,0.867981733069226,0.0914062225154465,0.31280422449151,0.298695444937668,0.149178368672174,0.542250152802564,-0.023885434089745,0.378988297795568,0.116409740180978,0.191066721705035,0.734860179812999,0.361374240581302,0.356709789332308,0.1615867886769,0.300175967165588,0.39865649845549,0.655693568904402,0.766745788482317,0.598991438382773,0.207202900674919,0.253619984325649,0.582220424018214,0.399842569889778,0.511475952765979,0.55880620625118,0.308743564541397,0.323498419510881,0.481518540173155,0.523897431277003,0.515012611782862,0.718463293471141,0.737873666303061,0.451981627528825,0.363483336860264,0.270313195164326,0.686311954756513,0.467937988894389,0.623094117964807,0.630997271583266,0.566898242463125,0.593370379619312,0.579292581107759,0.609585435488329,0.394376910523461,0.0382708067413169,0.45074810952279,0.66461199190887,0.327718737487828,0.317965166303382
0.0944448976442225,0.437671927263126,0.428186989363183,0.627200049813349,0.188760613660585,0.674814142551707,0.459850101037089,0.624979681811328,0.537117609965541,0.690445093745451,0.150387139311882,0.362459046530369,0.281204445587512,0.284884932891984,0.556169114808112,0.325016741155052,0.0276572494247529,0.191320870100305,0.248290380869811,-0.0150782218672854,0.468389301669342,0.272971989353093,0.440897125417877,0.253577111951502,0.751630603320135,0.407645737160576,0.181121139053923,0.791156359172198,0.521451846268519,0.249912789612254,0.213411848165223,0.377806807065444,0.865178697701478,0.272137871947298,0.719774388219485,0.623168175279071,0.499401361220758,0.46328229853924,0.561149215257393,0.08229684198869,0.404693317996134,0.270607081938977,0.329881865741883,0.806750612938542,0.788987811586352,0.17037789235109,0.199225490778994,0.969133098372616,0.911264683462282,0.289539389577562,0.337540906380421,0.653157942066485,0.167545495564245,0.0915921944318561,0.238191512408715,0.552045276032448,-0.131009801949329,0.165917783803992,0.13426017876872,0.623871813052613,0.278366477661909,0.316780940073207,0.313097593459274,0.402971825306193,0.541281450249252,0.670956042582699,0.781655797000819,0.654008527958257,0.792496541396813,0.149149998470194,0.506677296093454,0.494196290263369,0.552319520417698,0.586596817615582,0.258601065775969,0.765429279026871,0.345059355497508,0.0102075815775401,0.615620917676138,0.378684658666944,0.259030596018783,0.41759105035617,0.642634002395045,0.767860214495109,0.900390953010641,0.230442997779694,0.091385693477422,-0.0109782608487938,0.569369452582805,-0.0740138657443223,-0.0298591568726537,-0.0899468052790142,0.371626842104087,0.860099939174378,0.174455287982711,0.0514203987328753,0.00552066769640557,0.17443390664861,0.381119736481049,0.10940918442367,0.288181206694956,0.0043519468329085,0.199225825267294,0.479584317439517,0.45498760143109,0.348686870493688,0.667182581296646,0.385691272777881,0.308311998638789,0.511488908269611,0.0729797427097153,0.189162682302461,0.158442808112471,0.29739304030326,0.55871939706582,0.28819197630097,0.2525560183552,0.483917401678019,0.255642647278074,0.101684680838305,0.288982752226317,0.416006467120494,0.32219053309043,0.558555450712542,0.315460575655228,0.0908403327701566,0.0969525918317737,0.419111198572492,0.784603761664372,-0.00780799789870572,0.301930487934651,0.339174914623306,0.495752896842737,0.376678437575986,0.608131051945484,0.436653915019736,0.188983311485413,0.448750572516934,0.186294104227885,0.704349633596453,0.245604204171524,0.0727608154861652,-0.233778027980341,0.531335791807399,0.652821620397836,0.827676729208976,0.571236057029873,0.681416133334137,0.889499030138914,0.0743805701069923,0.311596453373488,0.29711708937195,0.171879555819325,0.539350494239699,-0.0426471410525811,0.386183448298272,0.121200110769758,0.184305434422692,0.775458535762899,0.392544846762626,0.380554731389528,0.167896649756245,0.329747299677062,0.370717570151834,0.683321408236908,0.767986002266529,0.61923268060072,0.221539775029219,0.248083846206615,0.650683326486474,0.426158901112721,0.489215611325961,0.585379804099329,0.31352857155487,0.319749904863529,0.471132180228649,0.568457575722322,0.545527203331333,0.718011950892469,0.759912039919793,0.477011768170342,0.382873150248017,0.319006464367769,0.722535603745916,0.485395841658669,0.62359679955854,0.640553325780482,0.608432802951406,0.619408282748894,0.617235626710506,0.619494855168538,0.375106975379457,0.0758507823820969,0.448579523042016,0.721784013180839,0.331051119619382,0.381876953185808
0.119899135843714,0.489151926716411,0.426997304394901,0.662375868443353,0.17424186680133,0.670064914272999,0.492071098267481,0.658344992931518,0.594261645335119,0.72503619618593,0.164692496563908,0.370674180104791,0.277016542217383,0.279494511166233,0.574526511201165,0.342347675274059,0.0245405768247931,0.193019636653186,0.239574960826234,-0.0210352412075601,0.465718015274959,0.310038569804352,0.457903164567712,0.258131952988163,0.80063453421873,0.427989535827664,0.195642657217735,0.840100508470946,0.571425554251331,0.226956893269855,0.220039196176362,0.405139855942224,0.87726913285204,0.264768108304819,0.740659733062626,0.660507336130213,0.511648654743294,0.471195544422984,0.529272938194638,0.0668017891394572,0.412697954912006,0.302956188663966,0.371919049476942,0.865641239116183,0.824570769247749,0.185089398857801,0.222979392485635,1.00983321708741,0.961064613885106,0.287932397956089,0.32767058014884,0.691564812269861,0.199216811863441,0.120749146065794,0.263864292290227,0.57627367388117,-0.17043113852609,0.174826753309942,0.169758502765981,0.65238581739592,0.292252759371483,0.35767542501745,0.367269572366957,0.447125089761434,0.568340198039901,0.711888155903275,0.823589627442442,0.742982863068898,0.848373913947724,0.117196546207461,0.576399248452827,0.491729176706973,0.566318696267698,0.603058572319457,0.275868278445436,0.780659559811578,0.347556550967208,-0.00605483895347071,0.647434849246296,0.394940887607259,0.300569884043182,0.437445338183708,0.643547947468336,0.832652766079163,0.925557354913584,0.246253333542575,0.129210056310724,0.00994679923097816,0.614115428586109,-0.070687961020733,-0.0515000452793856,-0.0695361273836172,0.416236406499154,0.895899507997995,0.193046246778462,0.0484047574995054,-0.00213935622552454,0.198836521821546,0.397180663549257,0.0891190961211496,0.285346047005834,0.0255019441211424,0.251361142707392,0.477926462072534,0.468542263795092,0.389186657315699,0.662458404770036,0.430905729910091,0.339911411969687,0.511842381806454,0.0920769205823701,0.18826067464436,0.214412587983212,0.301078200749647,0.627941987973884,0.27595576255972,0.237512590788525,0.501394609843907,0.25967827787837,0.104176959395317,0.291525992147536,0.412997462830767,0.355628800765836,0.602725608605326,0.356118315995361,0.105694771318981,0.133400720054676,0.432178839738671,0.830572991000005,0.000312193158182197,0.372291325043546,0.354268781244221,0.500320457199727,0.42464889203719,0.614005899000723,0.449102769946626,0.182363185788094,0.457971027981188,0.252587173412614,0.757166506343753,0.267151318755728,0.0751344662126269,-0.238369246457699,0.531814007990928,0.650060664527808,0.885116462569716,0.590001129316841,0.689489978653155,0.912813725973176,0.0559933194584438,0.309036084824758,0.297076021184131,0.193765490799141,0.534485074672121,-0.0561347693951502,0.391248344663223,0.126679598189378,0.178507517238093,0.818041783533109,0.424310065112426,0.40746507388069,0.175078776766215,0.356458746303109,0.338920123532894,0.713180732872321,0.767531482126843,0.636397281646009,0.235836531907253,0.239989457963212,0.719439199636859,0.45384414965864,0.463735069077436,0.611269875520553,0.318522182353761,0.314506352252105,0.45831418795016,0.614302088051185,0.577608086231287,0.717620798701872,0.785008085622587,0.502143209797295,0.401659428574928,0.367583242050986,0.758726972878602,0.503649473367587,0.623209674179091,0.6493467156958,0.651101343414765,0.647928950076125,0.655853123223983,0.62916266693804,0.35404185935979,0.11697153741762,0.444388227081427,0.783626805864092,0.333077234968002,0.446753056336977
0.146019361468763,0.542578516398311,0.425206612991093,0.699523659376434,0.156146497625228,0.663158094219422,0.523645878594423,0.692358812801734,0.655507436656162,0.760210334111651,0.175824314871345,0.378320348679485,0.271743063050529,0.273341014763284,0.592519876342984,0.360997933647635,0.0208089802803182,0.191960243908153,0.230634105966479,-0.0263659532985568,0.463228363755113,0.348379266783305,0.475722506755687,0.262347150560276,0.851103984020567,0.447796832215413,0.212718905255303,0.889411284362664,0.624547848379236,0.202612295772424,0.225851315298229,0.431795029921048,0.890356705715969,0.257080152101633,0.761009886960738,0.699173926647253,0.527031022023449,0.475766248536248,0.492059552108041,0.0496988452825822,0.416524750253407,0.338163743851326,0.416236048444944,0.924928482460667,0.862635004924905,0.195367149248703,0.249351675052919,1.05206668310514,1.01185180821582,0.282005638650383,0.316357700108077,0.731828143914823,0.22778545385828,0.150996618498792,0.289838539994538,0.601168326286994,-0.210171171213692,0.183848245632214,0.206472467478103,0.67798385918431,0.307438220280047,0.401014207004243,0.424780719810732,0.492534587550695,0.59290547290579,0.750528136892663,0.867865840801625,0.834969913159594,0.905362018823289,0.0796626028849867,0.645063828673981,0.486666426149128,0.577765795953311,0.620048518025318,0.289828728670355,0.794968328428841,0.347603569149809,-0.0243092699147973,0.680851627307306,0.41087071651504,0.34186918032136,0.456633034465134,0.644757544922219,0.900414890632101,0.949925910408782,0.259642651926279,0.168039558033733,0.0314569494834038,0.657195500638809,-0.0653151421216872,-0.0724983481927142,-0.0454481156038357,0.461349774622675,0.933436271828593,0.214465497745792,0.0440623781334659,-0.0103860436353559,0.220851426103205,0.411603593738861,0.0662383274144282,0.281832747294798,0.0474234994378358,0.309849963867009,0.477253365089428,0.47973987630294,0.431195741869003,0.658372558061461,0.477084349245691,0.373100721137417,0.512114364997967,0.110738838034212,0.188314493941532,0.272523348992242,0.305989741398595,0.698421877757645,0.263064322320774,0.221545820099181,0.519975712883085,0.261441126271762,0.105909478009808,0.294769485561786,0.408131230403218,0.389289937428667,0.649914353238831,0.396050610201555,0.12102378179444,0.169332540764188,0.449053396230904,0.879880581088463,0.00834941049906639,0.44538594486874,0.370746242497717,0.50394689831212,0.473228473547448,0.620757839575484,0.461956342912399,0.173677587249431,0.464853573491654,0.322852350166396,0.812770710581085,0.287450614689865,0.0747059256428119,-0.235578800722539,0.530433712494916,0.649613196003832,0.944951410064515,0.606022290832257,0.696904352014194,0.938333875968893,0.0369706714172549,0.304436702371759,0.298443511564684,0.214722631116601,0.528574503844624,-0.0651292589637918,0.393826958774197,0.1324139493003,0.173707700795547,0.862323842360369,0.457001487031877,0.437243778415161,0.183369315325049,0.380178460885222,0.303118415311698,0.744604393738153,0.7650023968817,0.649952851346133,0.250281491835349,0.22900741878245,0.787710305745253,0.482577674452688,0.435184976693082,0.636268255370434,0.323974366662309,0.30720071609315,0.442832893180057,0.661879909953396,0.611692440705382,0.718019959475525,0.813779692572119,0.528057407571655,0.419585995886293,0.415746526759036,0.795097750924712,0.522853592378838,0.621890238574898,0.657912016653066,0.695386144071966,0.678504272071871,0.694886644616855,0.638096141520407,0.331245031530394,0.161533614919766,0.437788959411578,0.850082440800091,0.333715468157009,0.512301983652386
0.172687649305522,0.597863311359298,0.422133610173859,0.738165543101455,0.133853622782754,0.655398227855922,0.555642875841399,0.726533827355256,0.721102928076848,0.796432916072195,0.183736044565012,0.385454166664511,0.265377957806146,0.266300170607875,0.609988999367844,0.380321477596781,0.0161849225649662,0.189030897041199,0.221004196366815,-0.0313432116021394,0.460591049542372,0.388279996138714,0.494368468184379,0.265696048031406,0.90330560016355,0.46667220034263,0.231443266532672,0.939070561952853,0.680719120694453,0.176156098947381,0.230994821351167,0.458206319800728,0.904403801966518,0.248954108315238,0.78036116433271,0.739269549427505,0.544891718985595,0.477926219004179,0.449925201010784,0.031413250659795,0.417628043558347,0.376350484374278,0.46222945465035,0.984757717284538,0.902759653215104,0.200654404096219,0.277388714123267,1.09611058056044,1.06415911895123,0.272068235911473,0.302910751716931,0.77364220537286,0.253260027924341,0.182635170060602,0.315379128775241,0.627556866924439,-0.250241700545521,0.192979726923854,0.244120071755858,0.701124758617267,0.323706348224739,0.446820766378514,0.485477176791898,0.538936624816143,0.615471978224463,0.787321405179168,0.913999637762638,0.929946013589009,0.963266766202342,0.0364158432782872,0.712778923434907,0.47817433239068,0.586261713232053,0.637499768983697,0.299794605854919,0.80914222841911,0.345105058244294,-0.0449263930775331,0.716006878434571,0.426084126075486,0.383174417431897,0.475315647782924,0.646003811210853,0.971416880521375,0.974242901003464,0.270832160544548,0.208108700486478,0.0532209330874514,0.699110071044793,-0.0590150146876807,-0.0927295365942836,-0.0179571462685733,0.507086948270418,0.971880409839998,0.238531667495379,0.0383488588468848,-0.0197045018862868,0.240210608578162,0.42375251254852,0.0403082461180804,0.27782525413693,0.0700772025098512,0.374357877264176,0.477671037239241,0.488329808973723,0.474169249581916,0.655139560806792,0.524585709057906,0.407538748720513,0.513220442410399,0.128169641803432,0.188338046740788,0.332800465008517,0.312209302955803,0.769794471394154,0.249391836003576,0.204674851267246,0.539502692913103,0.260822137855513,0.107048704488977,0.298961972551192,0.401131460792787,0.422694660643847,0.700247487991245,0.435263129601038,0.136611973529365,0.204917403893223,0.469530855074147,0.932126095484444,0.0159726472189924,0.521114122439959,0.388181187016482,0.50580574600065,0.522188887641685,0.628948388521088,0.475316873807136,0.163012997556405,0.469773001165683,0.396370188893192,0.871710720830142,0.306579733238429,0.0720240717336917,-0.226762186930367,0.526858596888736,0.651378431398695,1.00682820543872,0.619719286522091,0.704230748432038,0.965944513693849,0.0179223452227234,0.297168912559295,0.300816250832031,0.235078127660981,0.522548803110809,-0.0706503388692621,0.393934000245933,0.137624322277658,0.169910988182046,0.907766616220577,0.491006360174971,0.469727804639263,0.192913384885171,0.40091383885243,0.263437714031055,0.777096578610247,0.759980498171801,0.65952553719156,0.265010547746623,0.215278429761702,0.854726562522278,0.512394065292034,0.403806651922142,0.660049639744407,0.330074988109114,0.297540780543153,0.424691024487402,0.711551329894368,0.647980771685095,0.719503674195363,0.846252440881124,0.555182316826898,0.436340449933527,0.463135894438116,0.831860027729473,0.543001179837261,0.619736091260862,0.666959700423739,0.741296063249878,0.710586589991,0.733834356565542,0.645511680352265,0.30665762370702,0.209446009329542,0.428476683756004,0.920451024456166,0.332961944058372,0.578504533692825
0.199883213823507,0.654901522811614,0.416763118826276,0.777315895220029,0.106730163931409,0.64823173805653,0.58866829226687,0.760219206906184,0.790779768265498,0.834080937323403,0.188330181979585,0.392307899016054,0.258326122291163,0.258202498536833,0.626977038998053,0.399939884763694,0.0109392460983454,0.185164485778263,0.210580964261526,-0.0357653935072081,0.457255901897003,0.430216741926211,0.513654551733306,0.267521107796801,0.957427959281195,0.48436575742597,0.250894074032071,0.989084524479021,0.740125590032424,0.147102060233439,0.235665082164243,0.484929004385788,0.919090263014017,0.240124855489803,0.798508625870266,0.780374143302389,0.564628383534051,0.478668273820465,0.403512759993822,0.0125399913631521,0.417445897644672,0.417485711924459,0.509390847463545,1.04548311209829,0.944813963993789,0.201141045719954,0.305790068565295,1.14221227612163,1.11847412613766,0.258607580785325,0.286974032547178,0.816789990988459,0.275847199021525,0.215896433889657,0.34018960170558,0.656170337598517,-0.290826095367556,0.202242251591909,0.282443461805935,0.722062664975992,0.341105364008264,0.494870096494198,0.549021648436498,0.58604217910568,0.636784129634481,0.822786735467682,0.96145120621501,1.02791369282063,1.02194913130249,-0.0124025178438685,0.779986749475845,0.465485993315236,0.591548822168565,0.65538945746702,0.305423966353097,0.823445713783716,0.340160640289561,-0.0680421749139541,0.753276721821671,0.440462884784854,0.424829922877008,0.493617728535533,0.646772015999878,1.04537149274424,0.999292425300455,0.280227406836966,0.250007477514047,0.0749874195081705,0.740166996796427,-0.0526615870656219,-0.111804761073445,0.0122157960506467,0.553537728761044,1.010306704826,0.264921808602883,0.0317650060287714,-0.0302968317452816,0.256954131873453,0.433507036121746,0.0114744620957967,0.27367294510054,0.0933847445189444,0.44427278597293,0.479578431934122,0.494487158962204,0.517460027150551,0.652873268170351,0.573669415544741,0.443052076425272,0.515864329464273,0.14382137811905,0.187313175504395,0.395415588122016,0.31965584086638,0.841522888690859,0.234939656007678,0.186880423443336,0.559998195996513,0.258192771602259,0.107569535124525,0.304496226364667,0.392012228244238,0.455523172109765,0.753658621523738,0.474303226680754,0.152142541973982,0.2405888470787,0.493005671383029,0.987269475009931,0.023042837351723,0.599549913225951,0.406198237035061,0.505329862515279,0.571731117206862,0.639458953641767,0.489182367146034,0.150793920528098,0.473077164342961,0.472328224912362,0.93447009241424,0.324788590510496,0.0682401958594538,-0.213391024128836,0.520948723455159,0.654713033562821,1.07066726005745,0.631427610366235,0.711818489170407,0.995141329502426,-0.000871704855804337,0.28670771261782,0.303830226519303,0.25546286386577,0.517302312558526,-0.0737244584131345,0.391939096389722,0.141313940542179,0.167012125863365,0.954055009566156,0.526464443234976,0.505042197816562,0.204032573884343,0.419053566233698,0.220443298662596,0.810535497129054,0.752247057607686,0.664918556658689,0.280183408241552,0.199304380349343,0.920040996657218,0.543833010449549,0.369676727032047,0.682061392357808,0.337074778929884,0.285438567243986,0.403902598041174,0.763714341695721,0.68636354055206,0.721936973356745,0.882141147747091,0.583664209593633,0.45181263713995,0.509575203861792,0.869464878340067,0.564016072524621,0.616835216403148,0.677158618845349,0.788594072119787,0.743830563471263,0.772108308417014,0.650584584140283,0.280183215146856,0.260368788358981,0.416136172813094,0.993624345862096,0.330935710246808,0.645760567827143
0.227494257292257,0.713582837221845,0.408391039402922,0.815985152889629,0.0742702319906804,0.642730104654461,0.622815715795169,0.792855989859031,0.863866776396947,0.87326700334078,0.189448974028519,0.399250375507354,0.251196902757344,0.24884396520192,0.643462082689069,0.419905626144067,0.00590195030884604,0.181309981073235,0.199482444144796,-0.0388903388658631,0.45246453387356,0.474830597736528,0.533250122007936,0.267443300793076,1.01362340489466,0.500669678567021,0.270485959948834,1.0397380252794,0.803080015584022,0.115483534168339,0.239775223115231,0.512472882420097,0.934090408448576,0.230421205289095,0.815680952548025,0.821953391867716,0.585984849630103,0.478854100409788,0.35356988166311,-0.00650978163250686,0.417106743429409,0.461590914450557,0.557602300046441,1.10751872519214,0.989144100368538,0.197997019245546,0.333477165004282,1.19057293738688,1.1752755556152,0.242154802776533,0.268786800092033,0.861137712882569,0.295803159326944,0.250645864754989,0.364580035223012,0.687475571151905,-0.332340448892626,0.211585136917325,0.321087321985631,0.740864093031634,0.35992376206391,0.544471808831158,0.614702169771308,0.633590343686564,0.657762254732436,0.857385809888194,1.00970782238886,1.12891038737682,1.08134216742308,-0.0664921769275215,0.847386992634493,0.448213311520944,0.593790796768277,0.673798451368652,0.30670098914658,0.837882349231142,0.333245148835209,-0.0935820745465824,0.793228122754462,0.454150722433881,0.4669811124927,0.51166938116961,0.646483347091111,1.12156756672532,1.025650706907,0.28851231623641,0.294225137068729,0.0964449662001654,0.780131905038933,-0.0464944732751909,-0.12939488871826,0.0442464526471103,0.600624515350757,1.04822880837619,0.29323221966076,0.0251403311950135,-0.0421389463302466,0.27123705033096,0.44123143654346,-0.0194576815050614,0.269844179633398,0.116950006325594,0.518751018985266,0.483496949114048,0.498797028630968,0.560400393835633,0.651606240326281,0.624656034863241,0.47966912805643,0.520340401685138,0.157457562118657,0.184329308359678,0.46079686858789,0.328330650125759,0.913029117238682,0.22000344142191,0.168261312274207,0.581564198254936,0.254104415861168,0.107386106992551,0.312039150389893,0.380628232935692,0.487639797872271,0.809827702203653,0.514205231028402,0.167122770908721,0.276835135030184,0.518502438206794,1.04572146163106,0.0296269542275701,0.680795387175295,0.424604081124852,0.50224395469561,0.622266563145482,0.653308824470008,0.503552012343002,0.137627771192333,0.475070546846653,0.54982604625355,1.00135667507569,0.342538448340409,0.0648833517287028,-0.196812218439763,0.512715157260703,0.658546552875355,1.13667936572894,0.641374018646704,0.719852706123827,1.02526110955305,-0.0195748967404675,0.27295609934809,0.30736274597297,0.276721646299977,0.513362757638867,-0.0753310690901028,0.388342749252554,0.142726486808962,0.164854498367988,1.001477058372,0.563189154376225,0.543557882581115,0.217435632580126,0.435373049890587,0.175015792739474,0.845101169052167,0.742054951036709,0.666159768076737,0.295930283081948,0.181747969465789,0.983587157385961,0.577670945489081,0.332745273576151,0.701802769233548,0.34505945393063,0.271083910063266,0.38057015446792,0.818925140841007,0.726585795136689,0.725087099346705,0.921236457651781,0.61349846636835,0.465920179743884,0.555321904082352,0.908668965924151,0.585937580040562,0.613116829367245,0.688994762086751,0.836965784393423,0.778036830871597,0.809358599198817,0.653010299314676,0.251962079892471,0.313619925422186,0.400713907490632,1.06842121340531,0.328032777669289,0.714690444487232
0.255306087460126,0.773710748767993,0.397145465976529,0.853476818265018,0.0363632158760826,0.63936826613841,0.657825581498969,0.824277171960176,0.939364369529659,0.91382309834384,0.187064004715543,0.406848718883201,0.244398832817492,0.238013990620799,0.65922281057395,0.440488813169723,0.00203141172951672,0.178310234600343,0.187789130146272,-0.0399423122203243,0.445643092031558,0.522517315346245,0.552896039596985,0.26558018660748,1.07195500523654,0.515532511419315,0.289940000619832,1.09136707969177,0.869665479194729,0.0817460936583677,0.242971053982791,0.54125027857973,0.949101087593833,0.219875147660266,0.832499227181322,0.863565329877526,0.608806670562155,0.479076690597528,0.300887893408113,-0.0258155558769309,0.417223367037841,0.508929810122495,0.607039603888545,1.17107677733543,1.03622511654658,0.193109794707831,0.35998486685156,1.24109309806001,1.23480541043867,0.223193017172421,0.249088528173832,0.906649213691233,0.313483180675295,0.286793479245739,0.388879240455109,0.721629886371077,-0.374964378214041,0.22076236434054,0.359712795492953,0.757692980880512,0.380207403880137,0.594577456849186,0.681525447226005,0.681516763137498,0.67931421682637,0.891507002201984,1.05838517354546,1.23273987748684,1.14144026294241,-0.125172120811421,0.915499543167649,0.426713129423828,0.593729400466393,0.692763394195258,0.30406318373502,0.852377998093101,0.32508697200312,-0.121236109862499,0.836224724170024,0.467367141369741,0.509626583405247,0.529476270718698,0.644763386991972,1.19913354459481,1.05353007096082,0.296467130840197,0.340893347957193,0.117320790645691,0.818576213673512,-0.0401537719368436,-0.14545085373306,0.0775306260987238,0.648089517535336,1.08557977603105,0.322880398756369,0.0190185402171876,-0.0550328348189329,0.283271609805924,0.447434882816593,-0.0513193706586002,0.266917048272383,0.140131221427368,0.596734850977683,0.489502275029811,0.501892946889555,0.602287317451341,0.651244713014923,0.677697314150741,0.517558759217147,0.526449152194804,0.169270424798372,0.178792299915705,0.529483852331741,0.338480226283624,0.98384855973554,0.205063196480089,0.148967260486906,0.604116755278749,0.249028386516397,0.106336537869917,0.322258606211856,0.366656152191661,0.519132321365419,0.86815016262484,0.555877691401061,0.181152517161611,0.314087580277125,0.544679214842986,1.10782587039604,0.0360404812736298,0.76460328648437,0.443542040449248,0.496559196877386,0.674210308509597,0.671098658189808,0.51847065996215,0.124057883974652,0.476175895722115,0.628021060238221,1.07238659621549,0.360309502985153,0.0632979039972555,-0.178133632481661,0.502276032476066,0.661923460464222,1.20515881689353,0.649935035463138,0.728545791171498,1.05569223065215,-0.0384695710289819,0.256206963810493,0.311405486131068,0.299597893707077,0.510607092059445,-0.0762957567187299,0.383859879431178,0.141690552225607,0.163400372064651,1.05047757091721,0.600767059557247,0.585391619655864,0.233774303481899,0.45089626491967,0.127924049425825,0.880974365067949,0.730192196931916,0.663802963954417,0.312375145217837,0.163102112431146,1.04558033128884,0.614397670724023,0.293139233030338,0.719428143075888,0.353652080979355,0.254759671416609,0.355002062905776,0.877492091860108,0.768222692701109,0.728928218272211,0.963236221355388,0.64462148335867,0.478647610254904,0.601064295228072,0.950125259390074,0.608978612963651,0.608617807861233,0.702778592100893,0.886211016465392,0.812787642177182,0.845634303273,0.653191645395611,0.222533683179167,0.368555220255207,0.382555295292701,1.14375675635466,0.32498589496165,0.785651374233523
0.283089432438833,0.835083242199144,0.383938390435112,0.889565556462733,-0.00679251133059114,0.63822132970876,0.693374236834661,0.854649231022207,1.01609948348971,0.955438122889958,0.181413057856337,0.415668786494665,0.2380387590179,0.225634623811584,0.674177159688956,0.461923074970298,-0.00013709868191372,0.176565086264691,0.175461018964836,-0.0386395348971571,0.436799835904893,0.572944815865357,0.57245791180379,0.262410749098041,1.13221070595166,0.529247836345996,0.309143522318627,1.14403628306966,0.939585103949142,0.0465091630937276,0.245032172522327,0.571543201338783,0.963922765246642,0.208634276512119,0.849688849532401,0.904819508201173,0.632750209148956,0.479574284427913,0.246320221443515,-0.0458146248397803,0.417936992745752,0.559660794335507,0.657740282916066,1.23618820924779,1.08619819600413,0.188336365746411,0.385246378842106,1.29333002797688,1.29689187883105,0.201960314140342,0.228675559338974,0.953313385154342,0.329545240412249,0.32445361538801,0.413083032143386,0.758534673894418,-0.4183552607822,0.22949745748259,0.398182427730181,0.772957794725993,0.401487361385189,0.644143241563832,0.74847548504778,0.729857509927749,0.702046732199099,0.92549958889524,1.10738568087305,1.33889249492414,1.2023347353967,-0.187364416386197,0.984415541821386,0.401968975159947,0.592339100974633,0.712070135672535,0.298430342257121,0.866835144346531,0.316437120023746,-0.150493639138059,0.882060354790985,0.480336671132929,0.552694155495767,0.546946192554648,0.641581380023155,1.27726093450697,1.08270396553099,0.304735704612464,0.390040339849141,0.137267172624386,0.855475276024927,-0.0330715106898721,-0.160141073683288,0.111634838276297,0.695799737672439,1.12236045276753,0.353136184496576,0.013399021479177,-0.0686081112689647,0.293605818742476,0.452592611116103,-0.0829929790701282,0.265389095499114,0.16224168968841,0.677248937865914,0.497114174474591,0.504236648085008,0.642482166002579,0.651658736335237,0.732687004910396,0.556892336091271,0.533775868213895,0.17984023288236,0.170468612679818,0.601703869070214,0.350493460139291,1.0536867907857,0.190436820433877,0.12913723408394,0.62727325489295,0.243460975136119,0.104278229605718,0.335298754282794,0.350021155140711,0.55019340488216,0.927981221291035,0.5994980279079,0.194227531408201,0.352707713979818,0.570100619346856,1.17344632708478,0.0427379539096599,0.850316166088407,0.463335497268555,0.48862813858907,0.727914914520996,0.692648189836065,0.533947564754326,0.110622932613961,0.477082128974978,0.70624919924373,1.14724637256998,0.378383663475946,0.0641020896075094,-0.1582336284093,0.489951983633399,0.66453079278268,1.27625720159991,0.657793351649863,0.738188580573672,1.08612547978011,-0.0577429064375528,0.236917136916789,0.315811558778053,0.324369595429786,0.508475602121549,-0.0770878049448106,0.379426476444439,0.138665605629963,0.162707217397211,1.10101262081177,0.638764972153257,0.629929743820436,0.252878796292809,0.466711541393229,0.0796579353433924,0.918175784979474,0.717691050879483,0.659083463974506,0.32979665741318,0.143628551016892,1.10647261428303,0.653937135502522,0.251200511927371,0.735820672382444,0.362266291441761,0.236679328425782,0.327724719096488,0.939226658115694,0.810649852686119,0.733593503196295,1.00744121653757,0.676803592676152,0.490177796999697,0.647517051736984,0.993984484265885,0.633381010005254,0.603588926376949,0.718680839199792,0.93625379745334,0.847288731843257,0.881266348731128,0.651935367113103,0.192832236107589,0.424813884335239,0.362349513054288,1.2187328955187,0.322750036137349,0.858637489975467
