-0.284800744885121,-0.348456306073121,0.54114550790748,0.420374388746056,0.321453123757021,0.548212311003026,-0.290382586029419,0.347761344377538,-0.165620282654649,0.116961180631763,-0.281248583714723,0.33500580356792,0.395738836505227,0.0414403877028059,0.635345715025959,0.338819579467185,0.189260925466406,-0.135541552918469,0.617964522495034,0.203888356444743,0.821843670462343,-0.155657935758109,0.264065598780932,0.0800763516319113,0.109210344960315,-0.098391734969294,0.212681946407205,0.0906208706298904,0.0960388731848669,0.676136239697377,0.1365585012589,-0.15948345131999,0.903972596892419,0.479496048323299,0.642307202177948,0.0757607742094141,0.970120385595346,-0.163485949342996,0.813532049999807,-0.0699635510614163,-0.368973413344246,-0.0128489953324919,-0.10654880198164,-0.02412389514729,0.755568693976903,-0.118136185818936,0.289328330028499,0.645652829476789,0.19038696416979,0.03851583971841,0.755426079046021,0.377004201496211,-0.578094989795607,-0.234207642479854,-0.258822844205332,-0.0061247338806866,0.62258268902325,0.106840050798974,-0.420754954983831,-0.219932917558584,0.266163842363936,0.0192763642062831,-0.397430690970634,-0.142454202223664,0.0762916638013721,-0.228526828516811,0.532755201622533,-0.60939242031337,0.189434674401475,0.400413987257435,-0.832885550197534,0.689025427353649,0.53683716402816,0.376186916554937,0.0246350210392893,0.180533450646283,0.0438130031058875,0.430025872424113,0.222337907718127,0.313780928438321,-0.303353776864703,-0.0302927467998386,0.858816384870315,0.256840743230998,0.373803067083308,-0.195103200133904,-0.348063979059201,-0.187044606173325,-0.344583393415223,0.191790363464227,0.643957733896224,-0.0765456771041209,-0.18867580967383,0.72699077971952,0.106840230198989,-0.000964848987497653,0.175774576516966,-0.518772646965236,-0.00483585312942501,0.599219751260717,0.401000969311273,-0.265216385685597,-0.319424306141653,0.632596215595148,0.226451419071946,0.0597806342306892,0.632484980828106,-0.508361100141647,-0.154231442068638,0.235269038230924,0.00807042724127704,0.401839153709501,-0.452761053271162,0.306998266931138,-0.500743851436401,0.922269359397779,0.354410742861225,0.340625835604467,0.198264556350006,-0.207286504454893,0.446743402592156,0.370352149730712,-0.354023386386907,0.0313647854245719,-0.318776209540964,0.00596469536519286,-0.417703883088367,0.653331925730376,0.601122132644327,0.115578525456752,-0.637885930637746,0.448288218537671,0.41166020515737,-0.12991827100342,0.757335369554291,0.508413075578911,0.299306423728753,-0.0412317138996239,-0.404815896496754,0.181943199252841,-0.234280053297675,-0.056291516410727,0.914801179427946,0.461793251562171,0.946643522663731,0.317668611285716,0.0267522267422617,0.62701087238891,0.820520635252673,0.178954497870048,0.257114571480851,0.769306328596385,-0.288642425946328,0.207195254650093,0.954970207364993,0.40853540455611,0.117389960949741,0.249914503747099,0.509411398333492,-0.0959617456774955,0.364867140584361,0.323544664395341,-0.267431819552299,0.714477585484514,0.532310325271656,0.845564522610594,0.324779155221265,-0.000429712456546503,0.142676033879312,-0.304888576127975,0.126963303271641,0.591480320626091,0.72713496353914,0.444628146462118,0.30122953664138,0.666777982634771,0.0660821114763063,0.267228075829013,1.20027093391472,0.662748498714545,-0.0949894372228502,0.0375311860495029,-0.415770622394048,0.33526623551561,0.250970074943046,0.77837598513632,0.441805211226076,-0.00616622219254331,0.603215371623912,0.0364123889425694,0.635678347832723,0.815832105698518,-0.239072373814219,0.412327102383336,0.304628222789208,0.314589613349031,-0.570774229317762
-0.26342328883011,-0.297495533061419,0.542121752653767,0.443386817053556,0.324543998396763,0.566630328942856,-0.24532312407438,0.370117855095239,-0.118889047178964,0.154701697247926,-0.252996742100717,0.34678734490784,0.395186516402321,0.0646137792800335,0.637897385346263,0.345324380663684,0.179451994197122,-0.11652697577362,0.605113404735055,0.19462974549934,0.81069742067095,-0.132283400865182,0.287014688939875,0.0946756015507536,0.158955271757845,-0.0573370307636721,0.214259037622128,0.137312638340615,0.119252750115763,0.656909776646849,0.141495635538174,-0.127176804007246,0.921729668713343,0.472938387952865,0.661971966999005,0.116903746005417,0.949991123076416,-0.117210980742234,0.812903697261324,-0.0463373923870554,-0.324014167358764,0.00643421927090816,-0.0770531124330325,0.0334460273493902,0.772826639650689,-0.104328532050636,0.29268125053354,0.680307349013372,0.245289978907047,0.0641483982266862,0.737783925051539,0.40244990961018,-0.543252496472875,-0.216367961896392,-0.225226586937024,0.0377025780958249,0.578418810937647,0.115962627941062,-0.390476670453552,-0.152657697745899,0.273092440818529,0.0392581056365908,-0.347186332087296,-0.102255877375629,0.107051417148975,-0.171256146977229,0.560777935821262,-0.533521787246679,0.231680812929156,0.387417866808187,-0.752419189355427,0.686889602372967,0.542234342912513,0.396198321155697,0.0384545493651052,0.22658672968239,0.0696951516881102,0.396935899555588,0.257357884805173,0.317513917930824,-0.270058733011255,0.00336958872921954,0.856696195779002,0.293424164390615,0.424184559238962,-0.167334777397407,-0.327739156110115,-0.176007459614737,-0.276511419310333,0.178257068879438,0.606091185061655,-0.0794664959843951,-0.150532194395102,0.750793088042303,0.112129631361254,0.00360898932626803,0.167230400507654,-0.478796663800703,0.0161755244157524,0.574104062174039,0.398277092863707,-0.251562532688028,-0.289767142464871,0.633030018071207,0.24583459593406,0.072220655817441,0.652784549277032,-0.452878931828163,-0.121064825911245,0.257841356967184,0.0105447132934907,0.392831861744987,-0.422388048243833,0.316733454399361,-0.432985899150159,0.883919287277685,0.35380817462435,0.359321318656058,0.203436600977194,-0.187969719449127,0.436654170644476,0.387043508923778,-0.314859555600858,0.0700824917107897,-0.283437107349577,0.00418305031453153,-0.395066674158388,0.64464638395691,0.619819125997669,0.103982180737015,-0.581585284188366,0.446837941660001,0.430027349276631,-0.101610286277842,0.763309261380942,0.510776575530332,0.297365366047806,-0.00266749640724284,-0.374303256907496,0.220933178837634,-0.20377361131884,-0.0469814605983028,0.838461589417804,0.469892381800048,0.950892839568375,0.359127957181815,0.0618602084938972,0.63954168518827,0.84989920669378,0.174708827847706,0.263808120868647,0.74566967539214,-0.26127474395515,0.240276002709853,0.894515348134089,0.410404350838077,0.121321135495611,0.253016497037908,0.539869701271206,-0.0577315645824529,0.373086761614951,0.313219459530113,-0.228502159307674,0.696677173729439,0.551694789681435,0.865571414617944,0.351468437015739,0.0178830091414237,0.152961895730501,-0.246200366515847,0.152729460514917,0.602054679057947,0.718259000054876,0.442228398031917,0.304700658333788,0.672681697431331,0.100128548690043,0.293323089162783,1.18462200863235,0.686165436952739,-0.0515614947845053,0.0742465047355475,-0.3723591638754,0.366401097872725,0.274875205329058,0.794012437666936,0.465795081581289,0.0383896993933448,0.613685509426215,0.0855718775965745,0.653378395388527,0.802083118257326,-0.224693222029805,0.423169640493653,0.340295625270447,0.321524314706849,-0.511230726234778
-0.242072072502196,-0.246531468224495,0.543119774870618,0.466458380087285,0.327642889799407,0.584993550548808,-0.200267339778295,0.392490993000036,-0.0721183688266919,0.192408036442902,-0.224722864149377,0.358582906873131,0.394594641016714,0.0877414757080814,0.640483439929729,0.351816191994841,0.16965128385465,-0.0974345776893653,0.592292942166194,0.185412367243091,0.799572720800088,-0.108889284267044,0.309909134078825,0.109210759014201,0.208628827560624,-0.0162927307094768,0.215773614328506,0.184054573570155,0.142420300573167,0.637675636658919,0.146459145920012,-0.0948527551435834,0.939528996452467,0.46639037668879,0.681702696818602,0.15809254036542,0.929863617120277,-0.0709917151672947,0.812268578978235,-0.0227511138794467,-0.279005342235912,0.0257420173685045,-0.0475442577520976,0.0909802241140191,0.790104615261206,-0.0905039909512999,0.296120386322549,0.714965291669575,0.300182785718093,0.0897758705619966,0.720111969982596,0.427859914520072,-0.508443325632866,-0.198546692154372,-0.191625453238926,0.0815346818714607,0.534220272748324,0.125074192442727,-0.360213370770265,-0.0853864806237153,0.280092511858206,0.0592617811779452,-0.296970253494293,-0.0619891318843037,0.137847120034732,-0.113990915187837,0.58883736968566,-0.457592432804531,0.273938839542143,0.374362908666012,-0.671950847002204,0.684821941682552,0.54771504046557,0.416214528065371,0.0522461346751877,0.272601440336729,0.0955291034899291,0.363880329131792,0.292433759430588,0.321281303073043,-0.236740634136536,0.0370754955954835,0.854564281914497,0.330081740102268,0.474523994945718,-0.139601738058335,-0.307402548421232,-0.164979322004784,-0.208473956425601,0.16477963355589,0.568249431064809,-0.0823272427111379,-0.112445311847579,0.774642936218329,0.117377007159025,0.00817803938996116,0.158673469130785,-0.438802413091544,0.0371536166837863,0.549014054449619,0.395573542933741,-0.237934512050321,-0.260055243739374,0.633487625892589,0.26522692933189,0.0846756260602996,0.673048645487601,-0.397399345052466,-0.0879389072318127,0.280323869797637,0.0130131556506079,0.383826843896437,-0.392001454553456,0.326412999374689,-0.365187515936615,0.84561968925697,0.353175628606577,0.377954213380891,0.208595124228342,-0.168693208869693,0.426538726583236,0.403652423253929,-0.275682167628816,0.108852784933286,-0.248119230098698,0.00242198520811176,-0.372338661401103,0.635973670436553,0.638551237619704,0.0923807709421131,-0.525234345716879,0.445354412699032,0.44833761791299,-0.0732570797182859,0.769222714513573,0.513153059205739,0.295420080484633,0.0358696156752849,-0.343734865861208,0.259930040106751,-0.173308560414487,-0.0377200287102154,0.762164118280898,0.477965960819726,0.955157341254741,0.400621156643674,0.0968610704827075,0.652167633378338,0.879248643535645,0.170431394286378,0.270476626647109,0.722001871134352,-0.233935735205007,0.273313315713957,0.834063830771003,0.412345640019371,0.125236396151668,0.256046374154863,0.570349918787686,-0.019559736242902,0.381333811756006,0.302901175691481,-0.189536442531576,0.67889147100618,0.57107617132408,0.885539252960336,0.378157767891043,0.0361966061623397,0.163212516605693,-0.187452808540663,0.178507326956254,0.612605623306185,0.709444698069847,0.439821401358989,0.308120482081177,0.678553962758077,0.134212714216701,0.319451688588311,1.16904174305976,0.709583730374664,-0.00815709177024393,0.111019534178222,-0.328926876277259,0.397513575845726,0.298716898441309,0.809661469294441,0.489758526515696,0.0829263731869333,0.624119948606195,0.134664207620443,0.671087309744111,0.788300223364394,-0.210309025998399,0.433951407313413,0.3760260245801,0.328440351358667,-0.45167656747084
-0.220820059161248,-0.195556395673184,0.54418311143516,0.489692626725979,0.330763106988368,0.603205203283418,-0.15523731648189,0.414928401139761,-0.0252213482927452,0.230040329875666,-0.196408475016034,0.370394553864418,0.393877703968369,0.110729970539608,0.643202878270952,0.358261168598558,0.159860040064933,-0.0781305365975188,0.579510040804192,0.176288428895509,0.788513433425689,-0.0854225110319319,0.332607715582246,0.123551706895137,0.258082575280139,0.0246993148735131,0.21713048251217,0.230911317823587,0.165475347784486,0.618386378711751,0.151491006800739,-0.0624797411522325,0.957435428165718,0.459872511822818,0.701582015358255,0.199418898805446,0.909730796923446,-0.0249484030299323,0.811564609440952,0.000701381557346483,-0.233827635749227,0.0451141915434306,-0.0180071534471993,0.148405020302358,0.807467634451207,-0.0766565782968262,0.299822539296195,0.749632807193773,0.355026939142239,0.115344112740414,0.702356725003635,0.453212929917046,-0.473736530016166,-0.180768909405997,-0.158041191149636,0.125344333016078,0.489929264910482,0.134170889334934,-0.329978166708242,-0.018170292314486,0.287269080545696,0.0793233182731909,-0.246850248977932,-0.0215239844000049,0.16871876685744,-0.0567446467577339,0.616991715748641,-0.381494999820912,0.316235096387564,0.361156997694893,-0.591489000287133,0.682931667266058,0.553471229488013,0.436207788393785,0.0659446695368314,0.318494010439628,0.121183195229626,0.33092651192079,0.327645069444679,0.325152290447664,-0.203360682342926,0.0709083921197752,0.852451295271425,0.366974735934409,0.524709929116624,-0.112001816590407,-0.287036226272489,-0.153984962046045,-0.140574332956099,0.151466216370225,0.530462523378358,-0.0849761144201415,-0.0744740553179459,0.798625466881234,0.12252064491612,0.0127266882455761,0.150047146638957,-0.398777592768115,0.05805791836657,0.524008527527375,0.392928429927036,-0.22440473956279,-0.23018341328077,0.633950570576277,0.284620654791017,0.0972473571562545,0.693198657122876,-0.341940044524731,-0.0549403206574466,0.302569606550738,0.0155046080579164,0.374824338956906,-0.361575571486923,0.335914552103016,-0.297258109334144,0.807469230575797,0.352457184844991,0.396427374527232,0.213694324396882,-0.149514813329448,0.416345779620411,0.419997799121728,-0.23647340970258,0.147791438263366,-0.212850152435329,0.000732165822686559,-0.349312284845755,0.62739501273624,0.657354383835004,0.0808023610095187,-0.468771912861912,0.443793719635725,0.466488525017651,-0.0447698154762546,0.774919150538154,0.515597075941527,0.293458162369207,0.0743146194714882,-0.312964173981882,0.298927782042497,-0.142954902462343,-0.0286092496599957,0.686006520375641,0.485965908385531,0.959451274685485,0.442184032910084,0.13158833168402,0.665072118314466,0.908503244382658,0.166090779483101,0.277081495577639,0.698271364422271,-0.20670189662418,0.306213887225894,0.773646852046003,0.414487778241485,0.129124519416021,0.258835106294108,0.600859676210838,0.018481124296872,0.389660800994853,0.292645495510933,-0.150475485355766,0.661146221166633,0.590410590164442,0.905379695987932,0.404812619971332,0.0544797934948326,0.173328891079326,-0.128542421821466,0.204283122498169,0.623073456933776,0.700845499438043,0.437415363164331,0.31138967004273,0.684326479212161,0.168415639183378,0.345659792478714,1.15370698753197,0.733029290879682,0.0352216688199181,0.147881095054286,-0.285445043876251,0.428563917463835,0.322380338541776,0.825333153804344,0.513624321237883,0.127460838159166,0.634457969733213,0.183575689787427,0.688808998873894,0.774395849989512,-0.195889682870708,0.444562553497963,0.411924539306837,0.335333171833678,-0.392132829496408
-0.199782988573505,-0.144579376523186,0.545347159386111,0.513232302813611,0.333879051071727,0.621164723423301,-0.110320607008345,0.437538963890006,0.021941611938247,0.267637984170243,-0.168067045429412,0.382157301884059,0.392930590068438,0.133416816126172,0.646271077060858,0.36458958083818,0.15004274055518,-0.0584929383361203,0.566665417435786,0.167223856312614,0.777558915725022,-0.061794044739665,0.354913929015644,0.137507175906338,0.307099572620961,0.065494641644214,0.218224706733918,0.277928173548539,0.188402766855737,0.598871658042035,0.156615789049092,-0.0300336009537731,0.975493931845334,0.453422990993999,0.72161905956276,0.241015480288617,0.889594439581159,0.0207347770991418,0.810594687895945,0.0238507079551609,-0.188288892066844,0.0645890117025876,0.0115346726166368,0.205626704542332,0.825066310891344,-0.0628689727718117,0.30401035960275,0.784332401398825,0.409754330069359,0.1407110915666,0.684464900862257,0.478592025662712,-0.439220610330675,-0.163039668947072,-0.124551156643268,0.169035472812605,0.445510266882241,0.143250981211734,-0.299782555354934,0.0487939661139386,0.294671580212752,0.0994979056106947,-0.196949458141518,0.0192988170680789,0.199660395549715,0.000464767540057062,0.645309969570862,-0.305096088806189,0.358625051418751,0.347702266271838,-0.511081570642481,0.681316068612924,0.559832184095103,0.45609743318879,0.0794267705954097,0.364160277941544,0.146403799188167,0.298222681472696,0.363037109787227,0.329244396356903,-0.169915601875517,0.104951646978516,0.850495618270298,0.404416829780608,0.574532338595082,-0.084709024269498,-0.266599205324829,-0.143056576555094,-0.0730034942182821,0.138426475938257,0.492729892852822,-0.0871425220015561,-0.0365789803755329,0.822870918538679,0.127545662073846,0.0172225930356658,0.141199256626528,-0.358781679686603,0.0788752677548725,0.499142018153613,0.390372966701827,-0.211112722065573,-0.199999552753754,0.634279432911879,0.303922174365135,0.110229916340574,0.71309721615869,-0.286545928601198,-0.0222109434443199,0.324446350775454,0.0181453690363128,0.365827486006367,-0.331079167759179,0.345029309583456,-0.229078238471718,0.769647274208841,0.351558317329104,0.414630527650008,0.218632843124207,-0.13045090325924,0.406020595789788,0.435823645353205,-0.197211930301836,0.187042994267803,-0.177654829013806,-0.000782582085613148,-0.325705127004706,0.61913482811165,0.676227433850849,0.0693738428003144,-0.412162424385673,0.442106483545977,0.484351008880025,-0.0160312049966003,0.780151321489449,0.518240104865696,0.291427830025033,0.112530986210194,-0.281749412374371,0.337913219939106,-0.112799883597728,-0.0198120234079637,0.610221919385244,0.493833810793371,0.963749220468204,0.483816215260191,0.165905460865424,0.67852126142289,0.937551544912052,0.161693417038885,0.283566298008234,0.674517007536915,-0.179710109073192,0.338861252153513,0.713385828200026,0.416974279823211,0.13300893252056,0.261140801138258,0.63135131471221,0.0563525509967178,0.39812657915262,0.282563041774933,-0.111292561197832,0.643476266705938,0.609577116323249,0.924921445222355,0.431298649018413,0.0726157614088424,0.183132917022774,-0.0693824642478396,0.229963670202267,0.633336976821042,0.692799440148418,0.435084011173477,0.314361255501763,0.689864730811473,0.202843433233337,0.371991882209429,1.13894935271282,0.756586947897302,0.0786497999153855,0.184695351136495,-0.241902543193999,0.459503300273224,0.34572977332902,0.841011980607295,0.537259701432223,0.172100157002248,0.644643776009174,0.232173320404945,0.706509048894687,0.760221419263441,-0.181356089307063,0.454852056010312,0.448100669609229,0.342232379940192,-0.332707798716603
-0.179007515464282,-0.0936512029103539,0.546578366833292,0.537256255076616,0.33686982188933,0.638799492226993,-0.065710688520496,0.460501119701664,0.0695533662430393,0.305365649767766,-0.139755236777088,0.393716558995038,0.391667548385968,0.155545235316898,0.650018393852307,0.37069564336679,0.140125017954598,-0.0385181214503691,0.553553321138446,0.158009303328945,0.766680043500646,-0.0379027543251452,0.376724903504927,0.150865990915763,0.355449893327042,0.105779495435161,0.218925337285599,0.325150815998989,0.211303363968159,0.57880353819288,0.161814045757854,0.00247089221216426,0.993691606357665,0.447081924872712,0.741719292983745,0.283033904883955,0.869519764677793,0.0658396819459255,0.809034099781328,0.0464412654621409,-0.142221201094517,0.0841968333610994,0.0409870073992859,0.262590605779157,0.843125967747978,-0.0493269539623551,0.308855849996609,0.819128687429772,0.464318231914657,0.165671529525769,0.666417362355883,0.504235361664184,-0.404950208195721,-0.145328107916251,-0.0912720410943934,0.212458463924452,0.40099435432539,0.152246937172168,-0.269657080557514,0.115102592248646,0.302220222503908,0.119861706288363,-0.147430670319295,0.0605843797736919,0.230616026200653,0.0576128531559752,0.673868790177342,-0.228270709821095,0.401215969012696,0.333883768248541,-0.430831219343111,0.680026617414054,0.567182861255333,0.475794795153451,0.0925411919603843,0.409526301250044,0.170874166304894,0.266049946193555,0.398588101823466,0.33370810182,-0.136487563494332,0.139217852206702,0.84889918397171,0.442904759606846,0.623733387512923,-0.0579036679045294,-0.246000961869092,-0.132202973515402,-0.00596100706106305,0.125678040775262,0.455010797501894,-0.0884933109640201,0.00140639947285134,0.847565405165553,0.13255114314337,0.021607964806861,0.131913689539922,-0.31900437719355,0.099621299403456,0.474382622154182,0.387910749561584,-0.198223266349732,-0.169312819538451,0.634246732698955,0.32290656899654,0.124094247902588,0.732543911735208,-0.231292325465613,0.0100656088109668,0.345862124448227,0.0211456072938136,0.356865627368047,-0.300471835508348,0.35349738516464,-0.160547704112736,0.732461175874485,0.35031424216249,0.43239121856879,0.223284873465448,-0.111424843750564,0.395572904491516,0.450867781558238,-0.157868562725411,0.22667289989873,-0.142558542847423,-0.00194839605081258,-0.301315768551166,0.611531180156712,0.695160755310431,0.0583191003849316,-0.355385269873076,0.440221006440667,0.501770251791673,0.0130860007829762,0.78468177334059,0.521267639790154,0.289191073377342,0.150278417157887,-0.249830515799595,0.376913439236711,-0.0829369958102092,-0.011511935278757,0.535268477065161,0.501526487374927,0.96795198646099,0.525488678255699,0.199764620000668,0.692821269715747,0.966238317376313,0.15726314099499,0.289816714986315,0.650902254285358,-0.153119411568161,0.371147389194865,0.653525765699953,0.419898883671188,0.136949532359632,0.262773547645003,0.661745355654514,0.094034632105018,0.406766480460847,0.272749602480688,-0.0720651691456278,0.625931581903969,0.628401233986285,0.943903699410837,0.457370096935429,0.090396343846665,0.192412892569595,-0.00996295505669994,0.255365776620617,0.643194521423578,0.685827818145775,0.432964546493171,0.316850612246679,0.694959121090316,0.237581072667949,0.398495872283484,1.12519552109654,0.780384981273804,0.122262690564407,0.221141905087745,-0.198328202066156,0.490302945468924,0.368636774863778,0.856656511578144,0.560510315995648,0.217007151668491,0.654663013232805,0.280315359961935,0.724110643037468,0.745634422076528,-0.166585028870315,0.464640260834006,0.484658774273353,0.34914811630739,-0.273556309743907
-0.15839010506323,-0.0428373614243282,0.547737472804141,0.561927636091342,0.339564386826267,0.656020719320729,-0.0216671902822532,0.484025268909756,0.117832318991338,0.343405753911795,-0.111593049370447,0.404889876199472,0.389989931882664,0.176766135836744,0.654794705560637,0.376477274597007,0.130050218284071,-0.0183471935925931,0.539934910711843,0.148343598840855,0.755791035117427,-0.0136373065780074,0.398059062441973,0.163432048427896,0.402952650785277,0.145120076859067,0.219047913712644,0.372637321479287,0.234378435676993,0.557822889730515,0.167069860890701,0.0349820889974772,1.01195091486007,0.440851529726751,0.761762162954284,0.325580081218887,0.849672529962022,0.110109097988577,0.806534521831028,0.0681219943362124,-0.0956035938904524,0.103989824603285,0.0702486584113124,0.31931964894931,0.861859015099337,-0.036161731460621,0.31447855322717,0.854108850501116,0.518723464985714,0.189979106472036,0.648223702317662,0.530493548468281,-0.370907302670252,-0.127589446442382,-0.0583556233012062,0.255419926349627,0.35644445713644,0.160974029034236,-0.239636718420672,0.18020952939655,0.30976414330605,0.140484103791171,-0.0984418896857453,0.102314478544495,0.261521755563027,0.114641693218843,0.70275477055173,-0.150902846220654,0.444173222046122,0.319566192461636,-0.35087132958639,0.679079104825248,0.575805381394027,0.495244875479421,0.105217779599127,0.454527048909561,0.194304895292593,0.234767719315812,0.434219618898879,0.338674595941303,-0.103167878390948,0.173621372841267,0.847819216831454,0.482967265350884,0.672089082426442,-0.0316938488876671,-0.22512107859271,-0.121411368551641,0.0604138103094464,0.113146675211339,0.417267894939663,-0.0887321279462599,0.0396689616599462,0.872906879449524,0.137720688735988,0.0257952661623184,0.122014663291718,-0.27972557970369,0.120302831335986,0.449627310948446,0.385548187587369,-0.185841672553396,-0.137903736795086,0.633652868187923,0.341291122625978,0.13934563517827,0.751272197978085,-0.176283055240584,0.0417203113245247,0.366681964437098,0.0247107440964826,0.348006687732515,-0.269664173385555,0.361099208695758,-0.0915845092221114,0.696307506453841,0.348487650562386,0.449432690616972,0.227582142941662,-0.0923166138963961,0.385124326345881,0.464859271252802,-0.118437352422238,0.266626621231275,-0.107534986230287,-0.00251824829738676,-0.276032541155773,0.604909212893209,0.71422708704358,0.0478825386681099,-0.298408483524098,0.438115268377796,0.518508693683392,0.0427328053606041,0.788303382730281,0.524844466480516,0.286542807817572,0.187249962081844,-0.216953390448644,0.416002144301885,-0.053459381707517,-0.0038283047686958,0.461763863960294,0.509016937945501,0.971915708615844,0.567194461430222,0.233165197310528,0.708219988013674,0.994355917199274,0.152788670098073,0.29562806348719,0.627715839315666,-0.127071086201414,0.402914838716703,0.594381980422759,0.423274503083446,0.140987466150861,0.263647033463621,0.691989274139788,0.131462408621902,0.415607530471963,0.263305336702829,-0.0329435628876266,0.608569519422944,0.646726811563465,0.962023219595429,0.482766299173002,0.107563194815507,0.200951371987397,0.0496999629775576,0.280262231232394,0.652344397625761,0.680420379051644,0.431172317401528,0.318657864070954,0.699374619626534,0.272702174892982,0.425233749325385,1.11283579019762,0.804531324704454,0.166143836877861,0.256858655685937,-0.154790748997468,0.521013863631439,0.390970715940281,0.872194924210293,0.583237471022433,0.262343669362938,0.664567080280362,0.327837408693014,0.74153173060023,0.730584141152589,-0.15141686263537,0.473740688980446,0.521744312619827,0.356017732651285,-0.214752990270235
-0.137791612111377,0.0077965901045797,0.548571144763211,0.587335296751139,0.341809233706087,0.672701405284726,0.0215602792316836,0.508304288403975,0.167000909195625,0.381886867791324,-0.0837629253829853,0.415530636113018,0.387800094791533,0.19668369696554,0.660852964728734,0.381871612123431,0.119827453249965,0.00180799324906013,0.525571912181802,0.137966226228335,0.744832054121971,0.0111208717300019,0.418997080423156,0.175040163388837,0.44953120654445,0.1830666545707,0.218375076014157,0.420414296147935,0.257914891455099,0.535692037117839,0.172424304781433,0.0674000736983481,1.0301388740455,0.434703688203549,0.781619588206869,0.368628459050746,0.830311983696628,0.153280902304721,0.802792537657212,0.0884589752314213,-0.0485639272851862,0.124050602837351,0.0992921262985516,0.375904427123532,0.881385330728439,-0.023346917342123,0.320968969345742,0.889330714876604,0.573005082148159,0.213367710251624,0.629924062510008,0.557723331365167,-0.337012669693987,-0.109788832088253,-0.0259773566612398,0.297691402431008,0.311928999875292,0.169190242183369,-0.209754897100415,0.243536891223245,0.317166734568199,0.161428357189828,-0.0500628964203019,0.144312261291467,0.292314882600917,0.171457544639194,0.732075329095158,-0.0729101358634681,0.487677310525319,0.304659442396289,-0.27135126338822,0.678425991102365,0.585830110357584,0.51444840330589,0.11755298406361,0.499101736194218,0.216459147276511,0.20475467117803,0.469776040920664,0.344286711163775,-0.0699666245419875,0.207975629819529,0.847338361050579,0.524965889897758,0.719459674045902,-0.00608745448844559,-0.20383120889589,-0.110653552940279,0.126052378179577,0.100722204647934,0.379489543998413,-0.0877027991406193,0.0783050364329959,0.899037919324993,0.143244870183711,0.0297072761979002,0.111379335333069,-0.241231068267638,0.140904112949244,0.424768776932366,0.383310407357819,-0.173979958546316,-0.105550989971277,0.632378842142179,0.358835120133044,0.156382005994949,0.768955258558113,-0.121621684319949,0.072649622004397,0.386753772403488,0.0289852244011527,0.33934730526876,-0.238497419484142,0.367708731816782,-0.0221634163083574,0.661571837346278,0.345832700284233,0.465495832168217,0.231546155578786,-0.0730667324846241,0.374867808065892,0.47753863741319,-0.0789838203543574,0.306766009311916,-0.0724335853564517,-0.00218275232703218,-0.249764309373618,0.599472701890605,0.733634872409681,0.0382863203764988,-0.241175804526818,0.43592020938672,0.534216918973585,0.073063435573333,0.79083910279711,0.529049499894932,0.283302567696731,0.223159983381723,-0.182860461018868,0.455282563522553,-0.0244846802590317,0.00321828870931147,0.390327671395092,0.5162819204825,0.975512954235114,0.608998461932522,0.266137316350968,0.724805410694588,1.02166629486622,0.148208618742921,0.300735242186548,0.6053480561818,-0.10165159178783,0.433935301264287,0.536270119593373,0.427044133907994,0.145086201258036,0.263766893440541,0.722072395200833,0.168489714265434,0.424709046052265,0.254394621929026,0.00591641429753181,0.591427177068793,0.664502045951794,0.978991205163755,0.507327747361096,0.123852688442825,0.208547076443903,0.109618674385799,0.304445773770184,0.660433000464391,0.676927195623778,0.429783809061083,0.319620132815463,0.702903877722613,0.308291103646546,0.45231364144428,1.1021458650411,0.829084788648618,0.210186843026738,0.291535462257825,-0.11139362556286,0.551801300613348,0.412607864397177,0.887492267385548,0.605305646382443,0.308221445469201,0.674522334935529,0.374560807126833,0.758659269263256,0.715125089048741,-0.135670220244749,0.481991043747764,0.559549050109134,0.362712259411815,-0.156242190406201
-0.117156380265501,0.0581729340927225,0.548802304868809,0.613527760074158,0.343461109724873,0.688740354443073,0.0637955554492372,0.533483953428325,0.217266569098859,0.420887485846842,-0.0564631816199606,0.42554337938697,0.385069181046585,0.21491901054788,0.668314373613544,0.386846962291987,0.10953052891327,0.0217434774897129,0.51029805606442,0.126717546685455,0.733778453525096,0.0364790685392752,0.439676650356552,0.185555811570711,0.495214730592549,0.219229918959539,0.216774674732152,0.468458041078688,0.282278806037718,0.512348760081356,0.177951172922767,0.099541537349101,1.04811080661383,0.428574068824565,0.801103394644542,0.412046850105658,0.81169432990191,0.195193604911766,0.79756942209402,0.106988223439106,-0.00130284847147356,0.144440944681136,0.128169628213044,0.432463961627303,0.901755860247247,-0.0107552130713392,0.32836859464549,0.924818140150657,0.627197516734377,0.235590963503458,0.611615851688157,0.586180646192399,-0.303185370337465,-0.0919042205957717,0.0057274858037637,0.339054847272568,0.267556333597264,0.176740992950904,-0.18003857589782,0.30456324571011,0.324318157157701,0.182760981912694,-0.00228470700228889,0.186270405267317,0.322929532366132,0.227950273532345,0.761915706693581,0.00574819959850558,0.531851636685453,0.289110386695184,-0.192440473141048,0.677928427156245,0.597297432771907,0.533433934646567,0.129807927088329,0.543235463584799,0.237150887517185,0.176379533393367,0.505019016163005,0.350768099086357,-0.0368284004278576,0.24203866688838,0.847482729362687,0.569065805158536,0.765803358076815,0.0189842725696701,-0.182019003586391,-0.0998290776376711,0.190960906582407,0.0882996321653306,0.341673716885695,-0.0854168950934,0.117255082340429,0.926007093389081,0.149279014729162,0.0332937136926124,0.0999024513917409,-0.203770610579829,0.161395414467197,0.399713414986205,0.381253842258849,-0.162608158571336,-0.0720471395324,0.630343988150787,0.375373360217025,0.175419342877307,0.78524543566229,-0.0674149217081421,0.102809688192663,0.406011086369425,0.0340221997516395,0.330979387120707,-0.206784327533953,0.373237004889217,0.0476610882919385,0.628565569264679,0.342154073844204,0.480474237248876,0.235242108009729,-0.0537348346401443,0.365027676976173,0.488679907779643,-0.0396567572822895,0.346932510828461,-0.0370151335601014,-0.000625971648911464,-0.22248881362125,0.59528609787128,0.75369059636281,0.0296935918701735,-0.183623035115504,0.433895108392164,0.54850557019244,0.104196949252203,0.792228114321067,0.533900376472856,0.279375138481214,0.257752688525942,-0.147285816135118,0.494866996384113,0.00383292709480604,0.00967779727319176,0.32151424167994,0.523308457091078,0.978630827974338,0.651042663342002,0.298781593552146,0.74248993372751,1.0479759270045,0.14339451677273,0.304883262843758,0.584165002475796,-0.0768503500613813,0.463940154896852,0.479461746307681,0.431124534557392,0.14916589330691,0.263210370670474,0.752008439954154,0.204923155098646,0.434176161784923,0.246229210224417,0.0443477859698037,0.574500194212783,0.681770534766736,0.99459064685029,0.531027428521582,0.139051934332372,0.215050644039268,0.169824814260516,0.327792921213681,0.667181443029119,0.675656644327918,0.428870599406577,0.319663499064558,0.705393907512582,0.344439485071807,0.479863039289049,1.09327257235452,0.854059945309849,0.254087356557928,0.324927110928354,-0.06826860366261,0.582906006958903,0.433461917048996,0.902397980265234,0.626601784377673,0.354652853876371,0.684819708515615,0.420332778170192,0.775306601797931,0.699344530231236,-0.119171212090153,0.489266152083017,0.598254174547914,0.369059066722105,-0.0978890245056031
-0.0964811404464931,0.108224815562072,0.548282671269982,0.640550856957748,0.34434919998865,0.7041355224478,0.105007249983416,0.559640804835752,0.268824309378936,0.460428934841955,-0.0298726797056303,0.434881120040148,0.381876281175945,0.231157870675463,0.677174382679015,0.391437484896215,0.0992877924676242,0.041276730471959,0.494152671196761,0.11455115962273,0.722612363844209,0.0625084494625498,0.460255151475054,0.19488295639937,0.540128515197822,0.253335286715155,0.214325680453304,0.516731868769525,0.307884330587241,0.487908352674957,0.183693485106079,0.131205173624715,1.06572884510108,0.422317454459073,0.819972876041553,0.455641564702494,0.79403397643568,0.235787485994972,0.790706585510502,0.123294221144688,0.0458692511641844,0.165199121253665,0.156984851978289,0.48911315605842,0.92306602123739,0.00173197260024644,0.336628306787331,0.960612496977071,0.681337012174152,0.256461653832425,0.593437512620013,0.616004527936526,-0.269370607374486,-0.0738827540795319,0.0366833752612698,0.379355351953521,0.223500979119353,0.183615063451339,-0.15048787400217,0.362855256023082,0.331123510282444,0.20454538131597,0.045011518269396,0.227898458273528,0.353302342138575,0.284012918647332,0.792292753981938,0.0851362698107249,0.576753975102911,0.272829720213727,-0.114298262405852,0.677377610322838,0.610190889777641,0.552248452772094,0.14228249580469,0.58693925741044,0.256250116767812,0.149946389604284,0.539711921572909,0.358380173821526,-0.00371194754655008,0.275559089467898,0.848267133055139,0.615297325387912,0.811112041102566,0.0435955298940626,-0.159601021949608,-0.088759226677303,0.25514514980711,0.0758151811789078,0.303861050825255,-0.0820021865247713,0.156334450009535,0.953768249509762,0.156004612850767,0.0365144283809046,0.0875124192940953,-0.167523768686005,0.18172515720919,0.37438648919374,0.379474855828235,-0.151670671318477,-0.0371899449236433,0.627538322381978,0.390849378844754,0.196499299356316,0.799845876886788,-0.0137880258800253,0.132273069056636,0.424503805030179,0.0397960279139135,0.322929760837049,-0.174346452612809,0.377552154779572,0.117796182664616,0.597482714427394,0.337323236515836,0.494426724043728,0.238763597460726,-0.0344780279683861,0.355888516607958,0.498118651392404,-0.000635077610109521,0.386972895853678,-0.0010621628045021,0.00236114308493198,-0.194283415801951,0.592370411538502,0.774754810386165,0.0221889560156674,-0.125696036706693,0.432342434366133,0.561074024137128,0.136238395544782,0.792616324179207,0.539452183711368,0.274736255507797,0.290803656500563,-0.109981388642869,0.534873561046912,0.031365396117583,0.0156484581784761,0.255839404053141,0.53009678607931,0.981120919186241,0.693517498373168,0.33129440095413,0.761086659476979,1.07319289348481,0.138150343047592,0.30788657431055,0.564389136718568,-0.0526128247660437,0.492681578456877,0.424210448263254,0.435458179980283,0.153178397150536,0.262094320148269,0.781847162815017,0.240597850483525,0.444120648687488,0.238987620380035,0.0821543632632043,0.557717356510007,0.698665861908798,1.00869991158116,0.553911828366315,0.153009684083807,0.220375029950807,0.230313079808933,0.350330005697688,0.672420984841212,0.676914189606435,0.428507038185717,0.31880201759009,0.706733852896894,0.381272344701199,0.507947719665172,1.08618310869561,0.879449149047323,0.297465641803546,0.356802478690309,-0.0255370598758471,0.614587146503698,0.453543589187353,0.916811062408297,0.647076242155539,0.401537195438277,0.695804072831721,0.465081741036024,0.791239193997622,0.683289086630586,-0.101742791443976,0.495458520092253,0.637951949797444,0.374881309508324,-0.0395536265749952
-0.0757308251419544,0.157937165072362,0.547049841400765,0.668414450465684,0.344275794287756,0.71895777702112,0.145323202352927,0.586761880106472,0.321834657683446,0.500470755483944,-0.00415921943568352,0.443554230640593,0.378371349855032,0.245189395784704,0.687342974010428,0.395798420686415,0.0892830294881454,0.0602423019635677,0.477415285389197,0.101511661222863,0.711319513806346,0.0892616283466043,0.480860573549349,0.203029291544485,0.584489922953523,0.285227423439119,0.211323252550052,0.565262206866073,0.335122197774824,0.462627117721682,0.189608994722399,0.162288784867594,1.082860857401,0.415777240849413,0.838030280885018,0.499174573675238,0.777586098376886,0.275019217060717,0.782151240580218,0.137017549507291,0.0924798384833668,0.186406725804398,0.185869571433411,0.545958851088289,0.945526383401373,0.0141791938189089,0.345650624779128,0.996836900925609,0.73548044119685,0.27585937574582,0.575564747620911,0.647238932090858,-0.235519876238578,-0.0555830822616551,0.0668497257574866,0.418503430135183,0.17993464141705,0.189884458047998,-0.121082624132335,0.418082902292797,0.337523274764362,0.226845421699938,0.0920272097993347,0.26903722120909,0.383408786056606,0.339557434367239,0.823178730569031,0.165406855013905,0.622410151944717,0.25569405954639,-0.037042485786751,0.676579709397961,0.624460377885566,0.570984631713014,0.155128545413327,0.630181114090273,0.273712186897772,0.125629133093085,0.573710133835882,0.367324468119354,0.0293876706351049,0.308305191013852,0.84973530612185,0.663607592139403,0.855365675613562,0.0677801022637999,-0.136464645930988,-0.0773171509429214,0.31851292109094,0.0632792586864887,0.266206403306957,-0.0776394754799822,0.195335584332405,0.982234636440795,0.163664558313777,0.0393595528552045,0.074240584463523,-0.132563167525711,0.201846900078187,0.348786745303012,0.378099209392873,-0.141045495050922,-0.00078514825070184,0.624105934326699,0.405329553330484,0.219560213939273,0.812562106258109,0.0391560379800244,0.161261477070937,0.442356859189189,0.0462332363627772,0.3151307826847,-0.140994267255729,0.380552693200864,0.188127983006602,0.568389808031616,0.331321663218808,0.507512689489495,0.242240631368806,-0.015512047183554,0.347790241659641,0.505761368564792,0.0379588487494687,0.426713782347227,0.0355375716504603,0.00680073129728415,-0.165270047904411,0.590793980297641,0.797201563457844,0.0158201730611521,-0.0673457865268036,0.431532013677916,0.57180058925544,0.16933178887234,0.792362173031563,0.545822102434132,0.269419659441549,0.322147578959859,-0.0707412994929098,0.57545212314275,0.0580877377999591,0.021231324711115,0.193805336577851,0.536673858607754,0.982797838910946,0.736651282079188,0.363897808602622,0.780427492948564,1.09733741200766,0.132242757851027,0.309687655579154,0.546089767514462,-0.0289361237775014,0.51995688296334,0.370801035528834,0.440021776040158,0.157128957225452,0.260539042577478,0.811722666893835,0.275419506805985,0.454631635943348,0.232753730782675,0.119137509389151,0.540963506125029,0.715454481647318,1.02127143107496,0.576046146094331,0.165649007362609,0.224477942233336,0.291029150648975,0.372224828533882,0.676046708068464,0.680970367294866,0.42873845316103,0.317120823248689,0.706856294108624,0.41896844365174,0.53656086110988,1.08067311614781,0.905246371460915,0.339981042741261,0.386907219292571,0.0167572716030473,0.647080003159027,0.472968577332776,0.930626067724271,0.666738633390634,0.44866654300874,0.707787971648185,0.508821061529908,0.806253705494012,0.666916294892474,-0.0831972782775068,0.50051844887517,0.678656275123749,0.380045203516395,0.0188506071396166
-0.0548344100327834,0.207330482947529,0.5452404526907,0.697054916549007,0.343046677227437,0.733264134872225,0.184943397524276,0.614721602642019,0.376356971977027,0.540912088849253,0.02048557035703,0.451656410937763,0.374732876741145,0.256925535101583,0.698702172220589,0.400253966336322,0.0797509087616775,0.0784695117022351,0.460472190653069,0.0877580692233415,0.699896831107086,0.116817919093012,0.501543684015556,0.210087820286952,0.628563520992414,0.314859290325391,0.208194827672603,0.614162032357819,0.364288368361937,0.436791341102009,0.195594967038063,0.192790463656332,1.09939230942652,0.408873168384167,0.855220920182047,0.542385202619906,0.76270255188373,0.312759523202485,0.771919323011879,0.147847008296858,0.137978039631806,0.208241721152581,0.215011528936548,0.603100476916427,0.969355591526725,0.0266365745462501,0.355370637632534,1.03366485673805,0.789668098225806,0.293708650542487,0.558218289162132,0.679804441497973,-0.201556776290836,-0.0367730726403948,0.0962044397926604,0.456403313852155,0.136952801598422,0.195660881540376,-0.0917536919078498,0.470090643088627,0.343562002566869,0.249769430877114,0.13897124882542,0.309641407995599,0.413277318523121,0.394496060401665,0.854540865142999,0.246771142451563,0.668844505627387,0.237588043896291,0.0392507661916115,0.675434141868014,0.640018160881199,0.589747473609453,0.168313008962593,0.672818781836092,0.289538798821012,0.103445418117921,0.606955001886806,0.377686190512533,0.0624848101558397,0.340113091541612,0.851916568537779,0.713885796358358,0.898516263836843,0.0915282413310113,-0.112411958505889,-0.0654854446871681,0.380855929951764,0.0507821666118575,0.228970815293045,-0.0724695197646458,0.234165159998012,1.01132646394204,0.172444311706512,0.0418478904344992,0.060251668855457,-0.0988939580836067,0.22172956624,0.323057184892896,0.377271724602292,-0.130540664889805,0.0373144289528539,0.620326976470579,0.418950961667707,0.244497022249254,0.823283783857566,0.0913630159986864,0.190025064177275,0.459677825676811,0.0532378322572803,0.307463337310013,-0.106474048524793,0.382304694778233,0.258524571218635,0.541244878194611,0.324238406668178,0.519911415409701,0.245787085054715,0.00289655640380398,0.34105305047046,0.511571275783935,0.0761038759367106,0.466011825665006,0.0728247569290425,0.0125875353836095,-0.135553590012087,0.590603045795487,0.821328380071011,0.0106646853686201,-0.00849278546633784,0.431678397199874,0.580747165750224,0.203644791856002,0.791929486126085,0.553144395328621,0.263528016370624,0.351648421875755,-0.02938413993073,0.616777721215119,0.0840695105398025,0.0264986916192094,0.135880859655757,0.543066695810407,0.983512639650769,0.780697036856189,0.39664543343648,0.800349086879801,1.12049605847189,0.125427395478428,0.310349702821548,0.529235838842372,-0.00585473514662283,0.54553995369167,0.319552381849279,0.444795633588567,0.161014014158857,0.258588917828548,0.841873265378172,0.309366161623119,0.465819072720968,0.227579540485262,0.155168027852787,0.524110557017929,0.732502984957446,1.03226008203978,0.597517776308998,0.177033479926368,0.227350906160957,0.351902571354743,0.393757132020385,0.677914885552315,0.688011760737932,0.429491498931722,0.314750754644189,0.705715235169575,0.457703477346398,0.565667496068836,1.07649597677062,0.93142822177928,0.381402969647816,0.415025327602965,0.0586897887972672,0.680557733708671,0.491894638907241,0.943671608821936,0.685584913938885,0.495747320011882,0.720993248410669,0.551554100941445,0.820240881288459,0.650114884866459,-0.0633470084638815,0.504471229050443,0.72038068812959,0.384478139847304,0.0773539565426022
-0.0337530856438162,0.256449371621676,0.543000926682607,0.726317533106076,0.340467794989417,0.747096421508415,0.224054759624987,0.643279953432483,0.432294014936836,0.581646701689205,0.0438182910978911,0.459382582817196,0.371152127661194,0.266388339860048,0.71117751611696,0.405240530717428,0.0709203439565187,0.0957689263120387,0.443691028613965,0.0735594241161499,0.68833982050201,0.145294540960319,0.522274882349423,0.21618161851705,0.672637019983132,0.34226694170512,0.205421407771921,0.663632131752181,0.39558866840732,0.410629909132395,0.201568458207346,0.222775025234749,1.1152588414995,0.401558609104664,0.871691252730705,0.585076077174678,0.749760328735367,0.34876249305133,0.760005458824404,0.155503050063856,0.181828101140515,0.230966614499625,0.244638521845403,0.660607866044194,0.994693795228477,0.039162932586313,0.365789099226045,1.0712942139067,0.84389341134373,0.309899933326144,0.541635423069185,0.713504580027712,-0.167362713750633,-0.0171730167427766,0.124746495095706,0.493002637482486,0.0945609717111691,0.201060018179686,-0.0623387457162719,0.518910523144278,0.349430889354456,0.273530285313252,0.186025202048273,0.349721523842477,0.442980262734019,0.448704689840494,0.8863908755328,0.329401603624877,0.716113151194801,0.218384431332187,0.114574523531856,0.673945587835741,0.65673089966939,0.608587353498936,0.18174751242703,0.714582822304498,0.303697638936759,0.0833138539572671,0.639493261785127,0.389425569632572,0.0956252908403949,0.370922029614748,0.854755748785367,0.765974187515658,0.940526665962173,0.114838115424611,-0.0871648086427657,-0.0533073541447183,0.441920611174722,0.0384715305891454,0.192452294338811,-0.0665272899182943,0.272903138056263,1.04100095373666,0.18237586420139,0.0440083265151059,0.0458092150086278,-0.0665167321152599,0.241364354109202,0.297441776786005,0.377148680832719,-0.119912269136006,0.0771930837227086,0.616569168906646,0.431918326206536,0.271171755859095,0.831970660448582,0.142820966811257,0.218699545429297,0.476516187449884,0.0607327302586565,0.299858003237324,-0.0704444119481133,0.383062813755436,0.328865899061179,0.515955093678421,0.316206777711313,0.531801278872699,0.249414545008097,0.0204146221285168,0.335911551734488,0.515565793614247,0.113824943985594,0.504856054965684,0.110797276928737,0.0196047594598954,-0.105186420368372,0.591766712105674,0.847356795488795,0.00681228785337458,0.0509679446061059,0.432907151400337,0.588122169622838,0.239313662075713,0.791792844265887,0.561541961874312,0.257208658054213,0.379173095556285,0.0142516633294464,0.659052791979291,0.109397865784437,0.0314794511486842,0.0824736465740472,0.549257189958474,0.983202565094708,0.825943297336515,0.429349717057931,0.820597291136279,1.14279040068927,0.117500306053254,0.309996014270538,0.513769803347953,0.0166223238329934,0.56915112240223,0.270781127278217,0.449799059673323,0.164768163631851,0.256227536500487,0.872642397243969,0.342460002804935,0.477828704486614,0.223547771167759,0.190194900370089,0.507033901492359,0.750216518187881,1.04159499854136,0.618446235470749,0.187350539700981,0.229026234470284,0.412898476225525,0.41529031004912,0.677761691134824,0.698085344300024,0.430574680311068,0.311840740643807,0.70325824753533,0.497617527613504,0.595252218638393,1.07345985391463,0.957982108474983,0.421643788057525,0.44105213444551,0.100429149728861,0.715134632974739,0.510486250645074,0.95575627054991,0.703590237373574,0.54244200776371,0.735540135756909,0.59323102310537,0.833184135564418,0.632784841568894,-0.04199649029938,0.507359142953257,0.763222172932486,0.388171874722234,0.136017661867693
-0.0124824765303252,0.305432765911136,0.540469615759912,0.755956193500966,0.33628513146829,0.760479113958711,0.262817850071352,0.672167044996803,0.489398900668803,0.622611126255663,0.0655778125313621,0.466991190679037,0.367818041051734,0.273698077673357,0.724730610321816,0.411200422057822,0.0629289040507957,0.111963994643499,0.42739541893101,0.0592442908148774,0.676724933974748,0.174856627055944,0.543000624009883,0.221477173284494,0.716986243754235,0.367555467152173,0.203489908973486,0.713927435862118,0.429201627870695,0.384287847696473,0.207465117816378,0.2523326868931,1.13045642669022,0.393787608060321,0.88773592872961,0.627158925723726,0.739116984362468,0.38269063041569,0.746311493467375,0.159792903753661,0.223544481125911,0.254860382735711,0.274975354039262,0.71851000924276,1.0216379798793,0.0517865479059288,0.377017850372119,1.10996529075603,0.898125059144516,0.324272299938608,0.526011630391072,0.748103517236835,-0.13281061116052,0.00349961762940182,0.152536869177788,0.528360515439105,0.05264850153658,0.20618650650442,-0.0326142450543421,0.564670333245464,0.355442804680535,0.298401743609775,0.233382363606537,0.389349300531839,0.472585614940637,0.502030293060847,0.918811161075509,0.413377023791553,0.764282483898713,0.197904361849789,0.18900842969624,0.672174188203704,0.674364271544717,0.627452003183446,0.195417755291685,0.755109654664039,0.316078739680191,0.0650981022465855,0.67149735690877,0.402375218801807,0.128901509726889,0.400716589985234,0.85807530957149,0.819701501552087,0.981407876458048,0.137744034858246,-0.0604432308917154,-0.0408077650125315,0.501467837401064,0.0265778160133661,0.156960804630158,-0.059744627501809,0.311716074310217,1.07123439401256,0.193411943778644,0.045894410736198,0.0312288216029027,-0.0354664847489303,0.260721505914114,0.272161868912769,0.377853375830018,-0.108871258470095,0.118900277236875,0.61326365057492,0.444497261343703,0.299401903354589,0.838665667112371,0.193525428933895,0.2473397313933,0.492860040709732,0.0686776931064801,0.292382402466818,-0.0325670395157563,0.383165605094513,0.39911873896102,0.492396538337891,0.307347555773232,0.543375471008851,0.25301043467317,0.0366436479001623,0.33253791487879,0.517815665154678,0.15114277062178,0.543377344943041,0.14939630520894,0.0277554186471365,-0.0741716644024926,0.594240023097376,0.875485909946373,0.00428465714291128,0.111131954380547,0.435236992441158,0.594222107087994,0.276447594661913,0.792404460660184,0.571091294930145,0.250564265869297,0.404590609503083,0.0603118950223671,0.702541407897286,0.134123042348025,0.0361332243824395,0.0339285014987609,0.555172914658781,0.981887501065914,0.872722325841028,0.461691139608195,0.840829061592886,1.1643656137626,0.108324886352485,0.308761334509374,0.499638852750178,0.0385535902553142,0.590472827456325,0.224833452946779,0.4550854167954,0.168304719681926,0.253483808505108,0.904444418653768,0.374697032838569,0.490845725578191,0.220760117150867,0.224183842036368,0.489583435960632,0.769001218410996,1.0491859331105,0.638918823673957,0.19681854616502,0.229555934221206,0.474086073735326,0.437240175939077,0.675195137384318,0.711043290928921,0.431802857283524,0.30852556162678,0.699405185902992,0.538840660138341,0.625397622051057,1.07139514002804,0.984931943624067,0.460714071435863,0.465010183861045,0.142182410363076,0.750923187044313,0.52891125021421,0.96671308197494,0.720749841835678,0.588446516766412,0.751466783675119,0.633850507307899,0.845094403140057,0.61481111568659,-0.0189279700994769,0.509202359941541,0.807442906052824,0.39118872544808,0.195083207954131
0.00896332444538998,0.354542471314253,0.537807123837428,0.785657940952767,0.330156673652396,0.773369521604196,0.301397665229677,0.701166935229858,0.547390874972338,0.663730123602305,0.085525474486584,0.474727329610287,0.364903654237312,0.279048576530104,0.739308600802755,0.418569162572577,0.0558255302705576,0.126943854960156,0.411866081388489,0.045221624661143,0.665308240027634,0.205693643601884,0.563659226019195,0.2261896162602,0.76187231842271,0.390903738197759,0.20282713757433,0.765287139920979,0.465330660274319,0.357879831754225,0.213231221855281,0.281584982537142,1.14500363780649,0.385527492354645,0.903713585984726,0.668584800535042,0.731159018505442,0.414156660620942,0.730660823252933,0.160657343730392,0.262674998250837,0.280156339010434,0.306274119036682,0.776841253240669,1.05028608723664,0.0645027521282363,0.389306103958095,1.14994525358832,0.952356690523259,0.336627633667557,0.511448189465053,0.783415533180641,-0.0978154721271482,0.0255006985228815,0.179672735888028,0.562658131651451,0.0110269065316232,0.211125729245838,-0.00240590064492201,0.607513754764129,0.361967525579489,0.324627344899591,0.281280535878705,0.428688459206395,0.50212733942661,0.554339761229548,0.951940555356116,0.498773254059779,0.813447676629815,0.175952578085248,0.262697740666234,0.670192748585178,0.692591923528428,0.646209624193597,0.209430338913444,0.794025145842481,0.326583428474045,0.0485601287242062,0.703258173105185,0.416248622058204,0.162478173031282,0.429412166161403,0.861680948958339,0.874961680372426,1.02119265742106,0.160261383322516,-0.0320618881424065,-0.0279248419588739,0.559308832078856,0.0154495935736222,0.122868814684792,-0.0519643908300113,0.350786516896739,1.1019546136073,0.20555572976173,0.0475844563401113,0.0168577430082464,-0.00576072841609915,0.279736640738733,0.247388534947261,0.379483204750622,-0.0970776982300109,0.162442142301968,0.610901699397604,0.456973930122001,0.328930878534107,0.843540068468872,0.243443315954052,0.276075989342142,0.508646148646482,0.0770805518258479,0.285251394165064,0.00740417055599328,0.382965260310141,0.46940339988427,0.470425134270246,0.297731288445746,0.554845805112524,0.256458555994253,0.0511950894005548,0.331069521408499,0.518450618933575,0.188040643420505,0.581770662754031,0.188534960869529,0.0369584885675673,-0.0424624740247727,0.598029012743758,0.905963628341294,0.0030032653079365,0.17210885409715,0.438651127703868,0.599391032226267,0.315216961452578,0.794182723886735,0.581813702943935,0.243641027437797,0.427817819597952,0.108965830017325,0.747571458300261,0.158268646660065,0.0403653985902433,-0.00943859205502447,0.560697813545523,0.979696220511559,0.921377682149854,0.493295203956179,0.860703956910354,1.18543008891114,0.0978251214531068,0.306772441808218,0.486773102131894,0.0600666518167717,0.609161191539653,0.182169801013282,0.460686169228508,0.171584815962051,0.250457114801308,0.93766528895706,0.406015678050012,0.505133036026946,0.21931571007557,0.257117996946189,0.471556336518065,0.789279306695886,1.05495459152304,0.658957379738561,0.205693569248711,0.228975797186424,0.535705931853371,0.460017550298906,0.669753934299058,0.72655205705087,0.43308566910815,0.304878854788868,0.694038158473412,0.581448967950686,0.656274320766963,1.07011326368625,1.01233636024436,0.498630924360695,0.48701953637988,0.184146872771916,0.788062434400913,0.547342086018116,0.976442651567087,0.737144704125994,0.633576023311968,0.768773324791253,0.673511082637855,0.855955078101946,0.596067054181678,0.00606867961421631,0.510014694924787,0.853439364748068,0.393669317722373,0.254987973507684
0.0305786541472827,0.404108825423523,0.535199545547962,0.815089759597796,0.321696216686918,0.785694290903225,0.339975095805557,0.730110665440372,0.606035042389552,0.704890550226191,0.103448480213058,0.482786516871725,0.362581446031757,0.282642133804962,0.754873031750795,0.427759896615226,0.0495842456407202,0.140649781226852,0.397335672277566,0.0319671410862365,0.654439187449022,0.237984420069009,0.584180978993124,0.230537998988579,0.807602581019794,0.412592554165364,0.203771177166775,0.817917745296467,0.504216079966126,0.331584178329724,0.218865034704579,0.310686491107095,1.15894248123651,0.376750905879521,0.920001993845241,0.709299409131136,0.726308840300291,0.442828391395072,0.712902197673779,0.158166495010171,0.298800127271901,0.30699619477186,0.338875152587648,0.83569215056861,1.08073275400137,0.0773135954754577,0.402933255014334,1.1915011698115,1.00665664630233,0.346724562806603,0.497936166228574,0.819348940814324,-0.0623859514146954,0.048985383109224,0.206249842409706,0.596190640282885,-0.0304370574696231,0.215886996169269,0.0283798437577004,0.647596507436435,0.369353194573931,0.352404694521437,0.329977273975974,0.4679606021843,0.531636467326839,0.605510159534901,0.985970727377015,0.58573102899153,0.863769020580123,0.152348534008791,0.335837562929304,0.668051640349051,0.711061001511751,0.664759392138282,0.223933922890575,0.831035033066891,0.335247645042073,0.0333209847447075,0.735149344641623,0.430692976025686,0.196608284218865,0.456863038265638,0.865452019329531,0.931810090304573,1.0599424907428,0.182305682315019,-0.00192602861902733,-0.014522764488406,0.615367203161556,0.00550384976456649,0.090614749810009,-0.0429711013745788,0.390345131832761,1.13302488279217,0.218852404388498,0.0491020344917867,0.00303469636902837,0.0226737281657803,0.298382278993462,0.223210424391651,0.382125859057757,-0.0841626664961114,0.207790249971492,0.609968533850958,0.469586717758255,0.359413287952476,0.846906079604971,0.292551325055927,0.305197830843171,0.52377842945671,0.0860098182222377,0.27873815842212,0.0496404371958566,0.38279838000873,0.539956065359352,0.449909485481019,0.28736490325259,0.566425516754822,0.259753364056885,0.0637732898668538,0.331581975743054,0.517677617321438,0.22450785856348,0.62029303253082,0.228151468855272,0.0471230415662534,-0.0100032509483833,0.60317372041838,0.939151337113337,0.00280285514458131,0.23405866135492,0.443153833459008,0.603949049021836,0.355827915855205,0.797529157325979,0.593645714831933,0.23652178063328,0.44885147393146,0.160417172940622,0.794496573479334,0.181855676235874,0.0440405963085846,-0.0473387905111684,0.565658298526704,0.976899259768543,0.972235426652141,0.523792840265465,0.879877064975723,1.20627686590396,0.0859687603830977,0.304138917399549,0.475084136097442,0.0813853279254062,0.624940060381154,0.143302106956706,0.466600995092235,0.174667241709152,0.247305214064218,0.972626212730665,0.436345796529201,0.521036845492331,0.219278252266954,0.28900238923686,0.452730956040127,0.811492831980649,1.05884898838984,0.678604511091444,0.214322344766776,0.227260630087991,0.598171002942428,0.483971950044768,0.661006065601281,0.744153884882678,0.434378435635251,0.300897021811989,0.686946515932165,0.625439720889505,0.68805860196463,1.06939119152368,1.04033854696751,0.535399915294302,0.507257239632864,0.226478899842116,0.826692924534548,0.565974718481009,0.984940172225905,0.752971724406345,0.677773234893022,0.787476757164655,0.712374906505586,0.865757203502458,0.576461439573445,0.033175007756598,0.509805648766482,0.901631176374055,0.395802830854996,0.316208374952199
0.0524342010171832,0.454435163058087,0.532798481170373,0.844009734450946,0.310575224365341,0.797346817481888,0.378678948101656,0.758874786462076,0.66514791305334,0.746015606174276,0.119144453419494,0.491296012531478,0.361018833678747,0.284639128948174,0.771417760088054,0.439058281983589,0.0440914784735675,0.152994212767294,0.383976040723533,0.0199084090846956,0.644396479714303,0.271905302939674,0.604507138122103,0.234698479713177,0.854510430908673,0.433054365629549,0.206608351472964,0.871964436577632,0.546098202136144,0.305581188695155,0.22441011192119,0.339778955823822,1.17239992363121,0.367449755767152,0.936910412954206,0.749293247945655,0.724896028873764,0.468468872435822,0.692920336035865,0.15253390326177,0.331581917761829,0.335492950425938,0.373182495352413,0.895166382180209,1.11307274618193,0.0901826314887918,0.418102924118054,1.23482703174455,1.06113702791103,0.354340299067802,0.485393391129297,0.855864469058057,-0.0266083404243318,0.0739329162740708,0.232390227927519,0.629267687833804,-0.0717472488788065,0.220439703904869,0.0598273038537373,0.685079291414004,0.377901438688783,0.381908131380088,0.379712122003933,0.507414929714303,0.561119262081334,0.655383670184208,1.02114881418365,0.674424166648753,0.91544072024389,0.126915941556978,0.408652206689039,0.665759658271061,0.729427850206398,0.683058122635748,0.239003015257372,0.865988840052232,0.342221113000718,0.0189076526249163,0.767554582311923,0.445393998266394,0.231660771671163,0.48304976630652,0.869287283704157,0.990487419989464,1.09776404816353,0.203660403149725,0.0300385393307722,-0.000484859024990225,0.669663813799029,-0.00285318722144227,0.0606207107077417,-0.0324932640174903,0.43069382033174,1.16432699060738,0.233302831849255,0.0503659772859507,-0.00996378152449742,0.0499542562959226,0.31671921231993,0.199572805493798,0.385769215342623,-0.0698079386867531,0.254998102794415,0.610800408780132,0.482418475130511,0.390529182834827,0.849106041856066,0.340911124561219,0.335066969469222,0.538118261175705,0.0955986755109946,0.273082335078087,0.0942564735573259,0.382955366355229,0.611051577030676,0.430735799374531,0.276231823952753,0.578334280091273,0.262972052255168,0.0741916401242431,0.333991726685405,0.515784109519754,0.260616020415793,0.659367371796097,0.268263904585694,0.0581198446615367,0.0232324153985096,0.60972539116221,0.975443331421385,0.00348596686278457,0.297196817917132,0.448794119549798,0.608092527039478,0.398453982364144,0.802767571222331,0.606421785540197,0.229375173004132,0.467765040486437,0.214883471813601,0.843613393339671,0.204882827346011,0.0470188180998846,-0.0795738224993912,0.569845436012649,0.97384181669675,1.02555018154266,0.552880653347191,0.897951998385067,1.22721418782008,0.0727465257627257,0.300946006033936,0.464529615525459,0.10281337035803,0.637690447503845,0.108640974575661,0.472797786430904,0.177672112568826,0.24425309602009,1.00961699153544,0.465707785564494,0.538955049495866,0.220700091579459,0.319819935915199,0.432875152122562,0.835992000047337,1.06086560632339,0.697946914675109,0.223085002612548,0.224329229857399,0.661959110220778,0.509382082538209,0.648596456753584,0.763367405819376,0.435645259163833,0.296529708105705,0.67780547227259,0.670825153703887,0.720934542846253,1.06899584507401,1.06915901277006,0.57105442579804,0.525925156567006,0.269321354430432,0.866894216746772,0.585007172011222,0.992258961988394,0.7684477368715,0.721087007770059,0.807651106385904,0.750601419999961,0.874546352372362,0.555905566878905,0.0625604026098934,0.508524758685836,0.952395038322328,0.397767114648935,0.379146755246004
0.0746824340522367,0.505752541343995,0.530690017944601,0.872429405590606,0.296546409003218,0.808109328142652,0.41755273545988,0.787408236915865,0.72466362600919,0.787112196722582,0.132458714133497,0.500273520438373,0.360307788020602,0.285168878907755,0.788935735320114,0.452511472820137,0.0391660815995503,0.163838553122924,0.371865334526292,0.00935546854843544,0.63528916892098,0.307590822443038,0.624573450803999,0.238825211145205,0.902832614453604,0.452848762945587,0.211567506056719,0.927404239687847,0.591173890957504,0.279924524552525,0.229904838598421,0.369005820713084,1.18559459402778,0.357655656929783,0.954591841503446,0.788654134002698,0.727021807935766,0.49089984896026,0.670465036039226,0.144050707757699,0.360810176755657,0.365838265925852,0.409498329889591,0.955290566910043,1.14743070795659,0.10291669119192,0.434946987379953,1.27995203461476,1.11589941304921,0.359301084833133,0.473682839912134,0.892998843009654,0.00937400446941258,0.100135579374653,0.258250902789876,0.662154020320772,-0.112859993427943,0.224854111949886,0.0920450124339162,0.720019326491578,0.387839093133818,0.4133399844356,0.43068875025649,0.547319867897218,0.590484902621529,0.703810056394438,1.05779646170398,0.765055664363479,0.968664280367199,0.0994176505075706,0.48131761289832,0.663232165210409,0.747375630073314,0.701059538226781,0.254565352133124,0.898942190433291,0.347631827221155,0.00485190039512798,0.800842048575313,0.460125685642086,0.268062931631591,0.50817113852654,0.873048499568103,1.05133257974853,1.13476840624995,0.224072956864532,0.0638810873864426,0.0142452407863504,0.722265360362056,-0.00932248551636944,0.0331526086129673,-0.0201909641755112,0.472130524567707,1.19584047415038,0.248954071891847,0.0512435058604305,-0.0219553762762881,0.0760841524856455,0.334856038764296,0.176252510469244,0.390248813744515,-0.0538050137428892,0.304320934314989,0.613521860044307,0.495314582560299,0.42219569691785,0.850418553080427,0.388651648392509,0.365985395811578,0.551542458799136,0.105988208998428,0.26847661516879,0.141298983449277,0.383659976793875,0.682942431338834,0.412796678006036,0.264334653117871,0.590869713164524,0.26617179381223,0.0823719057973916,0.337998602567287,0.513055838670087,0.296487763274254,0.699589330787177,0.308976274753108,0.0698053778923191,0.0572446853311114,0.617791250592937,1.01513443559081,0.00487556940829643,0.361808443011786,0.455645435767597,0.611886294012503,0.44321802156223,0.809998027641969,0.61996194939536,0.222429580055329,0.484674214491945,0.272609445921557,0.895109060438467,0.227326647614106,0.049187865233852,-0.106076073964707,0.573086041874844,0.970824484775877,1.08146875964807,0.580300343658335,0.91454308484198,1.2485044086889,0.0581480509749075,0.297250427075177,0.455191334682573,0.12459006646015,0.647421184836687,0.0784189699910734,0.479179483990394,0.180688321130056,0.241584636583744,1.04883410422848,0.494289175058542,0.559261941774251,0.223665548096795,0.349513024916436,0.411675991291443,0.862902890376218,1.06106017108265,0.716983878586219,0.232314648115652,0.220096963574739,0.727439444491166,0.536408135220365,0.632285402192648,0.783747299656608,0.436900918187587,0.291737249117573,0.666326735681944,0.717674777430803,0.755119958044889,1.06876156777787,1.09902404154485,0.605704426623752,0.543178490804959,0.31279631379929,0.908620784601472,0.604554938590322,0.99846264453018,0.783694869186333,0.763696003922054,0.829452308416641,0.788313692863008,0.88241585495498,0.534254157441522,0.0944127099434362,0.506091200111544,1.00604695826273,0.399668520245782,0.444106664106092
0.097449996986853,0.558265710745938,0.528869956442339,0.900598584231665,0.279379788184481,0.817706996505943,0.456579550549615,0.815776146360236,0.784617114703019,0.828253416709045,0.143344775318115,0.509662738998547,0.360369682391275,0.284343541912897,0.807368028185459,0.468019146758796,0.0346439399720054,0.173126450559049,0.360972382006594,0.000566795593838906,0.62708279897446,0.345133559557024,0.644297717314241,0.243026561116707,0.952655747631396,0.472457822309662,0.218745990353499,0.984076284166974,0.639600488656051,0.254495682481261,0.235366169086354,0.398597041389003,1.19880308224823,0.347460621616352,0.97309621777219,0.827536404580062,0.732651207621738,0.509986050766724,0.64513870549662,0.133003355705878,0.386447912703221,0.398309778979332,0.447951052591456,1.01604817454197,1.18392820930736,0.115161090976054,0.453514681320382,1.32676977707741,1.17108383103859,0.361413391408358,0.462607608069472,0.930939287340991,0.04538569334085,0.127172436154491,0.283982888668721,0.695148972897167,-0.153862984024988,0.229282577173472,0.125172539323581,0.75230536077902,0.399290993614143,0.446893464766782,0.483061161825453,0.587944446956991,0.619559250073254,0.7507457263324,1.0962971757927,0.857893971641361,1.02365052142024,0.0695384591589318,0.553907202108014,0.660261628215214,0.764591388496665,0.718756684422434,0.270331608642532,0.930140185168613,0.351530065376214,-0.00921828550314327,0.835394755024527,0.474723647938398,0.306140717094251,0.532532623588695,0.876581494946644,1.11466003173498,1.17107205249577,0.243428694673052,0.0995059916685661,0.0296209080164087,0.773254977558979,-0.0137984330039569,0.00825368785660101,-0.00571069235057243,0.514800156826013,1.227664560023,0.265948310975543,0.051637215033421,-0.032914008330709,0.100895380538241,0.352819792408755,0.152917951849961,0.395263660865726,-0.0360952682832979,0.356222233588461,0.618036246123989,0.50790366319643,0.454615803621335,0.851110015391925,0.43591813217181,0.398097721389542,0.564057024634387,0.117235949691456,0.265027956269734,0.190743354287543,0.385054577779789,0.755802402275745,0.395890319252735,0.251653895505558,0.60434505295012,0.269332793593583,0.0883380503419953,0.343251322684267,0.509623523866242,0.332219402984124,0.741538209190135,0.350441788511645,0.0820304835682883,0.0920483316390052,0.627485042420822,1.05833900869513,0.00680173654065104,0.428256446508419,0.463786406225526,0.615315931738422,0.490195768039987,0.819104386902896,0.634143657252411,0.215890609442872,0.499725196160029,0.333816954641174,0.949172464108181,0.249231413853212,0.050463243386324,-0.126934297316612,0.575275822311008,0.968044306630394,1.14010692196666,0.6058067864866,0.929408824949747,1.27033613647539,0.0421801448092009,0.293050013649372,0.447226591444569,0.146739219817036,0.654230273672522,0.0526706120552043,0.485557793616687,0.183694733085836,0.239569881829904,1.09035454052263,0.522388542337352,0.582259655235511,0.228336335908937,0.378004415649801,0.388753957819451,0.892150934463786,1.05953514846146,0.735522310588111,0.242336352708372,0.214457970125657,0.79475174074617,0.565051086157284,0.611929533018921,0.804901064845852,0.438214820722554,0.286455580026348,0.652389795294701,0.766059499884265,0.790837140751473,1.06864074721053,1.1301806571495,0.639580115733778,0.559064109428035,0.357002022338464,0.951718295106074,0.624662739449015,1.0035820776832,0.798747234977732,0.805921788330895,0.853051630540279,0.825668669751254,0.889506146314013,0.511332777102101,0.128907675219737,0.502415923941497,1.06279727623816,0.401477891829456,0.511241379200933
0.120763822868134,0.612189346342861,0.527269122356553,0.928838245193496,0.258869396584308,0.825946298822147,0.495714591389149,0.844143215081769,0.845072536834203,0.869549945241328,0.151880677532647,0.519422193591841,0.360974155395301,0.282223359192933,0.826621748585579,0.485503644263581,0.0304847171115744,0.18100612792833,0.351172327071442,-0.00615881972125997,0.619649379610725,0.384687980098826,0.663570448228572,0.24725245881165,1.00399279756537,0.492085732774285,0.228103971581464,1.0418130174187,0.691487769445847,0.229026371392615,0.240840051776327,0.42887663842169,1.21230683150297,0.336952886728489,0.992456846661789,0.866112572210154,0.741734341357715,0.52568484139311,0.616646629848727,0.119644630113646,0.408684638541966,0.433197166446516,0.488625352958556,1.07744433246263,1.2225954380362,0.126522801105895,0.473735404977926,1.37517528990884,1.22690982908601,0.360495255641287,0.451873672739602,0.969980305965265,0.0812807035642019,0.1544823658101,0.309690069440976,0.728633349102186,-0.194989176266682,0.23380345943151,0.159353941599926,0.781747915510829,0.412290326150213,0.482642631075686,0.536953569464215,0.62954189545995,0.648176356201859,0.796293391360843,1.13695647195069,0.953275526974181,1.08058234605785,0.0370194621017109,0.626422650424279,0.656599645982371,0.780750505642641,0.736242689798569,0.285803462063735,0.959963782618078,0.353984643811476,-0.023622375615793,0.87160174352908,0.48903105192529,0.346039744831017,0.556401725408815,0.879760269137647,1.18069493178218,1.20684844090605,0.261790817028805,0.136615139549952,0.0454715460291227,0.82269639892196,-0.0163139218402665,-0.0141534587292939,0.0112505177435485,0.558701800827287,1.25993678100146,0.284427942086831,0.0515511000841787,-0.0430150954326315,0.124192660901743,0.370477580846395,0.129230750971145,0.400419662516415,-0.0167779157876479,0.411251559595189,0.624087883356319,0.519748513540227,0.488118087606327,0.851487253418663,0.482929232929162,0.431406270351453,0.575803435486937,0.129247628270761,0.262676866833752,0.242538780088188,0.387193282533062,0.829723000506258,0.379673183530795,0.238113995631238,0.618946348337993,0.272402349092298,0.0921832016819185,0.349550989896456,0.50538865551788,0.367833274197614,0.785639782065156,0.392891977428835,0.0946098469862765,0.127701820944596,0.638858856104611,1.10496979306076,0.00912441609606332,0.496902032717854,0.473357687711909,0.618267741156093,0.539458819493407,0.829947111111178,0.648890657250444,0.209842352316229,0.513124102055985,0.398631023182324,1.0060837954583,0.270776946124534,0.0508620976157475,-0.142413497283831,0.576353556747085,0.965542284284936,1.20156339081846,0.629226074743068,0.94258016091582,1.29281460599961,0.0249882130193127,0.288264040635463,0.440772073548162,0.169067210243757,0.658317116470412,0.0312365848621258,0.491677411774639,0.186515489808687,0.238332488320915,1.13419545344522,0.55033842827809,0.608206031916703,0.235006136227686,0.405254211608034,0.363787039173463,0.923572439250947,1.05643672711831,0.753233923473945,0.253494499427921,0.207278120615982,0.863792853003919,0.595224464539127,0.587439920208236,0.826531174273296,0.439727256728522,0.280517234056983,0.636008360258022,0.816064444160587,0.828305134192816,1.06866780757341,1.16289931405397,0.673035680850907,0.573585715040077,0.402015094113524,0.996048292836555,0.645407977153874,1.00759644844366,0.813625646964376,0.848202210282435,0.878533992355832,0.862887341428478,0.895992014778565,0.487054554912879,0.166058643819585,0.497332498872555,1.12271318439237,0.403049371175058,0.580557704589996
0.1445501764009,0.667732771247515,0.525805148984709,0.957397743728909,0.234862523027427,0.832815100439206,0.53493596958243,0.872689249671152,0.906124363598226,0.911130561663336,0.158218300293942,0.529563591744056,0.361835634375383,0.278773024104823,0.846579837501841,0.504925151767829,0.0267717090486047,0.187795190588853,0.342296025502866,-0.0105331259391622,0.612772340838115,0.426477061492066,0.682249770689896,0.251263323154081,1.05690067336948,0.511676509580153,0.239504098039665,1.10049428417254,0.746866869618946,0.203218527937168,0.246414210264887,0.46016716525236,1.22629577465488,0.326163041954639,1.01270876300937,0.904559252694342,0.754197225290016,0.538134684653706,0.585003789856505,0.104237166966225,0.427933721999337,0.47075000467466,0.531644112603888,1.13948076245281,1.26333223029986,0.136657549437104,0.495433871158854,1.42515894576845,1.28364194952214,0.356512130802538,0.441155064233156,1.01035741222525,0.116929775632626,0.181549984041124,0.335366961850767,0.762995932980901,-0.236477409786529,0.238387859909392,0.194699641937932,0.808207918806485,0.426803886223376,0.520555598429273,0.592518719683011,0.672315189390056,0.676262403256907,0.840672821153719,1.17988626001481,1.05148423679429,1.13953560682074,0.00178897589125044,0.698835290812654,0.652048669326294,0.795566509994347,0.753681884401669,0.300455730482477,0.988900832245869,0.355148577834729,-0.0387100347774036,0.909777344537368,0.502829573384387,0.387792039357526,0.579953960438534,0.882508446445928,1.24956054448453,1.24232829955173,0.279311388757077,0.174861288124557,0.0616087778578323,0.870616999718138,-0.0169558374128234,-0.0341878736970846,0.0308842608025846,0.603806117347778,1.29268899053553,0.304477558658191,0.0510761992840033,-0.0525694377286987,0.145905549378321,0.387597394554534,0.104893828696342,0.405342322872015,0.00394287134672116,0.469830091015702,0.631417674686831,0.530530896515426,0.522937845283119,0.851818155073689,0.530049379530334,0.465856004447132,0.587003826994685,0.141814508449887,0.261257409530781,0.296664616685957,0.390040373480721,0.904734204906108,0.363842930043563,0.223628307917565,0.634699114196548,0.27532652750098,0.0940623984376936,0.356888897680493,0.500110853035631,0.403224866283397,0.83214824022164,0.436581094829083,0.107313728333037,0.164272813446639,0.651875588914462,1.15481841940539,0.011779622603095,0.568005416506316,0.484545648357147,0.620471809785471,0.591050941353741,0.842514612106401,0.664206937025439,0.20424098241739,0.525140045725023,0.467069471296691,1.06617266389547,0.292235570854716,0.0505594243127577,-0.152913981210878,0.576289501905561,0.963217538673822,1.26582211220573,0.65052371608849,0.954351628012558,1.31595823004577,0.00692319910559842,0.282740937754756,0.435917130751896,0.191344299055906,0.660005967360922,0.0138056276923225,0.49728908984022,0.188863003767137,0.237829037109708,1.18033066917717,0.578507343165419,0.637301439403975,0.244012159067668,0.431306264018225,0.33661357103981,0.956970840831204,1.0519488051949,0.769851257094764,0.266061789766995,0.198451051361089,0.934300493923934,0.626865887085284,0.558803400880893,0.848438401291554,0.441631816678387,0.273687164425906,0.617298006004259,0.867835474155218,0.867736210943213,1.06892789798277,1.19738153564026,0.70645779432743,0.586806743525804,0.447862164739575,1.04156414020799,0.666938339109504,1.01048880296303,0.828392032261757,0.890980172143007,0.9058633104248,0.900163280135022,0.902030333591569,0.461523765011645,0.205650212807176,0.490615904339433,1.18571444526605,0.404260769452251,0.651956603313197
0.168699215753789,0.725085387386346,0.524319564604876,0.986355386390037,0.207251226803661,0.83845574524875,0.574265100579182,0.901556221066384,0.96783368828129,0.953113105893067,0.162506445528688,0.540151462752851,0.362680518984471,0.273894392800308,0.867063099350096,0.526248136307804,0.0236550384921104,0.193882015691811,0.334230851226786,-0.0123147864310192,0.606192188969875,0.470705320620517,0.700178561331985,0.254713920705727,1.11148575222887,0.531081211473564,0.252720856679517,1.16003009712722,0.805645253000271,0.176839121369491,0.252160245950784,0.49270408482927,1.24079589069738,0.315110968227578,1.03393738317731,0.943017289908942,0.769959943841762,0.54762812532196,0.550519331846925,0.0871476186892655,0.444797220894351,0.511197955986907,0.577110404448973,1.20213875621813,1.30593648212545,0.145328026397824,0.51835206287886,1.47675470796097,1.34151006097042,0.349602428651924,0.430242802557639,1.05211691045577,0.152165242292165,0.208048192260474,0.360927371713299,0.798565522430209,-0.278500529193708,0.24299526807845,0.231259734266531,0.83160728502781,0.442736852566615,0.560576293562125,0.649910545646734,0.716408344487805,0.703873794261596,0.884160602598917,1.22506632044094,1.15262733431892,1.20045585445849,-0.036053343547787,0.77109828943762,0.646483021256257,0.808786560642212,0.771282854196989,0.313886853534737,1.01738738770423,0.355183344777344,-0.0547855592952487,0.950105523693015,0.515824297553558,0.43141260805461,0.603272487376041,0.884779513356629,1.32126195945193,1.27777139802442,0.296124011339026,0.214052481344346,0.0779402107545534,0.917027236122866,-0.0159095997249742,-0.0519926182934593,0.053233803746207,0.650087267112249,1.32583410330075,0.326094713733466,0.0503607627304272,-0.0618680920998688,0.166097550430802,0.403925785468784,0.0797265825755558,0.409760906147916,0.02584854985349,0.532140911667708,0.639798403859002,0.540107557305028,0.559098995250302,0.852284945612323,0.577709800401263,0.501365373964268,0.597823512811947,0.154750957155364,0.26058780838971,0.353149754051208,0.393489903953737,0.980803227560901,0.348313795715829,0.208166721200185,0.651519732322011,0.278035160177542,0.0942059919725063,0.365360553540326,0.493587449755109,0.43818988409318,0.881099790055539,0.481691728523263,0.119959410808795,0.201810721585937,0.66635181218906,1.20762051015823,0.0148131513342296,0.641730243286956,0.497469514276055,0.621538784120693,0.644951839344498,0.856877493480313,0.680134731073264,0.198964956254534,0.536025286178899,0.539034240940654,1.12974890976464,0.313887091655296,0.0498486230815387,-0.158934484408476,0.575075463773964,0.960899793014085,1.3327366120033,0.669671307020839,0.965162148594521,1.33969472091117,-0.0115432282789248,0.276276919532067,0.432730382530627,0.213500298538569,0.659725843198553,-4.25609563874291e-05,0.502216095643697,0.190394679809017,0.237960397869026,1.22870415816067,0.607265301536505,0.669664241461805,0.255620813869285,0.456292240149272,0.307276832021804,0.992160442874914,1.04623533325313,0.785269347027663,0.280150706758271,0.187961241675535,1.00600018734069,0.660024065711647,0.526092704145646,0.870436143954369,0.44409737052719,0.265765422688199,0.59646071748456,0.921555468972141,0.909281536044,1.06956019260774,1.2336263897482,0.740184193748693,0.598840230568354,0.494539764787255,1.08824718866006,0.689438873532295,1.01228676024239,0.843169683373998,0.934517538901749,0.9348811625764,0.937572311457182,0.907684447949611,0.435015288629392,0.247357162361757,0.482057236076293,1.25156929913631,0.405097186387055,0.725270068810584
0.193170827765463,0.784391163341441,0.522501847469038,1.01557335184033,0.175963623211448,0.843122336120649,0.613726749118521,0.930753993398062,1.0300395425727,0.995575597762457,0.164880749805324,0.551340126768628,0.363301121618965,0.267514064970863,0.887854298445505,0.549442857362876,0.0213501771549094,0.199657462525613,0.326954307470001,-0.0112834479211111,0.599692121734797,0.517531754128797,0.717212356884067,0.257195338178066,1.16780475986495,0.550225408322984,0.267493025481325,1.22032556284821,0.867611411395235,0.149774913549734,0.258084988162936,0.526639435810335,1.25577755870414,0.303800164497401,1.05629700681559,0.981514997344098,0.788932254873824,0.554521489697103,0.513648902440908,0.0688487573227056,0.459989830688763,0.554807689455116,0.625035560521636,1.26540797396007,1.35019428399401,0.152492959295895,0.542074112376846,1.5299462072299,1.40065030629828,0.340019368215097,0.419071939097505,1.0951586978048,0.186756240967808,0.233916429973123,0.386310944532339,0.835576258285396,-0.321193656729541,0.247625977782042,0.268977436435572,0.851985843309919,0.459968197970226,0.602651376266445,0.709179700491018,0.76192077963193,0.73116722087538,0.927034260765987,1.27243029109134,1.25663609146847,1.26318438109854,-0.0762999026806022,0.843161429301715,0.639836158002718,0.820105759425698,0.789323767996157,0.325843858044078,1.04561468404952,0.354216067899218,-0.0719955725592885,0.992683330892122,0.527754781308061,0.476923244673422,0.626338402994443,0.886524452686016,1.39562365390144,1.31347275989457,0.312329104383996,0.254194684915942,0.0944427516760546,0.961927932799157,-0.0134664912630079,-0.06770990332983,0.0781728541604686,0.697452828725159,1.35922650720786,0.349211240509405,0.0496063773766805,-0.0710779596961508,0.184883931259562,0.419234357648824,0.0537256656391589,0.413598903665551,0.0487760473365798,0.598148071979987,0.649034026417816,0.548475469259411,0.596438767877629,0.853062232658703,0.626264267579333,0.537825126342288,0.60827806836183,0.167935639157818,0.260445173689074,0.412068066989141,0.397375450767396,1.05781657623486,0.333165091261736,0.191727748395563,0.669314171688482,0.280519498241416,0.0928933010718228,0.375080482998265,0.485797854910706,0.472533119523261,0.932318379603451,0.52838507257146,0.132498040134227,0.240349555593844,0.681971342965404,1.26310660956035,0.0183836168433811,0.718208166528204,0.512155197834801,0.621097629574944,0.701095479442954,0.873111670846843,0.696616737762537,0.193865249317608,0.545915443722202,0.614304991110474,1.19702819483563,0.335977775506375,0.0491059209194637,-0.161048919856817,0.572744410465723,0.958427937356602,1.40213538510086,0.686586481243948,0.97545010284167,1.36387972400826,-0.0299332929616512,0.26864125876802,0.431308625320104,0.23565134364267,0.657983250933701,-0.0107981369166006,0.506356818711695,0.190729449769266,0.238617695465338,1.27924570693388,0.636911961863854,0.705386434465878,0.270029796626311,0.480419895299397,0.275986773646984,1.02899774477536,1.03939007137639,0.799474961526527,0.295727950862367,0.175908417829401,1.07868520541558,0.694899377615819,0.489471264258224,0.892237998024934,0.447225678697758,0.256619499312249,0.57372106334398,0.977411043219606,0.952968328768058,1.07070020209011,1.27139412060912,0.774467917232022,0.609869045955188,0.542070761830751,1.13606912290734,0.713066792495382,1.01301252915418,0.858109603809983,0.978819920162335,0.965353129245492,0.975077439213076,0.912902634149671,0.407835729464932,0.290818872829341,0.471467371898122,1.31996080262239,0.405659623385439,0.800345296119364
0.218021162737283,0.845690399157684,0.519923469712755,1.04475624724033,0.140990260797222,0.847174539457006,0.653301657888957,0.960097121936032,1.0923137899582,1.03854587086177,0.165522354586635,0.563354740918047,0.363596892814871,0.25961051895279,0.908770185045459,0.574461771907511,0.0201317326839821,0.205456807737508,0.320437499181925,-0.00729216458813409,0.593086125372709,0.567073750733836,0.733261712557119,0.258315301799954,1.2257734844142,0.569117644719127,0.283549819304406,1.28128264734944,0.932496334003888,0.122078824396768,0.264107511089654,0.562009848892301,1.27127271888544,0.29218685705856,1.07992075831001,1.01997639654579,0.810975306060171,0.559213253260241,0.474887621256094,0.0498399767141924,0.474215437218952,0.60182346001137,0.675348345459803,1.32932439398335,1.39597652690168,0.15835338030691,0.566030691520583,1.58466097149772,1.4611424220966,0.328129606284448,0.407721866035282,1.13934627067228,0.220401835682985,0.259276351761602,0.41158610281944,0.874092663388561,-0.364711429762106,0.252247261992064,0.3076894746379,0.869567730894789,0.478426745083409,0.646621005856834,0.77018307773958,0.808852937795312,0.758339174161763,0.969543989477566,1.32188839478235,1.36332636992033,1.32749242181188,-0.118736262831076,0.914990867889719,0.6320782003867,0.829184030385943,0.808087854918745,0.336197335459231,1.07355540604637,0.352335331382977,-0.0903636910234794,1.03754750540638,0.53854501931434,0.52427696348943,0.649053375486719,0.887641145035332,1.47228702042479,1.34969891589614,0.328037369439957,0.295408923304057,0.111087362416516,1.00528322766491,-0.00999454554269724,-0.0815338187491422,0.105406542672578,0.745695400788926,1.39274770277686,0.373715534746302,0.0490320182971012,-0.0802202401330634,0.202384363419802,0.433397110474076,0.0270359475492842,0.416984548959783,0.0725767624937457,0.667607290032672,0.659085440677642,0.555763009731405,0.634738465948364,0.854348016911784,0.675974808489363,0.575112143342308,0.618319278457762,0.181250786094186,0.260517989208321,0.473523457584139,0.401551455377834,1.13555784085288,0.318502705530806,0.174324816661308,0.688024673972983,0.282882011450858,0.0904045786213103,0.386142543752183,0.476884536337032,0.506108317138935,0.985553779553321,0.576881012762271,0.144928305373115,0.279871339814473,0.698429387158346,1.32107706700942,0.022671059816801,0.797503087636362,0.528584373846829,0.618929189115052,0.759322706017013,0.891290458374539,0.713522041170326,0.188832198583583,0.554826740685347,0.69252692437684,1.26805550442437,0.358694736394273,0.0487725896531706,-0.159872327335731,0.569400968800132,0.955670152691705,1.47389015266525,0.701288548603221,0.985527280520193,1.38835851838884,-0.0478647400047615,0.259672769186086,0.431738324023188,0.258046072739458,0.655311815084037,-0.0189923284664912,0.509632695909168,0.189543071845419,0.239664500285995,1.33191334508582,0.667585869189732,0.744544496013135,0.287374434842149,0.503925565621717,0.243043770630817,1.06737354586826,1.0314979587252,0.812494053386078,0.312704915372708,0.162507718737021,1.15224245840026,0.731784767629231,0.449195264312905,0.913494169201129,0.451096680895242,0.246218204236685,0.54929323588194,1.03561966831256,0.998698826782333,1.07245367230552,1.31034663127866,0.809397129042731,0.620166832458052,0.590464768163277,1.1850601307997,0.737869159526838,1.01264744277279,0.873347791949553,1.02370741607747,0.997112257683229,1.01258594326976,0.917572455810808,0.380235050825946,0.335560247319902,0.458719994361696,1.39059794036312,0.406123055949047,0.877093325156617
0.243338676475665,0.908849603768688,0.516247483767927,1.07359188172623,0.102462708510361,0.850989614008243,0.69294735856241,0.989345709446678,1.15410789783138,1.08199802026904,0.16468889044362,0.576382096228773,0.363533731816177,0.250217641259429,0.929667418803733,0.601214514191751,0.0202418651532006,0.21150525103166,0.314527013659693,-0.00037328536373891,0.586168217427005,0.619342209529823,0.748344393675848,0.257882803582648,1.28521010721833,0.587749575263152,0.300582457737082,1.34286149979258,1.0000055797019,0.0939833560753811,0.270002532557237,0.598703108864592,1.28734499393323,0.280243029554331,1.10488825524675,1.05836691767362,0.835938095628946,0.56221026664618,0.434696042448366,0.0305745822003314,0.488044161188671,0.652354070621434,0.72791705055689,1.39394601832417,1.44325965782391,0.163299539999217,0.589756353647695,1.64079295881541,1.52303408499098,0.314407589982765,0.396426223189015,1.18454329487948,0.252775140412635,0.284219144704211,0.436910455107048,0.913954955747673,-0.409227077956824,0.256743537593346,0.347155789627192,0.884711277040424,0.498103198181468,0.692139153596135,0.832552232284363,0.857112666851173,0.785578000432464,1.01191074446134,1.37331382652487,1.47240758966195,1.39307914468603,-0.163189395072252,0.986550553934374,0.623245326621246,0.835834938567697,0.827760012489236,0.344894965059723,1.10112603560849,0.34960540718772,-0.109866258137555,1.08467782555755,0.548290182900118,0.573286366189624,0.67125371236509,0.888004301667093,1.5507919801937,1.38659441018705,0.343377967847917,0.337786001787129,0.12778311072025,1.04701703724077,-0.00587924774749254,-0.0938007793432409,0.134570568131196,0.794503243693987,1.42644854122655,0.3993791277309,0.0488355374137418,-0.0891666280495966,0.218700963516223,0.446462216146522,-0.000108005998725764,0.420105970991436,0.0970404904386756,0.740035029263452,0.670027281613193,0.562209553365452,0.673818388961137,0.856294414039359,0.727048166264846,0.613149281963607,0.627923600887749,0.194605957921259,0.260425967765484,0.537617671938787,0.405975552490646,1.21375251298427,0.304403692320663,0.156064970233454,0.707604442702452,0.285174767991214,0.0869624159899318,0.398601755627469,0.466980910600537,0.538832860968218,1.04054550137207,0.627405777714149,0.157142330763241,0.320222484259455,0.715401754484056,1.38140443200964,0.0278106380022294,0.879488373620786,0.546669711067196,0.615020899444022,0.819336624369674,0.911442138400879,0.730735394594944,0.183782074063757,0.56274843771538,0.773182801616841,1.3426546543128,0.382110885773328,0.0492699542767333,-0.156028120051962,0.565201027422021,0.952521126636037,1.5478763500446,0.71401682028781,0.995589936688721,1.4130070151383,-0.0651266513797053,0.249393119029006,0.434028311019323,0.280989652330122,0.652161533572241,-0.025193130831633,0.511970517555301,0.186717190287034,0.240983404333079,1.38672299525025,0.699261886149048,0.787085798502019,0.307668797690616,0.527001040834077,0.208806044167624,1.10716754673679,1.0227058871018,0.824405641999012,0.330980852204582,0.148062690481085,1.22663374315694,0.7708740747531,0.405702005787555,0.933958744354893,0.455727777605304,0.23469880940666,0.523448805695887,1.09635942936449,1.04627622633829,1.07496554071542,1.35018278218946,0.844865793740582,0.630010176927124,0.63965416983264,1.23529804223159,0.763740929698379,1.01118134053279,0.889011476597761,1.06892793809944,1.0300503804093,1.05003757924821,0.921659598980014,0.352396174942388,0.381006347598719,0.443876787598399,1.46323144826148,0.406629394581967,0.95540779679323
0.269214903434329,0.973574914598193,0.511439772457605,1.10187961874356,0.0607376586175252,0.854881480820229,0.732633099990312,1.01844138265029,1.21492505635272,1.12585077878789,0.162644437370147,0.59053697660226,0.363058024109496,0.239442931653065,0.950439206018392,0.629503949249761,0.0218172264131686,0.217909640311865,0.308960591024065,0.00920570787642829,0.5787763240575,0.674115190730877,0.762604591126226,0.255967379562355,1.34594684265464,0.606099866649913,0.318254079427146,1.40506693168949,1.06981944848488,0.0657912484891174,0.275494455704523,0.636539291956337,1.30399477099885,0.268000462026152,1.1312476379845,1.09672636284444,0.863618013180285,0.564092317386611,0.393455218191258,0.0114030493490455,0.501854579073873,0.706313102400819,0.782487392795155,1.45931370942952,1.49206702174766,0.16779651325476,0.613114988653274,1.6981655812065,1.58626918087741,0.299343750248266,0.385455246600811,1.23063700314904,0.283663151355338,0.308796241427108,0.462343809406292,0.954879396664563,-0.454786266851834,0.260994618496535,0.387090840898974,0.897815776464111,0.518883344765398,0.738771678323832,0.895822155836695,0.906635744675503,0.813024695498788,1.05431418515026,1.42653651344297,1.58347344570527,1.45961321649932,-0.209371509700529,1.05778397269029,0.61354227985812,0.840203676770644,0.848407454696812,0.352026293300709,1.12826634676927,0.346144088513773,-0.130397527138402,1.13396097273087,0.557175264106136,0.623655801866219,0.692721002688318,0.887601963711684,1.63066057760324,1.42415098097434,0.358485106866142,0.381264035241028,0.144376622658096,1.08714330177014,-0.00141699169802829,-0.104929154216699,0.165351353234384,0.843530071735302,1.46052455596185,0.42586622424599,0.0491893654971951,-0.0976865315189333,0.233977060238919,0.458604250588959,-0.0274219935345478,0.423107705299182,0.121901720271735,0.814784066392028,0.681857238295245,0.568098300468975,0.713515972791814,0.85893996100337,0.779578480633714,0.65195210270184,0.637099660169945,0.208031310918213,0.259856472266736,0.604353627887475,0.410684552543908,1.2921905113317,0.290952496614337,0.137129475466656,0.727948137101201,0.287328700187138,0.0827579289337861,0.412419136155305,0.456162720126482,0.57072505918041,1.09700407140987,0.680015444876475,0.16898259868069,0.36116148525327,0.732468330605721,1.44391559888465,0.0338980755594961,0.963812467193594,0.566269604167221,0.609550727390934,0.880800524404323,0.933446467192154,0.748228006274057,0.178627691942235,0.569802470903224,0.855671523228635,1.4204666441378,0.406173064577862,0.0508951349449139,-0.150102403335382,0.560328050193541,0.948953945591644,1.62390601145168,0.725245357198103,1.00584102035005,1.43773336732762,-0.0816594382622821,0.237971391585709,0.438070001774463,0.304664188223715,0.648809811559793,-0.0299558520286988,0.513412926344466,0.182351736013527,0.24255960332035,1.44361196339686,0.731824645818272,0.832682591487261,0.330701141846826,0.54981887961681,0.173645153977706,1.14819453425143,1.0132782706727,0.83539035329418,0.350459748084184,0.132863691521663,1.30184209382382,0.812064896630417,0.359635124810758,0.953673890007397,0.461046366629693,0.222297141312277,0.496540584735109,1.15955648669171,1.09539805534013,1.07845664196376,1.39064745825114,0.880687360458965,0.639661800036547,0.68953096175655,1.28678984587215,0.790471134247745,1.00873382727277,0.905248135073472,1.11427417396464,1.0639451502397,1.08744587730303,0.925276917347249,0.324477845673733,0.426717717373766,0.427209061393822,1.53757483988556,0.407264006898529,1.03507018410094
0.295722762113866,1.03953377301904,0.505761588482716,1.12961272476795,0.0163641119123695,0.859087791332288,0.772366369978315,1.04752666110357,1.27445265018026,1.16997736762468,0.159603535189995,0.605837930848379,0.362118904772487,0.22746867013884,0.971087789843621,0.658986156170662,0.0248381035097718,0.224661694215018,0.303547688415571,0.0209853430333022,0.57089923656321,0.730854247609942,0.77627341547019,0.252831012961763,1.4078421062541,0.624230652353143,0.336308252369351,1.46785971289684,1.14162132493315,0.0377351559892043,0.280426172155538,0.675369550625216,1.32115326167021,0.255535456540405,1.15893124204389,1.1351285550665,0.893662964995409,0.565369045209382,0.351507391923418,-0.00746699049907452,0.515833136336829,0.763382981182324,0.838633824232436,1.52548183578583,1.54233751607354,0.172291400303459,0.636255927928683,1.75651619010569,1.65062037634422,0.283341734878206,0.374977207359589,1.27755594164356,0.313141659084131,0.333136165105962,0.487801084464851,0.99665391610664,-0.50115241385248,0.265030213067864,0.427204956976931,0.909302092602585,0.540480197880269,0.786157126706081,0.959588527263193,0.957427771664657,0.840722281508495,1.09685805197727,1.48134766469503,1.69602876445835,1.52683607510298,-0.256772994680967,1.1286493090273,0.603320465084123,0.842736512236958,0.869931899452901,0.357951848447003,1.15492187334818,0.34217652115473,-0.151765026688471,1.18513432869196,0.565432434941818,0.675059362485495,0.713274457165103,0.886598557053758,1.71147070828048,1.46224073667669,0.373465880361234,0.425674195683599,0.1606765061956,1.12589355934515,0.00327942774857273,-0.115246506546108,0.197510452993568,0.892510058056861,1.49511690649613,0.452848125914095,0.0502412158785183,-0.105539393243604,0.248526843061374,0.470073273285073,-0.0545674673829751,0.426100776349746,0.146899539911409,0.89127900566708,0.694425010180445,0.573730043470557,0.7536251018614,0.86223530387428,0.833503986910169,0.691606441464457,0.645865957544676,0.221710166023482,0.258711860114928,0.673519128697983,0.415749182139533,1.37084490895798,0.27823523802374,0.117719860153883,0.748873837779951,0.289318853351348,0.0780037088005572,0.427416653710116,0.444567082548701,0.60192671013821,1.15467705395307,0.734477171791284,0.180404102922155,0.402491078544565,0.74921268350499,1.50829248796986,0.0409713879447353,1.04998056209174,0.587235006080289,0.602839231637965,0.943441535515474,0.956976193851646,0.766065787935153,0.173391637131788,0.576334003931928,0.939450861222585,1.50101256416997,0.430788000094841,0.0537678143020365,-0.142597821753098,0.555001676448585,0.945065984973726,1.70168421979298,0.735578612832751,1.01655877233034,1.46252639201971,-0.0975231025441711,0.225673661459084,0.443572735259078,0.329029479491731,0.64532595652287,-0.0336917536656971,0.514193189395041,0.176696306273522,0.244478580164007,1.50227976875389,0.765140842866778,0.88070856114755,0.355948664434653,0.572608244885471,0.137893675980634,1.190192918963,1.0035950816438,0.845780086777677,0.371067411522858,0.117158915466111,1.37784723090655,0.854947532933347,0.311713531085285,0.972951359257601,0.466984849197911,0.209255114861832,0.468997407463378,1.22481507405935,1.14570908651206,1.08314322264645,1.43150531713099,0.916730871536749,0.649445582897488,0.739972189299473,1.33939353269297,0.817830328178901,1.00560490568384,0.922235934447525,1.15967831062586,1.09840236744997,1.12486740796009,0.928628408431056,0.29669348706743,0.472528643416115,0.409142507858805,1.61327722579069,0.408144623859598,1.11579410648501
0.322842330426398,1.10645782710769,0.499521236926611,1.15689328692105,-0.0300085348444169,0.863695605748692,0.812152503065848,1.07672994591049,1.33259563367064,1.21421188566078,0.155745264378543,0.622093523465587,0.360735601825798,0.214505864878334,0.991688135271982,0.689232853281321,0.0290804238649888,0.231627287456464,0.298203653811509,0.0343844493168487,0.562611222434306,0.788835806728818,0.789595812219169,0.248822118929267,1.470660617756,0.64227328217462,0.354623355929089,1.53112709867526,1.21507427963475,0.0099171761590233,0.284763835752127,0.715043629274501,1.33871408372646,0.242886758598633,1.18764187275848,1.17364883558487,0.925610513227498,0.566409993969943,0.309134423416359,-0.0260169813408916,0.53001542754691,0.823034129603016,0.895831256877948,1.59246204461705,1.59387573425083,0.177142854934563,0.659442387598425,1.8155303867813,1.71571663428419,0.266648634845146,0.365046550741567,1.32521137279461,0.341567106342124,0.357426239489117,0.513184130681229,1.03914222550036,-0.547926554142934,0.269001245834147,0.467234734177105,0.919622008352272,0.562560408335032,0.833998240462049,1.02357050493234,1.00945598017622,0.868617500818688,1.13953408251947,1.53750777926864,1.80954332594192,1.59453629434389,-0.30484466481076,1.19915488599317,0.59288834569713,0.843993593531918,0.892038762605749,0.363152461286017,1.18103082635402,0.337944128861755,-0.173761484997223,1.23777177207435,0.573228815525784,0.727166788047659,0.732846817342208,0.885242936961376,1.79288689720456,1.50071687428893,0.388380837925192,0.470842782243699,0.176484162083747,1.16363220962786,0.00827871952537761,-0.12497418485274,0.230814018947174,0.941267487794028,1.53017469447946,0.48008860480673,0.052070095234632,-0.112588348558634,0.262761302951565,0.481097694818408,-0.0812260702355758,0.429114373295804,0.171829688538643,0.969140338266635,0.707446028961345,0.579321587246371,0.793924399899456,0.866034021135007,0.888633404476585,0.732144768060812,0.6542325909459,0.235852711056206,0.257056661779242,0.744670222778608,0.421279940333165,1.44981078797421,0.26624659077526,0.098017768403403,0.77014954389861,0.291220405588396,0.0729008757314942,0.443277011328922,0.432405522166284,0.632647393650622,1.21336959777769,0.790337041458213,0.191416671150857,0.444041787110655,0.765360105362571,1.57408152576929,0.0489615579645645,1.13745410583911,0.609315698691499,0.595238689630397,1.00702920978004,0.981583887352873,0.784279643745377,0.16823693116488,0.582751006765689,1.02407173771271,1.58373440151277,0.455882059439532,0.0577964690119577,-0.133921630219156,0.549459910021973,0.941010226915047,1.78083319365937,0.745509967753331,1.0280073070813,1.48743133827743,-0.11286987428524,0.212824658558914,0.450084099648669,0.353860621212156,0.641618885621284,-0.0366318727286399,0.514602392750299,0.170064179010926,0.246791937845356,1.56221491914782,0.799069857029168,0.930417703463316,0.382675940675898,0.595587218482788,0.101806302895837,1.23283129394629,0.993966789102948,0.855950375565271,0.392663044598439,0.101171045366772,1.45456664048885,0.898943134646288,0.262550985259211,0.99213962831293,0.47345792794545,0.195760245507179,0.441259348509024,1.29155363058577,1.19687826258691,1.08910268980703,1.47255177435639,0.952965951117182,0.65968907326296,0.790828832655918,1.39282388076389,0.845577647618762,1.00218891919931,0.940044572822441,1.20518249839865,1.13298794886777,1.16233964660359,0.931938203422335,0.269261911596684,0.518462384219759,0.390155703539292,1.68997161749797,0.409426255752058,1.19727691398633
