-0.173933786860431,-0.667004975173557,-0.18660916876214,0.0127470104790021,0.460109878605148,-0.0904363367018932,-0.498494783648404,-0.0741383760667839,-0.365933824538158,-0.98800196359003,-0.643555017671731,0.240141185736456,-0.0626782838157195,-0.267965786543856,0.238354840926079,0.605213527999941,0.730567738140716,-0.141179253683186,0.628380546386297,0.839866880774314,0.394112252669945,-0.076717859918476,-0.0932459651638812,-0.397551553455188,-0.584863431670432,-0.534601652955598,-0.141047383174336,-0.654559550139624,-0.456645487560466,0.538035381624608,-0.105997286088274,-0.219938938310502,-0.267923025914301,0.283280545430861,0.241113085719453,-0.97729107346399,0.675114708669278,-1.14166173495984,0.0774580428775954,-0.110691284880439,-1.11772599203946,-0.131189876165574,0.0960483701927003,-0.521428403125083,-0.0906237819617544,-0.0335785878037974,0.600753062851872,-0.252098357050996,-0.625939692065444,-0.266592778865544,0.533464799684345,0.0364038450472055,-0.40859672963571,-0.195913805629681,-0.346555653561974,-0.54740739484632,0.789456943518839,0.232307356761111,-0.349033136079628,-0.930405258734129,0.247995838559173,-0.174374197079405,-0.16029800140347,0.0545963578591194,-0.468390080224666,-0.765509725626261,-0.130080656494278,-0.877982497225716,-0.408398830409528,0.277477167679848,-1.256783165974,0.54105799904945,0.0671086612494867,-0.414544479876758,-0.012212787768396,-0.935428811440527,-0.255656974031506,0.601557867560114,-0.0720777726322169,-0.121679452470227,-0.347640624964472,-0.660025190833788,0.336990245553236,-1.02994241076915,-0.526257707162765,-0.381192210259648,-0.549394192409061,0.101940515664798,-1.08138664977236,0.477551403367835,0.891061897448593,0.452753525539509,-0.516831055206226,-0.228073593146023,-0.0629013082096026,0.452263128937424,0.129466228406428,-0.198178230788813,-0.416689227381295,0.682351765226323,0.444907412608056,-0.32627215555556,-0.267377338511606,0.217905488595709,-0.120234175797845,-0.2406299169148,-0.00562088799973112,-0.998480974819607,-0.0534682991460254,-0.819893821203133,0.170187701113437,0.348834760176033,-0.485258580301442,-0.386031364758156,-0.502522575609108,0.528120925831598,-0.126497868877233,-0.328780344757436,0.280887390945558,-0.391055141908767,0.57001024921926,-0.36853101441638,-0.854891139327499,-0.687031538232662,-0.203003656392973,-0.14461302700271,-0.0173047036788134,0.103782671295408,0.0592743337308737,0.603616305418897,-0.750408584969745,0.379561359650397,-0.172247691079842,0.274471372745529,0.127642662415814,0.115400734333333,0.180133991207886,-0.169929349228896,-0.256029447452624,-0.308867070026875,0.164606156666727,0.291469515819072,1.38311739694414,-0.195214797019291,-0.274317899207391,-0.307891123581219,-0.963946161522407,0.0222978018477784,-0.275888402202339,-0.454892653886622,-0.287011052947305,0.718235393898695,-0.54080576076453,-0.69906407188957,0.839904210547196,0.199065771881805,-0.119371850603854,0.114041612941526,-0.0741569018200467,-0.43391080103483,0.357824531190559,0.423574450262092,-0.32119316735738,0.181255448339742,0.246237521759548,0.177312623629978,-0.181030357106115,-0.210655626514652,-0.251015933372749,-0.465579307981367,-0.0428364892976382,-0.489044606885092,0.0603598114662159,0.184691089602766,-0.337126461321026,0.13139361348113,-0.353299461252236,-0.311064327393583,0.334476396839241,0.0342960388400472,-0.159095430764376,-0.133564403122697,-0.294547432054483,-0.164095287169205,0.286864590855404,0.293414372175398,-0.125821438261553,-0.60733231549336,-0.142099945744741,-0.441497001643429,-0.0990869224949419,0.696501540017812,-0.245493322552039,-0.387920424390132,-0.392866178599501,0.434219289074542,-0.593179017676061
-0.163474182144791,-0.624521460964018,-0.180437536442615,0.0148498123562326,0.448741313314445,-0.101607163645258,-0.469795310055333,-0.050514094931378,-0.359148086762862,-0.954584186397084,-0.604516094196122,0.262796657608626,-0.0705528779871171,-0.266022049947231,0.226944611930944,0.599164220765726,0.724127857216001,-0.128134578116829,0.619643133400813,0.829543576078967,0.383067325297516,-0.0596499730399216,-0.0986661931718278,-0.388724349554566,-0.559888179960924,-0.503293927250506,-0.139901181375907,-0.614951794262136,-0.438672001098041,0.52651566332253,-0.0824877076116988,-0.174604889888744,-0.25464646304973,0.257675817154351,0.257296982130209,-0.926901436955286,0.651480048982127,-1.1076805714049,0.0910406337205705,-0.097383992169793,-1.01415772649209,-0.116611470542479,0.110311583440911,-0.485686294207499,-0.0905101766376905,0.00319202152542396,0.593557283150459,-0.250061645568212,-0.596670902970407,-0.247859373074218,0.506764130148477,0.0571200509999286,-0.365384879581392,-0.193640067961694,-0.31841480388358,-0.51520825721728,0.752166806164097,0.218733050269054,-0.319658216243455,-0.874830781220234,0.23674688061394,-0.159172702256695,-0.129657498708804,0.0843867313575673,-0.433516442899164,-0.721969459063519,-0.113192691627975,-0.825813062486008,-0.378065447434004,0.288684255861361,-1.17875452214091,0.54712256439051,0.0769198061928836,-0.406361405081527,0.0222872241368685,-0.905934057070796,-0.21971215701464,0.584777203780305,-0.0525963031356678,-0.111572643174913,-0.310120628899002,-0.614744137369326,0.337153770171622,-0.980120132382194,-0.50239670024407,-0.34901012036793,-0.524677442453955,0.102874241456134,-1.02538518497609,0.473039073872961,0.862183141152566,0.459335729168263,-0.476928684960058,-0.208704116776785,-0.0599788275388718,0.4550104837649,0.120937542359998,-0.149278094303818,-0.380451199258111,0.671395799332986,0.436737748500377,-0.308912301995058,-0.247104098070601,0.219244000984566,-0.0885520506729397,-0.220042839859703,-0.00850054161871219,-0.956330921022206,-0.0402949474662331,-0.813204581835111,0.195799905451051,0.330809477348729,-0.456072054791575,-0.366658709182632,-0.438038655751668,0.518096522320968,-0.136979944224108,-0.325330902099682,0.289218025571003,-0.371534750148128,0.544989196260705,-0.35480642266964,-0.81250795217001,-0.654576863907472,-0.170081015837383,-0.134031491727314,0.0279180957425455,0.0713581052082789,0.0614460985260643,0.596281230583538,-0.700902781990575,0.376813635771759,-0.174975496840073,0.29726972053319,0.108868913769558,0.121357516323087,0.184851591152016,-0.142007353527485,-0.232780512936576,-0.297937169755627,0.192789991726666,0.300894593132224,1.27684131978525,-0.18291224154867,-0.261473526171758,-0.285529298022246,-0.93249163679809,0.045729235337872,-0.270677483477532,-0.440612909782977,-0.28372107909745,0.697254663581398,-0.515998061493671,-0.693370718404431,0.768033816985527,0.216285620359009,-0.121710281655483,0.0910555760935183,-0.0735976333177434,-0.414723596643379,0.349101565701616,0.41308797084197,-0.27355271672239,0.164761757726123,0.258696411319148,0.179487215760749,-0.143735842771378,-0.197214550715727,-0.253278049304745,-0.402557240149224,-0.0297815566700729,-0.479934159990684,0.0639033315594965,0.169502712546791,-0.339021148888493,0.126495210355273,-0.333590419276124,-0.287951740710763,0.33042450793021,0.0334785416881782,-0.129265848560572,-0.102099558189751,-0.260348660724498,-0.154447028122999,0.298187555041321,0.282941590231855,-0.114817450724673,-0.565261965531191,-0.142933709724823,-0.416138056364135,-0.0980117867312105,0.679875221158706,-0.238661054503478,-0.383144301846704,-0.374950841872457,0.42657649471893,-0.541267622772731
-0.153016879435855,-0.58208447085205,-0.174264801480022,0.0169942765499549,0.437398620779909,-0.112750983202299,-0.441112595123108,-0.026899205095831,-0.352365019062708,-0.921124740205738,-0.565441393911862,0.285434328388415,-0.0784076439996263,-0.264122399718616,0.215536312919995,0.593103309350505,0.717696417157147,-0.115099693202719,0.610935430010323,0.819219473781638,0.372008294791389,-0.042595125872876,-0.1041028842417,-0.379920311385225,-0.534885143497772,-0.472013867388877,-0.138798560116098,-0.575328522919578,-0.420728026239829,0.515022501548909,-0.0590393589900693,-0.129257668167483,-0.241350478508898,0.23210831548938,0.273476132015801,-0.876495794670245,0.627803730908396,-1.07366651819451,0.104626896135182,-0.0841048451125186,-0.910572657901948,-0.102046440517974,0.124576644085224,-0.449937983222874,-0.0903881764631623,0.0399507535906201,0.586318562404297,-0.248026687895525,-0.567421987825059,-0.229167791583258,0.480056962913658,0.0778017423752546,-0.322167632305565,-0.191362427205239,-0.290283757306162,-0.483008330614433,0.714879134481424,0.205130598131218,-0.290332903967963,-0.819228165571853,0.225544924661762,-0.143952539360193,-0.0990089502818139,0.114171062908874,-0.398645652639524,-0.678400804018513,-0.0963016450148398,-0.773660991725375,-0.347717326357764,0.299919560372546,-1.10071213115149,0.553170989043078,0.0867314534454211,-0.398185001945032,0.0568078874932108,-0.876437334997505,-0.183772873949558,0.56796562289127,-0.0330844370871776,-0.101393447434291,-0.272589366631101,-0.569470538723447,0.337292113858744,-0.930286510020484,-0.478512654239433,-0.316806429640555,-0.499930930620251,0.103787586236864,-0.969364473269743,0.468487251784199,0.833306725677753,0.465873015073834,-0.436995235852638,-0.189324250947277,-0.0570427288457091,0.457750247387648,0.112379701696576,-0.100376365164011,-0.344234384744193,0.660428287833699,0.428567792837103,-0.291558169990024,-0.226865451356652,0.22054822403167,-0.0568832093793341,-0.199403549300799,-0.0114204018667656,-0.914164823969355,-0.0271422093816178,-0.806482958548125,0.221382283910732,0.312861908163392,-0.42688053795865,-0.347269138984549,-0.37354293704146,0.508080142241196,-0.147470325345276,-0.321921012279079,0.297548818836165,-0.351996310477773,0.51993772944982,-0.341109468958575,-0.770117352496422,-0.622087915927188,-0.137172841071827,-0.123418535377271,0.0731430486667227,0.0389329220502388,0.0636080610174813,0.588929283316532,-0.651403754474276,0.37406983656235,-0.177698369477991,0.320070073421076,0.0900804218432168,0.127362040414521,0.189577618257853,-0.114054555569828,-0.209510437821089,-0.287026154429411,0.221002160053454,0.310293517893486,1.17055320040541,-0.17064589473478,-0.248686296159559,-0.263178167085863,-0.901025478480609,0.0691431167702485,-0.26546835726567,-0.426311630049188,-0.280431956939215,0.67627634259391,-0.491184127939053,-0.687667341126412,0.696144810589707,0.233501476224182,-0.124062132915901,0.0680746071191677,-0.073006668861505,-0.395535723845087,0.340374362136765,0.40260984758251,-0.225868177661501,0.148301282878793,0.271123959786003,0.181684921044376,-0.106439476561589,-0.183775674314134,-0.25555690763972,-0.339560099468671,-0.0167252494883965,-0.470786708993509,0.0674606526944914,0.15434234296024,-0.340924576351624,0.121584326500333,-0.313900166541457,-0.264872765358462,0.326378050107372,0.0326335907881244,-0.0993897070648777,-0.0706293791474707,-0.226135396537579,-0.1448291811847,0.309514596860915,0.272433208366272,-0.103810791428609,-0.523201838721871,-0.143786081556101,-0.390782256160116,-0.0968887389701854,0.663249412587688,-0.231848801178013,-0.378388567537586,-0.35703693889642,0.418970001944126,-0.489388160393208
-0.142565962052143,-0.539767553572618,-0.168069520313159,0.019281022463333,0.426110932502528,-0.123807289499122,-0.412462165943267,-0.00330049150255714,-0.345579233905303,-0.887549438174336,-0.52624529085258,0.307974977166883,-0.0862382784131464,-0.262327958052852,0.20414281478655,0.586999250459271,0.711276126595673,-0.102060281933873,0.602311989426289,0.808837383879566,0.36088522247207,-0.0255594503171055,-0.109578839491782,-0.371182432257309,-0.509773001477381,-0.440809001896818,-0.1377870129397,-0.535654010447862,-0.402881391882997,0.503574758321572,-0.0357683443961468,-0.0839044111535532,-0.228019304039424,0.20667235309938,0.289613872993389,-0.826027643289246,0.604015778656301,-1.03953418294773,0.118248614192448,-0.0709058889052506,-0.806964699538896,-0.0875328785865792,0.138833460607037,-0.414164623704674,-0.0902341309440528,0.0766560116099194,0.578954537118123,-0.245981778188699,-0.538216693643867,-0.210584449923446,0.453336403109819,0.09837785094378,-0.278950136561738,-0.189059042275185,-0.262180299384166,-0.450795089345898,0.677568596393062,0.191463258185201,-0.261118162411637,-0.763585425063659,0.214459317298706,-0.128644848353307,-0.068371434095664,0.1439259047577,-0.363794207117743,-0.634743674365164,-0.0793935918819662,-0.721550778010598,-0.317327372825327,0.311200928988404,-1.02263336218161,0.559137940387534,0.0965524583327552,-0.390010172658053,0.0913841716983702,-0.846909093675149,-0.147844320311309,0.551115855168199,-0.0135074507539836,-0.0910349668891076,-0.235042124684735,-0.524238435239533,0.337352617561999,-0.880436276384801,-0.454549029331359,-0.284533989681458,-0.475108473094006,0.104676448392301,-0.913289873558534,0.463803288585786,0.804409254184872,0.472257999370064,-0.396970811977316,-0.169915898739808,-0.0540588318491027,0.460496134310306,0.103763565047789,-0.0514739789153344,-0.308078004929665,0.649396637218528,0.420365877123277,-0.274224232725262,-0.20671272015573,0.221757453199132,-0.0252556966730118,-0.178596707397045,-0.0144414221628317,-0.871946472268923,-0.0140433743134543,-0.799621606505142,0.246857129121803,0.29513481554674,-0.397664284088684,-0.32783719361456,-0.309029846848183,0.498095885745999,-0.157993004678525,-0.318592849996045,0.305863556606573,-0.33242613389382,0.494814888096881,-0.327518669607331,-0.727713232493434,-0.589492949112346,-0.104295664637883,-0.112708873617591,0.118355144649918,0.00652186692196306,0.0657205676551954,0.581557466276827,-0.601884480009161,0.371349556720744,-0.180391392640585,0.342850016560799,0.0712571784489635,0.133513905157013,0.194297673553246,-0.0860135285423419,-0.186185596777483,-0.276180858612908,0.249283714888404,0.31964040033379,1.06425401467963,-0.158487913897724,-0.236081103192031,-0.24086852856207,-0.869498783635326,0.0925239629923225,-0.260233072467182,-0.411935368134813,-0.277164163855591,0.655337712439813,-0.466382916470806,-0.681929573820757,0.624225631322288,0.250691394206619,-0.126431512625894,0.0451054360654296,-0.0723295955915184,-0.376343678920349,0.331644183495392,0.392156584874445,-0.178045045273358,0.131944137366533,0.283445499738279,0.183951466985195,-0.0691302942414719,-0.170378572104571,-0.257902893240549,-0.276651773170445,-0.00368699004693042,-0.46152165607593,0.0710758319163725,0.13926671878015,-0.342857199530654,0.116644885210159,-0.294237781199497,-0.241901788651929,0.322344309878619,0.0317158606332725,-0.0693897269856104,-0.0391647342269036,-0.191877980291511,-0.135289351997334,0.320846699356735,0.261804994373521,-0.0927724847418643,-0.481180106167634,-0.144675659707489,-0.365431896514934,-0.0956414779895745,0.646626448040111,-0.225096056729827,-0.373693686403843,-0.33913254696612,0.411460392687796,-0.437621229339022
-0.132128510137371,-0.497630661157934,-0.161792030719846,0.0218678686006806,0.414896796442034,-0.134667713688163,-0.383832825816697,0.0202932198538897,-0.338770357294441,-0.853747674980439,-0.486816098083012,0.330230738618797,-0.0940835807201149,-0.260685268550415,0.192796357366272,0.580789821946022,0.704866707122718,-0.088958309582888,0.593834208070699,0.798261297667247,0.349616282852203,-0.00853200145453309,-0.115129626739226,-0.362567188207582,-0.484386956753076,-0.40971901126989,-0.13688090152032,-0.495856759823846,-0.385227955542404,0.492161680206628,-0.012860042324751,-0.0385788700910401,-0.214641041506958,0.181529029412325,0.305620734472317,-0.775413822935944,0.580041337512092,-1.00512946505655,0.131986336972099,-0.0578385110511315,-0.703378231707421,-0.0731259349810844,0.153054113614095,-0.378317743244013,-0.0899843358429437,0.113215095746054,0.5713619438936,-0.243878956127728,-0.509047448830565,-0.192165584272869,0.426630031596717,0.118737602755269,-0.235766475520857,-0.186677085151674,-0.234124324265296,-0.418519974363988,0.640165523335663,0.177709179506581,-0.23203740184057,-0.707924629293318,0.203564162268364,-0.1131120109889,-0.0378029785611709,0.173586874134374,-0.32898932706782,-0.590895241569917,-0.0624336813974147,-0.669481915459951,-0.286854723794534,0.322501931121699,-0.944489967335249,0.564883928636812,0.10641197344606,-0.38178958520777,0.126065788091349,-0.817272100624627,-0.11191633715781,0.534274008143179,0.00615554817993312,-0.0803826274416538,-0.197499069602484,-0.479127137718226,0.337254501896877,-0.830583409362116,-0.430395686752153,-0.252111073384647,-0.450153419180626,0.10558478012656,-0.857109038664361,0.458839351605875,0.775444047906855,0.478358981936127,-0.356775024159191,-0.150446842529214,-0.0509932427742199,0.463286981770512,0.0950761249840165,-0.00256363053882445,-0.27203617340384,0.6381935211645,0.412034173185342,-0.256938956257708,-0.186695134191587,0.222790336310877,0.00629924713227785,-0.157463652272098,-0.0176214787067775,-0.829623172586335,-0.00103673292825245,-0.792435104355339,0.272095858941758,0.277803596079223,-0.368364417979372,-0.30831362031757,-0.244519613357731,0.488212176411781,-0.168591472087813,-0.315380271604669,0.314153160533086,-0.312824837358961,0.469608463631056,-0.314167189990394,-0.685286940245432,-0.556674453106107,-0.0714479371471208,-0.101776085937003,0.163512723299503,-0.0258268978065891,0.0677084498813304,0.574197485700221,-0.552272759702915,0.368689513050856,-0.183003861853897,0.365538823879769,0.0523980215915027,0.139959676594145,0.198966259611476,-0.0577811988119148,-0.162759428233266,-0.265457661328329,0.277680448292345,0.328913941470654,0.957984350883744,-0.146543009687825,-0.223839159343243,-0.218637513107257,-0.83780831224306,0.115884866570042,-0.254862353303925,-0.397386762929764,-0.273974489427758,0.63454363681182,-0.441672228085953,-0.676134244966651,0.552328241116771,0.267822058381095,-0.128782269606866,0.0221506178786349,-0.0714864231749034,-0.357145592350361,0.322939059958375,0.381763659250664,-0.129901650498074,0.115806165626356,0.295547682449585,0.186366032664914,-0.0317667918795092,-0.157092474516943,-0.260406355129707,-0.213929970223342,0.00928028641390821,-0.452010372052042,0.0748304137334951,0.12435231333515,-0.344864269016271,0.11165414709852,-0.274578810931854,-0.219137010851254,0.318312389573984,0.0306545272028502,-0.039185518931689,-0.00774648048488251,-0.157519696495435,-0.125857771611237,0.332157367296116,0.250895127837478,-0.0816356612380688,-0.439249137918479,-0.145601509168213,-0.340070157634714,-0.0941918524604129,0.630003210087404,-0.218441483335012,-0.369118253978456,-0.321236694441859,0.404141369228326,-0.386074513644893
-0.121689499281507,-0.455687835985012,-0.155350196946357,0.0249234148119371,0.403768622112762,-0.145173429616423,-0.355200711926639,0.0439169628257785,-0.331903433923312,-0.819586907484085,-0.447067848028644,0.35192095615744,-0.101962177562231,-0.259225623727952,0.181570647997573,0.574394563574306,0.698461418828266,-0.0757028633344612,0.585541137588775,0.787306457523958,0.338129245900668,0.00849599914436874,-0.120791431910636,-0.354154388640857,-0.458490962784407,-0.378739711496826,-0.136067638686911,-0.455842466548205,-0.36785515981629,0.480732749914297,0.0094641110703189,0.00668737648451515,-0.20119808545221,0.15686725991751,0.321383264589052,-0.724544265311439,0.555828948849583,-0.970270938647685,0.145929517725064,-0.044899794194742,-0.599980389995506,-0.0588778042115273,0.167216299125556,-0.342318906458822,-0.0895234040705266,0.149517404846868,0.563452112967154,-0.241645724304912,-0.479853795793114,-0.173924227446721,0.400039995581699,0.138755555701876,-0.192665602154721,-0.184131378229871,-0.20611343863996,-0.386113488439587,0.602559945366053,0.163863877356574,-0.203030737438523,-0.652279252888949,0.192905270427739,-0.0971834857395873,-0.00736145701041266,0.203050339893112,-0.294225175531151,-0.546708263701226,-0.0453802194294135,-0.617409805243503,-0.256245036219497,0.333753259224866,-0.86626126445805,0.570236416341205,0.116334568731906,-0.373442398102902,0.160895781830177,-0.787418403618183,-0.0759859662154662,0.517529822667303,0.0258955086490284,-0.0693196190795987,-0.160002819996755,-0.434233963657788,0.336913635935245,-0.780773370010907,-0.405908796178696,-0.219452466235512,-0.425011287646767,0.10658663035845,-0.800768508024123,0.453437852371524,0.74637058371356,0.484083080053491,-0.316347278840083,-0.130875672570888,-0.0478677148542719,0.466135745642243,0.0863307966458818,0.0463720580164712,-0.236170233022669,0.626672571536033,0.403379533572265,-0.239727357928654,-0.166856021687996,0.223534373515116,0.0377543213735325,-0.135853959536472,-0.0210027633382496,-0.787144468854638,0.0118438517242285,-0.784726662578762,0.296960482661178,0.261019299659037,-0.3388565225232,-0.288644797011252,-0.180070640703953,0.478542573236548,-0.179342339336129,-0.312303001492721,0.322465292252614,-0.293182596321988,0.444358071710507,-0.301177526803675,-0.64280435421348,-0.523504071509581,-0.0386236380935008,-0.090447064632378,0.208560273248913,-0.0580248080803104,0.0695003502742367,0.566911233369639,-0.502466512275942,0.366137415139353,-0.185486468065408,0.388024750273373,0.0335381541708129,0.146860990642701,0.203539533588389,-0.0292026351522357,-0.139156615273982,-0.25488719254794,0.306230401073636,0.338081837737519,0.851845438496286,-0.134943031697137,-0.212137479915295,-0.196493285636094,-0.805830727858183,0.139268823597756,-0.249187849407281,-0.382553814236115,-0.270948006242883,0.614068142891735,-0.417170473521123,-0.670286731806392,0.480625051859433,0.284864829403433,-0.131045972172294,-0.000781017050213367,-0.0703734888412801,-0.337956901985043,0.314305883716442,0.371479835462979,-0.0811860318780918,0.100028374051981,0.307323045954475,0.189051772554231,0.00574056561509066,-0.143991477793381,-0.263182358839495,-0.151481574493757,0.0221066216952935,-0.442127761583964,0.0788257734473439,0.109688115194507,-0.347028048885819,0.10656453990171,-0.25488547702921,-0.196662355265614,0.314241908486867,0.0293397574543367,-0.0087463857220479,0.0235769304666695,-0.122965407167196,-0.116516190394353,0.343371562745239,0.239465332356098,-0.0703108929148278,-0.397446175186565,-0.14654226570135,-0.314667227403826,-0.092499017016314,0.613377658376746,-0.211894708241737,-0.364749626046597,-0.303325047404325,0.397130689698394,-0.334822980915017
-0.111174584396679,-0.413935074832033,-0.148673193992357,0.028619963155291,0.392739465760208,-0.155150721208243,-0.326584251340692,0.0676158316733973,-0.324932909401137,-0.784964830609343,-0.406933578109316,0.372729020272125,-0.109788687003675,-0.25799701106798,0.170607888836013,0.567727556881321,0.692036959488109,-0.0621893530334728,0.577440337584611,0.77578509914758,0.326373099274584,0.0255256275194574,-0.126562982973594,-0.346066583871271,-0.431817228021287,-0.347808627190319,-0.13532852655468,-0.415536296920273,-0.350829619466957,0.469232370947745,0.0309724135429246,0.0518636421965982,-0.187672703180771,0.132873390566243,0.336798715305603,-0.673285105078894,0.531323413440207,-0.934787993103054,0.160128025347639,-0.0320649158913745,-0.497126632138943,-0.0448319507485394,0.181304816888813,-0.306077451668474,-0.0887146737799949,0.185487159897765,0.555172593164468,-0.239224537998759,-0.450566472488947,-0.155872178339081,0.373759448734677,0.158331346658159,-0.149688144014929,-0.181312383849113,-0.178097086150517,-0.353557042081126,0.56459301154509,0.149927569942021,-0.173966562952572,-0.596680190508833,0.182498698878031,-0.0807158926308886,0.0229223239938353,0.23222316901983,-0.259439131715846,-0.502006832789313,-0.0282009395910999,-0.565291390147139,-0.225435487475914,0.344857863435104,-0.787961498563636,0.575068390497885,0.126334697297694,-0.364907481026257,0.195896187141797,-0.757270884443501,-0.0400754645682071,0.50099346404963,0.045688763619701,-0.057713293678562,-0.122600632838026,-0.389650861268096,0.336248276638391,-0.731086727604733,-0.38094316936062,-0.186504894224303,-0.399645934061651,0.107751243965309,-0.744242119097556,0.447474072270234,0.717164635444746,0.489381619904096,-0.275670844504431,-0.111152767198104,-0.0447674979365579,0.469026454178246,0.0775815365446528,0.0953413816964861,-0.200555318410384,0.614665754926991,0.394137675025447,-0.222578775776431,-0.1472671384335,0.223816398619146,0.0690820304167622,-0.113641958300909,-0.0246399496439124,-0.744469147827062,0.0245635440029975,-0.776382925132926,0.321347114143141,0.244919632110079,-0.308937767010526,-0.268810287761949,-0.115771438643882,0.469198854973148,-0.190364900890881,-0.309375639867906,0.330914254286031,-0.273469762982572,0.419141333001242,-0.288603431420412,-0.6002253865332,-0.489876687237407,-0.00582796734147787,-0.0785456289933156,0.253435309930377,-0.08996659399917,0.0710319055183961,0.559793980301792,-0.452371021488077,0.363765605612434,-0.187802944364982,0.410180823544828,0.0147281557480026,0.154372762649263,0.207991057569121,-8.78656348395681e-05,-0.115267945589611,-0.244484401193281,0.334969654033517,0.347097396317037,0.745999361085519,-0.123835940065668,-0.201106986054265,-0.174419233289525,-0.773478489305893,0.162724004933967,-0.243047384652192,-0.367360658203964,-0.268183931014233,0.594123421706474,-0.392982202140253,-0.664453356763537,0.409382065951746,0.301811916600925,-0.133146816691468,-0.0236439012405732,-0.0688767923064777,-0.318796996403891,0.305799543294899,0.361365729544404,-0.0316043313897589,0.0847571047010134,0.318660804158175,0.19217499324409,0.0435087589074273,-0.131140630617935,-0.266357360021521,-0.0893516254715789,0.034733218059526,-0.431817985015289,0.0831704307529992,0.0953820085386156,-0.349461859799099,0.101318906290567,-0.235131222944877,-0.17454330885189,0.310086823002479,0.0276186101968078,0.0219259271225392,0.0547723831354407,-0.088088395913482,-0.107221990308489,0.354377458013813,0.227261123576995,-0.0587197955700069,-0.355748999420319,-0.147470012421664,-0.289193598528266,-0.090533033893028,0.596773215724417,-0.205449465040699,-0.360706096529949,-0.285355096838593,0.390560310388979,-0.283910402322952
-0.100463517663251,-0.372365916981308,-0.141750020489151,0.0331422268066028,0.381803060723437,-0.164466886009908,-0.298056558258716,0.0914296317538594,-0.317795503933104,-0.749847211244863,-0.366340899309231,0.392360727310043,-0.117400870397925,-0.25706680273123,0.160088440383195,0.560700270507841,0.685544550625457,-0.0483202476300763,0.569530349245473,0.763528910560879,0.314298502044363,0.0425560158820772,-0.132376344970351,-0.338454475599051,-0.404091915277547,-0.316815284772752,-0.134602439304565,-0.374902352225615,-0.334200295279266,0.457609249597205,0.0514540104394853,0.0968882772832099,-0.174052802271137,0.10971472558785,0.351774434220488,-0.621507533894765,0.50643188598241,-0.898560062358811,0.174580014697178,-0.0193599990034588,-0.395379835698872,-0.0310210612286011,0.195284245763413,-0.269487697494564,-0.0874358966830008,0.221062593917925,0.546514635479971,-0.236576735976391,-0.421150804472037,-0.138053668353006,0.348038063136169,0.177406360800915,-0.106860772941501,-0.178115386168253,-0.150006481779131,-0.320879031986797,0.526071512968364,0.135910448412225,-0.144733129101929,-0.541162083814407,0.17236495088543,-0.0636261198586673,0.0530753980854716,0.26106863290146,-0.224554898120505,-0.456651053394623,-0.0108583169988288,-0.513126467998155,-0.19435684043208,0.355687963322715,-0.70963164010993,0.579351214604879,0.136448931771879,-0.356176060625694,0.231070220425085,-0.726816774198657,-0.00422188543947293,0.484786409572696,0.0655173772634442,-0.0454438800155885,-0.0853255686863815,-0.345478649193639,0.335185576785534,-0.681623018979671,-0.355376851462457,-0.153244130645912,-0.374022854796647,0.109143082092754,-0.687550898316128,0.440896183961999,0.687823567462323,0.49421280586359,-0.234783180116113,-0.0912203552868471,-0.0417974302825544,0.471977086664471,0.0689014687470364,0.144334726656488,-0.165303310072242,0.602000809867027,0.384028705659909,-0.205439579052903,-0.128030598869577,0.223406181709545,0.100255894875633,-0.0907434938388956,-0.0286162841127183,-0.701533582201994,0.0370875550640755,-0.767412440206415,0.34519607791879,0.229652883639635,-0.278363157012922,-0.248827887760467,-0.0517154369644297,0.460234319819989,-0.201794918606982,-0.306608109627868,0.339668557709635,-0.253662675100777,0.394076179326852,-0.276434192579603,-0.557543681220497,-0.455733359234412,0.0269096337818588,-0.0659546778619817,0.298059452783776,-0.121537982624582,0.0722279936950729,0.552958780523539,-0.401917188224339,0.361673829113373,-0.189906345602703,0.431918048825854,-0.00398076831855128,0.162614085512675,0.212289873743943,0.0297529181969588,-0.0909753766602707,-0.234239461577041,0.36391637148373,0.355916845532302,0.640691830479504,-0.113344091549325,-0.19080582889977,-0.152400377626842,-0.74071614822873,0.186293230559975,-0.236315535906232,-0.351817779581292,-0.265773124438266,0.574883783527456,-0.3691531026643,-0.658718529912985,0.338880090850133,0.318685466401635,-0.135034168179049,-0.0463236802479046,-0.0668880206400031,-0.29962971059748,0.297482548982025,0.351498479748688,0.0191311553662777,0.0701240166572785,0.329408863149776,0.195918101366963,0.0816221194658652,-0.118581625957579,-0.270037195276277,-0.0275488690267753,0.0471248310752484,-0.421124540057072,0.0879770421432422,0.0815728581766573,-0.352287598280396,0.0958912337539596,-0.215304539674319,-0.152826943169568,0.305840060815563,0.025338347159105,0.0528465940682628,0.0858288444017955,-0.0527487058022659,-0.097943358250619,0.36506594099168,0.214121364249102,-0.0468133441129459,-0.314077591139964,-0.148363650361342,-0.263610850097033,-0.0882195949216535,0.580273687084147,-0.19908221215318,-0.357109543938243,-0.267273721026652,0.384594254984025,-0.23338547578782
-0.0894417651929298,-0.330972667381387,-0.134626414327972,0.038646017527948,0.370889552268891,-0.173050364550082,-0.269688467591975,0.115378475206871,-0.310402234295756,-0.714251591986667,-0.325229542794572,0.410564555997656,-0.124643542877268,-0.256515764799294,0.150151701291494,0.553224066484121,0.678905261669826,-0.0340803055546935,0.561813073199186,0.750379740145974,0.301846931716713,0.0595765328145945,-0.138071078829625,-0.331471811078655,-0.375047452660894,-0.28565931057717,-0.133758566742461,-0.333929992033678,-0.317977644741937,0.445798743720765,0.0707739665417266,0.141633556175256,-0.160340940814201,0.0874994020648237,0.366219267585626,-0.569131699945487,0.481039254868515,-0.86154055829721,0.189206687622997,-0.00688033270040322,-0.295528553409024,-0.0174555731770413,0.209079801677582,-0.232454118010122,-0.0855924102913252,0.256161242078197,0.537498245379266,-0.233662469002771,-0.391612405831269,-0.120524735037846,0.323096022949871,0.195953536660433,-0.0642120423999672,-0.174462392854926,-0.121805800272617,-0.288079016813707,0.486829480830721,0.12184465020857,-0.115330625594899,-0.485786649399021,0.162549099943098,-0.045869258615562,0.0832104339551285,0.289579666815924,-0.189548823829047,-0.410618196725517,0.00668877286553262,-0.460955675394602,-0.162948200131027,0.3660853244269,-0.631339841384347,0.583142035771584,0.146717329119386,-0.347285415666098,0.266406544551316,-0.696077760026686,0.0315279167716823,0.468997286503423,0.0853485610994628,-0.0324541663807946,-0.0481670516554173,-0.301804198086601,0.333695319600472,-0.632457952651803,-0.329150286299761,-0.119671643798343,-0.34807404525503,0.110851563426674,-0.630776619136637,0.433719659034153,0.658378195632343,0.498494062071246,-0.193776894129583,-0.0710415366095596,-0.039029599688087,0.475038257443005,0.0603481375137897,0.193314568635486,-0.13057303978396,0.588529833866287,0.372801031991725,-0.188229676812995,-0.109229374993386,0.22205121764537,0.131267691527242,-0.0671719121703132,-0.0330400905347376,-0.658231106696072,0.0494190588634315,-0.757883421243545,0.368443505884445,0.215354313641619,-0.246924590418615,-0.228717021223639,0.012013458561636,0.45166772614163,-0.213773329330187,-0.304001782035335,0.34894438507473,-0.23377158206166,0.369322380029341,-0.264629808134468,-0.514800535165882,-0.421062977051652,0.059486698263372,-0.0526511044661618,0.34232360449262,-0.152588505993399,0.0730640016602815,0.546488697839305,-0.351054640746184,0.359981600925861,-0.191748204519572,0.45322582701655,-0.0225320220434926,0.171633225726893,0.21637377699719,0.0604567129760072,-0.0661928153765482,-0.224072675910325,0.393007124558541,0.364480961145771,0.536363710118277,-0.103539624193887,-0.181195712882894,-0.130433288599776,-0.707537553510258,0.210010867736033,-0.228880948293874,-0.336039978480453,-0.26380963956147,0.556431920757392,-0.345696752237156,-0.653107751578849,0.269405102319889,0.335516012424454,-0.136687551990537,-0.068619182705916,-0.0643274651540709,-0.280356592945229,0.289383328746248,0.341930861115927,0.0712040621879007,0.0562075959539169,0.33939305310261,0.200445518424426,0.120072162922297,-0.106321938019837,-0.274307246043585,0.0339223275867628,0.0592435543305735,-0.410181795415796,0.0933674173858518,0.0684314344326302,-0.355638514809048,0.0902769838134246,-0.195419098603234,-0.131554885451559,0.301566697384243,0.022413333648189,0.0839987262405185,0.116743340417768,-0.0168171787709051,-0.0886732855408076,0.375350206247163,0.200058309403303,-0.034538768709582,-0.272326215882187,-0.14922496005634,-0.237884024507887,-0.0854542895442859,0.564025039448312,-0.192707373804361,-0.354070178465189,-0.249025553481878,0.379394157734207,-0.183299995232596
-0.0780600345311179,-0.289755473520741,-0.127371796928772,0.0452172431165529,0.359865501408286,-0.180875575206627,-0.241508816805301,0.139458903449029,-0.302653713185593,-0.6782211000091,-0.283596158306633,0.427124835596227,-0.131407903871611,-0.256419858786152,0.140860343434465,0.545193771836934,0.671983716386082,-0.0195870965547572,0.554291780661752,0.736198883997171,0.288947032855929,0.0765505250169253,-0.143405781594249,-0.325245601289561,-0.344448913874634,-0.254312452366232,-0.132624203577444,-0.29260666609197,-0.302088525805884,0.433749664017028,0.0888984432411913,0.185921427510073,-0.146555639320977,0.0662524065289909,0.3800628127581,-0.516158914278937,0.455044509833433,-0.823716573429299,0.203855934378623,0.0052404757978255,-0.198578080428338,-0.00411606411889222,0.222577035237035,-0.194924290825081,-0.0831041303618445,0.290679009522885,0.528171925824902,-0.230409935326738,-0.361964679676088,-0.103349677395738,0.299088498161253,0.21396753192574,-0.0218015745337988,-0.170305849674501,-0.0934885670764302,-0.255108575540227,0.446792571898273,0.107820783967426,-0.0859155845209218,-0.430664408528669,0.153097009212085,-0.0274154985855532,0.113488900285348,0.317732315569378,-0.154459066730115,-0.364012946666609,0.024445534535386,-0.408814516472755,-0.131169636596685,0.375870298483231,-0.553205601379129,0.58652868632135,0.15713715725045,-0.338272332086774,0.301865884690324,-0.665102005175038,0.0671191915818542,0.453630910049163,0.105117045395519,-0.0187642099985732,-0.0110710341277777,-0.258671750031795,0.33181106218966,-0.583619396876476,-0.302268175356556,-0.0858265316472711,-0.321693728282404,0.112974623676741,-0.574050216285508,0.425991035442397,0.628885497274534,0.502101626303255,-0.15276286475564,-0.0506170171620884,-0.0364785534993346,0.478215564898807,0.0519533893266804,0.242210199102152,-0.0965480916912712,0.574133577283141,0.360296112079557,-0.170876488385895,-0.0908920143675982,0.219526998059936,0.162129875922256,-0.0430553067158306,-0.0380036462376706,-0.614418586071716,0.0616437870566248,-0.747872934295637,0.390963873430192,0.20212012764566,-0.214491339671334,-0.208483080215873,0.0753442569557089,0.443498406047464,-0.226440018260139,-0.301559606249808,0.358976784293674,-0.213864400158733,0.345064087527092,-0.253154918292989,-0.472094661645465,-0.385872709774874,0.0917136825161332,-0.0386889766198158,0.386099305060924,-0.182907074665568,0.0736271221110477,0.540408735249373,-0.299755989793309,0.358809044942701,-0.193301730566566,0.4741727239473,-0.0408480352591538,0.181373856786098,0.220142189855995,0.0920366477812026,-0.0408518294290986,-0.213812143960154,0.422092819587057,0.372670159875449,0.433695107405825,-0.0944630051904602,-0.172168205159337,-0.108506766730535,-0.673953198113236,0.233861526964405,-0.220629235809905,-0.320229567297446,-0.262419585296574,0.53875572435384,-0.322625008519195,-0.647582233919281,0.201311405219247,0.352336439159802,-0.138086174915545,-0.0902648738053021,-0.0611561625733272,-0.260874568990005,0.28145293268746,0.332635600417046,0.124619368724385,0.0430044790710352,0.34845685128168,0.205880391777879,0.158710293291802,-0.0943574972348353,-0.279249182956867,0.0950250455370105,0.070994512906448,-0.399174075913513,0.0994675319338726,0.0561294040705569,-0.359654722438203,0.0844557195008116,-0.175497909698112,-0.110786017576136,0.297370858814312,0.0188681071848645,0.115268792825383,0.147496987649712,0.0198074257975538,-0.0794113516338774,0.385182822945164,0.185263687462528,-0.0217860972665742,-0.230397085735864,-0.15005399545428,-0.212004843540316,-0.082133370144954,0.548189380318184,-0.186160054579179,-0.351666917859475,-0.230548251092357,0.375054155608628,-0.133692183254914
-0.0663549465737408,-0.248723945753224,-0.120050640449392,0.0528697057151084,0.348588518449467,-0.18791760593452,-0.213497681499579,0.163640668776123,-0.294462214888868,-0.641823805948453,-0.241513698545193,0.441859191238609,-0.13764545696568,-0.256805123254835,0.132234302426377,0.536503034275848,0.664581120786716,-0.00505433223898723,0.546976657528152,0.720895924620995,0.275530399325485,0.093406830924327,-0.148129473904585,-0.319852493353608,-0.312103805544753,-0.222814670895676,-0.131028014318509,-0.250902787914408,-0.286353736373621,0.421455345967623,0.105853660194834,0.229564132732095,-0.132698962228493,0.0459200551994334,0.393277965701348,-0.462664828374227,0.428399219841178,-0.78506120759814,0.218350992498628,0.0168461478701032,-0.105662127963908,0.0090254257092219,0.235662704656111,-0.156871081637494,-0.0798761509691597,0.324514573166913,0.518616763455955,-0.226700185829407,-0.332193556194969,-0.0866366129936426,0.276141724808126,0.231460899111173,0.020260820751829,-0.165613509143027,-0.0650571941923683,-0.221910914962855,0.406013813063254,0.0940327060078012,-0.0568038291448047,-0.375939841908164,0.144027367639381,-0.00824632913299609,0.144052555784468,0.345502072702898,-0.119361457004241,-0.317020845125315,0.0423571883279325,-0.356688547231303,-0.0990070174726292,0.384879360866815,-0.475390818490586,0.589579850783592,0.167668020787351,-0.329146674264024,0.337354969824523,-0.633994957848763,0.102487222153928,0.438608423466359,0.124738159763753,-0.00444179690654593,0.0260607600222125,-0.216107321428721,0.32962009170768,-0.535105941249258,-0.274768530213664,-0.0518020236264085,-0.294742286456333,0.11558130817928,-0.517523324679015,0.417771708087413,0.599425730961465,0.504904606623478,-0.111837767720358,-0.0299775924353564,-0.034121762403631,0.481430290310228,0.0437045661791078,0.290915434428834,-0.0634262728896343,0.558735187856682,0.346503000753002,-0.15335941303466,-0.0730018782196361,0.215671103612235,0.19286250070799,-0.0185920019514634,-0.0435396216501366,-0.569939463216075,0.0739093870119653,-0.737442428452141,0.412570422281153,0.189990501430871,-0.18098189543223,-0.188147027217734,0.138217568331916,0.43567308860889,-0.239901550695952,-0.299282724608541,0.369957012953564,-0.194028612331458,0.321493877486674,-0.241959930253752,-0.429569219204011,-0.350180634294448,0.123356877997531,-0.0241757223192846,0.429254672094213,-0.212239597339317,0.0740854039652567,0.534714941899151,-0.248024910749082,0.358231234051277,-0.194558528566373,0.494884777453047,-0.0588104354469041,0.191677481553888,0.223477339328549,0.124364559400663,-0.014873144096016,-0.203227175319547,0.450993841343622,0.380299136369788,0.333521064841917,-0.0861452509328724,-0.163599400051045,-0.0865916290478669,-0.639983814384268,0.257747220856304,-0.211457740406613,-0.304649706922373,-0.261730729294414,0.52176302834622,-0.299943716758608,-0.642055439618123,0.1350841208536,0.369177584463862,-0.139184983954766,-0.110988143837303,-0.057344883456573,-0.241088722375012,0.273596584056455,0.323508565184632,0.179200795874828,0.0304540962729136,0.356476000697181,0.212274796067305,0.197258713281561,-0.0826866688870706,-0.28493051629022,0.155676796845287,0.082248748918853,-0.388285771303504,0.10639039312206,0.0447892897051653,-0.364457814167551,0.0783978299796192,-0.155543781247588,-0.0906207896843037,0.293353139668916,0.0148476540424743,0.146465742029192,0.178050775889219,0.0571796890674975,-0.070133291089289,0.394558250834243,0.170048620726859,-0.00837043635303499,-0.188229029952655,-0.150802907233709,-0.185976147610915,-0.0781711012563356,0.532919181507574,-0.179226592464167,-0.349928267169074,-0.211772959732671,0.371593752490725,-0.0845817066884324
-0.0544104442079432,-0.207883797729958,-0.112713733710444,0.0615582261594729,0.336943464278408,-0.194115376612624,-0.185564715604955,0.187877073135429,-0.28575620316302,-0.605151312573742,-0.199140671443791,0.454628368049118,-0.143376484668152,-0.257623751986243,0.124310266278415,0.527097889268476,0.656475803102477,0.00925420704059321,0.539867414261841,0.704428318478133,0.261551329274855,0.110042857523707,-0.152035058578487,-0.315336852274174,-0.277839721284491,-0.19122422211524,-0.128816932593527,-0.208791876452383,-0.270494361549832,0.408923471109543,0.12167894214673,0.272406615289119,-0.118749219355978,0.0263949130562875,0.405878121733313,-0.408756218664063,0.401140499725592,-0.745563968005045,0.23246073552276,0.0277588296389799,-0.0179523242897081,0.0219911396514555,0.248268432586635,-0.118280832722518,-0.0757673987572779,0.357593802991688,0.508932813289679,-0.222382611846561,-0.302255131898318,-0.0705668324239796,0.254355688273411,0.24849538202357,0.0618293743435279,-0.160337032460621,-0.0365166877697757,-0.188454525488327,0.364644644875628,0.0807547307140231,-0.0283942478574316,-0.321771181354299,0.135344208265288,0.0116673560838946,0.174986863780605,0.372906721141078,-0.0843707288921468,-0.269878645909252,0.0603409437577148,-0.304518967339961,-0.0664439741201646,0.392953201123776,-0.398071209525674,0.592306519001525,0.17824916150039,-0.319895268873171,0.372708664432847,-0.602930811402987,0.137498702009817,0.423805014408201,0.14413702838884,0.0104300330911565,0.0633615662293663,-0.174185781303478,0.327259675310216,-0.48690255654341,-0.246733340279917,-0.0177364974160904,-0.26706562048042,0.118716831230354,-0.461332251418521,0.409145897884402,0.57010811890137,0.506812386952511,-0.0711058065720832,-0.00916371026994894,-0.0318990258582623,0.484540479216145,0.0355273152246044,0.339268759869721,-0.0314168897909742,0.542297226019815,0.331546010298476,-0.135719872174193,-0.055497963148299,0.210378005531401,0.223442989162304,0.0060117964184155,-0.0496020327354327,-0.524670723150608,0.0864082300752331,-0.726636162856861,0.433080809062147,0.178916680215088,-0.14631398967008,-0.167761268543946,0.200593467541867,0.428057854047078,-0.254196689305921,-0.297148898719261,0.381984783094883,-0.174327612379912,0.298793633973841,-0.230971033489427,-0.387370919896017,-0.314035439919569,0.154172625296568,-0.00924371560933141,0.471650493963784,-0.240315424233324,0.0746531000882458,0.529429999550918,-0.195906521590994,0.358262685837608,-0.195517245740408,0.515553288999823,-0.0762589078127208,0.202333799119882,0.226270209032374,0.157210934286271,0.0118352032909887,-0.192053680739001,0.479534762903043,0.387156845143247,0.236778762785832,-0.0786302505188876,-0.155362616136822,-0.0646406687730363,-0.605655483732499,0.28150259018628,-0.201277960262296,-0.289606505725105,-0.261825753066111,0.505336049367715,-0.277657025695413,-0.63639686245897,0.0713504720984897,0.386049120284738,-0.139932284488942,-0.130568268385005,-0.0528351824879213,-0.220898764389695,0.265739952544188,0.314399850057315,0.234621863496899,0.018458294158969,0.363375229804923,0.21958856192935,0.235367886122937,-0.0712729274085464,-0.291386208044691,0.215755614887606,0.0929163541647052,-0.377696069163703,0.114219016332576,0.0344753470347206,-0.37013329462944,0.0720824201228786,-0.135534420683851,-0.0712010330818434,0.289583050560149,0.0105995075155799,0.177363893240781,0.208338852059733,0.0953122277339196,-0.0607899568569778,0.403500808500149,0.154780282148148,0.00593483827491638,-0.145789938455509,-0.151357873120053,-0.159777650671203,-0.0735146748015222,0.518339450369203,-0.17165811766013,-0.348840267151343,-0.192611265715604,0.369008296944593,-0.0359857661554838
-0.0423247695549829,-0.167233105359222,-0.105428744946631,0.0711963196576779,0.324848589354047,-0.199393842613997,-0.157565048005464,0.212113495976932,-0.276463395798888,-0.568308667929629,-0.156711989311726,0.465313107911225,-0.148748326766339,-0.258777166661325,0.11719199627663,0.517008613468045,0.647463012914096,0.0230274564955987,0.532927528943334,0.686783781487145,0.247000338605956,0.126341693562978,-0.154978219369313,-0.31173161173112,-0.241498873250915,-0.159629694766708,-0.125871692926251,-0.166276545898374,-0.254128125617994,0.396125492206048,0.13642001673616,0.314355059483802,-0.104703761058977,0.00754363561269031,0.417909928978855,-0.354534314116687,0.373398604949711,-0.705295286130799,0.245845104740254,0.0377957651748099,0.0634084810060203,0.034804644462106,0.260373698766313,-0.0791666367790649,-0.0705730851891637,0.389850095231573,0.499242999409317,-0.217282897890836,-0.272099065128398,-0.055399430229008,0.2337438335926,0.265217134785237,0.102734217169423,-0.154411248536701,-0.00788642992067733,-0.154750626731646,0.322887214161313,0.0682897992344724,-0.00103811590303814,-0.268356554698602,0.127061985427592,0.0323788671038843,0.206331807353505,0.400004431058528,-0.049655119217343,-0.22288645640257,0.078331422287782,-0.252215185895779,-0.0333860112709628,0.399875263628877,-0.321436660953979,0.594632098155892,0.188790916591515,-0.310508675304591,0.407710263530695,-0.572142148963873,0.171899246751427,0.409070059651554,0.163257754903036,0.0257568588310408,0.100939464780175,-0.133065461139166,0.324936627844905,-0.438984013837638,-0.218313053746664,0.016187127035562,-0.23855957145631,0.122445443718751,-0.405595723611216,0.400227879297605,0.541054910569615,0.507830284149216,-0.0307079692421382,0.011799811568606,-0.029666891199684,0.487378540972149,0.0272946211170975,0.387049168709282,-0.000702567753098322,0.524782239883795,0.315644243237335,-0.118029114477805,-0.0382492371886794,0.203595028811821,0.253770677533505,0.0305599801533827,-0.0560707865406196,-0.478562812989522,0.0993394541606593,-0.715495936760155,0.452406292362736,0.168744441440104,-0.110386461516333,-0.14741146374868,0.262452856706817,0.420442000307105,-0.269288145434227,-0.295110611302276,0.395040786444671,-0.154809561958724,0.277105705375242,-0.220162950109739,-0.345640723012204,-0.27753328928582,0.183920960336873,0.0059843785026148,0.513158564440467,-0.266827912193421,0.0756007405615347,0.524619075488822,-0.143486562756134,0.358867020539774,-0.196180033772117,0.536431269642891,-0.0930274682150816,0.213139389119842,0.228442137669878,0.190292598445685,0.0394010644440536,-0.179993686089156,0.507531682824836,0.393033019333556,0.144491035944066,-0.0719807270866032,-0.147333943843492,-0.0425681978121804,-0.571013390177786,0.30494144834304,-0.18999109289853,-0.275445992177376,-0.262725165528643,0.489385869117727,-0.255780821572373,-0.630487323302181,0.0108140642254928,0.402933860629452,-0.140322933631664,-0.14888201412646,-0.047543967547289,-0.200206157213375,0.257864892126014,0.305148369845025,0.290419977443292,0.00688089070867552,0.369147548407548,0.227690953203338,0.272630383372407,-0.0600293996146146,-0.298616451423718,0.275113698759268,0.102961976057024,-0.36762678518481,0.122997238970995,0.0252702049401496,-0.376725307870534,0.0654736340595597,-0.115424019707205,-0.0526732734208464,0.286068687642376,0.00647754774429337,0.207717943923952,0.238236368186022,0.134204699768331,-0.0513224240860252,0.412055967495738,0.139839437483288,0.021351592034141,-0.103054590959375,-0.151530335584417,-0.133376728350659,-0.0681591659437067,0.504524589875295,-0.163154127394958,-0.348376866253199,-0.172922674684874,0.367305493185939,0.0120725733452346
-0.0301935067183648,-0.126755085404163,-0.0982936317263449,0.0817002281887771,0.312245269888367,-0.203698399278735,-0.129370043779921,0.236308521988827,-0.266490482721254,-0.531390828863895,-0.114497150438924,0.473812912220131,-0.154038571775751,-0.260166000827303,0.111048639599992,0.50633172531268,0.637385257320017,0.035932170405758,0.526089860228616,0.66796971371701,0.231887235750211,0.142221257153019,-0.156892070039101,-0.309037984412816,-0.202937964332207,-0.128203812532515,-0.122124467919901,-0.12340143369165,-0.236806523497578,0.383012242316156,0.150140016748278,0.355368785291051,-0.0905852072090096,-0.0107582321629697,0.42943573495325,-0.30008983545473,0.345394166876441,-0.66444057880853,0.258094263800364,0.046779606208139,0.137428072339593,0.0474996411951322,0.272026292053453,-0.039546938941836,-0.0640555006458735,0.421187187802607,0.489720978375315,-0.211208385439596,-0.241665571212998,-0.0414282765834441,0.214218611521464,0.281853192240893,0.142788578199258,-0.147787306024312,0.0207942132306293,-0.120854763961709,0.280981359313267,0.0569029042214679,0.0250624800646601,-0.215932633326,0.119216944158658,0.0539466782434599,0.238128272496975,0.426858679886767,-0.0154254368477955,-0.176394447625138,0.0963012932329003,-0.199652354810556,0.000350014891233321,0.405362379664163,-0.245703819770647,0.596413985843311,0.199169327453378,-0.300997749967458,0.442133279620383,-0.541896727138542,0.205367476636233,0.394222175886442,0.182051676850526,0.0414218300672947,0.138846388053694,-0.09294457231232,0.322903060166918,-0.391309239093094,-0.189694598307263,0.0496961680391194,-0.20921485195549,0.126906988184403,-0.35046949809865,0.391160927623279,0.512380970505802,0.50808742485664,0.00920045794920695,0.032922010061562,-0.0272217417329151,0.489785823489425,0.0188908176994207,0.434000316720637,0.028578905202222,0.506180017077952,0.299093086018528,-0.100337716828146,-0.0210507250329998,0.195364091277299,0.28372234871746,0.0548650739288622,-0.06279046355242,-0.431632282393435,0.11285068134587,-0.70406289802156,0.470577915170845,0.159289193322447,-0.0730668019175548,-0.127191886364806,0.323775565850011,0.41258724819674,-0.285064440393288,-0.293088593668142,0.409005179192941,-0.135534782975932,0.256533752942343,-0.209619655080844,-0.304498787924534,-0.24080054206903,0.212398644215105,0.0214212251085762,0.553679770924769,-0.291411393865975,0.0772511063370039,0.520370989350935,-0.0908504695183531,0.359981559493915,-0.196563383942804,0.557768269436882,-0.108968882043136,0.223949523910566,0.229922894676892,0.223314064140153,0.0679948622042666,-0.166720642470632,0.534785366838556,0.397726079649714,0.0576786898320036,-0.0662381733915249,-0.139408283996825,-0.0202399756147597,-0.53613696841646,0.327907571692879,-0.177472649576829,-0.262505696102729,-0.264402022289215,0.473883269127233,-0.234332689204686,-0.624289893878364,-0.0458516508183008,0.419779813297126,-0.140392130531529,-0.165918433433578,-0.0413843903606362,-0.178894061172586,0.250031205696643,0.295625937527384,0.346039680584521,-0.0044273464795509,0.37386113765778,0.236412436740372,0.308613258270771,-0.0488486668659633,-0.306590579937041,0.333605101788741,0.112383957230288,-0.358360160600524,0.132737853022972,0.0172876294478262,-0.384234074818431,0.0585019054623674,-0.0951256820573513,-0.0351588864914366,0.282782208293413,0.00291485220383849,0.237266931414509,0.267606309806487,0.173853279697531,-0.0416594810860618,0.420263480075833,0.125571659303186,0.0380594414396601,-0.059976592440996,-0.151060444239323,-0.106763404176611,-0.0621266706097968,0.491491019310806,-0.153385844852567,-0.348514674545822,-0.15250578518581,0.366507895369589,0.0595788821644584
-0.0180461404561482,-0.086357343870456,-0.0914133420427653,0.0930283927235005,0.299075092354406,-0.206995034525971,-0.100891427339694,0.260470438576087,-0.255717486630233,-0.494489870311319,-0.072782703023975,0.480113613778085,-0.159558230265718,-0.261723030295341,0.106059636290115,0.495202098630864,0.62615591142615,0.0476773638447992,0.519298336375308,0.647987261303178,0.216195690863093,0.157654009405351,-0.157773433108224,-0.307209735954928,-0.162025937278469,-0.0972077625747181,-0.117547210262284,-0.0802536620218049,-0.21807112450749,0.369546669785765,0.162903586016151,0.395447490771802,-0.0764023067111941,-0.0286161386489419,0.440508927552801,-0.245486331760795,0.317439264560533,-0.623261014784473,0.268802244551088,0.0545391949264487,0.203360517239742,0.0601231440497938,0.283355782469262,0.000586327024278524,-0.055990487299628,0.451469816937087,0.480595871040054,-0.203956567620409,-0.210861887583992,-0.0289081731215258,0.195639078936493,0.29868631792962,0.181828731174968,-0.140451235825203,0.0494680209747777,-0.0868162568257846,0.23920290686845,0.0467712656077856,0.049883833436626,-0.164696426236135,0.111876904165693,0.07643916344727,0.270468706858723,0.453546780245473,0.0180873681664303,-0.130760183121283,0.11426239379624,-0.146673379869456,0.0349637816472119,0.409073372290025,-0.171105718369606,0.597503946676917,0.209250465203229,-0.291337734221019,0.475763672170453,-0.512469641950557,0.237622161737436,0.379036693684073,0.200506503542073,0.0572947525174069,0.177076367806554,-0.0539988321591973,0.321422374745997,-0.343805050994826,-0.161042285989492,0.0824587853986604,-0.179093385669922,0.132321408192925,-0.296158257830083,0.382107189016344,0.484206584639815,0.50779620932204,0.0484951087124255,0.0542506624033265,-0.024349152631452,0.49164658707363,0.0102825843622539,0.479870478349873,0.0563345303295408,0.486546316904413,0.282230901619539,-0.0826244482685005,-0.00362699434129801,0.185868279161153,0.313212136676441,0.0787822190126726,-0.0696046314057951,-0.383921552219001,0.127054720035282,-0.692379306221958,0.487680208048055,0.150444363213752,-0.0342086956322967,-0.107159569110265,0.384553760945909,0.404288568484251,-0.301374412970854,-0.290969134883494,0.423695186703959,-0.116588756697647,0.237144250885097,-0.199522744436963,-0.26401988200663,-0.203960090150422,0.239471910382702,0.0369711328946183,0.59313421028992,-0.313691167764353,0.0799198935777023,0.516782311018233,-0.0380422687341507,0.361560521503633,-0.196721318232141,0.579754414515734,-0.123957359356463,0.234701766181587,0.230618724993146,0.255988852981674,0.0978134532459384,-0.151905339848089,0.56111798319103,0.401074147071689,-0.0227376861572415,-0.0613985351046077,-0.131506546768599,0.00249535922995321,-0.501117859975326,0.350297531627263,-0.16356445609103,-0.251050565034921,-0.266824314870398,0.458831695077621,-0.213319706147926,-0.617856647359295,-0.0980884304753527,0.43648701050559,-0.140166228492247,-0.181754179718274,-0.0342481257475835,-0.156796343459265,0.242360940142508,0.285757026740099,0.40090744869652,-0.0156157432507978,0.377657854354219,0.245603563753719,0.342945301240328,-0.0375986449881592,-0.315255516873132,0.391133358025992,0.121193159386481,-0.350203724092743,0.143430649009863,0.0105882430505676,-0.392625590766608,0.0510583706575278,-0.0745246674828871,-0.0187564216596846,0.279720975892816,0.000337538700861821,0.265766052248511,0.296401640794017,0.214234836052225,-0.0317186480872791,0.428129889129074,0.112240497226129,0.056195388308379,-0.016469224789793,-0.149652468087376,-0.0799342385127826,-0.0554245508753765,0.479199611019754,-0.142036654172705,-0.349235656948522,-0.131120147714339,0.36662454403816,0.106496575604816
-0.00582529229193584,-0.0458119976782729,-0.0848706502202348,0.105177425248846,0.285267026300527,-0.209262097583812,-0.0720574537158959,0.284647791929571,-0.244014721801276,-0.457702483933384,-0.0318715845480535,0.484311863497483,-0.165548566714388,-0.263395412029137,0.102356375063873,0.483817164752981,0.613774410694321,0.0580574291952651,0.512539734636832,0.626807464678814,0.199874164320053,0.172662066971509,-0.15762889399614,-0.306165183662406,-0.118654981705325,-0.0669376658611909,-0.112116180377691,-0.0369495247736504,-0.197477069398009,0.355697682824981,0.174745145005773,0.43463600883925,-0.0621443920222276,-0.0461385787693832,0.451181851600422,-0.190708570657326,0.289894300201887,-0.581993245986124,0.277595998606793,0.0609204194685466,0.260719126941399,0.0727364441123248,0.294526910370944,0.0412611707662195,-0.0461919477762728,0.4805544259495,0.472113878939036,-0.195331661682512,-0.179568357381852,-0.0180123719734054,0.177821513764993,0.316004774377551,0.219767492656835,-0.132424170889189,0.0780794225640617,-0.0526089350883319,0.197865669557011,0.0379982674563228,0.0735614867396296,-0.11476246063287,0.105135528791886,0.0999563364792394,0.30352652308405,0.4801881798346,0.0506585612707711,-0.0863211043013777,0.132237764532763,-0.0931032055190778,0.0706319058693647,0.410613740081055,-0.0978662074576385,0.597771736961445,0.218911448288591,-0.281410159557481,0.508386031089312,-0.484118305426326,0.268481436444064,0.363238569320566,0.218694250559961,0.0732607541371051,0.215555193490659,-0.0163449288235848,0.320753207044277,-0.296365109150452,-0.132476253243214,0.114165908464576,-0.148267588131016,0.138882460387859,-0.242861554250015,0.37324531263264,0.456691497359744,0.507176939799622,0.0871077641608608,0.0758554376090774,-0.0208235571557591,0.492877406333254,0.00149520024389708,0.52445022277063,0.0825391457503865,0.46597737831298,0.265393006664134,-0.0648185693461677,0.0143743625972415,0.175385673232617,0.342188874736836,0.10223018426744,-0.0763693159005869,-0.335468400309476,0.142069167173725,-0.680492848863123,0.503775945607273,0.142181077869401,0.0063098647307666,-0.0873492764960544,0.444810908561219,0.395383893289748,-0.318070151837104,-0.288626542494892,0.43889375179789,-0.098084064610021,0.218951310970828,-0.190092963902079,-0.224218763442938,-0.167117406691385,0.265092554211994,0.0524695965954058,0.631453903649529,-0.333342427956887,0.0838670258292195,0.513941391427069,0.0149418902310422,0.363611222884233,-0.19674095363894,0.602536426033416,-0.137897290967436,0.245390207002397,0.23041902682202,0.288047228624597,0.129045251760797,-0.13525551651341,0.586405112292349,0.403000759293564,-0.0959927715555899,-0.0574229492593388,-0.123555277377051,0.0257635600946832,-0.46602526543998,0.372046527546565,-0.148082550103735,-0.241252869452233,-0.26997816647141,0.444223871815674,-0.192756088675411,-0.611274297801173,-0.145522732302133,0.452933768363751,-0.139664968520518,-0.196498232305482,-0.0259878598799627,-0.133725218037394,0.235011604250372,0.275511151737013,0.454466080381988,-0.0268370986916737,0.380750997189965,0.255136975542837,0.375337172600332,-0.0261095929381383,-0.324559853970376,0.447678012559239,0.129405869273026,-0.343422358112388,0.155029860783843,0.00515008559748749,-0.4018458152352,0.0430236145699285,-0.0535003238475491,-0.00354951336644429,0.276909009755015,-0.000881004667564456,0.293031654238836,0.324675071572621,0.25526215000143,-0.0214284459310291,0.435628718550745,0.100033337266967,0.0758979566947856,0.0275982915146878,-0.147022991675255,-0.0528737029754774,-0.0480517322030821,0.46756067915846,-0.128830103830672,-0.350524485275658,-0.108528939859914,0.367588294040593,0.152748140799422
0.00657642489789323,-0.00479296331774285,-0.0787289305702343,0.118158775148826,0.270741924176846,-0.210499609673619,-0.0427982713863223,0.30888432635353,-0.231275253957128,-0.42111272887514,0.00793865824215001,0.48656820629225,-0.1721224880077,-0.265095053104384,0.100021364271374,0.47244709653937,0.600311742834372,0.0669206322129033,0.505833362829773,0.604396729052088,0.182875962442252,0.187329306574352,-0.156460633147662,-0.305798078821511,-0.0727626169485389,-0.0376611510830257,-0.105793518168952,0.00638450012447584,-0.174617855623605,0.341408819240053,0.185678749964941,0.472996174344155,-0.0478012143023879,-0.0634605794161847,0.461518844965592,-0.135644707101464,0.263065122103606,-0.540796751403717,0.284162478274003,0.0657944392502995,0.309288862018816,0.0854095661791964,0.305677122991089,0.0825304686927942,-0.0345386191486073,0.508323534636031,0.464518352275621,-0.185166583779482,-0.147669807451848,-0.00883816640262532,0.160524552660646,0.334069444278044,0.256594114565395,-0.123751431935235,0.106601519765875,-0.0181232770459117,0.157309088009058,0.0306675572037575,0.0963222630538628,-0.0661850921533773,0.0990415482945821,0.12460293907962,0.337531971903797,0.506939884910407,0.082089950302816,-0.0433558397792794,0.150238136120232,-0.0387739691489476,0.107516601028076,0.409589710082586,-0.0261921906204306,0.597097800117446,0.228056065509904,-0.271050486131795,0.539783886213637,-0.457076705003508,0.29785567722414,0.346530448821527,0.236746718287812,0.0892432194430457,0.254142691489855,0.019961420135858,0.321130450835925,-0.248865789272734,-0.104098798943852,0.1445740340071,-0.116776596629149,0.146680448888305,-0.190717646351362,0.364745888306113,0.430015235484094,0.506432161077511,0.125020267286892,0.0977995670156885,-0.0164014845520034,0.493383916191554,-0.00745360525600603,0.567565276287204,0.107240029551762,0.444596884935936,0.248868205224904,-0.0468777220339019,0.0333432373950294,0.164170168219446,0.370602667252721,0.125186391713516,-0.0829471327187761,-0.286312756847639,0.158019135173672,-0.668482810622858,0.518930941598103,0.13449887236415,0.0485943429829566,-0.0678414038869,0.504605443052886,0.385741105078783,-0.335005473441683,-0.285920323464168,0.454382753592759,-0.0801342303857706,0.201903574102854,-0.181517513043948,-0.18505229591303,-0.130347903840534,0.289293512594145,0.067739811694809,0.668577490411769,-0.350102843931185,0.0892965290940242,0.511885927012537,0.0681500053546397,0.366184743253971,-0.196714850580565,0.626239171068188,-0.15073358738097,0.256036048867582,0.22923621158137,0.319255866885257,0.161824879815366,-0.116559207208084,0.610570314183276,0.403511633945156,-0.161528351920064,-0.0542468292592575,-0.115489481023837,0.0496346488339496,-0.430878592402503,0.393104140711525,-0.130875761627055,-0.233197057974425,-0.273834637498585,0.430040491240443,-0.172674859707859,-0.60460967813986,-0.187991928500297,0.469027125272067,-0.138950509345678,-0.210266622373151,-0.0164606363331584,-0.109518295639961,0.228162944753528,0.264890356387538,0.506186016584293,-0.0382260326639581,0.38338136335156,0.264907745312277,0.405551288280968,-0.014234232317353,-0.334462061835305,0.503276807100804,0.137040507628133,-0.338189373194139,0.167446642631388,0.000931248490637024,-0.411814675193856,0.0343167936748221,-0.0319374771590223,0.0104022856569048,0.274357556090284,-0.000402327138532909,0.318951611134524,0.352539381728419,0.296759619146528,-0.0107571432507951,0.442727780659769,0.089085313626097,0.0973097095314689,0.0724084979192662,-0.142933646878518,-0.0255742978007362,-0.0400283678793957,0.456442800742437,-0.113552018843379,-0.352362027375714,-0.0845340431851404,0.369229042464313,0.198242735583429
0.0193102178443898,0.0370269844981859,-0.0730372288301403,0.132015039985796,0.255431929769804,-0.210761190822981,-0.0130510622515976,0.333199340379718,-0.217432044230495,-0.384789264839346,0.0463756707256692,0.487091900192348,-0.179275829506992,-0.266677689598268,0.0990980020423225,0.461381428335634,0.58586454050954,0.074144849903253,0.499207844161415,0.58077343929573,0.165193287295879,0.201787596711051,-0.154323528767085,-0.30595608752209,-0.0243540116037634,-0.00957125792083814,-0.0985248807400619,0.0496043831343035,-0.149192453958645,0.32656828535022,0.195724872960348,0.510547468120172,-0.0333735270392649,-0.0807336860049328,0.471576125952903,-0.0801398056668534,0.237143244898194,-0.499805386738131,0.288263292219102,0.0690683814495166,0.349129049929953,0.098213550809476,0.316914195764691,0.124478272314944,-0.0210107003266587,0.534689331826786,0.45803324998654,-0.173350606767352,-0.115084515300228,-0.00143644803786426,0.143502992098417,0.353099850418059,0.292338561477196,-0.114474074161293,0.135020212225284,0.0167767604132421,0.117849363746238,0.0248696522189007,0.118440778411841,-0.0189955732042073,0.0935604148277786,0.150429854529787,0.372691988135867,0.533949254544427,0.11221685187507,-0.00205177296138731,0.168276390618921,0.0164519633192327,0.145756542720291,0.405683304099125,0.0437468742633847,0.595373572833621,0.236629157926293,-0.260149144596303,0.56977290843902,-0.43156606262838,0.325698589532196,0.32865493677417,0.254772257700102,0.105226432576144,0.292648978621816,0.0549314090806028,0.322759517478368,-0.201181984219927,-0.0760256385069193,0.173485619365691,-0.08462284625418,0.155727537058257,-0.139799457558899,0.356735334233128,0.404313415633228,0.505724762273134,0.162241535056927,0.120132555275454,-0.0108685099171494,0.493060995606096,-0.0165692110396482,0.609049069075895,0.130521743572594,0.422562835388725,0.232865642011267,-0.0288065371755229,0.0536375955584146,0.152379913695368,0.39838000887066,0.147699338390005,-0.0892049763617955,-0.236516825097563,0.175019841620492,-0.656499571795763,0.533258714356522,0.127417142181855,0.092757741861853,-0.0487627017260093,0.564016495699665,0.375248878806607,-0.352022900766204,-0.28267900682332,0.469980568960426,-0.0628207719288357,0.1859077295335,-0.173896039319155,-0.146442164814674,-0.0936819467837217,0.31217561310493,0.0826602126591529,0.704409134771545,-0.363790906854922,0.0963529207484165,0.51058351446963,0.121683807161076,0.369367299770076,-0.196698136914388,0.650953306043573,-0.162447143474335,0.266676482903977,0.22704945232715,0.34942246257947,0.196219151865023,-0.0957196287592629,0.633571183738367,0.402652282320738,-0.219047353224237,-0.0518097022815312,-0.107272435552783,0.0741333999727442,-0.395684557420615,0.413420892256532,-0.111890791632941,-0.226872068551154,-0.278325230650782,0.416242664305199,-0.153077779452496,-0.597887763412698,-0.225514901461195,0.484723480691896,-0.138118311999172,-0.223208951118216,-0.00557110550037176,-0.084069650450469,0.221994469478824,0.253932332906704,0.555622399619434,-0.0498875105864272,0.385739977816347,0.274832502352924,0.433383510274146,-0.00189072176738462,-0.344910761425309,0.557979578210171,0.144125194179965,-0.334606270871212,0.180568899345893,-0.00207536095296689,-0.42241883482303,0.0249086463952417,-0.00973211189409278,0.0230832058279468,0.272040064143627,0.00207596707842759,0.343493478908809,0.380138221641904,0.338496709381859,0.000281275510601684,0.449411468154368,0.0794602645061131,0.120518442023815,0.118151773748758,-0.137211709663783,0.00196556611494954,-0.0313946770602485,0.445682035791678,-0.0960792359281427,-0.354710737737186,-0.0589938211889051,0.371338701251839,0.242882569825601
0.0325483879503998,0.0799242770377378,-0.0678103376180189,0.146812358812372,0.239286595269357,-0.210189423923145,0.0172167756691936,0.357593674939447,-0.202452822260593,-0.348772698650233,0.0831628257243952,0.486134677778876,-0.186954488349639,-0.267960846377808,0.0995649761944402,0.450860690242843,0.570534214411815,0.0796471029084018,0.492701638195169,0.556010798529781,0.146863037013243,0.216171478596573,-0.1513424413834,-0.306412644777705,0.0265016984229641,0.0172461718434183,-0.0902569952917165,0.0925421623919426,-0.121059902021473,0.311022162653298,0.204933741947569,0.547230458896705,-0.0188885042606861,-0.0980802459937944,0.481406229450113,-0.024064739629307,0.2122227091417,-0.45918651102759,0.289728774774683,0.0706905556541518,0.380552635083496,0.111202281396744,0.328363253072178,0.167183102002514,-0.00572070901047082,0.559598581050719,0.452843051802038,-0.15983751852016,-0.0817954514124807,0.00416040370564414,0.126579353553837,0.373241993750843,0.327048659276817,-0.104585864989258,0.163290424775656,0.0522014313981034,0.0797212827100603,0.0206872196713627,0.140198821449934,0.0267819541445558,0.0886083079067785,0.177422131031441,0.409146597911459,0.561306156470547,0.140911508015891,0.0374866488943409,0.186385546371869,0.0726700391612374,0.185431134577481,0.39867109428647,0.111854228418206,0.59252365827116,0.244614955128211,-0.248689799435297,0.598230266719665,-0.4077800033227,0.351950357958307,0.309435530095777,0.272781971951391,0.121243049890192,0.330838280576847,0.088637810139706,0.3258069716192,-0.153210217272481,-0.0483794459569362,0.200735316201908,-0.0517727432947111,0.166001571879564,-0.0901491008033581,0.34928671975398,0.379642750708348,0.505156395817393,0.198794747108379,0.142882108156199,-0.0040790209470143,0.491824122787363,-0.0258659098274757,0.648756683877801,0.152480368820301,0.400061357301569,0.217525334472362,-0.0106478656932316,0.0755746451484396,0.14008811304879,0.425411790592478,0.169880050678589,-0.0950188530483312,-0.186154746538811,0.193161024544263,-0.644750684780712,0.546884926523369,0.120949206278144,0.138886458487552,-0.0302285161760188,0.623104160644595,0.363814979888776,-0.368951233868153,-0.278711558599052,0.485555330740496,-0.0461768692009612,0.170848851048031,-0.1672503196099,-0.108330255359049,-0.0571058786206916,0.333906520748321,0.0971372364715735,0.738801085418311,-0.374344997306198,0.105105594861872,0.509952297714916,0.175709054449084,0.373259238463604,-0.196682370478175,0.676722933011654,-0.173036189531275,0.277355308579336,0.223888782143263,0.378377292038918,0.232233071722549,-0.0727376887351693,0.655395902548975,0.400481754886241,-0.268563749184544,-0.0500606451001811,-0.0989033243504728,0.0992651530326268,-0.360523020877428,0.432955235944667,-0.091186121695058,-0.222212212878737,-0.283356397087818,0.402768179802242,-0.133901886338082,-0.591100028214527,-0.258251710504682,0.500023125271174,-0.137262969371082,-0.235519261332808,0.00673922062046661,-0.0573639707672445,0.216667701688277,0.242729240850773,0.602442607314314,-0.061904575592297,0.387930290665988,0.284816929820803,0.458681163624593,0.010939180788408,-0.35580157321816,0.611825508316447,0.150717681478603,-0.332764356455698,0.194281619428595,-0.00387454574823205,-0.433510393543337,0.0147994880126594,0.0131842900690401,0.0345177570141573,0.269899848674935,0.00677016845542633,0.366716421106054,0.407624739631098,0.380255583672266,0.011660847316697,0.455686448909104,0.0711479743692978,0.145514510521725,0.164950443666843,-0.129761874559317,0.0297641369613442,-0.0222157994629505,0.435099623529058,-0.076408657663911,-0.357486334493487,-0.0318278594709371,0.373726596128334,0.286560993052771
0.0464181183038081,0.124104847475258,-0.0630220389512426,0.162578195426703,0.222245672444079,-0.208978529178122,0.0479987510733798,0.382072407737793,-0.186348076122474,-0.313074038732021,0.117993766473031,0.483950191821164,-0.195107030131418,-0.268776608684706,0.101332844771417,0.441028050903972,0.554422428062965,0.0833878193224945,0.486359883346325,0.530207574578814,0.127935597615044,0.230564019237942,-0.147649593481803,-0.306897745496953,0.0796907281575008,0.042795620965497,-0.0809684811591536,0.135044306306034,-0.0902265922743089,0.294620628640609,0.213401515336501,0.582948189521326,-0.00440322914238746,-0.115599924604229,0.491085731110608,0.0326445119482478,0.188336163654891,-0.419148571595635,0.288473770620511,0.0706560949719591,0.404094098727541,0.124431303034314,0.340166054957484,0.210687917185433,0.0110991970342742,0.583030568939962,0.449079538918557,-0.144621906599138,-0.0478445415561875,0.00793232407113807,0.109610222116926,0.394571668611706,0.360791149954728,-0.0940264956342301,0.191338412988594,0.0882208830319984,0.043074608085007,0.0181600274286217,0.161801772000555,0.0711425015508954,0.0840985907356443,0.205547630482831,0.446977953479432,0.589034291092974,0.16804803380145,0.0752032531201457,0.204619648635368,0.129959003185508,0.226555826981519,0.388394968620349,0.178133187410485,0.588523905539523,0.252003180053109,-0.236712256466966,0.625089969781084,-0.385831623614797,0.376535346822112,0.288769702006401,0.290713573225797,0.137325305071147,0.368468066122313,0.121195210962923,0.330358088077077,-0.104880473663217,-0.0212623343953922,0.226222701130033,-0.0181577483113287,0.177474836392187,-0.0418142483566904,0.342427396064742,0.355995304541156,0.504788917854677,0.234716143877518,0.166029691507875,0.00408503146776471,0.489612821957562,-0.0353598918951799,0.68660287179837,0.173232036785923,0.377271530264044,0.202962527976679,0.00750461390857727,0.0994387658306911,0.12734136994803,0.451561183453297,0.191833325388794,-0.100284700023096,-0.135263801660792,0.212515852253208,-0.633446198667843,0.559903691086421,0.115059941300735,0.186992586858603,-0.0123004912889974,0.681910282972221,0.351386712739866,-0.385615855483822,-0.273842684130627,0.501018326656235,-0.0302060796747336,0.156593198637078,-0.161563459867614,-0.0706966458339021,-0.0205648886895775,0.354709968230872,0.111086542364466,0.771595630327864,-0.381827531331724,0.115545726213724,0.509876442287894,0.23043807833515,0.377926389591323,-0.19662132736146,0.703545070527006,-0.18250266673661,0.288088145570765,0.219805395699777,0.405961442699519,0.269805487668813,-0.047660271103416,0.676062577053184,0.397067095450826,-0.310394936552725,-0.0489127573962759,-0.0904028003803642,0.125000547443021,-0.325536604805936,0.451694935913769,-0.0688839759639614,-0.219159671542909,-0.28883144310917,0.38954597101324,-0.115075293333132,-0.58422926097545,-0.286468833347725,0.514920776159449,-0.136458250633422,-0.247424735438858,0.0205043597381018,-0.0294831470186249,0.212312330722743,0.231417212167313,0.64641873491299,-0.0743580856630772,0.390001014984204,0.294740713010248,0.481387805887085,0.0242213762281294,-0.36697369085046,0.664865776882947,0.156902212388471,-0.332745154096113,0.208436105199115,-0.00452381394114314,-0.444915613138328,0.00402453636665965,0.0368232621792464,0.0447764756547893,0.267884117656793,0.0137591538978166,0.388728377538427,0.435142928160842,0.421865804591339,0.0233664683428138,0.461580428699619,0.0641063272990879,0.172199761615538,0.212853237382871,-0.120557151092497,0.0578414731232956,-0.0126130343471484,0.424532511681101,-0.054665662105671,-0.360542136169098,-0.00300993904811086,0.376203887806736,0.329198893862912
0.0609581175933346,0.16970980204974,-0.0586450638953848,0.179260925903194,0.20422168653456,-0.207302767950711,0.0793090488435601,0.406643371840114,-0.169182827672967,-0.27767706213547,0.150579082711562,0.480783544208715,-0.203688851119876,-0.269031288868856,0.10430032742321,0.431909427401592,0.537603142728546,0.0853977005774904,0.48023629329556,0.503475441792271,0.108448423892805,0.245000672353243,-0.143358315139257,-0.307173399362981,0.135079485463748,0.067095013043849,-0.0706914865684218,0.177004663697541,-0.0568067957604106,0.277241894605505,0.22126388550781,0.617662872921358,0.0100233542288225,-0.133416793102878,0.500731871770787,0.0899759379460961,0.16548925475992,-0.379870883041928,0.284506142327951,0.0689908892434949,0.420459938023264,0.137967334877705,0.352438813790857,0.254988391680056,0.0291684297383747,0.604987520921147,0.446792256210148,-0.127738297937579,-0.013289870938564,0.00985426711063507,0.0923951023696721,0.417144040581653,0.39365505281573,-0.0827279223150801,0.219097481213177,0.124892138169809,0.00797575122331572,0.0172457451125566,0.183363703147435,0.114117358317903,0.0799891319764611,0.234771902075885,0.486233992229493,0.617111605571752,0.193477264034198,0.111061770907081,0.223031499195723,0.188410420635269,0.269116028281863,0.374745030541428,0.242707086819064,0.583392738607707,0.258749093715001,-0.22427340642914,0.650314633905801,-0.365705641836376,0.399417223504248,0.266632163777018,0.308538647719664,0.153451458448275,0.405366865051257,0.152775470774108,0.336381566857264,-0.0561322928666442,0.00526659094682772,0.249939376096515,0.0162746226391151,0.190108883693859,0.00515258317577829,0.336161016522522,0.333354674235526,0.504647075730768,0.270069953352608,0.189510930860505,0.0137484769356998,0.48638602885987,-0.0450948963872031,0.72257566215367,0.19291472005855,0.354324449314258,0.18927924651451,0.0254858102113422,0.125464792936661,0.114204499564343,0.47669372913934,0.213609024159847,-0.104936856369745,-0.0838282858150559,0.233125030922085,-0.622758413937756,0.572357625208824,0.109642664778849,0.237006580281081,0.00500343121582066,0.740504386206336,0.337944827718628,-0.401878094994012,-0.267962150506903,0.516342717163056,-0.0149143223886347,0.143015663147346,-0.156796128306707,-0.0335315526332243,0.016036087259477,0.374833221200924,0.124463364354042,0.802712425842575,-0.386410632350022,0.127602124058042,0.510217628828469,0.28607639482981,0.383371005413953,-0.196495753073622,0.731393770646847,-0.190852970069749,0.298825820288712,0.214869081770222,0.432048156166008,0.308837716060002,-0.0205447609092796,0.695642566269221,0.392476691762803,-0.345097068233953,-0.048259961925839,-0.0817800967598832,0.151262490780549,-0.290855845810816,0.469663938387664,-0.0451256344802712,-0.217673782914245,-0.294683092500449,0.376474906387308,-0.0965840523219017,-0.577283143982911,-0.310519720031308,0.529381824089677,-0.135747697358346,-0.259183431394592,0.0357260428614718,-0.000573568941228483,0.2090015742899,0.220150549465788,0.687461746916185,-0.0873331661791134,0.391986870700173,0.304482397937871,0.501581331538164,0.0379136007844846,-0.378276986957675,0.717184076343173,0.162767464198152,-0.334559103565467,0.222809626200562,-0.00416161405145131,-0.456489865232015,-0.00731129768552305,0.0611527823013022,0.053967417574985,0.26596444564343,0.0229819257655886,0.409646656061581,0.462815342584777,0.463245534077586,0.0353803319870805,0.467120986323848,0.0582769318200855,0.200451011378972,0.261864425840336,-0.109623885041191,0.0861898974214162,-0.00276604858501248,0.413860849433654,-0.0310790124886885,-0.363715207623675,0.02742806146284,0.378602259818285,0.370785532531846
0.0761284893052987,0.216827652473203,-0.0546766533497404,0.196749974464866,0.185124603776721,-0.205299973345473,0.111229531069705,0.431313411494316,-0.151059578002357,-0.242555591770001,0.180733558768851,0.476877786437598,-0.212642650634255,-0.268734157827719,0.108369281753247,0.423437260316495,0.52014051135799,0.0858333126121858,0.474407381137765,0.475911373899262,0.0884561537058256,0.259523961259274,-0.138575479675026,-0.307056893702246,0.192530996860732,0.0901085699818056,-0.059504052799571,0.218381715756959,-0.020988254171147,0.258794591453384,0.228655768697674,0.651473647686798,0.0243702056638197,-0.151687782893839,0.510483345990534,0.147859763818503,0.143676705202445,-0.341427578219818,0.27793482353817,0.0657672740170704,0.430464043163757,0.151847062378798,0.365241891992048,0.300022766034301,0.0482095463045871,0.625509196378254,0.44592022890346,-0.109280490885999,0.0217977300260495,0.00992548727876794,0.0746693854187197,0.44102606501894,0.425717273650845,-0.0706584874550844,0.24652143431035,0.162281695413362,-0.0256120974485626,0.0178065841636503,0.204958097008619,0.155783845629671,0.0763159910058163,0.26503995603718,0.526969171929222,0.645496175104122,0.217080761991156,0.145060174423479,0.241652538404264,0.248120009109274,0.313085459277279,0.357698408695032,0.305824437651574,0.577172127461325,0.264776823673041,-0.211418366359611,0.673894357760953,-0.347265943526546,0.420644717712877,0.24308223511333,0.326336177915914,0.169522125537771,0.441482843902479,0.183619650475975,0.343780559550178,-0.00691316368701532,0.0311894376861445,0.271956797565788,0.0515236440191066,0.20385050813999,0.0507247853689544,0.330489548386315,0.311748235172818,0.504698278273129,0.304967062061588,0.213243314569117,0.0249967000204847,0.482122684787111,-0.0551383650417462,0.756732586967677,0.211673381092082,0.331293464895421,0.176526538020685,0.0430763632186336,0.153820348146655,0.100732404958918,0.500715168288839,0.235232493415073,-0.108963192328283,-0.0317823703616997,0.254977426246802,-0.612769559895422,0.584250040311871,0.104524594161065,0.288805158629723,0.0216936826228022,0.799005030158614,0.32349873048141,-0.417641106451867,-0.261068734149408,0.531591972916979,-0.000304951096890096,0.130025987250486,-0.152897529973791,0.00317744826126038,0.0528052507476131,0.394509607844707,0.137267240592104,0.832227910919483,-0.388362791885782,0.14115779398865,0.510857265039157,0.342759515707653,0.389573253399142,-0.19633335002052,0.760249110023378,-0.198116540493998,0.309510568640583,0.209146135584769,0.456586781990303,0.349219272838402,0.00854659800296659,0.714292775300473,0.386808938964715,-0.373401166955424,-0.04801798803132,-0.073017869339739,0.177938880613976,-0.256545234593292,0.486911314592677,-0.0200681162624793,-0.217667128166572,-0.30087393797603,0.363434008730736,-0.0784766193683459,-0.570324239341305,-0.330822881160079,0.543403356822088,-0.135151252271318,-0.271030463385928,0.0523660124985705,0.0292024247953679,0.20675065193166,0.20910442115642,0.725672515545772,-0.100880713830201,0.39390791018973,0.313968869432895,0.519464334682415,0.0519807562807242,-0.389614123601768,0.768886764543855,0.168411804724903,-0.338107693981604,0.237165786101098,-0.00298614451033868,-0.468146461496508,-0.0190454144270708,0.0861162227918204,0.0622001727983574,0.264118519337393,0.0342653647320928,0.42961302700698,0.490746179459049,0.504458810844741,0.0476752128399374,0.472309612950189,0.0535767056026147,0.230175652598041,0.311984359818237,-0.097036261860937,0.114765153453864,0.00714411904627263,0.40302765601617,-0.00591647735731026,-0.366876656501991,0.0593796334946422,0.380805314497313,0.411381434809451
0.0918569210090077,0.2654977554507,-0.0511494659743926,0.21492190695456,0.164875484088061,-0.203086697085005,0.143876408524413,0.456078256908466,-0.132090260150892,-0.207680686601555,0.208475453276936,0.472448487129823,-0.221908364488349,-0.26801002180491,0.113441277827235,0.415506792529148,0.502126618764545,0.0849813312741401,0.46896963393373,0.447582977927477,0.0680533300764119,0.274209988717948,-0.133396995941647,-0.306434501799338,0.251883216309021,0.111750939352239,-0.047518391164335,0.259191276786637,0.0170078093160719,0.239205844894425,0.235635335132985,0.684583552171116,0.0386637212019874,-0.17057363943084,0.520467999966501,0.206172349194117,0.122877240577212,-0.303771048109605,0.268973807639355,0.0611237144525194,0.434962230757031,0.166059970103836,0.37857705701617,0.345699537097907,0.0679726926470226,0.644678123672567,0.44630673280239,-0.0893983799807559,0.0573136170890055,0.00824116611525942,0.0561951519040067,0.466292112191196,0.456971884999092,-0.0578494814158717,0.273590603797783,0.200448553648757,-0.0578244046021929,0.0196102901083032,0.226634541309214,0.196249561619529,0.0731519351764748,0.296270430222135,0.569253226890727,0.674143553515718,0.23882845761091,0.177262741987587,0.260487927959019,0.309158052008799,0.358411121104584,0.337351747548113,0.367812016488947,0.569908563141416,0.270023251646217,-0.198145069285331,0.695862141767145,-0.330296118330087,0.440363270411828,0.218228367199443,0.344262474719153,0.185389795811513,0.476868914237773,0.214028584878574,0.352461501895992,0.0427851161836144,0.0565172065816518,0.292359041494615,0.0875559299938269,0.218621213369844,0.0949268970435564,0.325411024391503,0.291224614727082,0.504850627965551,0.339539165755275,0.237143660533006,0.0378325401723417,0.47681404997882,-0.0655394316390159,0.789185979602744,0.229635254017542,0.308215384607693,0.164688713347388,0.0600774031935411,0.184566213917249,0.0869624692326749,0.523605452545173,0.256758701091118,-0.112420939297947,0.0209522541808649,0.278022877929946,-0.603442227640009,0.595576508524069,0.0994747967108302,0.342244846156273,0.037816838451266,0.857546472728606,0.308128147130738,-0.432849029151662,-0.253283854623875,0.546870378722558,0.0136396901756206,0.117570507692953,-0.149823184378814,0.0394224958172312,0.0898494967084988,0.413927027519483,0.149517205177404,0.860371770689046,-0.388035384797922,0.156068561024179,0.511712880145829,0.400521546523929,0.396528697566728,-0.196184956072046,0.790102955374835,-0.204361642214421,0.320144922395402,0.202706370873189,0.479617199399253,0.390822732511068,0.0395377272807962,0.732241572272698,0.380210038666402,-0.396138141051225,-0.0481421045508938,-0.0640813258684021,0.204889146017932,-0.222607401379917,0.503496077112322,0.00608288546872258,-0.218960619610885,-0.307397102121361,0.350336727464416,-0.060816156419707,-0.563449773598542,-0.347855830219793,0.557044924425917,-0.134729585444838,-0.283106479838681,0.0703464743224415,0.059683555482889,0.20553112960777,0.1984577337275,0.761351119628771,-0.114997583785519,0.395764050539154,0.323199101456259,0.535310328848602,0.0663919688776141,-0.400965385858623,0.820086493124028,0.173957821699765,-0.343178891534296,0.251328801979408,-0.00119005186922679,-0.479880048731934,-0.0310265901913041,0.1116425237866,0.0695808615744614,0.262307970223852,0.0473721898987013,0.44880405119217,0.519009270978986,0.545677786737924,0.06023667406096,0.477134674292242,0.0499066066239224,0.261288235368525,0.3632125064834,-0.0829178820123814,0.143488408211281,0.016998333354855,0.39200919103509,0.0205701731152084,-0.369978181680149,0.0926541688275883,0.382729518803071,0.451118575506335
0.108084218220921,0.315689881042509,-0.0481400521814224,0.233679476875821,0.143460735560935,-0.20078776231201,0.177329415934475,0.480919638028432,-0.112389343324257,-0.173017460266109,0.234025127261711,0.467645596752129,-0.231462346364302,-0.267056900761519,0.119445003938192,0.408009352861907,0.48366901994407,0.0831412442963221,0.46400311720765,0.418535433662661,0.0473208605069081,0.289139737348456,-0.127902141821984,-0.305295570254123,0.312912344118052,0.131962355546069,-0.0348886447917004,0.299490605725545,0.0569234854247186,0.218441958159465,0.242161875662784,0.717192012285562,0.0529600355382084,-0.190193181115689,0.530788263162935,0.264753758500862,0.103034535989698,-0.266778902605238,0.257892764962476,0.0552179735595645,0.4348178125612,0.180573669636878,0.392379003581085,0.391918930649456,0.0882498848725029,0.662603836268262,0.447748499630501,-0.0682889403899831,0.0931267204945617,0.00498761115924961,0.0368676139734424,0.492978814718661,0.487348689337856,-0.0444027140824908,0.3003324052467,0.239391475191345,-0.0888655480649571,0.0223819671774515,0.248417014313909,0.235641488191108,0.0705094644196406,0.328341728764427,0.613116644283871,0.703012170460291,0.258806164836012,0.20780469546944,0.279513543070354,0.371518791916223,0.404997349960402,0.313938279898235,0.428994709489916,0.56167521930701,0.274477051374055,-0.18442366220294,0.71630499635115,-0.314544877725642,0.458791058939464,0.192225781903197,0.362454793700858,0.200940753315061,0.511634813660735,0.244339355530548,0.362336889424311,0.0929120629596536,0.0812835141515155,0.311208650531857,0.124311903642835,0.234295926906255,0.137844704487084,0.320907898712537,0.271798603280182,0.504970438528507,0.373886886561341,0.261145557490869,0.0521854302252148,0.47047890122477,-0.0763262829200918,0.8201000724884,0.246892118561869,0.285085931531551,0.153707847918279,0.0763506119863175,0.217617911223016,0.0729315933307285,0.54541794150834,0.278300800653042,-0.115430394942088,0.0744214062543109,0.302169335154146,-0.594641701425976,0.606336234469211,0.094245527141652,0.397179711440565,0.0534683421390909,0.916227537994202,0.29197312595995,-0.447510975271218,-0.24482385904205,0.562244222746625,0.0269781176150451,0.105606250023766,-0.147535149263743,0.0751847375798753,0.127276894836479,0.433203483458555,0.161214030544447,0.887454102218599,-0.385838878014572,0.172170344880973,0.512742935602455,0.459293085804265,0.404214732723858,-0.19610405029554,0.820947555864238,-0.209704933312983,0.330766752164198,0.195676532545085,0.501245580681774,0.43348274220001,0.0723046344814036,0.749733385644918,0.3728413459433,-0.414158267385148,-0.0486203066840995,-0.0549396739676658,0.231958081569437,-0.189014479239638,0.519505385162264,0.0330720655900492,-0.221312054022724,-0.314284391015524,0.337127441392454,-0.0436318472116778,-0.556736140658495,-0.362165204816648,0.570381167967562,-0.134617749031592,-0.295437855526236,0.0895542995692314,0.090706423794205,0.205273101880035,0.188333028492293,0.794921246238162,-0.129626224173877,0.397526192196571,0.332213612123809,0.549417087924735,0.0811125030524261,-0.412412705894027,0.870896272375193,0.179529963822953,-0.34948472651123,0.26518453811208,0.00107639913564988,-0.491774422186403,-0.04315894276983,0.137647296186577,0.0762115630472808,0.26047528482127,0.0620452244406363,0.467416222468963,0.547635247233677,0.587054672707348,0.0730667779719916,0.481603212107789,0.0471485796337745,0.293657221065351,0.415504207692344,-0.067449690997125,0.172273867987856,0.0267546978589965,0.380761633752507,0.0481553810227523,-0.373060737033386,0.12698641978918,0.38432063463407,0.490198947000541
0.124803652825857,0.367258380961877,-0.0457314552533031,0.252959665425727,0.121014222828379,-0.198535836484954,0.211581816781024,0.505834788715792,-0.0920675704146828,-0.13853282909443,0.257722376140186,0.462564135687409,-0.241297876216911,-0.266050174852363,0.126353620831948,0.400851003042536,0.464841760494654,0.08052896694809,0.459526431642956,0.388812206247314,0.0263058913176095,0.304337282335731,-0.122133108270684,-0.303713190618112,0.375331662213405,0.150783864134916,-0.0217846360941149,0.339362863469141,0.098448486145015,0.196563049339414,0.248201470770476,0.749466341616657,0.0673350678639367,-0.210571739643026,0.541514960282515,0.323452901321404,0.0840273983194267,-0.230301602522638,0.244967103060488,0.048192579969761,0.430872452256186,0.195367685163113,0.406516504308748,0.438561407617765,0.108859111787544,0.679415514368384,0.450060937404131,-0.0461903875248145,0.129096890016813,0.000377980904436077,0.0167352558325435,0.52104220323965,0.516818664483802,-0.0304728047932714,0.326801009148919,0.279027367155848,-0.118953487361474,0.0258851964970473,0.270315081457115,0.274116583738149,0.0683196777867303,0.361080132135825,0.658501176030617,0.732090478596599,0.277228443537975,0.236894056834503,0.298696061651283,0.435086842351088,0.452706545795629,0.287837416498839,0.489648291449507,0.552624835644894,0.278201693629898,-0.170247233293714,0.735399332382303,-0.299785359542937,0.476166720178359,0.165280789411069,0.380982038018827,0.216158745102671,0.545912994377492,0.274858938043855,0.373320628865988,0.143381645005161,0.105555971701431,0.328611480661396,0.161706715685269,0.250710062148251,0.1796127011853,0.316951937325255,0.253447632287117,0.504908617980943,0.408061026170691,0.285224683596964,0.0679011568627857,0.463214023506587,-0.0875057464876772,0.849688573132689,0.263523204566408,0.261846161909787,0.143482142173847,0.0918154410563039,0.25276535106395,0.0586647192109189,0.56627255620177,0.300017333636232,-0.118129596904897,0.12863961095626,0.327274064482991,-0.586199026566344,0.616526692171333,0.0886733604440042,0.453468339159146,0.0688140564723744,0.975095786035731,0.275177791909814,-0.461713161171818,-0.23594263770456,0.577754387480595,0.039812954484725,0.0940835873248873,-0.145980051922583,0.110486039297021,0.165143877882548,0.452393903102357,0.172334843070276,0.913816182551999,-0.382199982711285,0.189276330774722,0.513952575350846,0.518915940808291,0.412578855943844,-0.196111758120934,0.852769646707459,-0.214303902176208,0.341413146065604,0.188240094344391,0.521627403718072,0.476972861254094,0.106629882464655,0.766986762707997,0.364839968618103,-0.428291881917137,-0.0494424398378382,-0.0455895544392615,0.259011077322533,-0.155732690303277,0.535083490653212,0.0606681289378048,-0.224450853598886,-0.321582927999131,0.32377464395648,-0.0268796845763487,-0.550230371205352,-0.374315850900338,0.583490296685618,-0.134945183773831,-0.307971867087736,0.109867694498384,0.122101673201346,0.20585281322292,0.178770741135411,0.826859237453381,-0.144634186804953,0.399143688677837,0.341059927953697,0.562091766550562,0.0960940445547774,-0.42409866932513,0.92142178028666,0.185234912111119,-0.356713594755795,0.2786793152277,0.00369517576901871,-0.503938021708358,-0.0553837829190039,0.164025701977649,0.0821560501481505,0.258559404063087,0.0780219477987005,0.485651332444327,0.576630668321161,0.628671575673683,0.0861441270491503,0.4857440136891,0.0451941007851301,0.327129347965712,0.468760209400582,-0.0508751650731623,0.201078740575191,0.0364339217310414,0.369232208685367,0.0766221920167945,-0.376205960329894,0.162095097270548,0.385570099122931,0.528841188405413
0.14203946617302,0.41994513911112,-0.0439595173933016,0.272717657075402,0.0977553152684606,-0.19643780760644,0.246519928868547,0.530847851566789,-0.0712302247879662,-0.104211410647696,0.279928706401776,0.457286310563933,-0.25138444698547,-0.265075771262286,0.134126030682708,0.393982135002202,0.445650964204204,0.0773101542623618,0.455498919092279,0.358473207180185,0.00504366077965332,0.319735911340924,-0.11608660089449,-0.301776769324305,0.438832535015748,0.168358112770658,-0.00835857949541368,0.37888588077881,0.14124423356374,0.173734915910336,0.253832504115025,0.781545532560316,0.0818804380621681,-0.23163906549833,0.552679121093293,0.382175056081846,0.065682393356642,-0.194197496223261,0.230482183084551,0.0401851239028077,0.423910241444198,0.210448518555908,0.420842629652372,0.485496065070532,0.129638923685687,0.695271880388887,0.453095568648423,-0.0233485624435904,0.165109306239866,-0.00535791766139557,-0.00405786951623947,0.550338456899997,0.545440517003146,-0.0162173410377766,0.353042347484294,0.31923767701459,-0.148259340097116,0.029947188312441,0.292311966809798,0.31185658784169,0.0664919779008986,0.394278448796055,0.705254024451373,0.761402764082217,0.29442043265822,0.26481174119942,0.318010333007093,0.499652412383555,0.501374495676326,0.259541333676378,0.549977448913595,0.542977514285228,0.281321819557283,-0.155653974334042,0.753406864363303,-0.285839110100003,0.492726032420592,0.137629829633358,0.399857828249685,0.231111169167782,0.579828456285694,0.305772801525752,0.385328839964974,0.194100270879475,0.129455166939915,0.344759215794338,0.199660527550112,0.267694329609979,0.220378874860075,0.313487572379965,0.236106383519791,0.50455754881561,0.442074518302385,0.309407205595133,0.084741203014531,0.455192546958312,-0.0990802495916668,0.878184622607283,0.279644245207397,0.238430291025684,0.133843760375905,0.106441081763512,0.289726388978503,0.0441890873319059,0.586364580921815,0.322042621689727,-0.120637323959493,0.183602109690858,0.353157027295227,-0.577963347104606,0.626157997222049,0.0827121073947593,0.510955242142898,0.0840548120654368,1.03414269796202,0.257873186656138,-0.475564542077163,-0.22686682816308,0.593452144738933,0.0522760697060696,0.0829405772264247,-0.145067983008947,0.14539513743599,0.203410985132747,0.471516697204137,0.182892666633602,0.939775441975715,-0.377517623822601,0.207199181057255,0.515349244956948,0.579183083294247,0.421548731699313,-0.196161296179388,0.885514020012341,-0.218329728573787,0.352120064880409,0.1805693366112,0.540953628957551,0.521011841886221,0.142233763945668,0.784167495838974,0.356289789951567,-0.439330700774604,-0.05056190004738,-0.0360506632706053,0.285981491586313,-0.122744307206426,0.5504049067923,0.0887223477692856,-0.228131169448298,-0.329296364054807,0.310275694657695,-0.0104486200772133,-0.543977214578149,-0.384824928463672,0.596454901460261,-0.135763783596667,-0.320624201651168,0.131157059987581,0.153708167234794,0.207092018186947,0.169738070292748,0.857655130406959,-0.159861507594135,0.40059168599236,0.349792982948815,0.573636016796236,0.111300812086713,-0.436129204386499,0.971753993150002,0.191167659971646,-0.364575602455145,0.291828327089056,0.00655523315421487,-0.516416924890797,-0.0676483433637351,0.19066063950345,0.0874561419889411,0.256523710694393,0.0950571779392823,0.503685022270516,0.606014871503451,0.670571781021875,0.0994048803256584,0.489611443489312,0.0439758102056456,0.361568799572204,0.522833858538233,-0.0334611281930293,0.229914328312596,0.046113816717433,0.357394434028896,0.10574644370527,-0.379474973204846,0.197757519421132,0.386504635417984,0.567215381838051
0.159795647613539,0.473463011517904,-0.042780578973896,0.292899837184728,0.0738689121762882,-0.194544922333951,0.281952724353348,0.555985765388193,-0.0499896073279002,-0.0700524356388951,0.300989364929072,0.451890139278205,-0.261674504202424,-0.264143064244119,0.142641122584447,0.387395698981568,0.426070781316277,0.073610976631242,0.451860724040812,0.327624183462865,-0.016433486314941,0.335216006296679,-0.109744347018442,-0.299552892916844,0.503133009176571,0.184899501949398,0.00526243998498224,0.418120788368714,0.184981655474567,0.150173695372003,0.259224262502032,0.813518561309524,0.0966811025615669,-0.253286999678624,0.564254515108148,0.440899969613547,0.0478122606198489,-0.158359028436284,0.214748036796343,0.031363458244239,0.41464728055275,0.225826831038736,0.435246199197938,0.532619503021966,0.150462619690097,0.710360987011571,0.456693829286368,2.06666435547024e-05,0.201108617916346,-0.0119497885241716,-0.0253442832884765,0.58062804975633,0.573368747899529,-0.00173567571522737,0.379084905414686,0.359940199071796,-0.176898656087477,0.0344326510938243,0.31435516585114,0.34903098914838,0.0649567560141908,0.427730949841566,0.753134697643339,0.790949312442342,0.310735046103966,0.291856923800254,0.337452677930057,0.56497348765918,0.55082253143909,0.229582978307992,0.610111497473398,0.532951443632778,0.283973236140919,-0.140703970284162,0.770575611959607,-0.27255918094492,0.50870055483172,0.109494776305746,0.41904879030833,0.245891864298193,0.613462047568256,0.337109805731006,0.398246106590994,0.244986700250801,0.153128574424867,0.359912575059685,0.23807953587998,0.285110704417925,0.260274559428162,0.310445452582386,0.21964997971561,0.503892813170315,0.475923878295103,0.333732181907448,0.102440376775325,0.446598236846885,-0.111043736555408,0.905821058512299,0.295403490846643,0.214800347256715,0.124556917525273,0.120276447368164,0.328197305952033,0.0295446357343821,0.605925456224065,0.344414575695647,-0.12306798194795,0.239262406880312,0.379607790028804,-0.569834574544556,0.635274998406588,0.0763806076557772,0.569465870902959,0.0993405449238927,1.0932983360328,0.240169636536035,-0.489147208615902,-0.217755965775724,0.609379358048681,0.0644936937042606,0.072068955007224,-0.144684119552982,0.179994125817421,0.241981844851279,0.490572348307123,0.192984897242611,0.965570506986553,-0.372132296487657,0.22576245468902,0.516882085238975,0.639907671702182,0.431012400779497,-0.196176082271805,0.919048183137477,-0.221941579769075,0.362907583142064,0.172788653215385,0.559425137483508,0.565324727446026,0.178831271935214,0.801347503862861,0.347236138899664,-0.447999006256708,-0.0518987001461004,-0.0263522457925138,0.312891831924484,-0.0900249462679292,0.565606957345005,0.11713343494529,-0.232183881116074,-0.337362218043823,0.29662190095179,0.00576515649583798,-0.538008180621641,-0.394142455229429,0.609332164057815,-0.1370382724457,-0.333303060169169,0.153254112225543,0.185404505972228,0.208792664277019,0.161152403686294,0.887721834924358,-0.175207648104735,0.401907292334533,0.358463287309148,0.584311647527714,0.126744233055816,-0.448508846068836,1.02196008616723,0.197404182191834,-0.372813447261504,0.30468517813466,0.00954734886005603,-0.529163841648825,-0.079894874638802,0.217443763885358,0.0922053264900982,0.254365320899484,0.112943099498715,0.521604558560931,0.635829747541252,0.712790304048292,0.112762738870234,0.493303047702091,0.0434022187358787,0.396821698453386,0.57754892361203,-0.015446108851227,0.258798193139587,0.0559062814098533,0.345256290949172,0.135332152757418,-0.382864284749209,0.233826768528878,0.387150988612355,0.60540075875075
