-0.408545283722336,-0.789935432873482,0.486257031616064,-0.50559399439995,0.187831653364605,-0.0824315959535344,-0.659535739348375,-0.543860299393103,-0.449630157690783,-0.741761984151384,-0.376710854656647,-0.275977913970987,0.305987354884751,0.592825442205505,-0.461107614255358,-0.151348977741593,0.24412685841464,-0.0732365538659587,0.177621295919543,0.173997253172658,0.062486099056737,-0.436834723220022,-0.107972843087491,0.825914174256822,-0.669168374017082,-0.313336425835903,0.145090579605993,-0.772190864226471,-0.6348489164852,0.376484080609201,-0.181499737789595,-0.646431071507212,-0.499370980301149,0.311646605951118,-0.517468251508114,-0.935735500437872,-0.170924203489298,-0.256014900436028,0.304955174582071,-0.0343481162520939,-0.865273988899368,-0.531475245145691,-0.520742614732936,-0.908356201995587,-0.63262894711975,-0.320686321521042,-0.264101374421297,-0.544458052203282,-0.831059237582377,-0.0867131918748793,0.29231048081366,-0.601087752114356,-0.602543250557115,-0.226785664748603,-0.48708955004749,-0.458744436308837,0.725319406225641,0.327403969984302,-0.760261526605518,-1.08790878364325,-0.051975786326501,-0.477537885937422,-0.952973842078118,-0.857232878717784,-0.491644852882278,-0.630821362592145,-0.703428219765319,-1.41988768489872,-1.04928064513868,0.464225883039982,-1.23261011148778,-0.0025015899916716,-0.285709272626956,-0.272722187380474,-0.400705592337675,-0.260482186516367,-0.140282052634934,0.449458252908464,-0.501579270392475,-0.345504160768941,-0.644436087079747,-0.727839355819001,-0.319600358292252,-1.19142460260909,-0.529635406261353,-0.422777639123455,-0.424607991883405,-0.174609349363487,-0.780536865651136,-0.10570783852379,0.52610073125974,-0.364010279407734,-0.627625050527854,-0.803402366738464,-0.221161228985876,-0.0351054256007707,0.293635160376754,-0.486756713407266,0.490703117899348,0.341087548723391,-0.0253975957853606,-0.299585727095072,-0.724781433867192,0.0133818648789126,-0.39203995872245,-0.619685686788869,0.46820531771691,-0.702296738267672,-0.427059339422113,0.0194056686049511,-0.285655022251802,0.130221487933245,-0.621706054044836,-0.33872190441381,-1.30762821239783,0.186986546621816,1.18388429589315,0.334576617603822,-0.0306957327534143,-0.0220548336069297,0.165286951677849,0.198609804746753,-0.634743866834321,-0.816192914461134,-0.532507269423394,-0.0930101422724785,-0.617513097091934,0.094865030343347,-0.598698780157388,0.119310431257588,-0.96650032759852,0.0666264653502835,0.382635491887568,-0.746199906511222,0.232206896082075,-0.103737139970162,0.0674342775785897,-0.312065218251392,-0.752809006860322,-0.767541622562565,-0.39447522505895,-0.0467850891664029,0.675924325243976,0.611896819217283,-0.258924924190111,-0.831915100953163,-0.282937024804825,-0.440747168676896,-0.468271280929394,0.264743400541732,1.04436654968108,0.14270990180782,-0.204781073562476,-0.0644334655731242,0.628254919060526,-0.172692143747808,0.11953863958388,0.15136824221466,-0.541279964441939,-0.166221538355036,-0.156172384880856,0.124068510984872,-0.526552142046434,0.586240893188348,-0.32501309762171,-0.0178075725060543,-0.348818572282482,-0.263114702043026,0.95464899623177,-1.20045861479951,-0.370350401096996,0.456756460924531,-0.196584631601497,-0.147632978288715,1.11152454765305,0.625929546649667,-0.738036517512815,-0.436744022566655,-0.12502778862435,-0.565657703087668,-0.603531167657079,-0.579656977692236,-0.808218204316292,-0.552804751598737,-0.41646014776099,-0.095697317041344,-0.267232033727006,-0.78815600815514,-0.277725523037331,-0.350332051031553,-0.209903153710101,0.246328427629152,-0.503591885607141,1.00726596929351,-0.954011941162755,0.0537610903917545,-0.954340309549917
-0.382651005086061,-0.746539304878838,0.484233925296606,-0.482625409517974,0.181501653013285,-0.0756890410420713,-0.622493527530338,-0.513611032649106,-0.43024300600958,-0.705907278686209,-0.349346603663441,-0.260488793257649,0.300406481317475,0.60954924404014,-0.444500562006348,-0.146349062982293,0.236780611994008,-0.0691294206248689,0.169649459567447,0.166128622613121,0.0576636524918117,-0.413978906925841,-0.107395008518451,0.829843328329968,-0.632572685918735,-0.268091252353144,0.167983500039892,-0.73631378535028,-0.599926005675599,0.362809171363343,-0.164304415460735,-0.606150108256713,-0.479353137757949,0.286812236475511,-0.497356443444046,-0.881230229285566,-0.173319309143619,-0.23803030717163,0.29738727356736,-0.026565116086483,-0.797679363708213,-0.505760561592507,-0.493488138470561,-0.859973935152067,-0.606764742755114,-0.296257904768443,-0.246360336395937,-0.527011567409912,-0.792195652935174,-0.0767787364099902,0.273193535202135,-0.569261176622267,-0.564370553218554,-0.221209179793536,-0.461176635547087,-0.428458578451927,0.696068131610793,0.329685108103556,-0.717309130733682,-1.02327420712357,-0.0501599508221053,-0.451470336871752,-0.911780362652739,-0.813964068162921,-0.464000520323055,-0.592267552010912,-0.67642193195786,-1.34637681927006,-0.999501711575504,0.455950114610879,-1.15526759212049,-0.000998716854857275,-0.277734613234335,-0.262229666312749,-0.367842494301684,-0.245167327085071,-0.123714494654146,0.427345782154487,-0.475332615858119,-0.3299201489815,-0.608391177023644,-0.68283868132747,-0.310528787488077,-1.13158782266295,-0.502517035926896,-0.401546260828567,-0.403109616704742,-0.164626991003558,-0.735896887552485,-0.0996471189363537,0.498436835136392,-0.346047698480829,-0.580503633610667,-0.769143534246254,-0.207935338017463,-0.0313576659507291,0.280520076283356,-0.447561373199147,0.514000890812781,0.323607135092153,-0.015317762779635,-0.278416245698026,-0.68868960855102,0.0112335520041961,-0.363466978558471,-0.590383025759612,0.480151689711948,-0.664191472553121,-0.391483792249458,0.0223478370213664,-0.269055343360175,0.125311722424624,-0.589495904864101,-0.319052679800851,-1.23361807156428,0.177165926551717,1.17183142933799,0.360922021075113,-0.0241477688711618,-0.0183695528173379,0.144571674248587,0.210568973830782,-0.59522145272904,-0.771171812648632,-0.498692944514045,-0.0850226096835619,-0.579940355192031,0.0854314348779133,-0.570565122526298,0.12087906516615,-0.911852093525148,0.0677934863370045,0.404709590012189,-0.710745068611408,0.226268696172314,-0.100229990297858,0.0743455120123362,-0.287439233895703,-0.72275944453385,-0.734166595820947,-0.369645571090453,-0.0337854404237759,0.632124153879087,0.62439422570429,-0.247874308535137,-0.794394025470804,-0.256190302975679,-0.411085406547978,-0.443476427452596,0.266803989317694,1.0516675789873,0.132922643782665,-0.189243858398195,-0.0568569174986112,0.593576047973543,-0.162257780291336,0.123090967713065,0.143102297495445,-0.517894388838566,-0.133502003402414,-0.152544373681981,0.113636719693835,-0.495006187843118,0.562995668236224,-0.307709818400542,-0.0154543121540839,-0.326394296568008,-0.248508178184492,0.953091206021702,-1.13539876089151,-0.349808154176875,0.452852392985761,-0.184344175895578,-0.139793779681947,1.1113529667313,0.629675931666344,-0.698191676804769,-0.416117251661668,-0.121413705842639,-0.549269587406595,-0.573198777121898,-0.543076920792887,-0.76518122665412,-0.529550230384928,-0.397178573255254,-0.0874243688140241,-0.254463070749289,-0.7437456716819,-0.26524085049522,-0.304222178343414,-0.201815004600997,0.233707233999813,-0.476936862830511,1.01088192050074,-0.911418767903899,0.057839918921362,-0.901517114171175
-0.356759823269123,-0.703137907319965,0.482257416133186,-0.459625325073758,0.175179798671936,-0.0689690645627011,-0.585454716694485,-0.483361983616073,-0.410866085559534,-0.670058266108617,-0.321990030237452,-0.244995605407097,0.294824541894041,0.626266022052788,-0.427918282233827,-0.14134366701222,0.229480180689052,-0.0649835887512967,0.161681936548212,0.158273998235714,0.0528451845040563,-0.391093747986686,-0.106805262085015,0.83377158182697,-0.595963429483944,-0.222836312171249,0.190903636021606,-0.700409219386399,-0.565020247214587,0.349163859086086,-0.147121233489817,-0.565897001583658,-0.459329994655089,0.261981443424365,-0.477260902078318,-0.826741983276247,-0.175729999974307,-0.220066939042302,0.28981097247844,-0.0187810806455239,-0.730068855556871,-0.480059142084177,-0.466218425339218,-0.81159276429014,-0.580925765097155,-0.271824521820226,-0.228600294110543,-0.50957477030632,-0.753343906183101,-0.0668556168172287,0.254097484775663,-0.537431619279345,-0.526163915034671,-0.215635797397147,-0.435248214598043,-0.398199961495875,0.666809773091608,0.331971549483235,-0.674364514705852,-0.958645360907299,-0.0483474651702664,-0.425415272605212,-0.870586524886901,-0.770686689918122,-0.4363543854648,-0.553689917725527,-0.649422978579378,-1.27288291280838,-0.949733251184737,0.447686409860536,-1.0779186979254,0.000518803900005518,-0.269745255806791,-0.251749440834935,-0.334968959229413,-0.229840284298161,-0.107171072440618,0.405285467392113,-0.449084955218427,-0.314297564388127,-0.572337292043928,-0.637862066633223,-0.301465457405154,-1.07175395544228,-0.47540639317269,-0.380314640659647,-0.381599609440707,-0.154657598816856,-0.691265224354446,-0.093583105694717,0.470761207264508,-0.328076398429648,-0.533387198673371,-0.734870766160722,-0.194722023678887,-0.0275552969875349,0.267397775184319,-0.408368789394419,0.537279981022683,0.306139025064554,-0.00523535446057049,-0.257256404783112,-0.652620996278362,0.00909442397142847,-0.334893192657663,-0.561058525531933,0.492089524890445,-0.626091109669475,-0.355923801992195,0.0252648608323045,-0.252421694031338,0.120409442806987,-0.557249850675344,-0.299379264228934,-1.15957764940977,0.167364189000531,1.15978152329294,0.387274953427327,-0.017628166311881,-0.0146886443636316,0.123883027517951,0.222535153440355,-0.555651165454294,-0.726177199019281,-0.464858481067577,-0.0770100987539942,-0.542357687062391,0.0760341643878428,-0.542454552822593,0.122466435899403,-0.857165059011632,0.0689761227053628,0.426794441628367,-0.675264432272907,0.220306822211193,-0.0967080573377862,0.0812543626746832,-0.262818263672454,-0.692693148914164,-0.700804030090698,-0.344774668265586,-0.0207679076229579,0.588280047719466,0.636895893810882,-0.236816034819883,-0.756866463068696,-0.229444530560534,-0.381434151670015,-0.418685504405857,0.268842506553526,1.05897436433113,0.123158296563401,-0.17370020285223,-0.0493022365726463,0.558857944080862,-0.151832326774013,0.126653855219578,0.1348351626415,-0.49451972281902,-0.100811207060475,-0.148892189207933,0.103225793880774,-0.463413281942018,0.53974120602283,-0.290398580132809,-0.013092819087385,-0.303959287112909,-0.233885085105936,0.951542138534953,-1.07032587570069,-0.329252895051364,0.448907701630931,-0.172095498810154,-0.131953849449201,1.11119466605758,0.633425134496011,-0.658362737215723,-0.395470719363884,-0.117779342030095,-0.532893139236994,-0.54281815049201,-0.506457700602925,-0.722137571120157,-0.506288552602949,-0.377902532292992,-0.0791740999064247,-0.241709120833571,-0.699310622947409,-0.252742487158984,-0.258113251211986,-0.193725744064386,0.221077098224356,-0.450293226651113,1.01450062305248,-0.868839515463073,0.0619232714487015,-0.848681904959256
-0.330888242504788,-0.659710643950863,0.480421533071779,-0.436530364350994,0.168894712712578,-0.0623138989818651,-0.548432296636772,-0.453109140785861,-0.391511092445734,-0.634217377232526,-0.29464081594778,-0.229488357277733,0.28922856341739,0.642959777614349,-0.411408739989529,-0.136321305759864,0.222324860601871,-0.0607191766912048,0.15373326065368,0.150466298686723,0.0480406489357273,-0.368115815722141,-0.106172548306278,0.837681323898453,-0.559293449829587,-0.177539480166057,0.213891237080601,-0.664419151878093,-0.53015931067922,0.335601293548813,-0.129961893996322,-0.525717571976064,-0.439301764189885,0.237193859678219,-0.457211853371725,-0.772314678948056,-0.178191598531593,-0.202159557508372,0.282210670852889,-0.0110057836406654,-0.662426785802574,-0.454396203061176,-0.438896611066866,-0.763196572173358,-0.555153507526854,-0.247379530857034,-0.210789924246515,-0.492149583094286,-0.714510069243926,-0.0569557938084272,0.235067205262343,-0.505603961290115,-0.487848971273606,-0.210065043657963,-0.409268478229337,-0.368018450821805,0.637517860273858,0.334296950521642,-0.631458804531889,-0.894034897009984,-0.0465283299218491,-0.399386266959418,-0.829387788254496,-0.727374286394018,-0.408706311927337,-0.515040215890926,-0.622444154030102,-1.19943929456256,-0.899992076516523,0.439451041080361,-1.00056356940468,0.00209078668348309,-0.261688291868966,-0.24129442457137,-0.302079937579822,-0.214475475993134,-0.0906773227134936,0.383377640832012,-0.422830112050779,-0.298561967696846,-0.536256528843252,-0.592961581018215,-0.292434488512101,-1.01192696355893,-0.448314132468381,-0.359080876307284,-0.360044485556153,-0.144736603066759,-0.646658874757508,-0.0875080529546173,0.443034974260849,-0.310097592505172,-0.486258026003623,-0.700565416592852,-0.181562679491675,-0.023603545423745,0.25425994830511,-0.369178316550254,0.560520149549814,0.288708662166557,0.00485749653679437,-0.236122417242293,-0.616632711683077,0.00699183529747431,-0.306326439772662,-0.531663601446924,0.504019644591432,-0.587990043152089,-0.320420033070105,0.0281134610991465,-0.235679414636236,0.115540825266883,-0.524870141106075,-0.279699098433209,-1.08544253433118,0.157597909286965,1.14774320358144,0.413643829034139,-0.011198355008337,-0.0110031886818134,0.103281936656492,0.234510397587521,-0.515937441126425,-0.681248967765166,-0.430947002900314,-0.0689356561902211,-0.504737470768985,0.0667549373191996,-0.514404163860163,0.124112284359376,-0.802363891358949,0.0702175220778195,0.448910377361185,-0.639703611361656,0.214292945160062,-0.0931418086094588,0.0881723334328014,-0.238191515436162,-0.662566739209152,-0.667474961222337,-0.319774869877353,-0.00768955162921046,0.544293574859316,0.649414097285991,-0.225741455861986,-0.71931655824147,-0.202689210460281,-0.351818773675042,-0.393915344447529,0.270816328496714,1.0663034643438,0.113477073348114,-0.158148182885075,-0.0418046429695852,0.524018843246963,-0.141422055135266,0.130248398455044,0.126553042113728,-0.471168507608341,-0.0682133080196286,-0.145144645920367,0.0928987500438329,-0.431672781056629,0.516470838244325,-0.273047855555596,-0.0107022475805568,-0.281484169028438,-0.219203139618536,0.950015779859477,-1.00522166542509,-0.308657616688434,0.444845764021075,-0.159814606962704,-0.124094604717215,1.11107499569296,0.637181313890536,-0.618568130260779,-0.374751890126369,-0.114106293160449,-0.516524073333529,-0.512295783099432,-0.469730386717796,-0.679072814938061,-0.482988923626143,-0.358634550944065,-0.0710007637880141,-0.228991775841159,-0.654786610899562,-0.240196344486254,-0.212000762408392,-0.185621375752045,0.208413220551218,-0.42368679070254,1.01812362374144,-0.826279463924436,0.0660208475032213,-0.795810956456004
-0.305099754924276,-0.616220596037212,0.478837122590218,-0.413240655354026,0.162726257352419,-0.0557810382962679,-0.511452548442252,-0.422826244420526,-0.372174350915975,-0.59837680775464,-0.267255228847718,-0.213948604477511,0.283596146558133,0.65959516130999,-0.39502895388343,-0.13127883900583,0.215459372874224,-0.0562127196030742,0.145834272659215,0.142755435252575,0.0432703661276875,-0.344964979645103,-0.105451215206485,0.841526779212006,-0.522459905404634,-0.132150562876218,0.236964500497193,-0.628251978209101,-0.495362284182729,0.32219460045415,-0.112842071786249,-0.485658687548004,-0.419281070054032,0.212571307841853,-0.437254074384743,-0.718022270494248,-0.18076563040171,-0.184326647074554,0.274588265468605,-0.00327307541785028,-0.594754317020575,-0.428808580151504,-0.411473469865477,-0.714718237302896,-0.529485221424533,-0.222910710465397,-0.192897234402686,-0.474695289348727,-0.675665032417218,-0.0470786027421224,0.216169718131356,-0.473806519262943,-0.449323393356576,-0.204487498833237,-0.383186379435899,-0.337973795752134,0.608128790468808,0.336740321455203,-0.588649319726584,-0.829480381927854,-0.0446428236627515,-0.373353906757501,-0.788152873263208,-0.683983205304926,-0.381065873222636,-0.476231755207747,-0.595500584228752,-1.12608857894362,-0.850302475835709,0.431256208952081,-0.92323332991805,0.00379609919919863,-0.25344165262209,-0.230855210856025,-0.269196377268414,-0.199042440077426,-0.0742262624985296,0.361745095744706,-0.396560227689502,-0.282620707792358,-0.500114511637044,-0.54821185482312,-0.283473004474637,-0.952113985173668,-0.421234629588305,-0.337838463960971,-0.338370787807876,-0.134929834726295,-0.602089902759507,-0.081406013662297,0.415180727321221,-0.292152677086486,-0.439020619311761,-0.666217606256859,-0.16855827379632,-0.019396124806678,0.241100803134623,-0.329981051445638,0.583711766265316,0.271354394398009,0.0149590362086256,-0.215049931632771,-0.580830186535614,0.00496678686585642,-0.277776206147018,-0.502116120970492,0.515960867572541,-0.549846662977348,-0.285050020478344,0.0308489536032912,-0.218716471488933,0.110763992297388,-0.492178315440408,-0.259999236379159,-1.01112040389979,0.147860283868119,1.13572895369924,0.440010471214924,-0.00492768322213146,-0.00727168769050679,0.0828809911032112,0.246473751141694,-0.475947465618894,-0.636415779329674,-0.3968593179631,-0.0607530032445671,-0.467036987091152,0.0577108735401841,-0.486442556532787,0.12586142904829,-0.747364862101078,0.0715956559702342,0.471069853680406,-0.603980192357247,0.208215321641782,-0.0894903851477734,0.0951555135117777,-0.2134929149181,-0.632303221141498,-0.634204791069621,-0.294509120052055,0.00550720609280757,0.499985175553718,0.661971887390237,-0.214645094738677,-0.681714927891009,-0.175890017893712,-0.322275520411257,-0.369205015874821,0.272655666303681,1.07365899153662,0.103985054283793,-0.142598215837226,-0.0344062914097378,0.488922990367896,-0.131014288475075,0.133892517640848,0.118229556064706,-0.447844873532039,-0.035805117868149,-0.141179857941998,0.0827678499067642,-0.39961687573225,0.493205673792399,-0.255581269012344,-0.00824015307210174,-0.258901511996594,-0.204391367637489,0.948518205508325,-0.940077500962849,-0.287984971509136,0.440579105111871,-0.147436559316492,-0.116176446555594,1.1110151189437,0.64093355539091,-0.578802025906274,-0.353874556783923,-0.110405396541546,-0.500110603894199,-0.481503816485222,-0.432831421543895,-0.635968524868298,-0.45958014722685,-0.339363842207823,-0.0630117783294002,-0.216322985604004,-0.610066830148192,-0.227538140423755,-0.1658871477996,-0.177450882592621,0.195695996990337,-0.397163992001706,1.02174147721056,-0.783710889666519,0.0701652677321372,-0.742860733254991
-0.279529883297041,-0.572629201454681,0.477566629966263,-0.389623225555763,0.156800922930697,-0.0494436021515896,-0.474545030359823,-0.392443193684494,-0.352823362028751,-0.562517209467877,-0.23972769842199,-0.198365592446972,0.27792513130043,0.676113785923639,-0.378819595064055,-0.126250729759991,0.209004521517412,-0.0513117038604926,0.138016051031196,0.135165794745763,0.0385612654596568,-0.321593454298422,-0.104601673586841,0.845265004901194,-0.485319440986157,-0.086645521627651,0.260102796655151,-0.591789367143638,-0.460627854451471,0.309024153527421,-0.0958258690258571,-0.445769461100454,-0.399276438221341,0.188310258118762,-0.417453596377742,-0.663939822899256,-0.183529988652437,-0.166529289678251,0.266987307232781,0.00436489334846809,-0.527074257493173,-0.403342785344738,-0.383927722311295,-0.666031539181876,-0.503929950690292,-0.198408056250777,-0.174900747076763,-0.457112929818417,-0.636741905032017,-0.0372074422612218,0.197473150104345,-0.442085886584338,-0.410512475261047,-0.198884182921055,-0.35695546582065,-0.308112374902839,0.578518894640396,0.339404745792212,-0.545993349150341,-0.765071924666952,-0.0425736524278,-0.347204433867047,-0.74679491926548,-0.640479486249796,-0.353448847078313,-0.437124288705461,-0.568598748029819,-1.05287230744087,-0.800707438336932,0.423104686364064,-0.845996774686692,0.00572035425141382,-0.244831234766086,-0.220384666068774,-0.236380586533505,-0.183519374505942,-0.0577867045980953,0.340488302630527,-0.370283770504664,-0.266387809687523,-0.463840617603422,-0.503687699128165,-0.274615368680037,-0.892326102688693,-0.394101963040524,-0.316573641583646,-0.316463949366728,-0.125304980866632,-0.557538459020583,-0.0752454459484681,0.387090177761886,-0.274329240945192,-0.391498049917197,-0.631823533635636,-0.155858322757493,-0.0148593140849853,0.227911445560229,-0.290780975859,0.606835729596373,0.254107413916921,0.0250265382309284,-0.194116899358491,-0.545348338429498,0.00302829124721983,-0.249243841321175,-0.47230666533273,0.527912640134388,-0.511576912183547,-0.24993059670165,0.0334498913788917,-0.20142342641645,0.106146762314257,-0.458951668030466,-0.240229654892177,-0.936530180027752,0.138117762305242,1.12374902215896,0.466308421207895,0.00115169952370763,-0.00342224522259903,0.0628341764246883,0.258368403346629,-0.435547070635314,-0.591676243609173,-0.362502569509003,-0.0523881553560541,-0.42923833833187,0.0489985015511684,-0.458573140888287,0.127711512654457,-0.692120288869526,0.0731937959327431,0.493247283842011,-0.568011697666655,0.202066187845845,-0.0857056919788406,0.102302108285601,-0.188603496711556,-0.601817645346815,-0.601018991175325,-0.268827927169277,0.0188363421323443,0.45509014160368,0.674579107885889,-0.203517149294655,-0.644021653663648,-0.148999412190206,-0.292841913486485,-0.344618729246217,0.274249006550709,1.08098504022962,0.0947918818950864,-0.127055055426821,-0.0271511148831619,0.453390873056195,-0.120570012918976,0.137571901812092,0.109848345252201,-0.424559555366645,-0.00368508759255853,-0.136893395003625,0.0729436996490359,-0.367034031127324,0.469995884237841,-0.237897931613488,-0.00564931937953997,-0.236112104745517,-0.189376317204794,0.947036842623986,-0.874906239027996,-0.267201696239513,0.436058127076388,-0.134840718774182,-0.108194505746367,1.11100325681657,0.644627229470159,-0.539029443955285,-0.332760508726867,-0.106719631153488,-0.483564043490655,-0.45030505320301,-0.395763327123062,-0.59282633521398,-0.435970051271191,-0.320064943900359,-0.0553790465846409,-0.20369373894848,-0.565042527359801,-0.214692257621412,-0.119818305184452,-0.169113992854629,0.182938778901426,-0.370775359443195,1.02532968144618,-0.741081278221167,0.0744368002417483,-0.689749893553588
-0.254353677871857,-0.528889500279658,0.476632322118026,-0.365542748629271,0.151219423187487,-0.0433898391277183,-0.437733929534532,-0.361857790078129,-0.333412760984461,-0.526604390717689,-0.211925569462759,-0.182759689947125,0.272231192627413,0.692451741480065,-0.362798574891747,-0.12130594951419,0.202995052578765,-0.045857127551362,0.130303901261567,0.12764866731407,0.0339162197292831,-0.2979943420966,-0.103570092586339,0.848892301588151,-0.447717196918336,-0.0410407686944118,0.283297911143377,-0.554884693138347,-0.425973628841741,0.296144467890999,-0.0790428309987768,-0.406111905681872,-0.379278437130062,0.164625924009702,-0.397871646118826,-0.61011547885836,-0.186568370284968,-0.148679924966603,0.259457501118279,0.0118579053205372,-0.4594493891186,-0.378047938826619,-0.356280693518156,-0.616990412158935,-0.478476036078185,-0.17388736876092,-0.156794813294079,-0.439271212298704,-0.597672382614329,-0.0273111088755149,0.179024147694389,-0.410488030409557,-0.371389957923718,-0.193219784576763,-0.330534829087938,-0.278448283023686,0.548486939330199,0.342406486586705,-0.503563749689021,-0.700944693499209,-0.0402128299249394,-0.320774171311658,-0.705188852280866,-0.596855850922873,-0.325834932999598,-0.39754929802589,-0.541717072069686,-0.979843342100767,-0.751268707784034,0.414992869875078,-0.768938338565027,0.00790560790472867,-0.235681230283285,-0.209806128742258,-0.203737501228081,-0.167884882912198,-0.0413214084415883,0.319701164612632,-0.344035287918245,-0.249774164921688,-0.427318273857453,-0.459454572224188,-0.26588901151151,-0.832581077883717,-0.366761865198262,-0.295268918182203,-0.294187816352667,-0.115900606763105,-0.512952872949432,-0.0689844799285605,0.358632969490757,-0.256736199897405,-0.34352010981804,-0.597367061349954,-0.143580104523826,-0.00997495375027716,0.214677123275369,-0.251608887977071,0.629848887702303,0.236980243906379,0.0349761621591429,-0.173431989574662,-0.510312953210564,0.0011332195258673,-0.220751499465277,-0.442123546062157,0.539828864400111,-0.473067676315094,-0.215211784208286,0.0359241300188358,-0.183724927310803,0.101734095874855,-0.424955712262926,-0.220319116615005,-0.861643399971583,0.128313147381875,1.11181847837091,0.492455300314596,0.00704195719654367,0.000632831272357492,0.0432895477233912,0.270109474893636,-0.394631385314235,-0.547016829908483,-0.327832528718867,-0.0437492955366624,-0.391383543602422,0.0406615847567703,-0.430793464053182,0.129587769354825,-0.636604728836773,0.0750676300793454,0.515379604905039,-0.531740615940584,0.195831713902562,-0.0817271242832343,0.10969019597747,-0.163408200150215,-0.571042793721017,-0.567936544720899,-0.242611813213915,0.032229643793883,0.409297107320942,0.687205903575053,-0.192338985602696,-0.606199610970547,-0.121975693432566,-0.263570812006708,-0.32026471946249,0.275444344825442,1.08817560617106,0.0859570242329595,-0.111499206385767,-0.0200671573474804,0.417249398103518,-0.110019378394306,0.141241540101725,0.101408672213323,-0.401349110326691,0.0280828027575606,-0.132248469985406,0.063490733468148,-0.333718273575749,0.446888897286981,-0.219923038601038,-0.00288203302735841,-0.213030015150921,-0.174115730959793,0.945554287393752,-0.809732611677873,-0.246294691932641,0.431291932672528,-0.121889444920809,-0.1002195138591,1.11099538311712,0.64817021009685,-0.49921756972329,-0.311364970815511,-0.103102750730311,-0.466799029891358,-0.418573579424933,-0.35860778965924,-0.549695069064083,-0.412074798454531,-0.300701079162016,-0.0483102017592858,-0.191066359534447,-0.51962866726503,-0.201611687816802,-0.0738851416597293,-0.160481083536212,0.170168361989626,-0.344547729579658,1.02886570946386,-0.698338095885181,0.0789519878527163,-0.636370276237988
-0.229746375444171,-0.484940690501238,0.476058176985176,-0.340919599215599,0.146003383129626,-0.0376926646744206,-0.401040471565854,-0.33098215925639,-0.313919792288444,-0.490610798048899,-0.183736832680508,-0.167172437438797,0.266512194859811,0.708544596923582,-0.346956543464961,-0.116520760942166,0.197394058319495,-0.0397173165377298,0.122742954931856,0.12008781352333,0.0292706679390327,-0.274176469973164,-0.102253694754771,0.852432669653606,-0.409507059161994,0.0046212666467523,0.306586232839112,-0.517366678603886,-0.391474636029136,0.283562614619461,-0.0626504783775061,-0.366729731332338,-0.359263905139718,0.141725042482168,-0.378495177941908,-0.556564674029659,-0.189968105751474,-0.130693327964916,0.252029504196888,0.0191672290695175,-0.392021074341207,-0.352957865195783,-0.328581286722878,-0.567477042443626,-0.453118231869102,-0.149366411377024,-0.138598151054028,-0.421031409987172,-0.558408355759396,-0.0173622272078872,0.160820909711396,-0.379068604735988,-0.331949545062293,-0.187434519876148,-0.30388936176925,-0.248941276878828,0.517795875363773,0.345855258132503,-0.46147924784901,-0.63724786729864,-0.0375369602462982,-0.293891009274007,-0.663220202804585,-0.553144209261003,-0.298117936384191,-0.357364062198466,-0.514799837065511,-0.907076009071902,-0.702045087340783,0.406924901237685,-0.692139716597604,0.0103709807342948,-0.225843718963222,-0.199024415249743,-0.17138140908595,-0.152123589197884,-0.0247356257380366,0.299501864367742,-0.317870100973873,-0.23268611646409,-0.390406261645298,-0.415550817951742,-0.257299837258477,-0.772925127391389,-0.339026231200103,-0.273914869688208,-0.271403599940399,-0.106750720644543,-0.468266193661869,-0.0625953742561854,0.329713372102211,-0.239482384180031,-0.294989239588676,-0.562826404439133,-0.131753298991733,-0.00476134096876007,0.20137328483026,-0.212482865558103,0.652700846783419,0.219991138440488,0.0446677851524803,-0.153114574606849,-0.47582608747023,-0.000773054265747513,-0.192335890720848,-0.411497173027119,0.551632159428663,-0.434184357025546,-0.181048123732544,0.038296621662842,-0.165582605528584,0.097556801776626,-0.389973748148672,-0.200221035098555,-0.786508674767784,0.118386181235522,1.09996511611169,0.518368332297807,0.0127928713856533,0.00495759317090956,0.0243657852096471,0.281614429380508,-0.353140099067917,-0.502446786894389,-0.292845563162783,-0.0347657382620146,-0.353554812760512,0.0326964097189174,-0.403116532239846,0.131371365517257,-0.580803316728731,0.0772519117094889,0.537361349042384,-0.495122284409325,0.189535421266284,-0.0774832074963736,0.11733099279552,-0.137811742666284,-0.539910119477696,-0.534948142805066,-0.215761395101739,0.0455655973997973,0.36231717080116,0.699803245461701,-0.181087539569594,-0.568234404478712,-0.0948052566991153,-0.23454555170324,-0.296307493286651,0.276070608532416,1.09510196274343,0.0774754884076488,-0.0958962030289442,-0.013154067865255,0.380375321296841,-0.0992563145001592,0.144849261570012,0.0929284927014256,-0.378257271062099,0.0594922491520613,-0.127253040257097,0.054429223659597,-0.299496753575126,0.423936429304295,-0.201617904237631,9.33489750659794e-05,-0.189602254874027,-0.158625123912617,0.944058763701479,-0.744575769852181,-0.225280516541048,0.426336677630548,-0.108475768135906,-0.0923478929645181,1.11093026741423,0.651464095139453,-0.459350595423122,-0.289662775255382,-0.0995859633594886,-0.449767623269244,-0.386221024796418,-0.321495326467266,-0.506659987348526,-0.387838338469886,-0.281217357712493,-0.0419876310778278,-0.178354515521569,-0.473753537140093,-0.18828409842487,-0.0282057338408615,-0.151424828854206,0.15745049013809,-0.318499198949348,1.03233812263232,-0.655456733464154,0.0838278933855295,-0.582645762918278
-0.20586805195478,-0.440720855348932,0.475869683099715,-0.315757035009694,0.14108744578304,-0.0323792584899735,-0.364491933888275,-0.299775609132836,-0.294346255848349,-0.45452964484478,-0.155111991427095,-0.151666024756402,0.260744408068394,0.724312716326635,-0.331258347242634,-0.111966654487945,0.192142824114577,-0.0328231882919578,0.11536721846027,0.112319528331961,0.0244841147207903,-0.250145851958229,-0.100522921951356,0.855912114888381,-0.370558463100184,0.0502509165717947,0.330013948075203,-0.479073342131541,-0.357220930071706,0.271242942657179,-0.0468044557969339,-0.327629201896716,-0.339204015701175,0.119821961080231,-0.359236465548953,-0.503277183439423,-0.193787411429277,-0.112514929975593,0.244732725270462,0.0262553310599177,-0.325048341670145,-0.32807168749806,-0.300900359079432,-0.517414873721809,-0.427854674273672,-0.124849219786827,-0.12036034826216,-0.402262723641964,-0.518905665969627,-0.00736321213989424,0.142796473733267,-0.347894084617891,-0.292189744294227,-0.181444712731213,-0.276992576650273,-0.219474916173623,0.486239587814575,0.34980170833856,-0.419877496162996,-0.574136719440558,-0.0346216637563893,-0.26638769881307,-0.620813465748923,-0.509426156032708,-0.270133660817058,-0.31646553258844,-0.487770699912483,-0.834654889068876,-0.653058072186085,0.398895548587217,-0.615668973174286,0.0131317884943314,-0.215210987315356,-0.187927736324651,-0.139411987067791,-0.136234527986884,-0.00788204995027217,0.27999007755058,-0.291843644893772,-0.215046638566429,-0.352965258807281,-0.371984956599604,-0.248824923506997,-0.713428969810994,-0.310762678515231,-0.252508104753039,-0.247980766058436,-0.097907923521609,-0.423409426850439,-0.0560770353358138,0.300335850387904,-0.222663827340541,-0.245910848972797,-0.528190395031445,-0.120353157484377,0.000746596901249946,0.187967839138145,-0.173393474406346,0.675346464457863,0.203154907930879,0.0538629308115025,-0.133290722628415,-0.441952494044554,-0.00273234332697771,-0.164022496138423,-0.380417405618268,0.563213205478553,-0.394778179596681,-0.147583650929934,0.0406128134834214,-0.146987685591421,0.0936201157135333,-0.353841621765927,-0.179940850483535,-0.71124669239003,0.108289092948387,1.08822409572209,0.543927367960283,0.0185056883536271,0.00955585468915163,0.00617429349108419,0.292802156928353,-0.311047101163156,-0.458000407510243,-0.257557171077453,-0.0253970876881931,-0.315831352745116,0.025090374514188,-0.37556506896994,0.13293304247941,-0.524736444590322,0.0798105196181221,0.559018549445215,-0.458105804977518,0.183251606820437,-0.072887342409187,0.125172097801701,-0.111725607326476,-0.508328190728948,-0.501980376553688,-0.188177514557068,0.0587223026719917,0.313972824952075,0.712325737565166,-0.169739253146239,-0.530137989919245,-0.0675173863822206,-0.205870453026985,-0.272913394230581,0.275946954687791,1.10161913746115,0.0692979859415914,-0.0802034898243722,-0.006370431494338,0.342701516095473,-0.088142426469566,0.148340483974354,0.0844363045167664,-0.355314539050307,0.0905566295247741,-0.121905258443245,0.0457783018064567,-0.264255600415656,0.401211352277366,-0.182968804745376,0.00331209132903045,-0.165810560629753,-0.142972790446681,0.942538996991336,-0.679450279196481,-0.204188448706641,0.42125847066669,-0.0945358963086189,-0.0846392534130996,1.11073575116785,0.654420978578665,-0.41943312545032,-0.267632182078961,-0.0961555434738366,-0.432453909958357,-0.353203457135133,-0.284577604617991,-0.463798976053322,-0.363253044524369,-0.261519827399811,-0.0365351363555976,-0.165424315385534,-0.427349681333678,-0.1747111213507,0.0170714281066533,-0.141850769170425,0.144907935895569,-0.292655675574846,1.03573404714146,-0.612449427739386,0.0891507693655617,-0.528572873529284
-0.182839271276539,-0.396189011336586,0.476088732307083,-0.290118071755839,0.136339275121424,-0.0274215962660354,-0.328112369380217,-0.268217499838737,-0.274695871070543,-0.418349439574649,-0.126084532572742,-0.136333232338447,0.254907136839098,0.739655330657101,-0.315636666738161,-0.107712917550238,0.187192924723749,-0.0251909286631006,0.108156071789962,0.104161009694594,0.0193885277179728,-0.22591575977789,-0.0982606510057738,0.859349612450335,-0.330750093638383,0.095673271937014,0.353596081061158,-0.439898207153012,-0.323235456457687,0.259117220973644,-0.0316341848553513,-0.288780579049948,-0.319076788158464,0.0991292182587138,-0.339989308144098,-0.450232736372251,-0.198033003314762,-0.0941027105823088,0.237613277538752,0.0330946448856324,-0.25892161739895,-0.303361741763102,-0.273328980015133,-0.466736494538213,-0.402661667303195,-0.100345679486015,-0.102142594795936,-0.382859813849476,-0.479105527569562,0.00267004881693401,0.124862662438479,-0.316979910567207,-0.252110416405104,-0.175162956239104,-0.249815963191358,-0.189871813608003,0.453711674377231,0.354229771185459,-0.37888510842427,-0.511777471666454,-0.0316123644031958,-0.238120245038709,-0.577931810284742,-0.465809129316375,-0.241756217741783,-0.274783535117757,-0.460537271089733,-0.762671196785054,-0.604253687629362,0.390860830943361,-0.539587265325458,0.016175707502048,-0.203722160236367,-0.176396659609216,-0.107892907006182,-0.120218035769112,0.00936676023204682,0.261176971616579,-0.265986536559851,-0.19681087510322,-0.314882186170605,-0.328788522511024,-0.240384425883632,-0.654165017030208,-0.281920212533325,-0.23102700653126,-0.223805227782265,-0.0894107250760397,-0.378334779121589,-0.0494541738466494,0.270603055052045,-0.206371028725684,-0.196420927238076,-0.493445804027569,-0.109336272569822,0.0064953594431809,0.174452072988558,-0.134313336529758,0.697752910320364,0.186465139792387,0.0622607013603292,-0.114072560950599,-0.408693998885502,-0.00477517205306693,-0.135812529195094,-0.348911264600204,0.574451413682776,-0.354697144885455,-0.114934164819143,0.042950890539651,-0.127943326553546,0.089871202318042,-0.316457653301971,-0.15952616452238,-0.636016176231321,0.0980125690607057,1.0766147327768,0.568965872121411,0.0243292799380224,0.0143805170551757,-0.0111562305144656,0.303582989947005,-0.268363224076344,-0.413707113150625,-0.22199414469846,-0.015630501532079,-0.278275924131373,0.0178931160317322,-0.348140511326377,0.134173568097061,-0.468463988405305,0.082883837289086,0.580137883048099,-0.420615456413844,0.177076958411647,-0.0678212341126367,0.133111768701895,-0.0850713148122883,-0.476214715266929,-0.468893326983701,-0.159775753121934,0.071623468814704,0.264286800671795,0.724745372562583,-0.158272550859452,-0.491932493926274,-0.0401553364825455,-0.177606748482797,-0.250141409603538,0.274897528759249,1.10758167418239,0.0613757202558783,-0.0643609674896028,0.000380513753465924,0.304255185025415,-0.0765187686575261,0.151672656644756,0.0759334542492761,-0.332523724497528,0.121275358377866,-0.116162664339071,0.0375843864274634,-0.227962311804931,0.378788881205416,-0.164001096111671,0.00684277145071168,-0.141677106794355,-0.127261734039712,0.94096174038207,-0.614374357923403,-0.183033242657324,0.41610173852666,-0.0800466093627934,-0.0771150415006468,1.11033645338713,0.656981588613177,-0.37947645290455,-0.245247913036295,-0.0927393733620427,-0.414843325864351,-0.319525654782621,-0.247987468831908,-0.421154242857529,-0.338351276607847,-0.241483718028301,-0.0320106136850757,-0.152101869824899,-0.380383668092036,-0.160882077762907,0.0617719011189955,-0.131716528371108,0.132712811365588,-0.267027871692326,1.03903191373277,-0.569326452598748,0.0949888092521309,-0.474223096271434
-0.16071644403078,-0.351341558116522,0.476720979949486,-0.26409108641528,0.131600516790115,-0.0227402337502254,-0.291897749381252,-0.236261686664775,-0.254950803333212,-0.382049132633649,-0.0967359051109074,-0.121269094469213,0.248991057871497,0.754460243917146,-0.299968053109612,-0.103829102967693,0.182508456998573,-0.0169279529360639,0.10106059111243,0.0954502325275143,0.0138765930255499,-0.201513468270092,-0.095351255915748,0.862754268106805,-0.289964721759866,0.140621456337881,0.377311648121471,-0.399811122070404,-0.289454123897987,0.247105790339682,-0.017230084595003,-0.250140417453984,-0.29885240142282,0.0798216007289625,-0.320654757131533,-0.397420599141455,-0.202668281388524,-0.075409556248049,0.230704248606655,0.0396665832279004,-0.194154820964396,-0.278800576610431,-0.245958621242482,-0.415364708402385,-0.377477618308682,-0.0758762883453752,-0.0839749046358875,-0.362740457153485,-0.438939902179688,0.0127220538700672,0.106976181596578,-0.286252993960432,-0.211719163071566,-0.168509494325415,-0.2223381241806,-0.159955972330122,0.420238532529755,0.359108314035527,-0.338621595174692,-0.450328184965161,-0.0286779791041295,-0.208968335979261,-0.534559400458571,-0.422379904725456,-0.212946639440589,-0.23229939036177,-0.432985574619587,-0.691210945176092,-0.55550100299003,0.382745054512909,-0.46396827728707,0.0194734437589532,-0.191350096422426,-0.164323824767774,-0.0768207200445668,-0.104083719901677,0.0270801257424159,0.242974018061779,-0.240294012141395,-0.177953881584925,-0.276085105927957,-0.28605153564533,-0.231813553468058,-0.595191971660532,-0.252503031772824,-0.209423633705363,-0.198781740046778,-0.0812415550024265,-0.333049865564779,-0.0427540501376776,0.240676348320364,-0.190710374427068,-0.146743348446662,-0.458557278135459,-0.0986308909782052,0.0124337694714154,0.160846901463548,-0.095202140497281,0.719904859054803,0.169898451371702,0.0695805115467652,-0.0955458774550397,-0.376005550148543,-0.00692388444040239,-0.107665464941476,-0.317028119600503,0.58526145188029,-0.313807955244053,-0.0831605557999617,0.0454034159087142,-0.108458530737639,0.0862148719156956,-0.277761716692865,-0.139059540093337,-0.56098427728795,0.0876248746791877,1.06512809121555,0.593322976731049,0.0304642222101574,0.0193611696848237,-0.0274766170107003,0.313873169710931,-0.225156113158205,-0.369565071714229,-0.186206461708057,-0.00549476665139893,-0.240945213634198,0.0112375800470702,-0.320800048267592,0.135054834282274,-0.412065992686064,0.0866700200923882,0.600523936941981,-0.382549314185395,0.171130279671401,-0.0621316815290978,0.141025190468387,-0.0578062560687847,-0.44352979134992,-0.435509137328426,-0.130528097007573,0.0842413174513993,0.213516756677174,0.737045806123462,-0.146663098497314,-0.453633082479835,-0.0127584728394706,-0.149728743427933,-0.227884393458187,0.272762764171416,1.11285347386171,0.0536853045750554,-0.0482883850823155,0.00722092609034227,0.26520685906112,-0.0642259173957164,0.154827051164284,0.0673865658480025,-0.309854112599589,0.151678276056062,-0.109953723461151,0.029901862189983,-0.190681098526254,0.35671725007974,-0.144789086217442,0.0107927867690171,-0.117245628258316,-0.111639445067458,0.939259338754973,-0.54937004170359,-0.161803353947741,0.41088626292743,-0.0650026059256555,-0.0697864475080794,1.10966794378687,0.659100955282217,-0.339491955377047,-0.222487360578679,-0.0892019463073196,-0.396901615613248,-0.285261010517806,-0.211814870403819,-0.378756680434143,-0.313185176629196,-0.220988488714793,-0.0284020311355143,-0.138172791945809,-0.332895711239629,-0.146746832940775,0.105730385957802,-0.12099932215217,0.121092318850247,-0.241579127106599,1.04219156207902,-0.526052321333691,0.101431640799234,-0.419712703636373
-0.139484537836168,-0.306206766762755,0.477754344206483,-0.237783823112503,0.126732254132397,-0.0182163307103143,-0.255823570413716,-0.203835441344533,-0.23505441728726,-0.345629301923146,-0.0671712437335137,-0.106544563474836,0.242986134538172,0.768614304624635,-0.284086362701337,-0.100353521268941,0.17803878537179,-0.008205453081527,0.0940520046925601,0.0860726159071698,0.00794048413794047,-0.176946164288673,-0.0916729047687171,0.866131207795258,-0.248096532205794,0.184777549856284,0.401119887877433,-0.358824767145974,-0.25577256533514,0.235134881369639,-0.00367643981284382,-0.211673745548993,-0.278460320267064,0.0620194914632357,-0.301133624862752,-0.344836119765103,-0.207616260299189,-0.0563809215139495,0.223973180017931,0.0459354089534625,-0.131363671402713,-0.254362126643156,-0.218830528148437,-0.363227223797776,-0.35220728875361,-0.0514673252415303,-0.0658354800070323,-0.341814355530968,-0.398331966225968,0.0227792258064436,0.0891607110460753,-0.255576972629934,-0.171049158464585,-0.161415985779052,-0.194585331597416,-0.129597003704637,0.38594918947146,0.364427899550292,-0.299206848966155,-0.389916782693488,-0.0259492782645769,-0.178830142290988,-0.490694515963645,-0.379179976584922,-0.18373198909344,-0.189063096479488,-0.404990089987739,-0.620308052570997,-0.506626665064175,0.374456618673814,-0.388923363589299,0.0230201564534605,-0.178098850034508,-0.151633730544799,-0.0461226203623321,-0.0878541392851928,0.0452783059002596,0.225230350873625,-0.214726590481,-0.158467061535959,-0.236541070392354,-0.243893128859201,-0.222899427109045,-0.536532881041122,-0.222550934877916,-0.187644156301259,-0.172827751280328,-0.0733314729443783,-0.287638506609689,-0.0359963493897631,0.210750918026635,-0.175770212052748,-0.0970865602190096,-0.423468335542216,-0.0881353827132648,0.0185216640599191,0.147174895821229,-0.0560347170981966,0.741804532427489,0.15342090006913,0.0756268436054261,-0.0777822156090864,-0.343839558427901,-0.00919995034088268,-0.079499498329155,-0.284829940604481,0.595614488063893,-0.272023256998612,-0.0522897565267286,0.0480405206500118,-0.0885703410559112,0.0825525187195921,-0.237692729515566,-0.118665726932906,-0.486310270406895,0.0772587839956043,1.05374432830511,0.616899363957822,0.0371298669720616,0.0244334743268829,-0.042629755937211,0.323577341289989,-0.181548893700402,-0.325545484788343,-0.150284629263127,0.00491223487624767,-0.20389966533669,0.00530280432358907,-0.293448192485256,0.135592948860757,-0.355622232732521,0.0913783446265792,0.620028556636618,-0.343788190277229,0.165554003899627,-0.0556648092188542,0.148781542934123,-0.0299599153742485,-0.410268868269761,-0.401629517890131,-0.100493848506096,0.0965502897377027,0.162107510960788,0.749207554525192,-0.134879416630107,-0.41522540617993,0.0146138379222493,-0.12215980216492,-0.205902628592042,0.269394154471797,1.11731760691835,0.046212382696522,-0.031902748781838,0.0142578635549841,0.225846842505,-0.0511280189725825,0.157786876343499,0.058755084047659,-0.287231523357005,0.181872146768684,-0.103207029232235,0.0227556814778948,-0.152576263064566,0.335012493894067,-0.125434740804488,0.015299136012359,-0.0925570267328822,-0.0962683212615372,0.937361227288163,-0.484453465000442,-0.140487108481812,0.405620454516822,-0.0493860267937801,-0.0626441679506737,1.10869209557394,0.66071522193772,-0.299516402387897,-0.199349531636464,-0.0853675306339289,-0.378571111105699,-0.2505508976288,-0.17609919380292,-0.336636313395553,-0.287820948225394,-0.199940509978845,-0.0256388599992329,-0.123404429247475,-0.285001415343134,-0.132210707480193,0.148827174059538,-0.10966161137095,0.110296879769798,-0.216235435824749,1.04515786840099,-0.48253775983562,0.108587264240031,-0.365171715214354
-0.119092184353903,-0.260831502997488,0.479168728308051,-0.21131938220051,0.121633745055551,-0.0137352340570442,-0.219863217912903,-0.170858561274617,-0.214925880209501,-0.30913832077587,-0.037544226167396,-0.0922218978532055,0.236846584450394,0.782011152312483,-0.267815408743507,-0.0972687394930217,0.173662020187301,0.000765472329454297,0.0871377021796528,0.0759461451258859,0.00164868097064858,-0.152198605062056,-0.0871205634248004,0.869470133485786,-0.205067944883815,0.22782895256106,0.424965817083725,-0.316958344774062,-0.222078695595075,0.223130962556831,0.00893886534989582,-0.17336081246768,-0.257797947312286,0.0457785841822388,-0.281332032182467,-0.292463246553947,-0.21276750967232,-0.0369674255199514,0.217314222445006,0.0518259791692941,-0.0712289737602689,-0.230009233099842,-0.191913647083407,-0.310282897811896,-0.326747433048388,-0.0271454822799664,-0.0476591932886839,-0.31997120952312,-0.357212854332199,0.0328313336106164,0.0714883962812097,-0.224781267449815,-0.130162397349612,-0.153834511350739,-0.16664198039108,-0.0987239964866796,0.351014975642987,0.370194390006534,-0.260759689122495,-0.330651476036366,-0.0234941187022814,-0.147619395003873,-0.446363349068804,-0.336221894634635,-0.154177078748218,-0.145197929308901,-0.376422563960175,-0.549906979045658,-0.457445387597959,0.365891666113587,-0.314617433350642,0.0268265943623078,-0.164018098205093,-0.138290382310516,-0.0156970076055621,-0.0715634695165663,0.0639545824046095,0.207756289681407,-0.189234254381809,-0.138380629235019,-0.196264584965093,-0.202414919529234,-0.213429519555486,-0.478169148995234,-0.192155647224165,-0.165657021556553,-0.145860876158968,-0.0655563202055113,-0.242236224929213,-0.0292042746071163,0.181065972090181,-0.161558853880653,-0.0475779565009427,-0.388115649362579,-0.0777364255844748,0.0247045447933495,0.133461905585222,-0.016827045599178,0.763458242615102,0.137005978066542,0.0803152883710801,-0.0608476887622954,-0.312166350054391,-0.011637840649157,-0.0512262775821432,-0.25237330300394,0.605508462156533,-0.229316084662251,-0.0223091926057722,0.0508801620074045,-0.0683419437815059,0.0787887717992644,-0.196189940640706,-0.0985112029964962,-0.412130433037422,0.0670372647001773,1.04243663732584,0.639665517956883,0.0445217382805488,0.0295570485073552,-0.0564815666567102,0.332553788699763,-0.13771916577462,-0.281626666003627,-0.114386498491042,0.0154005064649395,-0.167192550847576,0.000291367380749217,-0.265942988241124,0.135824921024661,-0.299196312854053,0.0971897555995944,0.638557549467008,-0.304200617842,0.160462732264263,-0.0483309913878548,0.156225777956393,-0.00166171675585673,-0.376433515759604,-0.367050172086606,-0.0698177092696616,0.108450694201543,0.110638870197905,0.761214509177725,-0.122882311973613,-0.37665822266245,0.041875588148823,-0.0948033123567949,-0.183887379950384,0.264648142011217,1.12087208300351,0.038943373696018,-0.0151244890225467,0.0215320332987996,0.186511654586567,-0.0371347833623785,0.160540432676319,0.0499987761242022,-0.264551406079406,0.212025039465753,-0.0959045447170204,0.0160970895421141,-0.113887700166533,0.313669396650878,-0.106048068244363,0.0205121099222212,-0.0676576911677868,-0.081254144250447,0.935209990679239,-0.419639987277988,-0.119114494724818,0.400273010387891,-0.0331618711544971,-0.0556414127266528,1.10739045632445,0.661747802646817,-0.259625024414903,-0.175856054498538,-0.0810457701556788,-0.35977888670215,-0.215606920173167,-0.140843366582797,-0.294782087173995,-0.262361724624565,-0.178281795083586,-0.0235909594915024,-0.107574481922799,-0.236852774655827,-0.117152292849528,0.190981124693575,-0.0976619269052545,0.100550506460488,-0.190929323395232,1.04786906686295,-0.438679741985848,0.116547259733294,-0.310733024577288
-0.0994924702898867,-0.215281448050691,0.480909807336664,-0.18483104460101,0.116250468928515,-0.00922863963226818,-0.183985360419639,-0.137263032536029,-0.194488371128838,-0.272651490177047,-0.0080422286233565,-0.0783827758790078,0.230510486707402,0.794558018086984,-0.250979166150158,-0.09452345248551,0.169144511788572,0.00969846488373123,0.0803626614060795,0.0649713901445317,-0.0048916625152151,-0.127306216429924,-0.0816272900883032,0.872748573813772,-0.160820649843727,0.269513804857671,0.448787813818358,-0.274236028381889,-0.188244843268794,0.211026901024535,0.0205681443457866,-0.135223433590103,-0.236774286230068,0.0310647165943401,-0.261190542261779,-0.240272920303616,-0.21798949286615,-0.0171321569001041,0.210581101515352,0.0572236037616854,-0.0144508664945233,-0.205713705481471,-0.165173399724321,-0.256547440444216,-0.301015820764657,-0.00296856025596206,-0.0293755654257617,-0.297089817248375,-0.315549609603453,0.0428590432608626,0.0540405990372342,-0.193707130380252,-0.0891575201442898,-0.145745689073142,-0.138632292879808,-0.0673328081349824,0.315620267483556,0.376408367847539,-0.223367057288199,-0.272638287740405,-0.0213516062155418,-0.115243965729925,-0.401615738426227,-0.29351549968951,-0.124362172001704,-0.100887062697099,-0.347161022573574,-0.479876437288249,-0.407775681948121,0.356953224832755,-0.241239012180267,0.0308772380738613,-0.149203673275595,-0.124246203834087,0.0145166614960286,-0.0552569882280777,0.0830763030250643,0.190334454679053,-0.163809036986145,-0.117785549420998,-0.15533776058669,-0.161679267018432,-0.203234996749263,-0.420045359385205,-0.161473880851492,-0.143491451614179,-0.117773512797048,-0.057718553382722,-0.196999106612926,-0.022416379644715,0.151902682923599,-0.148022556747551,0.00170271528524896,-0.352445688086928,-0.067327395970186,0.0308681302972368,0.119751921952774,0.0223328685879178,0.784860890288541,0.12064515842007,0.0836553115553221,-0.0447963556111777,-0.280944091472285,-0.014285776109986,-0.0227964423928362,-0.219733035629509,0.614932966231577,-0.185704592055279,0.00687860484708664,0.053909131195534,-0.047852303485005,0.0748118681792379,-0.153226331071165,-0.0787399629522813,-0.338555038785654,0.0570188068659481,1.03119061545549,0.661641158161935,0.0527673710471211,0.0347308755211337,-0.0689660453776993,0.34064632958565,-0.0938794919078761,-0.23781070495303,-0.0787614701687854,0.0257185358357897,-0.130873540434418,-0.00359039728096613,-0.238115308947733,0.135749153010118,-0.242831534983941,0.104203707532784,0.656089535284938,-0.263677228632377,0.155931320916479,-0.0401555307238824,0.163181384939608,0.0268627285545786,-0.341995583751265,-0.331589266123912,-0.0387375306295385,0.119715616051304,0.0597908719007094,0.773078829995294,-0.110632505313797,-0.337857564517397,0.0689630200372561,-0.0675721229270525,-0.161509093783683,0.25838795279516,1.12341379755097,0.0318604043764097,0.00215756119376958,0.0290216579729883,0.147569912205182,-0.0222298888433558,0.163105323439698,0.0410870679828729,-0.241717967957715,0.242321432920919,-0.0881373897522334,0.00976885990069339,-0.0749247903627821,0.292665942622903,-0.0867490207147078,0.0265518025855057,-0.042636220226237,-0.066645731849021,0.932771157004143,-0.354970777057543,-0.09775103839776,0.394749145873609,-0.0163102481002123,-0.0487351760025556,1.10576408852149,0.66214876871719,-0.219917232070078,-0.152037840174108,-0.0760477750934589,-0.340420916770838,-0.180735718536528,-0.106045872020086,-0.253136774628697,-0.236955949238666,-0.155984276934731,-0.0220411531161834,-0.0904978134510557,-0.188587146181191,-0.101452997752359,0.232162868077222,-0.0849680941771376,0.0920011808954742,-0.165625995496268,1.0502908349423,-0.394396947118305,0.125320360654888,-0.256523153594761
-0.0806424111370779,-0.169630024932737,0.482858133854624,-0.158449918803895,0.110564597509595,-0.00466612036981693,-0.148161422405329,-0.103016490915267,-0.173669048272676,-0.236243424416263,0.0211617710068798,-0.065116774646089,0.223950187821855,0.806201221666635,-0.233423713354624,-0.0920773982731452,0.164172871353738,0.018225143334259,0.0737987310852675,0.0530326466033755,-0.0115711792175591,-0.102376686654371,-0.0751718973562462,0.875956052071962,-0.11529680512815,0.309629320905691,0.472532672394245,-0.230694994906766,-0.154114248657149,0.198786029673222,0.0312104207759245,-0.0973529052359009,-0.215355364431223,0.0177499907356291,-0.240728273155495,-0.188249495831941,-0.223140767142846,0.00316654247417954,0.203628474698764,0.0619975817197864,0.0383231893396872,-0.181516682812881,-0.138632934850486,-0.202090068788142,-0.274972708162566,0.0209669830617134,-0.0109578042385189,-0.273060490606489,-0.273354256505414,0.0528339983067429,0.036872415179121,-0.162244182699106,-0.0481839801374204,-0.137144281253438,-0.110708216790656,-0.035492532225818,0.279969626852071,0.383049870817419,-0.187058490764538,-0.21599022458802,-0.0195745147350737,-0.081629923457229,-0.356491067555214,-0.251091366579558,-0.0943570657707831,-0.056334598004387,-0.317117293529305,-0.41005162309438,-0.357483075151783,0.347557427310881,-0.168962426168045,0.0351051009418804,-0.133797233440193,-0.109407630218562,0.044511748363481,-0.0389909497024639,0.102588370581352,0.172744431140737,-0.138498662052076,-0.0968299012346625,-0.113884578228581,-0.12170640276653,-0.192268573252116,-0.362093630202182,-0.130708196541404,-0.121243004192732,-0.0884224796126087,-0.0495931667934929,-0.152087586542766,-0.01568411265371,0.123545298163218,-0.135109568855559,0.0506618667435515,-0.316460001810964,-0.0567968996205645,0.0368411234714407,0.106084832940094,0.0612738633682842,0.805993581517416,0.10431663950922,0.0857034260457314,-0.0296554707097764,-0.250064936441115,-0.0171791416608438,0.00577680949973253,-0.187025208545362,0.623885255165221,-0.141236639835329,0.0354391144161424,0.0571371168393745,-0.0272248229454147,0.0705057893877468,-0.108817935265417,-0.0594176998894232,-0.265695946615448,0.0471981651071088,1.02001059545655,0.682874787830202,0.0619101630197359,0.0400045307127442,-0.0800791892905251,0.347749531076017,-0.0502419502976765,-0.194113752357951,-0.043725336779206,0.0356097478600593,-0.0950244867593802,-0.00614273960829631,-0.20980407055367,0.135316914644643,-0.186561419693495,0.112398791605495,0.672668638321819,-0.222178103430616,0.152040062023532,-0.031282674601673,0.169491398262928,0.0553351349925584,-0.306905248489466,-0.295098075855846,-0.00755342400299925,0.130037772483153,0.0102855267106769,0.784829664311911,-0.0981262621471599,-0.298761194389238,0.0958857186754239,-0.0404372651415357,-0.138459906363397,0.250489772883137,1.12486634979222,0.0249156053794652,0.0200785368381977,0.0366957435916697,0.109438436404509,-0.00648382745504503,0.16553761541384,0.0320207744460121,-0.21866182357489,0.272921192930468,-0.0800858841988001,0.00354671616484844,-0.0360387221887409,0.271980380365487,-0.0676552502673919,0.0334740329800442,-0.0176326682922249,-0.0524556666224347,0.930049950163441,-0.290537980251785,-0.0764834805425824,0.388918544792608,0.00115777673801378,-0.0419064356076081,1.10384367513732,0.661919616108313,-0.180510127248097,-0.127946545121182,-0.0702314532512859,-0.320376587404252,-0.146316521896221,-0.0717241175895566,-0.21166103182007,-0.211752098536426,-0.13306455527798,-0.0207218650329714,-0.0720463632144696,-0.140301795261117,-0.085016804557816,0.272426868462529,-0.0715617046641958,0.0846810917291376,-0.140322622477794,1.05243853894704,-0.349643154758729,0.134802914978864,-0.20266453529643
-0.0624903416038734,-0.123951725337239,0.484819093348006,-0.132257948535103,0.104567841041737,-2.18991110817816e-05,-0.112367940366642,-0.0681409135469661,-0.152406443630131,-0.199992306493057,0.0499426251587786,-0.052508098145572,0.217142051753904,0.816949236273436,-0.215032933743703,-0.0899300716057121,0.158419752663436,0.025971698596455,0.0675140691324654,0.0400414910470234,-0.0182947640073297,-0.0775230111004213,-0.067727007399968,0.879073044340885,-0.0684364716474881,0.348016635869364,0.496148943236006,-0.186383459542648,-0.119518468814754,0.186393586667827,0.0409092328178797,-0.0599197908632281,-0.193586377755028,0.00562912764325879,-0.220041949740468,-0.136403239927418,-0.228114912131397,0.0239719856647567,0.196342514216461,0.066000795789726,0.086590223573578,-0.157542855987428,-0.112348942174996,-0.147016227594744,-0.248624218233902,0.044578937505331,0.00754166954533883,-0.247810087320381,-0.230670126942604,0.0626881743679408,0.0200148708438282,-0.130331921049275,-0.00742914623357264,-0.128018137104202,-0.0830168604155479,-0.00333192707735628,0.244253358740992,0.390065060758345,-0.15181728302192,-0.160825405076294,-0.0182440677211936,-0.0468012141378815,-0.311009173912322,-0.209002562650146,-0.0642251982352243,-0.0117254179248609,-0.286269880025427,-0.340265314469099,-0.306513360417796,0.337638315554032,-0.0979415936475727,0.0394069608927655,-0.117975946169372,-0.0937050977323342,0.0742545063600038,-0.0228279671763342,0.122427219350539,0.154787698285136,-0.113377565233336,-0.0756893187426255,-0.0720043142876617,-0.0824581707631208,-0.180628495870521,-0.304269461284616,-0.100054101811118,-0.0990221558281864,-0.057682691820935,-0.0409824868145609,-0.107650962040465,-0.00906487288157444,0.0962348666841826,-0.122797368011687,0.0991884179698708,-0.280247232003058,-0.0460360998082849,0.0424461091897436,0.0924519335175177,0.0997690673613802,0.826819568995143,0.087958064596339,0.086553365947367,-0.0154586178243379,-0.219350362063014,-0.0202866924145268,0.0344399950140888,-0.154385345837228,0.632406704195743,-0.0959957285202554,0.0635491244526473,0.0606123646231747,-0.00664268265877417,0.0657828803545512,-0.0630366409945624,-0.0405889085669249,-0.193674365337731,0.0375463676925713,1.00887603867413,0.703429055468095,0.0719341129277196,0.0454565386715456,-0.089832713245527,0.353819850865789,-0.00699825918783398,-0.150556507949604,-0.00959882474755915,0.0448623822013457,-0.0597837163620399,-0.00716578897927693,-0.180888925208708,0.13447540927315,-0.130413442724061,0.12163415283636,0.688359443120987,-0.179746574829895,0.148887366897772,-0.0219354669293492,0.17504169023537,0.0834851650396812,-0.271134961836183,-0.25746136422535,0.0234452025703549,0.139108544093172,-0.0371954316901549,0.79647025446259,-0.0854301171939289,-0.259363529615782,0.122723291042289,-0.0134327152208286,-0.114497537708209,0.240854962069488,1.12519768243718,0.0180132490589459,0.0387176274374739,0.0445119923775515,0.0725349156814073,0.00997615245638969,0.16791320266901,0.0228669851617384,-0.195321552171865,0.303940555948789,-0.0719492457884628,-0.00278783974550804,0.00243529586973071,0.251608280981401,-0.0488641918754121,0.0412595733752009,0.00719287787295051,-0.0386185787990113,0.927078181516333,-0.226475500239105,-0.055436005100553,0.382633211476229,0.0191998078154911,-0.0351576624854235,1.10166834788835,0.661097037570484,-0.141541300690949,-0.103684414261098,-0.063553026238528,-0.299551245928241,-0.11272196260428,-0.0379310221076553,-0.170402291650987,-0.186844715013526,-0.109614129971703,-0.0193976791182453,-0.0521550012666068,-0.0920427372590641,-0.0677805444907223,0.311884439063257,-0.0574460924702101,0.0785074037318655,-0.11505357926568,1.0543230167476,-0.304418980190006,0.144824383088743,-0.149263285487939
-0.0449732722799806,-0.078338195778351,0.486548582681579,-0.106235619861451,0.0982710390258253,0.00472518059368183,-0.0765780325208563,-0.0327059525068492,-0.130658777693181,-0.163982683725542,0.0782275658610767,-0.0406723188849898,0.210016386777517,0.826877433006019,-0.195710238654305,-0.0881376280938109,0.151594679302203,0.0326263291399106,0.061535076060792,0.025918689840898,-0.0250094261558656,-0.0528196685574689,-0.0591988448174722,0.882029512073689,-0.0201885248602916,0.384555815443127,0.519571342848994,-0.141352973668041,-0.0842773173635457,0.17382492323124,0.0497600066623182,-0.0231534488263954,-0.171574260503066,-0.00554864757570237,-0.199262881569385,-0.0847389447257623,-0.232870402759538,0.0452939487993673,0.18864128414687,0.0690802236738561,0.130030450016337,-0.133949271028867,-0.0863720540537721,-0.0914659757646025,-0.222029669546298,0.0678091696134675,0.0259904495692535,-0.221306462805657,-0.187550396105372,0.0722625534543328,0.00350186583950376,-0.0979624135897641,0.0329279741586039,-0.118341799159908,-0.0556383282563785,0.0289889914657995,0.208581983238388,0.397381027905083,-0.1175845407635,-0.107234075533469,-0.0174801817831061,-0.010938800242567,-0.265191507120276,-0.167310607288256,-0.0340669989188296,0.0327728631639413,-0.254661665317945,-0.270354047815878,-0.254859990459267,0.327149035343392,-0.0282933641562373,0.0436598953831611,-0.101918186228977,-0.0771584185777417,0.103701877621037,-0.00683439854731011,0.14251834018552,0.136291948408214,-0.0885247608043733,-0.0545436787846366,-0.0297708270432256,-0.0438391975450202,-0.168463719022847,-0.24654357653522,-0.0696787810686452,-0.0769320010226498,-0.0255088897504019,-0.0317137487059945,-0.0638057806624413,-0.00264506883394903,0.0701193220346847,-0.111075989441682,0.147192430782913,-0.243961388802376,-0.0349652982024504,0.0475081424075257,0.0788196688198051,0.137553712055368,0.847281398857785,0.071466226873585,0.0863653219768101,-0.00225343018580223,-0.188597203963088,-0.0235049117414786,0.0631142126241689,-0.121929492039199,0.640595794714444,-0.0501003529759747,0.0913551708167995,0.064390495548276,0.0136711903582315,0.0605887587709672,-0.0159933123200319,-0.0223236337309106,-0.122607500454139,0.028051641179575,0.997706639171765,0.723377731516114,0.0827846530789217,0.0511721556014849,-0.0982471418729975,0.358862916400759,0.0356951648532092,-0.107155393054601,0.0233427917475283,0.0533576168596486,-0.0253472508662324,-0.00649081174375997,-0.151321891635886,0.133200328772499,-0.0744132263227879,0.1316898280789,0.703236498871065,-0.136487020528845,0.146580768124537,-0.0123496056631931,0.179754711399341,0.111083041761122,-0.234699478074047,-0.218592764102111,0.054025423216513,0.146672088250341,-0.082082449304716,0.807969765881422,-0.072659452681736,-0.219737970198894,0.149610078694412,0.0133769827145752,-0.0894664382827164,0.229436247144899,1.12439588093587,0.0110195909712614,0.0580464937058546,0.0524153437528735,0.0372249629205685,0.0269884180169207,0.170282040770609,0.0137733848378083,-0.17163506310557,0.335451428492898,-0.0639098385547231,-0.00940158237387751,0.0401966348122711,0.231569877349996,-0.0304704438274788,0.049829216000885,0.0316688186893964,-0.024954186207663,0.923891201634304,-0.16294375758592,-0.0347693889151251,0.375732413855394,0.0377464750753855,-0.0285157695118729,1.09927280319065,0.659722192127008,-0.103134383093758,-0.0794054708854744,-0.0560577715126627,-0.277875009270037,-0.080258497156256,-0.00475517350397488,-0.129475885518569,-0.16227150588175,-0.0858020325238119,-0.0179006509718394,-0.0308155428978568,-0.0437764190100721,-0.049714611253785,0.350672336615916,-0.0426359140583555,0.0733220693772396,-0.0898768963857021,1.05591272923865,-0.258780355574465,0.155176800206563,-0.0963862629264358
-0.028027875321505,-0.0328845768713443,0.487810958465716,-0.0802810966569162,0.0917285475425198,0.00958701081052188,-0.0407603466755736,0.00320459938338546,-0.10839474404481,-0.1282792483539,0.105976224782083,-0.0297458030961823,0.202494045843881,0.83613562035847,-0.175370308616851,-0.0867713180204567,0.14346525959619,0.0379706010717267,0.0558274322892068,0.0105485315097086,-0.0317054349157877,-0.0282879716357354,-0.0494682843778193,0.884726652499134,0.0294745414079117,0.419183821527967,0.542768645645958,-0.0956694144551078,-0.0481832626133278,0.161019285589972,0.0578570610091745,0.0127066067521589,-0.149443444979869,-0.0160407981123106,-0.178530275245291,-0.0332307967842166,-0.237409928787695,0.0671041305537245,0.180471999675237,0.0711245460952458,0.168502465257722,-0.110851863074551,-0.0607026894207813,-0.0355784160209795,-0.195288727385547,0.0906002153055299,0.044190736354464,-0.193544823486341,-0.144027336863085,0.0813300890422788,-0.0126319460701847,-0.0651380960266304,0.0727531399949496,-0.10808613358245,-0.0285775165792364,0.0613207463640345,0.172980248406601,0.40496703911207,-0.0842658128733386,-0.0552397677714465,-0.0173981751777408,0.0256816643387909,-0.219060059650085,-0.126075295378146,-0.00403665819719215,0.0770051487875967,-0.222361607342062,-0.200151901370632,-0.202517572349266,0.316051402191493,0.0399065131611481,0.0477514618458368,-0.0857790161008531,-0.0598158571404348,0.132781733906314,0.0089529430741838,0.16275004984134,0.117113390614376,-0.0640059224301919,-0.0335483111654219,0.0127109805429931,-0.00573486210436843,-0.15587606172009,-0.18887401704967,-0.0397237067514022,-0.0550736900635036,0.008045243106491,-0.021626778576143,-0.0206189311112913,0.00343981208521854,0.0452323333812659,-0.0998940195533587,0.194624717827321,-0.207762671219796,-0.0235219724282668,0.0518668452976405,0.0651731684979212,0.174342713136481,0.867310163708906,0.0546998158319656,0.0853541124701815,0.0099314841637483,-0.157602325939027,-0.0266856937176392,0.0916838094602017,-0.0897427658068364,0.648609562176406,-0.00365080419286384,0.118955262105278,0.0685126100689809,0.0335040232737918,0.0549043777389634,0.0322133735856871,-0.00469849042768992,-0.0526018467346259,0.0187281896970091,0.9863919655216,0.742837022526159,0.0943722061060803,0.0572545018085751,-0.105353804393262,0.362896960197325,0.0777359533964673,-0.063912430477931,0.0548917782018208,0.0610750962003762,0.00804804934809334,-0.00400028057260482,-0.121119463605012,0.131531466552868,-0.018573569602935,0.142320629994648,0.717416950288293,-0.0925330094197836,0.145240494557486,-0.00274650809611282,0.183591128217716,0.137928739068532,-0.197658249449035,-0.17842585653614,0.0840085496731796,0.152525901690081,-0.123933989124364,0.819268913787095,-0.0599317937686849,-0.179990924506469,0.176721683362647,0.0399211458484129,-0.0632882963648243,0.216247660397967,1.12248271035708,0.00383872797220729,0.077961932853551,0.0603667667554131,0.00377904048843989,0.0443507047780571,0.172644475685803,0.00491097725597897,-0.147541580811204,0.367508534201909,-0.0561343073634857,-0.016380042452107,0.0769716092263934,0.211915069502103,-0.012565215081242,0.0590623692664934,0.0556147112778235,-0.0112086951643905,0.920535860126419,-0.10010754222652,-0.0146649672594808,0.368061333886644,0.0567266290001287,-0.0220086564508456,1.09670173233655,0.657799073822215,-0.0653552104709467,-0.0552765370563512,-0.047837963647682,-0.25530347900516,-0.0491478155168676,0.0277115128419767,-0.0890005831997283,-0.13801766478809,-0.0618384411219426,-0.0161204241746936,-0.00808544214951274,0.0046004420849875,-0.0308040020784326,0.388957923827837,-0.0271578240993851,0.068941271101431,-0.0648378856545589,1.0571558838639,-0.21281967985999,0.165626350388951,-0.0440658614908789
-0.0116000655121467,0.012351403904735,0.488430042998255,-0.0542750999447226,0.0850306161145998,0.0145752734982738,-0.00488933952245391,0.0394942652949371,-0.0855890756432463,-0.0929105930242568,0.133177343485433,-0.0198221049358695,0.194553260068603,0.844916307744432,-0.15394890587285,-0.0858510647027578,0.133865390856476,0.0418924412566921,0.0503254672978469,-0.00619134789151823,-0.0383660764388796,-0.00386438972635777,-0.0384547834761462,0.88710200450131,0.0805464787002161,0.451908640670468,0.565772075095659,-0.0494198447571171,-0.011015767230394,0.14788334616724,0.0652767756437948,0.0474519977218737,-0.127308080542585,-0.0260651546864634,-0.157953588356818,0.0181771455304683,-0.241723291906097,0.0893736492413331,0.171791832504842,0.0720770120387686,0.202037117240799,-0.0882920450218265,-0.0352898633606662,0.0205459019245988,-0.168502309946036,0.112928494059403,0.0619281715637853,-0.16452905303397,-0.10009336865996,0.0896795345592751,-0.0283714465936046,-0.0318209164821953,0.111956692819721,-0.0972255708406923,-0.00179812056140664,0.093573545094043,0.137442497095456,0.41286171675621,-0.0517645815528226,-0.00477480794854181,-0.0180345498071971,0.0628045047165393,-0.172602766570006,-0.0853447887936786,0.0257137177974139,0.120849070854369,-0.189424265630401,-0.129491882651095,-0.14946692644936,0.304328871126739,0.106621895746827,0.0516310472231827,-0.0696654522478806,-0.0416767246305298,0.16138883728493,0.0245551318409531,0.182987758189782,0.0971335712202665,-0.0398572056143392,-0.0127903037752353,0.0553095422119156,0.0319486151638428,-0.142899073287614,-0.131193410790225,-0.0102719308956821,-0.0335053100631417,0.0428271103424638,-0.0105957758432858,0.0218955314159981,0.00902076482924938,0.0215154031512264,-0.0891048154077767,0.241451920256652,-0.171761005017097,-0.0116365640267185,0.0554098818205599,0.0515087477908663,0.209885465624617,0.886856304816784,0.0375198011598325,0.0837445801972562,0.0210954804719557,-0.126156203541429,-0.0296622248170094,0.119992963447983,-0.0579178772426827,0.656638803062382,0.0433163179605545,0.146433482552502,0.0729895793175868,0.0527030488809431,0.0487350192234886,0.0815205298800737,0.0122045208980991,0.016263100153042,0.00958692339183527,0.97485857246669,0.761965426602724,0.106594914892849,0.0638535109133778,-0.111175582357876,0.365918175310544,0.119092924884895,-0.0208021600080067,0.08491921824112,0.0680505829862561,0.0401670282481457,0.000364137294681466,-0.0903075339051508,0.129591135227746,0.0371245872941141,0.153303751306053,0.731070266380412,-0.0480259451430894,0.144987761983275,0.00667749773366934,0.186557733078252,0.163843840818757,-0.160100245468611,-0.136919240373815,0.113242895653398,0.156475492418881,-0.162433312470238,0.830279155002457,-0.0473286029825291,-0.140177713130644,0.204240599293532,0.0661442163146185,-0.0359476111493895,0.201351781137569,1.11954846023735,-0.00353710820865309,0.0983312883976348,0.0683354567608707,-0.0276446434935294,0.0618408350371525,0.174976730216991,-0.00357820149591915,-0.122969550329754,0.400197982019275,-0.0487488774146588,-0.023720084231164,0.112520745509783,0.192701803454253,0.00481803308043595,0.0688249644304888,0.0788843182074928,0.00288858576730058,0.917071718168498,-0.0381014189166265,0.00468413576029729,0.359513561556558,0.0760847495130962,-0.0156492216303958,1.09402522873898,0.65527806205205,-0.0281835574957682,-0.0314276313719847,-0.0389859118117691,-0.231818109172298,-0.0195078488093976,0.0594129157108966,-0.0490750123336506,-0.11400068195825,-0.0379123154629769,-0.0139919778945389,0.0159172944249672,0.0532045749887861,-0.0110445457047903,0.426908121900833,-0.0110514618978033,0.0651944137067279,-0.0399608017302943,1.05802288641522,-0.166615362476878,0.17596445431051,0.00771656069863019
0.00436767136410304,0.0573417840249543,0.488309535542116,-0.0280882175486351,0.0782749919477615,0.0196942687997276,0.031063987272798,0.0760510450268119,-0.0622134534888464,-0.0578879900180912,0.159845894129585,-0.0109130583790201,0.186239885875137,0.853391892034157,-0.131408667363,-0.0853217707593015,0.122702889179845,0.0443778563176738,0.0449850110151956,-0.0243674430917097,-0.0449451148652215,0.020568989754627,-0.0261441365499337,0.889142372469585,0.132985292002844,0.482793567869079,0.588639116166661,-0.00269024712590598,0.0274194568040046,0.134305804457858,0.0721074933349983,0.0809292667574268,-0.105272469047667,-0.0357648285410376,-0.137571145604446,0.0695556544484684,-0.245785521584431,0.112096223210493,0.162522784083994,0.0719056436720538,0.230821193292767,-0.0662449293391418,-0.0100886048101029,0.0768403220007376,-0.141734605902894,0.13484133701014,0.079052677557063,-0.134262846109288,-0.055726794252194,0.0971678931181135,-0.0437053898280778,0.00205097171947767,0.150485420488027,-0.0857290218615079,0.0247664512358465,0.125720723772113,0.101980718940258,0.421120662580341,-0.0200130468129429,0.0443134739510807,-0.0193454591867372,0.100255304422405,-0.12573655512808,-0.0451278317360108,0.0550766184702832,0.164247989512619,-0.155867112412697,-0.0582254940889963,-0.0956852534896805,0.291995623039491,0.171868057901301,0.0553374617312723,-0.0535982897952458,-0.0227118029474752,0.189413172402027,0.0400180569938425,0.203115381496296,0.0762339884623951,-0.0160741587735735,0.00770493271234935,0.0979361701980101,0.0692695886198125,-0.129495272087453,-0.0734109380259611,0.0186666372720356,-0.0122084442239748,0.0786304660156102,0.00142699381237003,0.0637498634209986,0.0139761710110726,-0.00114574386993218,-0.0784729520642384,0.287604128592223,-0.136001020816421,0.000787312537452067,0.0580962206873037,0.0378095294404986,0.24403716816305,0.905905598539487,0.0198602373688509,0.0817364422360133,0.0312677559630299,-0.0940545630712894,-0.0323098035674947,0.147861425205305,-0.0265925879887011,0.664856127424977,0.0907900892987222,0.173877544543013,0.0777804441043747,0.0711574368744726,0.0420565980605582,0.131879571750339,0.0283019123477737,0.0839907817187875,0.000594009688111135,0.963075957869796,0.780904261630506,0.119389155209377,0.0711467737964017,-0.115723452435564,0.367927150958942,0.15975837029946,0.0222142895326705,0.113367760538475,0.0743312938287033,0.0708682364555563,0.00658872591819888,-0.0588992593614468,0.127559583846921,0.0927201983258974,0.164459703106253,0.744392472953194,-0.0030732403188421,0.145900911724352,0.0157732493158101,0.188689686554138,0.188676363209726,-0.122120676996353,-0.0940688797606641,0.141601696411113,0.158329501668051,-0.197390667052645,0.840897459529315,-0.0348634351869251,-0.100280768426267,0.232308006722491,0.0920261885628143,-0.00747005020006535,0.184836612115313,1.11571377590106,-0.0110563882345177,0.119011821623731,0.0762752121844047,-0.056971908407578,0.0792547272789269,0.177249114182079,-0.0115933883263292,-0.0978421183655833,0.433624462332667,-0.0418152061314565,-0.031375807340652,0.146657040031643,0.173952904411021,0.0217248006634243,0.0789880387933105,0.101387132165644,0.0175662837922889,0.913528993671042,0.0229847973712561,0.0231070807315389,0.350067806001329,0.0957950327190927,-0.00943216736503516,1.09132352240449,0.65208102828706,0.00849862551953726,-0.00794828090946385,-0.0295498638700984,-0.207405820290484,0.0086455496069436,0.0903548882375259,-0.00977973107841473,-0.0901031508809655,-0.0141472212712363,-0.0115063514291428,0.0410581488347262,0.102158310675034,0.00954670267018091,0.464651106026117,0.00564095808807561,0.0619438243018967,-0.0152623499100575,1.05851062049357,-0.120187190830262,0.186066695992041,0.0590395980346238
0.0199473789953727,0.102049598975354,0.487439638992974,-0.00155470075470911,0.0715522162190019,0.0249234479280685,0.0671578914572388,0.112776327134807,-0.0382226362308178,-0.0232164839216072,0.185977684568819,-0.00296134522688383,0.177639527438177,0.861702299802563,-0.107736343892322,-0.0850712610542476,0.109939594086539,0.0454996720003154,0.0398166904932863,-0.043991586181798,-0.051395001027781,0.0451196379698776,-0.0125947716854371,0.890861445131177,0.186725652713482,0.511950509358567,0.61142611907544,0.0444479849066798,0.067257622608361,0.120181327497903,0.078433957189695,0.113056719609494,-0.0833995702826525,-0.0452219048604594,-0.117362060703594,0.120975634064335,-0.249602142362569,0.135279179587509,0.152564655869828,0.0705927023582647,0.255156205995132,-0.0446519372741303,0.014891170763352,0.133271561206408,-0.115018157022841,0.156431377997361,0.0954961696939476,-0.102762500658645,-0.0109249304453728,0.103709876016873,-0.0585920964743865,0.0365027251451645,0.188328251153433,-0.0735660634683521,0.051180707114712,0.157766025086137,0.0666397568072651,0.429773781466445,0.0110295853147182,0.0922134173029054,-0.0212686354641266,0.137940805694696,-0.078315945127179,-0.0053916929283777,0.0839657748458478,0.207240414531671,-0.121669775817165,0.0137376696805474,-0.0411435567044423,0.27908555380447,0.235725431130455,0.0590051334068847,-0.037505662657499,-0.00291648152499744,0.216793441491607,0.0554063628940014,0.223062264585972,0.0543142346420361,0.00738741842633873,0.0279602665639921,0.140599066683015,0.106268378029209,-0.11557563612831,-0.0154415410867548,0.047123933521185,0.00889339240374688,0.115272516283419,0.0143821967785302,0.104947291276984,0.0182688107477826,-0.0228900247744028,-0.0677380046575687,0.332959344536487,-0.100477039765081,0.0138599676561977,0.0599583633910547,0.024044482992074,0.276761881171509,0.924441187481373,0.0017406681010908,0.0794885001988487,0.0405110032577383,-0.0611156700230703,-0.0345825690744759,0.175143953995242,0.0040916119135384,0.673386236369498,0.138731587503894,0.201350696603223,0.0828157739941234,0.0887462475132605,0.0348154379640867,0.183206112534956,0.0435591239100295,0.150671088013927,-0.00831933768417457,0.951011633671489,0.799745624655267,0.132771280276505,0.0792653376327046,-0.119019410622459,0.368949992197958,0.199688638692164,0.06517223071984,0.140227420014565,0.0799330735387674,0.100159333606297,0.0145771508629823,-0.0269205098360811,0.125601064159577,0.148251369449891,0.175627861198461,0.757579277331933,0.0422753543059372,0.147996328404068,0.0244760370558789,0.190050806275655,0.21233128876035,-0.083802535247038,-0.0499213324260094,0.168994518869919,0.157941542403879,-0.228756062337476,0.851053646080238,-0.0225023850558283,-0.0602564396390142,0.261009123640741,0.117592454928382,0.0220893581705796,0.166785328621102,1.11107169082519,-0.0186681548168604,0.13987956785133,0.0841384216980142,-0.0841934454299605,0.0964305995041256,0.179440781235451,-0.0190616713092642,-0.0721161659370147,0.46784395866514,-0.0353744213321056,-0.0393401045095718,0.179277339472035,0.155640553031608,0.0382258851348308,0.0894309208172157,0.123051855036112,0.0329624958173026,0.909879560745215,0.0831057719890256,0.0404820211751149,0.339765385431149,0.115884302427858,-0.00332289763845155,1.08865814411347,0.648139446507719,0.0448599501062136,0.015082283651134,-0.0195391535520808,-0.182069235876027,0.0353640717812317,0.120609424433385,0.0288451843636534,-0.0662356960111911,0.00938746706789904,-0.00870135056743807,0.0672432011017532,0.151582795295473,0.0309188641954013,0.502296449172277,0.0228894996382904,0.0590790571297964,0.00922086929030961,1.05860951580237,-0.0735100295022887,0.195876319231522,0.109984541656436
0.0352070693133273,0.146440545822115,0.485865983139705,0.0255008045407148,0.0649421058196519,0.030204257767455,0.103471858551899,0.149589066953382,-0.013557852241829,0.0110964057213594,0.211505085880409,0.00413596297453759,0.168869567512787,0.869992339305646,-0.082968758521014,-0.0849860535767233,0.0955777159937099,0.0453969384959571,0.0348771313689223,-0.0650379894843933,-0.0576874704302171,0.0698836778757484,0.00207190601037584,0.892312016599851,0.241675156993487,0.539561957757497,0.634187457768318,0.091926846888015,0.108549518292622,0.105462124227019,0.0843156854767256,0.14382448526717,-0.0617116241069102,-0.0545074393208631,-0.0973056933900807,0.172503042294139,-0.25321854169504,0.158916447217804,0.141843816026011,0.0681494590879272,0.275429480209815,-0.0234391001397029,0.0396036829596849,0.189842475185451,-0.0883954233377813,0.177773490503236,0.111241671895768,-0.0700854026344297,0.034275971714674,0.109266998355551,-0.0729758331623047,0.0714875711877467,0.225531408443707,-0.0607049546853649,0.0774813516891087,0.189711050470927,0.0314809786488976,0.438835672304773,0.0413986145429042,0.139139772488645,-0.0237424995428739,0.175819759723723,-0.0301716456323325,0.0339139191022916,0.112303056700551,0.249926012379482,-0.0868190998862299,0.0864066387817914,0.0141887082171248,0.26566502776073,0.298338486537723,0.0628210422786326,-0.0212914605285912,0.0176789857897621,0.243515692267901,0.0707859774782129,0.242794947679046,0.031329726968972,0.0305836885242217,0.0480621889390264,0.183399043698918,0.142968225470913,-0.10107997419014,0.0427692026198747,0.0751475410169943,0.0298648458442041,0.152612393870101,0.0281155669096179,0.145481063872931,0.0219056098124499,-0.0438629366308013,-0.0566755292093222,0.377364714251932,-0.0651713010976619,0.0276671604930264,0.0610856856818165,0.0101706961788539,0.3080873755171,0.942420911816006,-0.0167894752561547,0.0771223503717016,0.048930592891182,-0.0271971759431709,-0.0365027626216981,0.201769722028036,0.0340333833111779,0.68232277936614,0.18706404129174,0.228898023794395,0.0880088051221446,0.10536033255032,0.0269816260166326,0.23537664616619,0.0580224405082021,0.2164259443011,-0.0172014168207996,0.938649410692323,0.818558384834128,0.146810047012093,0.0882596543355384,-0.121132779122849,0.36902464771098,0.238823974907322,0.108122423894065,0.165524138218268,0.0848586048800953,0.128133611232955,0.0241599893812975,0.00555263600403382,0.123832822123926,0.203750131038469,0.186666806558521,0.770823025388481,0.0879792283150411,0.151255374905745,0.0328094379965795,0.190761195515264,0.234790709975344,-0.0452076671540503,-0.00458488011199591,0.195363999060608,0.155234404602968,-0.256625631212032,0.860755893915328,-0.0101981552028019,-0.0200894388100765,0.290388967648714,0.142876650531587,0.0526293849496976,0.14731202394823,1.10570823763346,-0.0263396537939154,0.160853043240481,0.0918890626191507,-0.109378525537099,0.113256961594141,0.181550520858191,-0.0259338550436357,-0.0457857858019007,0.50285400221087,-0.0294780806402156,-0.0476761041638624,0.210384050538451,0.137700603507653,0.0543677802851149,0.100046938957658,0.143802594779554,0.0491460198854908,0.906078107232207,0.142253605052846,0.0567485695313443,0.32867289006814,0.136408495735522,0.00273332545046271,1.08608325319422,0.643429114110401,0.0810612304723504,0.0375955995733587,-0.00897435706943789,-0.155850929379614,0.0607393293016404,0.150295273819138,0.0668134139974122,-0.0423467331017067,0.0326424922694713,-0.00564148637339192,0.0944106954775921,0.201567664298288,0.0529830162776785,0.539974589767043,0.0406656034602945,0.0564912501400068,0.0334434145987049,1.05831251843061,-0.0265525338348822,0.205352495933657,0.160597283155368
0.0502009965690575,0.190543524268872,0.483649129384258,0.0532159188283125,0.0584829780768464,0.035491256155278,0.140081794763807,0.186394727989675,0.0118237728005004,0.0450812935502867,0.236335092602072,0.010485604448503,0.160081585012702,0.878431920741344,-0.0572169229262324,-0.0849972279333934,0.0796644926154555,0.0442373122580949,0.030267498663664,-0.0874539490005163,-0.0637926782716793,0.0949673567436942,0.017697047606914,0.893610142132494,0.29772107374199,0.565869560789697,0.656981107554652,0.139656178225186,0.151271306357789,0.090160633582022,0.0898011789102142,0.173281977439947,-0.0402356418440758,-0.0636972912120141,-0.0773945371418071,0.224202503151224,-0.256729568957766,0.182974178337123,0.130364556042624,0.0646251916099883,0.292094420066505,-0.0025035472208191,0.0640233096235715,0.24659755134842,-0.0619332348786177,0.198894736783853,0.126310544920856,-0.0363251405910577,0.0798091874936425,0.113840018227334,-0.0868273138194643,0.106909662234638,0.262177960932071,-0.0471069828895453,0.103717152408088,0.221578582902113,-0.00344765992990641,0.448317267853439,0.0711405034095731,0.185332576183387,-0.0266615667578687,0.213870154991186,0.0188550374504916,0.0728385145995122,0.140029283223885,0.292412457194266,-0.0513622242843305,0.159727713934985,0.0703237030868105,0.251864995355664,0.359891160385553,0.0669544869709498,-0.0049165765939022,0.039023432937516,0.269592106436598,0.086217092014011,0.262292148883438,0.00729430380661668,0.0535529672638195,0.0681388822271915,0.226471089660499,0.179368432898672,-0.0860525078733308,0.101253961400058,0.102796461605498,0.0507282912434231,0.190546832959681,0.0424388006114031,0.185376055131386,0.0248861841526178,-0.064210354790208,-0.0451293729800411,0.420654923524432,-0.0300944807919274,0.042246881129644,0.0616059268503685,-0.0038418401259772,0.338069520340135,0.959823631395898,-0.0356745250973826,0.0747319524974071,0.0567083153854462,0.00778511274043647,-0.0381427386521675,0.227721841495244,0.0631583859075349,0.691766304858604,0.23569636463722,0.256567019803587,0.0932772330702844,0.120952090560291,0.0185632158278541,0.288247734610282,0.0717858345095214,0.281362567229596,-0.026068085689287,0.926026758365447,0.837413751186032,0.161547290431235,0.0981328213976145,-0.122161846168084,0.368221929833411,0.277137903293978,0.151127685518484,0.189327787571873,0.089181076227579,0.154897434885566,0.0351167247923556,0.03839778185703,0.122336520637176,0.25924835687285,0.197473410873631,0.784318993371993,0.133967415833588,0.155653102087241,0.0408355491810977,0.190961549270752,0.256100968984505,-0.0063654464076424,0.0417743184468672,0.2206944971297,0.150215332992264,-0.281231606666886,0.870079275607306,0.00210350767599287,0.0202045118841068,0.320477186136634,0.167865838388374,0.0840034729006681,0.126612320374652,1.09974235845751,-0.0340471693793485,0.181911349483393,0.0995252818686713,-0.132656167547724,0.129673239742138,0.183589047109487,-0.0321731137609702,-0.0188508323502107,0.538622934371032,-0.024165121564096,-0.0564485313549,0.240071275028666,0.120062605228406,0.0701553734392052,0.110763084227571,0.163577645379857,0.066157974615432,0.90212850468982,0.200456392831825,0.0719479546618898,0.316890219852331,0.157376862306295,0.00875328151863986,1.08367266894879,0.637993215975557,0.117242519848722,0.0595674880440773,0.00206308156220218,-0.128831247816263,0.0848931010166302,0.179539491995166,0.104198073693993,-0.0183894365421058,0.0555782963255824,-0.00241181922134605,0.122486954155359,0.252152010764239,0.0756368941959977,0.577851635182,0.0589236946817681,0.0540447406063217,0.0574107706244871,1.05765071618584,0.0206911380790216,0.214470196016897,0.210925801345081
0.0649720768322135,0.234496385376515,0.480888493444405,0.0816619187857598,0.052178449358324,0.0407978830883128,0.177037037554586,0.223091439890257,0.037916080689835,0.078847741689698,0.26043211728905,0.0161679930897073,0.151450346196244,0.887185974871748,-0.0306819553609044,-0.0850716127324463,0.0622977825687722,0.0422043771458754,0.0261076545659479,-0.111147184363109,-0.0696623395155437,0.120460162617615,0.0341080274463383,0.894890664386129,0.354736988806992,0.59115365777542,0.679846833932679,0.187517077905562,0.19534761586194,0.0743148112710645,0.0949093941023025,0.20152957152884,-0.0190214422393229,-0.0728538618837637,-0.0576018300906299,0.276127375316375,-0.260257215063959,0.207378714431977,0.118230982528734,0.0601141352819934,0.305656256536869,0.018288195548883,0.0881531425633967,0.303634672860905,-0.0356998888240235,0.219804960699628,0.140734367331003,-0.00158686812976614,0.125599820809986,0.117483869703148,-0.100160951806792,0.142656726296931,0.298348328740894,-0.032746694424323,0.129978533791748,0.253447788083027,-0.0381542715351147,0.458249665002206,0.100319549444137,0.231016919435594,-0.029851851325116,0.252087907860771,0.0688778041958817,0.111428038783798,0.167094806708943,0.334798862456704,-0.0153940577256183,0.233621483519142,0.127255886325479,0.237884858802857,0.420582895815863,0.0715161047845055,0.0115907146454566,0.0610500754283348,0.295080455173744,0.101776830055113,0.281537039220404,-0.0177338317872183,0.0762989523693158,0.0882876843859958,0.269953778768547,0.215431806740554,-0.0706444496560523,0.160030280529245,0.130141750932644,0.0714935055169344,0.229019406716278,0.0571859126196134,0.224710089419312,0.0271970234042309,-0.0840772841138132,-0.0330195624007869,0.462719291664225,0.004723495165176,0.0576055865118568,0.0616413743787235,-0.0179892390886121,0.366769803451246,0.976670772529561,-0.0548574241751876,0.0723741930035387,0.0641027145680141,0.0438475348457558,-0.0395650944616747,0.253020065850498,0.0914268918177733,0.701815069427192,0.284542469124669,0.284401733241334,0.0985862524855671,0.13554302559543,0.00958639471223318,0.341666859770003,0.0849581996123519,0.345569312350901,-0.0349282852095678,0.913230840100457,0.856355546590756,0.176964774534875,0.108871690042374,-0.12219304975095,0.366685103029519,0.314665511421143,0.194221384265553,0.211761243413808,0.0930715413781522,0.18056823880799,0.047188469685427,0.0715125864889927,0.121162439945727,0.314805597148706,0.207980023187647,0.798249279602586,0.180164936631278,0.161153279177161,0.0486253020671439,0.190753922168504,0.276365333294269,0.0327271990927588,0.0889675597934094,0.245044833216355,0.143001446058299,-0.302938016394395,0.879108004672761,0.0144600256853758,0.0606125975943768,0.351273380953926,0.192506235422467,0.116046850711979,0.104932183636006,1.09331889004542,-0.0417775036392489,0.203102745649356,0.107098089667166,-0.15417846790746,0.145638307341504,0.185573681733275,-0.0377199222758026,0.00869170149055487,0.575067094414895,-0.0194433975272718,-0.06565499718412,0.268498853502998,0.102671148993807,0.0855839387961788,0.121548993929367,0.182364936273557,0.0840015074817778,0.898091630159663,0.257801077226372,0.0862580790244683,0.304546124228456,0.178716040621282,0.0146873543577003,1.08150906835817,0.631937153519472,0.153507521186622,0.0810686814821687,0.013439184106537,-0.101129911651291,0.107979759696461,0.208452014339904,0.141135018243847,0.00571290894263581,0.0781884806499125,0.000871374702986054,0.151361252783841,0.303291600791295,0.0987981157300293,0.616086050106616,0.0775948334070883,0.0515938869403198,0.0811958937357045,1.05668999730521,0.0681928419075367,0.223257349723344,0.261072820407056
0.0795523279825804,0.278479815635878,0.477734587773346,0.110804152571178,0.0460278805114835,0.0461667078319965,0.214328378266562,0.259603698253439,0.0646587608735446,0.112528530990235,0.283867217292497,0.0212813084420108,0.143107142499467,0.896357234119523,-0.00364234714644698,-0.0851834890187008,0.0436427130354574,0.0395215816135547,0.0224610273360108,-0.135942147305076,-0.0752626404045781,0.146409846859842,0.0511181692651598,0.896259282086256,0.412572641688141,0.61571673082304,0.702779595425077,0.235411221328291,0.240644252841282,0.0579647359943275,0.0996042378198942,0.228711940060031,0.00187640289206114,-0.0820272634431365,-0.0378862780852395,0.328302776008864,-0.263895887248576,0.23201618381383,0.105608646306799,0.0547413137118943,0.316665035774438,0.0390634249162614,0.112013822157102,0.361088473815436,-0.00973363907500772,0.240531658315441,0.154542614799088,0.0340171909261657,0.171583004879154,0.120313507160582,-0.113044217086574,0.178623612982347,0.334092753563169,-0.0176507260054456,0.156375922630871,0.28543098784221,-0.0726995139787748,0.468676464929345,0.129001401761126,0.276364560893781,-0.0331216775509938,0.290478612392981,0.119941968066899,0.149742654591819,0.193470278268181,0.377179523294193,0.0209786189772372,0.307993940518116,0.184949582727334,0.223941587652049,0.480605716900424,0.0765514093360157,0.0281783207916703,0.0836753703918993,0.320073758314127,0.117546168630723,0.300533558495117,-0.0436536690543622,0.0988091874127499,0.108523724817686,0.313974363240986,0.251088748067421,-0.0550657061145182,0.219082317885431,0.157263821255764,0.0921840697955276,0.267948941567105,0.0722232494026081,0.263606395361805,0.0288530710043969,-0.103584587798517,-0.0203145403429303,0.503577014176165,0.0392725882593744,0.0737457585168044,0.061273479140378,-0.0322468850616381,0.394272725749658,0.993000982101477,-0.074302086448296,0.0700662400194458,0.071361301182135,0.0809598879846663,-0.0407608289992444,0.277709286568446,0.118842193898336,0.712503240920801,0.33353272991827,0.31242104836651,0.103936652923529,0.149199480713827,9.98126302691355e-05,0.395491872609595,0.0976644791284108,0.409142678085402,-0.0437902597481289,0.900370348111403,0.875362418177535,0.19303273247478,0.120425743252358,-0.121294353206919,0.364595630311556,0.351508539139991,0.237391552428259,0.233019404028952,0.0967650434469625,0.205322056373019,0.0600880058510052,0.104849318634802,0.120312461860905,0.370506624180035,0.218155650210934,0.812711303013179,0.226525909407939,0.167687776708051,0.0562390276906416,0.190176851046711,0.295727117353037,0.0720876054337935,0.136830588113378,0.26856850476584,0.13384062471819,-0.322222437657348,0.887876934949646,0.0269002143471607,0.10112308168972,0.382715665470288,0.216760556905105,0.148586500594931,0.0825098178238982,1.08656105948854,-0.0495331174354578,0.224462514734083,0.114662479668471,-0.174154747087068,0.161114138178517,0.187544974054092,-0.0425225635525194,0.036832985666916,0.612014222493704,-0.0152546969693747,-0.0751991336856381,0.29588074432668,0.0854782427045311,0.100678551298881,0.132397561237685,0.200211747648132,0.102646437129093,0.894035299136829,0.3144407816699,0.0999321709263466,0.291783716585497,0.2002788198715,0.0204655793697869,1.07964491421472,0.625391136212955,0.189902982835443,0.102253506389557,0.0250204648362354,-0.072895774757058,0.130188387976882,0.237138050770942,0.177813002790437,0.030069638682174,0.100511542108713,0.00406486155701349,0.18088273244146,0.354869341961896,0.122391405017858,0.654763194082061,0.0965681479729002,0.0490378574143095,0.104886945729359,1.05551066883011,0.115907888717863,0.23180569447477,0.311183326940139
0.0939583719068122,0.322601706266541,0.474305685904837,0.140512785782175,0.0400219631961678,0.0516169060987304,0.251901331052807,0.29589799134625,0.0919551257974334,0.146203626869046,0.306803200640755,0.0259766386817823,0.135046249916525,0.905958509605569,0.0235922927461606,-0.0852835547362778,0.0239254760512255,0.036443008378684,0.019285658610883,-0.161607183255325,-0.0805959560764597,0.172805646205442,0.0685317691851269,0.897794124889972,0.471048532403671,0.639825415621171,0.72573984873811,0.283302225034987,0.286999491520238,0.0411618067604419,0.103835435401613,0.255015542730881,0.022426309157996,-0.0912659500394244,-0.0182072386086797,0.380718691494024,-0.267717914010122,0.256739282431895,0.0926594682964654,0.0486426738295773,0.325705306293398,0.0599112722686208,0.135656183530849,0.419093819863401,0.015963264152669,0.261136804370204,0.167791493024521,0.0703465670943197,0.217715693209968,0.122453580468124,-0.125593121427516,0.214763645775426,0.369447055418955,-0.00191304745141936,0.183009363175257,0.317623416917835,-0.107137357691871,0.479598202018542,0.157241021608361,0.321482707572606,-0.0363021331592628,0.329040680164671,0.172006493018951,0.187853298401683,0.21919376814729,0.41965090788498,0.0576640436075093,0.382741403136689,0.243340054536816,0.210204924523107,0.540134745260583,0.0820474011003115,0.0448275535876111,0.106796069960025,0.344668280108073,0.133580368779154,0.319307419586915,-0.0703291989768479,0.121102752499908,0.128782677942868,0.358592101846907,0.28627194119494,-0.0395227114203531,0.278334954863044,0.184241539207297,0.112830763326107,0.307183280291692,0.0874306160054905,0.302204963867622,0.0299202651773158,-0.12281652790139,-0.00698823374780169,0.54335606693521,0.0735742015649844,0.0906583728620174,0.0605757042534325,-0.0466042634066745,0.420717775664294,1.00889401198792,-0.0939932135004231,0.0677994012074977,0.0786250540448524,0.119045559359364,-0.0416878019529386,0.301841438722268,0.145431061945793,0.723751812795063,0.382618653439397,0.340598465838144,0.109341461427966,0.162022820562138,-0.00980119751163842,0.449592034638522,0.110029108852818,0.472191718486674,-0.0526600292287449,0.887539246065509,0.894352574786317,0.209769119465815,0.132674281397975,-0.119520481306873,0.362090017566552,0.38779799583105,0.280583556779726,0.253353699310701,0.100482371616786,0.229422588138957,0.0735520497558532,0.138391185548162,0.119730783718957,0.426414305795446,0.228026324330728,0.827674408579611,0.27302943706361,0.175126526332445,0.0636953725538514,0.189239533121183,0.314341794461257,0.111720466565193,0.185241647678492,0.29147567324334,0.12307351403262,-0.339628094853487,0.896396424469086,0.0393867186842332,0.141725866047279,0.414680067601713,0.240657425565957,0.181459827233102,0.0595516111770909,1.07951823432276,-0.0573311455263434,0.245925389703592,0.122222448551342,-0.192878481191502,0.176088304147079,0.189569869851636,-0.046607976387067,0.0655253596000535,0.649230070217857,-0.0114606212252822,-0.0849141826723154,0.322448197257304,0.0684225257160308,0.115499875227409,0.14329793106062,0.217213517163103,0.122044853512728,0.889996129845716,0.370564572097437,0.113191532997856,0.278728946211753,0.221891971358643,0.0260307956071676,1.07808237608689,0.618489790992765,0.226434251414503,0.123278814720147,0.036721334697009,-0.0442725517711363,0.151718578447742,0.265699663600764,0.214459111379088,0.0547774179535196,0.122614299447956,0.00703919708377074,0.210897834287493,0.406765417724559,0.146330592738617,0.693887731855543,0.115697495846456,0.0463539450941503,0.128526491403016,1.05419351133111,0.163772100503452,0.240251479336194,0.361376874484884
0.108197735305229,0.366876847905773,0.470624937794618,0.170654790865106,0.0341385061007716,0.0571206833536861,0.289702802373453,0.331987623541467,0.119693134719525,0.179878167375947,0.329427287389673,0.0304404655843031,0.12714534797718,0.915940097639243,0.0507456647919973,-0.0853042381236821,0.00340290138655231,0.0332018366153815,0.0164390688764062,-0.187916004157089,-0.0856843793628995,0.199586344120289,0.086173297401696,0.899546578273818,0.529959015211153,0.663653961480152,0.748719761036796,0.331194709170745,0.334258601869798,0.0239823188981319,0.107596938696917,0.280653597253504,0.0426249311275007,-0.100610597974143,0.00148275159660549,0.433339633232758,-0.271775860939661,0.281413087697877,0.0795036337245685,0.0419548889111825,0.333354940127998,0.0808881558087792,0.15917070134178,0.477747272160174,0.0414116594126546,0.281721426179718,0.180556625671397,0.107228999079342,0.263978052422105,0.124008334941093,-0.137942031599206,0.251109452972471,0.404439114591607,0.0143479989823094,0.209931570832355,0.350046494844783,-0.141478496959125,0.490955598085543,0.185088460859395,0.36642922711237,-0.0392512915073254,0.367774172034137,0.224929396948797,0.225829695182547,0.244382072948327,0.462298198011132,0.094595509338318,0.457758626765473,0.302367093235173,0.196744121706318,0.59933559073378,0.0879433892857166,0.0615774914692439,0.130299600686689,0.368963359313611,0.14987998268815,0.337882458400817,-0.0976018956838195,0.143253238657719,0.148963703091584,0.403759953716879,0.320954061837139,-0.0241515152920103,0.337678064034311,0.21111691187983,0.133442532700875,0.346542427360821,0.102707428101917,0.340620965415321,0.0305014427717621,-0.141842989189891,0.00699592713470951,0.582242983571117,0.107678327436528,0.108287115857628,0.0596386407088225,-0.0610670706157867,0.44629229756807,1.02450264294616,-0.113921518175359,0.0655857184361936,0.0859176109940796,0.157969915612547,-0.0423451761527477,0.325483074791694,0.171264197066233,0.735420893543666,0.431745167595234,0.368873896096869,0.114812061838528,0.1741557010102,-0.0199877368135304,0.50385626628622,0.122164344940967,0.534830064086354,-0.0615580430387324,0.874811315765767,0.913242004937028,0.227204403593931,0.145454171652857,-0.116953301336945,0.359242333206115,0.423646714189182,0.323728696787724,0.273007171138302,0.104345037907299,0.253144839880348,0.0874058313004087,0.17211671291875,0.119360439858845,0.482529560837441,0.237669910538717,0.843050119826749,0.319665645983402,0.183286103843824,0.0709760778211116,0.187978025953046,0.332357177524008,0.151602093952479,0.234110472780475,0.313967579858835,0.111073297514745,-0.355697501741178,0.904709862552883,0.0518465298548012,0.182429113807077,0.446999290212311,0.26427586813325,0.214537011384471,0.0362272927330713,1.07219385008109,-0.0651610837247957,0.267372592518273,0.129736817359827,-0.210684682157322,0.190591890339826,0.191703136592398,-0.0500842681676152,0.0946798658611429,0.686502760594774,-0.00789274860989216,-0.0946264917080725,0.348387655121867,0.051429825162927,0.130126926609469,0.15422675545038,0.23351686736392,0.142147321401734,0.885982347376112,0.426359284176404,0.126186381802605,0.265452014343967,0.243434848176678,0.0313710194182616,1.07679267541851,0.611376330533926,0.263092478219223,0.144270253568827,0.0485014263292181,-0.0153810623905385,0.172747116399192,0.294228882988251,0.251274728181152,0.079906171837359,0.14455536546642,0.00973003382116949,0.241280184853513,0.458927138394507,0.170534255509978,0.733432465501081,0.134855301511934,0.04359733981126,0.152105226204772,1.05281101042033,0.211706346023356,0.248748824489871,0.411690534745284
