-0.330018332950562,-0.738231478894694,0.397055095232762,-0.413713241410721,-0.0548205188700387,0.203444061122957,-0.371275599893933,-0.573490905342409,-0.409586000321352,-0.362751254291799,-0.482680067132134,-0.299152386811581,0.290811722818007,0.267466950404884,-0.212136491073372,-0.314827093376933,-0.224506988982925,-0.159693373791203,-0.0135122382236484,-0.241541409414586,0.114588634947645,-0.526746280149333,0.0235216771844431,0.414097497860593,-0.486002864654743,-0.414997643054692,-0.0606282956613997,-0.5285998257613,-0.419010360213648,0.213318768240701,-0.18368532329738,-0.872102721427648,-0.0900225182115853,0.390005950259127,-0.417184053251665,-0.605268305559528,-0.0661863740490332,0.0537527236874712,0.235561002116633,-0.180244034785384,-1.1346154404503,-0.49030839055523,-0.671766963310061,-0.758916035140991,-0.287918016646772,-0.569509862879427,-0.517116929252453,-0.184088986063506,-0.49632218092513,-0.221676559593073,0.322033212542941,-0.713849998377461,-0.855777265081279,-0.20890611033292,-0.449072233653896,-0.416396831674647,0.447746691050243,0.0862305417601931,-0.733435221180032,-0.776939599257349,-0.019767040662024,-0.484016166462529,-1.0921649420981,-1.08221442203015,-0.374698994336847,-0.63818430673866,-0.451711582866071,-1.28388064004768,-0.786146643829837,0.153994961132378,-1.26144149225354,-0.23955442895711,-0.196625462661324,0.0363006305691037,-0.698398429229398,0.0178107390614922,-0.333286662635105,0.208547074659894,-0.573900356633461,-0.212784420619639,-0.774173447135031,-0.575534328182187,-0.236430771953187,-0.862523213636833,-0.209882201304941,-0.453905728731003,-0.445865596352732,-0.404492970382215,-0.65208395183036,-0.351734186904593,0.27325002113162,-0.664197364204934,-0.837192441972341,-0.444026003549806,-0.225753328506285,-0.301173142453911,0.232186376873225,-0.925912917208568,-0.142724988354651,0.201825416074268,-0.114263379948933,-0.3173389481283,-0.669420940574809,0.0636079527182631,-0.520605152119292,-0.592905990924251,0.238905880254586,-0.621173441530906,-0.591307844819583,0.374294471209677,-0.61798177664428,0.0861828242011954,-0.666470367897552,-0.0734356067665784,-1.50858773350029,-0.104251611160979,0.717497320464688,0.117343244318529,-0.250788484797847,-0.0347840680498205,0.199535042326315,0.105784317815289,-0.520535060364614,-0.556445529982706,-0.833545575379534,-0.246849659152028,-1.00469660623632,0.384907771458385,-0.391772147080838,-0.378760899658402,-0.996354410359089,-0.242338519044458,0.195267583309845,-1.09850738372871,0.430181710261217,-0.211560237014899,0.0236307362203804,-0.488272023664385,-0.736241173907947,-0.502034891355568,-0.710559021907785,-0.463343339061286,0.801586081387625,0.227087795229822,0.149853300672472,-0.622060220552176,-0.13506190923947,-0.466958132321739,-0.0538314128523984,0.220895673115871,0.499519742084998,0.0340014937528732,-0.24213930933311,0.342249289446147,0.726581172981832,-0.428059156804509,0.174756804059515,0.320593639376622,-0.361027219812395,-0.387426229064829,-0.250648801971069,-0.101084746047481,-0.893921748990857,0.623948151822325,-0.386955210553829,0.00852055686599782,-0.385665346956472,-0.309236522364718,0.552682093434611,-1.29785189710264,-0.410100361367695,0.504432471150692,-0.271489510018547,-0.0441871464246433,0.655368124082976,0.306958482953096,-0.641046965038957,-0.333158465449633,-0.0446929326866701,-0.331037505499364,-0.653187835886541,-0.671839276402905,-0.930013231911615,-0.351462502676737,-0.402201399037305,-0.0136323385786133,-0.248457382696796,-0.749372343062733,0.0623882693874836,-0.499072040417325,-0.0389565401263919,0.0195576108549516,-0.397951174561424,0.579393646835428,-0.566856759072792,-0.0158019776101551,-1.05014167726663
-0.314204356757056,-0.699003603810828,0.36949088163455,-0.403273549642552,-0.0518058187612923,0.211778020965088,-0.349520088661063,-0.560844986141833,-0.384126572169357,-0.310542065206157,-0.451686769745396,-0.30025374680302,0.284764046065203,0.267333057900461,-0.199657348286978,-0.32351699428887,-0.243913234555853,-0.164015336781818,-0.0390863067240006,-0.255503883233483,0.111126057615389,-0.518260736673976,0.0307078195186513,0.396112301009808,-0.465264300602515,-0.384609863055858,-0.0527943857959056,-0.504979464306067,-0.391417051633701,0.191730647994177,-0.176755636691798,-0.839289500870623,-0.0721466130884345,0.365148019725981,-0.411047104108529,-0.558969333908017,-0.0733820475588715,0.0853695709426782,0.218315945230157,-0.154680953018965,-1.05648190613185,-0.46698606576976,-0.657265506053091,-0.72267999136257,-0.266285777513208,-0.560576622026218,-0.505900638799879,-0.166038164173525,-0.460788694761266,-0.194965220335265,0.292408104730254,-0.681988631838619,-0.814014753076685,-0.202432993942135,-0.432887361317215,-0.394245030781136,0.429224880729877,0.0753221967937247,-0.683240228018565,-0.702918057612315,-0.0343253119401549,-0.474380117214774,-1.04757463843311,-1.04088886583152,-0.359501020609955,-0.60111614871331,-0.433252285149857,-1.21007235962234,-0.740571053662953,0.138039823986525,-1.18835850431641,-0.239089208014386,-0.192253672119418,0.0496095236040223,-0.671592389663324,0.04391376139124,-0.324579072154739,0.180558351901786,-0.554923483740864,-0.205752028695035,-0.747084316050842,-0.531772519568544,-0.215375483603068,-0.793852113033618,-0.1939335605092,-0.438377176279378,-0.423501608673114,-0.38655938249651,-0.60098073796559,-0.344164498490724,0.239086901749847,-0.648495328439658,-0.798538912388463,-0.418990938786536,-0.202511217557076,-0.305967012954679,0.217834327629425,-0.888753731010282,-0.135462915062816,0.175806897334805,-0.105246146418438,-0.30421830087533,-0.635663559528306,0.0604892234271923,-0.494705324856847,-0.564605838542056,0.238130251823715,-0.581787419089247,-0.55612232055711,0.387485090594381,-0.60221157593815,0.076436395819042,-0.654887949967108,-0.0526774695803057,-1.43961340583293,-0.10126228989194,0.691285902547637,0.124862724144596,-0.258912532059941,-0.0293397723886875,0.173575828905492,0.124623461204062,-0.484601915213781,-0.523532551178387,-0.810192962859299,-0.231864322495674,-0.983110494253834,0.37535141581836,-0.372784145049226,-0.391548997895102,-0.956082864084757,-0.251918424744332,0.200060864620612,-1.06372584662077,0.401075833611068,-0.213914888992406,0.0158687083057253,-0.473016388376628,-0.710012815275885,-0.47632784709246,-0.710760176327865,-0.453322722816014,0.761297219301048,0.219143722965006,0.169557923404772,-0.589661771774516,-0.100535941743405,-0.446408242611372,-0.0340847121919396,0.230306572336098,0.476013520063988,0.00102360475855825,-0.223280662373885,0.360310095237796,0.693399853372171,-0.410178905156873,0.166596426366718,0.315170500206791,-0.34580322917391,-0.362466340984951,-0.26117981211328,-0.12160402243123,-0.872314272109435,0.593040204675144,-0.384068071298627,0.0011860416280811,-0.379873238303668,-0.284858182987141,0.531541867996954,-1.24473514475631,-0.392779922404937,0.508892848425599,-0.264749098624007,-0.0381200390331537,0.632446825377783,0.291863341773874,-0.600559777166508,-0.311130081873587,-0.0477384190101662,-0.301137484042982,-0.635516355861757,-0.640812099396479,-0.900866452944001,-0.334027726430062,-0.393020921023013,0.00501499615602715,-0.232782539206142,-0.711094899967924,0.062024786299114,-0.462339394099619,-0.0311517398974764,0.0149143767785118,-0.380728111786566,0.557627660489098,-0.529752665368067,-0.0340670060854395,-0.999718753341152
-0.298312315976496,-0.65984792944404,0.342094930880941,-0.39273716321667,-0.0488550457702428,0.220161722283727,-0.327608935672757,-0.54819250294888,-0.358605190103718,-0.258380832026689,-0.420834246300636,-0.301392758511192,0.278686375368848,0.267224535596661,-0.187188767354148,-0.332184586311398,-0.263359572054356,-0.168200565850523,-0.0646308799245799,-0.269538016559902,0.107582161813525,-0.50981121704605,0.0378790130421708,0.378109613963363,-0.444395247248749,-0.354147388182731,-0.044926261487463,-0.481283110824671,-0.363711663931792,0.170253640628351,-0.169768534460231,-0.806554677440356,-0.0542494545256763,0.340265623647275,-0.404929618966677,-0.512565334597098,-0.0805311357045572,0.116925707599508,0.20120378330631,-0.129221270069335,-0.978310250439577,-0.443812282357337,-0.642809109142249,-0.686389870367163,-0.244699612047839,-0.551522235033176,-0.494610661883345,-0.147962142336415,-0.425225178511837,-0.168405554749204,0.262883853857645,-0.650150746972991,-0.772182640944537,-0.195910494659201,-0.41677844502034,-0.372051102105833,0.41068750637898,0.0643094890599748,-0.633111980154097,-0.628878644489496,-0.0489375974515131,-0.464755973516456,-1.00298678283859,-0.999622111110848,-0.344135785519498,-0.564044897045617,-0.414735348303834,-1.13628503978252,-0.695072787427287,0.122018194666935,-1.11525214211131,-0.238656753478183,-0.187913362236785,0.0628334244330577,-0.644664448315097,0.070007127890468,-0.315874233869646,0.152489733465602,-0.535994146108855,-0.198657499176097,-0.720001330194356,-0.488099013120521,-0.194355099782124,-0.725112814153955,-0.17790617441464,-0.422771471059133,-0.401229263071825,-0.368611936940233,-0.549869683346912,-0.336653477765638,0.204864821286845,-0.632812143695495,-0.759859902357077,-0.393853533936463,-0.179406152517003,-0.310765779091696,0.203463062708939,-0.851781887811616,-0.128251058080835,0.149764493405652,-0.0962918780249764,-0.291058447554467,-0.601903791282333,0.0575121403530367,-0.468773832614241,-0.536331586452859,0.237381197820442,-0.542512337086649,-0.521058292403454,0.400624445314129,-0.586442935745468,0.0666615904462289,-0.643269987508376,-0.0320196733167003,-1.37063561079172,-0.0982252391686688,0.665120449239151,0.132464117168473,-0.26702822573793,-0.0238838664307748,0.147689727532056,0.143293571532119,-0.44843967803644,-0.490483972758781,-0.786918999800318,-0.216853499243443,-0.961573349581563,0.365738582748988,-0.353743315553687,-0.404352668158183,-0.915769911601731,-0.261604446643618,0.204871225183065,-1.02897580669685,0.371884297044453,-0.21622277678283,0.00809432301579651,-0.457723291565479,-0.683765269138026,-0.450585754418104,-0.710795032727072,-0.443499372289428,0.720788145676937,0.211168616332698,0.189208514417626,-0.557227551604252,-0.0660160939485706,-0.425877556430227,-0.014338819864819,0.239677117622781,0.452664041378122,-0.0319917576909416,-0.204400772478447,0.378386029772026,0.66012031597269,-0.392337166587704,0.158445558350407,0.309775654926184,-0.330578117400364,-0.33751434223077,-0.271758824400111,-0.142186474660169,-0.850647553346699,0.562205375579274,-0.381259135603522,-0.00604825418921852,-0.373993522995937,-0.260421250804011,0.510373497556207,-1.19157326644779,-0.375491878968457,0.513262693423049,-0.257989194229319,-0.0321599580624201,0.609572263411023,0.276828445381645,-0.560187117473474,-0.289144730207555,-0.0506925585757239,-0.271306381424444,-0.617751191756391,-0.609698038091755,-0.87171160437745,-0.316551683570301,-0.383929904622607,0.0234987401085271,-0.217126797205901,-0.67279216679173,0.0616857893557068,-0.425594554487512,-0.0232458362875368,0.0101638219943056,-0.363545413847111,0.535904288709377,-0.492631044839037,-0.052353804180905,-0.949382578285247
-0.282220459723686,-0.620836769431025,0.315295094904083,-0.381861858498167,-0.0460910098181863,0.228634157133788,-0.305319077095364,-0.535439410153389,-0.33290895895198,-0.206403890677789,-0.390303787889473,-0.302646517231953,0.272497201649482,0.267202380239702,-0.174764922523059,-0.340685091102605,-0.282838747846467,-0.171935788563937,-0.0900480421507155,-0.283675629481727,0.103864727117674,-0.501340809876981,0.0450767762884206,0.360140098075197,-0.423200622585929,-0.323401807311895,-0.0369304559013558,-0.457352728661237,-0.335725645419437,0.149071967652067,-0.162600123720923,-0.774015848820097,-0.0363550478177464,0.315382073808484,-0.398828283067144,-0.465898395047634,-0.0875394270125272,0.148245233897838,0.184418840120012,-0.104102522659233,-0.899986466277186,-0.420969192626483,-0.628369478232927,-0.649928723312716,-0.22323911950672,-0.542157942619996,-0.483145376412301,-0.129816298992131,-0.389579021239211,-0.142281349385274,0.23360342109291,-0.618394865099598,-0.730167641224244,-0.189170437569166,-0.400816149577954,-0.349779384132288,0.392019120529999,0.0531090072508296,-0.583185493524891,-0.554859009790541,-0.0635520708788705,-0.455127246972526,-0.958436496819286,-0.958448004495723,-0.328292086440122,-0.526928990733193,-0.396053545597498,-1.06255055612022,-0.649787782748536,0.10585600276965,-1.04210510878124,-0.238273350800525,-0.183551001168944,0.0758046028650278,-0.617424086631418,0.0960514973783093,-0.307171349498757,0.124241717141244,-0.517082231512356,-0.191369705647282,-0.692826717813619,-0.444644588610123,-0.173539405867257,-0.656165397383003,-0.16167957267071,-0.406963015830689,-0.379153230183421,-0.350627954851608,-0.49876055783426,-0.329320549404687,0.170462238713866,-0.617107924214266,-0.721083555332094,-0.36841871815203,-0.156773119210936,-0.315545147632483,0.188967049520145,-0.815356396468581,-0.121048515623201,0.123668263333183,-0.0875570458277409,-0.277746523997327,-0.568162761270453,0.054868191756206,-0.442867632889327,-0.508131996883343,0.236707616472994,-0.503538135438142,-0.486367091163152,0.413573334687643,-0.570606467643411,0.0568372011552862,-0.6313787156559,-0.0117045649322142,-1.30163908875944,-0.0951510273610537,0.639097705290071,0.140292577392555,-0.275151387607008,-0.0183438748552944,0.122006466044916,0.161455802902334,-0.411593155669919,-0.45704056785015,-0.763657993064615,-0.201730966604125,-0.9400643176159,0.35599685330338,-0.334550037151136,-0.417127419359554,-0.875329752043717,-0.27151664983271,0.209716953790634,-0.994252920549116,0.342516026051767,-0.218444327735158,0.000316444926410962,-0.442240227044705,-0.657420844056405,-0.424736968472585,-0.710294018123815,-0.434172176823603,0.679537152057602,0.203227231251802,0.208634964151253,-0.524652262556954,-0.0315117544119359,-0.405433462529242,0.00534627765239147,0.248887630324811,0.42987002306116,-0.0649672872914108,-0.185483068585201,0.396449341179475,0.626410297330728,-0.374644154675311,0.150316687418403,0.304405820640534,-0.315271141774458,-0.312663115986178,-0.282339353975278,-0.162800554226613,-0.828704050296712,0.531594488781932,-0.378538327805109,-0.0130273937806041,-0.367847104362958,-0.235752140003317,0.489192559246844,-1.13824035982549,-0.358239942805016,0.517341748879031,-0.251146257256732,-0.0264684161766089,0.586910223963032,0.262054237678508,-0.520076189495326,-0.267145098048916,-0.053432702427784,-0.241623946529427,-0.59966331135132,-0.578328310485995,-0.842396185831123,-0.29889941341431,-0.375033449726269,0.0414711757772028,-0.201553428404074,-0.634266327743689,0.061464581974735,-0.388773582954435,-0.0150568681024365,0.00504316485244194,-0.346476217732391,0.514410176554971,-0.455460549113903,-0.0707156691054759,-0.899262977267302
-0.265882718946485,-0.581932948259701,0.289776439862639,-0.370144966012165,-0.0437001244340176,0.237120891114025,-0.28248766421274,-0.522266812809648,-0.306869815241549,-0.154883753410944,-0.360153026588565,-0.304141105522617,0.266122694006776,0.267427768673657,-0.162426360657663,-0.348723686849039,-0.302218338324044,-0.174711653725446,-0.115119486460457,-0.297873265095533,0.0999429810413186,-0.492566090901899,0.0524716784459954,0.342453006560401,-0.401489388799865,-0.291990325321202,-0.0286267202227906,-0.432920608345245,-0.307330500883324,0.128377491625854,-0.155074978868944,-0.74178033065041,-0.018577338393875,0.290615588578365,-0.392647723083948,-0.418837194361158,-0.0943157301342326,0.17907398802447,0.168155725381771,-0.0797193183003093,-0.821197667275343,-0.398528161181268,-0.613738910924245,-0.613076855654902,-0.202006297074634,-0.532372927047378,-0.471477453098019,-0.111496604175746,-0.353766965650298,-0.116998612997877,0.204759146767875,-0.586831916381191,-0.687906845219736,-0.181873827171861,-0.384941731854327,-0.327428373023116,0.372904912666248,0.0418518670877594,-0.533655749875366,-0.481111799421538,-0.0778127207016151,-0.445284485178791,-0.913976831251288,-0.917319523474903,-0.311623221666884,-0.489597827032392,-0.37705632916436,-0.988878697372664,-0.604890990716726,0.0895660627741674,-0.96891274764617,-0.237940896349456,-0.178907839742179,0.0883654892817173,-0.589753651805907,0.122015412318729,-0.298453988599202,0.0958081205459215,-0.497951298055744,-0.183769881492699,-0.665281340496222,-0.401463998853167,-0.153334703767765,-0.586870523504222,-0.145131791908551,-0.390819274269422,-0.357270863158748,-0.332619950772131,-0.447682348656138,-0.322340903060095,0.135624777471356,-0.601279590316577,-0.682114532925237,-0.342424484208225,-0.135184323225509,-0.320225783576564,0.174120620847198,-0.779980196073383,-0.11356388901748,0.0974829275935163,-0.0793389521440825,-0.264127928965808,-0.534566093518977,0.0526532197031576,-0.417250908930551,-0.480020614415048,0.236219609142663,-0.464973472171179,-0.452388660355475,0.426152922810471,-0.554556541145406,0.0470408922125282,-0.618635871680255,0.00790043068514277,-1.23258044716621,-0.0922197314499203,0.613382558212287,0.148548446683073,-0.283335023736373,-0.0125698271224313,0.0966206281664067,0.178709243024443,-0.373465395094429,-0.4228733842324,-0.740009153523298,-0.186285013313014,-0.918383091897336,0.346087054256978,-0.315123707339764,-0.42973176449737,-0.83463224670602,-0.281695136167749,0.214641877397517,-0.959469158941286,0.313016473031141,-0.220601716602535,-0.00734223148996708,-0.426238704234363,-0.630925342058395,-0.398681936513217,-0.708700536976309,-0.425629629534963,0.636667810517529,0.195648903070387,0.227507120070035,-0.491776618003621,0.00301925094701304,-0.385183612683584,0.0248094765024283,0.257726880312607,0.408298707258359,-0.0975569730485905,-0.166487405405238,0.414319076803569,0.591630763920164,-0.357362355795478,0.142253835285467,0.299023699602499,-0.299664818865513,-0.28811567644231,-0.292677653188611,-0.183180869402445,-0.80599255354713,0.501457639690712,-0.375709095184618,-0.0196476551096507,-0.361188934058396,-0.210527182481466,0.468191047276201,-1.08453977591586,-0.340913807538547,0.520874987606671,-0.244060215196012,-0.0211810386120094,0.564847499969102,0.247865503694057,-0.480277478443352,-0.244848890383983,-0.0558992269684898,-0.212125892315551,-0.580848609647799,-0.546506655404002,-0.812516094730216,-0.280853317861856,-0.366389712421894,0.0584556545941408,-0.186200562360921,-0.595000313787805,0.061569653661836,-0.351749541930846,-0.00634955328970649,-0.00084038879896412,-0.329630451668174,0.493592414048219,-0.418212734402315,-0.0891992096529465,-0.849443454175155
-0.249414181168895,-0.542952254514222,0.266189520824549,-0.356859101954504,-0.041910103373048,0.245344180440378,-0.259063309793144,-0.508165993539487,-0.280267764569813,-0.104183278174227,-0.330200116186816,-0.306067939806991,0.259626974016461,0.268226375554358,-0.150102445599721,-0.356078386737997,-0.321344287128275,-0.17593013857847,-0.13954324105143,-0.312229671889649,0.0957580383130164,-0.483036079718049,0.0602717992476409,0.325503063258975,-0.379069574516149,-0.259495390275677,-0.0197944322302665,-0.407644129874504,-0.278528228524684,0.10830952460963,-0.147033634915067,-0.709918971028075,-0.00101358196763287,0.266080810662342,-0.386225748777124,-0.371344597328743,-0.100840294441076,0.209307890236571,0.152639483056999,-0.0565478718996205,-0.741383101740515,-0.376485713092874,-0.598647925078692,-0.575545730372024,-0.18112123748467,-0.52230383549527,-0.459738922505947,-0.0928047432437861,-0.317683404319199,-0.093004528982947,0.176730955877555,-0.555614335590849,-0.645511303233047,-0.173655309291334,-0.368974054295784,-0.304948134096694,0.352815377015348,0.0309333674543271,-0.48477459607366,-0.40823626277412,-0.0911087184769041,-0.434717405602395,-0.869603994196833,-0.876175124336205,-0.293894733999252,-0.451676504168947,-0.357595914285909,-0.915240212129603,-0.560589646636931,0.0732614049094762,-0.895621623787469,-0.237758367126663,-0.173607425276234,0.100510266347854,-0.561798686503175,0.147983229806818,-0.289727342494972,0.0673551439439062,-0.478241326109168,-0.175899729796421,-0.637007265571311,-0.358470762525602,-0.134329771521887,-0.517267437945695,-0.128098783720567,-0.37418817529989,-0.335485501495565,-0.314660808330819,-0.396659240871291,-0.315907898428444,0.0998969186712755,-0.585335193711393,-0.642931648407343,-0.31564096980815,-0.115281534597989,-0.32474039907396,0.158698745655005,-0.746207636944142,-0.105369454322955,0.0711239569159867,-0.0720528093929168,-0.250133765055191,-0.5014969718283,0.0508132076403257,-0.392341151533107,-0.451886263905949,0.236091179778967,-0.426647379556444,-0.419482867001279,0.438295234561006,-0.53825788909008,0.0374656631902265,-0.604335371433167,0.0264405949848451,-1.16339977577915,-0.0897176348453498,0.588195083607269,0.157505879240011,-0.291633037257101,-0.0063701208573507,0.0714679844565676,0.194771125176404,-0.333575482323211,-0.387694142543255,-0.715472372924261,-0.170183070325799,-0.896298817921942,0.335956458355212,-0.295550049567552,-0.442059325687199,-0.793483983863006,-0.292217695329025,0.219788122966049,-0.9245971069985,0.283647342108959,-0.222700859386842,-0.0145756743030348,-0.409365651473813,-0.604412573103569,-0.372369077961901,-0.705431679776843,-0.418127825915764,0.591117513104779,0.188919392781406,0.245378219618357,-0.458553413934675,0.0377240039310316,-0.365229490476674,0.0437937406805979,0.265961069848005,0.388697030571024,-0.129219936971761,-0.14727951239035,0.431621538444869,0.555078873978913,-0.340933342250801,0.134308768200913,0.293630121258679,-0.283594159157499,-0.264008168243531,-0.302506499995646,-0.202972513241279,-0.781830570466262,0.472125908507204,-0.372553580255898,-0.025971079282557,-0.35385321527976,-0.184432948675769,0.447773231293667,-1.03035340348681,-0.323322660090284,0.523705747501169,-0.236491916361574,-0.0163854930871589,0.543950997226042,0.234440606107506,-0.440778736127238,-0.221923004180495,-0.0581246662124668,-0.182909954828525,-0.560739323630164,-0.514174530270925,-0.781584702791836,-0.262270098897664,-0.358054809855817,0.0739818166425756,-0.171316619545232,-0.554344613050649,0.0622035620108539,-0.314441477211547,0.00316332548662378,-0.00788303099170288,-0.313118752306757,0.47405817929608,-0.380910713690881,-0.107740205268287,-0.799833319827774
-0.232886101573644,-0.503651954032899,0.245014163044603,-0.341287266624968,-0.0409410087397856,0.252851470429676,-0.235044968261284,-0.492620871674894,-0.252858836235532,-0.054687926014206,-0.300073808867867,-0.308590966664587,0.253148811933449,0.269970755124294,-0.137477889405926,-0.362734287896464,-0.340188984305517,-0.17501843072989,-0.162985406353298,-0.32707825240214,0.0910251883856048,-0.472299519647886,0.0685776328952094,0.309833929792066,-0.355708831865059,-0.225662773211288,-0.0102817824759695,-0.381241998631571,-0.249513167296083,0.0889607255362116,-0.138370895665176,-0.678371253190745,0.0163907765944092,0.241889431628511,-0.379348482522163,-0.323465527438115,-0.107141558174616,0.239038327292787,0.138130185570145,-0.0350641801011653,-0.659928435844839,-0.354857386485226,-0.582918902752401,-0.537106008718297,-0.160716608099374,-0.512226881219662,-0.448146959745557,-0.0735796998019487,-0.281254370707218,-0.0706267469739946,0.150085343384702,-0.524838212862212,-0.603263959239054,-0.164312090807196,-0.352777462369621,-0.282171569632406,0.330990770686336,0.0208809701133972,-0.4369071084477,-0.337090773002286,-0.102810100060079,-0.42283604814533,-0.825279321879816,-0.835003678856451,-0.274909520917204,-0.412683903846426,-0.337517503138742,-0.84165408189153,-0.517061565065818,0.0570260763231277,-0.822112388066613,-0.237912848054598,-0.167297355546151,0.11230910878863,-0.533984890133636,0.174156299480354,-0.281047036449224,0.0391784311214928,-0.457626625462918,-0.167880175262567,-0.607580745632934,-0.315575309254337,-0.117190578615682,-0.447646627986952,-0.110272445861867,-0.356829754617237,-0.313745839019224,-0.296860044972401,-0.345742083799463,-0.310257185526192,0.0627607522798188,-0.569448930252743,-0.603591741191948,-0.287915862705012,-0.0975225270249517,-0.329090784324574,0.14257744366762,-0.714476098106325,-0.0961158719269579,0.0445029119193762,-0.0661686690594471,-0.235771832844913,-0.469670351518085,0.049221512473065,-0.368584303978252,-0.423492357664213,0.236401509597715,-0.388192583343869,-0.388033084017107,0.449997531126879,-0.52190261832265,0.0283444210849835,-0.58789127123012,0.0436935844101868,-1.09408258428163,-0.0879049812641519,0.563754373035048,0.167464892727862,-0.300015788885505,0.000535103858656794,0.0463566042055429,0.209450858278842,-0.291742347559228,-0.351299855237054,-0.689716764876899,-0.153118258079705,-0.873711784810563,0.325523720521935,-0.276127216997385,-0.454069984334294,-0.751623243941017,-0.303339693307256,0.225374459647176,-0.889802298206938,0.254861157997932,-0.22461580430883,-0.0209946830382167,-0.391420112082681,-0.578073529224506,-0.34591620906844,-0.699880185856451,-0.411887085761454,0.541805590974609,0.183402099703997,0.261755552206445,-0.425148034946749,0.0727775580775395,-0.345657327571274,0.0619712922576174,0.273380353383037,0.371756372353096,-0.159325598676474,-0.127708738721259,0.447912636233914,0.516176449945076,-0.325818778062575,0.126441230447239,0.288156911449934,-0.267127011150612,-0.240230581237977,-0.311675493359412,-0.221892461979591,-0.755508605817422,0.443907170787927,-0.369066993689491,-0.0321597044203448,-0.345845906520929,-0.157436312635875,0.428430547918406,-0.975674852739807,-0.305347251291873,0.525800315282529,-0.228227969460267,-0.0121623842130209,0.524804282926985,0.221765046776212,-0.401711367155198,-0.198217035822105,-0.0601313347033891,-0.154310483777447,-0.538614278274562,-0.481553775858664,-0.749229810200856,-0.243110872216723,-0.350108096574452,0.0875767804488643,-0.157219275694311,-0.511820895995926,0.0633753253396451,-0.276895903026057,0.0138168243054181,-0.0164284844509661,-0.296942064944256,0.45640183581949,-0.34363274396101,-0.126109532615605,-0.750123841555887
-0.216149213461502,-0.463817435396948,0.226583831679245,-0.322825992436921,-0.0409585149833574,0.259257291883308,-0.210328236666886,-0.475159904017692,-0.224367433583795,-0.00679858809720086,-0.269409443192315,-0.31158571488293,0.246768903022513,0.272832954530973,-0.123974981535974,-0.368751431077358,-0.358829414557905,-0.17148458639708,-0.185038073891104,-0.342756625737111,0.085303656737614,-0.460049040867119,0.0773777760968536,0.295909636265813,-0.331090006137475,-0.190548399031941,-8.33480593200818e-05,-0.35352201910141,-0.22065523795336,0.0704151123763417,-0.129013198162777,-0.646783124926832,0.0338746196506679,0.218404564926996,-0.371563436790553,-0.275281132804158,-0.113337349480663,0.268327418110917,0.124847209440272,-0.0157165407213364,-0.576423649358915,-0.333565371221345,-0.566467531409129,-0.497565941940381,-0.140938472435107,-0.502226040769389,-0.436821062151311,-0.0538139214051902,-0.244386693265648,-0.0500655168259875,0.125351427060129,-0.494435495848748,-0.56149787237078,-0.153785481474954,-0.336360739010813,-0.258854021459287,0.306520414288291,0.0121878030763102,-0.390532665423094,-0.268444183130976,-0.112479457263373,-0.40918914035766,-0.780929472690757,-0.793908076151412,-0.254343125916474,-0.372186209627865,-0.316529446840661,-0.768251757121514,-0.474273901222798,0.0408051034309383,-0.748212641729147,-0.23843849159156,-0.159660935877494,0.123786049790386,-0.506823659001543,0.200777643226516,-0.272313115182696,0.0116325587211596,-0.435858966071341,-0.159737367498044,-0.576494395469818,-0.272793247753308,-0.102485446344299,-0.378470167716552,-0.0912469552134027,-0.338407653512783,-0.29198428760573,-0.279457440344425,-0.295019053167415,-0.305788469864536,0.0238716724130666,-0.553867968037179,-0.564070811493312,-0.259101453763661,-0.0820711002978343,-0.333265801820905,0.125734939481484,-0.684874036588566,-0.0855665774275004,0.0176578121141252,-0.0621816128899058,-0.221050108273598,-0.439895824577919,0.0476982083463316,-0.346274434609551,-0.394531457480365,0.236964407945713,-0.349167992467126,-0.358338816121545,0.461274721975465,-0.505844688190091,0.0200102985653282,-0.568856960487933,0.0597174592595961,-1.02469754786069,-0.086976311668765,0.540206933948455,0.178467954792383,-0.308199201166656,0.00850745407843636,0.0210891342823891,0.222604861946376,-0.248084702267319,-0.313554999295366,-0.662558995025235,-0.135032897648015,-0.85046287172403,0.314865046258667,-0.257222879459363,-0.465646881812325,-0.70889911923833,-0.315207219328932,0.231494506527383,-0.855257971261443,0.227226990481553,-0.226109584852911,-0.0262884159259735,-0.372262323286205,-0.551908016149312,-0.319542609880515,-0.691260992667615,-0.4069713051523,0.487771262213858,0.179328852771721,0.276277546583053,-0.391796605628584,0.108242437807024,-0.326430966799647,0.0791352770466802,0.279822565266708,0.357950453666446,-0.187222448965595,-0.107704158420529,0.462825261424118,0.474482199985665,-0.312279180970681,0.118543655198162,0.282409188562479,-0.250341160960012,-0.21641021542966,-0.320082368895668,-0.239660567134404,-0.726396242944886,0.416984742224549,-0.365269857258814,-0.0382832464903174,-0.337142867791077,-0.129930018681472,0.410602948842136,-0.920401472874864,-0.286970868199301,0.527173425021836,-0.219072176133147,-0.00853940863655738,0.507813729064914,0.209857386677427,-0.363317294316115,-0.173758818008986,-0.0618661188358322,-0.126781446417517,-0.513746663837244,-0.44905017357716,-0.71522328878973,-0.223349793328873,-0.342509421973015,0.098828393533975,-0.144016654885145,-0.467181116597089,0.0649880097613184,-0.239259286512684,0.0258760982601499,-0.0265281315068525,-0.280951037433903,0.441101828911354,-0.306442869476141,-0.143912969873933,-0.69992940096765
-0.199005690560057,-0.423258590259035,0.211054522913994,-0.301009095596798,-0.0419660281055936,0.264493563629965,-0.184599093304712,-0.45540651485361,-0.194477404034192,0.039169302272619,-0.238013275868295,-0.314593294828001,0.240496748397057,0.276660287210717,-0.108908712028755,-0.374034877887487,-0.377317706525129,-0.164874503057633,-0.20527875441131,-0.359333068502501,0.0783264640511985,-0.446076087869661,0.0865664522974153,0.283920513150252,-0.304744333452024,-0.154536952881799,0.0106107976520762,-0.324308537283743,-0.192297129721655,0.0527270445111726,-0.118967199305138,-0.614624727814495,0.0517173360331963,0.196407957853881,-0.362253226942055,-0.226969958268426,-0.11972472808734,0.297099205663473,0.112960289897214,0.00118031142360192,-0.490867173280158,-0.312403163494136,-0.549272201538903,-0.456624986217965,-0.121956440367751,-0.492056137964435,-0.425674074827425,-0.0335726590114665,-0.206855193606074,-0.0313879082291003,0.102836090076536,-0.464232289604093,-0.520408529472373,-0.14206493655192,-0.319825979479067,-0.234709131619612,0.278601920296752,0.0051301312213439,-0.346098687531882,-0.202705126799329,-0.119997545436419,-0.393511538328752,-0.736412125959446,-0.753084254564137,-0.231772870234049,-0.329745758878101,-0.294277349360348,-0.695217586123811,-0.431929959899296,0.0244701617334308,-0.673686694121181,-0.238987228274801,-0.150424599651627,0.134876988933979,-0.480657039172883,0.228141386775867,-0.263110809552219,-0.0149008798353345,-0.41271968930059,-0.151409374362331,-0.543348725687485,-0.230312783637066,-0.0905082052598886,-0.310190045984389,-0.0706699937550385,-0.318463174057307,-0.269925296853325,-0.262835361728295,-0.244557973339138,-0.303068841412372,-0.0168427999987723,-0.538877952581326,-0.5241668217423,-0.229153284927934,-0.0689139743608376,-0.337191735807014,0.108234927410974,-0.657083864060144,-0.0735910191081336,-0.00926008186006372,-0.0605180619178686,-0.205982801803275,-0.412675621659137,0.0459578023136706,-0.325369925627965,-0.36475849500217,0.237289606907048,-0.30907768477231,-0.330632681248369,0.472294991193181,-0.490432153187234,0.0128331239268099,-0.546874784139825,0.0747480124250101,-0.955351857760855,-0.0870091487987992,0.517528015004867,0.190018536960151,-0.315634889410171,0.0178633440926466,-0.00438512208621163,0.23412123274346,-0.20291782079377,-0.27439928108236,-0.63386852247887,-0.116236122706347,-0.826138558919047,0.3042731590781,-0.239060069467268,-0.476561668579519,-0.6654143298599,-0.327431153345389,0.237857242213522,-0.820907925039811,0.201265509114697,-0.226809241635845,-0.0302553916678576,-0.351622005101209,-0.525618559986814,-0.293331389564608,-0.678696822338408,-0.403147203701982,0.428356153464373,0.176942719239079,0.288769328488142,-0.358628490941268,0.144005631190039,-0.307292672734745,0.0953443056401959,0.285170838310095,0.347355865450647,-0.212329681816185,-0.0872671777453357,0.476160448087895,0.429707397446998,-0.300245721747073,0.110491854085087,0.276186489726687,-0.233100467064214,-0.192130098312674,-0.327614792194359,-0.255926162966983,-0.69400571775343,0.391416676899545,-0.360998801197162,-0.0441843913179833,-0.327464851024992,-0.102631476130032,0.394529844472883,-0.864247246262382,-0.268165155334256,0.527814475808914,-0.208734781735933,-0.00545016162062093,0.493032501996299,0.198809650095375,-0.325718529092133,-0.148661501789621,-0.0632853247261801,-0.100643569116019,-0.48561004483635,-0.416978253122115,-0.67945867267006,-0.202951783685933,-0.334923105864057,0.107498048229842,-0.131461806527344,-0.420369628945202,0.0670229572441001,-0.201732776290579,0.0393995171402343,-0.0378541463617034,-0.264892540670954,0.428371925485489,-0.269405737053253,-0.160613328138574,-0.648951586954392
-0.181401667940922,-0.381828045218632,0.198472347819596,-0.275589637231717,-0.0437164820655699,0.268804835541361,-0.157497619702867,-0.433085965273392,-0.16287973090514,0.0832193513356617,-0.205863886903351,-0.317043489965897,0.234283695133407,0.281045931605677,-0.0917616437090167,-0.378360083534026,-0.395636827283656,-0.154864283987614,-0.223457501600498,-0.376473876964228,0.0701822929026856,-0.430164212098152,0.0960031724696134,0.273847071295241,-0.276133310087708,-0.118121613819564,0.0213909195507094,-0.293543582635052,-0.164583565598576,0.0358769755264475,-0.108553429506688,-0.581573608565615,0.069994702637561,0.176946185852469,-0.351028681370733,-0.178938531026879,-0.126721399489634,0.325288957775147,0.102520470330315,0.0156469380120138,-0.403868050478998,-0.291113673457461,-0.531360859077978,-0.413790469055723,-0.103879322683403,-0.481265381093947,-0.414527634504176,-0.0129302501955008,-0.168362607040222,-0.0142902078274006,0.0825683651364231,-0.433997659666505,-0.480010375688642,-0.129240010308355,-0.303166038564841,-0.209511593993156,0.246789362358003,-0.000244018008697238,-0.303792774669524,-0.139958744065951,-0.125560823469505,-0.375606087101641,-0.691637409607894,-0.712745083901214,-0.206985626212004,-0.284939392672279,-0.270479916015766,-0.622776489524622,-0.389637008149054,0.00801472323911048,-0.598377769336095,-0.238985712020391,-0.139394986476601,0.145478061199617,-0.455471613984837,0.256592561020719,-0.253030708963389,-0.0400758811855741,-0.388049364351094,-0.142741693372101,-0.5080072410894,-0.188614334759163,-0.0812984544106213,-0.243104043557077,-0.0482553403278142,-0.296448462834666,-0.247111127159216,-0.247367503138863,-0.194359082208977,-0.302640569114098,-0.0592168793540152,-0.524788115522488,-0.483661575655175,-0.19824185100996,-0.0578911231853354,-0.340750038639551,0.0902957733361438,-0.630593257395094,-0.0601226275583864,-0.0360426745470925,-0.061337182882717,-0.19053312585503,-0.387972446721194,0.0436114701612038,-0.30547744158347,-0.334059786421525,0.236837756417694,-0.26745666690287,-0.305214840679532,0.483365566230649,-0.475791315180788,0.007023001281821,-0.52167395876305,0.0888549247989826,-0.886167487841412,-0.0878197692983507,0.49551813296222,0.201297491855202,-0.321703407061704,0.0286382249314451,-0.0299054994348452,0.243978062976925,-0.156756025705102,-0.233900655291313,-0.603514919566039,-0.0973056923260026,-0.800212928976196,0.294184786888958,-0.221607598214318,-0.486531336167022,-0.62133202463149,-0.339046088876261,0.243872421344162,-0.786454184726341,0.177383119106744,-0.226207847504782,-0.0327342179482554,-0.329190584764952,-0.498789141658955,-0.26721072520436,-0.661624055077941,-0.399894826343392,0.363481972624958,0.176599226058721,0.299165755591207,-0.325673375882629,0.179983714511558,-0.287738679902848,0.110978112637346,0.289394835150553,0.339679432088802,-0.234190839978151,-0.0664423218269989,0.487982313612783,0.38191811040684,-0.289286551241129,0.102361613116443,0.269255327118086,-0.215184705080057,-0.167186397465137,-0.334127970725788,-0.270430091987978,-0.657994575915348,0.367085807612898,-0.356058970002883,-0.0494325424626146,-0.316367434974872,-0.0763987976657436,0.380207332562792,-0.806908014412468,-0.248900446843333,0.527704981597119,-0.196832948511177,-0.0027665740685453,0.48021612524929,0.188770460307705,-0.288738920340064,-0.123056063000819,-0.064376774272988,-0.0760620495936965,-0.454026977586917,-0.385525942216364,-0.641995381850017,-0.181859224360367,-0.326782545623577,0.113496553054476,-0.119175532700588,-0.371609604507216,0.0695456839555967,-0.16446947810909,0.0541611930150221,-0.0500734281266743,-0.248424764284057,0.418174993275782,-0.232572492568259,-0.17553517309234,-0.597015578910962
-0.163320057298324,-0.339497421361982,0.188760465776237,-0.246592007022735,-0.0457976912860205,0.272499198470158,-0.128664683920136,-0.408064854823151,-0.129310992107697,0.125729645531815,-0.173021030825377,-0.318460769525339,0.228032556906481,0.285403160600361,-0.0722882204339172,-0.381657955727034,-0.41378494479126,-0.141549846444947,-0.239656473965686,-0.393559340805792,0.0613173388522125,-0.412052928079706,0.105683987646911,0.265662540211757,-0.244905054912134,-0.0818154919383401,0.0317735064666777,-0.261372578325085,-0.137484506093016,0.0198392797762488,-0.0983450070100928,-0.547788856266747,0.088626902468406,0.160980809069519,-0.337855370002422,-0.131887680759194,-0.134619059251575,0.352878069280524,0.0932414777691651,0.0279734589840205,-0.316891195555036,-0.269394026711324,-0.512772250866972,-0.368513936497999,-0.0865894691510679,-0.469438319508883,-0.403323318622112,0.0080338306615024,-0.128664813301376,0.00180900984892085,0.0642879789174116,-0.403536300134271,-0.440271866968509,-0.115514931671972,-0.286124930303102,-0.183294227470851,0.211053333891764,-0.00396426736220479,-0.263519751269296,-0.0799293393583274,-0.129489075604504,-0.355185943296715,-0.646674621101651,-0.673148201132299,-0.18018648787412,-0.237617045150343,-0.244875264939733,-0.551188784836648,-0.347029401193842,-0.00835835818950314,-0.522331980814615,-0.237998222965169,-0.126428567332273,0.155650500751534,-0.430946959125802,0.286240362604973,-0.242088547171356,-0.0636439055775122,-0.361919298706922,-0.133322561702248,-0.470592293988164,-0.148455018608187,-0.0747952685804359,-0.177342033114272,-0.0237063382335875,-0.271966409275498,-0.223167079047049,-0.233332060581628,-0.144421564284784,-0.30478412696894,-0.102997730057089,-0.511723170234522,-0.442437564230656,-0.166574257118338,-0.0486992982925585,-0.343795480868365,0.0723011290311505,-0.604924518218995,-0.0452400139599419,-0.062450797220623,-0.064458174280607,-0.174496650185414,-0.365240869766835,0.0402856814196907,-0.2861526654517,-0.302399030139246,0.235288556878292,-0.223994540317522,-0.28231359851186,0.494672279040459,-0.461727406025362,0.00255303143942504,-0.493116813810442,0.101898998719216,-0.817344721490986,-0.0890410102549993,0.473943429743669,0.211680057659744,-0.325955979555176,0.0404574818663763,-0.0551822179140259,0.25223168389071,-0.110356158107597,-0.1920959023391,-0.571449109570478,-0.0788801434754398,-0.77234139500335,0.285084537750872,-0.204646128622708,-0.495393872437126,-0.576573917911734,-0.348915008163166,0.24903004737541,-0.751608928194672,0.155880578418681,-0.223909178698097,-0.033628554909445,-0.3050031453948,-0.47108384536091,-0.24103225688472,-0.640188347893836,-0.396597866984119,0.293932322600193,0.178564079003442,0.307585946108649,-0.292920302443123,0.21617968303946,-0.267167676910274,0.126728756967297,0.29256497858968,0.334343513814927,-0.252593366771119,-0.0452223127490423,0.498633756981709,0.331786992614679,-0.278873057186803,0.0945747469941722,0.261395449013622,-0.196498160424148,-0.141598683726386,-0.339342133871314,-0.28310391663827,-0.618331053154381,0.343575468448162,-0.350385805191784,-0.0535724172943709,-0.303522581599928,-0.0521443355007101,0.367508808109734,-0.748240406008628,-0.229233259387546,0.526834740785865,-0.183099128227589,-0.000331161747342409,0.468996003376791,0.179772991335688,-0.251977914154888,-0.0970364984815612,-0.0650657437712564,-0.0531130944107821,-0.419289668665409,-0.35487604621072,-0.603096912877022,-0.159976271375057,-0.317567545764622,0.116798970958115,-0.106896431414907,-0.32146995628188,0.0727060001349496,-0.127546973865017,0.0697698205995418,-0.0631128534017299,-0.231120966997477,0.410270096951995,-0.195771498919906,-0.187973857098894,-0.544057466342697
-0.144614458939326,-0.296485013475455,0.181697625548374,-0.214327857873534,-0.0478707324207021,0.275805925962428,-0.0977069110428763,-0.380504050618843,-0.0935552895408822,0.167175066836392,-0.139679068629826,-0.318542379311006,0.221633069877386,0.288976630667943,-0.0504825098145434,-0.384102166460829,-0.431784634039154,-0.125412334772409,-0.254315752346072,-0.409970120964159,0.052314653522771,-0.39150573875042,0.115801084576353,0.259315725676454,-0.211047624777961,-0.0462212470446851,0.0413255809460026,-0.228015925037145,-0.11088496402955,0.00460766417265743,-0.0887632111882831,-0.513762478925507,0.107569780152858,0.149101219336306,-0.32282364258548,-0.0865095039729574,-0.143493570086269,0.37976211485285,0.0844643400741811,0.0384674806106433,-0.232126538197691,-0.246791658821411,-0.493462205326585,-0.320505336931705,-0.0697308559595558,-0.456329942600087,-0.392150239235186,0.0293045298891102,-0.0876485529696471,0.017427085577163,0.0475605250001142,-0.372861409386332,-0.40120595945289,-0.10108738251788,-0.268248704599145,-0.15629781731935,0.171764633338249,-0.00614646129408089,-0.225189895519672,-0.0219500716470934,-0.131976300191192,-0.331978984931799,-0.601720277480527,-0.634508048344349,-0.151914232379606,-0.188042325559688,-0.217188559202578,-0.48066950837263,-0.30377904285771,-0.0244244555984445,-0.445771603672775,-0.235846644428805,-0.111433308556693,0.165614709458009,-0.406736372920641,0.316744926672048,-0.230662628171616,-0.0854973665137938,-0.334616785238991,-0.122504020313729,-0.43147668200273,-0.110603788667235,-0.0708569304491482,-0.112847918376977,0.00328689630952361,-0.244952664011223,-0.197876185997308,-0.220910378871783,-0.0947625461296968,-0.309337560296301,-0.147900504290451,-0.499442026608819,-0.400495279467952,-0.134219574959842,-0.0410845072284979,-0.34620416689288,0.0545916385978472,-0.579666054408745,-0.0293607406920264,-0.0881809553725403,-0.0693979076792812,-0.157660760198574,-0.343572503735241,0.0357016007154175,-0.26715409218216,-0.269769520190712,0.23252512973736,-0.178683966390604,-0.261915995281033,0.506056491521916,-0.447945234608494,-0.000831371640380708,-0.461298456430252,0.113829811035923,-0.749135140029755,-0.090488349372493,0.452542247962338,0.220948638701886,-0.328279322738315,0.0526806839591135,-0.0798601630646053,0.258953683617449,-0.0645972733731393,-0.148797828418251,-0.537729213449581,-0.0615267624793394,-0.742515016485119,0.277406387289333,-0.187815228463898,-0.50316896970055,-0.530860544314171,-0.356079184290035,0.253050363287932,-0.716297127683707,0.136919352473407,-0.219897038274307,-0.0331365582963616,-0.27962716029978,-0.44220896273034,-0.214550897145453,-0.615259579908041,-0.392656957472497,0.221325235410023,0.182600167445836,0.3144463646942,-0.260215053771213,0.252336398612191,-0.24522856462294,0.143304984021209,0.294781664301596,0.330472777131724,-0.267700387554757,-0.0235520418010677,0.508600632688926,0.280354307634158,-0.268673544315404,0.087681409917905,0.252595822816805,-0.177037919476028,-0.115477109598314,-0.342753484282643,-0.293823599087366,-0.575501968897581,0.320304694325577,-0.343978238689415,-0.0564112507373474,-0.288849521877543,-0.0306598165642709,0.356166638747366,-0.688324062773128,-0.209218665395363,0.525150306159739,-0.167555164198169,0.00196483815978778,0.458839336110356,0.171495168588418,-0.215103633018573,-0.0706490063771756,-0.0651623968602363,-0.0317382850663081,-0.382031075747313,-0.325167328995228,-0.563145435540992,-0.13719129203421,-0.307041835845074,0.117506357299149,-0.0944822347663822,-0.270683929628699,0.0768666233897033,-0.0911566728777551,0.0858678668041812,-0.0770046194635634,-0.212521704750259,0.404133094330285,-0.158495083019719,-0.197380537867401,-0.490223089584282
-0.125095196271069,-0.25315285378201,0.176994261556472,-0.179396073798214,-0.0498546928519795,0.278887364135158,-0.0643350092812827,-0.350834689370622,-0.0555017976474544,0.207806893753967,-0.106324106256689,-0.317130016534202,0.214897393332819,0.291084531550907,-0.0265762358843958,-0.38597160509584,-0.449543205725134,-0.107082910086459,-0.267958635574606,-0.425297980859324,0.0436005588525853,-0.368480866694287,0.126649748340077,0.254638726315849,-0.174814703515231,-0.0118570726297009,0.0497081839566796,-0.193561004117748,-0.0846194024518217,-0.00984274181586306,-0.0799755832725093,-0.479885562096536,0.126792391136499,0.141403331802242,-0.306056911091577,-0.0430701376720169,-0.153228685902908,0.405618100542011,0.075361978879093,0.0473107682180496,-0.15209904575213,-0.222725262554503,-0.473160566783095,-0.269964376891615,-0.0528627168769358,-0.44176240261222,-0.381180338897207,0.050988965041238,-0.0453927400254674,0.0328776254276404,0.0320523157785081,-0.342119370574041,-0.362879998465589,-0.0860030665701489,-0.248948759356181,-0.128714070059199,0.129629820788339,-0.00701596621606064,-0.188929084158304,0.0346105330324649,-0.133025694592666,-0.30584715121048,-0.556945084713927,-0.596716435859631,-0.122775385871553,-0.136707027256903,-0.187184062404251,-0.411287372084526,-0.25964518509362,-0.0402554307785166,-0.369041429640752,-0.232555535531511,-0.0945274225543225,0.175553103752777,-0.382676626660626,0.347388091088282,-0.21909975923329,-0.105672155827608,-0.306421041938058,-0.109630980656827,-0.391231658062311,-0.0756135079238859,-0.0690337597147966,-0.0494860136870795,0.03294385835289,-0.215691090805576,-0.171041735030393,-0.210133271316229,-0.0454249625216967,-0.315719299009316,-0.193412496877066,-0.487571324611913,-0.357849465418774,-0.101174592259607,-0.0348932566800831,-0.347838060209337,0.0374244945254055,-0.554350174715556,-0.0132442052145831,-0.112895267474279,-0.0753816228792841,-0.139834671026964,-0.321860377204849,0.0297119548295083,-0.248307411925623,-0.236088580724254,0.228623239534966,-0.131822693482582,-0.243741065239782,0.517032219326857,-0.434288097392037,-0.00358185245304816,-0.426571524686376,0.124699638702325,-0.681713114126183,-0.0924567880308575,0.430956095180947,0.229247821934745,-0.328897022005103,0.064619685355136,-0.103448970004844,0.264262884840003,-0.0202932991315447,-0.103812058909956,-0.502492380722128,-0.0457449487067974,-0.710919027023844,0.271358398851957,-0.170568514350271,-0.509809880356765,-0.484013443810137,-0.359885868096325,0.25579584198532,-0.680541276713547,0.120612940626939,-0.214497714843721,-0.031867533452158,-0.253935599021783,-0.41175598447395,-0.187347943133227,-0.588001740516214,-0.387588313098403,0.147884173245478,0.18792832705479,0.320136053711689,-0.227178452135437,0.287752596603459,-0.221953698181531,0.160996091303886,0.296039991222232,0.326972738173217,-0.280011196191613,-0.00137360214053439,0.518202159080942,0.228651316510236,-0.25852757174717,0.0821229608353198,0.243091546020117,-0.156759533277384,-0.0888350477375628,-0.343771577571927,-0.302276245163432,-0.530389903185981,0.296834946372731,-0.336740025722597,-0.058035287647664,-0.272412625872724,-0.012257893752501,0.34569126629847,-0.627375143648934,-0.188810018145959,0.522394370561583,-0.150344924982167,0.00412576109299129,0.449005347728292,0.163366094047344,-0.178062138173724,-0.0438540371796448,-0.0644177956029502,-0.0116506922945156,-0.342962744927499,-0.296465582838194,-0.522361769707022,-0.113424694450355,-0.29519871195674,0.115994061943766,-0.0818385148670544,-0.220000348592083,0.0826343033871151,-0.0557281422639884,0.102182175389164,-0.0916944689967014,-0.192130424694815,0.3990322781746,-0.120199561436342,-0.203394731565416,-0.435908655854991
-0.104582850110387,-0.209758497562915,0.174258136473405,-0.142547646149406,-0.0518774688609195,0.28171848222453,-0.0286398047410841,-0.319505295573075,-0.0150952310148515,0.24762699972646,-0.0737715516746173,-0.314309715534632,0.207593635136908,0.291449062535555,-0.00104175447910465,-0.387449180275828,-0.46672469553699,-0.0873841756629223,-0.280957459119765,-0.439516854278414,0.0353128263727706,-0.343122824007948,0.138535458620717,0.251444311049398,-0.136632624819872,0.0209505828521302,0.0567775387163924,-0.158003659834482,-0.0584306792549513,-0.0236611459388061,-0.0720604967915546,-0.44633387102158,0.146212577035671,0.137386626316351,-0.287914218867989,-0.00129521674490919,-0.163403690679203,0.429925275646026,0.0650169478274381,0.0544676984173291,-0.0792642555096113,-0.196773590081223,-0.451445208991497,-0.21754337109443,-0.0356082281891718,-0.425687735510679,-0.370502487754541,0.0731938858898749,-0.00219927119138115,0.0482648339067624,0.0174916965216508,-0.311345035073228,-0.325329317588853,-0.070124043790388,-0.227678163743002,-0.100625339125485,0.085543385641862,-0.00677310668142619,-0.15492061345539,0.0896897618690325,-0.132630490251433,-0.276755553066313,-0.512457660724917,-0.559278464813025,-0.0931937084690126,-0.0841708257987592,-0.154845402203401,-0.342934890662783,-0.214502468598951,-0.0563630553579605,-0.292572596297846,-0.228442373483674,-0.0762448576271709,0.185665605910816,-0.358891595439847,0.377267375870568,-0.207608519411485,-0.124262893275066,-0.277553032523266,-0.0942835960014186,-0.350463104169299,-0.0437868877372317,-0.0684832368716798,0.0127685164355578,0.0651834820699645,-0.184925985290759,-0.142453503351822,-0.200705247834071,0.00347958331177142,-0.323150824975757,-0.238790935192258,-0.475897612728084,-0.314485583112042,-0.0674874698645584,-0.0299789431900825,-0.348659243814184,0.0210451451036682,-0.528439317302149,0.00243600344817284,-0.136433364324135,-0.0816051422354888,-0.120753830353549,-0.298874815856908,0.0222572356304666,-0.229493460598278,-0.201231205655559,0.223882678675447,-0.0837752052520339,-0.227127252824295,0.527052529791617,-0.420773695819319,-0.00624710778262123,-0.389300932844703,0.134373321957138,-0.615104904250384,-0.0956319614756367,0.408967544097572,0.237044696341712,-0.328291160225377,0.0757291329291493,-0.125322098785434,0.268354823294981,0.0220171701532812,-0.0573055113200798,-0.465948476521436,-0.0318177454505772,-0.677786969654636,0.266799866150869,-0.152228710646537,-0.514996321249217,-0.4359254197237,-0.360059815705063,0.257312551155516,-0.644332621149187,0.107147805623388,-0.208140691323066,-0.0305643123214548,-0.228858756528813,-0.379215208901359,-0.158913158333708,-0.559532953517103,-0.381078691092058,0.0763039824616126,0.19370086311732,0.324444887134474,-0.193367462638646,0.321601888374573,-0.197761759002881,0.179505919738704,0.296015773049251,0.322960972060371,-0.290110359848011,0.0214912133891649,0.527453475488895,0.177777643391604,-0.248359608133672,0.078168706560624,0.233229517427369,-0.135557742636262,-0.0614551216454966,-0.341905250526811,-0.308169270881633,-0.484122002439363,0.272957389832632,-0.328394229487596,-0.0587317045868463,-0.254417573722866,0.00322793844590611,0.335607076676888,-0.565656491791196,-0.167868631555924,0.518037579168196,-0.131555088395672,0.00610498866289526,0.438896150109654,0.154903421993279,-0.141042373638262,-0.0166229953750391,-0.0627615654655189,0.00765284019405445,-0.302942066255287,-0.268933858257788,-0.480681491638847,-0.0887775150261117,-0.282113002265766,0.112964885349628,-0.0689650225670106,-0.170101600372278,0.0905231017858926,-0.0216716370242984,0.11846703555709,-0.107279454075107,-0.169351069954239,0.39437259651367,-0.0807034314432083,-0.206005915672574,-0.381618360379747
-0.0829755180813355,-0.166306091582295,0.172889089360596,-0.104548242671082,-0.0541607983526999,0.284014150178092,0.00878905536539606,-0.28681692339669,0.0277705702318327,0.286599288589329,-0.0429680051635,-0.310447446249437,0.199525859930873,0.29025051320138,0.025411082305181,-0.388597400309934,-0.482866768128947,-0.0674913839651087,-0.293519571177508,-0.452983597670416,0.0272569912277751,-0.315647320112477,0.151625852644926,0.249632581336156,-0.0970873040145159,0.0519294068412574,0.0626894841305956,-0.121411862206554,-0.0317889501032365,-0.0373045830738832,-0.0650350889426637,-0.41319530911701,0.165622116848763,0.13591403668256,-0.269099663395125,0.039453628643801,-0.173325141804367,0.452170224810776,0.0525250837693253,0.0595930622263449,-0.015613356782105,-0.168970352334794,-0.428025787000182,-0.164085845284129,-0.0176811630828582,-0.408353359834312,-0.35987423789896,0.0959571748059851,0.041514504459161,0.0634395085671054,0.00341211559419245,-0.280365009637884,-0.288485028020547,-0.0530567221138297,-0.20416215583374,-0.0720491648998406,0.0404707259656027,-0.00554685139577545,-0.123115830321236,0.142327318076961,-0.131034804532017,-0.244868221210726,-0.468385444802022,-0.521590472800039,-0.0634158918148304,-0.0310654948262665,-0.120519224768672,-0.275288543800512,-0.16832307665937,-0.0735894322422104,-0.216905845128168,-0.224264398806466,-0.0575186849882432,0.196179543280965,-0.335881157953049,0.405533454976476,-0.196365288928153,-0.141406357254286,-0.248182911824005,-0.0764482606160107,-0.309717561716898,-0.0150869826853304,-0.0683876467891222,0.0738154288215574,0.0993867112227365,-0.15376797158191,-0.111932203141727,-0.192053567832349,0.0517396847318524,-0.330875985263098,-0.283308125690657,-0.464405942077851,-0.270501245811871,-0.0333532161174885,-0.0259729450898819,-0.348771348773417,0.00562470791316846,-0.501570617553856,0.0174402748334112,-0.159128422716156,-0.0876707504878986,-0.100200198757035,-0.273381287033372,0.0132782413915075,-0.210927681630195,-0.165149838848982,0.21878633184162,-0.034922812319353,-0.211103113163656,0.535826078637477,-0.407530221408745,-0.00930617750220047,-0.349649686274688,0.142495280655344,-0.549263581315503,-0.100756450810516,0.3867023621805,0.244974705795967,-0.327044121100726,0.0856765084063955,-0.14478778895943,0.271392935383708,0.0621154027038885,-0.00979089707998609,-0.428349415514306,-0.0197022392116867,-0.643410930222246,0.26351364191441,-0.132118661473159,-0.518258777822817,-0.386291726852636,-0.356727854067846,0.257927496908063,-0.607646292112823,0.0967803960696622,-0.201199801309758,-0.0297870412006894,-0.205240269646442,-0.344148154613797,-0.128703103955932,-0.530782663802167,-0.372982735510257,0.00941117259053978,0.199332449922729,0.326419211598277,-0.158454245666975,0.353268827340337,-0.173455654638539,0.198210990909388,0.294032031990382,0.31811129321273,-0.298564642609045,0.0453679615775193,0.536215709239627,0.129031247361193,-0.238337850240707,0.0759752638268428,0.223391526889329,-0.113297749460468,-0.0330227140576498,-0.336878234564219,-0.311437952012217,-0.438069451347259,0.248664781849831,-0.318616530429641,-0.0588512414885728,-0.235348899006457,0.0160390333221184,0.325701923724764,-0.503524699969093,-0.14630887332003,0.511452424611983,-0.111369725834275,0.00793646941531277,0.428318213390166,0.145939360973033,-0.104225562134986,0.0107996745278527,-0.0605468664295526,0.0267526515377637,-0.263072420946284,-0.242969917131107,-0.4380006953924,-0.0636125402414915,-0.267952835618375,0.109207300232225,-0.0558876059377742,-0.121575682243267,0.100665659795576,0.0109293256605644,0.134449674116614,-0.124249387275997,-0.143498896979808,0.389941356569792,-0.0402837173671419,-0.205774381534818,-0.327822083079495
-0.060420352137883,-0.1226041249575,0.172020792312801,-0.0661641625234777,-0.0571453293584977,0.285341048821002,0.0471088060270518,-0.253036004001264,0.0730633359233618,0.324730600095521,-0.0146865197056465,-0.305980458433939,0.190492769142286,0.287818277562403,0.0519334551559886,-0.389430071600591,-0.497572753238264,-0.0487772659308918,-0.305691782324853,-0.466158830258975,0.0190279796609228,-0.286347558432934,0.165898316661758,0.249035662840024,-0.0569139234928569,0.0807744678101735,0.0677411973387891,-0.0839731012570662,-0.00395355672078215,-0.0514584740064515,-0.0589169315176987,-0.380618462435961,0.184559190283979,0.135422017037888,-0.25045844782743,0.0797918351665022,-0.182212216010587,0.47197495967758,0.0373297554448734,0.0621984158736507,0.0376609439198431,-0.139743216689567,-0.402819467680351,-0.110444612079777,0.00114384314273835,-0.390286730155395,-0.348905543316331,0.119294496280288,0.0854192604561037,0.0779784482753314,-0.0108049438526033,-0.248992777148468,-0.252256770739368,-0.0341195331532706,-0.178465056506918,-0.043006997579458,-0.00464889377591383,-0.00351257236179674,-0.0931441708806592,0.191208816481414,-0.128690757227505,-0.210569569064846,-0.424802329740776,-0.483227866070705,-0.0337606433355267,0.0218196382814092,-0.0848522666454862,-0.207843113141858,-0.121256957863014,-0.0928179077682896,-0.142667751562914,-0.2210796245984,-0.0394920834979537,0.2071367346113,-0.314329689968449,0.431474408743483,-0.185475354340825,-0.157346688447832,-0.218510374101836,-0.0565380378728458,-0.269445559487756,0.0109044010382733,-0.0683847357054031,0.133519872614051,0.134391671964499,-0.123313149629336,-0.0794513299524656,-0.183579699436454,0.0990755941471962,-0.338315520038631,-0.326233869708795,-0.453200420430829,-0.226129399557821,0.000849474350279769,-0.0222177598705956,-0.348297948306679,-0.00878379646971596,-0.473755861308303,0.0317355944402234,-0.181776798418973,-0.093718806803089,-0.0781111069041299,-0.244417787686598,0.00287349124196596,-0.19306115610145,-0.127903129156086,0.213742490237798,0.014266572445352,-0.194696490860478,0.543263285661852,-0.394641576452676,-0.0131016933279802,-0.307767488741479,0.148763980716931,-0.484244969903598,-0.108281103197565,0.36436037042065,0.253535398979167,-0.325636759718053,0.0942874636679372,-0.161124391552562,0.273343510025956,0.100029188408319,0.0381669198401698,-0.389996418967241,-0.00927011272857772,-0.608117932640974,0.261471501565678,-0.109736906665359,-0.519389553493501,-0.334479450570224,-0.350400331148584,0.257954039685233,-0.570538265035304,0.0896546083018054,-0.194008025869775,-0.0299548755950342,-0.183659265085997,-0.306360575081509,-0.0961225046764387,-0.50246081833017,-0.363467487348801,-0.0503742972407268,0.204301849854531,0.324898576828127,-0.122263050700697,0.38223678926389,-0.150042142994293,0.216625210162412,0.289372392710361,0.312327542355312,-0.306018877703376,0.0705631331999194,0.544230548685185,0.0837090613461883,-0.228911018651742,0.0756771209368731,0.213996834970571,-0.0898337000552469,-0.00340364446412178,-0.328714246518996,-0.312286203579841,-0.393609899295918,0.224007643490483,-0.30730031107981,-0.0587265352157425,-0.215975312191666,0.0263830747777247,0.315828179681596,-0.441463758985542,-0.124267645203669,0.502097864799616,-0.0902942226971832,0.00968840285543911,0.417201959751679,0.136475799742004,-0.0676595902522311,0.0378478440932223,-0.0584391343803009,0.0460122319720543,-0.224537259345709,-0.218973930923054,-0.394441188485123,-0.0384226789527711,-0.253050202806824,0.105184692011219,-0.0425769198330066,-0.0750301848866313,0.112888547756164,0.0422252130163477,0.149819284553046,-0.143228172231683,-0.11397930350256,0.385580557988175,0.000697996995071232,-0.20359110713686,-0.274843671391978
-0.0372116048239534,-0.0785518590432092,0.170614787083907,-0.0281472868618819,-0.0614594217943879,0.285239039368215,0.0852983518484281,-0.218485846676864,0.120466305793575,0.361976963173083,0.0106197305293151,-0.301248283876642,0.180197542535941,0.284438001533317,0.0777233845979786,-0.389967296859913,-0.510589914434973,-0.0323609040041508,-0.317485741210344,-0.479404573936871,0.0102464904103514,-0.255647617788099,0.181282931341511,0.249227144761138,-0.0167948695403818,0.107241880837321,0.0722215072050919,-0.0459407391098637,0.0257504971661007,-0.066842419207268,-0.0537760979997561,-0.348836497660664,0.202314675132342,0.134386599862484,-0.232815991903832,0.120072271143363,-0.189374503934882,0.489064793539864,0.0193608385645199,0.0620675508931519,0.0803514756636603,-0.109558900003252,-0.375746397312431,-0.0574226331577771,0.0208708351074045,-0.372106029690357,-0.337236597958004,0.143143693594479,0.129303334280811,0.0912828739779509,-0.0255929808736308,-0.217227673147455,-0.216623215593142,-0.0124456033212064,-0.150947769616892,-0.0136257425098272,-0.0489994205810188,-0.000934916422982801,-0.0644413235466731,0.235361950700684,-0.126033442557447,-0.17445874167223,-0.381627634886904,-0.444047199830181,-0.00482262896833241,0.0735494632092767,-0.0487663839995702,-0.140066520866781,-0.0736801244697532,-0.114770055306413,-0.0704291174449281,-0.219895762905128,-0.0232491152928789,0.218308854381282,-0.294751455038946,0.454523073519002,-0.175004939319515,-0.172512720774725,-0.188812273699462,-0.0352709299940498,-0.229980372684115,0.034836403548237,-0.0684839859821743,0.191829328309845,0.168755398570474,-0.0943989169207605,-0.0451630152799259,-0.174722645210456,0.145252333401519,-0.345144645291201,-0.366816412517121,-0.442301488097544,-0.181601842360391,0.0345758449540383,-0.0179923614922957,-0.34745713717708,-0.0221752671355238,-0.445282934376831,0.0453315771729726,-0.205129024281534,-0.100174517202989,-0.0545272581156335,-0.211388454378479,-0.0086668920782464,-0.176281877925081,-0.0896602641273881,0.208917636637567,0.0633425433118446,-0.177202446933235,0.549251554784766,-0.382058542398173,-0.0178948716975888,-0.263970671096746,0.153074360880219,-0.420173809487016,-0.118312457442102,0.342049468131904,0.262958543417194,-0.324230761505897,0.101533895642429,-0.173743536291285,0.274020421984929,0.135967986481,0.0860307451905823,-0.351286163327192,-0.000574796299869321,-0.572258308258642,0.260647865399278,-0.0850294914337687,-0.518539739216967,-0.279811013368066,-0.341785991118364,0.257549095973743,-0.533105330359552,0.0856524324677613,-0.186889637502412,-0.0314846418796197,-0.164374868950807,-0.265833180227688,-0.0606978388386457,-0.474952743919333,-0.353071832349082,-0.101448360743199,0.20809870429367,0.319221134152642,-0.0848352201161282,0.408035691730709,-0.128467086998946,0.234566557521974,0.281568782511312,0.30542619055936,-0.313177215697084,0.0971069393738665,0.551030356223708,0.0428396064313809,-0.220593519192785,0.0772710043334129,0.205456517732556,-0.0652035664719989,0.0273103346482121,-0.317703901628872,-0.311122812593045,-0.351807214216602,0.198871456319053,-0.294676844927921,-0.05870233311884,-0.197070571087091,0.0346444974207404,0.305782313314109,-0.380049644702653,-0.102107221503173,0.489612745298969,-0.0691312825628098,0.0113314524020881,0.405461417917529,0.126572241528916,-0.0314082825863954,0.0638717514804687,-0.057112333180562,0.0653706642486271,-0.188301333950317,-0.197039809924694,-0.350295451984242,-0.0136742126168812,-0.237911449125114,0.100983324620035,-0.0290975621260308,-0.0308701658038966,0.126790305715272,0.0724942576068713,0.164276051047476,-0.164471911063838,-0.080431774065202,0.380901409930373,0.0420602016089464,-0.200349662730189,-0.22284707748395
-0.0136445074538631,-0.0342094882853139,0.167886423493429,0.00879386139746671,-0.0676042805724514,0.283356746292024,0.122015883945854,-0.183432367022815,0.169673254049637,0.398239918446554,0.0329101079813433,-0.296438905049455,0.168349957803848,0.280529916796254,0.102202064468288,-0.390186474395998,-0.521840077404944,-0.0188553247643699,-0.329081498487007,-0.492967380836514,0.000728017296787918,-0.2240291055107,0.19762745543262,0.24973659245244,0.022900328337749,0.131367212394684,0.0766127443061479,-0.0075941390551515,0.0577769339940044,-0.0841771140618483,-0.0496201647503483,-0.318045389208093,0.218164164876614,0.131849507849529,-0.216914347226127,0.160482044868908,-0.19436353419962,0.503282302546167,-0.00111559983963543,0.0594290280946868,0.113244540502182,-0.0786691760335473,-0.346503031508366,-0.00560010566671733,0.041286601739317,-0.354312135871132,-0.324473972590439,0.167356594331323,0.17309582422622,0.1027108363941,-0.041073481806493,-0.185174273917429,-0.181622168055762,0.0127231080784421,-0.122210805554257,0.0158755814034269,-0.0918911261999754,0.00199165735205699,-0.0363990818412981,0.274471685350753,-0.12331598827196,-0.137221674483329,-0.338722235826493,-0.404185881487221,0.0226142831234674,0.12311129648416,-0.0132141793435399,-0.071430267141781,-0.0260683043117924,-0.139976627234277,-0.000609801100013877,-0.221383110356048,-0.00948686193381229,0.229465799615847,-0.277332064523423,0.474362543604421,-0.165191502910826,-0.187560188105921,-0.159382740472678,-0.0135030422231654,-0.191541031498157,0.0573298575434208,-0.0688615852185636,0.248801424932676,0.201133117214894,-0.0675345102561041,-0.00924442573067179,-0.164860338777062,0.190037984734497,-0.351159223282132,-0.404569634562857,-0.431462338062439,-0.137064323153154,0.0672000899376782,-0.0125646518218689,-0.346657882717857,-0.03465978300497,-0.416435359703388,0.0584587203694115,-0.229671022866433,-0.107411078633933,-0.0296668201660952,-0.173960298231338,-0.0209722434648889,-0.160879655272633,-0.0507658367554383,0.204396630262251,0.112117417505079,-0.158165007465467,0.553648174408917,-0.369578742425417,-0.0238638558660235,-0.218645565195106,0.155574101557771,-0.357101336574372,-0.130769796226088,0.32002283710728,0.273420309611632,-0.322703686030246,0.107455079330039,-0.182488863294256,0.273283566399707,0.170195765225186,0.133257083465603,-0.312698773142276,0.00629122108939728,-0.536208673830355,0.2609465744718,-0.0583810215014526,-0.515921427875982,-0.221962897812682,-0.331492253943099,0.256974590512557,-0.495353471659677,0.0844433679155869,-0.180123007037343,-0.034717580253906,-0.147475133876897,-0.222515112251629,-0.0222888549313286,-0.448319676227967,-0.342479740179144,-0.143062715847344,0.21045294403548,0.30951766785525,-0.0463417239714095,0.430542377381298,-0.109353316278256,0.252155239902742,0.270494227653178,0.297374429445677,-0.320485564470728,0.124672186877327,0.556048996354966,0.00700715308879416,-0.213744336602678,0.0805806099096964,0.197992429304934,-0.0397526824619609,0.0588380641065501,-0.304290900697664,-0.308437399463031,-0.31336873076153,0.172930106449459,-0.281108973962836,-0.0591214207228184,-0.179183501046813,0.0413603739607926,0.295551600924018,-0.319807511020531,-0.0802694037229355,0.473799748604691,-0.0487369375584916,0.0128402560780853,0.393194884348253,0.116287449910311,0.0044178329782593,0.0885064262060206,-0.0570405226552784,0.0844536710635719,-0.155008503632764,-0.176932609122952,-0.305829013814551,0.0103985918164078,-0.223056848733073,0.096660272202864,-0.0157418812731773,0.0109788875602374,0.141854336567006,0.102199758134065,0.177491453946421,-0.187665788847299,-0.0426680727118118,0.375530016864831,0.083752831017953,-0.196858208112833,-0.171913269148332
0.00998256958438888,0.0103783302295923,0.163486660614154,0.0441351041756089,-0.0757171769973557,0.279611285299222,0.155968814952366,-0.148051496090452,0.220683621990837,0.433398827059332,0.052583984668398,-0.29152091263082,0.154969282818701,0.276556022301777,0.125144242073365,-0.389963764952036,-0.531420328228835,-0.00836245370953851,-0.340747869234525,-0.506974424885137,-0.00950159639811413,-0.191913585194416,0.214547262914413,0.250212007201622,0.0621946718757054,0.153546981506691,0.0816406516197924,0.0308493631136037,0.092429558353062,-0.104043097207139,-0.0463875140753271,-0.288280905441163,0.23159317623305,0.127569708643603,-0.203141985766068,0.201151312632427,-0.196966277195264,0.514657787531791,-0.023712311690727,0.0546689522226154,0.1378259887052,-0.0471878209277503,-0.314698109368528,0.0448986293079851,0.0622325634310075,-0.337190008676175,-0.310245895914203,0.191891377488052,0.216873143659238,0.111616890932023,-0.0571977963785744,-0.152904581419585,-0.147341121353291,0.0418061598871667,-0.09286826700431,0.0453831857857892,-0.132807427472411,0.00527193741791114,-0.00846431652606743,0.308824844969409,-0.120498206741927,-0.0993657862498564,-0.295889357905476,-0.363842180043727,0.0479582110523342,0.169578413072656,0.0213095169059516,-0.00135111933470666,0.0212969972157686,-0.168809644132334,0.0666613481829732,-0.225750513703855,0.00168940088406597,0.240660946712874,-0.262032609609826,0.490909617115802,-0.156421199339217,-0.203240420718593,-0.130470982678575,0.00798461347930879,-0.154255633572959,0.0788358343310764,-0.0697442866985504,0.304526721771613,0.230617811898721,-0.0429001899454593,0.0283005584644702,-0.153315973188387,0.233030185146291,-0.356082963588019,-0.43935164343198,-0.420267598320838,-0.0927263763867247,0.0982158697033464,-0.00507022082308318,-0.34629161644539,-0.0465209634379657,-0.387378287003663,0.0714613256140865,-0.255661902810372,-0.115472197840774,-0.00393721511958981,-0.132082792432384,-0.0335759097638551,-0.147060628083545,-0.0118142024657329,0.200292080999464,0.160740703348471,-0.137327292792075,0.556426196483131,-0.356977396099149,-0.0310861406959608,-0.172101029885313,0.156664870711781,-0.294967478010811,-0.145480857517359,0.298628324912459,0.285088845518029,-0.320884849961071,0.112016089041019,-0.187627493020932,0.27117671214762,0.202940731342992,0.179420291238098,-0.274792192689787,0.0115404820002871,-0.500319759585104,0.262285549453437,-0.0301748292955248,-0.511660571636807,-0.161115123116344,-0.319865749204702,0.256564372628708,-0.457094386590112,0.085528184895165,-0.173788011495937,-0.0398563880014448,-0.132885961290324,-0.176322619892444,0.01893193064615,-0.422401402113074,-0.332402435419762,-0.175137895648329,0.211290657436492,0.296560422349176,-0.00680833207154474,0.450142209713538,-0.0928230427365627,0.269716781204669,0.256273279688803,0.288285500584078,-0.327894105533867,0.152694684240441,0.55886797562897,-0.0236500472448935,-0.208456144611417,0.0853602445144039,0.191604140440526,-0.0138727797189762,0.090731425401299,-0.288975698469524,-0.304731721930557,-0.278492783740359,0.145746285100943,-0.266709430514554,-0.0602116151655831,-0.16252803354133,0.047065957526172,0.285241204448251,-0.26100679603458,-0.0591184344580945,0.454464874992844,-0.0297115787323292,0.0143858800542097,0.380598830070125,0.105374660496227,0.0398113462986139,0.111773189438735,-0.0583123111092622,0.10293421964924,-0.124910142683604,-0.158308064831085,-0.261210863641478,0.0339310934288263,-0.208672645744205,0.0924736476925601,-0.00282462565821941,0.0509186361327127,0.157693739396892,0.131764433518358,0.189066329021714,-0.212045044602216,-0.000600275818594673,0.3692379563563,0.125869830317581,-0.193767010838959,-0.1219399091922
0.0334784892351127,0.0552190647177081,0.15730042219739,0.0778806047200612,-0.085787832895424,0.274141217394231,0.186615351690361,-0.112457496361143,0.273699753993924,0.467219418735276,0.070239135751162,-0.286302687551697,0.140383913875539,0.272680414445656,0.146674078938376,-0.389051541226758,-0.539531700540778,-0.000744434056696659,-0.352575720189753,-0.52138842850757,-0.0201916536745728,-0.159701300801578,0.231391945390823,0.2502836647241,0.10144547501187,0.174367586433042,0.0880435214020991,0.0692336208460196,0.12980165359704,-0.126611979822236,-0.0440453646265481,-0.259287495598667,0.242394445353101,0.121628188676042,-0.191284658507334,0.242190631789368,-0.197246885091025,0.523339700470405,-0.0481680176375138,0.0479685973142983,0.155782025249763,-0.015158216233532,-0.280333891891884,0.0943530545900142,0.0837553086714512,-0.320903563695729,-0.294246946618477,0.216840535688266,0.260608856724245,0.117333917497445,-0.0737817467166091,-0.120327420273763,-0.113965896125601,0.0748826488622231,-0.0633769284100771,0.0749976818987736,-0.171523072882775,0.00895626417182039,0.0197277440851929,0.339303494911618,-0.117229158628588,-0.061101055103244,-0.252581498970797,-0.322982648344515,0.070985588344568,0.212281537861115,0.054767201337162,0.0707024158510768,0.0684649932652744,-0.201469627316107,0.131562149420891,-0.232758301725022,0.010669811174897,0.252062760960327,-0.248651885751251,0.504149750335467,-0.149007949751466,-0.22010377642911,-0.10214320465119,0.0286644115609717,-0.118103239956992,0.0997122139837589,-0.0711592774827945,0.359208994711522,0.256797689536289,-0.0205212076272376,0.0675945911370089,-0.139596088227457,0.273682720773925,-0.359477268330868,-0.471056831703535,-0.408228021907151,-0.0489584905702699,0.127405088412073,0.00532311553762156,-0.346464843279069,-0.0581200125238022,-0.358141729984293,0.0843627111397008,-0.282967359547379,-0.124019055228946,0.0222209197632261,-0.085957252701199,-0.0459860399809626,-0.134752959465327,0.0264524687342754,0.196553368676611,0.209483132371332,-0.114683901342066,0.557595324090345,-0.344116093293696,-0.0395046310971499,-0.124514213220565,0.156988374803072,-0.233452314211961,-0.162176596371037,0.277881579652418,0.297818497181241,-0.318579877224445,0.115124078453436,-0.189615326589821,0.267853940508071,0.23432588447717,0.224447785901447,-0.238274818293196,0.0156979642072647,-0.464757965051498,0.264611810467423,-0.000584364679519926,-0.505764786172014,-0.0977976345106813,-0.30697767147318,0.2564921286993,-0.417919404012284,0.0882214619658264,-0.167739031290233,-0.047005445952098,-0.120357518468275,-0.127231293275379,0.0625689525886379,-0.396836980113051,-0.32361834915818,-0.198198407530349,0.21050273022491,0.281675279961906,0.0338422405366843,0.467383550093908,-0.0784379112305243,0.28773164819136,0.239186759036427,0.278020275232918,-0.335016369762204,0.180434680781576,0.559229939425029,-0.0492210410785752,-0.20453014134637,0.091366831174087,0.186146855522793,0.0122044027109922,0.122491024803138,-0.272294551360099,-0.300542478110939,-0.246635302067317,0.116801013772788,-0.251370426464042,-0.0620345878896033,-0.147009109827052,0.0521825803300748,0.274751846152926,-0.203703289234409,-0.0388642388650263,0.431435271136004,-0.0121130448391574,0.0163148361090801,0.367598094139339,0.093273694188991,0.0748472466906367,0.133801510701489,-0.0603423154177077,0.120847633653232,-0.0977839687201499,-0.140606961132422,-0.216493190516757,0.0572129134541616,-0.194469387884617,0.0887749028727572,0.00957862675635272,0.0895806345160252,0.174127170164506,0.161382079353984,0.198706780022647,-0.236527190738115,0.0457605969764558,0.361817212233706,0.168831897818372,-0.191341173786349,-0.0725583315056376
0.0568127756944291,0.100324042805787,0.149365191438573,0.110536428505869,-0.097878320244706,0.267105510522956,0.214617875816278,-0.0767683443224683,0.32877618119277,0.4992513320606,0.0863599196977776,-0.280512455523303,0.125064095325846,0.268872819593866,0.167027303911297,-0.387026165681955,-0.546378362939463,0.00405147216685057,-0.364308372854089,-0.535863473869529,-0.0309486896641232,-0.127775226218602,0.247297030721276,0.249640295887524,0.14122676417927,0.19442669552591,0.0963661216322735,0.107419568237575,0.16969717178516,-0.151558288924771,-0.042663809794366,-0.230524274182014,0.250736378706531,0.114055804930918,-0.180674831602516,0.283623414590896,-0.195541260682414,0.529432280557241,-0.0744625356687284,0.0394213282566964,0.168638932020519,0.0174811854637384,-0.243951259044854,0.14318013669226,0.106010240302065,-0.305477777149944,-0.276253035749857,0.242235797579554,0.303961215933487,0.119402753692682,-0.0906270072536186,-0.0872324142369197,-0.0816689912761834,0.111759460851792,-0.0340515741422378,0.104863073604029,-0.208005102541725,0.0130201795247522,0.048332385352184,0.367253078286003,-0.112907333057802,-0.0223167236333053,-0.207867362772774,-0.281331432433317,0.0917108518343882,0.25084744740339,0.0871872673890797,0.145115803921603,0.115623474974893,-0.237800951905302,0.1944175451781,-0.24191103604986,0.018064726347343,0.263688185251171,-0.236720119479562,0.513945243841912,-0.143122018287634,-0.238232881152532,-0.0742657488621806,0.0483659183796009,-0.0827852837872419,0.120426221431168,-0.0727815527894125,0.41320003526632,0.279628767336624,-0.00053358425703202,0.108739192368089,-0.123666913272728,0.311539307684208,-0.360852152391727,-0.499346995445281,-0.394775061008236,-0.00618998517897208,0.154749430627412,0.019073679238004,-0.347016882585858,-0.0697636766461957,-0.328605208163286,0.0968147734358279,-0.311055872685309,-0.132391445684875,0.0484586699455195,-0.0358809465776811,-0.0577765691126285,-0.123473430112548,0.0632980366347357,0.192956442703595,0.258512301620975,-0.0903561165494269,0.556964622823541,-0.330869893309981,-0.0490148817064166,-0.0757475832232152,0.157272080960924,-0.171848592078748,-0.180268130264157,0.25746961805023,0.311177626761606,-0.315434362440279,0.116713747118912,-0.188961423397461,0.263383295367715,0.26436865881271,0.268703698127959,-0.203753771269022,0.0193393385323411,-0.429482949359422,0.26798433101802,0.0303356871739292,-0.498044442754657,-0.0325822302789746,-0.292697718945616,0.256852442323552,-0.37734645974134,0.0918655676963992,-0.161711981701955,-0.0559906188281849,-0.109614142853108,-0.0752714914644942,0.108141680344687,-0.371138381150932,-0.31682222224748,-0.213314686582059,0.20793961942027,0.266505587427479,0.0754792572981054,0.482612962727273,-0.0653782160200162,0.306741786683022,0.219533619545397,0.266249110816688,-0.341462898423997,0.207091938222258,0.557006927071693,-0.0698840667273367,-0.201590357591091,0.0984322424262414,0.181301219412411,0.0383483419099999,0.153755331647541,-0.2547285943266,-0.296297720059468,-0.216729897581265,0.0856111798941762,-0.23501854639543,-0.0645426805568635,-0.132297467552107,0.0570988215152755,0.263772061218947,-0.147793970775387,-0.0195824225467261,0.404765009155946,0.00452408276762946,0.0190152639924851,0.353893686229184,0.0794947803504437,0.109786865962432,0.154633644761278,-0.0619433044688951,0.138561855239972,-0.0730831899732558,-0.122976688250368,-0.171739211454614,0.0804349153470002,-0.179821554331569,0.0857698093462729,0.0216477490508584,0.127843393208221,0.19107301091732,0.191148995895267,0.206393594015826,-0.260041068867511,0.096229187439272,0.353082444234682,0.213339594080985,-0.189442105038682,-0.0232715236995345
0.0799703945292693,0.145779221216629,0.139789067195137,0.142779658292429,-0.111908153935144,0.258668042911361,0.241712687944245,-0.0411818239273227,0.385764631952934,0.528911953977772,0.101168238218772,-0.27401312767905,0.109595397496702,0.265096580249688,0.186416326918547,-0.383403446308194,-0.552111947727183,0.00599773658983405,-0.375299307157479,-0.549856662481586,-0.0415510771156139,-0.0963253797582805,0.261400450410857,0.248327061110276,0.182171930453306,0.214244150869287,0.106860791021918,0.145345002234279,0.211752756928959,-0.178174907783883,-0.0424360912110409,-0.201402864402012,0.25699963269104,0.104831327726552,-0.170702173959045,0.325370383320621,-0.192268014865811,0.532952964027016,-0.102731190183284,0.0292185864115067,0.177654703457829,0.0509165703809375,-0.206330034715019,0.191771583769484,0.129093620580348,-0.290635527111829,-0.256079003147991,0.267984919049903,0.346317721006529,0.11780068815764,-0.107597733304662,-0.0534347855069051,-0.0503371520563773,0.152215297663444,-0.00504334709060001,0.135063764665667,-0.242281466407269,0.0174982145032918,0.0774365642584262,0.393997476191152,-0.106908664247148,0.0172600271694765,-0.160713315330811,-0.238571895194283,0.11020967520969,0.2851844781538,0.11843866442309,0.222138792452583,0.162833860857343,-0.277217960312144,0.255665304358731,-0.252736373432826,0.0244380544790614,0.275322173011888,-0.225526288655172,0.520073836731413,-0.138842256445581,-0.257213310750299,-0.0466418373986951,0.0672464666893753,-0.047629965224454,0.141631796021127,-0.0741947204499388,0.466967336806214,0.299396532702476,0.0168101020449856,0.151732799418227,-0.105981600660289,0.346436531616827,-0.359970949475399,-0.523664281265265,-0.379451073306166,0.0352261107608573,0.180273766056075,0.0362404622627355,-0.347752078962352,-0.0816765916859823,-0.298734717913025,0.108478161198743,-0.339185100333952,-0.139721548680192,0.0745218055831533,0.0178573035141879,-0.0685877375303811,-0.112404344431328,0.0980403508163314,0.189327570307683,0.307857694024562,-0.0642940007841261,0.554240219652166,-0.317012639720475,-0.0595334088274947,-0.0253330555810761,0.158049966205955,-0.109257186427765,-0.198698652092239,0.237169570139984,0.324842694868071,-0.311011789496163,0.116775358746845,-0.186163022826789,0.257677468141371,0.293066932489909,0.312971035253961,-0.171412422462239,0.0228759577040372,-0.394432908522777,0.272553953085494,0.0625887624603236,-0.488165504158628,0.0340572373134377,-0.276782652081237,0.257754387531003,-0.334966232975738,0.0961131339614147,-0.155353267187058,-0.0662296027434187,-0.100365820047678,-0.0204332309081911,0.155291630690982,-0.344849683305842,-0.312402357822064,-0.221814827510081,0.203556373285451,0.252520417534194,0.117599219551262,0.495982845393807,-0.0528530071644203,0.327185877875005,0.197645049860247,0.252913227763668,-0.347121178109097,0.232035186026951,0.552250088691308,-0.0859371214349167,-0.199178149982855,0.106430914033176,0.176579693225191,0.0646181872703218,0.184635315528731,-0.236485056059746,-0.292114825462326,-0.187667553035411,0.051949960691788,-0.217772720733018,-0.0676862827961973,-0.117991275330004,0.0622474551138223,0.252081939585185,-0.0929511092634514,-0.00118052622481061,0.374789207764887,0.0208185919963786,0.0227870755652799,0.339402993214767,0.0638218081356966,0.145158200812097,0.17437494884331,-0.0618685163229252,0.156485224391948,-0.0501190362807554,-0.10460798553542,-0.127178035115724,0.103650552037274,-0.164064841643709,0.0834983048480113,0.0337398696467015,0.166663189329123,0.208449830989387,0.221248813691159,0.21235215905053,-0.281903994698717,0.150360449260255,0.343057925844228,0.260033659374377,-0.187777818549862,0.0264479488230429
0.102792620737741,0.191767279651353,0.128837914817024,0.175315897698491,-0.127596176839956,0.249123911573654,0.269846405496198,-0.00586725719084264,0.444660123754217,0.555921600673974,0.114552986774678,-0.26701972290612,0.0945691234518148,0.261311397675031,0.20525123014261,-0.377976194047008,-0.556956794985049,0.00514473392859569,-0.384680150665084,-0.56304275852149,-0.0521829025652939,-0.0653655663442024,0.273153683811358,0.24675868201063,0.224748894727278,0.234084555819713,0.119440169437954,0.18307580469317,0.255610970866094,-0.205678061812072,-0.0435158995488657,-0.17148488462436,0.261500066761271,0.0940071833276463,-0.161013193110082,0.367350963714167,-0.187766252235271,0.533957972215104,-0.133096929757273,0.0175180299940942,0.183727732779377,0.085334897394758,-0.168215506371155,0.240501717752939,0.152980724365551,-0.275872011027966,-0.233547129431892,0.294127386415923,0.387066692392242,0.112613799890819,-0.124560020141381,-0.018791997857782,-0.0195655444630539,0.196123960841316,0.0235922578359311,0.165737267974116,-0.274532395609156,0.0225998149176867,0.107102358943523,0.42036931519291,-0.099029709469815,0.0576971043535768,-0.110157313354301,-0.194526557797504,0.126581834860477,0.315515102834449,0.14822871056586,0.301880303208481,0.210001878597831,-0.318883735439912,0.315926312552204,-0.264824003249037,0.0302086855631247,0.286427822947962,-0.214259413935892,0.522563080291412,-0.13609389768311,-0.276352874080372,-0.0190336178290917,0.0854437239190916,-0.0117896127178507,0.163981548940124,-0.0753831423335837,0.520959817624423,0.316609143767502,0.031481087072077,0.196513506143253,-0.0871773614104969,0.37867861464359,-0.356956548313429,-0.543325188360866,-0.362221534041025,0.0750271736634672,0.204045953452333,0.0565174182824746,-0.348478598563136,-0.0939073062641295,-0.268736004265902,0.119274494838477,-0.366458935104854,-0.145190407795644,0.100348645513143,0.0749233633471075,-0.0782806709991427,-0.10062750300094,0.130278081586822,0.185618396439559,0.357332209270506,-0.0361290345597544,0.549379872366191,-0.302330023380578,-0.0709156126512054,0.0271941733686081,0.159543600163028,-0.0449402688851487,-0.216282656615482,0.217037296994363,0.338760043275202,-0.305003490995128,0.115411510745681,-0.181705985302622,0.250504838908441,0.320495608314785,0.358119106855367,-0.141107960399583,0.0264917938512988,-0.359691728599254,0.278391609285035,0.0961289133870295,-0.475886079474297,0.101713015833167,-0.258940220706356,0.259260512972271,-0.290344179991604,0.100979087696567,-0.148181130904669,-0.0771052700465373,-0.0921309095314778,0.0373040630242786,0.203886899592633,-0.317627256438707,-0.310436210443159,-0.225032666432372,0.19752013245166,0.240636758803467,0.15950989142335,0.507604011848987,-0.0403667727514261,0.349205660112677,0.173793409484525,0.238381171782275,-0.352283787981003,0.254923949175795,0.54523513996143,-0.0978361911360014,-0.196702466978195,0.115133170412886,0.171576048960333,0.0913847738287435,0.215720243400125,-0.217586622148437,-0.287995347900973,-0.158721090896151,0.0160472055161442,-0.200031107987447,-0.0714074345109318,-0.103803268679052,0.0679672823621721,0.239775696710692,-0.0386958561633734,0.0165865371933977,0.342081489266494,0.0371916293192376,0.0277601819480497,0.324436970751064,0.0463769198791695,0.181547643217642,0.193182186920548,-0.059368484289564,0.174748649892502,-0.0282464590583516,-0.0849740282702235,-0.0831851884285764,0.126819442495821,-0.146957708788047,0.0820192081461892,0.0464193717676998,0.206777129395182,0.226055816880392,0.252025157982669,0.216968867382123,-0.301788054151736,0.207622064484188,0.332050472604342,0.309032192303813,-0.186171579650847,0.0771257568397419
0.124892326533091,0.238532164279923,0.117245888859853,0.208773830290918,-0.144662004926417,0.238817998974767,0.300346752024733,0.0292640905042094,0.505664584069283,0.580549949462473,0.126025574827122,-0.259986270431418,0.0804395746665492,0.257410530284249,0.224146560616605,-0.370983835947813,-0.561278605471308,0.00184751900831546,-0.391718814802268,-0.575337389362419,-0.0634195385358493,-0.0349924365066359,0.282411774439969,0.245280708252978,0.269134205318506,0.253723152008808,0.133775780852881,0.22089798207746,0.301016400190641,-0.233511248234578,-0.0458680918504819,-0.140486232413203,0.264363958212968,0.0816689039266609,-0.151247142329379,0.40943481679036,-0.182315997780789,0.532612069869083,-0.165429518641786,0.00427037064297181,0.18733091503614,0.120601083028456,-0.130233461904917,0.289754975443422,0.177495686937206,-0.260625315809188,-0.208572525047971,0.321081661026037,0.425933253583895,0.103775052622299,-0.14125465735898,0.0166405982746525,0.0110622078529962,0.243292939016157,0.0518420850590074,0.197143635837813,-0.305133614716107,0.028588141884634,0.137179650748558,0.446471149528306,-0.0896519412109296,0.098756775048592,-0.055422403984927,-0.149341276497486,0.140989183867493,0.34248403141961,0.176201569423185,0.384290562239096,0.257073153364882,-0.361906153548433,0.375984439922911,-0.27781350002911,0.03571811702359,0.296283178310957,-0.202170409810864,0.521849433418825,-0.134318969631879,-0.294896794690979,0.00880413716804772,0.102808984444735,0.0253723551399842,0.187759421579324,-0.0768647422006953,0.575350773153365,0.331781753269972,0.0439309229040155,0.242985719940997,-0.0678054636751351,0.408973174905206,-0.352131686589384,-0.557634415914186,-0.343544956603906,0.113006558589045,0.226194178428938,0.0792486819158181,-0.348862548037064,-0.106380084050058,-0.238853611982383,0.129156877522848,-0.392063737347163,-0.148421960313865,0.126186531821583,0.134776072933967,-0.0870155945316245,-0.0874620765201857,0.160107440829067,0.181741669440474,0.406564712547893,-0.00528043470632267,0.542753633071486,-0.286894026639054,-0.0829428070536692,0.082023377119525,0.16172855762148,0.0214366330160799,-0.232085873222859,0.197193182418536,0.353029866150054,-0.297170485624704,0.112840534749832,-0.176122123647854,0.241432903745222,0.346846527793524,0.404455135484252,-0.112618110683914,0.030183373067325,-0.325473651885735,0.28543516313633,0.130895205343548,-0.461342189632495,0.170038250215711,-0.238943492212703,0.26126082613611,-0.24281940675552,0.106656550420111,-0.139512942064645,-0.0882545294094222,-0.0840761691627283,0.0978273203348099,0.254084729530184,-0.289105989273821,-0.31070615932237,-0.224231834593956,0.190066117917793,0.231051055137116,0.200760393112222,0.517511942776501,-0.0278472343831438,0.372397147891014,0.14806844901471,0.223119139158618,-0.35767477677936,0.275716445989958,0.536409858557744,-0.106238997723316,-0.19360194500624,0.124184017425932,0.16616737617943,0.119256989192977,0.247631589807875,-0.198140314848455,-0.284037870637669,-0.129698687803006,-0.0213420481161852,-0.182276207239433,-0.0755074471264057,-0.0896412978301471,0.0744028691650554,0.2270995018945,0.0153353504624301,0.0339872913677143,0.307339409668682,0.0537509993933079,0.034003744914201,0.309355179605058,0.0275209469706367,0.219266347456725,0.211187860128248,-0.0545683847627276,0.193244635547605,-0.00697700946625778,-0.0639877774471847,-0.0401534613641365,0.149871313132969,-0.128785895232507,0.0812739877980684,0.0605491152514207,0.248371737376683,0.243662009651515,0.28374702808893,0.220590943514682,-0.319377986771435,0.267851750816356,0.320367124369781,0.359674408351196,-0.184673633005188,0.129140233509709
0.145834490898452,0.286301837928479,0.106085620053297,0.243483119760394,-0.16298915334724,0.228082526243085,0.333597384400752,0.0644329819025345,0.568922910196923,0.603409853930547,0.13496818482291,-0.253319015349352,0.067333384236006,0.253092416967834,0.243515195586125,-0.36294441905513,-0.565607191306236,-0.0030148454165619,-0.396074560343012,-0.586605965274545,-0.0759586084899732,-0.00535999028951331,0.28922602994917,0.243775118440577,0.315284420466511,0.272505570945094,0.14951104520047,0.259329436842166,0.347879980276781,-0.261436118163607,-0.0493906961720996,-0.108253238772681,0.265445729368347,0.0678549298485433,-0.140982277329287,0.451274638725411,-0.176218188938978,0.529135974587497,-0.199192978365712,-0.010793386249576,0.188563127860527,0.156360686217721,-0.0927842763059455,0.339874926333237,0.202320231116348,-0.244275738159013,-0.181285127809029,0.349543467025399,0.463079117152612,0.0912317846895594,-0.157318479349998,0.0523972278444194,0.04168002696038,0.293491344334452,0.0797712082164718,0.229631805895753,-0.334383234587807,0.0356485513040592,0.167306179226154,0.471964698065504,-0.0794332591529507,0.139862488219283,0.00378602106839726,-0.103431618293998,0.153666893322966,0.367112686234214,0.20204731008639,0.469225048582336,0.304102468925597,-0.405570706397807,0.436527506388043,-0.291503330763879,0.0412670697440143,0.304377603620937,-0.188798753458941,0.518766856442457,-0.132456656570531,-0.31227190422367,0.0369520311778558,0.119098295713088,0.0640030996774567,0.212761487798062,-0.0792528230316357,0.629998265663312,0.345384302361569,0.0549218470916433,0.290907874144427,-0.0481773788605524,0.438062256452824,-0.345956304604005,-0.566155110109794,-0.32412447738993,0.149128596482993,0.246833911326017,0.10379031997522,-0.348424455447851,-0.119214694949135,-0.20926120479496,0.137768128121469,-0.415542618496599,-0.149392624164099,0.152342295904565,0.196743703988693,-0.0951025377186796,-0.0727404353058313,0.187905299022262,0.177406175612145,0.455255344146439,0.0286067193315103,0.534985113156409,-0.271280921296216,-0.0953274784957785,0.138945884025734,0.16446529183,0.0897487344492405,-0.245533445822952,0.177557460266327,0.367741523394451,-0.287354015627405,0.109308349060869,-0.169832331007657,0.229754561540921,0.372261831837863,0.451627930494268,-0.0856898048093789,0.0339200907042459,-0.291884030047257,0.29349325673547,0.166932846987934,-0.445135230741488,0.238732722424875,-0.216864579909666,0.263360167309657,-0.191588700533657,0.11324750808644,-0.128737517363679,-0.0994750251139844,-0.0753186673906909,0.160823658008874,0.306333552906991,-0.258696265327309,-0.312802196024066,-0.220402365727992,0.181150075175283,0.223376770510747,0.241313723274245,0.525697530405457,-0.0156262287928115,0.395967799264054,0.120483209959861,0.20720851603598,-0.364303269144818,0.294433848045979,0.526148571026511,-0.112062512737169,-0.189652792595871,0.133322868661295,0.16041427969117,0.148824813034822,0.280709283069631,-0.178301120835715,-0.280296452867543,-0.100626421365685,-0.0593732958866389,-0.164820381073346,-0.0796669560148137,-0.0756175113015903,0.0816272130477896,0.214063706695469,0.0692193568490516,0.0512854350010955,0.271177625408669,0.0703394622830959,0.0415722314545586,0.294063883371578,0.00750812072854359,0.258247932592807,0.228634255189464,-0.0483804367135078,0.211946781799689,0.014208510144786,-0.0419234486402438,0.00177127887398376,0.172891442959942,-0.109968090807237,0.0809091442691438,0.0770920204967373,0.291034976025916,0.261179933369029,0.316281027098174,0.223329672192386,-0.334395152025207,0.331194468875152,0.307870687779052,0.410829035967316,-0.18337613659516,0.182509660086292
0.165425267482319,0.335234172986875,0.09625881638605,0.279477923974223,-0.182732452605257,0.217144537113449,0.3692592456316,0.0996936884690306,0.634623770890813,0.625158232244126,0.140990179324464,-0.247214720175095,0.0550133330266032,0.247919130048876,0.263319346499375,-0.35419508044627,-0.570458667909659,-0.00822429959455626,-0.397761695531989,-0.596712171232098,-0.0902512460616085,0.0236484312219225,0.293783185502087,0.241844935171263,0.362962823407611,0.289666134332513,0.166391274826838,0.29888575767294,0.396303494295306,-0.289424604592829,-0.0540723623828179,-0.0748001578019349,0.264580599080015,0.0525624417610556,-0.129906711413669,0.492428978347801,-0.169699337517225,0.523680986470863,-0.233592123934752,-0.0279682323654626,0.187327985143218,0.192512080155356,-0.0559336641850287,0.391005107364255,0.227146183569183,-0.226137227026835,-0.152097459557249,0.380101207252961,0.498943872173948,0.0751049640719048,-0.172467846315831,0.0879027645028728,0.0720493079462412,0.346736593671727,0.107466711238014,0.263434550461384,-0.362301490798166,0.0437243945063626,0.197269104381749,0.496598285664854,-0.0688925850693754,0.180235641905075,0.0670918634960467,-0.0571794126129437,0.165009676440015,0.390466263381651,0.225637528641985,0.556486026458744,0.35120152418336,-0.449661051391885,0.497871359723354,-0.305773185468801,0.0470608704904777,0.310661497816176,-0.174069783992492,0.514298600002333,-0.129555931161202,-0.328199424252312,0.0652840629566758,0.134185611137873,0.10381991361841,0.238389242153479,-0.0828480319120287,0.684649911162925,0.357881842927168,0.0652473731755219,0.339944941557013,-0.0283452808814414,0.466400495544095,-0.338962642990101,-0.569051334289015,-0.304524274859104,0.183639873409518,0.266069287911677,0.129858746140795,-0.346824360865743,-0.132671094075278,-0.180082483061446,0.144563597256198,-0.436925851289912,-0.148209834926491,0.178973211275927,0.260113968743926,-0.102826149663956,-0.0569628356641631,0.214038838767088,0.172114732828458,0.503297313561995,0.0652497535038218,0.526549383949159,-0.256490544794794,-0.107815918202088,0.197330068588806,0.167610421612521,0.159592495827864,-0.256471661814055,0.157890560994015,0.382765114442285,-0.275721279895291,0.104941940762608,-0.162928116460361,0.214700177038335,0.396695453786613,0.499002419354563,-0.0599960008205753,0.0377906323491518,-0.258661342907639,0.302087511011834,0.204287490723614,-0.428129116618405,0.307526818262002,-0.192999089702166,0.264863100867615,-0.136161240605462,0.120627906901841,-0.11574511717244,-0.110464730042258,-0.0655158452069652,0.225757402298968,0.360986843596593,-0.225707314248326,-0.316244360618294,-0.214128915886229,0.17043784741527,0.217178947115984,0.281458485566973,0.532268439254898,-0.00420930495114633,0.419220311179151,0.0911479257807603,0.190257918721057,-0.373126672430693,0.310972064850405,0.514615294402173,-0.116358564622201,-0.184872917464373,0.142630848284453,0.154434327436093,0.180269942400707,0.314990354839388,-0.158115796060626,-0.276724228214433,-0.0714353356408333,-0.0976312377403182,-0.147702709535399,-0.0836100522319321,-0.0619111044442091,0.089740533665851,0.200331526769511,0.122969446216286,0.068818858754799,0.233996178351745,0.0867452087486457,0.050358870343303,0.27793977995203,-0.0136339844725233,0.298205307510003,0.245787016691989,-0.0418941031467195,0.230963354105538,0.0359406259896252,-0.0192341517087713,0.0429687292276634,0.196262877041594,-0.0907303878741963,0.0805314714935899,0.09662099613221,0.334184198456555,0.278627745546231,0.349184948295916,0.225160625623256,-0.34688402539629,0.39756588616734,0.29402060786337,0.461496960078147,-0.182113621565372,0.236893411886411
0.183725338774789,0.385489495173736,0.0881432197304483,0.316668391739952,-0.204455172084801,0.206079225014873,0.406810182030554,0.134856358617438,0.702902392058006,0.646266538045582,0.144103178408098,-0.241693366853779,0.0431521484466516,0.241630644741223,0.283163841291892,-0.344693177496715,-0.576152812052926,-0.0127285598138901,-0.397108956900861,-0.605829341487426,-0.106474615977472,0.052511449453983,0.296376888292912,0.239042512547073,0.411818000268358,0.304682880309195,0.184274960833649,0.339833686940975,0.446469897481147,-0.317331837829057,-0.0599494165366506,-0.0402329784468444,0.261840294590313,0.0358246150714097,-0.117880647682968,0.532542429917811,-0.162854105914785,0.516316278488802,-0.268006785407422,-0.0473919057852812,0.1834923160994,0.229320207425613,-0.0195890538768906,0.443100236136687,0.251915388907398,-0.205657564795558,-0.121666282051405,0.412903743170466,0.533911021026446,0.0556072309011393,-0.186797980573589,0.12286932904128,0.101683557889369,0.403377280663375,0.135032136486022,0.298321375481625,-0.388866538245708,0.0525169389167226,0.227078963295523,0.520391942252825,-0.0580982062740387,0.219332442794449,0.133585918591198,-0.010891951244413,0.175409519511506,0.413340475667639,0.247140967037302,0.645772009371996,0.398608052967338,-0.494450789834276,0.56001014134122,-0.320505399175557,0.0531711862018778,0.315447893559985,-0.15816510853086,0.509174834641112,-0.125401551288823,-0.342619213438389,0.093618324472276,0.14805217393708,0.144515634561938,0.26386664227907,-0.0876987961500852,0.73908486472892,0.36965849865641,0.0756909927104631,0.38986389537745,-0.00824434782017334,0.494266273059857,-0.331639316034472,-0.567027422347333,-0.284854739939337,0.217075472342571,0.284063331527399,0.157535247402094,-0.344158943518978,-0.146810651619129,-0.151474310451715,0.149190066464068,-0.456628351279822,-0.145005069219255,0.206121278644666,0.324235095592968,-0.11045069102129,-0.0410757780920636,0.23874638442023,0.165376444731512,0.550676008377803,0.103843222658801,0.517671417486988,-0.243455599624148,-0.120321804294769,0.256437892409102,0.171043403772464,0.230515514479083,-0.265255864174712,0.137912266299137,0.397765434368792,-0.262923386376984,0.0997018975698482,-0.155445792509199,0.195933904794263,0.420007840295302,0.545961053888203,-0.035275016747722,0.0420285079694746,-0.225281902866656,0.310463835952061,0.242794420044684,-0.411075015777238,0.376243397723836,-0.167565788122058,0.265074395464542,-0.076669809475809,0.128446694107851,-0.101013105277376,-0.120734773165085,-0.0549085526066075,0.291872770574909,0.417902447090072,-0.189702686014253,-0.320644777948117,-0.205811927869344,0.157641524285078,0.212343500651374,0.321582925852217,0.537482026860446,0.00589015639939034,0.441853727371842,0.0604085139650013,0.171688465300238,-0.384643596364174,0.32517720583831,0.501854659447877,-0.120028338649594,-0.179263859998018,0.152354212178787,0.148310505213847,0.213140041476526,0.350343482534431,-0.137580369407015,-0.273359927664264,-0.0420570889546244,-0.136208656204177,-0.130766597230916,-0.0873047082596816,-0.0485644408250427,0.0989512271920273,0.185399996312129,0.176713149300985,0.0869550067247296,0.195847485666499,0.102847612731109,0.060120662949764,0.260192810958496,-0.0359352351201924,0.33886950784274,0.262804412046091,-0.0357434693838079,0.250364924427439,0.0587105361246101,0.00352027688111084,0.0841475925229459,0.220538511352906,-0.0711072707623018,0.0799107957470915,0.119065322250905,0.37751505997716,0.296001293139946,0.382165793395311,0.226239233321777,-0.357237984706591,0.466371954898434,0.27819600692372,0.511164410107379,-0.180326409578203,0.291798671076784
